<?xml version="1.0"?>
<opencv_storage>
<my_nn type_id="opencv-ml-ann-mlp">
  <layer_sizes type_id="opencv-matrix">
    <rows>1</rows>
    <cols>5</cols>
    <dt>i</dt>
    <data>
      256 128 256 128 36</data></layer_sizes>
  <activation_function>SIGMOID_SYM</activation_function>
  <f_param1>5.9999999999999998e-001</f_param1>
  <f_param2>1.</f_param2>
  <min_val>-9.4999999999999996e-001</min_val>
  <max_val>9.4999999999999996e-001</max_val>
  <min_val1>-9.7999999999999998e-001</min_val1>
  <max_val1>9.7999999999999998e-001</max_val1>
  <training_params>
    <train_method>BACKPROP</train_method>
    <dw_scale>1.0000000000000001e-001</dw_scale>
    <moment_scale>1.0000000000000001e-001</moment_scale>
    <term_criteria><epsilon>9.9999999747524271e-007</epsilon>
      <iterations>1000</iterations></term_criteria></training_params>
  <input_scale>
    2.4601927603507088e+000 -1.9464322682338195e+000
    2.2314008824076890e+000 -1.6104604582853113e+000
    2.0494070961116253e+000 -1.2483491637029145e+000
    2.0882907241564843e+000 -1.3445443253745617e+000
    2.1061703178897391e+000 -1.3832189984553644e+000
    2.0607777437205512e+000 -1.2787861891837349e+000
    2.0080199215005416e+000 -1.0936537072458306e+000
    2.0018222546958291e+000 -9.5821352965350937e-001
    2.0253554578449049e+000 -8.5293987287218465e-001
    2.0204346698616513e+000 -8.6690277253488501e-001
    2.0064887118981969e+000 -9.2262650591747442e-001
    2.0030935826687659e+000 -1.0571882797418488e+000
    2.0498742508078607e+000 -1.2496505229379269e+000
    2.1197484266528539e+000 -1.4110626927421279e+000
    2.1229051786947615e+000 -1.4173761758547365e+000
    2.0983624317662026e+000 -1.3666418020382065e+000
    2.0462049525180572e+000 -1.2392937733256686e+000
    2.0068147578418203e+000 -1.0860292166693579e+000
    2.0228254024794796e+000 -8.5990147317704069e-001
    2.0280263645500374e+000 -8.4601695068778837e-001
    2.0190105702980525e+000 -8.7129920444410003e-001
    2.0294151410344243e+000 -8.4256967909018499e-001
    2.0480202274601607e+000 -8.0356349202429911e-001
    2.0666892353143433e+000 -7.7295817630308283e-001
    2.1076292656406652e+000 -7.2136120699010864e-001
    2.1032889605117644e+000 -7.2613547446239479e-001
    2.0895960587802107e+000 -7.4213828278106686e-001
    2.0752616470576233e+000 -7.6072339145614265e-001
    2.0672422116418780e+000 -7.7213957607457051e-001
    2.0361112415224887e+000 -8.2717019186851104e-001
    2.0219126299595214e+000 -8.6252225285971640e-001
    2.0012767316972169e+000 -9.6490128135401521e-001
    2.0503438459017325e+000 -1.2509538345531401e+000
    2.0007720517562220e+000 -1.0281745265969473e+000
    2.1420848190338311e+000 -6.8746472118794077e-001
    2.1335268592858641e+000 -6.9530116396369679e-001
    2.0025648033576982e+000 -9.5062228016533579e-001
    2.0602557574002272e+000 -1.2774403257689901e+000
    2.2135943621178655e+000 -1.5811388300841895e+000
    2.2857201621831962e+000 -1.6961494854295938e+000
    2.3171143379455823e+000 -1.7435825648132184e+000
    2.3033397412307792e+000 -1.7229346873888964e+000
    2.2772175464808031e+000 -1.6830625715557521e+000
    2.1669653845237984e+000 -1.5005375380928683e+000
    2.0294151410344239e+000 -1.1868454619442388e+000
    2.0052654694854266e+000 -9.3002143550043337e-001
    2.0448687496430642e+000 -8.0942721340037949e-001
    2.0471077647997471e+000 -8.0523633803878936e-001
    2.0976705483678848e+000 -1.3651506743346551e+000
    2.0101159570035754e+000 -1.1057631926175420e+000
    2.0740839529458750e+000 -7.6234931008576057e-001
    2.0131443669202622e+000 -8.9173507919632644e-001
    2.1098407141694966e+000 -1.3908622565135222e+000
    2.5051404421845644e+000 -2.0068461379603528e+000
    2.8872715283426258e+000 -2.4848294155131225e+000
    2.7576930580229280e+000 -2.3281714210094364e+000
    2.6460794662672247e+000 -2.1893157488758583e+000
    2.6769249738377039e+000 -2.2281151319938823e+000
    2.7721719666261229e+000 -2.3458955233453200e+000
    2.6138583538750093e+000 -2.1483944902633385e+000
    2.2277562337860255e+000 -1.6045149064768398e+000
    2.0457571539594714e+000 -1.2380078015032514e+000
    2.0015765661689233e+000 -9.6107446232714167e-001
    2.0168432167337400e+000 -8.7836723427193630e-001
    2.0942552671737564e+000 -1.3577339455337794e+000
    2.0066507209619582e+000 -1.0849450822661380e+000
    2.0276847438125021e+000 -8.4688023526295964e-001
    2.0055591611955532e+000 -1.0773911565351111e+000
    2.2915009806207909e+000 -1.7049858486761835e+000
    2.5752377510303313e+000 -2.0987676711025962e+000
    2.8333504132845855e+000 -2.4201534780139164e+000
    2.7612837367103014e+000 -2.3325725216357358e+000
    2.6832815729997472e+000 -2.2360679774997894e+000
    2.6961896818161675e+000 -2.2521743175488220e+000
    2.7228131746273641e+000 -2.2852182001336803e+000
    2.5365735800463245e+000 -2.0483838235691545e+000
    2.3249827075214609e+000 -1.7552696829601504e+000
    2.1377629440562251e+000 -1.4463832617523267e+000
    2.0195737684315720e+000 -1.1500350625790896e+000
    2.0000354317805384e+000 -9.9406522948616038e-001
    2.0882907241564843e+000 -1.3445443253745617e+000
    2.0043009655742998e+000 -1.0677674786839275e+000
    2.0150581803995591e+000 -8.8458655240754458e-001
    2.0219126299595214e+000 -1.1593903770998049e+000
    2.3033397412307792e+000 -1.7229346873888964e+000
    2.4688702611915492e+000 -1.9581962041891303e+000
    2.6167169726115951e+000 -2.1520420340228297e+000
    2.5725756242553963e+000 -2.0953220114223021e+000
    2.6521265475309121e+000 -2.1969500666550710e+000
    2.6282906315947980e+000 -2.1667753123564255e+000
    2.5594496066259569e+000 -2.0782832371263349e+000
    2.3996344372810254e+000 -1.8628114555281767e+000
    2.3379040200512242e+000 -1.7743021580745897e+000
    2.2000763928677070e+000 -1.5583874449479589e+000
    2.0536997447163379e+000 -1.2601322342331893e+000
    2.0049798391936808e+000 -1.0731018087747923e+000
    2.0806959096866819e+000 -1.3272693154052941e+000
    2.0035525268680168e+000 -1.0614058029241280e+000
    2.0260099179075581e+000 -8.5120555578755042e-001
    2.0095197002048022e+000 -1.1024448355290233e+000
    2.2314008824076890e+000 -1.6104604582853113e+000
    2.3495561987285929e+000 -1.7913035106378210e+000
    2.3884126908557946e+000 -1.8469917584544560e+000
    2.4015320780366598e+000 -1.8654758106177622e+000
    2.4710633027411184e+000 -1.9611613513818400e+000
    2.4559100492429180e+000 -1.9406074942678413e+000
    2.3921222902261983e+000 -1.8522335788904241e+000
    2.3546517846038233e+000 -1.7986923354612538e+000
    2.2689125699877160e+000 -1.6701717529076241e+000
    2.2301812834563499e+000 -1.6084740010642524e+000
    2.0706152860906819e+000 -1.3033783720481524e+000
    2.0058609248807899e+000 -1.0795432060990362e+000
    2.0882907241564843e+000 -1.3445443253745617e+000
    2.0095197002048022e+000 -1.1024448355290233e+000
    2.0187321841697936e+000 -8.7218042282335817e-001
    2.0023672363564629e+000 -1.0498522662841177e+000
    2.1018664175710038e+000 -1.3741368741858051e+000
    2.2000763928677070e+000 -1.5583874449479589e+000
    2.2438608229735424e+000 -1.6305833857421823e+000
    2.2205929335725747e+000 -1.5927467172350909e+000
    2.2451336435754938e+000 -1.6326219848619414e+000
    2.2078853156024150e+000 -1.5715850336753299e+000
    2.1799206514304723e+000 -1.5235655743380632e+000
    2.1809447281648109e+000 -1.5253631283295552e+000
    2.1689158600939331e+000 -1.5040398672675190e+000
    2.1253068206237233e+000 -1.4221423120145846e+000
    2.0546808118689359e+000 -1.2627725822944500e+000
    2.0148116116203574e+000 -1.1293338894499028e+000
    2.0850770911209118e+000 -1.3373039081445133e+000
    2.0131443669202622e+000 -1.1214092877239359e+000
    2.0115793826998791e+000 -8.9802651013387458e-001
    2.0000088577685950e+000 -1.0029806325416912e+000
    2.0105237545321568e+000 -1.1079820889311636e+000
    2.0345594679697916e+000 -1.2039828597658540e+000
    2.0480202274601607e+000 -1.2444567354358613e+000
    2.0301229519186039e+000 -1.1892734157816820e+000
    2.0036722603042607e+000 -1.0624631181871302e+000
    2.0003189538334607e+000 -1.0180194675759575e+000
    2.0008863598524131e+000 -1.0302182745668673e+000
    2.0035525268680168e+000 -1.0614058029241280e+000
    2.0048400438621417e+000 -1.0720325234540617e+000
    2.0071489209857414e+000 -1.0882012751177654e+000
    2.0143247783869072e+000 -1.1270626736212457e+000
    2.0237577663201352e+000 -1.1664714903095224e+000
    2.0929096072648670e+000 -1.3547852368455611e+000
    2.0168432167337400e+000 -1.1384759824618036e+000
    2.0047022600612432e+000 -9.3373780862971589e-001
    2.0021776270372125e+000 -1.0477665657362394e+000
    2.0471077647997471e+000 -1.2418714267609576e+000
    2.1197484266528539e+000 -1.4110626927421279e+000
    2.1253068206237233e+000 -1.4221423120145846e+000
    2.0909128409713542e+000 -1.3503812097939993e+000
    2.0385080992881615e+000 -1.2164311723430845e+000
    2.0260099179075581e+000 -1.1748043621200075e+000
    2.0266732055223464e+000 -1.1771995653108469e+000
    2.0471077647997471e+000 -1.2418714267609576e+000
    2.0414103941315722e+000 -1.2252512782238107e+000
    2.0219126299595214e+000 -1.1593903770998049e+000
    2.0140845094507500e+000 -1.1259291875748985e+000
    2.0138463360149221e+000 -1.1247971102940488e+000
    2.0831827096552646e+000 -1.3329889362377436e+000
    2.0129145537993525e+000 -1.1202828022633302e+000
    2.0019081190054338e+000 -9.5726162039743945e-001
    2.0283702113484399e+000 -1.1832159566199232e+000
    2.3124679997128750e+000 -1.7366451148637365e+000
    2.4935298583379324e+000 -1.9913606507559876e+000
    2.3667857705126258e+000 -1.8161793586225357e+000
    2.2289664068437762e+000 -1.6064921573134954e+000
    2.1669653845237984e+000 -1.5005375380928683e+000
    2.1650301493655406e+000 -1.4970496171704184e+000
    2.1738594173417116e+000 -1.5128595052234233e+000
    2.2350882029998655e+000 -1.6164477182409742e+000
    2.2502747085047776e+000 -1.6408253082847335e+000
    2.1593148567371756e+000 -1.4866711414440474e+000
    2.0190105702980521e+000 -1.1477113658539522e+000
    2.0000797241544572e+000 -1.0089687894172039e+000
    2.0962956320686348e+000 -1.3621762291715829e+000
    2.0095197002048022e+000 -1.1024448355290233e+000
    2.0010726451889322e+000 -9.6778066917619476e-001
    2.0551750767131249e+000 -1.2640957813116442e+000
    2.3792716660637261e+000 -1.8340219092574555e+000
    2.4710633027411184e+000 -1.9611613513818400e+000
    2.3902636515427829e+000 -1.8496087779795340e+000
    2.2973736160918392e+000 -1.7139136501002610e+000
    2.2689125699877160e+000 -1.6701717529076241e+000
    2.2885991969795092e+000 -1.7005563477556074e+000
    2.2661872794445035e+000 -1.6659174345916439e+000
    2.3018393520254139e+000 -1.7206705870547117e+000
    2.3109314936273395e+000 -1.7343449156042483e+000
    2.2464114218849893e+000 -1.6346654543180947e+000
    2.0418343983976812e+000 -1.2265185795930515e+000
    2.0000246052033614e+000 -1.0049726810868080e+000
    2.1158746579345893e+000 -1.4032363182830088e+000
    2.0126868254381312e+000 -1.1191577040258656e+000
    2.0002520002530004e+000 -9.8425098425147639e-001
    2.0435540589481671e+000 -1.2316062408839399e+000
    2.2716592537736799e+000 -1.6744472475732579e+000
    2.3738766706318297e+000 -1.8263307123759760e+000
    2.4289509213028122e+000 -1.9036420911004184e+000
    2.4229386681956453e+000 -1.8953245435240738e+000
    2.4732659212428567e+000 -1.9641362797171693e+000
    2.4799318012511438e+000 -1.9731203418684695e+000
    2.3478713763747789e+000 -1.7888543819998315e+000
    2.2464114218849893e+000 -1.6346654543180947e+000
    2.1789005611781351e+000 -1.5217718205053641e+000
    2.1659958683979026e+000 -1.4987917839360487e+000
    2.0435540589481671e+000 -1.2316062408839399e+000
    2.0000629911340133e+000 -9.9209473766568113e-001
    2.1221111415902514e+000 -1.4157933955550039e+000
    2.0184559365372210e+000 -1.1453936465270738e+000
    2.0068147578418203e+000 -9.2078554117246214e-001
    2.0032053223555426e+000 -1.0582409068991334e+000
    2.1528155704184875e+000 -1.4747213803313151e+000
    2.4053511772118186e+000 -1.8708286933869698e+000
    2.5672885346883976e+000 -2.0884688476631807e+000
    2.5860120552683696e+000 -2.1126794915808556e+000
    2.5805995774324537e+000 -2.1056975718632867e+000
    2.6282906315947980e+000 -2.1667753123564255e+000
    2.5267046628369463e+000 -2.0354009783964289e+000
    2.3495561987285929e+000 -1.7913035106378210e+000
    2.1602580615458131e+000 -1.4883920870471896e+000
    2.0764501608988279e+000 -1.3173510693400798e+000
    2.0097163963008144e+000 -1.1035496283258934e+000
    2.0000039367715128e+000 -9.9801783749610196e-001
    2.1047235718649810e+000 -1.3801808343281274e+000
    2.0213149608176293e+000 -1.1570423932458056e+000
    2.0301229519186039e+000 -8.4084953613692170e-001
    2.0158105227158782e+000 -8.8191710368819676e-001
    2.0435540589481671e+000 -1.2316062408839399e+000
    2.2289664068437762e+000 -1.6064921573134954e+000
    2.4688702611915492e+000 -1.9581962041891303e+000
    2.5699259124753833e+000 -2.0918890983988612e+000
    2.5568607698749548e+000 -2.0749128072993184e+000
    2.5699259124753833e+000 -2.0918890983988612e+000
    2.4732659212428567e+000 -1.9641362797171693e+000
    2.3218165126697548e+000 -1.7505759420922753e+000
    2.1113304649079070e+000 -1.3939389130914803e+000
    2.0126868254381312e+000 -1.1191577040258656e+000
    2.0012767316972169e+000 -9.6490128135401521e-001
    2.0000797241544572e+000 -1.0089687894172039e+000
    2.0655911179772888e+000 -1.2909944487358054e+000
    2.0143247783869072e+000 -1.1270626736212457e+000
    2.0168432167337400e+000 -8.7836723427193630e-001
    2.0297679251233878e+000 -8.4170931815632544e-001
    2.0063287291902183e+000 -9.2354814518279882e-001
    2.0000629911340133e+000 -9.9209473766568113e-001
    2.0036722603042607e+000 -1.0624631181871302e+000
    2.0054113070103852e+000 -1.0763169812426769e+000
    2.0120161281462718e+000 -1.1157906901128629e+000
    2.0124611797498106e+000 -1.1180339887498949e+000
    2.0080199215005416e+000 -1.0936537072458306e+000
    2.0017383749479176e+000 -1.0425720702853736e+000
    2.0033190589371577e+000 -9.4402435813010899e-001
    2.0107307467343785e+000 -9.0163719992454261e-001
    2.0087534360464856e+000 -9.1071460344567845e-001
    2.0069808240170177e+000 -1.0871146130092177e+000</input_scale>
  <output_scale>
    5.2701423122351498e-001 4.9933648033766070e-001
    5.2701423122351498e-001 4.9933648033766070e-001
    5.2701423122351498e-001 4.9933648033766070e-001
    5.2701423122351498e-001 4.9933648033766070e-001
    5.2701423122351498e-001 4.9933648033766070e-001
    5.2701423122351498e-001 4.9933648033766070e-001
    5.2701423122351498e-001 4.9933648033766070e-001
    5.2701423122351498e-001 4.9933648033766070e-001
    5.2701423122351498e-001 4.9933648033766070e-001
    5.2701423122351498e-001 4.9933648033766070e-001
    5.2701423122351498e-001 4.9933648033766070e-001
    5.2701423122351498e-001 4.9933648033766070e-001
    5.2701423122351498e-001 4.9933648033766070e-001
    5.2701423122351498e-001 4.9933648033766070e-001
    5.2701423122351498e-001 4.9933648033766070e-001
    5.2701423122351498e-001 4.9933648033766070e-001
    5.2701423122351498e-001 4.9933648033766070e-001
    5.2701423122351498e-001 4.9933648033766070e-001
    5.2701423122351498e-001 4.9933648033766070e-001
    5.2701423122351498e-001 4.9933648033766070e-001
    5.2701423122351498e-001 4.9933648033766070e-001
    5.2701423122351498e-001 4.9933648033766070e-001
    5.2701423122351498e-001 4.9933648033766070e-001
    5.2701423122351498e-001 4.9933648033766070e-001
    5.2701423122351498e-001 4.9933648033766070e-001
    5.2701423122351498e-001 4.9933648033766070e-001
    5.2701423122351498e-001 4.9933648033766070e-001
    5.2701423122351498e-001 4.9933648033766070e-001
    5.2701423122351498e-001 4.9933648033766070e-001
    5.2701423122351498e-001 4.9933648033766070e-001
    5.2701423122351498e-001 4.9933648033766070e-001
    5.2701423122351498e-001 4.9933648033766070e-001
    5.2701423122351498e-001 4.9933648033766070e-001
    5.2701423122351498e-001 4.9933648033766070e-001
    5.2701423122351498e-001 4.9933648033766070e-001
    5.2701423122351498e-001 4.9933648033766070e-001</output_scale>
  <inv_output_scale>
    1.8974819668121718e+000 -9.4748196681217189e-001
    1.8974819668121718e+000 -9.4748196681217189e-001
    1.8974819668121718e+000 -9.4748196681217189e-001
    1.8974819668121718e+000 -9.4748196681217189e-001
    1.8974819668121718e+000 -9.4748196681217189e-001
    1.8974819668121718e+000 -9.4748196681217189e-001
    1.8974819668121718e+000 -9.4748196681217189e-001
    1.8974819668121718e+000 -9.4748196681217189e-001
    1.8974819668121718e+000 -9.4748196681217189e-001
    1.8974819668121718e+000 -9.4748196681217189e-001
    1.8974819668121718e+000 -9.4748196681217189e-001
    1.8974819668121718e+000 -9.4748196681217189e-001
    1.8974819668121718e+000 -9.4748196681217189e-001
    1.8974819668121718e+000 -9.4748196681217189e-001
    1.8974819668121718e+000 -9.4748196681217189e-001
    1.8974819668121718e+000 -9.4748196681217189e-001
    1.8974819668121718e+000 -9.4748196681217189e-001
    1.8974819668121718e+000 -9.4748196681217189e-001
    1.8974819668121718e+000 -9.4748196681217189e-001
    1.8974819668121718e+000 -9.4748196681217189e-001
    1.8974819668121718e+000 -9.4748196681217189e-001
    1.8974819668121718e+000 -9.4748196681217189e-001
    1.8974819668121718e+000 -9.4748196681217189e-001
    1.8974819668121718e+000 -9.4748196681217189e-001
    1.8974819668121718e+000 -9.4748196681217189e-001
    1.8974819668121718e+000 -9.4748196681217189e-001
    1.8974819668121718e+000 -9.4748196681217189e-001
    1.8974819668121718e+000 -9.4748196681217189e-001
    1.8974819668121718e+000 -9.4748196681217189e-001
    1.8974819668121718e+000 -9.4748196681217189e-001
    1.8974819668121718e+000 -9.4748196681217189e-001
    1.8974819668121718e+000 -9.4748196681217189e-001
    1.8974819668121718e+000 -9.4748196681217189e-001
    1.8974819668121718e+000 -9.4748196681217189e-001
    1.8974819668121718e+000 -9.4748196681217189e-001
    1.8974819668121718e+000 -9.4748196681217189e-001</inv_output_scale>
  <weights>
    <_>
      4.1674425825855288e+001 1.3734255938118696e+000
      7.9595961971939722e-001 -2.2983080330470691e+000
      -3.2330858398577202e+000 -5.0603130912202401e+000
      1.1158162407743610e+000 -3.7045318035585453e+000
      -6.2692787792974283e+000 2.0019293560994855e+000
      -1.7505177365156104e+000 -7.3659130405947498e-003
      3.2319449484485472e+000 -4.6934480300170032e+000
      -6.1127419210904521e-001 -5.1614366668539358e-001
      -1.4737304269105354e+000 3.1439222155618980e+000
      -4.5911294936519731e+000 -6.0634561898392692e+000
      -4.3650304739321061e-001 -3.9840245494047148e+000
      -3.5366125975203316e-001 1.1442702096221589e+000
      2.3531656021360283e+000 8.3772021972407440e-001
      -6.3380726139431531e-001 6.3928756023714350e-001
      9.0306454616754805e-001 -8.6691603545893808e-002
      1.2097238849922214e+000 -5.3117701884528590e-001
      -7.6364589906872371e-001 8.4491689180678275e-001
      3.4254079333420120e+000 -1.6219642435633024e+000
      3.0696990105523261e+000 -5.1133172388411676e+000
      -7.3415300745330674e+000 -9.6920636079859990e-001
      9.1574132244176787e-001 3.6805459567107535e-001
      -1.0886290686268292e+000 -4.4440463349442103e+000
      -2.4323172894256842e-001 -2.6118588103792324e+000
      -9.0448324618880982e-001 1.1112903807598455e+000
      -4.8325083555094572e+000 1.5148536376674564e+000
      1.7563984009520779e+000 -4.3547386989083403e-001
      -4.1874223146194351e+000 -8.6630401889655917e-001
      -3.8495274242677362e+000 -3.6553253755985587e-001
      -4.6014010874666111e-001 -1.6241193966273053e+000
      -1.1955447973542135e+000 2.3305945429001840e+000
      1.7966689527757569e+000 -1.3141472721559968e+000
      3.7075567406765240e+000 -3.5197995410837146e-001
      -5.1638728053207739e-001 1.2773269058268371e+000
      4.1020332320529235e-001 -4.6564823466069090e+000
      2.1373138925417341e+000 2.6772856599043955e+000
      4.0280077126431237e+000 2.9560601983814432e+000
      -1.2323859402410489e+000 -3.1066911642215160e+000
      1.7853480445858096e+000 1.4239170298702726e+000
      4.5084689185978810e+000 -1.8158825557065024e+000
      5.3037538898205772e-001 -2.9277642437924580e+000
      2.3014361300378519e+000 3.0453030221331385e+000
      -1.5062018513335087e+000 -2.2923740552783536e+000
      -1.4319817420308301e+000 -1.2579531172321354e+000
      7.0781474580451331e-001 -1.4564128432960313e+000
      3.7774993493148790e-001 1.9346766952108032e+000
      2.1928797420073067e+000 3.0446857318233507e+000
      -1.1800712749019202e+000 2.2764985347114930e-001
      -4.1173672626715394e+000 -7.5396648809822930e-001
      -3.3598269224621424e-001 2.8302968925779330e+000
      3.4253685410173791e+000 1.8322702317526673e-001
      5.0100019656988950e+000 1.6095182505740852e-001
      1.1014415482403075e+000 -2.0798985513149169e+000
      2.1803972597563139e+000 -9.0437776821934623e-001
      1.1448769493409068e+000 2.8322466551380439e+000
      2.4431256062466016e+000 1.9196715118614134e+000
      1.1298638610411460e+000 -2.0068578671817452e+000
      4.1048267258792590e+000 1.0072879299000199e+000
      3.1362720976281842e+000 3.1817245538155374e+000
      9.7742376451245616e-001 1.5366678602494672e+000
      3.7093897429528426e+000 1.8884444224579431e+000
      5.7050883563356214e-001 2.6834585066536691e+000
      -4.9230981680726495e+000 7.0521689626474982e-001
      -2.5443219237957768e+000 -1.9842856759724341e+000
      7.7259563468240904e+000 8.9815429459696561e-001
      4.0517817956305812e+001 3.0493470002229555e+000
      2.2671885124198252e+000 -3.6368392905805194e+000
      -2.7844983366242468e+000 -5.9209595310078891e+000
      -4.0636897688530454e-001 -4.2978931205057256e+000
      -5.4679479531516302e+000 1.6792563916013197e+000
      -3.4401830359023733e+000 -1.0244225931903566e+000
      1.4204571449604450e-001 -7.0364011075063004e+000
      8.5665122509279812e-001 1.9243257202420987e+000
      -9.1539383276310582e-001 2.0175183082404984e+000
      -4.4308742812083031e+000 -5.5531149089305787e+000
      1.2093918398175019e-001 -6.1003791916394183e+000
      7.5742272122735199e-001 -5.5503317995697665e-001
      8.0636107656944978e-001 3.1050501699083539e+000
      1.6788095438405365e-001 -9.4490785399236499e-001
      -1.4332532963818065e+000 -1.7064080728320639e+000
      1.7091606164306599e+000 -2.5630926294364591e+000
      -1.1117612171641651e+000 6.1303455646573979e-001
      5.6446158576283390e+000 -2.9190872745815963e+000
      2.1145554118988219e+000 -3.8233894091986449e+000
      -4.8961685631970449e+000 3.9660572979303771e-001
      1.0741910651554265e+000 1.9158421338622962e+000
      -3.5986265443049148e-001 -5.2826312594379810e-001
      1.0531242713889806e+000 -1.6939754942017995e+000
      1.1883482954403475e+000 6.5648583326584542e-001
      -3.9497948642982168e+000 1.8153439216163898e+000
      4.7902568433221155e+000 1.0441839916743121e+000
      -3.8508131907990419e+000 -1.0285904714551677e+000
      -6.7021530328702603e+000 6.4369297249607105e-001
      1.9698192967755619e+000 -1.1146556397985345e+000
      -1.1034977707121036e+000 8.7070028982899483e-001
      2.2714485053336708e+000 -3.8193455347411023e+000
      5.3823573625384098e+000 -3.4431760845728993e-001
      1.7933262291193961e+000 1.4695259394664362e+000
      1.5546370012001500e+000 -5.7177270985078552e+000
      -8.4675286698343899e-001 5.6876508367398566e+000
      4.8684899558601025e+000 3.6904427332729846e+000
      2.8735763316341778e-001 -2.0651296594810704e+000
      8.0765437639163939e-001 1.6538627714127629e+000
      2.6621615485013281e+000 -1.1268281131923066e+000
      2.4304572679700085e+000 -4.5326336217477667e+000
      5.2882297680820285e+000 1.7360674865956058e+000
      -1.1434342022509212e+000 -2.0982774255837793e+000
      -3.5596070766056402e+000 -4.3400466166960747e+000
      3.2333972144527672e+000 -4.2122423527490342e-002
      -7.8913657204490262e-001 -2.4637841019578746e+000
      7.2009744683238852e-001 -1.8231115661529138e+000
      -4.8338893824767949e-002 -6.3109176731154326e-001
      -5.8636504110128040e+000 -3.1580149615700587e-001
      6.4018013585453903e-001 9.5400408386811741e-001
      8.2589716192880203e-001 -4.5609801935556588e-001
      5.3743411266705516e+000 1.6349768747120954e+000
      -5.2173561908685750e-001 -3.1747653857512712e+000
      -4.4697139091988536e-001 -2.3310007129815529e+000
      -2.1911599224945563e-001 2.6651822456716876e+000
      1.1586308603920268e-002 3.6659022391619582e+000
      2.2268344472915453e+000 -3.9718104500408997e+000
      2.6904495906308905e+000 -1.3072951726798579e-001
      4.3767092732999560e+000 2.7926002827621859e+000
      2.2805006258065288e+000 2.8896886155460852e+000
      3.9371081631708388e-001 1.6496858916472170e+000
      2.3966233658956404e-001 4.2581140695247619e+000
      -2.6372503669438765e+000 1.1453158117612376e+000
      -1.5982881633707622e+000 -3.7496109219224474e+000
      7.8209730774108666e+000 -2.5888500989136021e-001
      4.1821391950417414e+001 1.6746913550053983e+000
      7.1161897519345434e+000 -2.5363431669865304e+000
      -2.0213153235435350e+000 -4.8616711447514245e+000
      6.5930280661252072e-001 -5.0657256240210007e+000
      -5.5168155462395267e+000 2.1762392668547799e+000
      -5.4008217607366262e+000 -1.0793195767040129e+000
      -1.8833107955138049e+000 -4.3098646117636710e+000
      3.9507553146884616e-001 3.3409133974334737e-001
      -1.2364924899917720e+000 5.5383687804113944e+000
      -2.7651309095303267e+000 -3.8776065284379175e+000
      1.1495785495263127e+000 -4.9960525173664214e+000
      -2.7702417151087128e-001 2.2607385651610423e+000
      -4.8283292409454659e-001 -1.7706551051185537e+000
      -1.3421060526541047e+000 -1.1525028656647225e+000
      -3.7302442832577720e-001 -1.2669452065142712e+000
      -1.0272211242751672e+000 -3.8259096863040045e+000
      1.0598131250045550e+000 1.0392680951330895e+000
      4.1376566879683301e+000 -3.3709996335984131e+000
      -3.6709396185268663e+000 -3.5764665522580685e+000
      -3.8706526719008756e+000 -2.6650500696093080e+000
      1.3922446827734760e+000 4.0365313727722102e-001
      -3.1967131582622503e+000 -5.1138904489374317e+000
      -1.0705393932970226e+000 -3.5994702574851343e+000
      1.1628559401558687e+000 5.7221014418036686e-001
      -6.8232222969910907e+000 1.3104448302866085e+000
      4.0959562633009128e+000 6.4320621192522642e-001
      -1.5631330644489887e+000 -1.2276446347042356e+000
      -5.5177770618914064e+000 3.8489192946591002e+000
      -9.5432379233802644e-001 -3.1276831032989794e+000
      -1.9467495827280987e+000 1.4551881270736171e+000
      3.5272557432242517e+000 -1.6864797270189400e+000
      6.3879192377038505e+000 -9.2003575423312722e-001
      1.4355649997090045e+000 3.3263708292185541e+000
      6.2635352573943481e-001 -4.2559628555777396e+000
      6.8575470702842312e-001 4.2316068604533115e+000
      2.8348157579155617e+000 4.2306885300208501e+000
      7.8263726708916659e-001 -2.6947310270090175e-001
      2.4175797381993775e+000 -7.9695682699630854e-001
      1.2060941047901625e+000 -1.6540711964374502e+000
      3.6888762198666009e-001 -2.6269542682306777e+000
      4.3219061575707309e+000 9.9615584898572063e-001
      4.7208485314123291e-002 2.0690457415046928e-001
      -4.3630414324464262e+000 -7.5593086434790502e+000
      1.1286163907957636e+000 6.3334540054442268e-001
      -3.9924743406226265e-001 1.9428575286596643e+000
      -5.8680407806415691e-001 1.1284876218975424e+000
      1.4917906102664442e+000 -2.4801755144028910e+000
      -3.9592064396175233e+000 1.2191642762313131e+000
      -1.6718576350015510e-001 -3.1123054385084675e-001
      -1.8156744687985196e-001 -9.2153550033985498e-001
      3.6519097726064866e+000 2.7124004553992886e+000
      7.0534548009124909e-001 8.9274755599274613e-001
      1.7097837953709243e+000 -6.4129285783577616e-001
      1.0751159840057487e+000 -7.5366460138504365e-001
      -1.0623006535152169e+000 2.8253285557179755e+000
      -2.4346266315278204e+000 -3.1789291927474839e+000
      1.3501289250376325e+000 7.5612002450995064e-001
      4.3524479464278016e+000 6.3239404742725203e-001
      2.6100229503727475e+000 1.7252710924095815e+000
      1.2660616046866695e+000 9.6697661213955854e-001
      -1.6016642314657770e+000 9.3231323856824033e-001
      2.4890837984277305e+000 1.2870112708428911e+000
      2.0425680355261839e+000 -6.7937313294835340e+000
      8.1533756256789065e+000 -1.7024074544003085e+000
      -1.7142619505840909e+001 -1.7142224618361255e+000
      5.6767614130946802e+000 -2.4188526500939260e+000
      -4.7821583829716974e-001 -2.3786652685457712e+000
      2.3780949665249760e+000 -3.8899158241509348e+000
      -4.4491602151364109e+000 2.1118302529293298e+000
      -3.6418363850181099e+000 1.4425225594950255e+000
      -6.8235487026868591e-001 -6.4387562547047237e+000
      7.3692643159597238e-001 1.7994621585542654e+000
      -1.2359900424118382e+000 4.1205364309845089e+000
      -3.4770738199034548e+000 -4.1667749363555373e+000
      5.3128248962929281e-001 -7.0574919165802994e+000
      -1.4350275858572710e+000 1.5427672560764241e+000
      -2.9520457083011453e+000 -2.1545536579018361e+000
      2.4503676175636067e-002 -2.4709000791821003e+000
      -6.5381846903875573e-001 -2.1128752123070043e+000
      -2.5943855519285219e+000 -5.6542398285517530e+000
      -1.8573095160282855e+000 2.1574243891414341e-001
      4.5788141268831888e+000 -7.3125208367884043e-001
      -4.1729293990152833e-001 1.8794877750332517e+000
      -3.7725772485991973e+000 -5.1648535575957268e+000
      2.0400831704948605e+000 -3.1910662007927731e-001
      -5.3631228569861635e+000 -1.2512963602691005e+000
      3.5037093472429670e+000 -1.0264373942608152e+000
      2.0741869825336168e+000 7.2981621290699861e-001
      -2.6369182912104727e+000 1.3736581586427972e+000
      3.0162347035427008e+000 7.6620100385927692e-001
      -1.1070173466676099e+000 1.4235695625961948e+000
      -4.7238253293006007e+000 3.8004133045333575e+000
      -2.8854424908935563e+000 -7.7630824967219816e+000
      -3.7977572260416959e+000 -4.4259890758036780e-001
      3.2370822782083595e+000 4.6385355665147238e-001
      -4.9245063708058867e-001 -1.1522751962453264e+000
      1.1282345562417762e+000 4.8692127330614854e+000
      1.6185731641462189e+000 -2.2563433053368755e+000
      2.5274377922656766e-001 3.3969371383536693e+000
      5.6591651108342136e+000 2.8177472687357090e+000
      3.2867450364595467e+000 2.5392594849566406e+000
      -2.3796186699917290e+000 -1.5189876319667976e+000
      -9.7959874684571180e-001 -9.1425186920900570e-001
      1.3119580308356107e+000 -2.0886877458821651e+000
      4.0788224392095307e+000 -2.5323430229123502e+000
      -6.3261028565119715e-001 5.8894045032591558e-001
      -1.1634572337660911e+000 -3.2280206507794600e+000
      4.4571134070637480e-001 4.5534574585162707e-001
      1.0250156848411076e+000 1.2999950903578452e+000
      -1.0814364692185383e+000 3.5490715165738544e+000
      5.7610812194172401e-001 -1.0783569383359273e+000
      -4.6035058599622101e+000 1.0912963684400205e+000
      4.4122091267785786e+000 -1.6626603009514052e+000
      -6.9319606757400298e-001 -2.0938645980773285e+000
      2.6753192007067486e+000 4.3039880539554698e+000
      -2.0422305695185225e-001 -1.0840644410127658e-001
      1.3976002661608697e+000 -1.1017936282332215e+000
      5.7629316590689783e-001 -4.4522831501045168e+000
      -2.7860223175995419e-001 3.0982201663240194e+000
      -6.2811648759674071e-002 -3.8075763824234971e-001
      4.4900689352288820e-001 -2.5890664435478601e+000
      1.3532394508760053e+000 -8.2302465262251467e-001
      -1.5119353541405876e+000 2.7627870248642328e+000
      -1.3549802691163608e+000 9.2428363000871117e-001
      -3.2335300485477831e+000 -1.6953493550545171e+000
      1.5522520904703114e+000 3.9586354890966002e-001
      2.0271727569039100e+000 -8.5666292882529227e+000
      1.3753101153897025e+000 -4.6655095755051805e+000
      -6.2184208396124973e+001 1.7964394934187975e+000
      4.6701268290799813e+000 1.2477267943459418e+000
      2.1919907870394408e+000 1.5736538556276089e-001
      1.1839720195930550e-001 -1.1949749213243341e+000
      5.8690727830096789e-001 3.8588472404802165e+000
      -1.0326112055651993e+000 3.2186900678104005e+000
      1.3071229740287786e+000 2.6685569985009039e+000
      5.6899811927983146e-001 1.2569461481488577e+000
      1.9542432847236171e+000 1.4676569895842553e+000
      -5.7853042928579845e-001 -8.5749603356688764e-001
      -3.1214106995107795e+000 -3.3283465296484120e+000
      -1.3584999493379111e+000 -1.5910793319843315e+000
      -1.9593012366022184e+000 1.6854432276963676e+000
      3.3540526375826357e-002 -2.3261562110574876e+000
      6.2479504157170684e-001 -1.6195280555260430e+000
      -3.9327568101531423e+000 -2.6954929691793157e+000
      -5.9990691433131349e-001 -2.2030367161974279e-001
      9.4514079898802494e-001 1.1694516337661134e+000
      -8.3061411003624830e-001 1.8497914984916837e+000
      3.3042643886273306e+000 -1.0422445472259159e+000
      1.0889150654537121e+000 -7.6493929478822431e-001
      -4.3438189439820407e+000 4.6976367519960451e+000
      3.3572958474103713e+000 8.4564960378513143e-001
      3.5647441699924798e+000 2.1901945801913816e+000
      -3.5688745777065165e+000 -1.9171735881847667e+000
      2.6707708414500559e+000 7.1236252168552883e-001
      2.3711057370788291e+000 9.8101898172079482e-001
      1.9891830403657249e+000 4.3107449859709668e+000
      -6.6062211476164909e-002 -4.5204610863947847e+000
      4.0848249644218176e-001 3.6480995554303330e-001
      5.9154590663611528e-001 -5.4941397086914023e-001
      1.1731546123129335e+000 -7.8513258816104173e-002
      2.0681630463110197e+000 3.5376921458537174e+000
      1.8464189451073731e+000 -1.6295505654758544e+000
      -2.3187718267251340e+000 -1.8136599735337362e+000
      3.7803416709617563e+000 -2.5034586672148107e+000
      1.7579275712129925e+000 9.2139622231422291e-001
      -2.4844138728426741e+000 -6.3422596875159931e-001
      -2.3737705824124333e+000 -3.6380068736168636e+000
      7.2095643675679533e-001 -6.5180255175631252e-001
      -5.8156807786629926e-002 -1.1305962777103895e+000
      5.8575323692142778e-001 6.8476247628236875e-001
      -1.3846648570017944e-001 3.8132673429772834e-001
      -1.7202520623279309e+000 1.3170414094180538e+000
      -3.4852594937722099e+000 -4.2587571959736241e+000
      -2.0544049828042898e+000 3.5010900754467165e+000
      -1.4675567312085886e+000 6.3867867628024144e-001
      9.6889520996892176e-001 -2.8699337449447027e-001
      7.0324146133147440e+000 -4.3257729497388437e+000
      -4.8263755296546700e+000 -3.5722750795894687e+000
      -2.1242846728268354e+000 -1.9008783549054795e-001
      -3.1260940082037090e+000 3.0434489603675829e-001
      7.2780429166365801e-001 -1.8186186551999575e-001
      9.9135295071780394e-001 -4.6366012259895566e+000
      -2.9694088475514452e-001 6.6412696519875725e-001
      -1.4148276084569300e+000 3.2933729462437484e+000
      -2.2946883572207875e+000 6.9280877602471230e-002
      -2.0425570800928869e+000 9.3030794528201199e-001
      -4.1166987213408381e+000 -1.0274093837910070e+000
      -1.1376883768300210e+000 -5.1836357970921842e-001
      -3.9948448501547937e+000 -3.2623562355340203e+000
      2.3779784281255059e+000 4.2345841302860373e-005
      -1.4054195786849644e+000 -3.2086941676606036e+000
      1.8819314238326401e+000 -3.6724610827801594e+000
      -1.0926680553497084e+002 -6.6519668645503705e-001
      5.1664545968587818e+000 1.5143352256507898e+000
      3.3881476668581683e+000 4.3054624176484613e-001
      -5.7711067506938285e-001 9.1917808306743609e-001
      1.8707195494560795e+000 3.7098578809537166e+000
      -2.3543595641261823e+000 3.7606051055551872e+000
      2.7346601535041191e+000 3.2315718909312485e-001
      8.8721744076659337e-001 -1.2492004597905779e+000
      1.0137839139328160e+000 2.0477133276786077e+000
      -1.6222746890603184e+000 1.3345532519507968e+000
      3.0521895661890458e-001 -1.3776951647720415e+000
      -1.9284859082336481e+000 -2.9339823081543162e+000
      2.7754062179969670e+000 6.7190814169454760e-001
      8.3427323120271224e-001 -1.6257172601274850e+000
      1.9562250989026034e-001 -5.5859676181238871e-001
      -3.3364527453319581e-001 -1.8252725996373198e+000
      7.3849449008628065e-001 4.6225725296819203e-001
      2.1878370786077814e-001 -2.6600069898715939e-002
      1.1969014240137066e+000 -6.0707040502393006e-001
      2.7114662069462216e+000 -1.5850076808141429e+000
      3.3723672768453050e+000 5.3928499791924212e-001
      -5.5636565209828281e-001 2.4365736407773637e+000
      2.1248905790105370e+000 -9.2638249222349101e-001
      4.3940659631158772e+000 2.3114451426051663e+000
      -2.1662046751732924e+000 -4.7373701072085455e+000
      3.3580534126765560e+000 6.8753531483475938e-001
      -2.3189526530650616e-002 1.4337922553666707e-001
      -8.0942266212452796e-001 2.9015832964392145e+000
      -1.2850570192094790e+000 -4.9285206056961188e+000
      2.5999882648255501e+000 2.0295097271894941e-001
      2.5313125051904173e+000 -1.9802112560195717e+000
      1.3288748086179067e+000 9.1821811355950145e-001
      9.6283985624288937e-001 1.6787737613798737e+000
      4.1268651263885552e+000 7.1501120392630990e-001
      -5.3524344324015505e-001 -1.7580599886865775e+000
      3.2065057192499338e+000 -7.3072880570503984e-002
      1.1161590250081246e+000 8.3284820657566605e-001
      -2.7227238609159770e+000 -5.3808408161965982e-001
      1.1229677134833593e+000 -3.9779441146773773e+000
      -5.9927814945423219e-001 -1.0211061747269228e+000
      3.9574200295671047e-001 -9.1203458972162055e-001
      -4.3807500661241972e-001 6.5638564717260517e-001
      2.1329432299760294e+000 6.3777290863946456e-002
      4.0606043126838254e-001 7.6933654684344566e-001
      -1.7129361726619701e+000 -4.8988281102766162e+000
      -1.1722573186598160e+000 2.9931369723433487e+000
      -1.9467136154506111e+000 2.5994657197142854e+000
      2.2135970674961167e+000 4.7223211410005739e-002
      3.7451188283563912e+000 -1.7595451911224087e+000
      -1.3530562903685639e+000 -1.8894155612895640e+000
      -4.9274754042748220e-001 6.6479732782722123e-001
      -1.0781561485263560e+000 1.3376359689150998e+000
      2.5395193096470542e-001 -2.8903447115856062e+000
      -4.4232819894773279e-001 -4.0635892780242919e+000
      -1.9360263849098684e+000 -1.3219807699791244e+000
      -6.8388706690573520e-001 6.5291803273862592e-001
      -2.9026805901633845e+000 -1.3302481648852298e+000
      -4.1448147146701952e+000 7.8276763511135861e-001
      -1.6051263352532963e+000 2.8834928123629755e-001
      -2.4971287250256249e+000 1.9389093394364967e-001
      -3.1142237978206548e+000 -4.1795370366537297e+000
      1.4618750158699232e+000 -2.1906551939549330e+000
      -3.6859225242715754e-001 -4.8186396281054060e+000
      -4.6664787561988880e-001 -5.1107938052857413e+000
      -1.3183218712300848e+002 -2.9496084505517945e+000
      1.1056108230566135e+000 2.4119760122325249e+000
      3.4099792693635269e+000 1.6012259711402403e+000
      1.5749899179501432e+000 8.3466659130086784e-001
      7.4323356119650885e-001 1.1040188646375795e+000
      -2.6882647430894542e+000 9.8544406209874841e-002
      4.3538744331736257e-001 5.5261244545709998e-001
      8.1180189980697559e-001 -2.2426468706809541e+000
      1.8279586172101330e+000 7.8779288447952767e-001
      1.1357483126976854e-002 -1.8579168853568768e+000
      1.6822818336502543e-001 -2.8577635542492876e+000
      2.0007142520914956e+000 -5.2930413891485601e+000
      2.9260068425752495e-001 1.9024156678496795e+000
      9.7015284131046442e-001 2.6541742483354286e-001
      3.3634765321132687e-001 -4.8237559615277842e-001
      -3.2613583362971917e-003 -1.0028018614475840e+000
      -5.5047919837932058e-001 1.1184461671540390e-001
      -8.2649645522070381e-001 -5.2068114357651818e-001
      -1.5547190539373241e+000 7.8384129500675499e-004
      1.8057185287879309e+000 -1.3136278242471602e+000
      3.1893462541422939e+000 1.5146331803876336e+000
      1.7559005314836353e+000 3.3140453341290206e+000
      3.3132151979255728e+000 -1.0117326276585372e+000
      1.2360841760790411e+000 -2.5227238955127618e-001
      -1.0479730186461114e-001 -2.1462777993358371e+000
      2.3277709386659104e+000 1.0853427041576978e-001
      -3.7523371666172628e-001 -1.1654111800685547e-001
      -1.4633788240643912e+000 2.9914531607295611e+000
      -1.3023542129724965e+000 -3.6475117286677041e+000
      1.0267513988398822e+000 -8.8718122419587342e-001
      -6.7481129898522396e-001 -2.8561864926656524e+000
      1.3305838545952375e+000 -2.3096182180552313e-001
      -3.0168984488614059e-001 -3.7431059667299338e-001
      4.6945103396564314e-001 2.0864168754061172e+000
      -1.9720350451655677e+000 -1.7300673698729765e+000
      1.8202046166790444e+000 -6.4000030568537036e-001
      1.2296973129507207e+000 3.6085451539745778e-001
      -1.1707511406426829e+000 -4.6351005159650471e-001
      2.9802168496592318e-001 -2.4647197802965439e+000
      -3.3084935187284192e+000 -3.9081817010188125e-001
      3.5845588774670867e-001 -1.9582405970707202e+000
      1.3432706686883784e+000 -3.5229331494435390e-001
      1.5877563495209746e+000 6.8805602709187197e-001
      -2.4423670519607650e+000 5.5066963434136385e-001
      -4.3047752873366935e-001 1.5219040230963237e+000
      -2.0211366077680499e+000 6.3718935786132676e+000
      -3.0192372113923067e+000 1.3345688944116902e+000
      3.0400285068803710e+000 1.3665662218947375e-001
      3.2885877698603871e+000 -5.2014028459248618e-001
      -1.5691265747820433e+000 -6.0390743983918682e+000
      -2.9807587210086348e+000 -9.0982959129553320e-001
      -1.1350506227803392e+000 7.9872355275979434e-001
      8.7451995164438057e-001 -3.4517219059595510e+000
      -2.6603844057455195e+000 8.4546647909031147e-001
      -6.7442977674646049e-002 -2.6461771778276773e+000
      -3.7114567930194231e-001 -3.2594437678250127e-001
      4.6475577319212591e-001 -1.7415397990448487e+000
      1.9374647479781113e+000 -7.2746103687865021e-002
      -1.2858417992948450e+000 -2.0665270909330941e-001
      -7.7338660400754400e-001 1.0455630026829894e+000
      -2.7551899400346143e+000 -3.2617534118702207e+000
      3.1318495232049588e+000 -1.2076138448036525e-001
      -1.4218955030980740e-001 -2.6770065880912139e+000
      -4.2381184118457932e-001 -6.4926489455378400e+000
      -1.5816064534901264e+002 -3.2280904997883684e+000
      1.1337849900921613e+000 1.1742604890736094e-001
      4.6571791789197219e+000 1.6017286649165965e+000
      4.6714851661039392e+000 2.8814194249773619e+000
      2.9295374336302622e+000 2.1627470542491696e+000
      -1.1553651424433655e+000 1.0350154862073399e-001
      -1.8681785360706776e-002 2.3030111650627192e+000
      -2.7499660745704885e-001 -2.7935577015378117e+000
      2.5496509077375462e+000 -6.1660071711326092e-001
      1.2449712766029499e+000 -1.1721033699630858e+000
      7.6634977536079674e-001 -1.7573886385800743e+000
      1.6504839155282383e+000 -3.1205683504786932e+000
      -4.6905446961801134e-001 2.6163149574885205e+000
      4.5230976799103362e-001 7.0478637416856804e-001
      1.0119554474473347e-001 -1.5233128564398644e+000
      1.2643896632144109e+000 -1.7598447902061426e-001
      -1.8116933915532383e+000 -1.2488649751329983e+000
      -4.5022442928196721e-001 -1.4040325711666231e+000
      3.9926708835484470e-001 -2.6704473784293343e+000
      -4.1016286487517356e-001 -2.0753978836728773e+000
      8.0976896796820519e-001 1.0966985404824567e+000
      3.8307633985286422e+000 1.7200249202927489e+000
      2.3119266837986836e+000 7.9410120908095039e-001
      1.3632017415335024e-001 -1.0084044177102376e+000
      3.0692273637221629e-001 -2.8800627353739988e-001
      1.4599207321911096e+000 -6.4482601924970173e-001
      9.2618408895418081e-001 -9.2946242711729310e-001
      -1.6596330817425413e+000 3.4877327427205991e+000
      -3.3343857334086584e+000 -2.8317656423432549e+000
      1.0158479208580746e+000 -8.2598781554315617e-002
      9.6876487474633111e-001 -2.7813503106056410e+000
      8.8606625214134749e-001 -5.2270829024784034e-002
      -2.0113763421153275e-001 -1.3522716814864579e+000
      -6.2571222291068873e-001 1.8802252169945985e+000
      -3.9401412952490809e+000 -3.7529073815004499e+000
      3.2859553992275181e+000 -6.0441397448843548e-001
      1.8927110285615234e+000 1.5488840212328534e+000
      -7.3592511604533961e-001 2.8300976328877150e+000
      1.0809876100113809e+000 -5.4378973426808153e-001
      -3.3634795543556075e+000 -2.0748861924457579e-001
      -9.6746221243319330e-001 -1.2191302312186953e+000
      9.7862695914257869e-001 2.7139339460041306e-001
      8.8707327238668132e-001 1.8117025414159578e+000
      7.1325310500823122e-002 2.5281475138161119e-001
      -1.4163301826516170e-001 4.9674009898615890e-001
      -2.4367831050205235e+000 6.5738162769337096e+000
      -1.6020895707154230e+000 2.6971967492985458e+000
      2.3543209849889370e+000 -1.3610182141509046e+000
      2.4796680429782336e+000 2.3785283333825635e+000
      2.6997294600461752e-001 -4.6559002634841669e+000
      -1.4663081788211287e+000 -1.3616587156196420e+000
      -1.5642310660869057e-002 1.8271833190509415e-001
      -5.1683042994660611e-001 -3.4205878903113196e+000
      -2.1977340532515384e+000 -1.0452476354337023e-001
      1.3619274148770781e+000 -2.1504749115934176e+000
      4.7505647012771274e-001 -2.0021663898031059e-001
      -8.3259186313775979e-001 -2.8388321913906842e+000
      -4.6140804801002866e-001 -9.5111816302325403e-001
      1.1575042668580449e+000 -4.9953505642670915e-001
      -3.7835520710831441e+000 9.9052385637289275e-001
      -1.6210730988598170e+000 -2.1417035712360279e+000
      2.6296123416765007e+000 -3.9629764335269280e-001
      3.5970375189159326e-001 -2.2322467799622050e+000
      -7.2565177147207105e-001 -6.4769012111565134e+000
      -1.4539878216196158e+002 -3.6005333805485917e+000
      -2.4152859521723333e+000 1.1879670722532312e+000
      6.9288647601743438e+000 1.6349311124782047e+000
      2.9616874259422263e+000 5.5039816633085641e+000
      3.3288211467202080e+000 3.6542142771272473e-001
      -3.7824296793051384e+000 1.6427149200314293e+000
      7.8260565057996390e-002 1.2877970233919422e+000
      -3.8042638200368623e-001 -4.2511726111933221e+000
      -1.8140777737528625e-002 -3.1030189104210306e+000
      -1.2547526181056958e+000 -2.7759791237899256e-001
      7.0945582277417840e-001 3.9752697649478363e-001
      1.0217906432477231e+000 -6.9365223890748251e-001
      -1.7461455506864971e+000 2.7266727987012622e+000
      6.4786938534674166e-001 1.8544356333185659e+000
      5.2266426068169591e-001 -6.5691371359409911e-001
      3.2450112902706145e+000 6.8113137745916641e-001
      -3.7751167549042552e-001 2.0697479867203090e+000
      5.2524674776487956e-001 -1.9480340451713640e+000
      -1.4116227559568906e+000 -5.0109526987698336e+000
      3.5992390599382582e+000 -1.8728948542985417e+000
      -3.1333244821607714e-001 1.3703564767050900e+000
      2.3848461629114501e+000 -2.2248842375950820e-001
      8.8182164128103058e-001 -2.2865032791871231e-001
      2.6607563966212300e-001 -3.0171747622730916e-001
      -4.7219176618316500e-001 2.0068491682164500e+000
      3.2899120305043938e+000 1.3480301446148668e-002
      1.0409875207674850e+000 -4.6672922669452677e-001
      -1.8177549047353201e+000 2.3229773221921497e+000
      -1.0847557008104867e+000 -9.7174794131966380e-001
      -1.0768066343980977e-001 -8.5043167090927657e-002
      -5.9679468249669032e-001 -3.0297183865036139e+000
      -6.0426027708979912e-001 -3.3476936246203842e-001
      6.3651180223474635e-001 -8.0762584648095181e-001
      -2.8586405754619904e+000 4.5362708745382347e+000
      -4.1079780964768968e+000 -1.0530153258969928e+000
      1.9663976800410465e+000 7.0846489971521442e-001
      2.6530818584098634e+000 1.9001355687200177e+000
      -6.8160448017415165e-001 3.9770565977614714e-001
      1.3461955476262644e-001 -9.1561688443204114e-001
      -2.4392711325072249e+000 4.4179678024406988e-001
      -3.6181022933587248e+000 -4.7478161415528475e-001
      -9.4576482760853153e-001 -1.7159573672784117e-001
      3.4452199561789123e+000 1.0666529135479492e+000
      4.8994279642464594e-001 1.2290438921740430e+000
      1.1540531596377226e+000 1.4669975687728185e-002
      -1.6929617074963919e+000 4.4507938774450935e+000
      -1.1294740944695147e+000 -4.7181058338076431e-001
      1.5981954700543000e+000 -2.9717283001535701e+000
      3.0368843070141640e+000 3.8898975165719070e+000
      1.6529724550070297e+000 -1.9474691564493780e+000
      -2.2952516507145408e+000 -6.4704978158893534e-001
      6.1271821304083218e-001 -1.3051687608954665e-001
      -7.6123649364844270e-001 -2.2976902566167405e+000
      -1.7988969514279109e-002 -8.5069871143827869e-001
      1.9478302339504818e+000 -3.1948250937795022e+000
      -1.4991676125881366e+000 -1.1457603595588370e-001
      2.0899880138294011e-001 -1.1158794398429037e-001
      -1.7512185078199765e+000 -7.2732798641088026e-001
      1.3392591980432289e+000 -7.9065952821833196e-001
      -1.5563872514671593e+000 1.9914451570173137e+000
      -5.3186622824736553e-002 -6.5795451761208068e-001
      1.7705096131953255e+000 -2.8078827069414660e+000
      1.0009136210282539e+000 -1.1619647420542802e+000
      1.2248380109355443e+000 -4.4789884202575205e+000
      -6.5586942746102466e+001 -3.0705988825847972e+000
      -1.0765823155114300e+000 1.5513381457426314e+000
      7.6180343357961684e+000 1.5098082822352290e+000
      2.9812556847610963e+000 4.5976265867918293e+000
      6.6073664046450391e+000 1.1253750810585124e+000
      -3.2766298853276514e+000 6.1915318810888931e-001
      -1.8422664287764162e-001 2.1365874987274678e+000
      -1.5805193611123274e+000 -4.3502094188385882e+000
      4.9179871782494100e-001 -3.3364388032924475e+000
      -3.4719160964411015e-002 4.4845262957313914e-001
      -7.7120875593106886e-001 2.9316823509806196e+000
      1.2282985613466921e+000 1.2925232122854742e+000
      -1.7051244070244784e+000 2.1710305073154079e+000
      -1.1347990125855807e+000 4.3983431234847742e-001
      6.8341424044156329e-001 2.6524014046584160e-001
      2.8401377481871153e+000 -1.0915216282813618e+000
      -3.9609951604859839e-001 1.9422219108990395e+000
      8.8624983127366197e-001 -1.1381226145957324e+000
      -1.2045874000723920e+000 -6.4970116357403258e+000
      2.6457763813940112e+000 -1.0065780871690868e+000
      1.1221187760845839e+000 1.7915260524234753e+000
      5.7824748445112450e-001 1.6401730006834152e+000
      3.1334441297258078e+000 4.9579688203234068e-001
      4.3948351017133314e-001 1.2545031309677594e+000
      5.5739029464164780e-001 2.0227957423053824e+000
      1.5835043196691583e+000 9.8774929008441503e-001
      1.4503033188412165e-001 -5.3697438385301921e-001
      -1.4481300613352250e+000 3.9586856659476206e+000
      -2.3670426116298198e+000 -1.6711254160592146e-001
      1.9696968445499770e+000 6.4935441325954857e-001
      -3.6537412469519670e-001 -5.0568094811021247e+000
      -9.6980320521904240e-001 6.1550815819001226e-001
      4.2885695351882971e+000 -9.2372255558059424e-001
      7.7792088210235322e-001 2.5793565341964713e+000
      -2.8920358965598294e+000 -1.7512414634345039e+000
      2.9708405648606648e+000 6.8659766126991661e-001
      1.3953081912062664e+000 6.2510959355865495e-002
      -1.7055059360668070e+000 9.3249031637638113e-001
      2.0999619486024255e+000 -1.4218713632955025e+000
      -2.0364460167425675e+000 1.3908617841101909e+000
      -3.1997966526938026e+000 -1.1346070406227109e+000
      3.6154015684669902e-002 -1.6155799022007414e-001
      4.1512445199220869e+000 5.6868940994141592e-001
      1.0932455284890175e+000 -1.4326188059304398e-001
      -1.1936508298564252e-001 8.7711313661718537e-001
      2.1292617570104563e-001 1.8441109352796325e+000
      -5.3314043853832860e-001 1.6628447713218306e-001
      -4.2726588069942578e-001 -1.4094161045328160e+000
      2.2135328171046318e+000 2.3951364136674407e+000
      1.3495211448735625e-001 -4.0361577544416488e-001
      -3.2468861085167529e+000 8.6401488840749621e-002
      -1.2685731664889257e+000 7.4272274873087418e-001
      -4.2609414248611720e-002 -1.7551079944531536e+000
      -1.8827025666363764e+000 -2.7596509431360189e-001
      9.8909630433045648e-001 -4.3940842574101513e+000
      -4.0888395058655413e-001 -9.5803911544551634e-001
      -1.3713349578704037e-001 8.1404714253852616e-003
      -1.7255528820635508e+000 -5.0763055178911287e-001
      3.5326230556204572e+000 2.3451380195771171e-001
      1.6645908221214296e+000 3.0261994664459704e+000
      2.8254098230588415e-001 -1.2737339729494537e+000
      2.4214053113228498e+000 -2.0546383610410937e+000
      2.0824772125413538e+000 -6.1749210092679385e-001
      4.1628202726426560e+000 -3.2947780051607740e+000
      2.7436026209095260e+001 -3.7612881732866268e+000
      3.9233243875460644e-001 -4.9235668581013159e-001
      5.4032484529616704e+000 2.7152386518276383e-001
      1.4226267779071766e+000 4.3358571775995491e+000
      7.7531317094198728e+000 2.1092542157644352e+000
      -3.4123375632662105e+000 8.9643307042817066e-001
      1.2229634016519768e+000 2.2613400506126555e+000
      -2.0336739767429308e+000 -3.4601475293161053e+000
      -4.4363949554691862e-001 -3.9832933586330914e+000
      -1.7386126686362011e+000 -7.5509847495272531e-001
      -8.7591988263888731e-001 3.5575815067322476e+000
      1.0861409208666519e+000 3.1947373201623497e-001
      1.1399009460558083e+000 3.3584717711852208e-001
      -4.1812791686613376e-001 -1.8383645546665057e+000
      -4.3186550665214002e-001 1.0063606936194023e+000
      2.2120292722147989e+000 -7.5387367148661866e-001
      -1.2604477284146234e-001 -3.4079326575645243e+000
      -9.4673089444176961e-001 -1.5710129855401769e+000
      -5.1488635298054430e-001 -6.0105349786064988e+000
      2.6422567942546684e+000 -2.3959104229423095e-001
      -6.5133378409325191e-002 2.2110797023689175e+000
      -3.6906212038717010e+000 3.7772662307667937e+000
      2.1107523524592779e+000 8.6065174326530813e-001
      1.8218679112717789e-001 1.0153362726875244e+000
      5.7229345039026469e-001 1.3084492412663633e+000
      5.3354867754357194e-001 4.7070345376971229e-001
      -7.4185007101897460e-001 -7.3789240178196114e-001
      -2.3874710781764374e+000 3.7222700681285485e+000
      -3.4171615445000438e+000 -3.9835497192517794e-001
      2.5158427411107365e+000 2.2599479334758033e+000
      -2.4140553518837442e+000 -5.0408748523903792e+000
      6.6717065517233709e-001 -1.5258686331047873e+000
      3.2989623751904245e+000 1.4626099107351787e-001
      1.3920932926301084e+000 3.5015800136827493e+000
      -1.0166562145757130e+000 -4.1670237195152824e+000
      2.5473643673295268e+000 -3.0197907736480017e-001
      2.0232870882815694e+000 -3.8926265385740710e-001
      -1.5088800403748559e+000 3.5962869894439131e+000
      1.2065799604987841e+000 -3.0337613728642836e+000
      -5.2802273980125902e-001 1.5012560718009893e+000
      -5.2402721239596006e-001 -1.2415969670534874e+000
      -3.4118506307229313e-001 1.9736883587630614e+000
      5.6984643791717069e+000 5.1634293816968957e-001
      -1.2980968628246732e+000 -2.0288296151719329e+000
      3.5843654580147972e+000 3.8697080975988596e-001
      9.6121007037269801e-001 1.3063171551739472e-001
      -2.5489025765169121e-001 -2.8412773916892337e-001
      2.5769838215599927e-001 2.5865730246209851e-002
      1.0562751823904306e+000 2.9474149523715729e+000
      1.4490774103083390e+000 -1.5717886223190372e+000
      -2.9819260197251518e+000 -1.8435949270989727e-001
      -2.3352545013855655e+000 1.1008361995506812e+000
      4.5323378749524540e-001 -1.4044466717033293e+000
      -2.7005873099921707e+000 4.5066958732828399e-001
      1.3440525820153375e+000 -2.2026871871786406e+000
      -1.7274589972040857e+000 -3.2303866463097268e+000
      1.0750746403468241e+000 5.7601783417215391e-001
      1.7375716072596825e+000 -1.0732790477877636e+000
      1.0066928725216320e+000 6.7951280469727260e-001
      2.1686126017077326e-001 3.0212373631703788e+000
      -1.5744257621164526e+000 -1.5423522646036307e+000
      5.7494868730912463e-001 -4.0018399091702763e+000
      2.1493377045765456e+000 1.1313098937958326e+000
      4.3081997424337910e+000 -3.3749107519588897e+000
      3.7228507956444055e+001 -4.4632616132335876e+000
      2.9363052839516290e-001 -1.6570075822377652e+000
      3.3730009659801490e+000 -1.5006991626512303e+000
      2.8396480739734034e+000 3.7818810557839839e+000
      8.2167850590230582e+000 1.0607722743171504e+000
      -3.6281514077868060e+000 2.7639687900921756e-001
      3.6906135528865330e-001 2.2998321114049407e+000
      1.5705980847831909e+000 -5.1547628565916987e+000
      -1.7062785411593719e+000 -3.0323905544168634e+000
      -2.7159781283028228e+000 -2.4645701955320871e+000
      -1.4590199661593160e+000 7.1482348446040933e-001
      2.7101732364476028e-001 -1.8173415876073764e+000
      -7.3595149694002304e-001 -1.1841136747539585e-001
      -1.3071960605469071e-002 -2.4362842298066161e+000
      -4.3860034957008848e-001 1.1537981158477525e-001
      1.2193217007560455e+000 9.3344106901359303e-001
      6.4715245442494040e-001 -2.8760063815612589e+000
      -2.8796434368617598e+000 -1.0273768070990987e+000
      -1.8458074390773247e+000 -4.8737760113297579e+000
      1.2005750441791023e+000 1.3637030625657258e+000
      -4.1740111060307000e-001 1.9661914069037636e+000
      -2.3337477258776782e+000 3.5772439180646081e+000
      1.9983561215345340e+000 -4.6371186657411606e-002
      2.5388745909861188e-001 7.8839560465310166e-001
      1.6115029770137428e+000 1.4594810637242386e+000
      3.1818314597523214e+000 1.4680615266951365e+000
      -1.4231594806563566e+000 6.4941191011422750e-001
      -1.9944383946422584e+000 2.2781682269145427e+000
      -2.0818021538558078e+000 -9.6934278261303808e-001
      2.1514050649290319e+000 2.6997120296206654e+000
      -1.6615211719255250e+000 -4.6080595002612705e+000
      2.0793919531863367e+000 -3.9550955062091825e-001
      1.8562095737781419e+000 2.0403967112442079e+000
      2.6873966933054727e+000 2.1783492595420064e+000
      4.3510497414428045e-001 -4.8987758855288179e+000
      1.5388178430134394e+000 -6.4980976304668392e-001
      2.9537327986495239e+000 -1.1653165372425445e+000
      -1.3797881924583770e+000 2.7935352140889527e+000
      1.4889775882573315e+000 -2.2295804855049033e+000
      -9.6078054417979442e-001 1.4451020261093230e+000
      2.5696211325996904e-001 -3.3785402816721732e+000
      -9.5834954602666822e-001 1.6137876499892987e+000
      2.0241423468724569e+000 -4.9853434382398252e+000
      -3.5193778320443808e-001 -2.3622186916333843e+000
      1.7810391308483491e+000 -1.9408730939719538e+000
      7.3337048452297993e-001 -2.6719784719560480e-001
      -2.6115894744103252e+000 -2.7092599377559430e+000
      1.7012347057124120e+000 1.9758078221237003e+000
      1.6611900482986512e+000 9.1762042979417291e-001
      3.5246777379492937e+000 -2.7429944187536761e+000
      -3.1502503787447012e+000 5.7319801048898555e-001
      -3.1098960157792832e+000 -2.9287701793990539e+000
      -3.6292259003877052e-002 -2.2607810148657062e+000
      -2.3365431486296813e+000 -7.6142430275700357e-001
      1.6467036140329772e+000 -2.4645255425397266e+000
      -3.9845087405650853e-001 -2.3865112685344183e+000
      3.5455245927897776e+000 3.4254292527246444e-001
      1.7568780304834042e+000 -5.6902243523968954e-001
      -4.5593763771624718e-001 4.7989220806928817e-001
      2.7433674264840696e-001 1.8225417889993989e+000
      -2.8886636772331693e+000 -1.4186626321832299e+000
      1.7651073727724098e+000 -3.3555740574479542e+000
      2.6306483826683773e+000 2.7179333884561614e+000
      4.2856492388172445e+000 -2.9575635790679127e+000
      2.7635092952758857e+001 -2.7191393292653330e+000
      2.6297235671621633e+000 7.4085135958805171e-001
      3.4288444441393446e+000 -1.4105846368640595e+000
      3.3810990039669568e+000 3.9455357100450694e+000
      3.0188249436650110e+000 -1.8877134355808499e-003
      -2.1441882910494434e+000 1.4634962352977003e+000
      3.9189785254555820e-001 7.4225772239056587e-001
      9.1228343661952649e-001 -5.2323078944814831e+000
      -1.2688105656096140e+000 -1.3193771688806635e+000
      -4.5380128657176916e-001 -4.8854104684306581e+000
      -4.0452307536741167e-001 -3.5748384045992010e+000
      -4.6507339596171360e-001 -2.8573816413480277e+000
      -2.5629064425799503e-001 2.6729856447730769e+000
      -1.1502953634183843e+000 -4.0644743253613830e-001
      -1.0347068988382750e+000 -6.3307362173027859e-001
      -9.9545005803106523e-001 5.7003812472701654e-001
      1.1837894726619409e+000 -2.1806939188080783e+000
      -2.8722958950014168e+000 1.4840056325403455e+000
      -1.7442521280953518e+000 -4.9894219155082338e+000
      3.0614440706292760e+000 -1.8446152320583031e-001
      -1.4305036639932605e+000 -2.3573931556914188e-001
      1.4595209043605230e-002 5.1328281475140736e-001
      3.9384735680426943e+000 -8.6787301856534615e-001
      4.6472754791586229e-001 2.1983656595223593e+000
      -2.7429526903251054e+000 9.6037496550465040e-001
      5.4644026706937119e+000 1.3232609439260477e+000
      -3.1346821769861188e+000 -1.0070975002371207e+000
      -2.5719431006153930e+000 -3.6029845762114771e-001
      -4.6009602712096216e+000 4.8254452669829662e-001
      1.2634927652867434e+000 3.1075167601808742e+000
      -1.3610605015997088e-001 -4.3913539443069194e+000
      4.7853731992506034e+000 3.0864668103486488e-002
      -1.9507708895750191e+000 1.9011344382543125e+000
      1.6847330016785178e+000 1.9973495599770799e+000
      9.6126685145175317e-001 -2.2304368314971765e+000
      3.5415882309240176e+000 -1.0986238198580507e+000
      3.1656825856424300e+000 9.2621628588055871e-001
      2.0461108308744764e+000 1.5356907450130259e+000
      4.4903978199340768e+000 -1.0466683022696890e+000
      -3.2973073138828024e+000 -2.6795411853519535e-001
      7.2693123545240268e-001 -4.6596653669966228e+000
      1.3136809007698520e+000 1.1044933744265772e+000
      3.3322988557583666e+000 -2.8403276429538371e+000
      8.6983144894024400e-001 -2.5030971191933311e+000
      8.1177768596106727e-003 -2.5019019070703656e+000
      2.3420235513338490e+000 -1.4339749576603760e+000
      -1.5159255620426662e-001 -9.1361911111033289e-001
      7.9681230555276403e-003 3.0043818049115925e+000
      1.4122562363820297e+000 7.1526079585488678e-001
      1.9951546456469658e+000 -1.3701318453305953e+000
      -2.8090019689441772e+000 -5.6231953162099113e-001
      -3.8070374429580017e-001 -3.6395975194959762e+000
      -4.3352992731887768e-001 -5.9169723794479245e-001
      -9.9618257339490390e-001 -1.9766431541769149e+000
      9.5987890138458765e-002 -1.7498666798214013e-001
      3.0645925795509310e+000 -1.4260006534346523e+000
      8.4396308411073118e-001 5.5515258338989226e-001
      -2.2299732145757178e+000 -2.4094706738023435e+000
      -1.4467177895700125e+000 3.1697778578105701e-001
      2.6029741209553316e+000 2.1662212138553589e+000
      -1.0403132166382811e+000 -2.8359853070224044e+000
      -6.7613622611929936e-001 -1.1225809580388102e+000
      1.1729618514099482e+000 1.0677872429492465e+000
      2.8486830842217148e+000 1.6205879683392438e-001
      -7.4443154709566783e-001 -2.1993321420430592e+000
      2.9113000504088635e+000 -2.0286138324236553e+000
      4.2390645715043118e-001 2.1045030041077375e+000
      4.3738317281606607e+000 5.8174354744276782e+000
      2.1177989180403038e+000 1.1511877653309142e+000
      1.7008194316322824e+000 4.0795963687115187e+000
      -2.8944763825956343e-001 -9.3993224929633656e-001
      2.4722850910935099e-001 -2.1758264691387845e+000
      -4.9911991898623198e-001 1.7368834614636541e+000
      -4.7990194767462552e-001 -5.1767118514904240e+000
      1.5494049761187167e-001 -3.5032337419467492e+000
      -1.3440167874543905e+000 -4.4830999037519366e+000
      4.0662778116484562e-002 -3.4100996588915635e-003
      -3.5534193246164930e-001 -1.0851344337230235e+000
      -3.6487706715285596e-002 -2.8731985146992078e-001
      -1.3343485429859079e+000 -5.7396745737927968e-002
      6.0995717995872334e-001 -7.7705162819341256e-001
      -7.3418520528376279e+000 8.9562381398030477e-001
      -1.6417099771405783e+000 -5.8059582462720742e+000
      2.8534310749107816e+000 -7.3217954250318151e-001
      -3.6915141067988611e+000 5.0818682890149180e-001
      -1.2445023180799040e+000 -2.1852130860786567e+000
      5.0693901400022101e+000 -1.6184436830564770e+000
      -1.4406463575123616e+000 1.1583332613392663e+000
      -3.2373197108284479e+000 5.8739486971641397e-001
      4.7055864420459432e+000 7.1692166293122950e-001
      -2.8172681865419609e+000 1.8919976336863749e+000
      -1.2553753279304396e+000 1.4847924472872158e+000
      -2.4739399059430935e+000 -2.7308510728573716e+000
      -1.5161513888852238e+000 1.5012136839643972e+000
      -1.0891041504685246e+000 -2.2278624753813774e+000
      2.4554397495706590e+000 -1.5880109580286439e+000
      1.1870747121635787e+000 4.8589077167416378e-001
      2.5947573785750704e+000 9.8437833121605617e-002
      2.8365709313807219e+000 -7.2814489269444349e-001
      4.6778158320822207e+000 -3.2207060493862429e+000
      4.3883990877751220e+000 -7.9367082077573467e-002
      -1.1264512750064000e+000 2.5515953743155397e+000
      1.7046354308238933e+000 9.1068268900954530e-001
      -1.0123256442467616e+000 -1.5532281759270641e-001
      2.4184477512116374e+000 -5.5597405864137830e+000
      1.4361014716567675e+000 3.1834656895881559e+000
      -6.7732830586921984e-003 -2.8591317723680465e+000
      5.5534036876207538e-001 -1.6373067038959379e+000
      8.9748262513711308e-001 -5.8227164262591451e+000
      9.7276904542503739e-001 6.8251947916087552e-001
      1.4735497292502302e+000 2.2377027915486227e+000
      2.2382230974230932e-001 3.8346340320338577e+000
      4.1915098528002914e-001 -8.4042125062831741e-001
      6.1983906071954598e-001 1.8317322700817176e+000
      -1.1292455915297290e+000 -4.0675940589076438e+000
      -7.2054346313923490e-001 -5.1057567390409524e+000
      -1.6052507422163438e+000 2.2661063910075168e+000
      1.2815087623296357e+000 -4.5222729751523311e-001
      -2.2410719871434486e-002 3.6020418394762410e-001
      1.3663408391314256e+000 -2.5972593069042926e-001
      4.1827631309024875e+000 9.8325352435272451e-001
      -4.6859037981600521e-001 6.8054004605206553e-001
      -6.1373689656187624e-001 -4.2209892751783640e-001
      1.4828188800474642e+000 5.2977048844572994e-001
      -1.7955652980304635e+000 -2.8815069005471226e+000
      -2.5883622233190930e+000 -1.6039556408343181e+000
      1.1758550974265485e+000 9.5356219659094354e-001
      1.9460893667284576e+000 9.1149254235472232e-001
      9.1996190879795179e+001 -2.1687881820355797e+000
      2.7233382959725856e+000 -2.7901222554592904e+000
      1.5776068161671028e-002 2.1486826732839899e+000
      6.4440796098231701e+000 3.1225911150014873e+000
      -1.4479129513869304e+000 1.4358794007181626e+000
      -2.5526620021625890e-001 3.0317860689989624e+000
      1.4763387124361744e+000 2.3695327563069726e+000
      -9.6983808034049057e-001 -6.0512396575578320e+000
      -2.7301352659028932e+000 7.0683854384124029e-002
      -5.2054208687935111e+000 -2.4068405433276663e+000
      2.5710039931985116e+000 -9.8553411589948403e-001
      -1.0486591366916933e+000 -4.2393531417484196e+000
      4.9732673192814009e-001 5.3802847982291868e-001
      2.9228688625110166e-001 -2.1394087871099616e+000
      2.8307360252149699e-001 -5.0686406698129328e-002
      -3.2132580190259602e-001 9.9559787411556255e-001
      3.0223575204983977e+000 -3.2397196939928112e+000
      -5.6291029585340855e+000 -1.0017770646098914e+000
      -5.1740280437422257e+000 -3.0463638322977560e+000
      2.4440184797059188e+000 -4.5310709888701917e-001
      -1.9598605895786547e+000 -8.3695812752052706e-002
      -5.0843182901933801e+000 -4.0531077470927785e+000
      1.6532615561711892e+000 -1.5360964285945784e+000
      2.8606018347360040e-002 -4.6528271236460517e-001
      -1.9904578388834224e+000 3.5057106846836334e+000
      7.7156886186730791e+000 2.2139756892927134e-001
      -3.2343523610681792e+000 2.5960850514900318e+000
      1.8689080141023345e-001 1.6815617427315281e+000
      -7.7762772295224192e+000 -2.0246823056885583e+000
      -1.5699653145273849e+000 -3.5137360276189256e-001
      -1.3204624992107132e+000 1.6487961687528792e+000
      2.3098593746866087e+000 -3.5859448050176521e+000
      1.3444703735120729e+000 -1.0293015126294158e+000
      1.5190403036754700e+000 -3.5013887908997692e+000
      4.3270939760697278e+000 3.8467174012809968e-001
      5.9485545901934698e+000 -2.0052240698600576e-001
      2.2457456741885116e+000 -3.7559127709220999e+000
      -1.5188403806194564e+000 2.8744575700429769e+000
      1.5759145037323850e+000 2.4278304841584952e+000
      -8.0627470434053328e-001 -2.2381179655678851e+000
      3.2767836858551730e-001 -9.6555256360037434e-001
      3.4844112437048489e+000 4.1252480332677930e+000
      1.7197865800668017e+000 -1.4439499670965725e+000
      -8.3037427022211496e-001 -6.0157971663423404e-001
      2.0988051374861163e+000 8.2730845454742930e-001
      1.2563425207755550e+000 1.8280514937349830e+000
      -2.7894470526393080e+000 6.4930882181901906e+000
      2.2801486404851667e-001 4.5157420638462691e+000
      -1.6629810503339846e+000 -1.8073286859177154e-001
      -1.7108891630303200e+000 -1.2463045187539272e+000
      -1.4264617483029993e+000 -4.4917231087240754e+000
      -2.6899402377385120e+000 -2.9992193072200579e+000
      -1.0838288302357526e+000 1.5245647765435161e-001
      1.6818779211610177e-001 -1.9419834215792047e+000
      -6.2026414425932364e-001 2.0060365134465581e+000
      3.3924210824178291e+000 -3.5481528043301154e+000
      4.6964064457558488e+000 3.5586002703735353e+000
      2.7683941498486591e+000 1.5477823250414240e+000
      2.6951386018716277e+000 3.5737133443614213e+000
      -2.2409503979879255e-002 -1.6009309375236762e+000
      -8.8407850560591639e-001 -3.8964213664412846e+000
      -4.6311508412549296e+000 8.8459048759078285e-001
      1.5336324404391513e+000 3.8658435158083637e-001
      9.9725362761533876e-001 4.9269840336557937e-002
      1.5114509654478962e+002 5.6812811720618128e-001
      2.0782092152993017e+000 -3.5668698876213809e+000
      -4.1026081957659094e-001 1.0401629387880367e+000
      2.3721341043065451e+000 -1.4746024357688476e+000
      -5.6899340069712068e+000 3.0225119904211284e-001
      -2.2372222693002750e+000 -2.5122014249374969e-001
      1.8870080777397575e+000 -3.7097977603445376e-001
      1.0317833695318079e-002 -9.3537626943268073e+000
      -1.0355837180873040e-001 1.7552752997447485e+000
      -7.7625370785099239e+000 -1.3037014975409438e+000
      3.9026904235131692e+000 1.9904601630159041e-001
      -6.8476014950655817e-001 -6.4717316950792669e-001
      1.9015977453369755e+000 2.6228186745664289e-001
      -7.5902872613905314e-001 -2.2467798136787276e+000
      -5.2041787669269013e-001 -2.0567450335557136e+000
      -2.0027452309625833e+000 1.4186594524158742e+000
      2.1612299342677357e+000 -6.1126425355127056e-001
      -4.8691447541439343e+000 -1.7449190345957681e+000
      -1.2262825183634218e+000 2.0411131252918162e+000
      9.7202432564860886e-001 1.7726492806555616e+000
      7.9669811100564147e-001 6.4997439604081764e-001
      -3.9066102625775847e+000 -4.8130786525789633e+000
      1.2846902710414538e+000 -2.3749370705945836e+000
      1.2721095487284657e+000 2.3484778172536598e+000
      1.0190500215115645e+000 4.3336738488616531e+000
      6.8778507586128548e+000 3.1680311971825139e+000
      -6.8903004369304233e+000 1.6743320498450860e+000
      8.1479239528563763e-001 -1.9158376976019986e+000
      -9.6583461456411168e+000 -2.0115717314249829e-001
      -2.6107474776463637e+000 -4.4764751803679381e+000
      7.0644930587714361e-001 3.2967100873330391e+000
      1.5654095776079251e+000 -5.4775274530451430e+000
      -1.4717774117170355e+000 7.2972877350374488e-001
      6.5238183124029439e+000 -3.0226188246868242e+000
      3.7029632185643080e+000 6.4922843259179164e-001
      2.5913033775683427e+000 -1.4002664809780083e+000
      1.4465577317758247e+000 -1.1786421957638178e+000
      -1.6040720383558553e+000 7.6910453317757133e-001
      3.8820056952319792e-001 6.9618723449987838e+000
      -1.0926069834834304e+000 -1.6818457777283278e+000
      2.0122912994789388e+000 -1.4099100039066467e-001
      2.2757539145998611e+000 7.1897349945346640e+000
      -6.4937751754920697e-002 -5.7785273220336402e+000
      3.0942171779722631e+000 1.5530562629905345e+000
      1.3679708496152412e+000 3.5746870369824086e+000
      1.9626210028461148e+000 1.0293015868942996e+000
      1.2562196371238612e+000 4.6570816582317160e+000
      4.8801087935454585e-001 1.6765077800133319e+000
      -6.4637311405352520e+000 -1.7499674903414271e+000
      4.3859684346864986e-001 5.8173050430425572e+000
      2.3233715088445965e+000 -3.6719731668609783e+000
      -2.1133551810978290e+000 -1.7867714084745090e-001
      -2.1993924866757695e+000 -7.6544774278334415e-001
      8.6733555217087657e-002 -2.5690005538916854e+000
      2.9136583365243951e-001 8.0679803936721548e+000
      3.5325106627773945e-001 -2.7449237574426690e+000
      5.5112774916947256e+000 3.2409175568071316e+000
      7.5776186154621039e-001 2.4314271834133301e+000
      4.8643805163616269e+000 1.9197906140148724e+000
      -2.6132118013123011e+000 -1.0910545052399798e+000
      2.0792285967277335e+000 1.5944041460879066e+000
      -8.5447736843203863e+000 5.3016008265052132e+000
      2.2206191219020464e+000 -2.1853893644070981e+000
      -1.0856854132899441e+000 5.4901436331412434e-001
      1.2721839054541749e+002 4.0400636342412026e+000
      4.2413782254608261e+000 -2.4459364290885324e+000
      -4.7209806971344825e+000 -4.8457380835971335e+000
      -1.3307889358420313e+000 -4.2260632680360972e+000
      -7.5617847695908686e+000 1.7915516587745757e+000
      -1.2668292161347288e+000 -2.1499226617921190e+000
      -1.1435158847903737e+000 -2.3439614864136300e+000
      -9.1772290810316814e-001 4.0796429273188011e+000
      -1.7993531818564761e+000 1.2447864109837001e+000
      -4.3608648166230664e+000 -8.0143593101788237e+000
      7.7643649545210780e-001 -3.3813807069744399e+000
      -1.0586130461670669e+000 -3.3521425737911836e-002
      3.5075399525564666e+000 1.4214731999759322e-001
      5.3030404224943750e-001 3.7887504613260964e-001
      -3.9994324533854780e-001 9.2880863138288094e-001
      9.6634020653041230e-001 -1.5633706828745046e+000
      -5.2682825546794376e-001 1.1555604393246832e-001
      4.6600579229703873e+000 -3.7377455204768109e+000
      3.0789278449992585e-001 -5.8752579598364960e+000
      -2.2113547495612664e+000 -1.0368689750794819e+000
      1.4519612802137420e+000 1.6207801946344780e-001
      -4.5091258772849789e+000 -1.7972127931032504e+000
      -2.6597849770667197e+000 -5.6189273730814744e+000
      3.4041946772713696e+000 2.8025781113737818e+000
      -6.3470943149176486e+000 2.7548513803104129e+000
      3.4282827007933374e+000 2.3895770210735732e+000
      -1.5108731346925977e+000 1.8408861385953398e-001
      -4.3988721476658093e+000 2.0566253528495420e+000
      -3.4088488795677080e-001 -3.6532668402888988e+000
      -1.6791074051696033e+000 2.7894858416894437e-002
      1.8725701082621777e+000 3.1954715512470633e-001
      3.5608339384690102e+000 -3.5360331684479389e+000
      -1.6799215640767606e-001 9.8796729164613939e-001
      -7.3971962541511685e-002 -1.2480508927079041e+000
      1.2359488784117327e-001 3.0149666160385047e-001
      5.6699575863039806e+000 5.2793285522511502e+000
      7.4862170656807381e-001 -1.6012639205324841e-001
      -1.2702852054298039e-001 -1.0468251044282550e+000
      -8.5811467663396213e-001 -1.7050407911219285e+000
      1.1786445453866317e+000 -4.3298429740092272e+000
      4.9545690281770494e+000 -2.2251683924821683e-001
      -5.8558879171411393e-001 1.1139079872902069e+000
      -3.1614340642312361e-001 -2.2226885714358504e+000
      1.7455469614561501e+000 -3.0675648348675177e-001
      1.5775938142195951e+000 2.7395914985406087e+000
      2.2357074193803008e+000 -1.6195499953798898e-001
      5.4166090736433836e-001 -1.9806154403089558e+000
      -1.0964267851377052e+000 1.2683148142197709e+000
      -2.6234420307214643e+000 -2.2899990918964686e+000
      8.0281568878331167e-001 4.0869711640847264e+000
      4.8794066976227413e+000 -3.3429012769311789e-001
      8.0329458844190638e-001 1.2243551868273983e+000
      5.9557441699450364e-001 2.7658575190214058e-003
      3.0179852962995373e+000 -1.1505800308773944e+000
      -4.6321335840729655e-001 4.2771968791687147e+000
      2.6435708100525307e-001 -3.4406299536435903e+000
      1.2435891239207184e+000 7.4043280002642031e-001
      2.4173717543462265e+000 1.5464441206021713e+000
      1.3283593663682565e+000 2.9773974842373123e+000
      3.0966823745599235e+000 -8.1695843467605400e-001
      -6.0120014927206689e-001 3.9048654955415967e+000
      -1.9415680797069075e+000 6.0607093628497644e-001
      1.5488888132321281e+000 -3.8780291039126293e+000
      3.0730549047563627e+000 1.7639141889557741e-001
      1.1054215805308782e+002 9.1742433984634930e-001
      4.0812179696817399e+000 -3.4070923502565971e+000
      -1.5636929692853614e+000 -3.1080335446802856e+000
      -1.9563839849476368e+000 -5.1922875331144347e+000
      -8.4069188054378561e+000 1.2425213466446234e+000
      -7.1286843887014184e-001 -1.7847023544403688e+000
      -1.8031885429647916e+000 -3.4297226982936739e+000
      -1.7741957278835144e-001 1.8752843594139790e+000
      -1.7090799187368932e+000 3.6103133240464791e+000
      -1.2508001355757206e+000 -9.1257618890619376e+000
      2.6761992153834138e+000 -2.1801653975921731e+000
      -7.9563991616009666e-001 1.0404297679559025e+000
      1.9799177862620725e+000 -1.3358716321892246e+000
      1.1859545865317103e+000 -1.0039256782439325e+000
      -5.4424481358243655e-003 -1.3774567058944061e+000
      9.4258039453841103e-001 -2.3999589005007316e+000
      -2.0870930200000379e+000 -4.4823158531514934e-001
      6.6451595409775219e+000 -5.5784201416494499e+000
      1.1445058344951586e+000 -2.2142599383612738e+000
      -5.0427722633707006e+000 -2.1328763080982460e+000
      -1.4070223049085118e-002 2.1229601364711752e+000
      -2.9274627507286248e+000 -3.4385856462869127e+000
      -2.9223999651290753e+000 -4.5999123589444615e+000
      3.3362228233293836e+000 1.3146432112846285e+000
      -4.1118607862738070e+000 1.7117452476932531e+000
      3.6653261364448082e+000 2.9098349081206578e+000
      -2.1776942687894016e+000 -1.0095851287095132e+000
      -5.7058577765560505e+000 4.0399770764067693e+000
      4.9613547430637750e-001 -4.0441466239299553e+000
      -1.8093085389543260e+000 7.3695278783768059e-001
      3.0017207117196043e+000 6.6159312690525596e-001
      4.9833922334425571e+000 -1.9271890841748315e-001
      -3.4320031343300228e-001 1.3371341350062138e+000
      1.2254866164696487e+000 -4.6561708522002823e+000
      -2.0360573128894147e-001 -1.6858057563948885e+000
      6.5730548763968510e+000 5.7464107003776261e+000
      8.2553587271397355e-001 -6.5031220183451233e-001
      -4.8435763750487904e-001 -2.0756519947873092e-001
      -1.4615407876216129e+000 -1.4632045272088863e+000
      1.5572936742809962e+000 -2.5781997547298876e+000
      4.4849935072331837e+000 -2.3864297928330469e+000
      -4.5187034733375125e-001 1.8311107946218959e+000
      -1.7081762533267550e+000 -4.1764658705092765e+000
      3.3848733189622089e+000 1.9963794415476017e+000
      -3.7828780968087355e-001 1.6324071406569993e+000
      2.6960088618758928e+000 -2.0005176301744387e+000
      4.4418733498355684e-001 -1.4379707288974195e+000
      -1.0227211393601572e+000 1.3322154104736639e+000
      -1.5074256991423720e+000 -1.0613353495693976e+000
      1.3362663620862467e+000 3.8002798138146967e+000
      3.5475314999281138e+000 2.8530351492630150e+000
      -4.0719230426298542e-001 1.7659720585649481e+000
      9.7730811500735992e-001 -5.4977029158179225e-001
      1.8600643663359686e+000 -9.8183179210446614e-001
      -1.3290890249194673e+000 4.1384041646953635e+000
      8.8162033517832372e-001 -4.2335167507829832e+000
      2.5772996940132153e+000 -4.5420241012926871e-001
      4.4429113823584476e+000 4.0015344054211904e-001
      1.2949401373172336e+000 3.3409030407671740e+000
      3.4107963529563823e-001 4.1784682225822384e-001
      -1.6742719344385442e+000 4.6953902737286013e+000
      -1.2386607348840872e+000 -7.6718623578880130e-001
      2.3988418109116054e+000 -5.8629389275682939e+000
      2.1544227783837551e+000 -1.0689126070215431e+000
      -2.7020592731383523e+001 4.7689991047259245e-001
      5.3501292074060016e+000 -1.6600288905436478e+000
      -1.7417401227124722e+000 5.0235191427815595e-001
      8.5198592254838024e-001 -3.4708578083559791e+000
      -2.4813772616456555e+000 2.1648396084765359e-001
      -3.8456183230878449e+000 2.8081706020160135e-001
      1.3011868734955436e+000 -4.1248931691911400e-001
      3.5604655842783592e+000 1.7610304644366950e+000
      1.0989470541149432e-001 7.1146947967592276e+000
      -7.5039784917981622e-001 -5.5918943742317362e+000
      -1.2017469428163157e+000 7.9495736073935702e-002
      2.8306018729820198e-001 -1.8729021904701797e+000
      -1.9481598306831760e+000 -8.1545603281448120e-001
      2.1886334402217086e-001 -9.2374894374624594e-001
      1.4340168344339634e+000 -2.7496146507117303e-001
      -3.1302116014220854e-001 -2.4691053939618937e+000
      5.0591538327872243e-001 -1.3146523969960219e-001
      2.4868067498582458e+000 -2.1134541735385048e+000
      -1.1213192526982130e+000 -1.1459376827490499e+000
      -3.2366187606847676e+000 -7.8228937634836371e-001
      2.8317752724438150e+000 1.4882865458656771e+000
      -6.3733543999638185e+000 -1.4889073941459046e+000
      -7.6649556812100683e-001 -3.8828967241881198e+000
      2.3659979328199015e+000 8.5738064296189886e-001
      -1.3484425398229931e+000 -3.5357346088147246e+000
      -1.2374957702229914e+000 1.2713967758054987e+000
      1.4163225947508167e+000 -6.3366885371173953e-001
      -2.5766980412177087e+000 4.0987073262018026e+000
      -4.3275739906043385e-003 -3.5255477110144047e+000
      -3.0112279950819532e+000 -4.5687718594750439e-002
      2.6368758046246636e+000 8.1436664033564443e-001
      4.1560474465902715e+000 2.3867385175843610e+000
      -1.5898439119547136e+000 3.3738690672655300e+000
      5.6579187477806041e+000 -5.7415214874611220e-001
      4.0408686599794112e+000 1.6700449116066236e+000
      4.6956791062856889e+000 1.6474833821292068e+000
      2.6291230837379955e+000 1.3121750427796923e+000
      9.1353336373303595e-001 -5.4870490530608795e-001
      2.0013638555897741e+000 -9.0219785370428085e-001
      3.1255779620295594e+000 -1.0179955230499298e+000
      1.2553245212946273e+000 -5.1332461744180016e+000
      5.2437419364875204e-001 2.3058628765454605e+000
      -4.6460897272637771e+000 -3.1973590643808474e+000
      -9.6033569411040853e-002 1.7084821948670990e+000
      -1.3690628985428432e+000 7.6131773849553164e-001
      2.2509380177682465e+000 -1.2709250647586223e+000
      -9.1843417884101775e-001 3.0108147439648167e+000
      -5.6607669785090806e+000 -1.0612889014494047e-002
      1.5136502513774823e+000 -1.6855799121095039e+000
      1.2829744242815837e+000 2.1664412424373047e+000
      8.3686980966439806e-001 3.1979280399922643e+000
      -1.1796469351607828e+000 1.2439022838379006e+000
      1.2793231831678205e+000 -4.8254378454592972e-001
      5.0047488076859803e-001 -2.5454572186249664e+000
      -3.0881662205430933e+000 3.5981812834826914e+000
      9.4712270232822660e-001 -2.9207589041692685e+000
      -2.8747560089055424e-001 5.9387814566033803e-001
      4.4177437453381962e+000 1.6377037418725029e+000
      -2.0636181927148405e+000 -6.6688807152547491e-001
      -2.4900103747706179e+000 -5.7427786124444324e-001
      -1.4334653375102198e+000 -6.0056280951370888e-001
      1.6463515401066831e+000 4.0995341727671217e+000
      5.1550817926670200e-001 -6.1885327645290067e+000
      1.5766296609956454e+000 -3.0848360067231071e+000
      3.7027770902646864e+001 -1.6275418436164111e+000
      5.1795658286132695e-001 1.0419027069888311e+000
      -1.3741141329274855e+000 1.5522978331889454e+000
      4.3563906332238149e+000 -2.7253148801134528e+000
      -1.9127068728826382e-001 3.1712594899335927e-001
      -2.1742078942232697e+000 -9.4029794695066093e-001
      1.4337811819862742e+000 1.0160180675982431e+000
      3.5599256530383951e+000 -8.1992871906373355e-001
      6.4867530316034649e-001 6.8058799427302015e+000
      -9.4195364599636933e-001 -1.1884553068987565e-001
      1.5326948807131733e-002 -2.2229250640433462e+000
      -9.6454162719478820e-001 -9.6181576167313121e-001
      -4.1049460091632012e-001 8.4057285680618077e-001
      2.3585445128759239e-002 -2.2550049269474792e+000
      -2.4699499311951462e-001 7.5673835907711329e-001
      -1.7139617233320619e+000 -3.7388331509406805e+000
      6.3062512217597746e-002 3.0104494110196378e+000
      3.4756776149103437e+000 -3.1006652576690468e+000
      1.3513292956993097e+000 -3.4895445756556862e+000
      -3.4096522777075244e+000 -2.5204400298754370e+000
      4.4689212777915692e+000 6.1025157496144877e-001
      -2.6407207120720577e+000 8.3581026440246864e-001
      1.7991294951936583e+000 -1.9939557786406288e+000
      2.3321204520586249e+000 1.5838240118680764e+000
      6.7449557932185933e-001 -5.3316186879172642e+000
      -1.9188037830627475e-001 1.4520460097529344e+000
      -2.1106786906286552e+000 -7.2090653592050302e-001
      -6.4622460727270936e-001 2.3567902665679785e+000
      -3.7338606019394427e+000 -5.3808037620448923e+000
      4.3932215173580558e-001 -1.2804532347547568e-001
      4.6069563370723445e+000 1.0481203011134770e+000
      2.1591577750123601e+000 -2.3193784658278034e+000
      -1.4786653343593259e+000 4.7354388813411148e-002
      1.4766787497115250e+000 -2.6522310117601395e+000
      1.6913610256503753e+000 -2.4102931765854563e+000
      4.7809957742612958e+000 -1.5039959836577013e+000
      1.5769944833129492e+000 8.2296243681495262e-001
      -1.3755724653896402e+000 -1.2143953995471493e+000
      2.4041720277627707e+000 -3.9616835481761287e-001
      8.0368326307608007e-001 -2.5966832266117024e+000
      6.5923617884428043e-001 -3.5187664919307093e+000
      1.6462873157592370e+000 2.7495428172247577e-001
      -1.1692515531164029e+000 8.4246869921778533e-001
      9.7571318106627181e-001 1.0547024498707165e+000
      -1.7866276619271282e+000 1.0560936561734723e-001
      5.3440492263787909e-001 6.1236436070085598e-001
      -3.0351403800492447e+000 7.1023700666795326e+000
      -3.3267984255282226e+000 7.0233992987527649e-001
      5.6219462807820297e-001 -2.2043406273084249e+000
      1.1077162978613318e-001 7.0034137631717031e-001
      1.6123462875885688e+000 2.8885747481950594e+000
      -1.5143110912247981e+000 5.8862250726419774e-001
      1.1711935837313288e+000 1.2092717927910007e-001
      -1.4652849080037273e+000 -1.5542005626045858e+000
      -2.2730763416353175e+000 3.8309433224530518e+000
      5.6571028259750378e-001 2.9131022665214040e-001
      -8.7009886297515715e-001 1.4570213273111596e+000
      4.6572145323645344e+000 1.7085782288596061e+000
      -7.2474333291582027e-001 -1.5277273396671445e+000
      -3.1836922815879549e+000 5.3126510397571436e-001
      -3.4110609818737161e+000 -4.7865523939293136e-001
      -5.2983302194565329e-001 4.1896369857557136e+000
      -3.5320512501085549e-001 -9.5263613944156624e+000
      -9.2241245231067792e-001 6.1748287494592755e-002
      -1.8460401312341673e+002 -2.1243875680734727e+000
      1.6767733886040309e-001 2.3757823582701447e+000
      1.3785679370239956e+000 2.2184086851971214e+000
      -1.1328505750584599e+000 -1.7504645518868627e+000
      3.0123865324961030e+000 1.1845696355107183e+000
      -2.0848122912341829e+000 -7.4406788228457044e-001
      1.9131450345515908e+000 -1.1672573295561275e+000
      1.2480556790710697e+000 1.5374655955669831e+000
      2.0777611251694861e+000 5.0336111300919661e-001
      -2.3951461704929203e-001 1.8736066650100354e+000
      1.7693065152089965e-001 -1.3400118920476600e+000
      1.7609447501322959e+000 -1.8857716192548424e+000
      -1.4408064681446342e+000 1.7213429684794410e+000
      1.4246447252185013e+000 -5.4820490841195657e-001
      -1.3508146318300516e+000 -2.3919127960621851e+000
      -8.1935697212386793e-001 -7.7742391020978818e-001
      -2.3770541403847032e+000 5.0742791945095000e-001
      7.9447437072503024e-001 -7.9955291045404897e-001
      3.5489564841984231e+000 -4.6165739172412721e+000
      4.3677837833454234e+000 -1.1947132392966116e+000
      -1.9538198448048566e-001 5.8742273890466934e-001
      1.7796763741210175e+000 3.7910547059729609e+000
      9.9410391387157970e-001 -1.2188623328562807e+000
      -4.4385299675937290e-001 -5.6035014691331775e-001
      1.7288535648977150e+000 -2.5610392606539953e+000
      -2.0729654504503947e+000 1.8937241145540926e+000
      1.2889968545886595e-002 4.8795176155613695e-001
      5.6919777571640495e-001 2.1714411879674911e+000
      -2.6909733849083382e+000 -2.7657763767771821e+000
      -3.6647972742779988e-001 -1.6284685807282413e+000
      3.8281675364068413e+000 -1.0081272289752881e+000
      4.8460566307237931e+000 -7.5804298230219247e-001
      1.1143890699864536e+000 3.6429262612613328e-001
      2.4972809491779246e+000 3.3238568661276924e+000
      -1.2353691306401517e+000 -1.5367531657747238e+000
      4.1168697478080665e+000 6.5696684154087193e-001
      1.6992616537667096e+000 2.4365965810641947e+000
      -2.6739363145573214e+000 -1.6512795795686275e+000
      4.9804514060104310e+000 -7.5089634896586743e-001
      -2.6771545546492108e+000 -9.6350938355516536e-001
      7.4054857785346140e-001 4.8023779640573472e-001
      6.0775742732786264e-001 -1.0664049975173140e+000
      2.1772733298252711e+000 8.0897530075731972e-001
      -1.8731051374038382e-001 8.1471441518794052e-001
      -2.6187627256524517e+000 3.8546129269895024e-001
      -2.3291821661173095e+000 2.1861124803085228e+000
      -1.4891721810183816e+000 5.3350300834422644e+000
      8.4608266447967262e-001 -1.4151944373123404e+000
      -6.7646752427611523e-001 -7.9334832249999554e-001
      1.4988691060591630e-001 -3.2607648739750381e+000
      -9.4378460892828353e-001 6.4373760927483448e-001
      -1.4426064602415101e+000 -4.7898486754050118e-001
      -1.5894892226214479e+000 -1.5752277328299176e+000
      -8.1302785699822078e-002 -7.8465609275806980e-001
      -3.2119903035666835e+000 5.8820640816882375e-001
      1.4773043474909968e+000 9.5003962463243252e-001
      -3.2490901588616214e+000 -2.8043426530568438e+000
      8.0937587742356965e-001 -1.2294761755680488e+000
      -1.2260360478910490e+000 -1.8414117021106791e+000
      -2.1456169664376312e+000 -5.2291126708434943e-001
      -1.9911108922616314e+000 1.9135187402669587e+000
      2.5774362622549507e+000 -1.3470199655365060e+000
      -1.0578526166808389e+000 -4.2227498860886756e+000
      -1.4819551983093189e+000 -2.0307557119540105e+000
      -1.6627301207058545e+002 -1.5763122539847272e+000
      3.7904616695060472e-001 3.2463770307610518e+000
      1.5676912025479326e+000 1.0165514912092317e+000
      2.0222006577843112e+000 3.5937026162887666e+000
      3.3940697138096416e+000 3.7484765319769553e-001
      -2.9690953676361280e+000 4.4013941127857614e-001
      8.0042696284010084e-001 -3.4209678735110177e-001
      2.2742509106587122e-001 -8.6443843392987871e-002
      2.0461456317559219e+000 -1.9822968176962492e+000
      -1.3133103838817863e+000 3.0080588360137175e+000
      -6.7014285789870487e-001 -3.0394538952754138e+000
      7.7567343839590963e-001 -9.2059152770086949e-001
      -1.2391728568527764e+000 2.4130621432864632e+000
      9.0115214659474718e-001 -1.7243215110466905e+000
      -2.4014019879101269e+000 -2.3892895195058879e+000
      -1.6223440332221686e-001 4.8479062998693490e-001
      -2.4179666561632489e+000 -7.5586507077256659e-001
      -1.4922462010261912e+000 -1.2010260502029637e+000
      3.8544364320261861e+000 -5.6196456670191726e+000
      2.9122301573420466e+000 -7.7667740412329556e-001
      1.9843628401586499e+000 1.4738653164396935e+000
      4.0487612372506027e-001 2.1377510631792997e+000
      2.1969352915616338e+000 -2.3435128212393477e-001
      -1.2313369974256840e+000 -6.3604668859985658e-001
      2.3228988226631144e+000 8.8754575573157923e-001
      -3.4350414589508110e-001 1.4223903787583871e+000
      -7.2578816947018243e-001 9.7231606603314380e-001
      6.8488638882267208e-002 1.3390655852316911e+000
      -8.7281050817042710e-002 -7.5460545793471168e-001
      -1.9662701856164082e+000 -6.1078752443483530e-001
      2.8129545121404909e+000 -1.6008764502996578e-001
      1.6042914031221718e+000 5.9706906343860122e-001
      -3.4742997292737471e-002 5.5538670399952494e-001
      2.2866115768105488e+000 2.9905900104794823e+000
      -2.3348424568711614e+000 -2.0718787531922498e+000
      3.0916544473765799e+000 -4.3471518326119601e-001
      3.8226926681206330e+000 2.4782044226379081e+000
      -2.6265866258209258e+000 -1.0374991930091926e+000
      3.1922170814901469e+000 6.2584398172127964e-001
      -1.7948930728505086e+000 -3.4698486896826813e-001
      -3.4270330014475969e-001 -2.4044120568977378e+000
      7.0083197931530461e-001 -3.6068439797667745e-001
      2.9746611785857566e+000 1.8562707308358734e-001
      1.3024307251496117e+000 -1.5510992135561416e-001
      -2.4071222860758961e+000 -3.2623449330664305e+000
      -1.8231073890446081e+000 4.7242167056040820e+000
      -1.4291196250282496e+000 2.3327323828096804e+000
      2.9605451449510909e+000 -2.3338986956742906e+000
      -9.3362814097421565e-001 1.9911646002941306e+000
      -2.4330660385498576e-001 -3.4822098217874080e+000
      -1.0192221653152287e+000 -2.3099666739339034e-001
      -1.1941032248061429e+000 6.9659368974101510e-001
      5.9530213107433971e-001 -7.9467759845580510e-001
      5.3563786806220293e-001 7.7462396364324559e-001
      -1.0039378610696759e+000 -8.1039804973529850e-001
      1.2095799546761652e+000 -1.4648316177995915e+000
      -3.0953317742789790e+000 -3.0498396204339935e+000
      -2.5513861059462339e+000 -3.7840360185936750e+000
      1.5019576048714905e-001 5.6504976313834432e-001
      -2.4201719989073327e+000 -6.1917484103059828e-001
      -1.9712685988913894e+000 8.0440087914252223e-001
      3.9701182532831267e+000 -2.6349305206389162e+000
      9.2444298202591668e-001 -1.3820959240722788e+000
      -4.2656202700848377e-002 -4.9087023579270168e+000
      -1.3467597294908779e+002 -5.7643942959133232e-001
      1.6383421296302252e+000 2.3201281433795544e+000
      3.0560864684135050e+000 3.5153339625171460e+000
      2.4116113933412131e+000 5.8690815931966824e+000
      2.9110318200102290e+000 8.5935652879436519e-001
      -3.4756321244897537e+000 1.4677846723811381e+000
      1.5424589789240062e-001 -2.7746319474023157e-001
      1.4141441770431329e+000 -1.6834221649941832e+000
      1.1296830065987640e+000 -2.4688590354273146e+000
      -1.2458411465084991e+000 1.1210632670233389e+000
      4.3766238808696095e-001 -3.7530572746317912e+000
      6.0167265581727325e-001 -1.2996929656542739e+000
      5.0617673152562626e-001 7.8789502089066554e-001
      7.2844730344202724e-001 -4.3194875017383538e-001
      -2.1358802927524927e+000 -1.6980707013963816e+000
      4.9732302220435670e-001 -6.8800343724892821e-001
      -4.2396655459027172e-001 5.9334202844811812e-001
      -1.5359361566058627e+000 -2.1848382385195735e+000
      2.0305613012630999e+000 -7.7229604338972715e+000
      2.0572117919538031e+000 -1.0554886442873515e+000
      1.1905221731732976e+000 1.9890153599724512e+000
      7.5405020676114998e-001 1.1471549110680350e+000
      2.1917430465508869e+000 1.8186157876883724e-001
      -1.3381770634867745e+000 -8.4975728823651309e-001
      1.5663077571635136e+000 3.1325632180591625e+000
      2.1129593470797836e+000 9.5527321138534751e-002
      -1.8158188238422945e+000 -4.2816858495977592e-002
      -1.8485084999461218e-001 2.9222082672366692e+000
      -2.3753976889512440e+000 -4.8180743641140911e-001
      -9.4300516640679247e-002 -1.0604597932199011e+000
      1.0545473373035630e+000 -1.2227755503321232e+000
      5.6247681036959918e-001 3.4463445417660166e-001
      4.4156177080788628e-001 -1.2943656852004850e+000
      2.6418309044595594e+000 4.0829012814152579e+000
      -1.8468878497334078e+000 -1.4612754896880804e+000
      2.6021505439865478e+000 -9.3763307919481076e-001
      3.4402280066673514e+000 1.4030724985530338e+000
      -2.6104002827976895e+000 -3.0350418705746723e-001
      2.1164106483267457e+000 -2.6521224400064136e-001
      -2.5299608421056345e+000 -5.6277203071806017e-002
      -2.2439001382684092e+000 3.9531583946775284e-001
      1.4550724721038055e+000 6.6148085758486880e-002
      1.7738428091747465e+000 2.3489371415152487e+000
      9.9398638023835362e-001 -4.0310835689168284e-001
      3.9283882484470671e-002 -3.1385825171945978e+000
      -2.1478109536904748e+000 6.0827293849419650e+000
      -7.0605601217485547e-001 5.1954246895933833e+000
      2.1208813780173879e+000 -1.7470558217171206e+000
      9.3650674661210442e-001 3.6081834159150583e-001
      -1.3036869920563574e+000 -3.0025164827633590e+000
      -1.8702397843773484e+000 -1.3497353994040970e+000
      7.1268968543280276e-001 1.0781220664002877e+000
      -7.4888193161325300e-001 -1.7150964750084365e+000
      1.7465321028346303e+000 1.9792914452150348e-001
      -2.5486993775128646e+000 -3.0897237254300789e+000
      1.8076362379672925e-001 -2.0555791195234878e+000
      -2.4324522977538710e+000 -2.2454494088478647e+000
      -2.1669219849486301e+000 -1.6888651316555969e+000
      -5.2890545846399173e-001 -1.3628280441214478e+000
      -3.0967874425031612e+000 -1.8957607421428413e+000
      -4.3593348647236779e-001 -2.8255256420807222e+000
      2.0078415011130710e+000 -2.1120427311008934e+000
      -5.6609275131868686e-001 -1.8129300175929119e+000
      3.6038133625064134e-001 -2.1738447173283615e+000
      -1.0316508242065805e+002 -8.5285871805535740e-001
      -1.1077973104207450e-001 2.1003092142015611e+000
      3.8711199031552526e+000 4.4432577538287266e+000
      6.1768357695740317e-001 6.6545821828923071e+000
      4.5495787552522122e+000 9.5646479976732396e-002
      -3.7915800220620341e+000 1.7534991460202021e+000
      -1.9496902845845665e-001 4.1734690085741943e-001
      2.1883287603650921e+000 -2.0242048076867438e+000
      -7.0987732130317382e-001 -1.8594198858866184e+000
      -1.2708921099979134e+000 1.6008540946590146e+000
      -1.2748012313205825e+000 -2.1047197748358606e+000
      8.3702839440559795e-001 -1.7030826766223093e+000
      8.0961443684769513e-002 8.4499110455334492e-001
