<?xml version="1.0"?>
<opencv_storage>
<my_nn type_id="opencv-ml-ann-mlp">
  <layer_sizes type_id="opencv-matrix">
    <rows>1</rows>
    <cols>4</cols>
    <dt>i</dt>
    <data>
      256 128 64 36</data></layer_sizes>
  <activation_function>SIGMOID_SYM</activation_function>
  <f_param1>5.9999999999999998e-001</f_param1>
  <f_param2>1.</f_param2>
  <min_val>-9.4999999999999996e-001</min_val>
  <max_val>9.4999999999999996e-001</max_val>
  <min_val1>-9.7999999999999998e-001</min_val1>
  <max_val1>9.7999999999999998e-001</max_val1>
  <training_params>
    <train_method>BACKPROP</train_method>
    <dw_scale>1.0000000000000001e-001</dw_scale>
    <moment_scale>1.0000000000000001e-001</moment_scale>
    <term_criteria><epsilon>9.9999999747524271e-007</epsilon>
      <iterations>1000</iterations></term_criteria></training_params>
  <input_scale>
    2.3977446796302564e+000 -1.8601550986814093e+000
    2.2229622057106715e+000 -1.5966514255302839e+000
    2.0069808240170177e+000 -1.0871146130092177e+000
    2.0922411295297572e+000 -1.3533146988625018e+000
    2.2528754005342773e+000 -1.6449566416599484e+000
    2.2090182865730164e+000 -1.5734872319041922e+000
    2.0794691194147759e+000 -1.3244237843891726e+000
    2.0045664865549409e+000 -1.0698975890541251e+000
    2.0022714374157440e+000 -9.5346258924559235e-001
    2.0019081190054338e+000 -9.5726162039743956e-001
    2.0010085729334950e+000 -1.0322663273069619e+000
    2.0312015226903570e+000 -1.1929278784054478e+000
    2.1343672769426982e+000 -1.4398509407946776e+000
    2.2326252226057521e+000 -1.6124515496597098e+000
    2.1708816809598979e+000 -1.5075567228888178e+000
    2.1277379628770743e+000 -1.4269353798659743e+000
    2.0422607627824680e+000 -1.2277877204823171e+000
    2.0143247783869072e+000 -1.1270626736212457e+000
    2.0173722798842255e+000 -8.7659628828302660e-001
    2.0173722798842255e+000 -8.7659628828302660e-001
    2.0057090333698313e+000 -9.2724246979200542e-001
    2.0133762669080206e+000 -8.9083910222319163e-001
    2.0219126299595214e+000 -8.6252225285971640e-001
    2.0422607627824680e+000 -8.1447304230015105e-001
    2.1061703178897391e+000 -7.2295131943437474e-001
    2.1091004829775564e+000 -7.1977238704789626e-001
    2.1004558775696816e+000 -7.2932495748947268e-001
    2.0551750767131249e+000 -7.9107929540148070e-001
    2.0439899062476079e+000 -8.1110710565381261e-001
    2.0069808240170177e+000 -9.1986621100779975e-001
    2.0007720517562220e+000 -1.0281745265969473e+000
    2.0076654119200859e+000 -1.0914688945756021e+000
    2.1213203435596424e+000 -1.4142135623730949e+000
    2.0283702113484399e+000 -1.1832159566199234e+000
    2.0571771294338310e+000 -7.8776822615224096e-001
    2.1447196874441974e+000 -6.8511878904467416e-001
    2.0091324675867477e+000 -9.0889325914638586e-001
    2.0532129324014190e+000 -1.2588150716508701e+000
    2.1482821693319916e+000 -1.4662878298615181e+000
    2.2476941783777251e+000 -1.6367138163980657e+000
    2.2135943621178655e+000 -1.5811388300841898e+000
    2.2135943621178655e+000 -1.5811388300841898e+000
    2.1519016905918606e+000 -1.4730279429646664e+000
    2.0677978074972772e+000 -1.2964764031133722e+000
    2.0035525268680168e+000 -9.4214672394388888e-001
    2.0532129324014190e+000 -7.9439786075054908e-001
    2.0405694492312496e+000 -8.1784727925538181e-001
    2.0002520002530004e+000 -9.8425098425147639e-001
    2.2090182865730164e+000 -1.5734872319041922e+000
    2.0819337550784645e+000 -1.3301243435223522e+000
    2.0613022819736813e+000 -7.8116812670034341e-001
    2.0231340097479076e+000 -8.5902912318661151e-001
    2.0422607627824680e+000 -1.2277877204823171e+000
    2.4453633236006302e+000 -1.9262088084711313e+000
    2.7944854697826518e+000 -2.3730948037043151e+000
    2.7365451294073373e+000 -2.3021728866442679e+000
    2.6110134630728781e+000 -2.1447610589527213e+000
    2.6582337638126048e+000 -2.2046462564953746e+000
    2.6582337638126048e+000 -2.2046462564953746e+000
    2.4889571739730316e+000 -1.9852396506689658e+000
    2.0922411295297572e+000 -1.3533146988625018e+000
    2.0035525268680168e+000 -1.0614058029241280e+000
    2.0283702113484399e+000 -8.4515425472851669e-001
    2.0001417384219207e+000 -1.0119764747968050e+000
    2.1871737044778405e+000 -1.5362291495737213e+000
    2.0357198516649690e+000 -1.2076988802536226e+000
    2.0422607627824680e+000 -8.1447304230015105e-001
    2.0003937922626482e+000 -9.8035171962078194e-001
    2.1871737044778405e+000 -1.5362291495737213e+000
    2.4799318012511438e+000 -1.9731203418684695e+000
    2.7228131746273654e+000 -2.2852182001336816e+000
    2.8744675742943948e+000 -2.4695326580743511e+000
    2.7228131746273654e+000 -2.2852182001336816e+000
    2.6832815729997481e+000 -2.2360679774997902e+000
    2.6706320837059767e+000 -2.2202278632396912e+000
    2.4370871833797696e+000 -1.9148542155126760e+000
    2.2476941783777251e+000 -1.6367138163980657e+000
    2.0794691194147759e+000 -1.3244237843891726e+000
    2.0010085729334950e+000 -9.6874224562653333e-001
    2.0007720517562220e+000 -9.7259752515927456e-001
    2.1343672769426982e+000 -1.4398509407946776e+000
    2.0207259421636903e+000 -1.1547005383792515e+000
    2.0312015226903570e+000 -8.3827364428490925e-001
    2.0030935826687659e+000 -1.0571882797418488e+000
    2.1669653845237984e+000 -1.5005375380928683e+000
    2.4053511772118195e+000 -1.8708286933869707e+000
    2.6110134630728781e+000 -2.1447610589527213e+000
    2.5267046628369472e+000 -2.0354009783964297e+000
    2.7093641799549886e+000 -2.2685549284543756e+000
    2.6460794662672247e+000 -2.1893157488758583e+000
    2.4799318012511438e+000 -1.9731203418684695e+000
    2.3155593931985594e+000 -1.7412639087743136e+000
    2.2528754005342773e+000 -1.6449566416599484e+000
    2.1789005611781351e+000 -1.5217718205053641e+000
    2.0069808240170177e+000 -1.0871146130092177e+000
    2.0003937922626482e+000 -1.0200420726418662e+000
    2.0700465039586495e+000 -1.3019935352279601e+000
    2.0115793826998791e+000 -1.1135528725660047e+000
    2.0357198516649690e+000 -8.2802097141134656e-001
    2.0003937922626482e+000 -1.0200420726418662e+000
    2.0976705483678848e+000 -1.3651506743346553e+000
    2.1957084830377775e+000 -1.5509369443679542e+000
    2.2689125699877164e+000 -1.6701717529076248e+000
    2.3756676237158780e+000 -1.8288869801622236e+000
    2.5568607698749548e+000 -2.0749128072993184e+000
    2.4981431819044180e+000 -1.9975232188640486e+000
    2.3829054777106853e+000 -1.8391869659314615e+000
    2.2689125699877164e+000 -1.6701717529076248e+000
    2.1519016905918606e+000 -1.4730279429646664e+000
    2.1631100510233399e+000 -1.4935759876113537e+000
    2.0219126299595214e+000 -1.1593903770998049e+000
    2.0133762669080206e+000 -1.1225371646848290e+000
    2.0551750767131249e+000 -1.2640957813116445e+000
    2.0173722798842255e+000 -1.1407759916011990e+000
    2.0115793826998787e+000 -8.9802651013387447e-001
    2.0015765661689233e+000 -1.0405021038417817e+000
    2.0746714507120299e+000 -1.3131353031292410e+000
    2.1091004829775564e+000 -1.3893280959296601e+000
    2.1032889605117644e+000 -1.3771534860493695e+000
    2.1377629440562256e+000 -1.4463832617523273e+000
    2.1789005611781351e+000 -1.5217718205053641e+000
    2.1748597846657285e+000 -1.5146344928922038e+000
    2.1004558775696816e+000 -1.3711309200802089e+000
    2.0677978074972772e+000 -1.2964764031133722e+000
    2.0592194189509323e+000 -1.2747548783981961e+000
    2.0475627875559659e+000 -1.2431631210161220e+000
    2.0746714507120299e+000 -1.3131353031292410e+000
    2.0634260636981017e+000 -1.2855471904785791e+000
    2.0494070961116253e+000 -1.2483491637029145e+000
    2.0207259421636903e+000 -1.1547005383792515e+000
    2.0069808240170177e+000 -9.1986621100779975e-001
    2.0063287291902183e+000 -1.0827805840074194e+000
    2.0243902652367178e+000 -1.1688443793331049e+000
    2.0700465039586495e+000 -1.3019935352279601e+000
    2.0844428281361416e+000 -1.3358631616824876e+000
    2.0372992503051970e+000 -1.2126781251816650e+000
    2.0124611797498106e+000 -1.1180339887498949e+000
    2.0040434714008470e+000 -1.0656421633639426e+000
    2.0035525268680168e+000 -1.0614058029241280e+000
    2.0000629911340138e+000 -1.0079682534683323e+000
    2.0022714374157440e+000 -1.0488088481701516e+000
    2.0256815859918142e+000 -1.1736091728365274e+000
    2.1377629440562256e+000 -1.4463832617523273e+000
    2.1120800019332000e+000 -1.3954814298487215e+000
    2.0326712241937579e+000 -1.1978241142570358e+000
    2.0083825918317175e+000 -1.0958436760986552e+000
    2.0015765661689233e+000 -9.6107446232714178e-001
    2.0184559365372210e+000 -1.1453936465270738e+000
    2.0949324644933949e+000 -1.3592121347010717e+000
    2.2425929397399225e+000 -1.6285496348111341e+000
    2.2229622057106715e+000 -1.5966514255302839e+000
    2.1310258370705570e+000 -1.4333685689819819e+000
    2.0389156984389563e+000 -1.2176857643454877e+000
    2.0173722798842255e+000 -1.1407759916011990e+000
    2.0173722798842255e+000 -1.1407759916011990e+000
    2.0256815859918142e+000 -1.1736091728365274e+000
    2.0256815859918142e+000 -1.1736091728365274e+000
    2.0219126299595214e+000 -1.1593903770998049e+000
    2.0571771294338310e+000 -1.2694089032815903e+000
    2.0439899062476079e+000 -1.2328828005937951e+000
    2.0243902652367178e+000 -1.1688443793331049e+000
    2.0030935826687659e+000 -1.0571882797418488e+000
    2.0026665731797419e+000 -9.4967720434515535e-001
    2.0389156984389563e+000 -1.2176857643454877e+000
    2.4453633236006302e+000 -1.9262088084711313e+000
    2.5170128198627704e+000 -2.0225995873897262e+000
    2.3478713763747789e+000 -1.7888543819998315e+000
    2.1412135161252430e+000 -1.4529663145135578e+000
    2.0700465039586495e+000 -1.3019935352279601e+000
    2.0613022819736817e+000 -1.2801341552733381e+000
    2.0869967789998038e+000 -1.3416407864998741e+000
    2.1482821693319916e+000 -1.4662878298615181e+000
    2.1447196874441974e+000 -1.4596008983995232e+000
    2.1151094341147183e+000 -1.4016796646712617e+000
    2.0022714374157440e+000 -1.0488088481701516e+000
    2.0001417384219207e+000 -9.8816526362511559e-001
    2.0494070961116253e+000 -1.2483491637029145e+000
    2.0015765661689233e+000 -1.0405021038417817e+000
    2.0035525268680168e+000 -9.4214672394388888e-001
    2.0655911179772888e+000 -1.2909944487358054e+000
    2.4209514656591251e+000 -1.8925692013287605e+000
    2.4453633236006302e+000 -1.9262088084711313e+000
    2.3546517846038233e+000 -1.7986923354612538e+000
    2.1871737044778405e+000 -1.5362291495737213e+000
    2.1181893524069930e+000 -1.4079234782863941e+000
    2.1120800019332000e+000 -1.3954814298487215e+000
    2.1213203435596424e+000 -1.4142135623730949e+000
    2.1748597846657285e+000 -1.5146344928922038e+000
    2.2528754005342773e+000 -1.6449566416599484e+000
    2.1871737044778405e+000 -1.5362291495737213e+000
    2.0133762669080206e+000 -1.1225371646848290e+000
    2.0002520002530004e+000 -9.8425098425147639e-001
    2.1412135161252430e+000 -1.4529663145135578e+000
    2.0243902652367178e+000 -1.1688443793331049e+000
    2.0035525268680168e+000 -9.4214672394388888e-001
    2.0512903762734829e+000 -1.2535663410560174e+000
    2.2857201621831962e+000 -1.6961494854295940e+000
    2.4209514656591251e+000 -1.8925692013287605e+000
    2.3756676237158780e+000 -1.8288869801622236e+000
    2.3685476328517558e+000 -1.8187062180825984e+000
    2.3829054777106853e+000 -1.8391869659314615e+000
    2.3902636515427838e+000 -1.8496087779795352e+000
    2.2326252226057521e+000 -1.6124515496597098e+000
    2.1447196874441974e+000 -1.4596008983995232e+000
    2.1277379628770743e+000 -1.4269353798659743e+000
    2.2000763928677070e+000 -1.5583874449479591e+000
    2.0219126299595214e+000 -1.1593903770998049e+000
    2.0001417384219207e+000 -1.0119764747968050e+000
    2.1830048978485865e+000 -1.5289697002788709e+000
    2.0571771294338310e+000 -1.2694089032815903e+000
    2.0083825918317175e+000 -9.1253891573306212e-001
    2.0030935826687659e+000 -1.0571882797418488e+000
    2.1061703178897391e+000 -1.3832189984553644e+000
    2.3478713763747789e+000 -1.7888543819998315e+000
    2.5074937193291729e+000 -2.0099751242241783e+000
    2.5672885346883976e+000 -2.0884688476631807e+000
    2.6832815729997481e+000 -2.2360679774997902e+000
    2.7795291713358590e+000 -2.3548788812706585e+000
    2.5779123745721950e+000 -2.1022261625975638e+000
    2.2915009806207909e+000 -1.7049858486761837e+000
    2.1091004829775564e+000 -1.3893280959296601e+000
    2.0532129324014190e+000 -1.2588150716508701e+000
    2.0012767316972169e+000 -1.0363754503432017e+000
    2.0030935826687659e+000 -1.0571882797418488e+000
    2.0844428281361416e+000 -1.3358631616824876e+000
    2.0341772561733178e+000 -1.2027476633723189e+000
    2.0312015226903570e+000 -8.3827364428490925e-001
    2.0207259421636903e+000 -8.6602540378443860e-001
    2.0124611797498106e+000 -1.1180339887498949e+000
    2.1181893524069930e+000 -1.4079234782863941e+000
    2.2375703784202541e+000 -1.6204626748480013e+000
    2.3546517846038233e+000 -1.7986923354612538e+000
    2.4209514656591251e+000 -1.8925692013287605e+000
    2.4623480450043695e+000 -1.9493588689617924e+000
    2.3829054777106853e+000 -1.8391869659314615e+000
    2.2326252226057521e+000 -1.6124515496597098e+000
    2.0341772561733178e+000 -1.2027476633723189e+000
    2.0000629911340133e+000 -9.9209473766568124e-001
    2.0133762669080206e+000 -8.9083910222319163e-001
    2.0069808240170177e+000 -1.0871146130092177e+000
    2.0422607627824680e+000 -1.2277877204823171e+000
    2.0107307467343785e+000 -1.1090935468098357e+000
    2.0107307467343785e+000 -9.0163719992454272e-001
    2.0173722798842255e+000 -8.7659628828302660e-001
    2.0057090333698313e+000 -9.2724246979200542e-001
    2.0143247783869072e+000 -8.8726210476566147e-001
    2.0184559365372210e+000 -8.7306229001014724e-001
    2.0153068536430214e+000 -8.8369606082362639e-001
    2.0063287291902183e+000 -9.2354814518279882e-001
    2.0051216473104119e+000 -9.3094933625126264e-001
    2.0035525268680168e+000 -9.4214672394388888e-001
    2.0133762669080206e+000 -8.9083910222319163e-001
    2.0243902652367178e+000 -8.5554588590361291e-001
    2.0326712241937575e+000 -8.3484710993672173e-001
    2.0326712241937575e+000 -8.3484710993672173e-001
    2.0091324675867472e+000 -1.1002392084403616e+000</input_scale>
  <output_scale>
    227158990. -2.1580103950000000e+008 227158990.
    -2.1580103950000000e+008 227158990. -2.1580103950000000e+008
    227158990. -2.1580103950000000e+008 227158990.
    -2.1580103950000000e+008 227158990. -2.1580103950000000e+008
    227158990. -2.1580103950000000e+008 227158990.
    -2.1580103950000000e+008 227158990. -2.1580103950000000e+008
    227158990. -2.1580103950000000e+008 227158990.
    -2.1580103950000000e+008 227158990. -2.1580103950000000e+008
    227158990. -2.1580103950000000e+008 227158990.
    -2.1580103950000000e+008 227158990. -2.1580103950000000e+008
    227158990. -2.1580103950000000e+008 227158990.
    -2.1580103950000000e+008 227158990. -2.1580103950000000e+008
    227158990. -2.1580103950000000e+008 227158990.
    -2.1580103950000000e+008 227158990. -2.1580103950000000e+008
    227158990. -2.1580103950000000e+008 227158990.
    -2.1580103950000000e+008 227158990. -2.1580103950000000e+008
    227158990. -2.1580103950000000e+008 227158990.
    -2.1580103950000000e+008 227158990. -2.1580103950000000e+008
    227158990. -2.1580103950000000e+008 227158990.
    -2.1580103950000000e+008 227158990. -2.1580103950000000e+008
    227158990. -2.1580103950000000e+008 227158990.
    -2.1580103950000000e+008 227158990. -2.1580103950000000e+008
    227158990. -2.1580103950000000e+008 227158990.
    -2.1580103950000000e+008 227158990. -2.1580103950000000e+008</output_scale>
  <inv_output_scale>
    4.4022030561062097e-009 9.4999999559779691e-001
    4.4022030561062097e-009 9.4999999559779691e-001
    4.4022030561062097e-009 9.4999999559779691e-001
    4.4022030561062097e-009 9.4999999559779691e-001
    4.4022030561062097e-009 9.4999999559779691e-001
    4.4022030561062097e-009 9.4999999559779691e-001
    4.4022030561062097e-009 9.4999999559779691e-001
    4.4022030561062097e-009 9.4999999559779691e-001
    4.4022030561062097e-009 9.4999999559779691e-001
    4.4022030561062097e-009 9.4999999559779691e-001
    4.4022030561062097e-009 9.4999999559779691e-001
    4.4022030561062097e-009 9.4999999559779691e-001
    4.4022030561062097e-009 9.4999999559779691e-001
    4.4022030561062097e-009 9.4999999559779691e-001
    4.4022030561062097e-009 9.4999999559779691e-001
    4.4022030561062097e-009 9.4999999559779691e-001
    4.4022030561062097e-009 9.4999999559779691e-001
    4.4022030561062097e-009 9.4999999559779691e-001
    4.4022030561062097e-009 9.4999999559779691e-001
    4.4022030561062097e-009 9.4999999559779691e-001
    4.4022030561062097e-009 9.4999999559779691e-001
    4.4022030561062097e-009 9.4999999559779691e-001
    4.4022030561062097e-009 9.4999999559779691e-001
    4.4022030561062097e-009 9.4999999559779691e-001
    4.4022030561062097e-009 9.4999999559779691e-001
    4.4022030561062097e-009 9.4999999559779691e-001
    4.4022030561062097e-009 9.4999999559779691e-001
    4.4022030561062097e-009 9.4999999559779691e-001
    4.4022030561062097e-009 9.4999999559779691e-001
    4.4022030561062097e-009 9.4999999559779691e-001
    4.4022030561062097e-009 9.4999999559779691e-001
    4.4022030561062097e-009 9.4999999559779691e-001
    4.4022030561062097e-009 9.4999999559779691e-001
    4.4022030561062097e-009 9.4999999559779691e-001
    4.4022030561062097e-009 9.4999999559779691e-001
    4.4022030561062097e-009 9.4999999559779691e-001</inv_output_scale>
  <weights>
    <_>
      -9.2839243571073732e-002 -1.0664332127422758e-001
      -1.7922277000857476e-001 -2.1444258632050850e-001
      -1.3471170064803695e-002 -1.0989252385154209e-001
      1.0196417509891627e-001 1.5761031508116911e-002
      6.3454375885706044e-003 4.5239143128325270e-002
      1.4235670342050710e-001 -3.7491864421732919e-002
      -7.0620593452162164e-002 4.7349973094939699e-002
      -2.1908756400297835e-001 -1.6106317752809643e-002
      -7.4608577481575962e-003 -9.3195543774440434e-002
      1.9428532558420097e-001 -1.6051245952482765e-002
      -2.7504029589503415e-001 -1.2251355596326986e-002
      -9.7236273375473928e-002 -4.6399028760365606e-002
      -8.0389526067962624e-002 -2.2626118862414202e-001
      4.3194455790409647e-002 4.1787610257726241e-003
      4.5434348873085617e-002 1.9214786434780393e-002
      7.5917466451451213e-002 -1.5035663748046332e-001
      -9.6417811310057958e-002 -1.0010573150011447e-001
      2.0359354684335849e-003 -1.7622768049098228e-001
      -2.3900485120432310e-001 3.0307490370694884e-002
      -1.1190092369482310e-001 1.8985927568937529e-002
      -1.5167173670308087e-001 -2.3897625539069811e-001
      3.1189913970980424e-002 6.0747208883369715e-002
      1.1445236887120872e-001 -4.8133223595373989e-002
      4.0630105835709057e-002 -2.3713941027079385e-001
      3.0665422373092199e-001 1.4848335251109909e-001
      1.3517112645635171e-001 -1.0920831579931528e-001
      -1.2430785297141224e-001 -7.9431533565715681e-002
      9.7955368599887530e-002 -5.4418600115764019e-003
      -1.0123753953910723e-001 1.0950193352589345e-001
      8.4697065567155196e-003 -9.7064888323214707e-002
      -7.7584033471406619e-002 -6.0683033403618705e-002
      -2.4554785765120557e-001 1.2394448337078719e-001
      -3.1513146106738471e-001 -1.8136717205020350e-001
      -1.0079822680900762e-001 -3.3995555746181530e-002
      -1.6799377577381991e-001 -1.8083081221229991e-001
      -2.3267790086857265e-001 -4.0698110237161099e-002
      -2.2113011091523702e-001 2.6411992591081480e-003
      1.8003305702919838e-002 -6.8147330704078843e-002
      -1.4026976732835740e-002 -1.0984638609149361e-001
      2.2488779265575390e-001 -2.5725142931163510e-002
      1.1887118499885035e-001 4.6320967877407704e-001
      1.0545109033527114e-001 -1.2760332462246407e-001
      7.4676400896079020e-002 6.2545128641507630e-002
      8.7383273029795927e-002 -7.5093193803285857e-002
      7.0414095175990163e-002 -1.2931275483161386e-001
      1.1470017510907092e-001 -4.0208820436089081e-002
      1.8035187380576433e-002 -2.3368756825866946e-001
      -3.5607497430650593e-002 -7.8015999873663186e-002
      2.5036563455971489e-001 3.0707263026463458e-002
      -3.7289244367608620e-001 -2.1234772290877263e-001
      4.7156001846356613e-002 -1.0951079607985779e-001
      8.6804104480703269e-003 -1.6414709038180625e-001
      1.8278505568183820e-001 1.0322599673788486e-001
      1.0539305923665274e-001 1.3374474363211819e-001
      1.3557117377522408e-002 3.4913715049626690e-002
      -8.7304085413948546e-002 6.6154836846816695e-002
      -4.0780827576390899e-001 -2.4168696379107277e-001
      -5.6958880873342117e-002 3.6598803556359770e-002
      -3.7093056571541737e-002 3.3762274122966685e-001
      1.2971984300091294e-001 1.3880682091785598e-001
      -8.0577853039029090e-002 1.8628482794483145e-001
      -2.5135912184012836e-002 -1.3994725547288656e-001
      -2.3478210169595504e-001 3.8532322089642301e-002
      -6.3250411374263044e-002 1.3187933118047254e-001
      -5.1972996632256740e-001 1.1494894291105356e-001
      -2.6864342807079933e-001 -7.2377725181895114e-002
      -6.2277830140453808e-002 1.1621572790496724e-001
      5.9493272254577775e-002 1.4541161335890394e-003
      -1.1692924378517827e-002 6.4159140674533349e-002
      2.9644379503522755e-001 -1.1268751375555214e-001
      -1.1077467839355785e-001 2.5810055292284344e-002
      -6.4630068051469272e-002 1.4875125138838669e-002
      -1.2519142238996603e-001 -3.5191908733779192e-001
      1.1499300620479516e-001 2.4727551102560685e-001
      -4.3492181853556566e-001 -1.3371603077335663e-002
      -7.5496583333097916e-002 -8.9592075900747969e-002
      -5.6029253405133463e-002 -2.9083016833299730e-001
      4.0145256626248786e-002 -7.6390580071732134e-002
      3.2535159662563351e-001 8.9027633480755937e-003
      6.6125226336864490e-002 -1.8705213506950438e-001
      2.1336940775810529e-002 -2.1774989010720389e-001
      -5.3663637480129395e-002 -1.6943677887357078e-001
      8.6923170750566284e-002 -6.2921287577074317e-003
      9.5333297850694748e-003 1.3013811568448526e-002
      -1.8710868870613834e-001 -9.2347940703475948e-002
      -6.9729301623349699e-002 1.5057148453303149e-003
      -4.7997354806307027e-002 1.3711850023430144e-002
      7.2329300004306832e-002 -1.3554001213829850e-001
      2.2257808549644811e-001 3.3245897022605712e-002
      8.6274613589778268e-002 -1.0537860684238141e-001
      -1.7606403014430585e-002 -6.0839424147233701e-002
      1.5125093393595909e-002 -6.4724541640096570e-002
      2.5357999009366633e-001 2.0231735739089866e-002
      2.5337900743254458e-002 -9.8221995115714125e-002
      3.0929910178327084e-002 -1.1663448397340785e-001
      -5.8527949252995239e-002 2.3629148138357495e-001
      -3.7699432688638984e-001 -1.5299377458656874e-001
      -2.3746741111468947e-001 5.7901605765763954e-002
      -1.3070433542413948e-001 -2.0099034042737426e-001
      -3.3411387967489664e-001 -9.2917187886361347e-003
      -8.2253861319560820e-002 -4.5976008641233787e-002
      -2.6133272633101012e-002 -1.4137454074889555e-001
      -1.5323877405422948e-002 5.2237029252426646e-002
      2.4297970562092205e-001 1.2010638295255502e-001
      1.1881845415807568e-001 4.1204062871029296e-001
      1.0347999915424472e-001 -1.4839603830688677e-001
      -7.4127296877080001e-002 -2.3421509264412575e-002
      2.9517868469433178e-001 7.4539247648975670e-003
      1.7819349537494061e-001 -1.7062231624243243e-001
      1.0634367793028465e-001 -1.3561525098620808e-001
      3.4429670409054397e-002 -2.3485832649862315e-002
      -3.3636797078569077e-003 -2.1310032715770985e-001
      3.5189247523936751e-001 1.0041103787111279e-001
      -4.0864652441753163e-001 -1.5438965798413462e-001
      -9.4403036675993566e-003 -6.4585501965594747e-002
      -1.6216000781995951e-001 -1.2700217946931150e-001
      1.1640942009689723e-001 1.8329490380336330e-001
      9.6287057169308202e-002 1.4543854601805789e-001
      2.8273521863559813e-002 1.0776766988605110e-001
      -5.1145509104424614e-002 2.2150696309915374e-001
      -2.8735318939369731e-001 -8.7718308248268262e-002
      -7.6476335506443879e-002 -1.1526652833830031e-002
      -8.8076943241688785e-002 2.6330947778763675e-001
      -7.0964540203434706e-002 3.5321364930134175e-001
      -3.7762546385754409e-002 2.2804575100558439e-001
      3.2457770686795527e-002 -1.1527618654959391e-001
      -5.1900317689951547e-001 -1.0944152456795335e-001
      -3.0793794654635893e-002 1.5402947806586811e-001
      -4.1818471364643756e-001 -4.6408927561853150e-002
      3.2474082988959423e-002 1.6845179710575064e-001
      5.3452502722496041e-002 9.4429427589498474e-002
      -5.8786893497966723e-002 1.4048928905418825e-001
      -2.3939890280644965e-001 3.8695038507816151e-003
      -2.1860293947933046e-001 -1.3019598500024546e-001
      -2.7961410887617810e-001 -2.1598714177490605e-001
      3.3169066273792946e-001 -3.9069163830391059e-002
      5.5233068436590101e-002 5.3885611945384659e-002
      1.0437806992935526e-001 4.2268608491688203e-001
      -1.1805346554127646e-001 1.0299731237509042e-001
      -1.7176629383962805e-001 -1.8640507695496033e-002
      4.8665499529249298e-002 1.0879281001224371e-001
      -3.2053297604179035e-002 -1.9570954190644035e-001
      -1.1095689505939803e-001 4.2304780346158907e-002
      -1.1267960749769319e-001 2.3152463168400583e-001
      -1.2200934112251510e-001 4.3522813812430727e-002
      2.7675704740182442e-002 -8.4842927246615227e-003
      2.0623003345306215e-001 7.8832829000995239e-002
      -4.7642003864704172e-002 -1.3329291265687501e-001
      -3.6539958734816236e-001 1.9274958197441364e-001
      4.9219547977827219e-003 1.1397690752429467e-001
      -6.2337447802141413e-002 -6.9149393743320409e-002
      2.0738721788659359e-001 -4.3372456269790399e-001
      2.4045954372795031e-001 -5.6549113573432064e-002
      -1.8306007763238266e-001 -1.6346270881582831e-001
      -3.5525163414326072e-001 -1.6548567662593441e-001
      -9.7202894555490929e-002 -1.5886855349861220e-001
      9.4649511417524854e-002 7.4832138382217627e-003
      -1.9632724673948346e-001 1.5750671773340499e-001
      1.4435989105474945e-001 -1.1695884395756154e-002
      1.9806617238615631e-001 -1.6979508621023287e-001
      1.3363043125416876e-001 -7.7846992757330383e-002
      4.7910647442182493e-002 1.7193685312584583e-001
      -7.5190323963783209e-002 3.6700751076164363e-002
      -2.4964078152634087e-002 8.3024938735150405e-002
      -1.0497549916696677e-001 4.1256532528871598e-002
      3.2153851398530900e-002 -5.9378185822605862e-003
      -1.2642027441203202e-001 3.1005094825928985e-002
      6.7459326193352487e-002 1.4117154720632594e-001
      5.0838757967088290e-002 2.4405079430107840e-001
      5.9082314296150330e-002 -1.7161644777892116e-002
      1.7498232270291988e-001 1.8742161648793179e-001
      1.0511820535570940e-001 1.3455376617190062e-001
      1.0590048703534234e-001 1.4546408397973440e-001
      -8.8378688173807674e-002 -3.5595303368600936e-002
      7.7151777366934890e-002 -5.2348056319000177e-002
      -1.9218279696365489e-001 -2.1304629367481165e-001
      1.3742233149228317e-001 2.3451783333030307e-001
      2.0719043558728967e-001 -3.4418933995207610e-002
      7.7024349400007172e-002 -2.3714292959409492e-003
      -3.6793611135997967e-002 2.3908097536347456e-002
      8.5642841534626715e-002 -2.5062518862927369e-001
      -4.6811277944542401e-002 -9.6072307844997415e-002
      -1.3723407794814377e-001 -1.0923955133499338e-001
      -2.1033796876309610e-001 -3.5515803941220425e-001
      -8.6936209497623457e-002 4.6584958712334715e-002
      9.8588487250348619e-002 -9.1324536955426517e-003
      -1.6604512014152706e-001 3.9033591420600783e-001
      -1.5636084878609260e-001 -1.9301643541427098e-002
      -5.6633847097288428e-002 -5.7973439812270190e-002
      -1.7434601014360629e-001 -9.5235949450640775e-002
      7.4348918151000157e-002 8.9370129090410536e-003
      -2.6232781158292495e-001 5.9822907721188957e-002
      9.0421104186426626e-002 1.2883976109954146e-001
      2.8528888928417966e-002 1.9826758095401215e-001
      -5.2473331136685029e-002 2.6340452264672209e-001
      -5.0667290621434172e-002 -3.0923712914682253e-002
      -2.6511337746525709e-001 3.7295938600645624e-002
      -2.6654789747648322e-001 -4.2395208012938237e-002
      -1.2742908343171291e-001 -1.8954203257411076e-001
      3.5104641406887138e-001 2.8755219720709616e-002
      1.4705165168158593e-001 -8.4345122991622182e-002
      1.5931276036895642e-001 2.3048202543554666e-001
      -1.1330086476458102e-001 7.8731826153584233e-003
      -4.1099182800810728e-002 1.8935951908440546e-001
      1.0033721994606294e-001 -4.1241924427596777e-002
      2.9119573233065682e-001 -1.2973956087022018e-001
      -1.9475689041461056e-001 1.1125450507299596e-001
      4.4558799278695792e-002 1.3204034334493867e-001
      -6.5047639677840371e-002 -8.6726581406089256e-002
      9.0821070115348040e-002 6.6261817160074996e-002
      1.9221123906528120e-001 5.3572216876808217e-003
      8.5534175984520081e-002 -3.1930137047434255e-002
      -2.5303132824214281e-001 4.9056721557123861e-001
      -4.1995997770034814e-002 2.3415658296330761e-003
      -5.4479460905640983e-003 -2.4019082776592364e-002
      3.5274678145488993e-002 -1.3269464208052362e-001
      8.1013140481964896e-002 -3.1205058229058069e-001
      -3.2018275353546310e-001 -2.3264376151729591e-001
      -2.9722175860460504e-001 -1.0305115717429181e-001
      -1.4213912517546662e-001 3.7245640723467158e-002
      -1.7734796917464768e-001 4.0435401812848507e-002
      -8.7784932890138029e-002 7.7581985377114596e-002
      -1.2506286434928324e-002 -2.4166335915153050e-001
      1.9008888030141183e-001 -1.4087820512081661e-001
      2.8028846254069528e-001 1.3113739965839913e-001
      8.0466393599465433e-002 1.2700686637672681e-001
      -1.9849108818844424e-001 3.2737240281507804e-002
      2.6585047277732687e-001 5.4477809885453220e-002
      -5.0524319816143227e-002 3.5385330017633450e-002
      -2.3564484042176894e-002 4.0792411878949560e-002
      6.1467549022397483e-002 2.6842212482011890e-001
      -2.4260612115444492e-002 7.0162752503027989e-002
      9.5975633884242392e-002 8.1935689442952944e-002
      -1.6722819064173539e-001 -1.1935117291066935e-001
      3.3952616122035972e-001 3.0917505861162720e-001
      2.5888584803338838e-001 2.4665842574703850e-001
      -2.4687355179584831e-002 7.8428233117350657e-002
      1.3433160604395714e-001 2.6937946810593288e-001
      2.6126014084620924e-001 3.1829624946074858e-001
      3.1372687546608363e-001 1.7781586482560757e-002
      -2.8727057000348072e-001 1.1090709995555090e-001
      1.3063656750725122e-001 -1.1692718784356346e-001
      -1.0498256223756875e-002 1.0914337245918854e-001
      -6.5423479638182055e-002 2.4404780074612883e-001
      7.5532064606787866e-002 -4.0126327400899386e-001
      -8.1814988167450642e-002 -1.8121597977268866e-001
      -3.7296332618069855e-001 -1.2249678278167202e-001
      2.5677872549997052e-002 -1.3071604584004531e-001
      2.6556455523314731e-001 -8.2717609678422700e-004
      -9.8381945805631394e-004 1.4308075233038539e-001
      -2.3601506192280478e-001 9.3748759728028389e-002
      -1.1813042363491991e-001 1.5019139713848453e-001
      3.0801861294753697e-002 -2.3554914056961643e-001
      -3.2464297045424007e-001 -1.4700803425924200e-001
      3.0075740126263734e-001 -2.0039476592199279e-001
      -2.2070158454896174e-001 -1.2892961188490809e-001
      1.3191774739698461e+000 2.1708146198608230e-001
      5.6060826409968290e-002 2.7153778291397818e-001
      -1.7603395926574880e-001 1.6837488597435407e-001
      -1.0957290130594675e-001 3.4325522239924404e-002
      4.2190664994992001e-002 6.8763496612097977e-002
      -4.1755132320687816e-001 -9.7053492653500897e-002
      5.1948788977613000e-002 -1.3260163826480648e-001
      4.7392718682122914e-001 3.2407879643656316e-002
      1.5150425154060690e-001 -1.6610809995939069e-001
      8.2646588210748981e-002 2.4780246968030836e-001
      3.7909827289190567e-001 -7.3314690404650440e-002
      -1.7181177886728915e-002 2.8206589576708835e-001
      2.0228698955948300e-002 -4.6608836422622993e-002
      2.4753949422635116e-001 -1.8535058270919150e-001
      -3.9438665619854485e-001 1.1058257241280151e-001
      -1.6930875490806441e-001 4.5760039788514523e-001
      2.0612179820969745e-002 1.2322417233993217e-001
      6.2769735484741310e-002 3.1808576833450418e-002
      -9.5244718743008966e-002 6.8893591983694352e-002
      9.4084957072513700e-002 4.0123594928075726e-002
      1.2395249417825728e-001 2.3373475821817769e-001
      -5.3318082557446606e-002 -5.8195792013269278e-002
      -8.9255055256550267e-002 -1.2614293397800937e-002
      1.3728631771840608e-001 7.1066264787201655e-002
      2.8236225629667455e-001 7.1799403557982533e-002
      -1.6629951681291888e-001 -3.3229526112260960e-001
      -1.6387046034599512e-001 1.5790433155366608e-002
      -1.1307063690947968e-002 5.5060746065870775e-002
      6.3179692414881868e-003 -8.8282168094785479e-002
      -2.5366430892957346e-002 2.0072906419900793e-001
      -2.5874309555309338e-001 -3.8674245664456769e-001
      2.5813240947555238e-001 -1.8506417923211371e-001
      2.0659756447287667e-001 1.0918081409087943e-001
      2.8055168778082040e-001 1.3558490528959383e-001
      -1.0742484292752458e-001 1.8676538234314843e-001
      4.8245790189809906e-001 -6.3067858860849146e-002
      -5.4305442999591065e-002 1.3310160404894961e-001
      -4.1858780725041435e-002 1.7272239717893417e-001
      -6.8894635721539282e-002 3.2239845401742184e-001
      -2.2471613658688375e-001 -5.8077856515886733e-002
      6.1061893248324541e-002 2.2483823995451402e-001
      -2.1353233067994704e-001 1.2174767245949836e-001
      2.4046712432033940e-001 8.6604311371144868e-002
      3.4810682588703923e-001 7.0227178024616643e-002
      -5.7276193635328173e-003 3.7436624510253286e-001
      6.1797861979333520e-002 9.9826829136966458e-002
      -7.4585731930852897e-002 1.6082317836124779e-001
      2.1584806932021175e-001 -1.5345359192672711e-001
      -2.9164465584788796e-001 4.1566054465836270e-002
      5.2263543295757553e-001 -6.2256726608912169e-002
      4.7127918909693797e-002 1.7562627365100267e-001
      -9.1134468316509357e-002 3.4040216319388045e-001
      4.8521558877635533e-002 -1.6773204207525955e-001
      -2.4754048180714708e-001 1.1195587274922346e-001
      -8.8143384050414178e-002 -2.5100508823330608e-001
      9.7344205853592436e-002 -3.1432264285231187e-001
      2.0044176719452086e-001 1.6775785196059756e-001
      -7.7083957721411347e-003 6.7723331460630545e-002
      -2.2990699538770740e-001 2.9475259586271126e-002
      1.7263825926490856e-001 1.6642609535973168e-001
      -2.0060713450448922e-002 -1.2506814505840710e-001
      -1.1022139280104890e-001 6.8809543594706467e-003
      2.8184436009024905e-001 -7.3485762133930252e-002
      -1.3773897645677033e-001 -8.5068918429631823e-002
      1.7149845949263596e+000 5.1222222610064938e-001
      2.1822629214070738e-001 2.0533691644213389e-001
      -7.8061875553080307e-002 2.3732052975340959e-001
      6.7704375745539891e-002 -7.6724138810204082e-002
      -1.3690668392798166e-001 3.2288878167637119e-001
      5.0125840129797802e-002 -2.6920653386073629e-001
      3.4673640998946287e-001 5.1715135263599193e-002
      2.0781613163358229e-001 3.3682198939545431e-002
      7.0032297911411245e-002 -2.5747134973669611e-001
      2.2404507945793345e-001 -2.5108604287295966e-001
      9.4937532378302977e-002 -9.1647830666179403e-002
      1.7439336733040428e-001 2.5048402252147645e-001
      1.8713014675774953e-002 -2.6938678630561796e-001
      2.1740350653618476e-001 -3.4495563740977458e-001
      -7.8842496454273256e-002 2.6047862885144043e-002
      -1.8206478320809025e-001 9.7948530416106142e-002
      1.6498562495850019e-001 8.6889920682887770e-002
      -1.2248854994586743e-001 -1.5783025080218543e-001
      -2.3518241676028506e-001 1.1773474983045838e-001
      2.3351448512610751e-001 -1.5713899687095684e-001
      4.5103766447002575e-001 3.2233595618847122e-001
      -2.0248636812884077e-001 -4.0003133750931563e-002
      1.2319571236252300e-001 -1.9100916984152264e-001
      3.8178964241955327e-002 3.2168709017719443e-001
      -9.0065280628718450e-002 8.5927847612080485e-002
      1.5467085546009599e-001 5.6897544283598993e-002
      7.6634921589699020e-002 1.7917692085039208e-001
      -1.5412524652968647e-004 -3.5547964021620061e-002
      -2.8277236585704957e-001 -7.1871337155446732e-002
      -9.5567697497597345e-002 -5.1102746469681472e-002
      -2.1059736278815813e-001 -3.1906561916900988e-001
      8.1194065336672921e-002 -4.1463998381737407e-002
      1.5957091500800116e-001 -3.8391529541565189e-002
      8.7046187709958409e-002 -8.6122739671492352e-002
      1.1676860452629056e-001 -1.5237981064432398e-002
      3.1964223517056377e-002 -1.3559325679246184e-001
      4.4596629979933472e-001 1.7504059246994827e-001
      8.4335555466517314e-003 1.0671206963497262e-001
      -9.8246394299451954e-003 -1.4313254476632177e-002
      2.3696557169689114e-001 4.1334844700110979e-002
      -2.2634061296518598e-002 4.1050263542794213e-001
      -4.8593153377362092e-001 8.5974015054244943e-002
      2.1449448146927105e-001 -4.8714611132129083e-002
      2.7738505349787673e-001 -5.1877852085038166e-002
      1.0593320912124038e-001 6.9327005459837540e-002
      3.4884920583043906e-003 -1.1262038858617052e-001
      -7.1097790796678162e-002 -2.0039419019482205e-001
      4.1666285080491683e-001 -7.2559225069273425e-002
      -2.5687221788888798e-001 -6.8259674068818933e-003
      3.6078449912490229e-001 1.5411150002404203e-001
      1.6239201329317421e-001 1.0941748242576835e-001
      -2.4031521801384703e-001 1.3593667714101640e-001
      1.4709217957690443e-001 -1.4089884166673050e-001
      -4.1037909240127890e-001 4.7297209954538455e-002
      -3.9927969224344556e-001 -4.3412366940824459e-001
      3.2932232206749834e-001 -1.8700944948983608e-001
      5.5256070947667851e-002 -6.2454885779726591e-002
      -1.8424914271822981e-001 1.9825476404551262e-001
      -2.9698978984366958e-001 -1.3617776532828010e-001
      -1.7376183694307934e-001 1.3873592315565447e-001
      1.3987391219614703e-001 -1.4410270588657136e-002
      -1.4157727280779325e-001 1.5180485508912047e-002
      1.6258474027938197e-001 -6.0461358564216569e-002
      6.3700032038480486e-002 -7.6368938752384791e-002
      1.3030243720460302e+000 -2.8618256264794840e-002
      1.3927408128058480e-001 -1.8049551773330014e-001
      -3.4376875502661206e-002 1.0136013466556063e-001
      -7.8498224765916641e-002 -2.0385460915808971e-002
      -1.6409862174959249e-002 1.6374443325331167e-001
      -1.1052807774630169e-001 -2.6341501327905047e-002
      1.1687778963886999e-002 3.5731289166156317e-002
      1.1389851824689150e-001 -7.0300929900511774e-002
      1.4415224978685484e-001 -1.9590115244468916e-002
      -6.4919761354624808e-002 2.4026362900410370e-001
      2.0923855523348711e-001 -2.9031151241781333e-002
      2.9125762865969865e-002 7.6262627031192159e-002
      8.8813137953303894e-002 -9.7585991322897511e-002
      7.9835733844425980e-002 5.4769483371494211e-002
      -2.7344417334089655e-001 5.1591849030820855e-002
      -1.7755573764920901e-001 1.5786311427556499e-001
      -6.3272183089272169e-002 3.1999796383419565e-001
      4.2373264592179084e-002 2.6157642224442064e-002
      -4.1323262809151318e-001 3.8903862978800316e-002
      1.7870032442425132e-001 4.8623440567519540e-003
      -7.5578450573093982e-003 1.6733221639242284e-002
      -3.9159017493206362e-002 1.1405230353037844e-001
      1.0814936370869804e-001 -2.4321069411773730e-001
      1.8033112844584123e-001 1.4915085256510125e-002
      1.3690767311804941e-001 1.0230626625382032e-001
      1.2281716120181221e-001 7.1174627210752822e-002
      5.9706697321502142e-003 6.6033308425761050e-002
      -1.5058201618893977e-001 5.3688794289856970e-002
      -2.1155539191858275e-001 -4.3854819390326122e-003
      -6.6812840526671372e-002 6.6684321712399283e-002
      -3.0134706463460148e-001 -1.3156798716614709e-001
      4.0355385754383979e-002 -8.4356274901032979e-002
      1.8070686142138925e-002 1.7842008778520649e-001
      -1.0994428409918269e-005 1.0971408128692983e-001
      1.1654277216782154e-001 3.3032637043610458e-001
      3.3581206810688191e-001 6.8187029463554372e-002
      4.2508208166485836e-003 -1.3600720017296439e-001
      5.0942416835489980e-002 1.3141839528787394e-001
      -7.5442980237953775e-002 -2.1079554069987835e-002
      -1.2110561799421352e-001 -5.5510840653813030e-002
      -4.1000687015972710e-002 -2.5444942347108302e-002
      -2.3977966347979221e-001 2.6958918800897119e-001
      1.7407213082682779e-001 1.8030009611197936e-001
      -1.3439531675787633e-001 1.7017622183666339e-002
      -2.1389139833235749e-001 2.7586695168558434e-001
      -2.1134104490893174e-001 9.7358998238176023e-002
      -9.4860506294266622e-002 -1.4276441519776301e-001
      1.4993182024161261e-001 2.9827079262521341e-002
      -2.6463342779103188e-001 -2.5756487045568124e-002
      3.2792108154648125e-001 4.6471384020410206e-002
      1.5823065532888830e-001 2.1096801349670377e-001
      1.6154851486641522e-001 1.6375060512271342e-001
      -1.2824796086712123e-001 4.3818778651298775e-002
      -1.4467400048585424e-001 3.4479913974992038e-001
      -1.5008960958495710e-001 -3.6291698361374775e-002
      -4.6567015507737120e-002 -1.0530913925012890e-001
      1.8353583987691206e-002 -1.2192243232306323e-001
      -5.1015767537098911e-002 1.8947641950051650e-002
      7.4164532706213301e-002 1.5305138464508269e-001
      5.7319103933202373e-002 -2.6190581312003569e-001
      3.6408443772609267e-002 -3.0084634598729357e-002
      -2.9766373856297162e-001 -5.0549948507756161e-002
      1.3342191120235927e-001 1.3273829590568767e-001
      -3.2077696700208498e-002 -3.4902384639557769e-002
      5.0937763814600030e-002 1.2658760246412651e-001
      1.7448910833534148e-001 -4.5672913839268547e-001
      8.8150087315291781e-002 1.4288607009828579e-002
      -1.1727949901509692e-001 -4.6489899813579635e-002
      2.7249280559156659e-002 4.9679819783070511e-002
      -8.4685983851922025e-002 -8.1354224707027620e-002
      -7.9040070792002828e-002 1.5317805568173232e-001
      -1.0127905896193451e-001 3.2358239421963475e-002
      2.7534710946217900e-001 2.7546942280480785e-001
      -7.6983458883741751e-002 5.3591674396903898e-002
      3.7280978046214341e-001 5.1976791052843384e-002
      4.9635550286356144e-003 -1.4571300308606797e-001
      -5.7227378369654081e-002 6.0197630770448627e-003
      -6.0989817011813996e-002 2.5014747674471910e-001
      -2.1406185424331609e-001 -2.6030358597856025e-002
      -7.6905739351964750e-002 1.1281939855481189e-001
      -5.1990345328697833e-002 2.7532412812131890e-001
      1.7265403045263256e-001 1.8008311790613271e-001
      -2.1111234150766681e-001 1.7103171531826944e-002
      1.8211177490937741e-001 5.6770874798223268e-003
      4.6365690831106643e-002 1.3236182946182126e-001
      -2.4371593924358653e-001 1.1405410397562035e-001
      -1.3847794723809753e-001 1.3003627828684115e-002
      1.2892465931186559e-001 2.9160031000021367e-003
      -2.6580839287555971e-002 9.5279465260311447e-002
      8.6012930499854340e-002 1.0020130937950021e-001
      1.4447293183060246e-002 6.4306730680904700e-002
      2.9638050242608311e-002 1.6171068393213192e-001
      -6.7138419137200825e-002 8.9479798507536255e-003
      3.4366271773604129e-002 2.1913290155599979e-001
      -1.1194923679968094e-001 -4.3383371488644306e-003
      8.9657766710277087e-002 -1.8672835571766516e-001
      -5.4776901672299920e-002 2.0270377552475033e-001
      2.1357666331047709e-001 2.6217814763353098e-001
      5.9239205216972630e-002 5.8646627021132269e-001
      2.2987756751438174e-001 7.5294841730668846e-002
      3.3132918295809381e-002 -4.7138615399311518e-001
      9.7040234710609949e-002 2.5222426021462391e-001
      -7.5868060105038701e-002 -1.3300021507674731e-001
      -1.4438895922051692e-001 -3.7585899443956794e-001
      -4.1470133069915600e-002 -2.2619540836947413e-001
      -8.5333386775438252e-002 3.1902395747456924e-001
      -1.7641132883259261e-001 -1.7637720015118030e-001
      -5.5947273259773389e-001 3.0780522618388619e-002
      -3.4646079526463058e-001 2.9932380849361401e-001
      -2.1702620019120872e-001 2.2184399247931227e-001
      -1.1981425953012342e-001 6.1413271729658464e-002
      3.5439180807967419e-001 -1.4874555452298434e-002
      -6.7970863106962126e-002 -1.0948930843536951e-001
      5.1728682770126444e-001 4.3481851704233687e-002
      2.4549055174939258e-002 1.1562235374757512e-001
      3.7738436274622894e-001 1.1714532022355689e-001
      -1.3267199792131915e-001 7.6805542056400070e-002
      5.0207466835239682e-002 4.4005441939963769e-001
      3.3754105017588361e-002 -1.5820136010350211e-001
      2.7850645556895531e-001 -1.7482140534886800e-001
      9.5129004118573529e-002 6.7779131737767907e-003
      -9.7984754015458336e-002 1.4388224413776540e-001
      1.2046446932476160e-001 -1.1003390671337313e-001
      3.9003493995472198e-002 -6.1664703302556445e-001
      1.7799553592118245e-001 -1.6038977956204820e-001
      -5.4237944230061952e-002 1.2023845835252750e-001
      3.6700381246262148e-001 4.0141489368146033e-001
      1.9272376551882539e-001 -2.6821136799281942e-001
      -1.4202794757613035e+000 7.5061808064866439e-002
      1.7791235392358710e-002 -2.1559360497888236e-001
      3.9721375081755654e-002 -2.2543446035280509e-002
      -1.3139037078994684e-001 -1.2903046191908182e-001
      2.3047341941459545e-002 5.9163618165146058e-002
      -1.1770464716046795e-001 5.7950711723239061e-002
      1.5867182471253233e-001 4.5604036116539182e-002
      -2.6368955453521103e-001 -1.2178677237543328e-002
      2.9600703662660205e-001 2.7519162926346463e-001
      -1.1229404005796656e-001 -2.6469254696875999e-001
      2.8805188136695165e-001 3.1535401658630675e-002
      1.7355520726913784e-001 -1.5701740319774310e-002
      1.5946391627108744e-001 -5.9992985738267737e-002
      -6.5238000752730591e-002 1.1892518664518274e-001
      -1.4861445762358363e-001 -3.8521338596463586e-003
      -8.1592405075356176e-003 6.9688563405469015e-002
      1.0593678271590017e-001 1.5105340984674046e-001
      5.9647451763458433e-002 5.8448974586551621e-002
      -1.2669877015653885e-001 5.7401502222999612e-002
      1.4069932919708339e-001 2.9464203704345958e-002
      2.5533951768968755e-001 8.0120017884990222e-002
      -2.8119139043215979e-001 3.6210022350523625e-002
      -3.9789884759175338e-002 8.0202064097139300e-002
      1.4733395253728124e-001 6.2112916572339798e-002
      -1.2344543225300723e-001 1.1025826724389905e-001
      1.0234107568136976e-001 1.6800491939938778e-001
      1.8512809209999554e-002 3.2340320769950326e-001
      7.5012741221911858e-002 1.2851705344022397e-002
      -5.8369826258904016e-002 -4.5972560508394301e-002
      -1.0498586859782260e-002 1.7461157820150386e-001
      -2.7502887298003115e-001 1.6142610936874344e-002
      -4.7830824325506352e-002 -1.9985643267821113e-001
      3.9935722381124944e-002 1.3101549878405724e-001
      1.7340999717945385e-001 -8.8342289425360598e-002
      5.1938715102319282e-004 3.0670551467084756e-001
      3.5776944385563381e-001 -4.9359417204251944e-002
      -4.0855914272973679e-002 -2.1217738872840478e-001
      8.9304182093964082e-002 3.4183656982995120e-001
      -6.9450377735910312e-002 -1.7380619231692285e-001
      -9.9254690129576231e-002 -3.0604509497245663e-001
      -6.3737388791896263e-002 1.1515978330197402e-001
      -4.0610759638185404e-002 7.7104048425539445e-002
      -1.5478253845649376e-001 -1.3070528874219176e-001
      -1.4257788534679200e-001 -3.3192138440346936e-002
      -2.9838500445959260e-001 2.2175412066967731e-001
      -6.9852927930277794e-002 1.0748699177201453e-001
      -2.1186310699016520e-001 -2.7412652895896916e-001
      3.4982769294690008e-001 4.4566748304879396e-002
      -1.4629072413173327e-001 -2.2062352854554956e-001
      3.0715786394245820e-001 -1.4100209688556407e-002
      -1.1424936933756047e-001 9.2406016948789124e-003
      2.4238194932781942e-001 6.9164122598297881e-003
      2.3140054252572598e-002 8.2963125011905892e-002
      8.4956707193307904e-002 2.9477058724103633e-001
      -2.0309883788282222e-002 -9.5287809460534695e-002
      3.4866580171304762e-001 -1.7523500159637004e-001
      4.7929431090182210e-002 -1.8966219774608820e-001
      -1.5976990697093735e-001 2.5105740030369594e-001
      1.9287100112614494e-001 -6.7337358007785203e-002
      6.5638626995775634e-002 -2.7435099315215894e-001
      1.9499618494913584e-001 -7.7943872830651503e-002
      -2.9018839627086575e-002 5.3005561764337267e-002
      2.0502497576250805e-001 2.0619912260379097e-001
      2.2817654255942449e-001 -2.3330740803103711e-001
      -4.3710378800193983e-001 6.5204737835359505e-001
      8.9542195011131448e-002 5.6716071388695798e-002
      -4.5078476576939933e-002 3.4926820957970772e-001
      -4.0874261504501071e-003 -1.2534321288811590e-001
      9.2612978698029758e-002 2.0663534031018976e-001
      2.7017864886749049e-001 -8.2844920081395646e-003
      3.9137764114232598e-001 5.5619902032669227e-002
      -2.2599078792464650e-001 1.0911251465252285e-001
      1.6200271961183554e-001 2.8340009793701663e-002
      6.5932529534952822e-002 -4.4604859126022306e-001
      -4.5630051462016326e-002 -1.1787694726692981e-001
      2.5441037402315736e-001 3.0226275530576857e-001
      -1.9959076714301929e-002 -3.4144599743959891e-001
      -8.9388696439973533e-002 -2.1508585150594195e-001
      7.1398662022436110e-002 -5.8781313767999929e-002
      1.0678382357625649e-001 7.0403317654575304e-002
      2.3510816833500361e-001 -1.7488044482267823e-001
      6.2066297870550548e-003 -1.3709131023389215e-001
      1.2888600101960426e-001 -1.3213096034024430e-002
      1.9962439519551756e-001 -7.8912300484759626e-002
      5.0526733340940622e-001 1.9149084049625151e-001
      -1.4622119341084755e-001 -4.1823145782097738e-003
      1.3283056469935170e-001 2.0012328540103203e-001
      -1.0419380426934710e-001 1.6577838720223315e-001
      -1.4575121887620221e-001 9.3058975250353781e-002
      2.4416361708234105e-001 3.8582552156658545e-001
      1.9548235950806109e-001 3.5393306453449885e-001
      1.6770412272236296e-001 -2.6324079954588403e-001
      1.7018669095010505e-001 -3.7227616123143806e-002
      1.2753103753790657e-001 -8.0035249382398060e-002
      1.1771653224268054e-001 -3.5192651151701476e-001
      -1.8077762664511429e-001 1.0545891529733835e-001
      -1.8411947070742490e-001 6.5615005918033154e-002
      4.6844203771637304e-002 -2.5157374631883234e-001
      -5.4870106566195606e-002 -2.4238076478769063e-002
      1.3721660515983886e-001 -2.4875410221819261e-001
      1.9833243351295690e-001 -2.5304501713536161e-002
      7.6004743392343824e-002 2.0872260969950779e-001
      1.1761738285762685e-002 9.4652813941016628e-002
      -7.0388789582789088e-002 -1.3037569193860529e-001
      -7.7011544527604531e-002 1.3527009273964910e-001
      -1.8500525211890717e-001 -2.1081380882694076e-001
      -2.3641937605287686e-001 -2.4334588551784728e-001
      1.7904846676557648e-001 -1.1201615983347159e-001
      -1.6572745739709885e-001 -3.4532889017494031e-002
      1.5235776178850574e-001 -1.7275001868276074e-002
      -6.0466863484112995e-002 -1.4013678128101839e-001
      5.6924555881818106e-001 -6.2928170147718024e-002
      -8.1271140477580633e-002 -1.3720490662751242e-001
      5.0705271709200986e-002 -6.4077658858431114e-002
      -7.7934588828726059e-002 -5.6435594178846624e-002
      -1.9388240297532486e-001 -1.3199050364988077e-001
      -1.1023206587598205e-002 -2.7069508642474283e-001
      -1.5897108103852897e-001 8.9983998279919958e-002
      -2.6602953328327300e-001 1.6279154625962186e-001
      5.0398064962771116e-001 2.2862196734613333e-001
      -4.1147859511651411e-002 -3.1128460828554089e-001
      -1.5689135621200268e-001 6.4716668448333223e-002
      4.4012511577685709e-002 -4.0388520530261285e-001
      -2.5390826397783944e-001 -5.9243792358991756e-002
      1.4557186754982340e-001 -3.5253442279332588e-002
      -3.8585168521159591e-002 1.5193699549846743e-001
      -1.4714997529192478e-001 -2.3972360931332620e-002
      2.4214858936988598e-001 -3.3127581986252069e-001
      1.1668545813481834e+000 2.8389949224074335e-001
      9.7254480019740241e-002 -9.1404622807861047e-002
      -7.9656745322381595e-002 -2.7220991776889886e-002
      3.4599822369315227e-002 4.2939457547638256e-003
      2.0054077559913600e-001 -7.3099892547125025e-002
      6.3711686829313774e-002 -4.1419288411281487e-002
      2.8945794415313764e-001 2.1971113206810680e-001
      -1.4358901615108166e-001 -7.0924945114074822e-002
      1.2668531656508616e-001 -5.8160123509738509e-002
      -2.2704078077158857e-001 -1.1025273188657841e-001
      1.8258870169238342e-001 -1.8182564193133693e-001
      4.4046951666431272e-002 -2.6051450600085574e-001
      -1.3067973049228040e-001 -2.1455744331471491e-002
      -1.0929522107153378e-001 1.5882561079794497e-001
      -1.7047697988542143e-001 -1.3668658185558230e-002
      -5.6415024264199566e-002 2.3293668990953406e-001
      2.3590350147366160e-001 2.8759735307944828e-001
      3.9415946665997109e-001 6.4764273829138921e-002
      -2.4339186388410264e-001 -2.0061173141049805e-002
      1.6577020789206939e-001 1.5688190672890948e-001
      4.5699454116585342e-001 -4.4259435713761980e-002
      1.6061721821845140e-001 3.8724503477494357e-002
      -3.7989847584641454e-002 -2.3618260763911388e-002
      -1.9829519519126607e-001 3.0647765463207044e-001
      8.7587049944824677e-002 1.0085939778146363e-001
      -1.0314738546665826e-001 3.1145094379064331e-001
      1.5385625470666817e-001 1.0288110493573355e-001
      1.8100987491400586e-001 7.6644741079672812e-002
      8.0313925750036097e-002 -5.2855317790120183e-002
      2.7946897175731861e-001 1.1702398019520659e-002
      -1.8394195681202430e-001 1.0718452685504556e-001
      -2.0100655004453982e-001 -4.0729959634277869e-002
      -2.9554359056141566e-001 4.2128652110513800e-003
      -1.8798289169571356e-002 -2.0321712978535168e-002
      -4.8809531504800184e-002 2.0386991661466333e-001
      4.6223358755715649e-001 -2.1569395967620930e-001
      -2.8451419236490843e-002 -8.3370015016504123e-002
      5.4673438839945139e-002 3.2919886375098600e-001
      9.9022824979517754e-002 7.5126169913681595e-002
      -4.3403857336879778e-002 -3.1093122602963975e-002
      -6.0095159866277323e-002 -2.0204436383847418e-001
      5.1984348939914877e-003 -8.6433169149580547e-002
      -2.0784275047475365e-001 -1.2980997059617344e-001
      6.7971791090313496e-002 1.8242844366488303e-002
      -2.3559729412700278e-001 -3.8244557700274143e-002
      1.0676251763710684e-001 1.7094182772868693e-001
      1.0146765320849087e-001 -6.4630830413595275e-003
      4.2779227957015740e-002 -1.3828266729954336e-001
      -3.2412792211908917e-002 -4.8639867378000266e-002
      2.5095662638999994e-001 7.6618212498957949e-002
      -6.6582621168408559e-002 6.1167934227601251e-002
      -3.1979686283316447e-002 -1.9651785096624244e-001
      -1.7071144286267556e-001 7.7325772909015933e-002
      -2.3186617348469364e-002 6.3879201777027750e-001
      -1.4142999920888072e-001 3.7813342691546942e-001
      6.6928605541848804e-002 3.5920887723296269e-002
      -1.3740093514921965e-002 -1.8096029159117072e-001
      -2.0883724959582701e-002 2.4951412540255503e-002
      7.4826436333107690e-002 -2.9941830258596241e-001
      -5.7083233643786067e-003 -4.2466977536621153e-001
      -1.2938246821745075e-001 -1.4079756351358388e-001
      -1.8664049527017171e-002 1.4095715239153275e-001
      -2.6738864427701608e-002 1.3693162048781132e-001
      -1.8004728452791014e-002 -1.7167207485910599e-001
      6.4994593641410425e-001 5.0705390345837753e-001
      -4.9439902668487025e-003 2.6917607120570203e-001
      -9.4464656017463206e-002 5.5034462552086397e-002
      -1.5317998716482684e-001 5.0252578860504264e-002
      2.2795922748982375e-001 5.0014615591646105e-002
      2.0071731873895698e-001 -5.2598923409198632e-002
      3.1746453570544270e-001 2.1342513821510989e-001
      2.3810913957292606e-002 -8.6227910078506304e-002
      1.2042699359711343e-002 -2.5214304645446473e-001
      -8.7738141528274152e-003 3.1743107113568869e-002
      5.9290255085813176e-002 -1.0292859680744154e-001
      -5.7248627044516037e-003 -8.5958088915086446e-003
      -6.0810333938435324e-002 1.3544635677730619e-002
      -6.0381726868323347e-002 -4.5830198866617211e-002
      -6.0979911409440778e-002 2.9426141925032612e-002
      -3.9317045332980652e-002 3.4736539678676182e-001
      9.6729253809643506e-002 1.1932022696751736e-001
      6.4927787064205614e-002 -4.5321290521186650e-002
      3.7664406855859825e-002 -2.0749276624623222e-001
      3.6661616692039843e-002 2.1489532348594940e-002
      3.2577763956505851e-001 7.0082187931593987e-002
      2.2676532639415775e-001 4.4169469974308595e-002
      2.6975035155937334e-002 -8.4212683354957813e-003
      -1.1061123076348318e-001 2.2969468436337337e-001
      -9.4212863415818415e-002 1.0136705353988910e-001
      -2.3010918084174531e-001 2.0688813671868719e-001
      1.6264543445106613e-001 8.1480610905418457e-002
      5.2160945201378685e-002 -4.9158992518965904e-002
      4.6232446483300958e-002 -5.2567429173009279e-002
      7.6361663915012576e-002 -1.3091670450252410e-001
      9.2825916770595072e-003 -1.4227257200073670e-001
      -7.2880318894955859e-002 -1.5383882797068255e-002
      -1.4858065251454664e-001 -1.8188632659579863e-002
      7.3301019215475910e-002 1.1246651732511811e-001
      -8.3075475445888947e-002 1.6482685209368290e-002
      3.8326210664562371e-001 -1.2393370313350574e-001
      3.3086563040045876e-002 6.5016806176518394e-002
      1.5692509430980401e-002 1.1332636272972889e-001
      3.2301957334280360e-002 2.0346969576434523e-001
      -5.9141226702869740e-002 1.8444121209084283e-001
      -1.1885515856082619e-001 -7.8666247170043280e-002
      -1.9259530393817215e-001 -7.3758183265738755e-002
      -6.5512612301240225e-002 -7.5947251208019442e-002
      2.2623552015065138e-001 2.9122387130148909e-002
      -4.7134906858820776e-002 5.4143986977232730e-002
      1.7445991124761258e-002 9.6053271345282451e-002
      1.2198711661248551e-001 9.4417006362270045e-002
      3.0931477355973069e-001 -8.9294247364510963e-003
      3.9775382014313895e-002 -6.2805913753468556e-002
      8.3270718721341536e-002 4.7802346195656494e-002
      1.7059735432018171e-002 1.4484421529013726e-002
      -1.6705896390689864e-001 -1.9356906028183793e-001
      -1.0600830021672042e-001 -1.8831905555117492e-001
      -2.4139079470616245e-001 2.1429162355609707e-001
      -4.5389991095953447e-001 1.9294409850223013e-001
      1.9809486451863600e-001 1.2842133218250421e-001
      1.5628699101582239e-001 -5.2199345273136809e-005
      -3.2803359805443501e-002 6.2095190299594316e-002
      -4.2948310459283684e-002 -2.8742718350996627e-001
      -1.2627523201251281e-001 -2.6424169581379026e-001
      -1.9357517822497014e-001 -3.0990452724956170e-002
      -1.3276612472368240e-001 1.6628929034575887e-001
      3.2217747743169345e-003 1.2955994602761313e-002
      -2.5606424674171978e-002 6.5084409110348490e-002
      -2.5118102626421970e-002 3.8549508143477368e-001
      1.8632958176026918e-001 1.4251470995911256e-001
      9.0872189016167840e-003 -4.1989999106259036e-002
      -2.5356114886108242e-003 9.7205163093797411e-002
      5.0351690480703003e-003 -1.8998126496558618e-001
      5.8473174726752987e-002 -1.4985832657889289e-001
      4.9784659550562806e-002 3.4810974768806902e-002
      -2.4507545007733205e-002 -1.0336654203002028e-001
      3.1892997370232107e-001 -2.3778405802971270e-001
      -8.2002188016771060e-002 1.2037808102960450e-001
      -4.2444305539853226e-002 -2.2483236534703319e-001
      -3.9088278361483986e-002 9.7857095044131065e-002
      -2.1962195277200172e-001 -2.8842310051060227e-001
      -2.2453287590358340e-001 1.1607127388963163e-001
      -1.0064723505367352e-002 1.3612827164573246e-001
      -2.5100416263881709e-002 6.7248238723998016e-002
      1.5144332478651984e-001 -8.9703750285319198e-002
      2.5188449330425366e-001 -1.6850209174271202e-001
      -2.1881687444771075e-001 -1.4027373811559524e-001
      1.1330984628897818e-001 -2.3902824769235279e-002
      2.1524021274990715e-001 -4.5461838137849472e-002
      2.0312427255453691e-001 1.3091845057633292e-001
      -4.7449395918180683e-002 -3.5623870397147192e-002
      4.7556605623523054e-002 -2.8683256405289931e-001
      1.3369974111029589e-001 7.3298085013623338e-002
      -1.1262665275017264e-001 3.1780938756967464e-001
      -2.3360153184924015e-001 1.2830603789494446e-001
      2.4470512924244187e-001 1.8143808768476499e-001
      1.0356137471303403e-001 1.0932930365257748e-001
      2.0959101447282963e-001 -2.1298238598014613e-001
      -5.3705821020689486e-002 5.8033363333420997e-002
      -1.0743788812068530e-001 -1.1799969340682033e-001
      -1.1838945805432546e-001 -6.7737995413251331e-002
      1.0224269405982120e-001 1.1318782842883016e-002
      -1.3762267062771061e-001 -1.1955481861530418e-001
      2.4178992112927938e-001 8.0319953263202154e-002
      -4.6661962864397714e-002 1.0349982472740428e-001
      1.1873351288848087e-001 2.9941062468687046e-001
      -1.7532969621482160e-002 7.6639504822944238e-002
      -3.1626177054623222e-001 8.4739255141481756e-002
      -1.0389211602887247e-001 2.2233847987682237e-001
      1.8144492180186855e-001 8.0041465775103779e-002
      -2.7451507201798553e-001 -1.2551544685167182e-001
      1.7327197830041777e-001 6.9088946962748546e-002
      3.6421605425328140e-003 3.2746257381508458e-003
      1.2461592896257016e-001 8.7019734460152764e-002
      1.3491055830241158e-001 -1.0969707675169532e-001
      9.4943076987243392e-003 -1.4137115006786699e-001
      1.8039014751262164e-001 -7.4470965884082682e-002
      1.5616866052512240e-001 -6.8346190722857553e-002
      7.1333026884295200e-002 -1.0540550646813251e-001
      -1.9054071474983381e-001 -1.9039382955814746e-001
      7.8886953381702724e-003 -2.1475061777741233e-001
      1.2815152788713613e-001 3.0445067068942822e-001
      -6.6765340868181117e-002 2.8047083710360277e-001
      7.2688191925896165e-002 -2.6404932500401318e-001
      6.4684743361062141e-002 -2.1775469448138909e-001
      -3.6582941108921539e-002 -9.8041229572722634e-003
      -2.4030429492171327e-002 -1.3030493096565787e-001
      3.6379254099498343e-001 -1.9475911105073762e-001
      -2.1987592120243366e-001 -6.5130078616047679e-002
      1.5241668457433930e-001 2.1018624216311060e-001
      -2.3476812675581833e-002 1.6085418351835370e-001
      1.7827147437862054e-002 -1.8497997787485579e-001
      -1.0495089728825693e-002 4.1423971030977275e-001
      2.1313250509136922e-001 1.2936785559603037e-001
      -7.4263892229913850e-002 -3.0252810483395870e-002
      7.4711415355224242e-002 8.1291052340460399e-002
      5.7015071913209640e-003 -1.4290460846656003e-001
      -9.8938294107426897e-002 -2.0012674584675411e-001
      1.6071785070226974e-001 -9.0093505006277136e-002
      1.2066501223264783e-001 -1.1720218048281349e-001
      3.6051145447119182e-001 -1.2784678175870837e-001
      -1.2288545842204446e-001 1.5198797322202937e-001
      -1.2117647229660872e-001 -3.5662149715953712e-001
      -8.8143441308614155e-003 -5.2626325330301871e-002
      -1.7157009239978141e-001 -2.2823631825324150e-001
      1.7933481955116548e-003 -2.3768199726762418e-002
      1.6007848528693986e-002 -1.6998596728797965e-003
      9.4911451820251166e-002 1.7589017060569240e-001
      6.8179996879122864e-002 7.5276983613860281e-003
      1.5392910493233875e-001 -2.6451069791127224e-001
      1.3018852055081281e-001 -4.5881592272537164e-003
      -9.1280178638037269e-003 -1.5405564119482185e-001
      1.3021706233402994e-001 -8.4703681205986633e-002
      6.5902700780727921e-002 1.2604909950269538e-001
      1.0494588634255898e-001 -3.2948445152390891e-002
      2.0702430520261880e-001 -1.4276253362499150e-001
      9.8233017670456682e-002 1.6898074986944250e-001
      -5.4802535014141743e-002 5.9499108676779003e-002
      -2.8978189075952965e-001 1.6332944075855935e-002
      1.5902677863174935e-001 2.6877768643998629e-001
      2.4095709927644648e-002 -1.5208210743993100e-002
      4.6449712260467915e-002 -1.0165256665848427e-001
      9.4279180567707788e-002 -3.9568883395150654e-002
      6.1571774557717118e-002 -2.3115131000408287e-001
      -1.7113835616220364e-002 -2.0401531853099253e-001
      2.0708627535796567e-001 -1.4920733744993933e-002
      -2.8490243999606694e-002 -1.7962740145290459e-001
      4.8386218232154965e-001 -7.3238115188547087e-002
      -3.5551096923872455e-002 2.7281778227833980e-001
      7.5632416721839429e-002 1.7468332897197797e-001
      -3.8524010287854370e-002 1.7096536773509027e-001
      4.7236623717481115e-002 8.3411985877520453e-002
      -6.2399928305685408e-002 2.9459180466756407e-001
      8.4445560807885192e-002 1.2503437830985363e-002
      2.0085041596949418e-002 1.4901824825812397e-002
      1.8969348680845174e-001 9.7784536888082835e-002
      6.3687120276173417e-002 -9.0777105527540716e-002
      6.8991506309146078e-002 3.6325531486557361e-001
      1.1967741543588331e-002 -2.6689190469469010e-001
      -1.9281177915045560e-002 -2.9701612724762250e-001
      -8.4320210927181592e-003 -8.1627502908876451e-002
      1.3138233302063340e-001 -6.5971793892109290e-003
      2.2602024186373315e-001 -7.4404134455967608e-002
      -1.0493601494704255e-001 2.1247365399211942e-002
      2.3463570267178849e-001 -2.1522714231367424e-001
      1.4409280700711485e-001 4.2249092661886650e-001
      -6.6379608346813196e-002 -1.0598437696561848e-001
      6.6285604309180277e-002 -4.1806500829018822e-001
      -1.0156367932605671e-002 -2.4353532084096199e-001
      -1.5068215849056042e-002 -6.5639204284449982e-003
      5.6931576480209372e-003 2.2647752345872806e-002
      1.9768865668557162e-001 6.7251848554347026e-003
      -2.1677643760399026e-001 -1.1934618454901126e-001
      -3.7844749982169454e-002 2.4979070004914408e-001
      9.9333868816455520e-002 2.1674392954120628e-001
      2.2269859487902218e-002 5.9006981575519930e-002
      1.7653205383863453e+000 9.5941947445804920e-002
      2.2383797120093105e-001 -1.4264158832292198e-001
      -1.3645622333940677e-001 4.9378955651980441e-003
      7.9927768173995023e-003 5.9390537593130135e-002
      1.8404557714357070e-001 -1.4724807317684430e-001
      -1.8190578242493233e-001 -3.0546871188630892e-002
      -8.4132040843242092e-002 -2.2339637810554075e-001
      4.5063981126598690e-001 -6.6765000217951939e-002
      3.2714658101299227e-001 -2.8578472907704039e-001
      -1.3891848175124041e-001 1.8092799648882416e-001
      -1.0505052155191416e-001 -8.3581666250833755e-002
      1.1158088323421689e-002 -1.6417742785898867e-001
      -9.0767633067524403e-002 7.0612261892036136e-004
      6.7147520849412765e-002 -2.5245952045103837e-001
      -9.7937697871515836e-002 1.0688544974983090e-001
      -2.4208694817413390e-002 2.2025806620119676e-001
      -4.9592653969565970e-002 -4.6733788582118088e-002
      -1.3940777290061601e-002 -3.5716372279937306e-002
      -7.2507399633541289e-002 1.8756341715623992e-001
      -1.5370727252016286e-001 -2.8156944468153045e-001
      -1.1645343930944878e-003 -6.1794810573574353e-002
      5.6384449745740431e-002 9.8969850337999377e-002
      1.0475028710644277e-001 -1.2033428827930494e-001
      1.6505378445442631e-001 -8.2433292827185214e-002
      2.4350560248689865e-001 1.9897768721245221e-001
      -1.8500027744312070e-001 -2.2630446626890979e-001
      -2.9567153039816713e-001 -2.9479500794688994e-002
      -5.0140512816077544e-002 7.2357280567707641e-002
      8.3953309970686299e-002 6.5311767500034687e-002
      7.9893871472540651e-002 2.5021373173030714e-001
      1.6285842966338995e-001 1.6297828050468993e-001
      1.3838592002099745e-001 -2.6429673785619257e-001
      2.3509432538372266e-001 -3.8936067966609152e-002
      7.5059985755682249e-002 2.8458482399134488e-001
      1.8142890722969085e-001 -1.5992462683957334e-001
      3.3138482214996307e-001 1.5550236174843632e-001
      -3.1208583721658784e-001 2.0946827816522653e-001
      -7.8526298593975079e-003 3.7454093735788306e-002
      1.8599163603384830e-002 5.2730375171971364e-002
      2.6621842457937062e-001 1.3819748427213985e-001
      9.0379067959327278e-002 1.3602613098110428e-001
      -3.8023762944370286e-002 -5.2308657167400449e-002
      4.5914191045946112e-001 2.7490945906584446e-001
      2.6111883379337303e-001 -3.7815825892005120e-002
      1.2375378689433959e-001 -8.2435772536819815e-002
      -1.9992898675083592e-001 1.2056437106481180e-001
      7.2278254717655532e-002 -2.4738654764390744e-001
      3.1670910100412009e-002 -1.6221058943641278e-001
      -3.4221986910151109e-001 -1.4413301045718410e-001
      -5.6175193330827789e-003 5.1707111008755975e-002
      2.5428808897994665e-001 2.3719642220640894e-002
      5.1327019755801631e-002 2.1796769889342343e-001
      1.2982443928786352e-001 1.5021731423989715e-002
      -4.4365654666213110e-002 3.8443141111078477e-001
      8.0169783709016659e-002 -2.4952166570759601e-001
      -1.1212982929839865e-001 -4.6846766756540099e-002
      -9.5106678764478050e-002 -2.8871284795802379e-002
      7.0061991313082689e-002 -4.5878176957404912e-002
      -3.6411726195526781e-002 -2.3182213894627334e-002
      1.3048451334542214e-002 -2.0896372442105741e-002
      -8.1936066013209408e-002 -1.5101859617734137e-001
      -2.6787419716225402e-001 -5.3732018452311639e-003
      2.2426597815747779e-001 2.0757243206833828e-001
      -2.7831439385666989e-001 -2.8092954895697353e-002
      7.9429151322608960e-001 2.9496518699725281e-002
      4.0106001392866089e-002 -1.7689576170148588e-001
      1.3253889027584836e-001 9.7424815514589674e-002
      8.4877437381993714e-002 3.2572007416277977e-002
      -2.5467858852457097e-002 -3.4111944724655890e-001
      -1.5868043484477379e-001 -1.0941531571495239e-002
      -6.8559042662535236e-002 3.6914686701161319e-002
      4.0275560602674648e-001 -3.8512598103442583e-002
      7.2618272238022405e-002 -3.1380307205303015e-001
      -2.5200353092883848e-001 2.4028577038759102e-001
      -5.2911075219031511e-001 -7.1408348895445659e-002
      -4.0404727243183213e-003 -2.0748078665711159e-001
      -2.9641492135508821e-002 2.8314463899969267e-002
      -1.2263538859241969e-001 -3.7551010809368662e-001
      5.1560331932315628e-001 1.6042065207147396e-001
      7.0727488333561517e-002 -1.3866590185629010e-001
      -8.3915489061908627e-002 -2.1626205639795276e-001
      -2.8084679345261730e-002 2.0573324870051357e-001
      3.1087831623058237e-001 1.9618293779234113e-002
      -3.9170782988352926e-001 -8.9029477563486739e-002
      1.2705322804094581e-002 1.4476646069124710e-001
      2.7569428128903622e-001 1.0388678654623192e-001
      1.1762448152252243e-001 2.7004614704589908e-001
      1.3109073316991843e-001 2.4414044872504917e-001
      7.1084362566560311e-002 -1.1587043480287812e-001
      -1.2167192078842656e-001 -1.8384540466731930e-001
      -2.1481857345960885e-002 -9.8370552188151543e-003
      -1.1690428267437468e-001 6.4151050949720095e-002
      8.3636351720164273e-002 -3.5006575041524178e-002
      1.9996605358175178e-002 1.7733264869440485e-001
      2.6150676753897339e-001 2.0423714888535566e-001
      1.0050519337683284e-001 -1.9056126987576544e-001
      1.0494071688216368e-001 -8.1500980297121890e-003
      -1.9969680032712114e-001 3.9867618445644813e-002
      6.6938474246531947e-003 -8.9248974309187656e-002
      -1.2560796651997286e-001 -2.2724999447896549e-001
      -3.0167838499020605e-001 1.5354196795186639e-001
      1.0459966502907182e-001 -9.1513518315625278e-002
      1.4161819813884244e-001 1.8753336305942371e-002
      2.3959592266096078e-001 1.9800846808358757e-001
      -1.9699554105314824e-002 7.9992153557231674e-002
      -3.0274197523486967e-003 -2.3584926381713475e-001
      3.9259064135193494e-001 2.8538742985187926e-001
      3.4711821314228536e-001 7.7431913443595707e-002
      3.0216121625589498e-001 -5.8497454124775783e-001
      5.6384608047954796e-002 3.9722330887640739e-001
      1.1035157229739782e-001 8.1204582766039608e-003
      -1.5486585565077672e-003 -5.8004463384164082e-002
      -2.7689179270810726e-001 -1.7427840398015604e-001
      -1.2351827792148558e-001 2.6225682662900524e-001
      5.9604134515884977e-002 -1.9638154772237279e-001
      1.4110599395935167e-001 4.9910820541108275e-001
      1.6226708343806873e-001 2.4118741393871795e-001
      -1.2506062995014078e-001 2.6302194168575227e-001
      1.8663648001708527e-002 -3.8748914807988671e-001
      -1.7748183799958081e-001 -4.2501580595553423e-002
      7.3768146970149614e-004 -2.8744304123605274e-001
      1.0493715880679730e-001 -1.1668842315629678e-001
      1.3273571282378444e-001 -1.4664657509621429e-001
      -1.5496214889820129e-001 1.5583652554229127e-001
      1.5590922120207898e-002 1.2295095135299361e-002
      -2.0216416027369696e-001 -1.8469762262610062e-001
      -1.3892147740202929e-001 -2.0941876222104758e-003
      -2.5333148417246149e-001 7.6177821172898105e-002
      -5.9985269964127930e-001 3.1127783931698346e-002
      -8.7370398115915779e-002 2.1475624075027297e-001
      -6.6519191830941488e-002 4.8493234724086613e-002
      1.1170021622789816e-001 2.2966770459725953e-002
      -1.4345880262747271e-001 1.5734685870535489e-002
      -7.8219320464178191e-002 -8.2809063805763874e-002
      3.4919796930338649e-002 -1.2441403550484463e-001
      2.7190844651283547e-001 -6.2892585121730278e-003
      -1.1613755125466965e-001 -2.7333478594392407e-001
      3.4376180627393935e-002 2.0271424161179671e-001
      -3.3602857901012256e-001 -4.9396007735184252e-002
      3.2861324184215807e-002 1.0483378632750105e-001
      -1.9846521510994398e-002 -8.3453293032395709e-002
      1.5902477474524554e-001 -4.3159497749817088e-001
      1.3158862286194542e-001 1.6010756134953116e-001
      -1.3791955637103256e-001 1.3801028443585828e-002
      8.0057040129754162e-002 1.6752669273201005e-002
      -1.1984648310491394e-001 -3.0517585278680349e-002
      -3.2538022155692678e-003 -1.3966523768977152e-001
      -2.0039094109362260e-001 -2.4189183313590332e-001
      -1.3607469077849854e-002 1.3496384434353020e-001
      -1.4628916690816561e-002 4.8500332497033949e-002
      -4.8164766496834280e-002 6.8912876113430083e-002
      3.9830995153367216e-002 2.0160071200141544e-001
      2.5803399649891684e-001 -1.8247015612376175e-001
      -9.2297315097586041e-002 -1.8178745133021257e-001
      1.9444905953782896e-001 -2.6662526791366090e-002
      6.3760464915067969e-002 -1.5299544486804065e-001
      3.3289133579011837e-002 7.0327896884169794e-002
      1.1278918757020751e-002 -2.6363770707738925e-002
      -1.3878643668084174e-002 -2.6368638894972296e-001
      -3.4501198076821379e-002 -6.3889595280767805e-002
      2.9248603431860313e-002 -1.8883360957763251e-001
      2.9877750852918952e-002 1.9500663483929929e-002
      -2.4864927873773165e-001 -1.3243425215466501e-001
      -2.1944267901453016e-001 -2.2036311225766489e-001
      7.9662018275040349e-003 2.0735861686457327e-001
      8.1419534173140712e-002 -3.7296170016590684e-002
      1.1784561812079214e-001 2.0799288493251669e-001
      2.6465305459571198e-001 1.7850581816512470e-001
      4.5403340314576469e-002 3.2579858353942925e-001
      -7.7122311128671808e-002 -3.0248908700196336e-001
      3.4974664797941907e-001 -2.3233649010683652e-004
      3.3780003994360674e-001 -1.1335742066958773e-003
      1.4672999899857733e-001 -1.6247660162179306e-001
      2.0696836224786153e-001 -5.1567823594073851e-002
      1.9208444881169970e-001 -2.3416221195197446e-002
      1.8214829898316806e-001 -1.7294104071466862e-001
      -2.4515170913783993e-001 1.3932047891051869e-001
      -1.3031731223560919e-001 -9.2320125695755081e-002
      1.6066875611550285e-001 -1.9625938899019360e-001
      -4.3435299853335840e-001 8.9050421122840534e-002
      3.0279140793086262e-001 -1.5815876552369429e-001
      -1.3340766512651664e-001 -1.7775719530418435e-001
      -2.6586567816060686e-001 -2.8343890860792992e-002
      6.4963659752902025e-002 2.6030196837344532e-001
      -1.6860110858860453e-001 -5.0317786900361851e-002
      -5.4027676516783245e-002 -2.2148002668139952e-003
      -1.5224400753838582e-001 -7.7947150688380068e-002
      -1.1186366802639237e-001 1.5367261088777201e-001
      -7.1290175329104782e-002 -3.1789202387743833e-002
      -4.4024518506688953e-002 -1.8072327013981232e-002
      8.4948932703724167e-002 -2.1954352470328076e-001
      1.0370762302096319e-002 6.9610581428341825e-002
      3.1388723960467541e-001 2.9774003794685283e-001
      -1.2691858217196683e-001 2.2675607780494642e-001
      -3.6081297731095079e-002 -5.7198295420653841e-002
      -2.8934200022227536e-002 8.7751968637156813e-002
      -1.3930530784392012e-001 -3.1465801591867203e-002
      4.0305364006060817e-003 -1.7950627765127469e-001
      1.1705455756041461e-001 1.0949688055669879e-001
      3.6662458849386803e-001 3.1116844205148736e-002
      -3.3602787703031906e-001 -4.3235207666442749e-001
      4.2732028854757895e-002 1.4618008562992185e-001
      -3.5953657687814217e-001 -1.1131204972947147e-001
      -3.9219473264329972e-002 3.9598475833080314e-002
      3.3212652381412654e-002 -1.3664445771430378e-001
      1.8015106908766440e-001 -3.1342780458190922e-001
      2.2202537441650083e-001 1.8018031107499716e-001
      4.6250685578409868e-002 -5.1563151468304591e-002
      1.7147443362294676e-001 -2.2467004112491556e-001
      -9.1379529979066815e-002 2.9946161991457609e-002
      1.3206660293119443e-001 -2.6676277861329406e-001
      -1.4649668908690988e-001 -7.6226119855314092e-002
      1.9996196212976453e-001 1.3373792840445228e-002
      1.7847557342432218e-002 -3.3092726469186131e-003
      -1.6902168229055209e-001 2.0958932170558031e-001
      -8.4999640886901970e-002 4.3727890113643358e-001
      2.4965599206712150e-001 -2.4751744066335910e-001
      -1.3082834962940132e-001 -3.3099056554317424e-001
      3.3513218500064434e-001 -4.0990110884490019e-002
      2.0195939442060166e-002 -1.0252126897898586e-001
      1.1397470195737794e-001 4.6908139949555859e-002
      9.4624321747509593e-002 1.0854681244932619e-002
      6.1968125431647036e-002 -2.8225369662751804e-001
      1.4743755960787375e-001 -2.6508560045636932e-003
      -5.1805259293446142e-002 -1.3604735234772328e-001
      -3.0201025780055665e-002 2.7011656920483372e-002
      -2.2623062854271861e-001 -1.7043604869251747e-001
      -2.6926612868099176e-001 -2.9956326555352764e-001
      -7.4467666415452584e-003 1.3467346272328867e-001
      9.2435461587938333e-002 -1.4062557918863999e-001
      8.9083709589625245e-003 2.9257684189355171e-001
      1.0878949279684699e-001 2.0809807389803162e-001
      1.5100342995892279e-002 3.5560142529180638e-001
      -8.2607818963276528e-002 -2.5354639220873831e-001
      1.9767717566475826e-001 -1.5620981552413657e-001
      5.5246553307048685e-001 1.8685671075404503e-001
      2.0440132701985692e-001 -2.5230931896344633e-001
      3.4460420622205701e-001 -1.3769287153767901e-001
      1.8040636511869282e-001 2.3677677591812984e-001
      9.2124250271586106e-002 -5.5221465104742407e-002
      -1.5681584500567256e-001 2.2071987712431611e-002
      -1.7023891714495215e-001 8.0705180085835276e-004
      5.3857123186975470e-002 -2.3632771853977444e-001
      -4.8653615455564114e-001 1.3989743117852574e-001
      1.6871563363255809e-001 -9.2769093644363448e-002
      -1.5995145956767109e-001 -1.0358902378917835e-001
      -2.9758061736361480e-001 9.3889112795653290e-003
      -4.2213887889012876e-003 2.8098586749113086e-001
      -1.4539716157104607e-001 1.0197552364943601e-003
      1.5661939554046649e-002 -3.5461156195584168e-002
      -1.1981248262023135e-001 -2.8024827168948691e-001
      5.5400035578084685e-002 3.0632580970135198e-001
      -5.4022982291855481e-002 -5.5619291984930125e-002
      1.3332939287183437e-001 -8.3287894877765042e-002
      -1.2355863039333490e-001 -2.5395555663682251e-001
      5.9740908704210220e-002 1.9318347976340248e-002
      -1.5045606274057020e+000 1.6467275466380699e-001
      -1.4252117558027050e-001 2.5053622097717548e-001
      -1.1886004260484331e-001 1.0970995500074394e-001
      -8.9506102126526002e-002 8.7027303009620999e-002
      -1.7194173238085039e-001 1.8345294939591186e-001
      -1.3819361013898016e-001 -1.3083335556489389e-001
      -5.7248828035082355e-002 -2.7020097827300454e-001
      5.6754247909659306e-001 -1.1943848068927182e-002
      -2.3351443500959107e-001 -2.5664864248399444e-001
      2.3238727460341840e-001 3.6893223117980878e-001
      -2.2119910277303276e-001 9.1059179553433303e-003
      -6.3420507885578514e-002 3.7674496114237122e-001
      1.2843846799878414e-001 2.5661896171376906e-002
      2.5878582365557695e-001 -3.4387378587429446e-001
      -1.4951653879952845e-001 1.0627930329259826e-001
      -7.5690287658218808e-002 3.0362813405700001e-001
      7.1001226331346437e-002 -1.9918514977374011e-001
      -1.6046307554587530e-001 1.7445139619242767e-002
      9.8024816807865206e-002 2.9448830684948645e-002
      -1.3089277558016458e-002 -1.1711564997903641e-001
      -1.6295943697888580e-002 2.8552003984308871e-001
      -1.4617325566011774e-001 -1.1269998931695020e-002
      -4.3164605566129353e-002 1.4621179679555224e-001
      5.7244494764177728e-002 1.9412387465072779e-002
      2.6335276616381026e-001 -2.3028775580528646e-001
      -2.2211039156606377e-001 -3.2571327339424244e-001
      -2.6667194580308289e-002 -4.6792178693991722e-002
      -4.9882487767486494e-002 -2.3014385456827535e-001
      1.1581803138519460e-001 5.1803574298031119e-002
      -5.4681226633746709e-003 1.5853499885605665e-001
      1.9457794466163089e-001 -4.9703822608243503e-001
      2.3827381323209615e-001 -1.6417852133540711e-001
      2.9675283803403452e-002 9.2064793375623538e-002
      1.0751526923194336e-001 6.3391086965913057e-002
      -1.7366613668793185e-001 -1.7339543822408831e-002
      -2.6301637961638702e-001 4.2206137841270634e-002
      -2.6563919887166282e-003 1.3917666288171868e-001
      -4.8183757993649053e-002 -1.7056258385629799e-001
      -8.1829507926402922e-002 4.8664661136780485e-001
      -4.7412796923697501e-002 2.3390335657910580e-001
      8.5940645592900405e-002 2.4175625470540582e-001
      -3.1962800394068702e-001 -2.1983326059960737e-001
      3.0545822819405299e-001 7.7743469330838297e-002
      2.9083858835147203e-001 2.2856603615766760e-001
      1.0039826266630046e-001 2.3824487472988140e-002
      1.6250707453614646e-001 -3.7999553713630826e-002
      2.4435389204059513e-001 1.9416554818122911e-001
      2.0884782651091943e-001 -1.0324940476909350e-001
      -1.7338691103772307e-002 2.0990761895100268e-001
      -2.2273389874970101e-001 -1.8797140396219428e-001
      1.6768635189976056e-001 -5.8692174619771463e-002
      -4.2143949864304786e-001 1.5000149083741701e-001
      9.3054901449366040e-002 -4.1066883405948318e-001
      -3.4446014756766336e-001 -2.3563429857549664e-001
      -5.8681927164092851e-001 -1.5857265725739822e-001
      1.4529318931126645e-003 1.7773134801981108e-001
      -7.4627807067180099e-002 1.9330226452739277e-001
      4.8759835647193030e-002 6.8386862968602413e-002
      -3.1266227184179829e-001 1.2845149452063764e-001
      -3.4090254467134784e-001 2.6630842334485605e-001
      -1.5144900395942787e-001 -1.5082828621892280e-001
      -1.3464783379113715e-001 -1.2458829465130458e-001
      1.9869383472514712e-001 -2.9535580619506324e-001
      -9.9498708767989746e-002 -5.7160959242603969e-002
      -1.0916363789339003e+000 4.3511659828350602e-001
      5.9845984749743113e-002 3.8663972372537170e-001
      1.2910056561139821e-001 3.4026872593480251e-002
      -4.6390793136998086e-002 1.7250040570202288e-001
      -4.3539165215799841e-002 3.9149554094215039e-001
      -3.7685368583234813e-001 -2.2525853857958528e-001
      1.9096797505284380e-001 -4.1184710821204853e-002
      5.0878916138331687e-001 1.6674890512174082e-002
      -4.0405472431743902e-002 -2.5858385169150622e-001
      2.9473758712525144e-001 -6.7380315060996565e-002
      5.9414828441955940e-002 -6.9791638613960648e-003
      4.8871337330051078e-002 5.2222085726638334e-001
      3.2202646297831171e-002 1.3033937593333800e-001
      1.5855117027930160e-001 -5.0420269654782457e-001
      -1.0936437631456856e-001 1.2370670614575288e-001
      2.1807222240218617e-002 1.5942101172927176e-001
      3.3940258864380089e-002 -2.1145123950234371e-001
      -1.3006474826503095e-001 4.9257161215532655e-002
      3.4458401214225276e-001 -3.8602798996201421e-002
      3.2029032583750991e-003 -1.2481423064544565e-001
      2.9260062638061529e-001 1.8866028577761185e-001
      -2.4526138557346557e-002 -1.2502173007896778e-004
      -1.6362936158504374e-001 6.2315162591983352e-002
      -3.9341927981464013e-002 1.0247579565902967e-001
      9.8565861973001434e-002 -1.1407649452370307e-001
      -4.2851121926786029e-001 -3.0415045982929162e-001
      -6.0808429216922047e-002 -8.6358987020357048e-002
      -2.1723189954435057e-001 -2.3633146297951726e-001
      -3.9920986277463481e-002 -1.9939895819325662e-002
      -2.4719518319570216e-001 1.9704897651775616e-001
      2.9564245687046947e-001 -7.5916190389060523e-001
      3.1131468308190102e-001 -1.8323083440227578e-001
      3.1854229745082013e-001 -2.0436030539588324e-003
      2.4149021722003652e-001 1.8274052076055547e-001
      -1.2798856980153506e-001 -9.0211859787833110e-002
      -1.5715326939281682e-002 -6.7142470298181697e-002
      8.6468537595557241e-002 1.6109923752250832e-001
      1.1535533233551569e-001 -1.4112764483592308e-001
      -1.2745367551752329e-001 4.4267544496036193e-001
      -2.7890862644193645e-002 1.2296773265756532e-001
      6.0852386203607237e-002 6.4178797816719674e-002
      -5.5013378023081116e-001 1.2268139894219036e-001
      2.9204730431271247e-001 3.9438737474328987e-002
      2.2188664901547706e-001 2.9163210863657285e-001
      1.3814648697900248e-001 -1.4851997836892795e-002
      1.1978520683060032e-001 -1.9694336280082345e-001
      1.4689346757170163e-001 1.3311759652919067e-001
      5.0514598958926249e-001 -6.0626023644452604e-002
      -1.8117644031819163e-001 1.7299980030851322e-001
      7.4535104835323163e-002 -8.7230302119437900e-002
      1.7121468951444477e-001 -1.2697096291380058e-001
      -4.2107284566528147e-001 2.3421606906669756e-001
      5.5231128469544581e-002 -1.8025457436747405e-001
      -6.5672945044539832e-001 -3.3052101793134803e-001
      -6.6739667064636976e-001 -3.5101334518475308e-001
      1.8158083576459214e-001 -7.1517658422883615e-003
      5.7565967512025008e-002 9.0091349299796994e-002
      4.7709754727394325e-002 -2.7827110512936674e-003
      -3.4239831404734644e-001 -6.1451472871137953e-002
      -2.8354498370866593e-001 2.4326974166150173e-001
      3.7689742500580430e-002 -1.9461347698044495e-001
      3.6939350712552558e-003 -1.1892787532785182e-001
      3.4024796634256521e-001 -1.4587069228088195e-001
      5.1679325637419532e-002 -2.0764078353853948e-002
      -1.0381677189397933e+000 3.5731231754263659e-001
      1.3813637318211544e-001 3.2319879480327324e-001
      -4.5762729082476153e-002 3.3224110949256269e-001
      3.7437720481040139e-002 -2.9049357945302435e-002
      9.0148801329674219e-002 2.9751423068440636e-001
      -2.5509616840348870e-001 -1.1238912858164203e-001
      1.1490536252478380e-001 -1.2499432685617631e-001
      2.2137060788599211e-001 -1.1283338492531709e-002
      1.2716077740503526e-001 -1.6017403212918976e-001
      8.6507174586741911e-002 -1.0407348836278441e-001
      3.7168539658502181e-001 -1.1274941529162814e-001
      1.5408445701163645e-001 2.8853776869171199e-001
      9.9721023969610075e-003 -1.9517034344792594e-001
      1.6336407320508325e-001 -7.1095703767963231e-002
      -1.5747702693520019e-001 1.4831149685866440e-001
      -3.9444770498087986e-003 1.9210362822096688e-001
      8.3273791266020844e-002 2.4062159524216328e-001
      1.1345468917515049e-001 -9.3804836241537237e-004
      -3.0198083667793734e-002 -3.2435246508023874e-002
      1.8980323203298308e-001 -3.4662288077175279e-002
      2.0226303857905628e-001 -2.8209633129802823e-002
      -2.7910693865293246e-001 -4.4923299494384367e-002
      1.3403238921133634e-001 -1.6805574259859982e-001
      2.0914402365663548e-001 2.7570878568219312e-002
      5.4705332271288515e-002 9.7314554366736861e-002
      -1.2525767488461906e-001 1.5985896252391221e-001
      -1.1114208852612363e-001 5.9777617567009028e-002
      2.2018976640966307e-002 6.2766531881597407e-002
      -8.1080850037185848e-002 -7.7488794349634517e-003
      -3.8942642089129710e-002 -1.6920210859352505e-001
      -1.8591570460414494e-001 -3.5860156800565751e-001
      1.6866425868330470e-001 -1.7345694469324036e-001
      3.9599379626126407e-001 5.9371768655849047e-002
      2.7337788199242186e-001 -3.0115556431109025e-002
      -1.8716612553813969e-001 7.3037733936799396e-002
      2.3393052819494148e-001 -1.8575800521808433e-002
      3.4857001329614101e-001 2.1880357396042099e-001
      5.3994256017805560e-002 1.5460444343562385e-001
      -3.4201251626131898e-002 3.9293422056601779e-001
      -1.0920376182800383e-002 -7.1895621688527287e-003
      -6.7578530607953463e-002 2.0059564799312066e-001
      -2.7093801017885899e-001 -6.8033408810108748e-002
      5.3482388851605188e-002 -7.5566587558202586e-002
      -5.4892979019782236e-003 -2.8799396416545463e-002
      -1.1355766634151059e-001 1.8346766491314637e-001
      1.3849601945393278e-001 -4.2722241731260213e-002
      3.5690143347619933e-002 -1.0689191203328265e-001
      4.1473208392353056e-001 -9.1038685700287114e-002
      -1.0801017820135655e-001 -1.0951731363583075e-001
      3.1828990286884012e-001 -2.0172192431837555e-001
      1.3035946607033769e-001 -4.3210629824890157e-002
      -1.2767850720171581e-001 1.2163557854708398e-001
      1.7760884050861561e-001 -3.6239514209565678e-002
      -8.6587426696193459e-002 1.6422174033839843e-001
      -1.7416082769283359e-001 -2.7616858474395134e-001
      1.2351132418929363e-001 -1.8833551314167868e-001
      1.0404175694103093e-001 -1.9920586652585437e-001
      -1.6325635147790524e-001 7.6511082676633660e-002
      -1.8376805105947433e-001 -9.3870836061687543e-002
      6.8058444536061302e-002 4.4009002686003105e-003
      6.7418799997336160e-002 -2.1743361909883699e-001
      -9.5672358180741143e-002 1.1850039337747720e-001
      3.9467259547644135e-001 7.0983896745579894e-002
      1.5698392726999341e-001 -1.3346716043381602e-002
      -1.2068547441949780e+000 5.8322267038505426e-001
      2.3200445428814720e-001 1.4577975388933476e-001
      -2.1722726348206507e-002 2.0674785627746844e-001
      3.9035792703994314e-002 -9.3633362751921176e-002
      8.0665811521961020e-002 2.9775238991961878e-001
      -1.4749926719772288e-001 -3.5198074148666825e-001
      4.2370104832533867e-001 2.0022750107901138e-002
      -7.3277164823600735e-003 1.3946917140308929e-001
      1.4860739716347771e-001 -7.9283792691103666e-002
      1.0869636899835058e-001 -4.6893976626021888e-001
      3.8346050614593263e-001 -3.0727331817940523e-001
      3.2645604347434898e-001 2.8444617558801499e-001
      -8.8229885834291172e-002 -1.1912119323053762e-001
      1.9752729393409146e-001 -2.3982407099734282e-001
      -3.8587988414100965e-001 5.8549269596130098e-002
      -5.0871402261589475e-002 1.1934207492991956e-001
      2.1729175428476699e-001 3.8428411712329663e-001
      -1.0911495083672396e-002 4.3342144559753533e-003
      1.3364558858105038e-001 -1.2867929415778928e-001
      2.5088280517695205e-001 -6.6577470074774173e-002
      7.1003560468864468e-001 1.7427530947153144e-001
      -2.1660481279069088e-001 -9.6333079703658595e-003
      4.4134708255613497e-002 6.7900246710981355e-002
      -1.9195849658356853e-002 3.1220885548207289e-001
      -7.6865963399491699e-002 1.4563505413619579e-001
      2.4901356561303536e-001 1.7345163444333325e-001
      1.9079183838260411e-001 2.8000762255306921e-001
      8.4644566125894452e-002 2.3584544685363220e-002
      -2.0863074745421134e-001 -9.7818294952919410e-002
      -8.8488060891233934e-003 1.0406248774397091e-002
      4.8065097495190057e-002 -5.8894376490777245e-001
      1.8577927411811246e-001 -2.2643398866427711e-001
      9.1447643209835144e-002 1.6801430233707562e-001
      3.7598645513694989e-001 -1.8473539486799992e-001
      -1.6778332008376323e-001 8.8264869314881950e-002
      3.1310493951940294e-001 -2.8881757622316562e-001
      4.2045908897733059e-001 1.6756175997583146e-002
      5.8449190049737615e-002 1.5420585794273586e-001
      -2.2452582626735773e-001 2.7126646491588818e-001
      1.3095630362441688e-001 -1.4592621405788977e-001
      -5.3983938740400778e-002 2.0218890614753490e-001
      -4.9776821249913639e-001 -2.8116685967850608e-002
      -1.4400186081805630e-001 -4.4552535514251834e-001
      -3.6683691636177983e-002 -1.8190223199139574e-001
      -7.3600431708369524e-002 3.0320733083533763e-001
      1.7836075756933273e-001 -2.0593862808436881e-002
      -6.5762892329684297e-002 -6.9328391718827723e-002
      6.6579208679161306e-001 -1.6278507853752675e-001
      -7.1194023883586921e-002 -1.7315965717044524e-001
      4.6772586517432968e-001 -2.2988354015032617e-001
      1.9577564986633081e-001 -4.7594383077973430e-002
      -6.5588097738695200e-002 2.0509533923704315e-001
      2.2647582853625847e-001 8.2540644589792059e-002
      -3.7301358045401845e-001 6.9269868114926317e-002
      -5.8136581401085352e-001 -2.4646281405105863e-001
      4.6488394207545780e-001 -1.5208674804205585e-001
      -8.4170595517360884e-003 -1.9317200279999777e-001
      -1.6185015221803375e-001 3.0740584563721091e-001
      -1.5725554344864306e-001 -5.0177739677347022e-001
      -1.4970210409313356e-001 -5.0985521701062055e-002
      1.1659621454275276e-001 -1.6255268659995431e-001
      2.1977801375912567e-001 2.0787087844672522e-001
      5.3767246385681733e-001 2.7083201446514094e-001
      3.6830259565197654e-001 -4.6742978686826080e-002
      -1.3111078296156458e+000 5.5551618647169321e-001
      3.0834799631923193e-001 1.0052609030650882e-001
      -7.1745376875660249e-003 2.6868001599120658e-002
      1.1646292164598135e-001 -1.3474896746563830e-001
      7.0447815709338505e-003 3.1550886379722737e-001
      -2.0966607977179111e-001 -5.1188294781108068e-001
      4.4663098460442802e-001 2.2357313439760365e-001
      -2.7770016933904301e-001 -8.6796063649139492e-003
      1.8096908949765214e-001 6.0935730921853920e-002
      1.1528798934767820e-001 -5.3511162126226275e-001
      4.2635215219301170e-001 -4.4467475446867205e-001
      3.1062735961941257e-001 3.2759537722713017e-001
      -2.2545979929389584e-001 -6.0545939953951695e-002
      1.0782774559727466e-001 -2.8433722490831974e-002
      -4.0734279413114066e-001 7.5052090423608692e-002
      -1.1589785017624668e-001 2.3525303884029627e-001
      2.3692627447840819e-001 4.2769706982325972e-001
      -8.3743846945827455e-002 -5.3063962371997897e-002
      4.8663093329460401e-002 -1.1265262451640914e-001
      2.5582284847327752e-001 4.8355231494796050e-002
      7.3125849643003438e-001 2.5309452905527330e-001
      -1.3561320137579469e-001 5.8912772312612799e-002
      3.4274260681166471e-002 3.1161571586923148e-002
      -3.2316405973750663e-002 3.3151828377057546e-001
      -2.0083628191040381e-001 3.0110488108198757e-001
      4.2640056387032399e-001 2.9639820226312169e-001
      2.0498291400116558e-001 2.9105108049647177e-001
      1.5888318943154547e-001 3.4387902697467582e-002
      6.3244513764607407e-002 -1.2202326427753378e-001
      1.4397590606297084e-001 -2.8069174081526474e-003
      1.7530408783431928e-002 -6.5582139923504801e-001
      1.0692440305490205e-002 -2.3189309575428882e-001
      -1.8350465343744232e-001 9.4734014258502891e-002
      2.6283702322206498e-001 -2.3653701663271162e-001
      -1.1409464777025927e-001 1.1475186874559974e-001
      4.6416401000599689e-001 -3.0679579415769725e-001
      5.2583848380763321e-001 -1.1962351770749380e-001
      3.5587357936146209e-002 1.5633228694153092e-001
      -2.2131093664988921e-001 2.1783929508637592e-001
      3.0488700107609523e-001 -1.0482512490442024e-001
      -1.1565887023499290e-001 1.8115708001875874e-001
      -3.7653428824558777e-001 6.1819194804044381e-002
      -1.4250332954304754e-001 -4.7430417684317294e-001
      -6.6805633751070237e-002 -1.7688459541622595e-001
      -1.3437338174414409e-001 3.4085201987143948e-001
      1.4800459422107562e-001 1.1799963025337060e-001
      -1.6151526501576005e-001 -2.9246740983174846e-001
      8.2659761437451740e-001 -3.0491045904829539e-001
      5.5091057713980554e-002 -2.5517005098316742e-001
      5.2575335466504292e-001 -2.9137104146427928e-001
      2.7521459757132399e-001 7.8849734336469843e-002
      5.3520726217680899e-002 -4.0745510268342978e-002
      1.4847167415756563e-001 1.1525722408258456e-001
      -1.8177342941946109e-001 5.8568686985859007e-002
      -5.1547513821152235e-001 -5.6269704903737687e-003
      5.9545906612864496e-001 -3.6095573237113807e-002
      -9.3580681042403663e-002 -4.7432537417831544e-001
      -1.5276674085831504e-001 3.3976364509323242e-001
      3.2445449387424941e-002 -4.3147384140443285e-001
      -2.2885485758744956e-001 -5.0911503336801486e-002
      6.9994742138417956e-002 -6.6137782064703415e-002
      2.2463289725258076e-001 3.3708335053710176e-001
      3.8343957223970482e-001 3.0528960460732241e-001
      2.8276131530232163e-001 -2.2254113720302907e-002
      -1.3214382035855727e+000 4.2312995736824771e-001
      3.3581887456425508e-001 3.0283807087216463e-001
      5.6716826598906901e-002 9.5532643698495498e-002
      -3.9823638765786734e-002 -1.4963271532004327e-001
      2.6662046956735085e-002 3.9415234990972231e-001
      -1.2335492493102965e-001 -3.7194139027030582e-001
      4.1270376809839837e-001 1.4141921932535917e-001
      -1.1785018245965717e-001 5.4710100064941106e-002
      2.5470340575661765e-001 6.5988039023789177e-002
      1.1528636544497912e-001 -6.8208975781624182e-001
      4.0447836880093790e-001 -4.0143052392238648e-001
      3.1006143768658556e-001 4.8011490679316798e-001
      -5.8140531957307881e-002 -2.4443815669894672e-001
      1.0611059476522151e-001 -1.3540672419190575e-002
      -3.0868415210296574e-001 2.7355744843743111e-002
      -1.0237670296515229e-001 8.3916332512222441e-002
      2.1114916705148828e-001 3.8721693016679104e-001
      -1.4947086338334284e-001 -1.4730259767538678e-001
      -7.1638697727666123e-002 -7.3817256169864606e-002
      2.4373430072464547e-001 -9.3911234469600952e-002
      6.6725768109307138e-001 2.5447596155567193e-001
      -2.6836133184991318e-001 4.2996579934957320e-002
      7.8582008513581644e-002 3.6154580989184580e-002
