<?xml version="1.0"?>
<opencv_storage>
    <my_nn type_id="opencv-ml-ann-mlp">
        <layer_sizes type_id="opencv-matrix">
            <rows>1</rows>
            <cols>4</cols>
            <dt>i</dt>
            <data>
                256 128 64 36
            </data>
        </layer_sizes>
        <activation_function>SIGMOID_SYM</activation_function>
        <f_param1>5.9999999999999998e-001</f_param1>
        <f_param2>1.</f_param2>
        <min_val>-9.4999999999999996e-001</min_val>
        <max_val>9.4999999999999996e-001</max_val>
        <min_val1>-9.7999999999999998e-001</min_val1>
        <max_val1>9.7999999999999998e-001</max_val1>
        <training_params>
            <train_method>BACKPROP</train_method>
            <dw_scale>1.0000000000000001e-001</dw_scale>
            <moment_scale>1.0000000000000001e-001</moment_scale>
            <term_criteria>
                <epsilon>9.9999999747524271e-007</epsilon>
                <iterations>1000</iterations>
            </term_criteria>
        </training_params>
        <input_scale>
            2.5568607698749548e+000 -2.0749128072993184e+000
            2.1574395598823748e+000 -1.4832396974191326e+000
            2.0634260636981017e+000 -1.2855471904785791e+000
            2.0922411295297572e+000 -1.3533146988625018e+000
            2.1748597846657285e+000 -1.5146344928922038e+000
            2.1213203435596424e+000 -1.4142135623730949e+000
            2.0225189720092605e+000 -1.1617445285648429e+000
            2.0017383749479176e+000 -9.5916630466254393e-001
            2.0207259421636903e+000 -8.6602540378443860e-001
            2.0304802248225755e+000 -8.3999033110219634e-001
            2.0043009655742998e+000 -9.3653348689037230e-001
            2.0250315303770678e+000 -1.1712235934621336e+000
            2.1135884433863592e+000 -1.3985748925979182e+000
            2.2067567302172142e+000 -1.5696870789342685e+000
            2.0522467255139838e+000 -1.2561867357560794e+000
            2.0397378949104379e+000 -1.2202003478482084e+000
            2.1018664175710038e+000 -1.3741368741858051e+000
            2.0007720517562220e+000 -1.0281745265969473e+000
            2.0129145537993525e+000 -8.9263175153602237e-001
            2.0422607627824680e+000 -8.1447304230015105e-001
            2.0746714507120303e+000 -7.6153614758278887e-001
            2.0806959096866819e+000 -7.5342659428138781e-001
            2.0882907241564843e+000 -7.4374639878192250e-001
            2.1464938444320758e+000 -6.8355607545902408e-001
            2.2000763928677070e+000 -6.4168894791974795e-001
            2.2045126499003871e+000 -6.3860882318542966e-001
            2.1500847537943248e+000 -6.8043356791705312e-001
            2.1061703178897391e+000 -7.2295131943437474e-001
            2.1004558775696816e+000 -7.2932495748947268e-001
            2.0457571539594714e+000 -8.0774935245621982e-001
            2.0190105702980521e+000 -8.7129920444409992e-001
            2.0000629911340138e+000 -1.0079682534683323e+000
            2.1482821693319916e+000 -1.4662878298615181e+000
            2.0045664865549409e+000 -9.3466889750081572e-001
            2.2528754005342773e+000 -6.0791875887432878e-001
            2.6400916714412483e+000 -4.5834924851410558e-001
            2.3003448860545417e+000 -5.8193248605546444e-001
            2.1047235718649810e+000 -7.2454273753685361e-001
            2.0283702113484399e+000 -8.4515425472851669e-001
            2.0225189720092605e+000 -8.6077444344441734e-001
            2.0231340097479076e+000 -8.5902912318661151e-001
            2.0219126299595214e+000 -8.6252225285971640e-001
            2.0283702113484399e+000 -8.4515425472851669e-001
            2.0466551546308480e+000 -8.0607350832187163e-001
            2.1377629440562256e+000 -6.9137968230389835e-001
            2.4053511772118195e+000 -5.3452248382484879e-001
            2.6110134630728785e+000 -4.6625240412015689e-001
            2.2205929335725747e+000 -6.2784621633748394e-001
            2.1412135161252430e+000 -1.4529663145135578e+000
            2.0213149608176293e+000 -8.6427256757182358e-001
            2.3445220891738643e+000 -5.6054545981240211e-001
            2.4015320780366602e+000 -5.3605626741889745e-001
            2.0129145537993525e+000 -8.9263175153602237e-001
            2.0613022819736817e+000 -1.2801341552733381e+000
            2.3346347184800234e+000 -1.7695048858320812e+000
            2.5517188404559241e+000 -2.0682086236631845e+000
            2.5997693208268275e+000 -2.1303665267886505e+000
            2.5997693208268275e+000 -2.1303665267886505e+000
            2.4289509213028122e+000 -1.9036420911004184e+000
            2.2425929397399225e+000 -1.6285496348111341e+000
            2.0129145537993525e+000 -1.1202828022633302e+000
            2.1197484266528539e+000 -7.0868573391072587e-001
            2.3379040200512247e+000 -5.6360186197663453e-001
            2.1519016905918606e+000 -6.7887374762719410e-001
            2.1091004829775564e+000 -1.3893280959296601e+000
            2.0297679251233878e+000 -8.4170931815632555e-001
            2.2022859140749351e+000 -6.4014858415075004e-001
            2.1447196874441974e+000 -6.8511878904467416e-001
            2.0405694492312496e+000 -1.2227221699758677e+000
            2.3902636515427838e+000 -1.8496087779795352e+000
            2.6110134630728781e+000 -2.1447610589527213e+000
            2.5997693208268275e+000 -2.1303665267886505e+000
            2.6897028220496892e+000 -2.2440873743489966e+000
            2.6400916714412483e+000 -2.1817424229271425e+000
            2.6224757729366939e+000 -2.1593798527157300e+000
            2.4799318012511438e+000 -1.9731203418684695e+000
            2.1076292656406652e+000 -1.3862680586505565e+000
            2.0019081190054338e+000 -1.0446464986079942e+000
            2.1213203435596424e+000 -7.0710678118654746e-001
            2.0700465039586491e+000 -7.6805296873068929e-001
            2.0869967789998038e+000 -1.3416407864998741e+000
            2.0290645962738085e+000 -8.4343062087175180e-001
            2.1261139104855977e+000 -7.0237691685684922e-001
            2.0592194189509323e+000 -7.8446454055273607e-001
            2.1728629533120452e+000 -1.5110882244759360e+000
            2.4537825167327956e+000 -1.9377092096421678e+000
            2.5218368814626131e+000 -2.0289778877640670e+000
            2.5466240628814960e+000 -2.0615528128088303e+000
            2.6341623315223357e+000 -2.1742292260184355e+000
            2.6110134630728781e+000 -2.1447610589527213e+000
            2.4289509213028122e+000 -1.9036420911004184e+000
            2.3445220891738643e+000 -1.7839766293614621e+000
            2.1574395598823748e+000 -1.4832396974191326e+000
            2.0256815859918142e+000 -1.1736091728365274e+000
            2.0124611797498106e+000 -8.9442719099991574e-001
            2.0045664865549409e+000 -9.3466889750081572e-001
            2.0806959096866819e+000 -1.3272693154052941e+000
            2.0231340097479076e+000 -8.5902912318661151e-001
            2.1004558775696816e+000 -7.2932495748947268e-001
            2.0561710941912881e+000 -7.8942283080558384e-001
            2.1669653845237984e+000 -1.5005375380928683e+000
            2.3546517846038233e+000 -1.7986923354612538e+000
            2.3478713763747789e+000 -1.7888543819998315e+000
            2.3580834491321490e+000 -1.8036531143659591e+000
            2.4053511772118195e+000 -1.8708286933869707e+000
            2.3756676237158780e+000 -1.8288869801622236e+000
            2.2554964232996872e+000 -1.6491079999720926e+000
            2.2772175464808040e+000 -1.6830625715557530e+000
            2.1500847537943248e+000 -1.4696511858772716e+000
            2.0250315303770678e+000 -1.1712235934621336e+000
            2.0019081190054338e+000 -9.5726162039743956e-001
            2.0003189538334607e+000 -9.8229948625750296e-001
            2.0882907241564848e+000 -1.3445443253745621e+000
            2.0129145537993525e+000 -8.9263175153602237e-001
            2.0909128409713542e+000 -7.4053163117735465e-001
            2.0666892353143433e+000 -7.7295817630308283e-001
            2.0484800891025632e+000 -1.2457522764086022e+000
            2.1669653845237984e+000 -1.5005375380928683e+000
            2.1032889605117644e+000 -1.3771534860493695e+000
            2.1181893524069930e+000 -1.4079234782863941e+000
            2.1394813239716259e+000 -1.4496683970958537e+000
            2.1004558775696816e+000 -1.3711309200802089e+000
            2.0758545483259572e+000 -1.3159435083137763e+000
            2.0494070961116253e+000 -1.2483491637029145e+000
            2.0276847438125021e+000 -1.1808045085495424e+000
            2.0007720517562220e+000 -1.0281745265969473e+000
            2.0033190589371577e+000 -9.4402435813010899e-001
            2.0005671345640721e+000 -1.0240998426935131e+000
            2.1076292656406652e+000 -1.3862680586505565e+000
            2.0037939948093944e+000 -9.4027238050083684e-001
            2.0457571539594714e+000 -8.0774935245621982e-001
            2.0794691194147759e+000 -7.5504533502560311e-001
            2.0024650247131888e+000 -9.5156820122779506e-001
            2.0002520002530004e+000 -9.8425098425147639e-001
            2.0007720517562220e+000 -9.7259752515927456e-001
            2.0120161281462718e+000 -8.9622543803340882e-001
            2.0207259421636903e+000 -8.6602540378443860e-001
            2.0439899062476079e+000 -8.1110710565381261e-001
            2.0613022819736813e+000 -7.8116812670034341e-001
            2.0297679251233878e+000 -8.4170931815632555e-001
            2.0276847438125021e+000 -8.4688023526295975e-001
            2.0503438459017329e+000 -7.9939001134859233e-001
            2.0250315303770678e+000 -8.5380793691493440e-001
            2.0163226374350498e+000 -1.1361818036340361e+000
            2.1004558775696816e+000 -1.3711309200802089e+000
            2.0026665731797419e+000 -9.4967720434515535e-001
            2.0381028275237507e+000 -8.2292445516087953e-001
            2.0602557574002272e+000 -7.8281543163123701e-001
            2.0001417384219207e+000 -1.0119764747968050e+000
            2.0028760900054636e+000 -1.0550865116993067e+000
            2.0024650247131892e+000 -1.0508968234853939e+000
            2.0008863598524131e+000 -9.7066808528554560e-001
            2.0091324675867477e+000 -9.0889325914638586e-001
            2.0168432167337400e+000 -8.7836723427193641e-001
            2.0231340097479076e+000 -8.5902912318661151e-001
            2.0051216473104119e+000 -9.3094933625126264e-001
            2.0060148370947037e+000 -9.2539374925499729e-001
            2.0133762669080206e+000 -8.9083910222319163e-001
            2.0243902652367178e+000 -8.5554588590361291e-001
            2.0010085729334950e+000 -1.0322663273069619e+000
            2.1120800019332000e+000 -1.3954814298487215e+000
            2.0017383749479176e+000 -9.5916630466254393e-001
            2.0405694492312496e+000 -8.1784727925538181e-001
            2.0138463360149221e+000 -8.8904922572087330e-001
            2.1850811846610529e+000 -1.5325916642414328e+000
            2.2944257177949003e+000 -1.7094382083967958e+000
            2.2000763928677070e+000 -1.5583874449479591e+000
            2.1789005611781351e+000 -1.5217718205053641e+000
            2.1293752449921688e+000 -1.4301458738687483e+000
            2.0909128409713542e+000 -1.3503812097939998e+000
            2.0734991474541418e+000 -1.3103362667939367e+000
            2.1166430461541528e+000 -1.4047958312273097e+000
            2.1574395598823748e+000 -1.4832396974191326e+000
            2.0111509274443597e+000 -1.1113205025659807e+000
            2.0158105227158782e+000 -8.8191710368819676e-001
            2.0017383749479176e+000 -9.5916630466254393e-001
            2.1343672769426982e+000 -1.4398509407946776e+000
            2.0057090333698313e+000 -9.2724246979200542e-001
            2.0431205887996988e+000 -8.1278904375861027e-001
            2.0054113070103852e+000 -9.2909432576770823e-001
            2.1914079139743987e+000 -1.5435512092478405e+000
            2.3977446796302564e+000 -1.8601550986814093e+000
            2.2744275165103058e+000 -1.6787441193290353e+000
            2.2229622057106715e+000 -1.5966514255302839e+000
            2.2253499238134653e+000 -1.6005741019491690e+000
            2.1245030085364953e+000 -1.4205506227714264e+000
            2.1377629440562256e+000 -1.4463832617523273e+000
            2.1914079139743987e+000 -1.5435512092478405e+000
            2.1768722838802472e+000 -1.5181956503648946e+000
            2.0484800891025632e+000 -1.2457522764086022e+000
            2.0124611797498106e+000 -8.9442719099991574e-001
            2.0022714374157440e+000 -9.5346258924559235e-001
            2.1076292656406652e+000 -1.3862680586505565e+000
            2.0107307467343785e+000 -9.0163719992454272e-001
            2.0645034093095940e+000 -7.7623689695271436e-001
            2.0372992503051970e+000 -8.2462112512353214e-001
            2.0935809839627653e+000 -1.3562583159996884e+000
            2.2661872794445035e+000 -1.6659174345916441e+000
            2.3218165126697548e+000 -1.7505759420922753e+000
            2.3445220891738643e+000 -1.7839766293614621e+000
            2.3792716660637261e+000 -1.8340219092574557e+000
            2.3379040200512242e+000 -1.7743021580745897e+000
            2.1593148567371756e+000 -1.4866711414440474e+000
            2.1593148567371756e+000 -1.4866711414440474e+000
            2.1032889605117644e+000 -1.3771534860493695e+000
            2.0111509274443597e+000 -1.1113205025659807e+000
            2.0163226374350498e+000 -8.8014083380101382e-001
            2.0129145537993525e+000 -8.9263175153602237e-001
            2.1394813239716259e+000 -1.4496683970958537e+000
            2.0069808240170177e+000 -9.1986621100779975e-001
            2.1728629533120452e+000 -6.6177472883610888e-001
            2.1650301493655406e+000 -6.6798053219512221e-001
            2.0148116116203574e+000 -1.1293338894499028e+000
            2.1574395598823748e+000 -1.4832396974191326e+000
            2.3977446796302564e+000 -1.8601550986814093e+000
            2.5942272265801352e+000 -2.1232514503260034e+000
            2.6582337638126048e+000 -2.2046462564953746e+000
            2.5316167102772011e+000 -2.0418694300152427e+000
            2.3033397412307792e+000 -1.7229346873888964e+000
            2.1261139104855977e+000 -1.4237369936287483e+000
            2.0283702113484399e+000 -1.1832159566199234e+000
            2.0168432167337400e+000 -8.7836723427193641e-001
            2.0700465039586491e+000 -7.6805296873068929e-001
            2.0107307467343785e+000 -9.0163719992454272e-001
            2.1789005611781351e+000 -1.5217718205053641e+000
            2.0115793826998787e+000 -8.9802651013387447e-001
            2.3218165126697552e+000 -5.7124057057747946e-001
            2.4130858436102400e+000 -5.3145342984273147e-001
            2.0297679251233878e+000 -8.4170931815632555e-001
            2.0020858043849832e+000 -1.0467254155861967e+000
            2.0949324644933949e+000 -1.3592121347010717e+000
            2.2973736160918392e+000 -1.7139136501002610e+000
            2.3155593931985594e+000 -1.7412639087743136e+000
            2.2502747085047776e+000 -1.6408253082847335e+000
            2.1429596078253681e+000 -1.4562771144448186e+000
            2.0184559365372210e+000 -1.1453936465270738e+000
            2.0276847438125021e+000 -8.4688023526295975e-001
            2.1166430461541528e+000 -7.1184721492684311e-001
            2.1229051786947615e+000 -7.0552900284002484e-001
            2.0083825918317175e+000 -9.1253891573306212e-001
            2.1105840385751740e+000 -1.3923991921155661e+000
            2.0045664865549409e+000 -1.0698975890541251e+000
            2.0312015226903570e+000 -8.3827364428490925e-001
            2.1689158600939331e+000 -6.6487599282641408e-001
            2.0895960587802107e+000 -7.4213828278106697e-001
            2.0541890362096882e+000 -7.9273763401346109e-001
            2.0457571539594714e+000 -8.0774935245621982e-001
            2.0475627875559659e+000 -8.0439966653984374e-001
            2.0581932237454543e+000 -7.8611546740277760e-001
            2.0645034093095940e+000 -7.7623689695271436e-001
            2.0613022819736813e+000 -7.8116812670034341e-001
            2.0882907241564843e+000 -7.4374639878192250e-001
            2.1555789979876518e+000 -6.7575690809930355e-001
            2.1957084830377771e+000 -6.4477153866982351e-001
            2.0466551546308480e+000 -8.0607350832187163e-001
            2.0184559365372210e+000 -1.1453936465270738e+000
        </input_scale>
        <output_scale>
            227158990. -2.1580103950000000e+008 227158990.
            -2.1580103950000000e+008 227158990. -2.1580103950000000e+008
            227158990. -2.1580103950000000e+008 227158990.
            -2.1580103950000000e+008 227158990. -2.1580103950000000e+008
            227158990. -2.1580103950000000e+008 227158990.
            -2.1580103950000000e+008 227158990. -2.1580103950000000e+008
            227158990. -2.1580103950000000e+008 227158990.
            -2.1580103950000000e+008 227158990. -2.1580103950000000e+008
            227158990. -2.1580103950000000e+008 227158990.
            -2.1580103950000000e+008 227158990. -2.1580103950000000e+008
            227158990. -2.1580103950000000e+008 227158990.
            -2.1580103950000000e+008 227158990. -2.1580103950000000e+008
            227158990. -2.1580103950000000e+008 227158990.
            -2.1580103950000000e+008 227158990. -2.1580103950000000e+008
            227158990. -2.1580103950000000e+008 227158990.
            -2.1580103950000000e+008 227158990. -2.1580103950000000e+008
            227158990. -2.1580103950000000e+008 227158990.
            -2.1580103950000000e+008 227158990. -2.1580103950000000e+008
            227158990. -2.1580103950000000e+008 227158990.
            -2.1580103950000000e+008 227158990. -2.1580103950000000e+008
            227158990. -2.1580103950000000e+008 227158990.
            -2.1580103950000000e+008 227158990. -2.1580103950000000e+008
            227158990. -2.1580103950000000e+008 227158990.
            -2.1580103950000000e+008 227158990. -2.1580103950000000e+008
        </output_scale>
        <inv_output_scale>
            4.4022030561062097e-009 9.4999999559779691e-001
            4.4022030561062097e-009 9.4999999559779691e-001
            4.4022030561062097e-009 9.4999999559779691e-001
            4.4022030561062097e-009 9.4999999559779691e-001
            4.4022030561062097e-009 9.4999999559779691e-001
            4.4022030561062097e-009 9.4999999559779691e-001
            4.4022030561062097e-009 9.4999999559779691e-001
            4.4022030561062097e-009 9.4999999559779691e-001
            4.4022030561062097e-009 9.4999999559779691e-001
            4.4022030561062097e-009 9.4999999559779691e-001
            4.4022030561062097e-009 9.4999999559779691e-001
            4.4022030561062097e-009 9.4999999559779691e-001
            4.4022030561062097e-009 9.4999999559779691e-001
            4.4022030561062097e-009 9.4999999559779691e-001
            4.4022030561062097e-009 9.4999999559779691e-001
            4.4022030561062097e-009 9.4999999559779691e-001
            4.4022030561062097e-009 9.4999999559779691e-001
            4.4022030561062097e-009 9.4999999559779691e-001
            4.4022030561062097e-009 9.4999999559779691e-001
            4.4022030561062097e-009 9.4999999559779691e-001
            4.4022030561062097e-009 9.4999999559779691e-001
            4.4022030561062097e-009 9.4999999559779691e-001
            4.4022030561062097e-009 9.4999999559779691e-001
            4.4022030561062097e-009 9.4999999559779691e-001
            4.4022030561062097e-009 9.4999999559779691e-001
            4.4022030561062097e-009 9.4999999559779691e-001
            4.4022030561062097e-009 9.4999999559779691e-001
            4.4022030561062097e-009 9.4999999559779691e-001
            4.4022030561062097e-009 9.4999999559779691e-001
            4.4022030561062097e-009 9.4999999559779691e-001
            4.4022030561062097e-009 9.4999999559779691e-001
            4.4022030561062097e-009 9.4999999559779691e-001
            4.4022030561062097e-009 9.4999999559779691e-001
            4.4022030561062097e-009 9.4999999559779691e-001
            4.4022030561062097e-009 9.4999999559779691e-001
            4.4022030561062097e-009 9.4999999559779691e-001
        </inv_output_scale>
        <weights>
            <_>
                2.1253573282651330e+000 9.5026055781792157e-002
                -1.8539949086305955e-002 1.9806010243860105e-002
                -1.5319035261498423e-001 3.1558266603389694e-002
                1.0812067515948694e-001 -3.0185001455774990e-002
                -7.0830111400621718e-002 2.7068697503227507e-002
                -1.9482764403580929e-002 5.4976440274342737e-002
                -5.3396931685756668e-002 8.2075991879757559e-002
                1.4864204334915335e-001 -1.1495547373957858e-001
                -1.4819140139191928e-001 -7.6196692198784388e-002
                -3.8477168406670544e-002 -9.5044340312255352e-002
                -5.8233119649202095e-002 -8.1125269754638282e-002
                1.4450507087783263e-001 -1.2010799566516571e-001
                -3.2980161172495043e-001 -8.9095892314196720e-002
                -1.0724549462926614e-001 7.3364091453011746e-002
                -1.3891835268360903e-001 -6.4009538711281899e-002
                -1.2575337922650469e-002 4.8521661772249263e-003
                -7.9466566559748403e-002 1.4727464973077115e-001
                -4.4024826158943833e-002 1.1758553981129306e-001
                7.0587303981171495e-002 6.1336201179818042e-003
                2.3025389424708952e-002 -1.1349283328866301e-001
                1.4140765932164959e-003 4.2450326538086509e-002
                1.3468080940099933e-001 6.3225347059868334e-002
                -6.7063654414032683e-002 -9.8555980271240587e-002
                1.6423085342832277e-002 -5.8014283916251727e-002
                1.8983639152312673e-001 8.7766551340211066e-002
                6.9195845329938759e-003 -9.8801438294593411e-002
                6.6359085837097612e-002 6.9859621467806485e-002
                5.6351468501778298e-003 -8.1273288103465343e-003
                -2.1865245215581378e-001 1.0649682587169397e-002
                7.2871427393641677e-002 -1.6342150781513697e-002
                -1.4337002967573698e-001 7.0699580066455187e-002
                4.2235620607879401e-002 -2.8890548084651167e-002
                1.6004148341301500e-001 1.1253611681672290e-001
                -2.0354891760815411e-002 1.4731810171218740e-001
                1.3590068348616224e-001 5.5715456154882388e-002
                1.8923953359710820e-002 1.8241630342282940e-002
                -6.6213153452481313e-002 5.9432239869261695e-002
                6.9043322743015001e-002 -1.1697643108537986e-001
                8.7611067117303959e-002 1.5474938529304277e-001
                -5.4712321131161049e-002 -1.4845149862945575e-001
                2.3709003807589643e-001 4.2871848772575029e-002
                -1.8526055912741760e-001 -1.4267939817522707e-001
                -2.5513508582375676e-002 8.0135996509809501e-002
                3.9235195540848936e-002 -1.7306807704133922e-001
                3.7769370049242856e-002 -1.0659025678714040e-001
                2.0616771811259076e-002 4.1796882893591396e-002
                -3.0448627626355963e-002 1.5109383055448264e-001
                1.3460791039891493e-001 1.4271557353153587e-002
                2.0523731269021739e-002 1.1407560846211073e-001
                -5.3552434785478956e-002 -8.1124403128240707e-002
                1.9426969133485084e-001 2.9333832831906426e-002
                4.7263487499867474e-002 5.9311011769632084e-002
                1.8291127116507261e-001 8.3672738234661884e-002
                -2.2878837340843877e-002 -2.0396991013662935e-002
                2.7675614536629554e-002 3.6129995086708513e-002
                2.2157010344407712e-002 5.6297157008627564e-002
                -4.7751795374607678e-002 7.0891727070136641e-003
                -2.0623758693384817e-002 4.2576085213123289e-002
                8.3189365603890078e-002 3.4522240636538186e-003
                1.1336205481320109e-001 1.0219298125299080e-001
                1.5693734771307086e-001 -1.5111932256972832e-001
                -1.8883617239669268e-001 -2.8135032088443517e-002
                8.7604342983833350e-002 -1.1209107907295734e-001
                -9.7300576226108139e-003 4.3478075666926651e-002
                4.5889447825729089e-002 -2.6655673278184973e-002
                -5.7220072997848440e-002 -1.2603425470826877e-002
                -2.5068799319058610e-001 -6.9210854748873715e-002
                -6.3590094347364123e-002 -1.4783141095160098e-002
                8.2733224840365382e-002 -1.7582058548512428e-001
                -1.0957935406231123e-001 4.1219593071031776e-002
                -8.3025014568330877e-002 -7.3221145031661716e-002
                -1.6619198442132779e-001 2.0663139081170084e-001
                -8.3336098141375756e-002 -1.0491042289002799e-001
                -1.3988754391846764e-001 -2.1891965471438374e-002
                1.9768398994289793e-001 -2.8992720639055164e-001
                -4.6827145130497363e-002 1.7338603114663881e-001
                3.4288651143664063e-002 4.8628578426973039e-002
                5.4911172812777090e-002 -2.3592242531809735e-002
                6.0169174373254655e-002 5.7196949744662259e-002
                1.4277828422812408e-001 1.0001166895136547e-001
                -1.1181411311189189e-001 -1.6680460800888874e-001
                -1.9868939560954649e-003 -4.0665966037847161e-002
                -4.7062574734966604e-003 1.1938608680038944e-001
                -8.9607955231241265e-002 -1.9323506870314722e-001
                -8.6789485506672148e-002 7.8996727359067331e-003
                1.4663257392701114e-002 7.5671951603244247e-002
                -4.4375745303678937e-002 -1.0931644992413164e-001
                1.9899611617034582e-001 1.6140429577910412e-001
                4.4754799138541697e-002 1.9207375025156220e-001
                -5.9874639293768711e-002 -2.6771655083652330e-002
                -8.8983833946008548e-003 3.5954622004128002e-002
                -6.0582373139801540e-002 -1.1838035112315895e-001
                1.2121713057381824e-001 -3.3638480113168570e-002
                9.4273873947677365e-003 -8.5013196648236269e-003
                -1.7194505603284730e-002 2.1180177699435369e-002
                3.8893670188077475e-002 5.4144083240973466e-002
                3.1631067208857042e-002 -3.3500481314549732e-002
                -4.7531494657031548e-002 1.3004775812967662e-002
                -1.0179664511196317e-001 6.0316504567410568e-003
                7.8939624936291544e-002 -4.5497114286362016e-002
                -1.9411761856869020e-001 -5.5362469732826484e-002
                -3.5408640784096182e-002 2.0427440849667219e-001
                5.5826884324030927e-002 -9.0510572098296452e-002
                -9.6310902984008420e-002 -2.7515961026137580e-002
                3.5512031198708403e-002 -2.6185197516652475e-002
                4.9095417463299035e-001 2.6477973503225380e-002
                -2.2006461139552874e-002 -1.2416220198408139e-002
                2.3754209629199665e-003 4.9436049744058595e-002
                -1.1607261389631397e-001 -1.9448175330137644e-002
                -1.0516790665386223e-001 4.7851456575300058e-002
                1.7919099633488769e-002 -1.6783814878718795e-001
                8.5630710191821488e-002 1.4769935285115495e-004
                4.0891121854024777e-002 1.1254132782121644e-002
                -4.3339784084198999e-003 -1.1496303396970763e-002
                -9.8172337141939750e-002 -1.5918618933606285e-002
                3.7075869853883535e-003 5.2323935143761213e-002
                -1.6909875713822278e-001 1.0573155532568385e-001
                4.4182447975852045e-002 -1.0156201897600890e-001
                7.6309882035287671e-002 1.2560160239367918e-001
                -1.8156799860599765e-001 -6.2591236972612346e-002
                -2.5855994578016558e-002 -1.5588031051062476e-001
                9.3451875065389736e-003 1.9895946002956730e-002
                -6.4653093717790627e-002 -5.6624865366971253e-004
                -2.0996880125343519e-002 8.0806248212993523e-002
                -1.1570957658391237e-001 1.1906913016935883e-001
                1.2269551504825013e-002 -7.2246687339880631e-003
                -1.2533103534048448e-001 7.5173387862210631e-002
                3.9881742233277312e-002 -1.0297580237608878e-002
                7.4565541298302940e-001 2.8960902194118988e-002
                -3.7781912393920983e-003 7.9508640082439158e-002
                -9.4478018206477166e-002 9.5561689512611403e-002
                1.3856934728771021e-002 1.2800098678209970e-002
                -8.8723309342879933e-002 4.0781681599372253e-002
                3.3714833288400727e-002 6.3973649689925569e-002
                -2.5729218318476389e-002 -1.9497762101084001e-003
                4.9287028101519713e-002 -1.4348908857115197e-001
                -6.6594929087741436e-002 -1.1541012236245431e-002
                -2.0764089534568800e-001 -1.1241608013127714e-001
                -1.7695664001756953e-001 -1.0013366649438302e-001
                1.0418359503056898e-001 -5.2886094361753649e-002
                8.0578385800586204e-003 -9.0737617459801218e-002
                1.2478365884741371e-001 -1.2936130602468831e-002
                -2.5857128040018668e-001 4.7236261097900996e-003
                -8.5023995573846239e-002 -3.4367863579162772e-002
                -7.7899271964858324e-002 -1.2546449939776683e-001
                3.8896868918574544e-002 2.0892146165048475e-001
                -9.1111019201745285e-004 -3.0810874752681988e-002
                -2.7463715701399254e-002 2.4245907957831242e-002
                4.7611755725337664e-002 3.9033854410223681e-002
                1.0530386611418022e-001 3.5502625468749244e-002
                5.0952861551986951e-002 -4.2590700136427816e-002
                -1.3239794217721362e-001 1.2950957271791394e-001
                3.4384392315658589e-002 1.9687847616454740e-001
                -4.1393969798543730e-003 -1.2875159947067003e-001
                1.2360194633459602e-001 6.0442069032527426e-002
                -3.4064757638861368e-002 -7.8868705037741529e-002
                -2.6282181940983179e-001 1.7751939731844989e-002
                1.5817041619251546e-001 -1.7223395290739904e-001
                -8.5699233643333761e-002 -8.4693163321698725e-002
                -1.2056594905652225e-003 -1.5169985234483322e-002
                2.5447213128250723e-001 1.4491289360641862e-001
                2.7318899243356544e-002 2.0435583711866087e-001
                -5.0537196297085210e-002 9.0943022585436725e-002
                1.2356632979866371e-001 1.2180958638706502e-001
                -1.7547645102150636e-001 6.0043823530917372e-003
                2.6655694110020549e-002 -9.8471578671206761e-002
                4.2694138735063170e-002 2.0957480012897167e-001
                9.9569286093786277e-003 -3.0901216036853896e-001
                1.5049091015920779e-001 9.1486679361662475e-004
                -3.5773821656713151e-001 -1.7768710876457719e-001
                1.5820684570493837e-001 8.4930408630462459e-002
                -8.3424616973784890e-003 2.3315887809720534e-001
                6.7976309855825395e-002 -1.4268981304275002e-001
                -1.8164063960577254e-001 1.1387642143127192e-002
                -8.6409048796017782e-003 2.5597896796318648e-001
                6.3338795679222570e-002 -1.3610110175459914e-002
                -1.1760891599252131e-001 2.0893483549382560e-001
                1.0462265262100542e-001 -1.8571977955904439e-002
                2.3909083541705076e-001 -5.1780714457428614e-002
                1.5607801259096816e-002 -4.8362955011930032e-002
                -2.0678320275757778e-001 -1.1440360824377112e-001
                -1.9095631548810899e-001 -1.5098840160356231e-001
                5.3866915576105422e-002 7.0777190111815963e-002
                -1.1619911196455414e-001 1.1833036876065460e-001
                -1.4012702919779740e-001 4.7892572695363456e-002
                1.3011663678155266e-001 2.2078764321071500e-002
                6.4080425595588145e-002 2.8156368516748589e-002
                2.5448179359368980e-002 4.5872911132109340e-002
                -2.6234537304922003e-002 -1.7719504305434822e-001
                -2.1835590305573267e-002 -1.2330800956232572e-001
                -4.8744533446382673e-002 7.1664993483644357e-002
                -3.0384693372050478e-002 -3.4742285944401548e-002
                -4.2307809586216016e-001 5.6737021312055651e-002
                -2.4365466922930661e-002 6.7314927323796125e-002
                -4.0169670699602272e-001 1.4297976607590135e-001
                4.1641376444203002e-002 7.0541564416242389e-002
                3.8085189509927946e-002 -9.4135690495090935e-002
                5.2171112270991145e-002 -1.1637679197055028e-002
                3.7954617934488094e-002 -4.8392581571252605e-002
                2.1855716693932343e-002 1.1746631078372102e-001
                -9.4761511187898814e-002 -1.6492258406605750e-001
                -9.4386711796379225e-002 9.2431546335235461e-003
                7.8978945012031010e-002 -6.5342963172998911e-002
                -1.3033534244976833e-002 -2.2752001079375968e-002
                -1.7527144659316354e-001 4.8560995854190936e-002
                1.1160714101846790e-001 -8.0067687194639900e-002
                -5.7509174049046371e-003 1.1350054847020460e-001
                -1.3093001878708578e-002 8.6189412948045260e-002
                -1.8060851786706250e-001 -3.3105288052006365e-001
                2.9843713926265177e-002 1.7534347942849422e-003
                2.6071868078242140e-002 -3.4074596862677997e-002
                -1.7004683001231671e-001 2.5310914655349497e-002
                -3.0162860285864141e-002 8.9199719970818048e-002
                5.4211949173115649e-002 7.9157224882436782e-003
                9.0954061873555717e-002 1.4506514071653265e-001
                -6.4015719118185599e-002 2.9787860378903508e-001
                -1.6459588356879322e-002 4.1969114048192818e-001
                2.4303694010945127e-002 1.7997203568765816e-003
                5.6585783151797422e-002 1.0839127485942347e-001
                -7.8330494459395217e-002 -1.0818822447879463e-001
                3.6129728632948568e-002 9.6727418767973888e-002
                2.4374011388268418e-002 -4.2900829668377921e-001
                -6.0822925376853243e-002 -7.3508040556737236e-002
                -1.4865659195782487e-002 2.1268606288558829e-002
                1.4098010304614145e-001 2.0429778366649314e-002
                -1.2874715247538797e-002 1.7005900883734191e-002
                1.7162619635941654e-003 5.9650143023442577e-002
                8.3962475440051282e-002 1.1488023265449955e-002
                -3.2027128012319778e-003 -1.0161488117540922e-001
                -1.3984825290610914e-001 -7.2957295161990648e-002
                -2.2019558598478626e-002 -2.5285362884966866e-002
                1.7669610271466590e-001 -8.3097117814725105e-002
                1.4509573547438630e-002 -1.3977630081270312e-001
                -1.3211361774496092e-001 1.6828102098842040e-002
                2.4576421963111367e-001 5.2625228564459087e-002
                1.6012271937417963e-001 2.9467340451735746e-001
                -9.4049273501337669e-002 -2.7361572547516873e-002
                -2.2615765114494391e-001 1.8205388657751903e-001
                -4.8835365208788360e-002 1.9696728936410032e-001
                -6.2739088652391129e-003 -8.2236963204020463e-002
                -1.0646045082908161e-001 7.7011580847881692e-002
                5.5196631957267289e-002 -8.9594752534252892e-002
                -5.0823805124606977e-002 1.5204682682732637e-002
                -1.2604275983886137e-001 1.0329130331013306e-001
                -2.5694141561286488e-001 -9.8597174546684707e-002
                -1.7985364613472474e-001 -6.8218849543966231e-002
                -1.3958486254522420e-001 -1.5140527024936382e-001
                -7.9005819591321538e-002 1.5428602483634213e-001
                4.6760943469913815e-002 -1.1377116807391252e-001
                -1.0597497789009552e-001 -2.0384529696504811e-002
                -1.2841651114069519e-001 -4.3355379023177426e-003
                1.1099892558136211e-001 1.0996711871195383e-001
                -2.5569952333790230e-001 1.2689894700706686e-001
                -1.6431155634713915e-001 -6.5208266890745992e-002
                -2.1779184853194036e-002 2.4502681284943362e-001
                2.8922983585692872e-002 3.9123332175340364e-002
                -1.5788923918258466e+000 3.3085476647627947e-002
                1.0542144748413829e-001 3.4680191586869892e-002
                -2.6121999164480691e-001 7.9008029169746710e-002
                -1.2303295989894703e-001 -1.9855263477792859e-002
                1.0687005453357976e-001 -1.8183333651705247e-001
                7.6607687672536631e-002 -8.4715366862883307e-002
                -7.9642664473037181e-002 -1.7270346613152573e-001
                -2.1785485452912817e-001 2.2412519871015824e-001
                3.0342468509995488e-002 -1.0302121566043983e-001
                3.9879578521702597e-002 1.8096399956286774e-001
                8.1494579687197463e-002 -3.3212722593785371e-001
                -1.3081094725421008e-001 -8.8777439571305433e-002
                3.5823854093504637e-002 1.7706912489983351e-001
                2.4986490268042666e-001 -1.6319887476022241e-001
                2.6031794496839098e-002 2.1310138116566968e-001
                -1.0096238913563946e-001 2.1513372954373330e-001
                9.2917622502547828e-002 -5.1111845014447183e-002
                7.1904841687152376e-003 -1.0736088422469525e-001
                -2.7961155035552181e-002 8.4110900383879542e-002
                -1.4171276128970964e-001 -2.1966102629368667e-001
                -1.6570093124214594e-001 4.9703835132675692e-002
                -8.4857537813814915e-002 1.0784250688621878e-001
                7.4657320867209470e-002 3.6899161198664078e-002
                -1.4891036591946402e-001 -1.8858887183368284e-001
                7.6711814992661493e-003 3.2308537334585286e-001
                3.8383050938937756e-002 3.4738522318558465e-002
                -8.8931799682902143e-002 7.9677345776633587e-002
                -1.4141429458585017e-001 -1.1601708836924350e-001
                1.7476227386675197e-001 3.2455462552344133e-002
                3.8965365849191686e-003 -2.7077269967802831e-001
                -6.3721260321869228e-002 -3.7932721897457826e-002
                -5.1471631985733117e-002 -1.4352113373533057e-002
                5.5606626575233542e-001 -9.6174361268635281e-002
                -3.5023640494567000e-002 -2.9767297918724615e-002
                -9.9150532154649210e-002 -9.0166992745910682e-002
                3.1199950826582823e-001 -1.5674038937296525e-001
                -2.5347099261572742e-001 -2.0403630238494413e-001
                -9.1806267370948200e-002 1.7728719253470419e-002
                -1.1764999446961764e-001 -1.2311757766247648e-001
                1.9441486749554301e-001 -1.8492183971829949e-002
                -6.8947542098748829e-002 -1.6805582255843710e-001
                1.1391153120752462e-001 1.3315603742924567e-001
                2.2153388628731266e-001 5.3751422266073788e-002
                -1.8571153796980133e-001 2.2895541676910106e-002
                -2.0297178019304554e-001 1.3623725011539678e-001
                -2.7206110417093744e-002 1.7266921392302867e-001
                3.3402582408065276e-002 5.5554591409144066e-002
                -1.6694331820571606e-001 -1.3549106677690753e-001
                1.7010625937551893e-001 -7.0518496552803567e-002
                2.4110781785208660e-001 -9.5365296863126586e-002
                -1.8774222589015616e-001 4.7068745903772982e-002
                -4.1957832909097444e-002 2.1708566549912175e-001
                -2.0895142788802526e-001 3.0978254701727780e-002
                -2.5964892070673318e-002 3.5310739605282047e-002
                -1.7153494260793095e-001 -2.1421284106179633e-001
                -4.9203296537530576e-002 1.3575953188338208e-001
                6.6110447542748335e-002 -2.0130484093291365e-001
                -6.0497609827141072e-002 -6.1326710662628355e-002
                -7.1194203317838087e-002 -1.7672322273287822e-003
                1.6379889720143392e-001 4.6102500610311715e-002
                -5.7761984474508539e-002 2.7290719442400363e-001
                -2.9574933295129036e-001 1.1836119761086809e-001
                1.7941344695155775e-002 3.6605004080061171e-001
                1.0805389658500476e-001 1.8652386902871909e-001
                7.5425902965848712e-001 1.4777764537369883e-001
                2.8969996561044563e-002 7.1902587326956716e-002
                1.9659715640861969e-002 -2.3412474001499754e-002
                3.7378105628535059e-002 -3.8329520077873130e-002
                1.1227859135574229e-001 -1.7009779312866621e-001
                1.8086848635057348e-001 -3.4243531195520385e-002
                1.4683044243064500e-001 -5.0432006861614226e-002
                -4.8916796986038333e-002 1.5739386994222426e-001
                8.9640197760650797e-002 -1.1301785294008423e-001
                1.0466252919531728e-001 -7.6584443568771227e-002
                4.2984962457080916e-003 -2.6428913902087531e-001
                -1.0484247284263280e-001 -1.3509521286794865e-001
                -2.7905439878324856e-001 8.6387627554542032e-002
                2.2878085504225115e-001 -4.7365568069838632e-002
                1.0558110232659535e-002 1.2810166064981068e-001
                -2.4039420044144830e-001 -4.1095547862368643e-004
                3.4479547952324985e-001 7.3236643016681424e-002
                -6.1400653019055548e-002 -1.0292600528374175e-001
                1.2926278008123618e-001 -7.1174876402725185e-002
                2.6846815631669053e-002 7.7692458821458060e-002
                -1.0796269166960157e-001 -1.8566970128516883e-002
                -1.4437654543377201e-001 -4.3100667598348026e-002
                5.8851006929182562e-002 9.8202061650916245e-002
                -2.0993772433998009e-001 -3.2704615024629152e-001
                -8.2543243455016332e-002 -7.3834191592061893e-002
                1.0172614108992431e-001 2.8456996134808642e-002
                -2.3636288179660674e-002 4.1772644514881649e-002
                -4.5060326990482673e-002 -1.2013759348063995e-001
                1.6336009611791802e-001 -4.0124814291277865e-002
                -3.6380205855202907e-002 4.8069343364814547e-002
                6.9662858976912337e-002 3.2446677432632617e-002
                -7.3056917341637856e-002 -8.2048328367296711e-002
                6.9550191675352160e-002 -1.5776978066648423e-002
                1.8802536723143696e-002 -6.3226211877684652e-002
                -1.1912408313047824e-001 -8.2924157842656967e-003
                3.4984724133542568e-002 -3.5970297541799694e-002
                -1.3120494671601138e-001 -1.3623349985507066e-001
                -5.7506276326630586e-003 -1.9287899419386374e-002
                -5.4266969047508391e-002 -8.6303213566079728e-002
                1.3454465822627523e-001 1.2244127219392681e-001
                -1.3645623200662840e-001 -1.1961276085377391e-001
                1.2218989112030200e-001 5.8967807975457837e-002
                -7.3775654371420127e-002 8.5411130666179589e-003
                -6.6133039493175672e-002 -6.7396576456635179e-003
                -8.5460822205589770e-006 6.8404896653152122e-002
                7.4741791351216696e-002 2.7421352352650713e-001
                5.5145704913751578e-002 2.3255612718055766e-002
                1.4431388546676813e-001 -7.4660609002414002e-002
                1.1498773939892042e-001 -9.9083696631888166e-002
                2.3604247344747708e-002 -6.2390491769320683e-002
                -1.3373479795504303e-001 6.1083182042133900e-002
                -2.5103723259337619e-002 1.4251088864741757e-001
                -1.8408984547380294e-001 -5.0716152010589710e-002
                -5.6610035679176371e-002 4.5047876956845138e-002
                -1.3405337174595094e-001 7.6282263393631117e-002
                7.3574650542018685e-002 1.0882159511208365e-001
                -8.7134954057078787e-002 -1.4357144526783003e-001
                2.2724723796642456e-002 -2.6515853835563968e-002
                -1.5359788036484219e-002 6.6145669542989768e-002
                4.3553054685682144e-002 -8.8295335829304877e-002
                -2.8107200645613638e-002 2.2999860669700740e-002
                -2.1773072750654485e-001 5.3861125710095409e-002
                4.2852822311642565e-002 3.2040165054763881e-001
                -9.8391708622233426e-003 2.4957093538742292e-001
                1.1961646217255135e+000 8.2538024969887255e-002
                5.6648844217229689e-002 -7.6572538215547048e-002
                1.1761179277611494e-001 -1.1323003708102067e-001
                -1.0132790558348370e-002 4.4890682501070978e-002
                8.7016321065230967e-002 -3.6599465365053992e-002
                -5.4577539790847864e-003 -5.4296776914956491e-002
                6.6446764138006514e-002 4.9772066974527893e-002
                3.1276445879975154e-003 2.7698880259496107e-002
                1.6934126893430207e-001 -6.7552992100271660e-003
                1.1252123148153099e-001 -8.9422888391032171e-002
                6.8869993711663621e-002 -3.3889830407500671e-001
                -5.1150861366281712e-002 -4.0893209926225478e-002
                1.8795543693890396e-004 -1.0234827054969760e-001
                -1.1758703242776344e-001 9.5924573529749133e-002
                -1.7281717346006632e-002 4.9817870098316279e-002
                1.3711551852492582e-002 -6.7786725997597053e-002
                1.0720473109239569e-001 2.1165913365709477e-001
                -1.5275679561185082e-001 -5.5697285158512452e-002
                8.4085492037951140e-002 -1.2005302830037355e-001
                4.6361331787031362e-002 1.8086594542220671e-001
                -7.0665282533531437e-002 1.3942004837150176e-002
                -3.8678098681341429e-002 1.6338585320921209e-001
                8.9493554876188229e-003 3.9593288157419096e-002
                -6.5027959453311329e-002 -4.4301653406214758e-001
                -5.8791388666890765e-002 -1.4066682162001543e-001
                -3.4777321151782961e-002 6.5394273430008518e-002
                6.1902783034023294e-002 2.7910803205864754e-002
                2.3469862089324736e-002 -3.2476994840763211e-002
                -2.2413679576933333e-002 5.2234096567671376e-002
                -4.4844084858757037e-002 8.4157636839015365e-002
                -2.0448034031120565e-002 -5.7939153960715320e-002
                -6.6509364921513214e-002 -1.0418525295508947e-001
                -1.0704261040631333e-001 6.7745642727146962e-002
                -4.4997911802879001e-002 -7.2393069759842929e-002
                -1.7369835125208774e-001 -1.3534595483654868e-001
                2.1973487467641956e-002 1.7191628768029643e-001
                -2.0846224840465635e-001 -2.6177390016558662e-002
                4.1264880332099393e-002 -1.4096819442870512e-001
                7.8590822564310221e-003 3.4253352955609445e-003
                -1.6819400773661611e-001 4.1869423039992942e-002
                -1.2722398588880024e-001 2.1175961210395102e-004
                -2.0433807024979489e-001 -3.8275106896053589e-002
                -1.4259202640948349e-001 -1.4236550933148828e-001
                9.3261739037854091e-002 3.7243022979965228e-002
                6.6422202907434891e-002 -1.3368437047395842e-001
                1.7652394051570247e-001 1.7634001559623594e-001
                -2.9079528600128871e-002 -1.3587098200388318e-002
                -2.4669059070154955e-002 -5.1039676008525298e-002
                -1.1111643945125670e-001 -1.1132117080398445e-001
                -4.2648202820107964e-002 4.6909960311473729e-002
                -1.2034786119252830e-002 1.2555498502069256e-002
                1.9024848602279362e-002 -5.3929201966260616e-002
                2.4391081158404552e-002 -1.5451068065493675e-002
                -1.9820903462512907e-001 8.9693879413292460e-002
                -8.7520719804160110e-002 5.4922361463326047e-002
                2.3708177334315371e-002 7.1885461432345851e-002
                -2.2067958860789355e-001 -6.3407366168463999e-002
                8.1137597382548894e-003 -3.0994288230049162e-002
                -1.8631763109235799e-003 4.8057605675937996e-002
                -1.6682702314856125e-003 -1.5725902713153900e-001
                -2.0613484191213258e-002 -1.7412455168383459e-001
                1.1089167298230923e-001 9.5055266905493124e-002
                3.1067251504395182e-002 1.3544088831342976e-001
                -8.7364461364748111e-002 1.3692761358407340e-001
                3.7433170094394423e+000 6.1105524861682317e-002
                4.0668474809596247e-003 7.0265648599647915e-002
                1.7240607646012135e-001 -1.8201621136158255e-001
                -1.0144696159410670e-001 1.3123574109640027e-001
                7.4362161455219358e-002 1.3348301964305923e-001
                1.5058273609901895e-001 -4.5501925009798001e-002
                2.2062885021785428e-002 3.9541368556511088e-002
                -1.3242132704937731e-001 -3.1485179513508155e-002
                3.0525814641434951e-001 3.2016873127871964e-002
                1.4651489131988268e-001 -6.7421477729452506e-002
                -3.5104333025054698e-003 9.7884257347940150e-004
                -3.4282760104074071e-002 -4.9857830012967740e-003
                -6.2566120331891809e-002 -1.1736705190324309e-001
                -3.1995884218324294e-001 4.7926663081341796e-002
                7.5058002320648404e-003 -1.0046932634429920e-001
                -9.3031021940660721e-002 -1.5330637695112159e-001
                7.4709055471134073e-002 2.1970215115116348e-002
                -1.6078127913257467e-001 -9.8738194131138324e-002
                -5.9693398416830690e-002 2.7043491059302750e-002
                1.4358014017959594e-001 1.4284017067042129e-001
                -2.0073493007015247e-002 -1.0375957691695303e-001
                3.6887714774483771e-002 9.2985701071118546e-002
                -4.5439795526776468e-002 -1.2754085516903399e-001
                1.3016684430969280e-001 -4.2877904609988599e-001
                -6.7096537410241214e-002 -4.2464735902340445e-001
                -8.7485061090893518e-003 7.7297524181748858e-002
                9.8268316577581560e-002 -2.0070765757425880e-002
                1.2601395711119842e-001 9.6903379106375778e-003
                -5.3710400556466163e-002 -7.2425755333673972e-002
                -8.5860301383747256e-002 2.3284383652410726e-001
                1.7028269578536488e-002 9.9776072492689626e-003
                -7.8857710623813707e-002 -8.8800285464331816e-002
                -4.3221440411776710e-002 5.7283596113218122e-002
                -1.8320625284234015e-002 -1.2091501695412595e-001
                -1.1752721440970668e-001 -2.4880684775286985e-001
                5.6301951441782841e-003 -1.3638559357994523e-001
                8.6761588680978358e-002 1.6458050963287335e-001
                6.7838460910540715e-002 1.6958087937212110e-001
                3.4961793053563471e-002 -3.6334758228831948e-002
                -1.4581810826017061e-001 7.9783346834904761e-002
                -1.1921456387632008e-001 -9.8060753780998162e-003
                2.5234770926046690e-001 -6.2101895463477788e-002
                -2.5773477059813615e-001 -1.7149460725606899e-001
                1.2437386144586079e-001 -1.4074667224317516e-001
                1.0292877030800658e-001 -9.9198735710636241e-002
                2.3321160118140880e-001 3.8628054150229234e-002
                -4.9029963547576822e-003 -1.2738755935150389e-001
                1.3851650067014662e-001 5.0217296811487670e-002
                1.7671532406411797e-002 -7.9104758299343797e-002
                -1.1232776418072360e-001 -1.8851796774954524e-001
                -1.7893426673944737e-002 -2.7968583113436845e-002
                4.0017502939345894e-003 -7.7208851633538009e-002
                -1.7983563567804656e-001 -1.9863349729802374e-002
                2.8861164892126649e-002 3.7240490786958014e-002
                1.3271205537117542e-001 1.2766719473544239e-001
                1.9957203316029554e-001 -7.8179409755696511e-002
                -1.3732631564444456e-001 2.5343687111638868e-002
                -1.2008783311709584e-002 2.4500732041147475e-002
                3.6168725701872267e-002 8.6905796031880811e-002
                -4.4390393803359331e-002 -5.0090637542631966e-001
                1.2558539694345813e-001 -1.1896487486584451e-001
                1.7402172030002028e-001 5.0282893779309640e-002
                7.3186408872378345e-002 9.2567736993814948e-003
                -9.7933436479709299e-002 1.1306165408165708e-001
                2.1389726536181248e+000 1.0327043319282007e-001
                -1.6553801529239909e-002 1.8696792427289055e-001
                1.5038109407644726e-001 -2.3425512929342227e-001
                -5.8543588993444445e-002 1.0840770191560596e-001
                2.2611645170119463e-002 8.9223002420489542e-002
                1.3776416563057356e-001 -8.4480654092563261e-003
                -5.2685341513839204e-002 2.1125293331289911e-003
                -8.8492291988183575e-004 -8.4555059729138279e-002
                1.2668099404255284e-001 1.0990705942496241e-001
                1.0118045694542575e-001 -1.1497878490663345e-001
                -2.6096002965009572e-002 -7.3550866558272587e-002
                -4.2827262013000612e-002 4.8638604104495074e-002
                -2.1379533108201034e-002 1.1866553855163439e-003
                2.9518665890243215e-003 1.0656926802971392e-001
                -1.9669911603591828e-002 -1.6735096588503643e-002
                -2.0378165839064435e-001 -5.0828495534762784e-002
                2.1107423862830388e-001 3.5086623674096201e-001
                -3.2329081607197371e-002 -7.7721393480536569e-002
                1.7756709651935165e-001 -1.6431864513075885e-002
                1.6080919999740534e-001 -7.6389336716591533e-003
                4.8834640914630481e-002 -6.5643035886666326e-002
                -1.4452589943442271e-001 -1.5916747149624161e-001
                -3.4083242261972534e-002 -1.6516118956742126e-001
                9.4874894325043341e-002 -4.7622060807895200e-001
                -3.6336285650514430e-002 -2.8565114136430375e-001
                -9.5892725441694651e-002 3.9650778587457670e-002
                -1.1978570133552318e-002 1.6631067110021749e-001
                1.4858901051360945e-001 6.7346080382133340e-003
                -7.5904708283137182e-002 5.7048604303615184e-002
                -7.5233266750932642e-002 -3.8149307501326876e-002
                -1.0796453535810892e-001 -2.0093294252285180e-002
                -2.8845426458043871e-002 -1.1196460547325431e-001
                -6.3377945204874608e-002 -3.5356182010234240e-003
                2.5874041329542966e-002 -1.0463505055658788e-001
                -2.2064397106692279e-001 -1.0414731647053388e-001
                -1.8715465378441623e-001 1.2007166952009683e-001
                -5.9016829136606497e-002 7.5052324988993252e-002
                1.7057343523295637e-001 1.2057493158513309e-001
                -5.0945345639246450e-002 -1.7260281651537996e-002
                -1.3947550717462037e-001 5.6402123821155351e-002
                -9.0548908698548924e-002 1.7869977589333766e-001
                1.4934696097697283e-002 -1.0235208016765907e-001
                -2.0890933761569383e-001 -1.2166395643411199e-001
                1.0138697416150325e-001 -9.6873671900604405e-002
                1.2341580326199375e-001 -1.6267718078494857e-002
                7.3053135296283045e-002 2.0632224861283197e-001
                -1.8134960114157210e-002 -2.0641276297517730e-001
                6.6058109415380303e-002 -2.6765353522017459e-002
                -7.6463571995586635e-002 2.0228800528460173e-002
                -1.2857604426275887e-001 -2.5480716966703626e-001
                1.1085821574537783e-002 4.9867658590181323e-002
                -1.4299387858953520e-003 -2.0011366215754103e-001
                7.2142815159404114e-002 -4.9383561549109549e-002
                -2.7457433347062823e-002 -8.9053367468989883e-002
                1.1760304968696138e-001 -2.4894001077437139e-002
                2.2014997521799928e-001 8.2824663476359042e-002
                -1.0487182528240099e-001 8.0835721163393201e-002
                8.4638187371895102e-002 5.5961472075682812e-002
                -9.6668451273548464e-002 4.3180657847896476e-003
                -5.8294373132849471e-002 -1.9187358483650482e-001
                -1.6816456396012441e-001 -7.3923896686532584e-002
                -1.7240712749743384e-001 -2.5333211949892333e-002
                1.0535058844885473e-001 8.0361071454560534e-002
                5.4485203529295430e-002 1.6325946441481270e-001
                1.3287383160249699e+000 1.4834278736415776e-001
                6.0505747136601298e-002 1.9486770866090983e-001
                1.9326492115345520e-001 -1.5462841389109533e-001
                -1.4252606746890124e-003 6.0970888961572886e-003
                3.7352774468263990e-004 1.4272110230906243e-001
                1.0064750298127371e-001 2.4090435477025149e-002
                1.0884094596492508e-001 8.9893505498099019e-002
                -1.6307847789566687e-001 -9.2775939707761296e-002
                2.8340339675137376e-002 1.0298584621083215e-001
                1.1783690617200454e-001 -1.7685159337853409e-001
                -4.8315885932085537e-002 -6.2351369597086856e-002
                2.7529470106061653e-002 -1.7347995132359403e-001
                -4.6515909679538447e-002 -4.3534633228397721e-002
                -5.3433044074891065e-002 -5.9143483042680654e-002
                -1.8931846773290226e-002 -1.0727189479499505e-001
                -3.7701376837084866e-001 -1.7469187552001658e-001
                3.8075120898540878e-002 3.0514994728303754e-002
                -1.0865529276963348e-001 -3.8453014486890987e-002
                2.5327409671342194e-001 -4.5534804688716311e-002
                9.9579015344854527e-002 -4.1615953380882434e-002
                4.8290771246233835e-002 -4.5408423697267365e-002
                -8.2123638813086319e-002 1.9864598750675817e-002
                -9.1727446271645557e-002 1.2239518734921484e-002
                9.9365332289572950e-002 -5.1980164733106027e-001
                -6.8561860735376220e-002 -3.1845192201477268e-001
                -1.2128760789900994e-001 3.7222973689347724e-002
                9.0739577731686963e-002 1.5972293441850766e-001
                1.5000597601844962e-001 2.5057625570347797e-002
                -1.0296091952379706e-001 -3.9079847538082961e-002
                -6.3807965555451138e-002 -6.4966983677372719e-002
                1.3629071806554313e-001 -7.8447354426745761e-002
                5.5322075606863835e-003 -8.9617285325296336e-002
                -7.7732379436801502e-002 8.8373334283888744e-002
                4.3489751610805108e-002 -1.0476659381099984e-001
                -2.4840874273788136e-001 2.6131074998534398e-002
                -5.6144831150239091e-002 1.6682636452507008e-001
                -1.3690408218850003e-001 1.2071585647195736e-001
                1.5869163520372795e-001 -6.2617635262009780e-002
                2.9126592082831772e-002 3.1098055664231558e-002
                -2.5270287426302329e-001 3.1017860283766602e-002
                -2.2814644861006303e-001 1.7233487083824756e-001
                -8.4578237944705675e-002 -1.0198380651319483e-001
                -8.3737015328903111e-002 -1.2040867104064505e-001
                -4.3690392388492226e-005 2.1430456737517836e-001
                1.2736306213025578e-001 -4.8281879109877107e-002
                8.1571976439766672e-002 1.8844472197122999e-001
                -6.0779074335476281e-002 -7.6974750805522919e-003
                8.0844527875228986e-002 4.8036968463161037e-002
                -3.3002278389092844e-002 -9.5925616566349223e-002
                -7.9244442534382939e-002 -2.6512733908395042e-001
                2.3247009117215865e-002 -8.7532153519085526e-003
                -8.2267966919523580e-003 -2.2397632340555873e-001
                -3.9978258435106898e-002 -6.7902418253445160e-002
                -5.1318356495497333e-002 -5.8025243539669702e-003
                5.6140159796842413e-002 5.6360794946279429e-002
                1.7970845297950599e-001 2.1033776562686601e-001
                -1.9778078597404145e-001 5.9961817027839620e-002
                -4.7135058285105669e-002 8.2884526346520229e-002
                -1.7067442177305034e-001 -3.3278897452099825e-002
                -1.1991147082704257e-001 -2.9137145617600396e-001
                -2.7655425449599963e-001 -1.5277317813094765e-001
                -7.5605747137463639e-002 -2.8480971319926225e-002
                1.6608134079307799e-001 9.9410989837634856e-002
                -8.8497217052999427e-002 1.2253906202609260e-001
                1.9593068460546310e+000 2.9177286629337364e-002
                1.3741078201420440e-001 1.2852381277722943e-001
                4.1431616729515702e-001 -3.9629311523629868e-001
                5.3305618290444008e-002 -7.6607466555173975e-002
                6.9715857691873837e-003 7.1357140927697363e-002
                -1.1559109194846914e-002 -2.3182809197270175e-002
                -2.3869694683812236e-002 6.0424666780821935e-003
                -1.1354284355377289e-002 -2.5846449206553501e-002
                1.3629002843753099e-001 1.1322769562604043e-001
                1.2532563516573442e-002 -2.4145777615554942e-001
                -3.9058067863068612e-003 1.9825698904107892e-002
                1.8487312779586079e-002 -2.8661066830482276e-002
                1.0258250857850129e-001 -6.0693212345326646e-002
                1.0341612152403942e-001 7.9066077892592707e-002
                -7.1653684990241037e-002 -9.7946795042799378e-002
                -1.0207455528779946e-001 -1.0551980809639105e-001
                -3.0782875506406132e-001 -4.7923529028316120e-001
                -1.4865302773984812e-002 -4.1456304055716896e-002
                1.1092470688679984e-001 1.4503173423874469e-001
                2.6911271355548088e-002 8.8153063724172559e-002
                -9.6287781524043679e-003 6.8077356207709203e-002
                -1.4170762889385918e-001 -5.6714330064092919e-002
                -1.0558890238586827e-002 -2.6670463009071184e-003
                -4.2426659835703096e-002 -6.9655154963993465e-002
                -3.1414253222021696e-002 -1.1219599322581982e-002
                -4.4207304181558993e-002 8.9923862159569837e-002
                -1.0523232518961513e-001 -2.6183301764769337e-002
                8.3583521602142247e-002 8.0629814534646696e-002
                -3.9549022807226553e-002 8.9540330481407845e-002
                -5.1710022544078645e-002 2.6592677407333382e-001
                1.0556098594633681e-001 8.4698160126112962e-002
                2.5563142214461688e-002 -3.5952323583530413e-002
                3.7472340130955961e-002 8.0262888411537336e-002
                4.0739086223520557e-002 -1.0136713562157203e-001
                -7.2228316240922200e-002 -2.9987898598219816e-002
                5.5203999753236930e-003 4.2869854447429474e-002
                -1.3053852324692558e-001 9.3799062285452577e-003
                8.0188190113724550e-002 -3.6617457140363761e-002
                -4.6155964307554274e-002 -2.2462771377173452e-002
                -1.1336159595125234e-001 9.3907543495162407e-002
                -6.0618281444546826e-002 1.0062109722063679e-001
                -5.9124850756968383e-002 -1.0983869586500697e-002
                -6.7284059546551242e-002 -2.3612233151410728e-002
                -6.5542592840562186e-002 2.6126084175413078e-001
                -2.3187572585542872e-003 -3.3512894331967952e-003
                1.2771175006440472e-001 -7.2854484526740232e-002
                -3.7585793972449724e-002 -4.4616214899888089e-002
                -5.2560480450618244e-002 -1.3448983190359575e-002
                -2.3646494804677484e-003 -1.6866300235186787e-001
                -4.2882274920378445e-002 -9.4935227694566457e-002
                -5.1548522078166429e-003 -1.8093138341809498e-001
                7.3190834422794861e-003 -1.7229496404695707e-001
                -1.5171187475965212e-001 3.9412787372550315e-002
                5.1807784913075153e-002 1.1806615446856213e-002
                -7.8979493203029785e-002 1.6341532676813098e-001
                7.9411453876274754e-002 4.3540056642675941e-002
                9.6060983312258277e-002 2.2134906404031120e-002
                5.4809850907428705e-003 1.1504899422063498e-001
                -1.0497512432871002e-001 1.3513506021308399e-002
                8.9589715328065006e-002 -2.2649604015050109e-001
                -2.2151355526943076e-001 -1.1242280564177051e-001
                1.3424420434545278e-001 3.3314836497369632e-002
                1.2357228561380573e-001 7.6156682073561605e-002
                -6.3607423747901820e-002 -1.1704017166723515e-001
                1.9008319689762372e+000 4.0656354382328109e-003
                7.3287809086845873e-002 8.9888193582562989e-002
                1.3275476569265085e-001 2.2787237080818996e-002
                -1.1348090935461549e-001 -1.6114935601224102e-002
                -1.6683391258196102e-002 4.1159757469180186e-002
                2.5442341710133275e-002 -1.7138199282712974e-002
                5.9988673632618270e-002 -7.9460592331605365e-002
                6.1638751586255043e-003 -1.6203969898728608e-003
                7.9328466181781243e-002 -4.7410567813398710e-002
                -5.5584779978609548e-002 8.7876802269440987e-002
                1.6175039082389775e-001 2.1448373801383100e-001
                -1.1188066140400561e-001 -7.6270042665189330e-002
                -1.6530630730485560e-001 -1.4862841847709883e-003
                -1.2195575294179024e-001 -3.8247858921333824e-002
                -6.2044264988673846e-002 -1.5282371873540731e-002
                4.4773370790301366e-002 1.5500181139932298e-001
                -1.0721880189159824e-001 -4.3116802317794645e-001
                -1.3897993350181664e-001 -8.9180608421197665e-003
                1.3435164834080174e-001 -4.5416796877631900e-002
                -9.9957350278086290e-003 -5.1959655569713180e-002
                -4.1862264884896042e-003 8.6373558684283758e-002
                -1.4115387145255559e-001 -2.2059243835207770e-001
                3.3043808708915948e-002 -5.7925767329082306e-002
                -2.5362307831093923e-002 -9.9104511581553936e-002
                -4.8334987477618059e-002 -1.1721308913262645e-003
                5.2353285716199030e-002 5.7762255889004528e-002
                -8.9283894863679950e-002 1.3903859532922863e-002
                3.3212432235571791e-002 -4.1254603401791240e-002
                3.1054647757335199e-002 1.2844874621228503e-001
                -8.9223785903279201e-003 7.1321802599292369e-002
                3.9934612682220788e-002 1.2713394926083746e-001
                5.0459576183448035e-003 -4.5370267678808605e-002
                2.0809214574777232e-002 -2.8970414739204919e-002
                8.7918350668484482e-002 -1.8790971501932426e-002
                7.3201151635132772e-002 -5.8786090028587097e-002
                2.0608348652896955e-001 -1.6008589519394262e-001
                3.4166808337175537e-002 -7.2530389625143452e-002
                -1.9819368160799586e-002 -4.7505438450787557e-002
                -9.8094445517686951e-002 -1.5992883093258973e-002
                -2.8285725122929717e-001 4.5253672434114732e-002
                7.3887071108562103e-004 -7.6063856692348872e-002
                -8.7039486037005620e-002 -6.5805831279486700e-003
                -1.3208194587292138e-001 5.7023642477118185e-002
                -5.0535057324193715e-002 -1.8454116528300338e-001
                -1.2560395764679758e-001 5.8074532322546862e-002
                5.5911804184455974e-002 -1.0774525342421584e-001
                8.5551307708007215e-002 -6.6696590522690766e-002
                2.1192449616491815e-001 -3.3365899718744221e-002
                8.0949091056586556e-002 -1.0682793375630238e-001
                5.7299252213730827e-002 -1.3086141778207910e-001
                -4.0134582188299503e-002 2.1104588148226727e-001
                3.1222826988455840e-002 -4.3293053903519015e-002
                2.9095142275492458e-001 -5.1706668318662521e-003
                3.0863978410647842e-002 9.5174295873952472e-002
                -6.2145793699204206e-002 3.2209354417557473e-001
                6.3659091057973641e-002 3.4694231132180411e-002
                1.0307918473409972e-001 -1.5736053267068836e-003
                -7.3211658873372810e-003 1.1112230468221898e-001
                -5.6179287889839336e-002 6.3167782450058579e-002
                9.6915011538835194e-002 2.8872476958868989e-002
                1.7005154640553102e-002 -3.8849098993447857e-002
                1.2326479493004144e-002 2.7750723751774054e-002
                2.9796893815623990e-002 3.1357964684114586e-002
                3.5347152982671701e-002 -8.3512970885501622e-002
                -3.5107539761465340e-001 2.2340354828845624e-002
                2.0771751947777065e-001 7.5014135306145799e-002
                1.3396526072549575e-001 1.0753962506273776e-001
                -1.8268145605445851e-001 1.0845842732239193e-002
                -7.9618807151250765e-003 -2.5474922466184342e-002
                3.7187350132639033e-002 6.9515013710744880e-002
                3.1145588164249216e-001 1.8435897988131031e-001
                -2.4127405038114996e-001 7.5055557320558366e-003
                2.3482670488238017e-002 -3.5095739149206447e-002
                -1.2817605652048158e-001 8.1365298959150623e-002
                -3.8659615861399765e-002 1.5449390396094675e-001
                -6.0930482076618137e-002 -3.8684279393444439e-002
                -9.7229064410358390e-002 -1.0480436197026816e-001
                -2.2541614567736903e-001 -2.2190758826597118e-001
                -1.3018405555293787e-002 -9.1512782230339720e-003
                -1.9958883013706553e-002 1.3575301571080094e-002
                7.6352012025546076e-002 -8.8684623314012015e-002
                -1.2799737295296360e-001 3.0243129049773960e-002
                -1.7676914425717197e-001 -5.1721425777766082e-002
                3.7567818994678599e-002 3.8716712947439051e-002
                3.5957639912058928e-002 -1.4994039486509727e-002
                1.6413018129510404e-002 -6.5899077376431373e-002
                8.3986576854421166e-002 9.7370661100817532e-002
                -7.5851258501455111e-003 -2.0302182585357245e-001
                -1.1678326399822023e-001 -3.5861094684310639e-002
                1.1097332045439788e-001 1.9031932913415674e-002
                2.0737995394589745e-002 1.0748907222200409e-001
                3.9804771648192849e-002 -5.6984315906616283e-002
                -2.8668542931167391e-002 1.3864353898935083e-001
                4.7209503232282513e-003 -4.9674217285011861e-002
                5.2318250079223187e-002 3.2313198229036839e-002
                -4.2208830134995998e-003 -5.7634408734077658e-002
                1.6976319558679265e-001 -3.7819056914228960e-002
                4.4340238726298956e-002 -2.0219654692944324e-002
                -5.3405361673394434e-003 4.5936370717768481e-002
                9.2358140823847246e-002 -5.6890445720337052e-002
                -2.9103182300767433e-001 -2.2574130705034362e-002
                -1.2996939173014579e-001 1.8348226406559170e-002
                -1.1576085777754812e-001 5.2131910626427004e-002
                -6.5116827067641398e-003 3.9934576037160441e-002
                2.0277742670375725e-002 -3.5033563488835087e-002
                -8.9978236768909939e-002 -6.1972821933778587e-002
                5.6221278239667299e-002 -5.0014512509972436e-002
                -2.0945329378647365e-003 -5.6484186617208672e-002
                -8.0332347459037654e-002 -1.5411212764366614e-003
                -6.7997158069753927e-002 2.0806518771185586e-001
                1.1073663759012367e-001 7.2068248441966437e-002
                2.0939964026821084e-001 -1.2347260108738496e-002
                -1.2149934917345966e-002 4.6209048114440446e-002
                4.6656902944306092e-002 -1.0645468068972083e-001
                4.2104671681324347e-002 1.9814029274428258e-001
                3.9009593534591755e-002 3.6339699528877070e-002
                -9.7077974705716205e-002 -2.0856952442071868e-003
                -2.7237856906015662e-001 7.2435667917334218e-002
                -7.5944502058211835e-002 1.3057910345271337e-001
                4.7424520638799636e-002 -6.2610233424592016e-002
                2.8513235554388516e-001 -3.4789218732967891e-002
                -1.0583626256064456e-001 3.6512286767139121e-002
                -3.5035647235174175e-002 7.5026722745680204e-003
                -1.1529780027654954e-001 -5.1613898894390921e-002
                -2.3733791530792794e-001 7.2755050372495344e-004
                -6.5305063889645604e-002 -2.4518164881284716e-003
                8.1047942880985949e-002 1.4285270135549649e-001
                3.5023718082533878e-002 1.6836476840750780e-001
                -7.2172893358466361e-001 7.9411431611617220e-002
                9.9166195268152305e-002 -7.9970441512255602e-002
                3.3736780180898492e-002 -8.5795154043532926e-002
                -1.3329929281225955e-001 -1.9020123783318538e-002
                -2.8838363449492140e-002 -1.9167941794399995e-002
                6.5561268937659655e-003 8.4148114242957706e-002
                1.0909702939354043e-001 3.2927101636789774e-002
                2.6443663471873307e-002 3.1920674586773959e-002
                -6.5036114943467047e-002 3.2500477573835458e-002
                -2.1451063827705553e-002 1.4911816671619138e-001
                3.3578503076597481e-002 9.9281314263963402e-002
                1.0337762670329526e-001 5.5583717390270834e-002
                3.5977103260965683e-002 -6.4083867285182963e-002
                4.1304518361821377e-002 -1.3379479386045051e-001
                5.7663785036201960e-002 -6.4762542529598191e-002
                -2.5771517813891742e-001 5.3653913648796049e-002
                1.1202286085269154e-001 -7.8223308406798253e-002
                -2.1115038747440432e-001 1.0077312082958682e-001
                -1.8753707094703825e-001 3.4625710859972882e-002
                -8.8446999020148812e-002 -1.0589315991195251e-001
                -3.5319278241663400e-002 2.3413164112115813e-002
                7.0661762812781234e-002 3.7696947649805045e-002
                -9.1369939768236909e-003 4.5792866538693633e-003
                -1.0217504437268345e-001 -1.2150722484950383e-001
                1.5121159654334407e-001 -3.4233608396062834e-002
                6.7784257381565526e-003 -6.8503693826788850e-002
                1.5522566159516152e-001 4.3070614644515849e-003
                -1.2940078980530704e-002 1.9059314003350602e-002
                -1.1956324631179363e-001 7.6776423920479646e-003
                7.8973542399937313e-002 -3.7567027883816516e-002
                -8.0440203154842266e-002 8.5880212768054617e-002
                -4.1153459541492757e-002 -4.1517087832077408e-002
                1.9506977922502852e-001 4.0222835907720494e-002
                5.8929995514060210e-002 7.5805768128786533e-002
                1.4605821685307407e-001 -2.3685371627704363e-001
                1.7238374017482164e-001 -2.5025137652133017e-001
                -2.5965959661159388e-001 -3.1958795446650680e-002
                -1.9046852372012382e-002 8.1657472155805350e-002
                1.1387561617666374e-001 7.3166661956064361e-002
                1.0911702488796511e-001 -5.6172911997140453e-002
                1.4958545961573816e-001 -2.3343177200774272e-002
                3.0730215347264234e-001 -1.3325808660811819e-001
                -2.0183190905474106e-002 -6.2517462251515915e-002
                -2.6319386250020307e-002 8.1634258341518981e-002
                -8.2358494470425925e-002 -9.7479619083931893e-002
                -1.2527784300079745e-001 1.1115245023193854e-001
                -3.4705482484651256e-003 -2.0660563789811801e-001
                1.3202930360030360e-001 4.5701639127749577e-002
                -1.9504291297835005e-001 -1.1364884012142885e-001
                5.8739649948982973e-002 7.7235057962713419e-002
                1.1492071319154802e-001 1.3071701854416587e-001
                8.2789946237112555e-002 -4.5828418300587126e-003
                -1.6017128571353995e-001 1.3064505699182963e-001
                7.1325312330233634e-002 1.2501718074110877e-002
                5.8973814399607812e-002 -1.1853088909794351e-001
                -6.8382003205003622e-002 -9.4635949695132740e-002
                -1.9122065044581296e-001 -3.4898952103843743e-002
                1.1156779501069374e-002 3.0121925638450033e-002
                4.2647978224393701e-002 -2.3219199237139332e-002
                -6.1081387722298729e-002 -1.2931238749153304e-001
                -8.0862840493922034e-002 6.4951776071859785e-002
                -1.4025881546191607e-001 -4.0162341184886673e-002
                -1.6923951693490577e-001 -9.8748210863066274e-002
                -2.7495274051356624e-002 9.5621993957833246e-002
                -1.3297133697727026e+000 -3.5981932747093333e-002
                -1.4029220402671386e-001 -6.9984283161491093e-002
                -2.1062425314975686e-001 1.3278092891313439e-001
                -1.8646594627167359e-001 -4.7246890177363179e-002
                -6.0015737869109576e-002 -1.1020212003745162e-002
                4.1044751740806823e-002 1.4924955165487280e-001
                2.4022451024106235e-002 -8.1187019882580161e-003
                1.5851657169922823e-001 -1.3384401402331186e-001
                -1.6513314271048313e-001 2.0893827295162710e-002
                -1.3020304765013468e-001 3.3873141016389746e-002
                -8.5954163111222198e-003 -1.1978793413741898e-002
                1.0178419069849502e-001 9.1179005571921462e-002
                2.0844884446552962e-002 2.0797654529949783e-001
                2.7823061815647243e-001 -8.9313526805366777e-002
                -2.4446608290692378e-002 -8.0465582138924512e-003
                -1.3079536870928219e-002 1.0420233332683933e-001
                -6.3331224022797783e-002 5.4054780740834307e-001
                5.7781862323839861e-002 2.4420514587235195e-001
                -2.3170835269284454e-001 4.7122383407583082e-002
                -1.8008760152811917e-001 -3.5241443182080320e-002
                2.2354258493600076e-002 2.1053044101966976e-002
                9.1943815947671884e-002 -1.1245203568744236e-001
                3.6714952475946749e-002 -2.3567139565226845e-002
                8.2542645338874662e-002 2.5654484202952188e-001
                1.5398150466997254e-001 -1.0788318852601073e-001
                -1.0215664022352966e-002 -1.6925480956657762e-001
                1.0511951363174690e-001 -1.7937508971791503e-002
                -2.7240334880664487e-002 -8.7665213877545674e-003
                -2.3862260948423888e-001 4.3929601874292491e-002
                1.8802111964039056e-001 -1.7099664561504309e-002
                -1.3954701213646106e-001 -1.0007161883148460e-001
                2.6036303132085777e-002 2.7412386478066691e-002
                3.4713718874603394e-001 1.0599378563707262e-001
                5.4196260648383780e-002 2.0993439075365233e-001
                1.0670959766563100e-001 -1.2271980586097460e-001
                8.1562678759009535e-002 1.0367529774250475e-001
                -2.3955338007194149e-001 -5.9172192194885162e-002
                -4.1645403836690437e-002 -7.2155800730885844e-002
                6.8938695910888470e-002 1.8988696803702471e-001
                2.2238180863240900e-001 -2.2123583877039549e-001
                1.9680586119483534e-002 -5.5894834867344388e-002
                2.6418761456206413e-001 -1.6727643998580960e-001
                2.5976828595895153e-002 4.6678263253414072e-002
                -5.2969766268961452e-002 1.7303803078300420e-001
                -2.9735492918916660e-003 -1.4923201319060639e-001
                -2.5622787793879392e-001 6.6393531600471879e-003
                -4.0367293730405743e-003 -8.4686863953108117e-004
                -2.2890914319022709e-002 5.6263299682094868e-003
                -1.5085429069850537e-001 2.5244658200584563e-001
                4.9039230182556841e-002 3.1167315725220501e-001
                2.4345343768102840e-001 -1.5902454822187537e-001
                7.9305181181012138e-002 -2.7130250828320390e-002
                -2.7022956056740316e-001 4.3379906078869518e-002
                1.8683057500481048e-002 1.9228690720050678e-002
                1.1358756843701959e-001 -7.6295671818722363e-002
                -4.5838791387189881e-002 -2.1649555866483716e-002
                -1.2332563805175646e-001 1.8463285576083933e-002
                1.3191316476031456e-001 -6.6933385057803023e-003
                -3.5665436878476162e-002 -3.4647551678383223e-002
                -3.9199923723198159e-002 -2.6590407559768559e-001
                3.2706182190848039e-002 -1.9848769101782609e-002
                -2.7632974179307896e-002 -7.1956501293445149e-002
                -1.8663727679945952e-001 -1.8338940372777951e-001
                8.9588505073404795e-002 -5.0740948445825759e-002
                -2.2016055012514695e+000 -1.4484822387342847e-001
                2.0344007045107419e-002 7.3120731107648121e-002
                -6.9865805102760012e-003 1.3736611381850891e-001
                -7.9957893812859296e-003 9.2774016560153508e-002
                -1.4992717856161736e-001 3.3991789252084410e-002
                1.4480220645893446e-001 2.3900507610535160e-001
                -9.3524625334090714e-002 -1.2922400941838316e-001
                3.5895523518026029e-001 -2.1128391567707910e-001
                -4.2997409316373641e-001 1.4278933845455233e-001
                -3.0155999776504328e-001 5.9562534109598116e-002
                -2.0955865830318669e-002 3.4786746108284339e-001
                1.3495052438667671e-001 3.9625910634321228e-002
                -2.0029566606528715e-002 -2.9566302478682697e-002
                2.8195627551023228e-001 -3.5535005695392939e-002
                -9.2354286154895077e-002 -1.2568166315022944e-004
                1.9963275075580597e-001 3.5822593337259317e-001
                -2.9985266187096421e-001 1.3488853810140605e-001
                2.9557228611289266e-001 2.6954591951000167e-001
                -2.7976365465940023e-001 -2.8743227768528275e-002
                -2.4231625057300984e-001 -5.5230003169556410e-002
                6.9430550693575163e-002 9.4330787136617689e-002
                3.5857985535995540e-001 -6.5177886786303554e-002
                1.7614276765550821e-001 -7.1504213644736719e-002
                3.5922980797023929e-001 5.9557305788700325e-002
                2.2065905799642463e-001 -7.4490136357243525e-002
                8.5521440473778673e-002 -2.7377470092422368e-001
                -6.4270057007174822e-002 -9.4769164326190938e-002
                4.2739207672037170e-002 -2.3554100300230543e-002
                -3.4900831889371170e-001 -1.8749432604766075e-001
                2.4652170929893549e-001 1.4315644186810664e-001
                -2.1515233872176262e-001 3.4615381048604234e-003
                -4.6808292043008182e-002 -4.6253342537694786e-003
                8.8396660821806722e-002 1.4265238666479782e-001
                1.5961793981626651e-001 2.6677718540765871e-001
                3.4247838318130186e-001 -1.8552812560913273e-001
                -1.8547222410307418e-001 3.1184578450947270e-001
                -1.8177001869824103e-001 8.1020260930400670e-003
                1.5927565024564001e-002 -2.6830415927916063e-001
                1.6974897540378858e-001 2.5726118182015401e-001
                5.2011405940377509e-001 -2.3468750202521230e-001
                5.9300621253053049e-002 2.7330625496057481e-002
                -3.2206268523091164e-001 -3.0038320720834971e-001
                1.8438203372321291e-001 1.1098120202547865e-001
                1.4556422970165653e-001 2.1438236395810387e-001
                1.1925446698409092e-002 -1.1277133336960891e-002
                -4.4561017911251455e-001 -6.5592740813035968e-002
                5.2822172899869312e-002 3.3751843383583202e-001
                4.7727753081113440e-002 3.6615960615608421e-002
                -5.5829257063743409e-001 3.9369358758045120e-001
                -6.9669212324879201e-002 4.4898945389526129e-001
                3.5942007878479443e-001 -2.7895780945674514e-001
                1.1021889158267505e-001 -1.5034800553635511e-001
                8.6020513612581562e-002 -8.2882006440041928e-002
                7.2893414285753147e-002 -1.6119012356208662e-001
                3.5018614663786934e-001 -7.2064194860602298e-003
                -8.7656333094378452e-003 -3.6115223736398923e-002
                -2.8095471843859970e-001 1.0988153948971953e-001
                2.0394891089640821e-001 1.6062130907647139e-002
                -4.8651012173312462e-002 -3.4008601168788045e-002
                -1.3217486539631401e-001 -4.9383764110449660e-002
                -8.5136651843260316e-002 -1.2660864530582924e-001
                1.2887438105207683e-001 -1.3092995517927342e-001
                -1.0961538850227506e-001 -7.0850393944229720e-002
                1.9774484008372475e-001 -1.2500967085280304e-001
                -2.3059425146568095e+000 9.1866888735484487e-002
                -2.1060679058773468e-003 2.0521633870814304e-001
                -3.4432991820322739e-001 2.9382471760795459e-001
                -2.8435632012935783e-002 1.0024606474096670e-001
                3.0444347107641077e-002 -6.2804318598875447e-002
                1.2007099086954068e-001 6.2410073265577071e-002
                1.6150290101507808e-001 -3.8718185575593665e-002
                1.4056731671067841e-002 1.1639208437938883e-001
                -4.4124369538151753e-001 -4.7252321148393693e-002
                -9.2600809837936157e-002 2.4511419421741584e-001
                2.9258767281623611e-002 4.9884595724918414e-002
                1.8800725038490954e-002 4.7216679877701229e-002
                1.5387127518562385e-001 -2.3079944556528059e-001
                1.9520765433551654e-001 -5.0000814098730036e-002
                -7.3317926983635748e-002 6.3946990994679459e-002
                -1.5335229144500587e-001 1.7228493064071251e-001
                -1.1224849120912300e-002 -1.3113630414032498e-001
                -5.9241540890356888e-002 -6.5632661884221774e-002
                1.9043537134687286e-001 1.3652633656658694e-001
                -1.7990331537033200e-001 -1.4198131047921281e-001
                -5.7551936716638698e-002 1.4704475038571935e-002
                2.0516127200954698e-001 -1.5314493598376103e-001
                6.4718799045165379e-002 -1.1954834603549037e-001
                1.7245093853493454e-001 2.1092066408512752e-001
                1.3033253942265477e-001 7.6540196115495474e-001
                -2.3681000155652382e-001 -7.7843296776445373e-002
                2.2106870745025045e-001 2.4202627607483884e-001
                6.6917015891127057e-002 -3.8908012371545946e-002
                1.5989893944771971e-002 3.4450847131484450e-003
                4.2692559809820625e-002 -1.0587378983493001e-001
                -9.0216171550714805e-002 -4.9264105749759160e-002
                5.9779544501761490e-002 -5.3035928672573854e-002
                2.5113906111366058e-001 -3.5720199290921704e-002
                -2.3813464483450979e-003 4.9737052615618400e-002
                -3.9611814261198896e-003 -1.2384072100529797e-001
                1.0239797684428908e-002 2.5034580789081239e-002
                -6.5311915517241248e-002 1.9648537908568221e-002
                1.0589542911336164e-001 -1.3798590895951970e-002
                3.3030940867938507e-003 -4.8009123572815032e-002
                2.7206228444380404e-001 -6.6833528755517638e-002
                1.6572850802348715e-001 -3.1827494753661811e-002
                4.3043951138240152e-002 -1.4325337784935650e-002
                3.4912065599864711e-001 8.9128395054130366e-002
                1.8632486290719799e-001 3.1880019896979428e-001
                -2.1426396987011129e-001 -8.0840531505199514e-002
                -5.5225738620530589e-002 2.3943959980618199e-001
                -1.1175838219875073e-001 1.4350246333431499e-001
                -2.3623300024856853e-002 -2.5363905902683091e-002
                -5.7724959812229512e-002 1.6584374678475980e-001
                -8.6518585810115484e-002 -7.5159756728264013e-002
                5.7812442925995701e-003 -8.8536298813878811e-002
                4.6717341485669799e-002 7.6169044718447695e-002
                3.5870251847852680e-001 2.0380428539540230e-001
                -2.4892832376470470e-001 -1.7623540384742654e-002
                3.9512341318990495e-003 -2.3234707826920589e-001
                1.1914387311457628e-001 3.4409747483564557e-001
                -1.5173116020995528e-001 -9.6694007302357984e-002
                -1.9027817846790776e-001 6.8926800172046110e-002
                -4.7035281115523264e-001 -9.5273366119191724e-002
                1.2811761462942239e-001 9.2975652630716235e-002
                -5.2281293776643500e-001 -2.7279289571774383e-002
                -5.3721907625873278e-001 -3.7077384443679896e-002
                5.9258374531687572e-002 5.1937410218022029e-001
                8.6731292876258248e-002 5.5865743390940741e-002
                -1.7832403009688744e+000 4.9763204645065257e-002
                -9.4438824705157104e-002 2.6497609279575486e-002
                -4.9681189075876586e-001 2.7278948109357309e-001
                4.3197500563683336e-002 9.7299387362176290e-002
                3.3518724973649494e-002 -9.7794460302520508e-002
                -7.0488267614740585e-002 7.2566295521227925e-002
                2.8291117305906799e-001 -6.8353377761677103e-002
                5.2318359157160405e-002 5.4706574925417084e-002
                -4.6198726595313022e-001 -2.2276496616990413e-002
                -1.5381626294494827e-001 2.7704625941147831e-001
                8.8652799123970880e-002 -2.8791110951006366e-001
                5.7371596785468423e-002 -9.5918776977129513e-002
                1.6458252692518810e-001 -1.1415805001130196e-001
                4.9794304413504537e-001 -2.9429053592521087e-001
                -7.0731247517982987e-002 7.8143088314927681e-002
                6.4972892581956793e-002 2.0732960222957478e-001
                -7.0617421844136816e-002 -2.6572454320585231e-001
                2.4381293381704616e-001 7.7776301675108600e-002
                1.7097293681850365e-001 1.5033961301893978e-001
                -1.5364004524212480e-001 -1.8346123049903390e-001
                -3.9367779350877742e-002 -3.2000204994273210e-002
                1.5693198034604786e-001 -4.9395344369854127e-002
                5.9621918147478539e-002 -8.0952136226209864e-002
                3.9985684497683011e-001 -9.6540754503095752e-002
                5.3900418890077087e-002 3.7912416362239493e-001
                -1.4393212552597834e-001 -8.9544028302379841e-002
                2.7030385853299654e-001 -4.7578728176171403e-004
                2.7207153389852048e-006 -1.0372514085517218e-001
                -2.0358425645391323e-002 2.4414280292758366e-002
                6.0582723870812524e-002 -3.4006454253272095e-001
                3.5799708029487808e-002 -1.5702624259051640e-001
                -3.4230991269730178e-003 1.0087704316598268e-002
                4.7963167856614586e-001 -6.1064125782419477e-003
                2.6720423616980214e-002 7.1700558748241938e-002
                -2.4081892321264935e-002 -1.2267313909140896e-001
                -6.2112239178209648e-002 -6.4975836310969315e-002
                -3.3827070256974517e-001 2.2281860110180036e-002
                -2.7686452772753004e-002 -1.0338434183191535e-002
                -4.5559834436771161e-002 -2.4032038609916990e-003
                4.7899225928001715e-001 -1.1317647397679777e-001
                9.2789687747303021e-002 -7.7400436727730476e-002
                -2.9333109317865186e-001 -3.4360875225466672e-002
                6.8642774670884243e-001 7.6729858857982253e-002
                2.6670010285216778e-001 1.7792928765963301e-001
                -2.4552830812450990e-001 -1.7820092975594259e-001
                -1.6835578755521272e-001 1.1264887979170779e-001
                -9.2825063129537200e-002 4.2710954545479307e-001
                3.0838636616973962e-004 2.6000044282937281e-002
                -1.4423169279553053e-001 1.3371402486834547e-001
                1.5431178481104324e-001 -1.4265563359178587e-001
                3.9108560158546211e-002 -1.5191787644023499e-001
                6.2096935715906458e-002 5.6269146583620394e-002
                -1.1532008631351691e-001 1.1651936718989674e-001
                -2.3222218155294613e-001 -4.1522005154655765e-003
                1.3534561465369294e-001 -3.1683707365299713e-001
                -8.3811246506241513e-002 4.5818617656997040e-001
                -9.0644182415537400e-002 -1.2636063993227298e-001
                -9.0807340570653095e-002 8.2450132993810044e-002
                -4.4888947744504692e-001 -9.2434493878506663e-002
                2.1451193320180534e-001 2.2853941197349723e-001
                -5.0807716939423475e-001 -3.8528201448629197e-003
                -2.3187241322965396e-001 -2.0993257230145234e-002
                -7.1051830070205491e-002 6.5059683662660484e-001
                5.3923564926108718e-002 4.4734899750822801e-002
                -1.9776764905442881e+000 1.8637746711942044e-001
                -9.6005245673324149e-002 1.3602387051310919e-001
                -2.3847248054546843e-001 2.8410186400836412e-001
                2.2112716514566685e-001 1.5843035610066086e-002
                6.9807301666847080e-002 -1.4192302939665058e-001
                2.9330284020665821e-002 2.6139786434813978e-002
                2.9522799923395604e-001 -8.6026857081751576e-002
                1.7183496331916329e-001 1.4990547483866395e-001
                -6.1495822006969025e-001 -4.0148041735578198e-002
                -1.2161583852102606e-001 1.1848780782563947e-001
                -4.5719003830128483e-003 1.0941306246295399e-001
                9.3314082410233840e-002 -1.2179656630400477e-001
                -7.9301400206933589e-002 -7.4789869455114746e-002
                6.0506749424699535e-001 -3.6851727704208181e-001
                -5.8208494779317853e-002 1.7685961519549684e-001
                2.8810265439060768e-002 2.8193683329673891e-001
                -1.0491780485854942e-001 -2.9840460953573456e-001
                2.1363991456333584e-001 8.7362155892134561e-003
                3.5353150823272689e-001 2.0965530778405797e-001
                -1.1590038419955720e-001 -3.2154667496033704e-003
                -9.4090094553664003e-002 2.3153975810771499e-002
                2.2571706635728433e-001 1.7988652819077289e-002
                5.9539460408835981e-002 -4.0700031594051785e-002
                7.3015480859382392e-002 2.9763499331168541e-001
                5.7913424630731042e-002 9.0796975165305605e-001
                -2.0818361665059845e-001 -7.3259418391416004e-002
                3.4641078219866428e-001 9.3812910938285254e-002
                -2.8183404137332387e-002 -7.9389256288032728e-002
                6.9232201649496186e-002 1.1946876404954274e-002
                5.2836677166919935e-002 -1.4079812494777180e-001
                -2.2486956502862990e-002 -1.1274233930218056e-001
                1.9450831283141738e-002 -2.5007347133607194e-002
                4.0607245498513478e-001 -1.2057464653780096e-002
                -2.8405834251198938e-004 2.1111821150984682e-002
                4.8653933598996307e-002 -1.5596383791057986e-001
                1.6176937472729542e-002 -1.2141301209306295e-001
                -9.5111358988568026e-002 -4.9235177324511915e-002
                -3.4037634724682297e-002 -1.0958701256369778e-001
                -1.4593014619815933e-001 -5.1842183945032337e-002
                5.1604662219345832e-001 -1.0317307369404562e-001
                1.7686632274631889e-001 -1.4995070696136539e-001
                -4.2985558492343690e-001 -1.0518136069115339e-002
                7.0600407966161960e-001 1.2103678994407857e-001
                1.1497385427596607e-001 3.5379045570906759e-001
                -2.1463167153890797e-001 -2.3750380578803934e-001
                -1.2174053763604835e-001 3.5227499368409504e-001
                -1.5873121881390051e-001 4.6088240773228112e-001
                -2.6383344930358488e-002 -7.6787906160285899e-002
                -4.5454582212417237e-002 1.5124647978404995e-001
                2.8884947071075684e-001 -8.6766951329739370e-002
                -3.2105025621833205e-002 -1.4967533294058316e-001
                2.1006187077183561e-002 9.1917189899974050e-002
                4.6486524586356498e-001 1.4419635973579276e-001
                -2.8163917413464201e-001 -3.1892712400610305e-002
                4.6474277780470752e-002 -2.3461653564968221e-001
                -2.3941989996414385e-002 5.1106968346754567e-001
                -1.5465479134979476e-001 -1.5907299004207956e-001
                -8.7770632929250691e-002 4.4065689300603013e-002
                -4.7230384974419720e-001 -1.0988570682724592e-001
                2.1226768400600382e-001 5.0293964371366706e-001
                -4.6143916184491757e-001 1.5049759595028792e-001
                -5.2246990716156216e-001 -2.4936462592931835e-002
                1.2084635818095528e-001 6.4054224537152205e-001
                1.6305403668064839e-002 2.1086494021978994e-001
                3.8738335212940511e-001 4.2357975224545666e-002
                -8.5314958621121109e-002 3.3540526642822487e-003
                -6.8094811480783024e-001 1.4614621619001367e-001
                4.5140945370340961e-002 -8.3525317757480205e-002
                -6.6337715062939090e-002 -8.1723956064608888e-002
