<?xml version="1.0"?>
<opencv_storage>
<my_nn type_id="opencv-ml-ann-mlp">
  <layer_sizes type_id="opencv-matrix">
    <rows>1</rows>
    <cols>2</cols>
    <dt>i</dt>
    <data>
      256 36</data></layer_sizes>
  <activation_function>SIGMOID_SYM</activation_function>
  <f_param1>5.9999999999999998e-001</f_param1>
  <f_param2>1.</f_param2>
  <min_val>-9.4999999999999996e-001</min_val>
  <max_val>9.4999999999999996e-001</max_val>
  <min_val1>-9.7999999999999998e-001</min_val1>
  <max_val1>9.7999999999999998e-001</max_val1>
  <training_params>
    <train_method>BACKPROP</train_method>
    <dw_scale>1.0000000000000001e-001</dw_scale>
    <moment_scale>1.0000000000000001e-001</moment_scale>
    <term_criteria><epsilon>9.9999999747524271e-007</epsilon>
      <iterations>1000</iterations></term_criteria></training_params>
  <input_scale>
    2.0819337550784645e+000 -1.3301243435223522e+000 2. -1.
    2.0030935826687659e+000 -9.4590530292691721e-001
    2.0819337550784645e+000 -1.3301243435223522e+000
    2.1708816809598979e+000 -1.5075567228888178e+000
    2.2326252226057521e+000 -1.6124515496597098e+000
    2.0819337550784645e+000 -1.3301243435223522e+000 2. -1.
    2.0512903762734829e+000 -7.9772403521746560e-001
    2.0512903762734829e+000 -7.9772403521746560e-001 2. -1.
    2.0512903762734829e+000 -1.2535663410560174e+000
    2.1708816809598979e+000 -1.5075567228888178e+000
    2.1708816809598979e+000 -1.5075567228888178e+000
    2.1708816809598979e+000 -1.5075567228888178e+000
    2.0283702113484399e+000 -1.1832159566199234e+000 2. -1.
    2.0283702113484399e+000 -8.4515425472851669e-001
    2.0283702113484399e+000 -8.4515425472851669e-001
    2.0124611797498106e+000 -8.9442719099991574e-001 2. -1.
    2.0030935826687659e+000 -9.4590530292691721e-001
    2.0283702113484399e+000 -8.4515425472851669e-001
    2.0512903762734829e+000 -7.9772403521746560e-001
    2.1213203435596424e+000 -7.0710678118654746e-001
    2.1708816809598979e+000 -6.6332495807107994e-001
    2.1708816809598979e+000 -6.6332495807107994e-001
    2.1213203435596424e+000 -7.0710678118654746e-001
    2.0283702113484399e+000 -8.4515425472851669e-001
    2.0124611797498106e+000 -8.9442719099991574e-001
    2.0283702113484399e+000 -1.1832159566199234e+000
    2.0124611797498106e+000 -1.1180339887498949e+000
    2.0512903762734829e+000 -1.2535663410560174e+000 2. -1.
    2.0283702113484399e+000 -8.4515425472851669e-001
    2.0819337550784649e+000 -7.5180941155611236e-001
    2.0124611797498106e+000 -1.1180339887498949e+000
    2.1708816809598979e+000 -1.5075567228888178e+000
    2.4053511772118195e+000 -1.8708286933869707e+000
    2.4053511772118195e+000 -1.8708286933869707e+000
    2.5267046628369472e+000 -2.0354009783964297e+000
    2.5267046628369472e+000 -2.0354009783964297e+000
    2.2326252226057521e+000 -1.6124515496597098e+000
    2.0512903762734829e+000 -1.2535663410560174e+000
    2.0124611797498106e+000 -8.9442719099991574e-001
    2.0124611797498106e+000 -8.9442719099991574e-001
    2.0030935826687659e+000 -9.4590530292691721e-001
    2.0819337550784645e+000 -1.3301243435223522e+000
    2.0819337550784645e+000 -1.3301243435223522e+000
    2.0030935826687659e+000 -1.0571882797418488e+000
    2.0512903762734829e+000 -7.9772403521746560e-001
    2.0030935826687659e+000 -9.4590530292691721e-001
    2.4053511772118195e+000 -1.8708286933869707e+000
    2.5267046628369472e+000 -2.0354009783964297e+000
    3.6181361349331622e+000 -3.3166247903553985e+000
    3.1819805153394642e+000 -2.8284271247461903e+000
    2.8915895840489969e+000 -2.4899799195977477e+000
    2.8915895840489969e+000 -2.4899799195977477e+000
    3.1819805153394642e+000 -2.8284271247461903e+000
    3.1819805153394642e+000 -2.8284271247461903e+000
    2.1708816809598979e+000 -1.5075567228888178e+000
    2.0124611797498106e+000 -1.1180339887498949e+000
    2.0030935826687659e+000 -9.4590530292691721e-001
    2.0124611797498106e+000 -1.1180339887498949e+000
    2.0512903762734829e+000 -1.2535663410560174e+000 2. -1.
    2.0819337550784649e+000 -7.5180941155611236e-001
    2.0030935826687659e+000 -1.0571882797418488e+000
    2.4053511772118195e+000 -1.8708286933869707e+000
    2.6832815729997481e+000 -2.2360679774997902e+000
    2.6832815729997481e+000 -2.2360679774997902e+000
    3.1819805153394642e+000 -2.8284271247461903e+000
    2.8915895840489969e+000 -2.4899799195977477e+000
    2.6832815729997481e+000 -2.2360679774997902e+000
    3.6181361349331622e+000 -3.3166247903553985e+000
    2.8915895840489969e+000 -2.4899799195977477e+000
    2.5267046628369472e+000 -2.0354009783964297e+000
    2.0819337550784645e+000 -1.3301243435223522e+000
    2.0030935826687659e+000 -9.4590530292691721e-001
    2.0030935826687659e+000 -9.4590530292691721e-001
    2.0283702113484399e+000 -1.1832159566199234e+000
    2.0030935826687659e+000 -9.4590530292691721e-001
    2.0819337550784649e+000 -7.5180941155611236e-001
    2.0283702113484399e+000 -1.1832159566199234e+000
    2.5267046628369472e+000 -2.0354009783964297e+000
    2.6832815729997481e+000 -2.2360679774997902e+000
    2.6832815729997481e+000 -2.2360679774997902e+000
    2.6832815729997481e+000 -2.2360679774997902e+000
    2.8915895840489969e+000 -2.4899799195977477e+000
    2.8915895840489969e+000 -2.4899799195977477e+000
    3.1819805153394642e+000 -2.8284271247461903e+000
    2.6832815729997481e+000 -2.2360679774997902e+000
    2.4053511772118195e+000 -1.8708286933869707e+000
    2.1708816809598979e+000 -1.5075567228888178e+000
    2.0030935826687659e+000 -1.0571882797418488e+000
    2.0124611797498106e+000 -1.1180339887498949e+000
    2.0030935826687659e+000 -1.0571882797418488e+000 2. -1.
    2.0283702113484399e+000 -8.4515425472851669e-001 2. -1.
    2.2326252226057521e+000 -1.6124515496597098e+000
    2.2326252226057521e+000 -1.6124515496597098e+000
    2.3094010767585034e+000 -1.7320508075688776e+000
    2.3094010767585034e+000 -1.7320508075688776e+000
    2.4053511772118195e+000 -1.8708286933869707e+000
    2.5267046628369472e+000 -2.0354009783964297e+000
    2.6832815729997481e+000 -2.2360679774997902e+000
    2.4053511772118195e+000 -1.8708286933869707e+000
    2.1708816809598979e+000 -1.5075567228888178e+000
    2.4053511772118195e+000 -1.8708286933869707e+000
    2.0819337550784645e+000 -1.3301243435223522e+000
    2.0512903762734829e+000 -1.2535663410560174e+000
    2.0030935826687659e+000 -1.0571882797418488e+000
    2.0124611797498106e+000 -8.9442719099991574e-001
    2.0124611797498106e+000 -8.9442719099991574e-001
    2.0124611797498106e+000 -8.9442719099991574e-001
    2.1708816809598979e+000 -1.5075567228888178e+000
    2.1708816809598979e+000 -1.5075567228888178e+000
    2.2326252226057521e+000 -1.6124515496597098e+000
    2.2326252226057521e+000 -1.6124515496597098e+000
    2.2326252226057521e+000 -1.6124515496597098e+000
    2.1708816809598979e+000 -1.5075567228888178e+000
    2.1213203435596424e+000 -1.4142135623730949e+000
    2.1213203435596424e+000 -1.4142135623730949e+000
    2.1213203435596424e+000 -1.4142135623730949e+000
    2.1213203435596424e+000 -1.4142135623730949e+000
    2.1708816809598979e+000 -1.5075567228888178e+000
    2.0512903762734829e+000 -1.2535663410560174e+000 2. -1.
    2.0030935826687659e+000 -9.4590530292691721e-001
    2.0124611797498106e+000 -8.9442719099991574e-001
    2.0030935826687659e+000 -9.4590530292691721e-001
    2.0819337550784645e+000 -1.3301243435223522e+000
    2.1708816809598979e+000 -1.5075567228888178e+000
    2.5267046628369472e+000 -2.0354009783964297e+000
    2.4053511772118195e+000 -1.8708286933869707e+000
    2.1213203435596424e+000 -1.4142135623730949e+000
    2.0819337550784645e+000 -1.3301243435223522e+000
    2.1213203435596424e+000 -1.4142135623730949e+000
    2.1213203435596424e+000 -1.4142135623730949e+000
    2.0512903762734829e+000 -1.2535663410560174e+000
    2.0819337550784645e+000 -1.3301243435223522e+000
    2.1708816809598979e+000 -1.5075567228888178e+000
    2.0512903762734829e+000 -1.2535663410560174e+000 2. -1.
    2.0283702113484399e+000 -8.4515425472851669e-001
    2.0124611797498106e+000 -8.9442719099991574e-001 2. -1.
    2.3094010767585034e+000 -1.7320508075688776e+000
    2.4053511772118195e+000 -1.8708286933869707e+000
    2.2326252226057521e+000 -1.6124515496597098e+000
    2.2326252226057521e+000 -1.6124515496597098e+000
    2.0819337550784645e+000 -1.3301243435223522e+000
    2.0512903762734829e+000 -1.2535663410560174e+000
    2.0283702113484399e+000 -1.1832159566199234e+000
    2.1708816809598979e+000 -1.5075567228888178e+000
    2.0512903762734829e+000 -1.2535663410560174e+000
    2.0819337550784645e+000 -1.3301243435223522e+000
    2.0819337550784645e+000 -1.3301243435223522e+000
    2.0512903762734829e+000 -1.2535663410560174e+000
    2.0030935826687659e+000 -9.4590530292691721e-001
    2.0030935826687659e+000 -9.4590530292691721e-001
    2.0283702113484399e+000 -8.4515425472851669e-001
    2.0512903762734829e+000 -1.2535663410560174e+000
    2.5267046628369472e+000 -2.0354009783964297e+000
    2.4053511772118195e+000 -1.8708286933869707e+000
    2.4053511772118195e+000 -1.8708286933869707e+000
    2.2326252226057521e+000 -1.6124515496597098e+000
    2.1213203435596424e+000 -1.4142135623730949e+000
    2.1213203435596424e+000 -1.4142135623730949e+000
    2.4053511772118195e+000 -1.8708286933869707e+000
    2.3094010767585034e+000 -1.7320508075688776e+000
    2.2326252226057521e+000 -1.6124515496597098e+000
    2.2326252226057521e+000 -1.6124515496597098e+000
    2.0030935826687659e+000 -1.0571882797418488e+000
    2.0030935826687659e+000 -1.0571882797418488e+000
    2.0283702113484399e+000 -1.1832159566199234e+000
    2.0030935826687659e+000 -1.0571882797418488e+000
    2.0030935826687659e+000 -9.4590530292691721e-001
    2.1213203435596424e+000 -1.4142135623730949e+000
    2.6832815729997481e+000 -2.2360679774997902e+000
    2.6832815729997481e+000 -2.2360679774997902e+000
    2.6832815729997481e+000 -2.2360679774997902e+000
    2.4053511772118195e+000 -1.8708286933869707e+000
    2.3094010767585034e+000 -1.7320508075688776e+000
    2.2326252226057521e+000 -1.6124515496597098e+000
    2.4053511772118195e+000 -1.8708286933869707e+000
    2.3094010767585034e+000 -1.7320508075688776e+000
    2.4053511772118195e+000 -1.8708286933869707e+000
    2.4053511772118195e+000 -1.8708286933869707e+000
    2.0030935826687659e+000 -1.0571882797418488e+000 2. -1.
    2.0512903762734829e+000 -1.2535663410560174e+000
    2.0030935826687659e+000 -1.0571882797418488e+000 2. -1.
    2.0283702113484399e+000 -1.1832159566199234e+000
    2.4053511772118195e+000 -1.8708286933869707e+000
    2.6832815729997481e+000 -2.2360679774997902e+000
    2.5267046628369472e+000 -2.0354009783964297e+000
    2.6832815729997481e+000 -2.2360679774997902e+000
    2.5267046628369472e+000 -2.0354009783964297e+000
    2.8915895840489969e+000 -2.4899799195977477e+000
    2.5267046628369472e+000 -2.0354009783964297e+000
    2.2326252226057521e+000 -1.6124515496597098e+000
    2.1708816809598979e+000 -1.5075567228888178e+000
    2.1708816809598979e+000 -1.5075567228888178e+000
    2.0124611797498106e+000 -1.1180339887498949e+000
    2.0030935826687659e+000 -1.0571882797418488e+000
    2.0512903762734829e+000 -1.2535663410560174e+000
    2.0512903762734829e+000 -1.2535663410560174e+000
    2.0030935826687659e+000 -9.4590530292691721e-001 2. -1.
    2.3094010767585034e+000 -1.7320508075688776e+000
    2.5267046628369472e+000 -2.0354009783964297e+000
    2.8915895840489969e+000 -2.4899799195977477e+000
    3.1819805153394642e+000 -2.8284271247461903e+000
    3.1819805153394642e+000 -2.8284271247461903e+000
    3.1819805153394642e+000 -2.8284271247461903e+000
    2.8915895840489969e+000 -2.4899799195977477e+000
    2.5267046628369472e+000 -2.0354009783964297e+000
    2.1708816809598979e+000 -1.5075567228888178e+000
    2.0512903762734829e+000 -1.2535663410560174e+000
    2.0030935826687659e+000 -9.4590530292691721e-001
    2.0124611797498106e+000 -1.1180339887498949e+000
    2.0283702113484399e+000 -1.1832159566199234e+000
    2.0124611797498106e+000 -1.1180339887498949e+000
    2.0124611797498106e+000 -8.9442719099991574e-001
    2.0283702113484399e+000 -8.4515425472851669e-001
    2.0283702113484399e+000 -1.1832159566199234e+000
    2.0283702113484399e+000 -1.1832159566199234e+000
    2.1213203435596424e+000 -1.4142135623730949e+000
    2.6832815729997481e+000 -2.2360679774997902e+000
    2.5267046628369472e+000 -2.0354009783964297e+000
    2.4053511772118195e+000 -1.8708286933869707e+000
    2.3094010767585034e+000 -1.7320508075688776e+000
    2.0512903762734829e+000 -1.2535663410560174e+000
    2.0030935826687659e+000 -9.4590530292691721e-001
    2.0030935826687659e+000 -9.4590530292691721e-001
    2.0030935826687659e+000 -9.4590530292691721e-001
    2.0512903762734829e+000 -1.2535663410560174e+000
    2.0512903762734829e+000 -1.2535663410560174e+000
    2.0124611797498106e+000 -1.1180339887498949e+000
    2.0030935826687659e+000 -1.0571882797418488e+000
    2.0283702113484399e+000 -1.1832159566199234e+000
    2.0283702113484399e+000 -1.1832159566199234e+000 2. -1. 2. -1. 2.
    -1. 2.0030935826687659e+000 -9.4590530292691721e-001
    2.0030935826687659e+000 -9.4590530292691721e-001
    2.0030935826687659e+000 -1.0571882797418488e+000
    2.0030935826687659e+000 -1.0571882797418488e+000
    2.0124611797498106e+000 -1.1180339887498949e+000
    2.1213203435596424e+000 -1.4142135623730949e+000
    2.0819337550784645e+000 -1.3301243435223522e+000
    2.0819337550784645e+000 -1.3301243435223522e+000</input_scale>
  <output_scale>
    227158990. -2.1580103950000000e+008 227158990.
    -2.1580103950000000e+008 227158990. -2.1580103950000000e+008
    227158990. -2.1580103950000000e+008 227158990.
    -2.1580103950000000e+008 227158990. -2.1580103950000000e+008
    227158990. -2.1580103950000000e+008 227158990.
    -2.1580103950000000e+008 227158990. -2.1580103950000000e+008
    227158990. -2.1580103950000000e+008 227158990.
    -2.1580103950000000e+008 227158990. -2.1580103950000000e+008
    227158990. -2.1580103950000000e+008 227158990.
    -2.1580103950000000e+008 227158990. -2.1580103950000000e+008
    227158990. -2.1580103950000000e+008 227158990.
    -2.1580103950000000e+008 227158990. -2.1580103950000000e+008
    227158990. -2.1580103950000000e+008 227158990.
    -2.1580103950000000e+008 227158990. -2.1580103950000000e+008
    227158990. -2.1580103950000000e+008 227158990.
    -2.1580103950000000e+008 227158990. -2.1580103950000000e+008
    227158990. -2.1580103950000000e+008 227158990.
    -2.1580103950000000e+008 227158990. -2.1580103950000000e+008
    227158990. -2.1580103950000000e+008 227158990.
    -2.1580103950000000e+008 227158990. -2.1580103950000000e+008
    227158990. -2.1580103950000000e+008 227158990.
    -2.1580103950000000e+008 227158990. -2.1580103950000000e+008
    227158990. -2.1580103950000000e+008 227158990.
    -2.1580103950000000e+008 227158990. -2.1580103950000000e+008</output_scale>
  <inv_output_scale>
    4.4022030561062097e-009 9.4999999559779691e-001
    4.4022030561062097e-009 9.4999999559779691e-001
    4.4022030561062097e-009 9.4999999559779691e-001
    4.4022030561062097e-009 9.4999999559779691e-001
    4.4022030561062097e-009 9.4999999559779691e-001
    4.4022030561062097e-009 9.4999999559779691e-001
    4.4022030561062097e-009 9.4999999559779691e-001
    4.4022030561062097e-009 9.4999999559779691e-001
    4.4022030561062097e-009 9.4999999559779691e-001
    4.4022030561062097e-009 9.4999999559779691e-001
    4.4022030561062097e-009 9.4999999559779691e-001
    4.4022030561062097e-009 9.4999999559779691e-001
    4.4022030561062097e-009 9.4999999559779691e-001
    4.4022030561062097e-009 9.4999999559779691e-001
    4.4022030561062097e-009 9.4999999559779691e-001
    4.4022030561062097e-009 9.4999999559779691e-001
    4.4022030561062097e-009 9.4999999559779691e-001
    4.4022030561062097e-009 9.4999999559779691e-001
    4.4022030561062097e-009 9.4999999559779691e-001
    4.4022030561062097e-009 9.4999999559779691e-001
    4.4022030561062097e-009 9.4999999559779691e-001
    4.4022030561062097e-009 9.4999999559779691e-001
    4.4022030561062097e-009 9.4999999559779691e-001
    4.4022030561062097e-009 9.4999999559779691e-001
    4.4022030561062097e-009 9.4999999559779691e-001
    4.4022030561062097e-009 9.4999999559779691e-001
    4.4022030561062097e-009 9.4999999559779691e-001
    4.4022030561062097e-009 9.4999999559779691e-001
    4.4022030561062097e-009 9.4999999559779691e-001
    4.4022030561062097e-009 9.4999999559779691e-001
    4.4022030561062097e-009 9.4999999559779691e-001
    4.4022030561062097e-009 9.4999999559779691e-001
    4.4022030561062097e-009 9.4999999559779691e-001
    4.4022030561062097e-009 9.4999999559779691e-001
    4.4022030561062097e-009 9.4999999559779691e-001
    4.4022030561062097e-009 9.4999999559779691e-001</inv_output_scale>
  <weights>
    <_>
      -8.8251737232852079e-001 -3.0084335602759787e-001
      1.3219035550353925e-001 -9.8338702879083539e-001
      -6.3998742699158495e-001 -2.9458923213792937e-001
      1.0642953650911346e+000 3.7771419968621572e-001
      -9.6755570922890688e-001 9.4526210733477567e-001
      -2.4500676994317819e-001 5.2681266932670605e-002
      -6.4444487405986706e-001 4.6249157343963987e-001
      3.5304771944227142e-001 -9.6366985608829536e-001
      1.1886400405112617e-001 -4.6408168167239111e-001
      -6.9139226016884592e-001 4.9664317772281197e-001
      5.6613968807195125e-001 -4.8890951843993635e-001
      -8.1137319704123703e-002 1.0875493327740052e-002
      1.4504766872277633e-001 -1.3710599241770366e-001
      6.5746259376154392e-001 -3.6803579342225640e-001
      8.9191891854151195e-001 -1.3362191657106113e+000
      -2.9799540800958757e-001 5.0462855987922228e-001
      -1.9722492140226430e-001 -8.2637557986527188e-001
      -9.3368497139386253e-001 -1.3391717489355014e-002
      8.7431080850960063e-001 5.1240662194301782e-002
      2.6083127986485342e-002 1.0504127844846922e-003
      5.0096936183526342e-002 -6.7001771382713460e-001
      8.5577058354511604e-001 9.5612729571418198e-001
      7.2237051374917294e-001 7.0731820028757841e-001
      -4.6568765341596302e-001 -8.2342367009890460e-001
      1.2459866699996178e+000 -1.2167461004561448e+000
      6.7679198610397862e-001 -1.3367636039400735e-002
      -4.9443501863602179e-001 -6.2481763684225289e-001
      1.0802119356465942e+000 -5.8188807224636108e-001
      -1.0140813851394064e+000 -6.4679631703052975e-001
      -1.8751376561728827e-001 -3.3970943061240760e-001
      -9.2632211056126612e-001 1.8791363371646835e-001
      6.4218685659219316e-002 -1.4332058379393853e-001
      -5.9030295919701681e-001 3.7279317539592705e-001
      -1.7851102517033671e-001 -9.6089620140619958e-001
      8.2443782226646956e-001 -7.7218396019903185e-002
      4.4999943978226686e-001 5.8503535098048876e-001
      8.4639818068870676e-001 5.7052645011812186e-001
      -2.1545754517111076e-001 -1.3848587064381551e-001
      3.4317706337886272e-001 -5.5735869346442624e-001
      -8.8334609086038263e-001 9.7561104221946959e-001
      4.0483853039329117e-002 6.8479870204304807e-002
      -7.4717907992807897e-001 -5.7408142394346184e-001
      -6.6526951307299104e-002 -9.2131863759771582e-001
      -9.1975901599937304e-001 -4.9926132515796678e-001
      -7.0132174741633191e-001 -1.3475280491621652e-001
      8.0534389692006728e-002 -6.0398543718933972e-001
      -7.7710838861984233e-001 3.0035283071160435e-001
      4.3601445023223984e-001 4.0044049232772511e-001
      -3.2696052092682887e-001 6.2015006927979988e-001
      8.6689584135498043e-001 1.0073800119011427e-001
      2.7606321988541971e-001 1.8598583352589268e-001
      -6.9193399450542381e-001 4.2446745206209413e-001
      -9.3128424264209697e-001 -2.5422357871931062e-001
      2.3782228213293241e-001 -2.7011519296728941e-002
      -4.6596743662719176e-001 -5.0699302026462856e-001
      -2.0180035516346920e-001 1.3777464977104262e-001
      1.1343775977807903e-001 -1.2813456834865857e+000
      -2.1578386359136684e-001 3.6286827292551049e-001
      -6.3288668150474114e-001 -5.6208215796820982e-001
      7.6628166255065866e-001 9.7336961503189579e-001
      6.1887288511618033e-001 5.3831366170008166e-001
      -5.5292391003860131e-001 -5.3478629521858245e-001
      -4.6978755654023235e-001 -4.8027963048318001e-001
      -2.0051810394919745e-001 2.4801511522440756e-001
      -5.1461589780048111e-001 -7.4309010351208982e-001
      3.2856787487798428e-001 -9.4886903924098831e-001
      -7.1891017842429172e-001 -4.4252577063131127e-001
      7.4237274297085654e-001 1.4590985764732459e-001
      9.0811749921663698e-001 3.4600905306604068e-001
      4.9960627753405257e-001 -5.7265637656557416e-003
      5.2162181074742597e-001 -7.9822416961779630e-001
      5.4769580730970624e-001 4.1402102316786615e-001
      5.2124225906438593e-001 5.6145120392662762e-001
      -1.6284463254314532e-001 -1.6140210349879547e-001
      -3.5152936873559626e-001 9.6070695887399277e-002
      7.9816704929486712e-002 -8.0131877963866172e-001
      -4.8878739747981664e-001 3.5716730161124149e-001
      6.0782619236813829e-001 4.3441544001046994e-001
      2.1651330861304069e-001 -3.5550826225231991e-001
      -8.0621584111051137e-002 4.0259103746978181e-001
      6.5028058599233496e-001 -9.7747143978853465e-002
      4.5788616235699664e-001 4.9701223112261335e-002
      1.0086274890656033e+000 9.8061642716043806e-001
      2.9574738334215012e-001 5.0748605540081992e-001
      -1.6450846906647026e-001 -7.4404963245584033e-001
      4.5042440374298975e-001 -4.5395720697953224e-001
      -3.2479549064082214e-001 9.9295706588002866e-002
      -2.0403348401446511e-001 9.7081901125822578e-001
      -2.4524496390480827e-001 9.5458736697982868e-002
      4.9811169695619661e-001 -1.8548262209106953e-001
      9.6114377229090098e-001 5.1514288609806214e-001
      5.6033593196318643e-001 6.7286836616050116e-001
      -7.8465177504463768e-001 7.0615045800099030e-001
      -5.1708794352381282e-001 7.3910760981104606e-002
      3.3249696704394222e-001 -3.9960535063280739e-001
      -4.5635786923173238e-001 -7.6116632745897161e-001
      -1.0298700728495311e-001 4.4941124256282422e-001
      -1.7122400171183447e-001 -5.1984035319897393e-001
      7.6183735688988408e-001 7.0185186955994705e-001
      2.2285912862595161e-001 -9.0670884613575331e-001
      8.3018407857508325e-001 6.8505201185354803e-001
      -4.0129265412125043e-001 -9.6771730906357201e-001
      7.6756783063870304e-001 -4.5227117509990150e-001
      6.9067114423454778e-001 2.6179453613220671e-001
      -6.2444217117486700e-001 8.2182428800236088e-002
      7.0218784872566539e-002 -3.1111581772137166e-002
      8.6932475540178633e-001 -7.8776830455816287e-004
      1.0655842103984208e+000 1.8750172576716989e-001
      2.6946674163831369e-001 6.0163435867340753e-001
      6.8102380504116955e-001 -6.7281913804824856e-001
      5.2052132826176778e-001 -1.8476649884882621e-001
      -1.0315770321836255e-001 -2.2987288211990456e-001
      3.5052307702052449e-001 4.0694280445510683e-001
      -1.6265262233118177e-002 7.9860644973728478e-001
      -5.7132033611080468e-001 4.0364623743823552e-001
      3.7936308646615646e-001 -5.8310639930310737e-001
      -1.8197202638977311e-002 7.9777013902204819e-001
      -5.2836544485393189e-001 4.2763798070371950e-001
      7.1675470935627406e-001 -2.6430432299373480e-001
      -4.2421735293073071e-001 -5.6158979503568118e-001
      7.9347620014764564e-001 -5.1139085326835709e-001
      1.8719352840815293e-001 9.6897697287599754e-002
      -9.8480132382912688e-001 -4.9242649057295385e-001
      5.2982499499220848e-001 1.4109302410920460e-001
      9.4917575440088664e-001 4.7524342055707991e-001
      2.6970873850110788e-001 3.5212864953636158e-001
      4.4644417782858759e-001 5.2487703747870995e-001
      -7.3653942409866946e-001 -6.2273110010636712e-001
      -1.0742614886399171e+000 -6.4046210508666501e-001
      -2.4835390403189961e-001 -5.6554422073533596e-002
      -2.6607075905875682e-001 6.8217919340003508e-001
      6.1898794797798518e-001 -3.9418355194799704e-001
      5.2919037860956697e-001 7.3642835251493177e-001
      7.9953840577944066e-002 -7.3699303380415238e-001
      4.9430159926496617e-002 8.6307215252126701e-001
      5.8157995604214541e-001 -7.1776106321046240e-001
      -8.6450447371309602e-001 -6.4206553949293987e-001
      -4.2647434603331402e-001 9.0503868800917608e-001
      -3.4894293931914400e-001 2.2339898561002849e-001
      -2.2236720859530196e-001 -5.0451700809777689e-001
      2.0333365899310454e-001 2.5714059387629035e-001
      8.3253080528439527e-001 -4.8163957551583625e-001
      4.0902688782229868e-001 5.7891670578847754e-001
      -4.7156020880383476e-001 1.5149280012996288e-001
      -3.7716477732839454e-001 2.1341607057190728e-001
      -3.0261727425207130e-001 1.0713131936900460e+000
      5.2779527409082938e-001 -1.2433208334952214e-001
      8.4939947189254295e-002 1.0030928751100914e+000
      -8.9842596093462279e-001 -7.8639226175897947e-001
      -8.7178831072485141e-001 1.2417114793910106e-001
      8.5759451837674217e-001 6.0340602677917332e-001
      -7.4654324729112154e-001 -6.6188822570475259e-001
      8.3057709710435967e-001 4.4861736729257157e-001
      8.7250961358104040e-001 3.9738480337597876e-001
      8.5069025219812133e-001 -7.2398484608468194e-001
      -1.9975338447227883e-001 -1.0162933464558370e+000
      4.7419588989209316e-001 5.2987442190894063e-001
      6.7846959216420122e-001 4.3405240124249767e-001
      -3.6687435169755189e-001 -3.4380291219157544e-001
      -6.0554821839664708e-001 -7.3705312789442734e-001
      -3.2536465449257834e-001 -2.2354699470344278e-001
      -6.9809203785673610e-002 -5.7869820923473847e-001
      2.1349053400173307e-001 7.6448678195178810e-001
      -5.0913437971748643e-001 1.0152361112916199e-001
      -6.1521707008911664e-001 1.5880384453435056e-001
      -6.2564975909987164e-001 4.7980874408704932e-001
      -4.1904010074965847e-001 -7.4568008708273870e-001
      5.6807050017837302e-001 3.1291511236869046e-001
      -7.3537098486369135e-001 -6.7432311865376304e-001
      -4.4949445746143224e-001 -3.2251854353956394e-001
      -1.8921606763426707e-001 6.1304796478422929e-001
      -4.4617488264966904e-001 1.2298362491728705e+000
      8.5011793223390597e-001 -7.2246747962288943e-002
      -2.2995992176490146e-001 -1.0260248418412404e-001
      2.2886496097435721e-001 7.0656807331270732e-001
      -9.0021047921066732e-001 -6.9382195484905607e-001
      7.7688506051785969e-002 -4.4929074873234681e-001
      -3.1068984390319027e-001 2.8690210362962565e-001
      -1.7426640079143207e-001 -1.1061783752672403e+000
      6.9851729531740320e-002 -4.1775722339895704e-001
      3.1353865713869922e-001 3.4189333409287631e-001
      7.7078513179782715e-001 -4.5466376646836615e-002
      5.0406303454063550e-001 -7.4862124425030444e-002
      -7.4816661012031693e-001 -4.7463426183522966e-001
      4.6182485029508219e-001 4.5446008469934351e-001
      8.4251138313677221e-001 -1.2967433638096215e+000
      3.6396924904587452e-001 7.4256100904872246e-001
      1.0459756050227181e-001 1.3563242056263422e-001
      -5.9801725929227834e-001 -1.4766035757998655e-001
      -4.6567809730366228e-001 -5.7020817003892144e-001
      3.2125388366793411e-001 -8.2193171518251840e-001
      -9.2541505071269226e-001 -1.4734294472429338e-001
      -2.8621902787316728e-001 -2.9300059951406426e-001
      -1.0979201133067786e+000 1.1096383257137968e-001
      5.6479054495694447e-001 1.0513611333270070e+000
      -9.1053644417884202e-002 -2.1912096208075982e-001
      4.8882759437213041e-001 6.4929106570270068e-001
      9.1466119195622220e-001 -3.2740151409327395e-001
      -7.4267181136894111e-001 4.1438584246074162e-001
      -6.5675355539729441e-001 -1.3492136189233794e-001
      4.6174206807283036e-001 -9.2724294528363627e-001
      -6.0299033481474959e-002 -1.2297339574985024e-001
      -4.2680923247977237e-001 5.2910685975970684e-001
      -1.3414247459446255e-001 3.8811368072886626e-001
      -3.1095790406223084e-001 1.9548149244280352e-001
      -2.1196824440032622e-001 4.2158594292308266e-001
      8.5529263850011306e-001 -9.8251922348352350e-001
      -1.1084668268765239e+000 -1.7363922940575410e-001
      -2.8209094950578295e-001 -8.7055742003803671e-001
      8.6051264986628806e-001 -7.1251754938822043e-001
      -6.4713807192431838e-001 5.5656651947021529e-001
      4.2784751212188510e-001 -9.4863244445715278e-001
      5.9319895784365306e-001 -8.5733610696257526e-002
      -4.2519348075421659e-001 -4.5115372053080482e-001
      6.5022098380875515e-001 5.3025988518809264e-001
      1.2725241105025975e+000 -8.4174265220213484e-001
      3.3532670854545760e-001 -8.0443260190469268e-001
      -8.0002996854469544e-001 1.5937254306289084e-001
      -1.0755188916789905e-001 -9.3875645655390061e-001
      -1.0524233395740532e+000 -6.2984465118411359e-001
      -5.5009044422145115e-001 -6.7775358047064382e-001
      4.8166797351072133e-001 4.7314053572933007e-001
      -5.8255778566901828e-001 1.9973582322525285e-001
      3.8165908096963558e-001 -9.1701451310836457e-001
      3.0625796958676510e-001 -3.9862684999249293e-001
      5.8502274928844311e-001 1.8392487205366867e-001
      4.4246484711668366e-001 -1.2968100081873932e+000
      1.0483228511103408e+000 8.9819304339564932e-001
      5.1405739531751593e-001 6.6719764491696543e-001
      -9.0112742347612951e-001 8.1539647226138171e-002
      1.0148594129686614e+000 4.0908459546359033e-001
      7.6468337502329037e-002 3.9418483097683377e-001
      -3.5500611239080138e-001 7.0795993800980295e-001
      -5.9284304156502809e-001 -1.0905374227451325e+000
      2.1792890108823068e-001 -5.1553253054468340e-001
      4.8530860850678315e-001 7.6754467214803968e-001
      5.5692187760569301e-001 -3.6789276548635347e-001
      4.5220981284731487e-001 -7.7489186802902521e-001
      -1.1337523291227151e-001 -4.9507818187778840e-001
      -4.8082175023666374e-001 -8.3456497760635606e-001
      -4.9424758519942869e-001 -7.0581872361822973e-001
      -5.1394474211108010e-001 9.9339788850769517e-001
      -3.5405638244968252e-001 -2.2718075654211894e-001
      -1.1612645122167523e-001 3.9580856871897746e-001
      5.7772401702158596e-002 -2.8594383668443141e-001
      9.4428873901080213e-001 2.8136952348359939e-001
      -9.6916185228853174e-002 6.9211127082834001e-001
      2.4846486694977085e-001 5.1168575591040699e-001
      1.1212420231445575e+000 1.7633758012747869e-001
      7.8648208983253878e-002 3.5989096057248060e-001
      -3.0402911797018117e-001 7.3089122506635384e-001
      -4.6917551064106378e-001 -7.5805573895614167e-002
      -3.1041946285620892e-001 8.8436631069493565e-002
      -9.3700046057665007e-002 -5.3912436549943175e-002
      -4.9427374078012515e-001 -5.1991351957634913e-001
      -1.1661037999221890e-001 3.6730471271127668e-001
      2.9325418659892821e-001 9.2603226634412261e-001
      -8.8708060691502378e-003 9.5634798103023266e-001
      1.9274328495919110e-001 6.5962388788981674e-001
      -2.7803582512168673e-001 6.9458581643078088e-001
      3.9341661982484302e-002 4.2545474648016590e-001
      7.9180059694186666e-001 2.0155383419012718e-001
      -1.3979533789650089e-001 -5.6208411560260896e-001
      2.1549149698854389e-001 -5.3570583917403103e-001
      -1.0050671477893620e+000 -3.6359100110881887e-001
      -1.4557183731441461e-001 -1.1585161832214673e-001
      -3.3891771656537874e-002 2.8429223038305730e-002
      -7.9719351036791519e-001 6.6743948021843325e-001
      1.0701744239987470e+000 -1.8484866272907893e-001
      -1.2142728012568926e+000 9.0766796972691344e-001
      7.7395792012013209e-001 -1.8015547915749754e-002
      -5.2232182623769519e-001 -7.7705861833327428e-001
      4.1737153569994723e-001 -1.1059130681840916e-001
      -4.4953350790351948e-001 4.1962650082288083e-001
      -8.4635869450076906e-001 3.4626868726669530e-001
      8.2576414897775696e-001 6.2081104936315279e-001
      2.6159177141766904e-001 -5.8970319499284762e-001
      1.1518015809852789e-001 -2.0520071082934413e-001
      5.4109201086488701e-001 -2.9870658996078203e-001
      -1.2505181427067663e-001 -1.4723812501509595e-001
      7.3900797946402286e-001 4.1503289374200081e-001
      6.2027362109055229e-001 2.9726855962542620e-001
      1.3894450325733931e-001 -4.8863444831246589e-001
      4.7169057251227231e-001 7.6363959142558613e-001
      5.7646736295001033e-001 -6.1114053538389079e-001
      -3.9110448096095302e-001 -7.0882464330771289e-001
      -1.1231540681553307e+000 2.3963337502438439e-001
      -1.5464579207849499e-001 -6.8840452348745029e-001
      2.6195978200378955e-001 4.5297759996777220e-001
      -7.4564170562484711e-001 6.9475090626021707e-001
      -3.7711871880135295e-001 -1.2410264588250646e+000
      2.2792686143231128e-002 -4.5899379926294798e-001
      -2.3547499413741463e-001 1.9607504975947579e-001
      -6.2955410561242497e-001 6.6187115564564347e-001
      -7.3122636440110550e-002 2.3899313562522412e-001
      -3.9787095018441804e-001 6.3901153260131793e-001
      4.0989362286779052e-001 5.8480112967584541e-001
      -5.8391250936299244e-001 9.4628665894430508e-001
      -9.0783217037314201e-001 -8.7887425449790990e-001
      4.3660020760476448e-001 8.8108087792101730e-001
      -7.0478156895367083e-001 9.1117614334752475e-002
      -1.7215418488269210e-001 -8.0557677724879487e-003
      -1.6314575268880649e-001 4.4734510548209089e-001
      -2.1498433571366551e-001 4.1064360518362396e-002
      -4.8939073445206077e-001 7.6060552028111583e-001
      5.1957134885901757e-001 -6.2151856880187384e-001
      -3.6030102601501462e-001 4.4109674416569300e-001
      -1.2193041917373422e+000 2.7819584601763181e-001
      7.8209412075677429e-002 -8.5261688488067400e-001
      -6.2645528738437950e-001 9.2920430481398952e-001
      -4.4568711539287231e-001 2.3530626411217576e-001
      5.5212131977563927e-001 2.0110806270090381e-001
      8.2452370758510884e-001 -1.1577085701752261e+000
      9.5465471459425633e-001 -4.2263309907056457e-001
      7.2416904977600105e-001 8.9024507590383362e-001
      -4.9577909279899535e-001 1.1721387495684672e+000
      1.3909157358858559e-001 3.8878870410294347e-001
      -3.8718505913465284e-001 -3.0970029134217103e-001
      6.9541120707049320e-001 -3.4838167695628541e-001
      -6.6032294612383191e-001 7.5918882888530526e-001
      -1.3017107482675690e-003 -1.0193404422613286e+000
      -1.2208942071412814e+000 -4.2035970016616842e-001
      -9.0010438176642837e-001 9.9403375992377374e-001
      -4.6240041165787538e-001 5.4605475988149788e-001
      2.0817865846076694e-001 -2.6432296905756975e-001
      -9.4124544428566589e-002 5.3061456650950811e-001
      3.7714813213546400e-001 4.1367995915761518e-001
      4.4230689377830318e-001 -8.3115463798482336e-001
      8.1883575684316612e-001 -1.0730783866652528e-001
      6.7535171945882355e-001 -2.6451618696516455e-001
      7.0920119598951361e-003 3.0159984991015687e-002
      1.2546055259768596e-001 -7.2967061432742175e-001
      -8.1892805959603210e-001 7.9888654416650183e-003
      8.8837979315697035e-001 4.3185806157895551e-001
      -7.5084701231438178e-001 9.4419257327059813e-001
      -9.1347899900929827e-002 5.2880929756318185e-001
      2.1873176721925397e-001 2.4784597251138446e-001
      3.1852725063128678e-001 8.6149360025037924e-001
      2.6897501294258641e-001 -1.3557542559209285e-001
      -2.5064341756522468e-001 3.5609110219747475e-001
      4.8831603621014730e-001 1.2173818658650097e-001
      1.3149354810018718e-001 1.8028070861903646e-002
      -1.0383986988982554e+000 7.0002617379846055e-001
      5.8538112920393748e-001 -1.2259264952566769e+000
      1.7543916170363363e-001 -1.0258279239353261e+000
      -1.9454966146071731e-001 6.7652982471550083e-001
      1.0541887522519215e+000 -1.0758034511813745e+000
      -8.7259978553362116e-001 -9.0931413697909413e-002
      1.7214886807968022e-001 -4.9997609325630371e-001
      -1.0188335280150398e-001 5.4518298930669928e-001
      -6.1212229059205803e-001 9.4559950550266547e-001
      -2.3340405280135099e-001 -7.3995339621659650e-001
      7.7096589030680940e-001 -7.8334566762209001e-001
      1.2533344300335056e-001 -3.8498949099210000e-001
      -4.1345487812202775e-001 2.7301809078617092e-002
      -7.9528761362440442e-002 2.5518232522060946e-001
      2.0285012881660111e-001 2.4390253122706143e-001
      4.3248930170718014e-001 1.5119180264675172e-001
      6.7755545345796309e-001 -8.6332764125401373e-001
      -3.6601029399809554e-001 -8.4153975927695734e-001
      7.9377289285514696e-001 7.6791247642420690e-001
      -9.1079649792525796e-001 5.4927512521372546e-001
      1.8894791480391854e-001 -5.8673704218309433e-002
      3.4406336479333477e-001 -5.6784140660683813e-001
      -7.1902283145084189e-001 4.8877985223607456e-001
      7.9535386855468759e-001 -5.6103403371770422e-001
      2.1025006387968007e-001 -5.3598079696422474e-001
      -3.2125504421937889e-001 4.4232122711767526e-002
      -8.7230000937303664e-001 -1.2639864332499839e-001
      5.8059917700502439e-001 4.5869634920517338e-001
      1.5622925614095176e-001 -5.8941269367211824e-001
      -3.7762776916525431e-001 -3.1901056704656768e-003
      8.1968722214096779e-001 -3.2565066025007403e-002
      5.3689206739178574e-001 1.0707469622469986e-002
      -6.2245384161015005e-001 6.7071059928423479e-002
      1.5984749315788596e-001 5.3118569946646521e-001
      1.1038202610321431e-001 -3.8627917458107985e-001
      -4.6379781988742347e-001 -6.6182043963434756e-001
      4.8437139199187948e-002 -5.5641875589184187e-001
      -5.9481034557767598e-001 -2.9096246778205342e-001
      3.5477181998585683e-001 -5.4002218511347388e-001
      4.5264573849337919e-001 -3.0431439049897927e-002
      6.6412535441892029e-001 6.1893403116932610e-001
      6.6135048380108075e-001 1.1826561406868972e+000
      -6.5158088796755020e-001 -4.4741014240888605e-001
      -4.3165235024873333e-001 6.0720219994260272e-001
      4.8362773641290446e-001 7.0656619294455658e-001
      -4.8761119375266632e-001 -4.5811150574059434e-001
      3.5308838403642778e-001 3.1685285383973288e-001
      6.9581218494371211e-001 -8.3910394044524073e-001
      -5.4558606205624405e-001 9.6292189137716511e-001
      7.7307097727817908e-001 9.0075858996846414e-001
      -6.8758925270655158e-001 6.7379846186931247e-001
      4.7174348442458675e-001 4.2725530714966153e-001
      -5.5086890331427107e-001 5.8358466818937482e-001
      1.1688185442973733e+000 -1.3630684727673159e-001
      8.1661857000363869e-001 4.6309064778944958e-001
      -3.5988952456671580e-002 6.9063096932431678e-001
      -7.3817441557488073e-001 -7.9159456573508113e-001
      3.1634291704296374e-001 1.1418863371183811e-001
      8.6331599607167431e-001 7.3433099691078541e-001
      -4.0550045189812700e-001 8.1853793591782953e-001
      3.2865761236424174e-001 -5.7312189032224757e-002
      1.1660959612122621e+000 -8.3188502169385792e-001
      4.4385211822404602e-001 1.0637503579239846e-001
      9.0312077565890847e-001 -4.1729173178328155e-001
      -8.3505371400053452e-001 -3.2000202571316544e-001
      9.7299586533471627e-001 -8.0061768357337926e-001
      -1.2100420195598489e+000 -4.9590723983281049e-001
      -3.1679414326185945e-001 6.5844370775040284e-001
      3.1347426512169974e-001 4.5613687126419700e-001
      7.2645853272556304e-001 -5.5505416183579537e-001
      9.1748245095255487e-001 7.1512807099440667e-001
      5.0066124804428325e-001 4.3603379062163372e-001
      3.7212764041566343e-001 -3.2673224485106794e-001
      2.0182161790630265e-001 8.4999618238952301e-001
      5.6663606815004368e-002 1.0074877501514526e-001
      2.7395985706645098e-001 8.2040524553352567e-001
      -1.9674904652940067e-002 -9.6814889660078107e-001
      -2.8873400837821123e-001 -3.5835777559253607e-001
      -1.5387753751469752e-001 4.7507111372331373e-001
      -5.8180548490236417e-001 -5.2238639734113890e-001
      2.0443781850431711e-001 1.3801132903149887e-001
      7.2645333783477928e-001 -2.7757316738383325e-001
      -3.7932386474139468e-001 -4.4216964370560047e-001
      9.4418414469215572e-001 6.3404227788733991e-001
      7.0313899644299002e-002 -7.5305236600567849e-001
      -9.2549348195857017e-001 7.7278567539603782e-001
      1.2086127348499758e+000 -6.0510116410631021e-001
      2.5453396657894301e-001 -8.9112546856199149e-001
      -3.4774822494725122e-001 -3.2707576139745509e-001
      -7.2373600896778589e-001 -4.3266086616347704e-001
      8.9626462271204632e-001 -1.2101878871255209e+000
      -6.7925134950373234e-001 7.0080148143009724e-001
      9.0187117548998752e-001 4.1391970517817639e-001
      4.6905664781290463e-001 -1.0966168635516631e+000
      3.2326745702453008e-001 -7.3422830603819073e-002
      -1.0957208199049898e-001 -7.6974999187308413e-001
      -3.4013534734587500e-002 -5.2703522755061571e-001
      1.0013838199548293e+000 -3.8039862196097202e-001
      -6.9881296483855451e-002 -6.6242838585212860e-001
      -6.8992484386406727e-001 -4.4261341232397511e-001
      -1.6050127345444826e-002 9.5538163937946907e-001
      -2.4955311253110302e-001 1.8334890436277673e-001
      2.9550711474281310e-001 -8.3173818967365598e-001
      -8.4601005407355281e-002 5.9000426722516075e-001
      -3.8627286766424690e-001 8.6581547997677344e-001
      -6.0354164525413045e-001 -8.7411746675219504e-001
      -7.1900560642533584e-001 -7.4940430017906468e-001
      1.9606874347977588e-001 1.2712541311504738e-001
      3.2134424338559059e-001 -7.4716009494010016e-001
      3.4496562559131322e-001 -4.2123744580403877e-001
      7.6194532055968212e-001 -1.0126674794821706e+000
      -8.7292584378466909e-001 -2.3283807947969640e-001
      -1.2820580714372429e-001 -1.8858314774879353e-001
      -5.5948195143363944e-001 -1.1295809202117805e-003
      -1.0571052975777833e+000 8.2675071714261783e-001
      1.8275172031322373e-001 -7.2952106446817611e-001
      -4.7554194674199396e-001 6.8082915820607814e-001
      4.4975027674164642e-001 9.6580170785748737e-003
      3.8714748816879624e-001 1.0412524899443316e-001
      6.1046033896735530e-001 -1.0706153507269933e+000
      8.5848671712626889e-001 1.8056842162080577e-001
      -1.0845219020737498e+000 -6.4870448972829331e-001
      -5.1607708824400834e-002 -6.3750690661060194e-001
      -1.1421594133030186e-001 -1.6154771613651064e-001
      -1.2578614533457397e-001 2.1736562256407169e-001
      3.2897505560097401e-001 -3.6243611376973704e-002
      8.7776272150870360e-001 6.8586649629255159e-001
      8.3873088591320211e-001 -3.1142340137836899e-001
      4.6471286614454804e-001 -6.1849412713679186e-001
      -7.8276058010591754e-001 1.4175684684582723e-001
      -1.6778648036946525e-001 5.4682439297055452e-001
      -5.5948081142644035e-001 -8.4128060272021610e-001
      -5.9436455058618273e-003 6.8285513225574430e-003
      1.9103990820116484e-001 3.3447579534288174e-001
      -2.0704086485486002e-002 -1.1259833808857795e+000
      -1.2274399510288811e+000 -1.8146021428491227e-001
      4.7049603815372854e-001 1.3326612454444930e-001
      7.5719324175219738e-001 -1.3175595427051920e-002
      -1.2944593915496556e-002 8.4388347343459080e-001
      -8.3637158091530184e-001 9.3282125113887684e-002
      1.6042429273804953e-001 -1.9726348512152822e-001
      -6.4775426935532909e-001 -1.1565060735888057e-002
      6.7514487092916564e-001 3.4897160887306933e-001
      1.0048595944268337e+000 3.5407879069381830e-002
      6.0040732378923556e-001 -7.0320241606145875e-002
      7.3836666350459701e-001 1.1780510245289282e+000
      -2.8432944548454363e-002 1.9767998501449721e-001
      8.3631410244283810e-001 6.1319416921668390e-001
      -1.3233736456261871e-001 4.1775714982199258e-001
      7.1644637690548896e-001 -3.8350371619391066e-001
      5.4044122562185970e-001 9.9180758297091520e-001
      4.8147928118755495e-001 3.9650829746837457e-001
      1.0281838150868827e+000 -3.5731753238541436e-001
      4.1852279715935005e-002 6.4377366125455548e-001
      -1.0805119930056368e+000 8.7927004652406682e-001
      6.1345239664049522e-001 4.6188624809124107e-001
      -8.7234550036082803e-001 -5.8173686956241893e-002
      -8.5401838308589018e-001 3.9188921666500193e-001
      -4.3436626170294074e-001 8.7768570370695542e-001
      -5.9361895398774434e-001 6.1324251776071648e-001
      -1.8787077863255178e-002 5.5872035165414191e-001
      1.4549044482135520e-001 -7.7895958345796656e-001
      6.6358531046514702e-001 -2.8786482065404750e-001
      -9.5632234374099145e-001 8.4388322022312556e-001
      -1.8553893305811150e-001 -3.8628985952599920e-001
      7.0530236548129754e-001 -2.7326696535990785e-001
      8.0352734007216919e-001 -1.8380715312899967e-001
      -2.8951649727960443e-001 -4.5960741178951370e-001
      1.0472050069367043e+000 1.6394455808213002e-001
      5.9120998951363524e-001 2.6712731756003311e-001
      -7.0109425705962680e-001 7.8380218001006197e-001
      5.9692668987746655e-001 -3.7856036170922869e-002
      5.3366627748046436e-001 5.5594982245286872e-001
      7.5105072517117433e-001 -4.7323871833132397e-001
      -6.1085271425567433e-001 -7.9795038866834633e-001
      1.9057921109274904e-002 -6.3199759723056348e-001
      -1.1141733841382918e-001 9.8332109672283319e-001
      -2.5886581354036331e-001 2.5054239284538819e-002
      -7.5985826065626580e-002 1.3290095499635218e-001
      -1.9279511158170942e-001 1.0800819608419703e+000
      7.9074142169649120e-001 6.6527624396501572e-001
      7.2404874931929475e-001 -4.5802569852627739e-001
      1.0757455023662035e-001 8.9232467487158504e-002
      4.9001596177273765e-001 2.1419669086861423e-001
      -2.8345533321865352e-001 -8.6825425050964411e-001
      2.6548788141547069e-001 -5.3955181860017347e-002
      -1.9408853617767363e-001 -5.5742800009426208e-001
      1.0679227083354674e+000 6.8704524133781975e-001
      4.9772951520464953e-001 5.6959402459914643e-001
      7.5544334346295495e-003 4.1591096904096292e-002
      -3.0212419770867488e-001 -1.7157949050748081e-001
      -7.6952008148937312e-001 -1.4776800501305645e-001
      -2.0899874778291233e-001 8.8616945373889922e-001
      -4.3181373860456385e-001 -4.5769820527429916e-001
      7.8867996135433283e-001 -1.3676587693890169e-001
      -4.8469183253060177e-001 -2.9778069872461171e-001
      8.4435988377174059e-003 -8.1114504747865901e-001
      3.9209678778559848e-001 -4.7365790009766184e-001
      6.5267420364899686e-001 8.2121157967397285e-001
      3.8987389987565640e-001 7.4053667275548218e-001
      3.8076214927533508e-001 -1.1358782041162883e-001
      1.0784531145849205e+000 -9.8254460475901750e-001
      -2.4337434298099819e-001 3.1842939037613531e-002
      -5.0692881265174794e-001 3.8778775633167561e-001
      1.8455903955556552e-001 1.2440599832303820e+000
      -2.3717603361953857e-001 3.0396954921187547e-001
      -1.1025707074644004e+000 -5.6103016375494075e-001
      5.0873649291884016e-001 -1.6827724388879156e-001
      -1.3708759832727946e+000 6.6372400853430391e-001
      -4.9714809293450685e-001 6.7411161843639600e-001
      -4.8649804477476494e-001 5.2307793950010739e-001
      -3.4340145238454911e-001 2.5786174273217549e-001
      -1.1912835227747157e-001 -4.1141420080165858e-001
      3.9699883945806214e-001 4.0528594864293038e-001
      2.8185702937799084e-001 1.0742709789704757e-001
      1.0456316874817138e+000 1.3592205181182071e-001
      -4.7752438509731010e-001 1.9007015833888952e-001
      -1.0319676228059151e-001 4.5364136432345509e-001
      1.4783846161279429e-001 -8.6660294217917133e-001
      8.8586985980443025e-002 2.9653247878840500e-001
      4.1573135341332462e-001 9.5360898518183482e-002
      -4.8317451870376310e-001 -7.6039384065835880e-001
      1.9877592470129848e-001 -6.9321318089660366e-001
      -3.5646898641453645e-001 -4.9710938931017801e-001
      -7.7736569399915845e-001 7.3457280048513729e-001
      1.0525258232316725e-001 -3.1031853684733834e-001
      6.2370729914787337e-001 4.8419675372036980e-001
      -7.6691826339913571e-001 -1.8584586454971583e-001
      -1.2824616235593991e-001 5.7622217029508360e-001
      -7.4052729610275569e-001 -7.0531021609068656e-001
      -3.7688596852676803e-001 -6.5974009217829227e-002
      -5.5974453676893610e-001 -3.0091059154157557e-001
      1.5055923221720141e-001 -7.4046918456167454e-001
      8.7450770198205463e-001 7.5947024648153250e-001
      -2.7740409183781201e-001 -6.9504010554994788e-001
      7.8578254129817859e-001 -3.4931379735503332e-001
      1.2200398620309801e-001 5.9572931029932474e-001
      -8.7968789755734700e-001 1.9486286565924732e-001
      9.6390510477463520e-001 -5.7980696307238144e-001
      4.8807824060995009e-001 8.7577200515125575e-001
      1.6121731701992545e-001 6.2755321952044041e-001
      -3.3672416296150526e-001 -9.5525381420003677e-002
      -2.7405131177413333e-001 7.2380324669044760e-001
      -3.1309948261731729e-001 -8.0166522176547328e-001
      -8.2963401924148839e-001 -1.0193981415429938e+000
      -2.1952629053433856e-001 5.1392941070697695e-001
      -8.6338405462875550e-002 6.5455619657021502e-001
      -5.7102001154237381e-001 4.1122051194969017e-001
      -7.2505794207873764e-001 -1.4097413250656224e-001
      -6.5263608058797572e-003 4.3113516305737391e-002
      -3.4310015020080986e-001 -7.1512618504761560e-001
      -6.2472244678172861e-001 5.0296290486087636e-001
      9.1061207018716595e-001 -7.8386871260546087e-001
      2.9779369785391074e-001 -1.0631388033317248e+000
      -6.2386099050041477e-001 -7.7254385072297949e-001
      7.7105829350118071e-001 9.4014138739525799e-001
      -4.3939504153128045e-001 -8.0486445577527613e-002
      -4.7069352249654245e-001 6.5023246245371313e-001
      5.0071085333509391e-001 -7.1642300783148982e-002
      4.3055431579360065e-001 -9.0588721724572974e-001
      7.2239027589484128e-001 4.6577390643486022e-001
      7.2135902252958528e-001 -2.9117722837739268e-001
      -8.2646713564744645e-001 -1.6967307582682220e-001
      -7.6351969436992656e-002 -9.2310200200884451e-001
      -2.8134048429027070e-001 -2.6000269730601069e-002
      3.6648663811199950e-001 1.1502409360797419e+000
      2.6223194951974849e-001 7.3297961532555234e-001
      5.4746439955576931e-001 -8.7720146009806022e-001
      5.7743622103193126e-001 -2.0812901296948888e-001
      -6.6869754725649933e-001 2.4582019893445864e-001
      5.4997254117103635e-002 -1.9887436503857342e-001
      -5.2207926263186849e-002 3.8044866096469726e-001
      -3.7976688809117209e-003 2.2013776493665943e-001
      7.0606727524409008e-001 -2.0562346739626330e-001
      3.5735908104464487e-001 -7.9448204721374949e-001
      -9.0281640938264740e-001 4.9966402541729349e-001
      5.0397171264126517e-001 -7.1102484312664371e-001
      -1.5539710239763983e-002 5.6507907450426864e-001
      -9.8636635877308998e-001 -7.1583991936388036e-001
      4.2096749532513633e-001 -4.3369013776282345e-001
      1.3880579317786126e-001 4.0481800025824877e-001
      2.6879181665140978e-001 -5.7133324459031232e-001
      9.0693355786854535e-001 3.6272595506779004e-001
      6.8358452993571006e-001 -5.3238956347503874e-001
      -1.3121663218597246e+000 -1.4833332814460892e-003
      -2.7632653376101080e-001 -4.6897345883285446e-001
      -4.7405932884579344e-001 -9.3866934187751563e-002
      6.4352076532110617e-003 -4.5076734057056567e-001
      -3.2288885530002565e-001 -6.9570796124444267e-001
      5.1007010263990937e-001 -4.9844733014351544e-001
      7.0691447039359634e-001 6.4544383015033668e-001
      -4.1288550074681651e-001 -6.6872548440147186e-002
      1.1255489439880220e+000 5.4532781294347832e-001
      5.1118161891459879e-001 2.1354520337812299e-001
      -2.4686117127564530e-001 8.9468805300883854e-003
      -9.3881058083680813e-001 7.2769509044009062e-001
      1.9586301334347956e-002 8.2415254422941109e-001
      -2.0594691404915874e-001 -4.2413174558259814e-001
      5.1051319477472601e-001 -5.6427751895234168e-001
      -7.5513954556336338e-001 -2.4247508456137276e-001
      -8.9421839072281240e-002 -2.7044136728564661e-001
      1.1316261439732296e+000 -9.5482911818516336e-001
      -2.9519153633736628e-001 -1.1447631806543512e+000
      -1.0993423565803628e+000 -4.9887708319255097e-001
      -4.4067378136618332e-002 -4.8472365283278390e-001
      -7.5118965481671507e-001 8.1803423179921320e-001
      -5.7125777560679303e-001 5.8367646771806703e-001
      -9.0741727584704357e-001 -3.8604134165478904e-001
      -7.4966316395669286e-001 -6.1920302653581220e-002
      -2.4545781684860213e-001 3.4824403153941536e-001
      -7.3553671150489941e-001 -6.8150214469649129e-001
      -2.3766842833921895e-001 5.0373443456307387e-001
      6.9059054555720312e-001 -2.0777079338675133e-002
      -9.6773796277593971e-001 -9.0034936667253185e-001
      -7.9891288412139660e-001 -8.3993424019937823e-001
      6.1346836896525192e-001 8.6250979921520998e-001
      -9.6179232326508035e-001 4.8996471381658230e-001
      6.5650183504629323e-001 -9.1132095318776341e-001
      2.6314057981961358e-001 5.4397791401149709e-001
      2.2936393918949827e-001 -8.1932944987044098e-001
      5.4947973118563809e-001 7.4297815667744194e-001
      -3.8069858350643798e-001 -4.7893268220152568e-001
      4.6943499086696233e-001 -1.4271828052513336e-001
      4.5264170681270244e-001 3.4510300147606043e-001
      -4.8200399663499099e-001 4.4265535712367556e-002
      8.9555398519093266e-001 -3.8738052549235402e-001
      4.7380097208742200e-001 -7.8494903345386793e-002
      7.9057158441588971e-001 -5.2349405469856636e-001
      -1.0559117352297755e-001 -4.0293256447230730e-001
      -4.0985263325516730e-001 -4.8024509760909079e-001
      4.4034303625607624e-001 5.4340771551589429e-001
      -6.5491846864061565e-001 3.5473923108214317e-002
      3.1990737424465837e-001 -5.8209921772234596e-001
      2.9831265492854298e-001 5.0250504371175275e-001
      6.7107053708691633e-001 4.0051936344024824e-001
      6.6827283891407174e-001 1.8999621986111115e-001
      -7.1801523270539025e-001 -1.0000705641237402e+000
      -1.3776261951349647e-001 7.2623255843980050e-001
      -2.7179180236214007e-001 -1.0739246519526675e-001
      -2.4086978490532382e-001 -3.1532928741685652e-002
      1.7361924311939067e-001 -3.8950023275673824e-002
      -9.1558007991114421e-001 3.1017492759349197e-001
      -4.3833782355780948e-001 2.0291482730569346e-001
      -8.8304838154609211e-002 8.3446839315016494e-002
      -8.6694427340860603e-001 -8.8929126343618425e-001
      -1.7650175601473644e-001 7.2311569264547704e-001
      -3.4309967886376364e-001 2.1005399488376073e-001
      -7.5044647624604277e-001 -1.2614481173804051e+000
      3.8891524808762240e-001 1.0545722636213863e+000
      -6.1299276387000190e-001 7.1419720331784942e-001
      -2.9128736521212129e-001 2.4843978618171469e-001
      6.0667666695596112e-001 -7.1388882955289534e-001
      2.8409835069054368e-001 -8.5549368980119067e-001
      -4.3739344362864163e-001 1.0855593361657505e+000
      -1.1533125997344063e+000 -2.5312037761617961e-001
      -1.0625785508233601e+000 6.8244315549388002e-001
      1.5349949032252122e-001 -1.1932891153763277e-001
      3.3250986848077084e-002 9.8886680659619863e-001
      -6.0513039397426327e-001 1.6837635506136650e-001
      2.4955828585176101e-001 2.1859479123427616e-001
      -3.8338914606742647e-001 8.9010568110592536e-001
      8.4143040570602595e-002 -4.3667087827481500e-002
      4.6888997398489174e-001 -2.7184715041060331e-001
      6.8184474002079798e-001 -8.7674288924066734e-001
      8.3178109612709183e-001 -2.6629220062248649e-001
      4.3408534382650260e-001 -7.0196676951937642e-001
      7.2725229876542652e-001 4.0782722548620576e-001
      -2.9227844066040332e-001 5.1339659545156568e-001
      -7.0851236628595460e-001 1.8319435103682821e-001
      -1.2630284819655178e+000 -2.7812530605155539e-002
      -8.8111058719143354e-001 5.9066594305500963e-001
      -3.2769185163181164e-001 -6.0907536239101862e-002
      -4.4908213284112264e-001 9.2561679979089040e-001
      3.9311909588471644e-001 -6.8395644529821586e-001
      1.2642926080041625e+000 -1.6524006264333801e-001
      -3.2581393040703110e-001 -1.0004865157294676e+000
      5.2044375348116935e-002 -1.0283548330070995e+000
      -5.6563733137262803e-003 -4.6582653559154236e-001
      -2.0876021772658693e-001 1.2621991230200796e-001
      -8.9291626757370612e-001 -2.6859328096881691e-001
      -1.2635533136325039e-001 4.8223554734468974e-002
      -4.6015986360116923e-001 -1.1650586816561350e+000
      -1.1729018542218127e-001 5.3216221985143497e-001
      2.9314887214688645e-001 -8.0352721505660729e-001
      -3.4915395173702246e-001 1.4188212741536374e-002
      1.5554982825889285e-001 2.8253097867758858e-001
      -1.8106966085880782e-001 7.7363958148754186e-002
      2.8175832623054398e-001 -6.3543099245400581e-001
      -6.4217491759045869e-002 -5.1403730833544281e-001
      -7.8560265517251116e-001 -8.1966817934765801e-001
      3.2455006489416832e-001 -7.4697037173426586e-002
      -6.6122378137405610e-002 9.2458287370532528e-003
      -3.1446907591242629e-001 7.0509456974845608e-001
      -9.8092070281311250e-001 5.9920546167230870e-001
      3.1849069089732918e-001 -4.3166232858664633e-001
      2.9272393659985269e-001 -1.3071416125078679e+000
      8.6720831434316814e-001 -5.5955590173368852e-001
      9.4401271120055619e-001 6.6336755559733243e-002
      1.6278538323083019e-001 9.2039472103193715e-002
      5.5522650766838855e-001 -5.6748902369907794e-001
      -5.6141497649394634e-001 -3.2530556075387507e-001
      3.9895348193781982e-001 7.0026811322766530e-002
      4.5425579047628428e-001 -3.5315057401153943e-001
      7.6556372262656713e-001 -4.7023864989156733e-001
      7.7458057713652007e-001 -3.9976001182245890e-001
      8.9271065503910604e-002 -3.0182226382554261e-001
      -4.7887499275973028e-001 1.0076110541354812e-001
      2.2746540525650183e-001 -5.8555472527197006e-001
      -1.0062686817077358e+000 -5.2541512898971399e-001
      7.2964822317095201e-001 9.2880540426634461e-001
      8.4437163859543585e-001 1.5367690888803859e-001
      3.6214429063329440e-001 -2.5730887473220326e-001
      -8.4929028971731180e-001 -9.1937698397064616e-001
      5.2696312215688879e-001 6.0660709821195813e-001
      8.5376929434181914e-001 2.6919599194929056e-001
      -2.1918200040349126e-001 7.7191619439685510e-001
      -3.8451542501613128e-001 1.8939564132336820e-001
      -9.6625406772691564e-003 1.5046024383001509e-002
      4.7050981639901740e-001 -8.9614964890107296e-001
      -1.0734478028972703e+000 1.7146215139347787e-001
      -1.0579615069052048e-001 6.8618622339548674e-001
      3.6078888520879915e-001 -3.4125870755865190e-001
      -4.5856914913505498e-001 -2.6462340545481428e-001
      -1.4440547462335578e+000 4.0034583059154100e-001
      -8.6088407820636115e-001 -1.2365947729803086e+000
      2.4736114159932576e-001 -5.0239351505801433e-001
      8.2726609114045357e-001 -4.3343600606367194e-001
      4.6136506875940214e-001 -5.3914211240694110e-001
      1.2606441789073981e+000 5.1534224501682302e-001
      3.6653189341840481e-001 1.2414091963187648e+000
      4.0844768514901675e-001 -6.8919775270241679e-001
      1.2521393296484717e-001 -4.3647455498054483e-001
      -5.7605995526211240e-001 -4.9256738974688220e-002
      -5.4046129486393035e-001 -3.9873490049963750e-001
      -5.0978318212133089e-001 6.3361158835628117e-001
      -5.7037760412044614e-001 -6.3469587993807319e-001
      -8.6532989614420175e-001 -2.8150309262768070e-001
      1.0120461713343953e-001 9.5197183429805510e-001
      1.3952136300753382e+000 6.2307365695100714e-001
      2.1819598136465480e-002 6.6703134748084070e-001
      6.6057364476057523e-001 -5.4291397199251334e-001
      -2.9623609281151270e-001 -2.9396338064292032e-001
      2.4316476951789720e-001 4.0364161790811946e-002
      6.5493589725514856e-001 -3.1606098804696159e-001
      -7.9253007940641129e-001 6.0633965191641226e-001
      -3.8590618409419586e-001 5.5158442228713722e-001
      6.5258527571802660e-001 -3.3391016054122341e-002
      -4.0744205489845020e-001 2.3189298226519969e-001
      -6.6045291052248922e-001 -2.7725155476949209e-001
      -2.7257228181783510e-001 -4.9202607382031105e-001
      -1.0098085998300577e+000 -5.2703054499091806e-001
      -4.5010680075661630e-001 1.0648210151477757e+000
      -4.2883273981252684e-001 -1.7516045669430200e-001
      -6.6960583898115308e-002 -7.7334024358498688e-001
      -3.9962405269071377e-001 -8.3839320957720942e-001
      -3.5073600959021456e-001 -3.7204199272806593e-001
      -4.5605401736994861e-001 -5.3001602190127961e-001
      -2.9210253121747215e-001 1.0203822887939662e+000
      2.1944790354106275e-001 6.3884796274174904e-001
      -4.4147877598868440e-001 -6.4327425503140512e-001
      5.8141279692340696e-002 7.0545617856939014e-001
      -1.0902044008801974e+000 -3.9707725559696244e-001
      -6.3194410392863709e-001 -6.2685058873488186e-001
      3.2782884828213676e-002 -1.1129196948717222e+000
      -1.1271165162620522e+000 -7.1275715693685393e-001
      7.0179571938721297e-001 -2.3966543269601726e-001
      -2.4640497972971892e-001 4.0555066688423569e-001
      7.2780273279028551e-001 3.3470002218253719e-001
      -4.5473272883274823e-001 6.0384915915266912e-001
      8.9699231107088195e-001 1.1853127067381963e+000
      6.0856718166611234e-001 4.3492387015640316e-001
      1.1116907883946400e-001 -4.5916040725672280e-001
      5.1472096211658436e-001 3.1882402472811289e-001
      7.5258895880328058e-001 -4.8296204813861127e-001
      8.4543042087695897e-001 -5.6769314368948032e-001
      9.3350387909535415e-001 4.2513327736030709e-001
      6.4436814822079391e-001 3.9239448894644768e-001
      2.6848428382976047e-001 -9.9577451650641313e-001
      -6.7812394904558282e-001 -5.0429102065977539e-002
      -8.5637496032916011e-002 7.2120725484810644e-001
      2.7828863513562108e-001 -3.7942168021066064e-001
      -6.4016551431537527e-001 2.0194136618923966e-001
      9.5149936036899874e-001 -3.8897284451627806e-001
      3.0568036693813949e-001 8.0890882482117954e-001
      8.4280755977381328e-001 7.9315282435140089e-001
      -9.1754009042497064e-001 1.1133890382756413e+000
      7.9511357545750605e-001 8.9973154477276429e-001
      -5.8337504147600784e-002 6.0270628061671694e-001
      2.7339505513270262e-001 4.6490833958742261e-001
      4.2857068421828196e-002 1.1453749076091178e+000
      1.2413874627148172e-001 2.0883740722131949e-001
      1.5568126225761772e-001 -3.5138571759925358e-001
      4.7553172838512398e-001 -8.2672342088147865e-001
      -4.5849995093315904e-001 -4.6664855698952357e-001
      -5.4188869013751895e-001 -7.1609478252429770e-001
      7.3146016680314929e-001 -7.6036837853093220e-001
      -6.8898031454196662e-001 -1.9291218281649331e-001
      5.3245616499844473e-001 -3.8490703383921182e-001
      6.1405568490673669e-002 2.6974711154061143e-001
      -5.0706106042027888e-001 -6.7458398057508639e-001
      5.5538918426092732e-001 -3.5146772835341217e-001
      8.0459678429185844e-001 5.1192358482282374e-001
      1.1517738965694313e+000 -6.5102084112113504e-002
      8.5460894617458227e-001 -9.3002103525201829e-002
      9.2307230299114718e-001 3.6214281148001176e-001
      1.6572315863217613e-001 4.0792086114634390e-001
      4.1571490140714928e-001 -7.6623253020888937e-001
      6.7427765088311753e-001 -1.0812985718587037e-001
      6.6494005390148561e-002 -3.1740996342715055e-001
      -8.6601720460574438e-001 2.1461521422552088e-001
      3.5193826931992928e-001 -4.5569783795993907e-001
      5.2968345772173953e-001 -5.4861470042420502e-001
      3.1221060824293084e-002 -2.9341192058868942e-001
      9.3154943967893311e-001 -4.8098742139591483e-001
      5.6515261897860269e-001 4.7888170092104676e-001
      2.8164673901199844e-001 -6.8657290352940215e-001
      -2.3291602544744708e-001 -8.9858474485461060e-001
      -3.1756269724717190e-001 -7.7932090919289942e-001
      8.8524248528691518e-001 7.8967406709473897e-001
      2.5327765533089741e-001 -8.7950705681513891e-002
      -1.0125031978712653e+000 -8.0228505573671005e-002
      2.4016601914436056e-001 -1.0371285099537284e+000
      1.3976147183674159e-002 -6.1259767295083568e-002
      2.6478688325295480e-001 1.5191630703648509e-001
      1.0543520345702324e+000 -3.4592443749722313e-001
      4.7454608613251112e-002 6.3827747501304966e-001
      2.4674725946234061e-001 4.1982820178194835e-001
      -8.6548070095001733e-002 6.3934704457515434e-001
      1.2395666596636599e+000 -4.4069506764020983e-001
      7.2231743272335600e-002 7.2050391941287084e-001
      -5.5121882806484712e-001 6.1904371830969684e-001
      6.6244087830739581e-002 2.2305872385051587e-001
      -3.4549099730621580e-001 4.2198061036591011e-001
      -6.9060888150371269e-001 7.1490344295700681e-001
      -5.4045721861999456e-002 -3.1404495689703710e-001
      6.0296706062551486e-001 -9.4377926117192390e-001
      2.7706346041859675e-002 5.9520252610374436e-001
      -8.9185701245566751e-001 4.2208207859554164e-001
      5.6712193638260788e-001 7.0257039758198381e-001
      -6.0597760958667635e-001 -8.3729822755491035e-001
      1.2897460623224047e-002 7.4724511397548399e-001
      -9.3584307415330983e-002 -2.8874900807734044e-001
      -1.2518711481798903e-001 -3.4380232481667305e-001
      -5.6169583404908040e-003 7.5441892349337111e-002
      -5.2153308104005247e-001 -6.7973426499111655e-001
      -2.8420242435276460e-001 6.8139046966220751e-001
      1.1719179749272888e+000 -8.8650049520699448e-001
      1.2886317386508286e-001 2.8604475584398975e-001
      1.3933656445496911e-001 1.3134838048865857e-001
      1.0354973419484907e+000 9.7715399103858580e-001
      -3.1959257965865379e-001 6.5114765045357892e-001
      4.7716688821343084e-001 7.3757914940315494e-001
      -7.1551774992377537e-001 3.7216444359483997e-001
      4.1560954898052410e-001 -8.8987738515190840e-001
      5.5148604275223900e-001 -4.8432614643844846e-001
      -1.0722052725335773e+000 -4.8639265037671486e-001
      -5.4085813875263200e-001 -4.6734526574046109e-001
      3.5748516003235004e-001 1.0958893434857424e+000
      -3.2352465097919741e-001 -9.0330245445485413e-001
      -4.6533067019439439e-001 3.9947895971073022e-001
      7.6635156983421204e-001 2.1807976802005632e-001
      4.6836245483090649e-001 3.0110901363384453e-002
      6.9889920628001520e-002 -1.0061358116163683e+000
      -6.0350617942201523e-001 -5.1202526459202924e-001
      -3.0617085584516762e-001 1.0276447804047628e+000
      1.9838319607829297e-001 4.9647916555971944e-001
      2.9872984180634798e-001 -5.9822199293098677e-001
      8.4933347388590363e-001 1.2026710758548900e-001
      8.4605577883247060e-002 7.4001769734901068e-001
      1.2362783942747117e-001 1.8447501635109209e-001
      8.7213441528520441e-001 -8.1688431469637812e-001
      5.6528426849282110e-001 -5.4581069776507307e-001
      -7.3159901678480432e-001 6.9784909626050384e-001
      -5.6233394859405772e-001 -7.4355238783178712e-001
      -3.3061200284965681e-001 7.3828871032443499e-001
      2.4940769909398372e-001 -1.3938721505400220e-001
      -9.3807458102218200e-001 1.5234400815677859e-001
      -6.8633827612653797e-001 -8.0633598212953617e-001
      9.7805019297428630e-001 3.9043099804799736e-001
      1.7620949229199287e-001 8.0689566905520060e-001
      1.1229145661165210e+000 -6.6935578445698918e-001
      -6.7883537215592982e-001 -7.1483138761991660e-001
      1.7833734296352344e-001 3.9453763013843191e-001
      -7.5382091503811199e-001 -8.7285694203737510e-002
      -3.6040736479839625e-001 -6.9278504182294931e-001
      4.8783495154236345e-001 6.0524372340108312e-001
      4.1139458179259869e-001 1.1574485298321527e-001
      -7.4350631111802945e-001 -4.0662964728141676e-001
      -4.8588902305342052e-001 6.9918299653635130e-001
      -7.0316448704595624e-001 -5.9219253679025474e-001
      -2.9323714529829337e-001 -7.2864797200007925e-001
      3.7272716551915946e-001 -1.4737587074641831e-001
      -8.2324123283479878e-001 -1.0293256680047991e+000
      2.1896594578265380e-001 -7.4926684259723120e-001
      -6.6511652653766506e-001 4.3278512474519526e-001
      -2.5279926435006850e-001 -9.4170464608315685e-001
      5.6339942598090464e-001 -8.5047238230695732e-001
      -6.3379168466871261e-001 3.1783488334349613e-001
      -1.5610829865769063e-001 2.5030831498676731e-001
      3.6927616948120140e-001 -6.6806810008463302e-001
      5.7683897341887509e-002 -1.9824388687260050e-001
      -4.4910792871831101e-001 -7.0232470563607163e-001
      -7.6878356860630637e-001 -1.6923072643740353e-001
      -7.4336767484260990e-001 2.4717328069412442e-001
      3.2463301792746607e-001 1.5559155066742653e-001
      3.2073396907904017e-001 -5.6466949106977882e-001
      1.5432059506922849e-001 3.7331589393688702e-001
      -5.5069194174043468e-001 -9.2110017600614735e-001
      -2.8238589514861634e-001 -3.9916682753315025e-001
      7.8457280320817790e-001 4.9933146094419911e-001
      -1.4857172783848399e-001 7.1663314745172879e-001
      -1.6502568332332008e+000 1.9217140417300060e-001
      -1.1258759762795472e+000 1.0355079854694336e+000
      2.4715542197987144e-002 -6.5019328059713144e-001
      7.0182283984299332e-001 1.0960113679656365e+000
      6.4196455627061433e-001 -6.7593774135835538e-001
      4.6151385957997443e-001 -4.1306654939999710e-001
      -4.3486958727829206e-001 -1.1491359568098818e+000
      -3.6111684415814893e-001 1.3144801246992175e+000
      -9.2836368115957735e-001 4.4962274013946524e-001
      3.0818464123382705e-001 -7.2279753501717303e-001
      5.9187741843682840e-001 3.2604983848179037e-001
      -3.2849967325012097e-001 4.8020970229444648e-001
      -3.1070409639757468e-001 4.9734890960461930e-001
      -7.1374520616021231e-001 5.0250083012402476e-002
      -3.4372159623119858e-001 -3.0231992021594073e-001
      -6.0888867360920362e-001 -5.4607164968471811e-001
      -5.9564767917490336e-001 5.5591692584942554e-001
      -8.6169786966473472e-001 -5.4908167656023776e-001
      1.8122687927778522e-001 -1.3985964810780165e+000
      6.6070337813348012e-001 -2.4460534823442428e-002
      3.4006989806989996e-001 5.9446918971154827e-001
      1.2781315038184753e+000 -1.7126323917838365e-001
      -6.8674769058863616e-001 8.5091208286768971e-002
      -9.0485821467809846e-001 1.4713926869522190e-001
      9.0695400779194857e-001 -2.2984510868632760e-001
      -1.0574902581182991e-001 2.9687609452583075e-001
      -3.7441906285055712e-002 4.9425255286814856e-001
      7.4200287825642786e-001 -1.1465684069058721e-001
      -7.9015062115653911e-001 6.9648896707596730e-001
      8.8086543504744330e-001 2.5088452896308483e-001
      7.3908899069193434e-001 2.3881081486901851e-001
      -4.7027642802105540e-001 -8.0976238263483258e-001
      -2.4003996699738767e-001 -1.4641981310115088e-001
      1.0604549051003405e+000 -5.5454604843005917e-001
      5.2121614753526491e-001 -1.0441875149147137e+000
      1.2893001526843481e-001 -5.3845073721269410e-001
      -2.2708918936401801e-001 3.2811228757141597e-001
      8.2681153172351651e-001 6.1786685458661827e-001
      -6.0535363825746458e-001 5.9069793328144893e-001
      2.3947707991769160e-001 -5.2759217850366857e-001
      1.9957025796712979e-001 1.0287722351611152e-001
      -4.9513571742326767e-001 -3.9660008484401585e-002
      -1.2749693304703569e-001 -2.6958068616467923e-001
      -1.6029510037409905e-001 -3.2138105838044434e-001
      -1.0936726226336406e-001 8.8088053072345562e-001
      7.2380965274631370e-001 5.3810357442105983e-001
      -1.1666675361451333e+000 -5.7981041005305500e-001
      -6.9313979268763704e-001 -1.1346248922044140e+000
      4.1330580106756959e-001 -2.9851569182552101e-001
      1.7369877915220250e-001 9.1434489588038537e-001
      3.2237821348275436e-002 -7.7620001510228784e-002
      -2.7440363762624675e-001 5.4717590772885505e-001
      -3.4466421776799799e-001 -1.1032221458521825e+000
      3.3094500101021151e-001 5.6845102447864793e-001
      -4.8509451507620066e-001 7.0245406332344729e-001
      5.2500334618281919e-001 -1.1052029034839652e+000
      8.1617794461622606e-001 7.9187458088767967e-002
      -1.0570610585631905e+000 3.8653819800886202e-001
      3.8627077165103757e-001 -2.2595427198798532e-001
      3.8933907397460554e-001 5.0576627853164031e-002
      -6.2003226319802485e-001 1.9230236365829145e-001
      3.7149753908657085e-001 -6.0009782675019752e-001
      3.7880469947796036e-002 -8.3449046956583317e-001
      -2.6737808505025845e-001 2.0617842199440026e-001
      5.6751432891569276e-001 -6.2831044690272675e-001
      9.0381550847396497e-001 -3.1919529368475330e-001
      1.0337720995019073e+000 -8.0911411083864249e-001
      -1.0751365384840113e+000 -2.6768222610142883e-001
      6.4524103063944171e-001 -5.5794706932608062e-001
      -2.1863161346049656e-001 5.2578828705508396e-001
      -1.4043918158039455e+000 -8.2111493405194025e-001
      8.3057119569032334e-001 -9.8477071994025511e-001
      9.4233178469585821e-001 3.7752354987813824e-001
      -6.7052047145275728e-001 -9.9077784025983628e-001
      -2.5201859738177967e-001 -1.3883145193849364e-001
      -8.4757046013408543e-001 3.5411198470146232e-001
      2.1481272503818816e-001 7.5063427957376538e-001
      -2.9056510005915737e-001 3.3600585641458336e-001
      9.9638162160817689e-001 3.3317181581770405e-001
      -7.0891569078892214e-001 7.0744612911031526e-002
      -2.3952564530924417e-001 -7.0509877036263291e-001
      -1.6483209624589940e-001 -1.1595608464194078e+000
      -4.8581805337000072e-001 -1.0693354622459603e+000
      7.8356003668708940e-001 -5.8782503864822577e-001
      5.7909081534495466e-001 -6.3881580311070177e-002
      -8.3917706631391387e-001 -2.8160883561895661e-001
      -8.3862612469377110e-002 -6.1302539832870195e-001
      9.4969073785452396e-001 5.5094927489995360e-001
      -4.0434352716541533e-001 3.9298873481535274e-001
      8.3098178656624888e-001 2.2987570802494040e-001
      1.0104262906480352e+000 2.3096194508896029e-001
      9.4567069108907065e-001 8.0892524473254268e-001
      -1.1248448529066567e-001 -2.6755976917474045e-001
      -8.4764268457797864e-001 -8.2383706842061921e-001
      3.9081567416686676e-002 6.6836362316846887e-001
      9.7540555839265386e-001 -9.4336744757685864e-001
      -4.4085047030830077e-001 -1.4490511457503280e-001
      8.8652940792764634e-001 1.5159821247886568e-001
      -6.1222361558831095e-001 9.8132338565036747e-001
      1.2125674069249537e+000 3.9861910616293122e-001
      -1.7114560276355861e-001 4.5207845313990649e-002
      -1.0867236330086725e+000 4.2105299639171417e-001
      3.1212519170509667e-001 3.6436758242210515e-002
      -4.9660778359220875e-001 5.1123380656782930e-002
      4.4672723669458086e-001 1.9548287248694987e-001
      -1.2211434394381201e-001 2.2555884595334397e-001
      7.8736094474722695e-001 -1.1337289582398342e+000
      4.2679899577441355e-001 -9.1223367109459053e-001
      4.3997670092712021e-001 -5.0318410263920388e-001
      -2.1737620696162280e-002 -1.7476351108165825e-002
      2.5388838925730206e-001 6.6775978830862526e-001
      -1.2314960967823312e+000 -7.8197776481434289e-001
      1.2220701684453826e-001 6.1469667835956965e-001
      1.1163399365477815e+000 8.4762440826852747e-001
      6.2667391404383477e-001 -4.8753918749743225e-001
      2.0769348545901362e-001 -6.4507016579035581e-001
      -8.7515914874686229e-001 -6.3104579066874955e-001
      -4.0963092162398329e-001 -1.1213181840891528e-001
      -2.2245049082180560e-001 -1.5215400916393058e+000
      -2.7005252106579652e-001 -7.2816673656602571e-001
      -8.6881499224805836e-001 1.0017173053973596e+000
      7.0596647126202494e-001 6.0050409964535867e-001
      -7.6780046482034525e-001 -8.8165673870910810e-001
      8.2143736982532800e-001 -3.3534681497050295e-001
      -3.9871254323047500e-001 2.9864367510151080e-001
      7.2719793389986531e-001 -1.2826974632083543e-001
      -6.6194157092483275e-002 8.2909284682576123e-001
      -8.2850548524086565e-001 -3.2920752414296056e-001
      8.4840279993479606e-001 -1.0100190995413767e-002
      1.1718466081299873e-001 2.3467276641372223e-001
      1.3908438567783207e-001 -4.0670932310452552e-002
      -3.0755622931932197e-001 -6.2723074918962118e-001
      6.6523446969709676e-001 3.9190683517332325e-001
      -8.7874304177958606e-001 -3.1713953300910025e-001
      7.8800680994759920e-001 5.8757268744591105e-002
      3.4270137723715510e-001 -1.0579400495293463e+000
      -8.3965349639480047e-002 1.6751871324762257e-001
      -8.7910538089101056e-002 -1.3199664792170362e-001
      -1.0070971802399964e+000 -8.5231038879359144e-001
      2.3763526398121509e-001 -6.7394479741101443e-001
      1.1798548990056972e+000 -5.9193827909631658e-001
      1.2093155821707821e-001 -7.1317228138268962e-001
      4.9874195625225015e-001 -4.3999067969289946e-001
      -1.7149295525784561e-001 -2.8334755614424117e-001
      2.1642786838088776e-001 -3.4625359477102602e-001
      -9.2109401169047622e-001 -4.8549736607086219e-001
      2.4396266450867579e-001 -4.6560758883985071e-001
      -8.9064747696952537e-002 -5.7968108261432272e-001
      3.8372883113351991e-002 -7.4700985704229028e-001
      -7.1501064230171871e-002 7.2641723806377712e-001
      5.1327516740791757e-001 5.8486578275911839e-002
      -1.3069267526542200e-001 5.1353087947426393e-002
      -1.4045073433072769e-002 -4.2515778045918529e-001
      -5.1250490380280574e-002 8.5603382168297304e-001
      6.9033362237891005e-001 -4.3267061578622690e-001
      -2.7461002332711243e-001 5.3338621598734559e-001
      -1.9384321963750389e-001 1.8499273555765297e-001
      -8.2283105947617952e-001 2.5349990613734630e-001
      -5.9917626304334604e-001 -6.9851747355069993e-001
      -8.8204887827930445e-001 4.3015035748186198e-001
      -2.7643194846752104e-003 3.5711871158686243e-001
      5.2327847229766467e-001 -3.2259607321927863e-001
      -9.4983199718662747e-001 5.3616916350893928e-001
      -2.2386946272984787e-001 3.1953328923426921e-001
      -4.7131507181072074e-001 -7.2773504299731051e-001
      2.2322726599869430e-001 1.0536950765453259e+000
      8.6570159661729940e-001 -4.3134870710389661e-001
      -9.9746963591586268e-001 7.3479828601346420e-001
      6.8817718162695785e-001 -4.1864125704953631e-001
      6.3477077567791851e-001 8.7331196289789070e-001
      4.0682639328237635e-003 -4.1136563667764797e-001
      9.2693812316723620e-002 2.6140941034592391e-001
      5.2037627626633798e-001 3.6352491326450553e-001
      4.5749281737434982e-001 -6.0033371842932426e-001
      -3.9604454990679655e-001 9.9388150349721605e-001
      -9.7864162016229314e-002 5.4999415357433290e-001
      5.6997546840838376e-001 -8.1343675743685218e-001
      6.9945319775440018e-001 4.0387493833142968e-001
      -1.5999349975693997e-002 6.1679194284915284e-001
      4.6945164488348616e-002 -8.0669402792821776e-001
      1.4802200059794188e-001 -6.8952772870019452e-001
      5.1116783438653834e-001 -8.5229579754323503e-001
      1.7021683980314720e-001 -8.8390577893468503e-001
      -6.4655048536053294e-001 7.0460036944833204e-001
      7.3123092925183408e-001 -7.6476914860404410e-001
      -5.5760788287800556e-001 -3.5256375557568262e-002
      -6.6914110407252358e-001 7.0419595032915849e-001
      -1.5818842580061185e-001 -5.1320635213069132e-001
      4.3828636217528694e-001 4.6158056062918096e-001
      7.5543352743681536e-001 -3.4264939972855224e-001
      4.1943825513504375e-002 4.0201089064672224e-001
      8.1542580905922743e-003 -3.5726796397969840e-001
      5.1400804258799293e-001 -6.5072248005050992e-001
      -8.1398225925094769e-001 -1.0023003599143012e+000
      -2.0573617640042971e-001 4.7085832444852782e-001
      5.4287080280527666e-001 -7.3555088068694308e-001
      -4.7446743725417662e-001 -2.8337709626008067e-001
      6.6015980358279003e-001 -8.6059577705714230e-001
      2.4552769055847834e-001 -8.3995337880333643e-001
      3.7161916459746069e-001 2.0105299770696694e-001
      8.4862389193589918e-002 4.8630212523980998e-001
      -2.1391446669058847e-001 7.1687174796828357e-001
      -5.2379251019422257e-001 -3.8793229575590527e-001
      -3.3050398847694340e-001 -4.6571092827619565e-001
      -1.2672082164683837e-001 1.9703806834808806e-002
      -3.2617262443246681e-001 -1.1344018323339735e+000
      -6.8613690422250673e-001 1.4460703257858723e-001
      3.8672783816800782e-001 -4.9296122842286244e-001
      4.3045192317895505e-002 7.6536253203644655e-001
      -2.5477602135246685e-001 -5.0774890933299899e-001
      4.1401786312078553e-001 -9.1826399014049231e-001
      4.3205965204195423e-001 -8.8429809266244797e-001
      -8.4713196374008792e-001 -6.9060718549375832e-001
      -5.7371820355898240e-001 9.4834567340265508e-001
      -5.9640986596060686e-001 7.5949047021699093e-002
      -5.6314562357373443e-001 2.2850836970229019e-001
      2.6524507545399389e-001 7.0637757743729468e-001
      -4.4974651564716295e-001 -5.4530551081919665e-001
      2.8452454739980942e-001 6.5217023863738854e-001
      8.5837583697251130e-001 -7.8269329741856269e-002
      -4.9025432616890796e-001 -3.8192708608113232e-002
      7.6995396327037979e-001 -1.1529649147766852e+000
      -5.3247032078532663e-001 6.7529522438910250e-001
      -4.5482762317009789e-001 -7.5812413277145352e-001
      -1.1466076223088643e-001 -8.0570111841689851e-001
      -6.8125430140560339e-001 1.0888756501714765e+000
      7.5331606848121002e-001 3.6951593512429703e-001
      -5.1048002110915613e-001 5.8401804630401033e-001
      -6.5403941969490265e-001 9.9707293750857767e-002
      2.7457083522044473e-001 9.5638326903769166e-001
      7.4386587587348874e-001 4.9019266511530302e-001
      9.7215904947195919e-001 6.1096277515329833e-001
      -4.5656310163871977e-001 -1.6939244619720281e-001
      -9.7750645701894756e-001 2.5063008887820415e-001
      8.5516474725840530e-001 8.4282529930995123e-002
      5.5620842428582562e-001 -3.3982316080404834e-001
      5.8683414826012015e-001 -7.1995405074490826e-001
      3.4005993309465415e-001 5.4336376422554511e-001
      -2.8685390438791536e-001 -6.9438914732129642e-001
      -2.6629311162088543e-001 -5.7473308997387795e-001
      4.5001044511908006e-001 2.8987403140433760e-001
      -1.9178262760469170e-001 -4.3303853888744653e-001
      6.0186188310163691e-001 -5.8975445683848715e-001
      -6.4765752446886249e-001 -1.3694319556543463e-001
      -2.9280299173251634e-001 -6.3069215065883355e-001
      5.0303370822987403e-001 -6.4247614984582246e-001
      -2.6056054439379023e-001 -4.1175568572170401e-001
      7.0397745019862168e-001 4.0146035749532882e-001
      -3.0305064747211780e-001 -4.1954954999710531e-001
      -4.7120421615511210e-001 3.9819108021489846e-001
      -6.3339572902371888e-001 6.1632627857140476e-001
      2.3816835969942871e-001 -3.4700345407901478e-001
      -6.0807992717602710e-001 -8.4830383132132692e-001
      -1.1029315015495404e+000 3.5341189176459059e-001
      2.4979653990948092e-001 -6.7561167616617634e-001
      1.4547652795122329e-001 5.0423404437720654e-001
      8.1330440905560797e-001 -9.6034787733988283e-002
      -1.8502007065261167e-001 -5.1904627736684535e-002
      1.6044691055554244e-001 -7.0802746157655760e-001
      3.9974144600074041e-001 3.1430183473398798e-001
      4.9065430648584230e-001 5.3390471725922473e-001
      -6.8574454588430533e-001 8.6654304513805669e-001
      6.3818930317691491e-001 7.4547300352359491e-001
      4.8408338926233951e-001 -3.6368653762092940e-001
      4.9717194369277956e-001 6.3992386537674625e-002
      1.3083558056130666e+000 -9.9835410601314778e-001
      -4.0858247068860992e-001 1.2309908438626586e-001
      -6.2474101554328754e-002 -6.0381979087813475e-001
      1.5945452453887798e-001 -1.0776319791417239e+000
      -1.1213397578096328e-001 2.3513818783734647e-001
      -6.2428996033574458e-001 1.5193878716344264e-001
      -1.3227290760794139e+000 7.8529706917516096e-001
      3.0154028706527610e-002 -1.1985082466578059e+000
      -7.5497069583225906e-001 -5.3457440051418037e-001
      -3.2633599959400128e-001 -1.4967806611394352e-001
      6.1944266333070075e-001 -2.3667010878624944e-001
      -6.6776933216209200e-001 -6.5831960365324382e-001
      -5.2396058433742232e-001 6.5070184663681241e-001
      -7.8266762995750017e-001 2.8135561010153159e-001
      -3.2756186580868485e-001 -1.9843691989296358e-001
      -1.0748597924705054e-001 4.8052740463780205e-002
      -1.1134397680177870e+000 -1.4295485124279605e-001
      4.1227936537111332e-001 -2.7589225178222258e-002
      -9.3777248082051556e-001 -3.9939653501018108e-001
      4.3587376376289649e-001 3.1956714165356510e-002
      -9.3178627651831561e-002 3.2230423903708538e-001
      8.4051471422415125e-001 -2.4600354205783459e-001
      4.7282318293209502e-001 1.9493011593828879e-001
      -8.1982771386726283e-001 -2.3129757567086993e-002
      -3.2680775268686935e-001 7.0457771717846107e-001
      2.6221387700984494e-001 1.3564304076856945e-002
      -1.9312572617612977e-001 5.7321692476112796e-001
      -2.5500265919339066e-001 6.9783484770122514e-002
      5.8226908318165338e-001 -5.9752540474223059e-001
      2.9604542335020795e-001 6.5990317197383797e-001
      -9.1932394288822716e-001 -1.0668467685974257e-001
      -1.2583320888541555e-001 1.2072223232869721e-001
      -9.3745217595560162e-002 4.2778025678459025e-001
      3.3236218958442509e-001 -1.5372287835019505e-001
      -7.3270687390551825e-001 8.9200242375587269e-002
      1.2740454862003533e-001 -5.0052815781016213e-001
      1.3356326535934543e-001 -7.3250425874421921e-001
      7.8178534376986228e-002 -5.1975562575766543e-001
      -6.0945908262709880e-001 -1.1329924593002487e+000
      2.6764200667252624e-001 1.8930409211758359e-001
      -6.5562451831635316e-001 -3.8847974305454502e-001
      -1.0924786883884152e+000 -9.1366856288296516e-001
      -5.6689917552844327e-001 1.6515084002739995e-002
      -7.2160432276353648e-001 8.2599830048199019e-001
      -1.1896372967466997e+000 -5.5335359880221346e-001
      8.2082204588026186e-001 -9.0688843780888140e-001
      -1.1531134607106024e-001 6.8138293690802187e-001
      -1.2025777647458786e+000 1.5050626088978034e-001
      6.3872424808682438e-001 -9.9601918729552452e-001
      6.0118374434728750e-001 1.1907717986586508e+000
      -3.8899174796287023e-001 2.0398739621177836e-001
      -5.7317248363575224e-001 -3.1240153437581009e-001
      -3.1212137630832124e-002 -7.1370950761428753e-001
      7.9037790481441661e-001 3.5678523742698115e-001
      3.8883106111478494e-001 -6.0956388371034398e-001
      -5.4849787049533516e-001 2.6058615958648290e-001
      6.1822549148983830e-001 8.9621122203599468e-003
      -5.7983121304272933e-001 -2.9970206737270094e-001
      -5.5362364589986501e-001 2.7535812462980241e-001
      2.3050253626919620e-001 4.4742405105589628e-001
      -6.7921716287568867e-001 -3.0855369131239740e-001
      -1.1232852474748212e+000 5.9820600531365287e-001
      -7.5800747368674803e-001 7.3286376818088239e-001
      -5.2450218571502250e-001 9.7209459683691685e-002
      -3.2481617902400584e-001 9.5453802835829282e-001
      8.8297712360428049e-001 -5.2332769812512603e-001
      -8.6474860516176519e-002 -2.8419370979814911e-003
      -3.1277867134823506e-001 2.8174619067367357e-001
      -8.1195611734274231e-001 -1.2037969680677840e+000
      -1.1129353714856554e+000 -8.1329824976984610e-001
      -1.1871900959187127e-001 4.6099338417880616e-002
      -7.4285447155164719e-001 4.7667518048984686e-001
      5.1584227767681778e-001 -2.9226648343338761e-002
      6.2188037510276550e-001 -4.6174810393711428e-002
      -5.2497310224764626e-001 -4.4111165668164676e-001
      -1.1020740749584022e+000 2.9595076268722231e-001
      2.9067248358490533e-001 -2.1654519653277382e-001
      -3.3315265726944876e-001 -7.3185792592414728e-002
      4.3710772568056788e-001 2.4068815363874507e-001
      -2.5745884237538191e-001 2.3714779494067964e-001
      -8.4852533197459645e-001 1.1865705210501777e-001
      -3.9943209679314168e-001 -2.4952976050545642e-001
      -4.9519791822467718e-001 6.3908210047553837e-001
      -2.6467572174645893e-001 -4.7149110543814304e-001
      2.1907351922433574e-001 3.3386576714685029e-001
      -8.7757428263106230e-001 -3.4959740353701063e-001
      7.6786603442877466e-002 -3.3716318205578533e-001
      -1.9957034256470380e-001 -9.6027616580634279e-001
      5.6722057623983435e-001 3.6395439194126422e-001
      -4.6643726363271881e-001 -9.3385609199431430e-001
      -1.3795758553620812e+000 -1.1933518382542589e-001
      -8.1147719117027817e-001 5.0814982782103080e-001
      -6.0566480980469939e-001 -4.5956191738112206e-001
      -1.0351895093871686e+000 -3.9530496717832758e-001
      6.2557538381536626e-001 -6.7396433238032433e-002
      1.8045525383447389e-001 7.0199118780444758e-001
      9.8559423084149411e-001 -7.3729822742243523e-001
      -9.5284025278599327e-001 2.8164693484213887e-001
      -6.2140629008235437e-001 1.0030485651560712e-001
      4.9271938057746972e-001 2.2901833695897957e-003
      -2.3957369631185754e-001 -5.0680075975184558e-001
      6.7383750608990001e-001 6.3972031959287068e-001
      -4.9276782443799833e-001 2.9043369408731734e-001
      -5.9642811861212541e-001 9.0985264474655569e-001
      -5.9444213907870247e-001 -1.2505740507900516e+000
      1.0020946356409971e-001 -3.3224144301114762e-002
      4.2052875541132373e-001 -2.8351755830334924e-001
      4.0157090165456921e-001 -7.5299038365675264e-001
      3.6154841415654876e-001 4.9773061911601815e-002
      5.5217143115904543e-001 2.7447357945410884e-002
      6.6110470653927933e-001 5.4937520330797140e-001
      -1.2575660248120837e+000 8.9355280741768711e-003
      8.2492561541590304e-001 -9.7896172331385045e-001
      7.3306681552404751e-001 -8.4983286791907409e-001
      1.2909824315393048e-001 5.4633219163374325e-001
      -1.2659460860495642e+000 -2.0787579459295133e-001
      -1.2526467409448527e+000 -2.2507040032898332e-001
      4.5769077480111248e-002 6.8895078457690584e-001
      6.3845848023036378e-001 6.4258722865129103e-001
      3.4879072166297065e-001 -5.6804176251640548e-001
      -5.3322002826304193e-001 -6.5439806229996844e-001
      -8.3338354654111024e-001 -7.2993372379435451e-001
      6.7300148507048108e-001 -4.7932542747429238e-002
      2.0848243300210692e-001 -3.1529133959170247e-001
      -1.6073801043230099e-001 -5.3781041164605581e-002
      -2.5159724726335159e-001 -1.8782258740678995e-001
      -3.9838023360941976e-001 1.0444233091722398e-001
      -7.1294507163424858e-001 8.4477042199769065e-002
      5.2262445664940860e-001 -8.6837171306964236e-002
      -1.2197183131777309e+000 -1.5343709465558777e-001
      -7.7001318310583364e-002 -4.3864693159411557e-002
      9.8513216217642006e-003 -9.0749752152618357e-001
      -8.5931762145895163e-001 4.8802250169368006e-001
      -4.6733550591708339e-001 8.4999974353421315e-001
      -1.1306940800526697e+000 2.0030238828722469e-001
      1.6206133285153376e-001 -6.7669106717525546e-002
      -8.8727726522624251e-001 3.3780121123477930e-001
      1.0254028159332466e-001 8.3850135048382612e-001
      1.5972001508065239e-001 -2.4885335974958839e-001
      -1.4374614343994094e-001 -6.6586993366320868e-001
      -2.7439904837672796e-001 -5.5201837950907495e-001
      -4.6297544931541751e-001 8.3973951909751043e-002
      2.6089922813780814e-001 -7.1550024618325270e-001
      -1.4985910870976697e+000 5.0795874934855356e-001
      3.2687726714842830e-001 4.4985788057820564e-001
      7.6609603172886731e-002 -1.6309979523474316e-001
      4.8046071298647436e-001 -1.3474691254958571e+000
      -3.0598646955062736e-001 -5.5823146101911780e-001
      2.7925751511918490e-001 5.0931076590778268e-001
      -1.0975653326359744e+000 -7.2823117716598840e-001
      -4.7096706665538179e-001 -2.7927719117087529e-001
      -6.5917067997569956e-001 -4.5527471673252790e-001
      -7.1474417414910763e-001 -2.9014045647317221e-003
      3.1978019680976782e-001 6.4177549880759011e-001
      -2.5765125442287073e-001 4.5326788707579274e-001
      -2.7353648785533752e-001 -4.8025732371667945e-001
      -1.9400377121279719e-001 4.6191331736750540e-001
      -1.4166815483167233e-001 -1.1865602630944512e-001
      5.2190262465521997e-001 5.4321797141602435e-001
      -1.0799977478047029e+000 6.6423964614598452e-001
      5.9409757080261867e-002 2.9784933327273438e-001
      -3.8009784682747288e-001 6.4262339600535998e-002
      1.6819382122358301e-001 1.3044254694261392e-001
      -3.9591507300828316e-001 -3.4913572022008177e-001
      2.9015970054736379e-001 1.7411938011866818e-001
      7.6486046466359120e-002 -3.1198366699341273e-001
      -8.0843147459694076e-001 5.3487601520752992e-001
      1.2152146595748091e-002 5.5300621126205340e-001
      -2.9912121003658876e-001 4.7119287593539000e-001
      7.4830102828471745e-001 -1.2297261781533688e+000
      3.7187738647083041e-001 2.5416751711197999e-001
      2.2043355860726538e-001 -7.8470520303932390e-001
      4.5697791141644939e-001 -6.2487407656660776e-001
      -7.8162426133470797e-001 -3.7049856551435695e-002
      -2.0429672567841201e-001 -4.1765771985466354e-001
      -3.3575162589132995e-001 -9.2381846063838347e-001
      4.9673252206032831e-001 -4.8182255281149988e-001
      -4.6239119161115200e-001 -1.2240036348566768e-001
      -9.2445829255664164e-002 -2.1869682010431021e-001
      1.0532915321418419e+000 3.4358464292741930e-001
      -4.4495524946870002e-001 8.5303494164652260e-001
      1.1415057996726108e+000 -1.9007969146831860e-001
      -2.4455107299373210e-001 -1.5250744478629905e-001
      3.5432160007298924e-001 -7.5514924180150435e-003
      -8.7285474902302096e-001 -2.3088259960576543e-001
      -9.9254918376829682e-001 -1.3447417487669205e-001
      6.1153451052351204e-001 7.6215227361063898e-001
      -9.0836204908957108e-002 -8.8449279112314849e-001
      1.2024005288709185e+000 -3.4761393616606184e-002
      -8.0194729449201585e-001 1.5854895761618934e-001
      -2.4179544722506663e-001 7.3222598079437606e-001
      -5.2127186300631800e-001 -7.4000858953474002e-001
      -4.8043441760356570e-001 9.7817757581365972e-001
      6.5953081830269225e-002 -6.1724692602865860e-001
      -7.7090031754027444e-001 6.7968608514403961e-001
      -3.0713485548311392e-001 -5.9207074629393963e-001
      -4.0013504471831129e-001 7.2688871714125680e-001
      -6.9748076466651554e-001 3.7547685774460593e-001
      5.7902959442507107e-001 4.3445249924111706e-001
      -7.6498662341141166e-001 6.0360760227931232e-001
      -4.1133448596438200e-002 1.5751062533168030e-002
      -2.7192193568296258e-001 -1.9263149440578256e-001
      -8.4263628292362225e-001 -8.6198240719636221e-002
      -4.3525049711150449e-001 -4.0443381195814337e-001
      -5.8970244043580622e-001 3.8289023624765228e-001
      -8.9937736613934616e-001 -4.9527517649122349e-001
      -3.7995396115894292e-001 1.0189721560861433e+000
      1.1758546881043892e+000 9.7583250084098225e-002
      5.8835607897002851e-001 -4.3004717407908605e-001
      -2.7945641860604337e-001 -5.3486470741293091e-001
      -8.0429524844719102e-002 9.3482578440439623e-001
      -5.1027711077936633e-001 -3.6305815006434300e-001
      -3.8184474796420242e-001 -3.8821252092444532e-002
      -3.9055039319737578e-001 -7.9517038994360703e-002
      1.2057243613724282e+000 -8.4449998031413731e-001
      9.7104681820939209e-001 -1.4819726266885580e-001
      -4.4628604268096062e-001 -3.7608773487621644e-001
      3.4046678211756198e-001 3.3956376832493207e-001
      -4.4303480864159567e-001 -3.0790874119653294e-001
      2.9509654785355122e-001 -8.2512437397674987e-001
      3.6187804328262929e-001 -1.6126978905533138e-001
      6.9947632703760354e-001 -5.2501671383874038e-001
      -5.7328856301696407e-001 -1.1824395367203795e-001
      3.8598815738505243e-001 1.1886298724664364e+000
      6.5785562931558272e-001 1.1567387565913452e+000
      3.0940108336597394e-001 1.6340514548296356e-001
      -8.9677928627250325e-001 -1.3428305932945689e-001
      -5.1522974502451746e-001 1.6845372629351149e-001
      4.0664559697083791e-001 3.5844031741521881e-001
      1.5820559061688735e-002 5.8552311579545741e-002
      8.9012416393287241e-001 -2.9581081032140383e-001
      2.8014069322005231e-001 3.4170319746184225e-001
      7.7059509400543824e-001 5.4888809273016259e-001
      -7.2019579354894159e-001 -1.0858987248037795e+000
      -3.5785648079375609e-001 -1.6915511428318933e-001
      4.8522017923045352e-001 3.6644297066658310e-001
      8.8197206083060664e-001 -2.3631093598142394e-001
      4.7092916133192825e-001 -1.0349000029444075e+000
      -7.5816894230297527e-001 3.5423387819429064e-001
      -4.1504325275811887e-001 3.1586347179306018e-001
      -3.2234045118003429e-001 6.8287043449929918e-001
      5.6856042636693405e-001 1.1223228797801124e+000
      -8.2450987705710299e-001 6.2297022804435920e-001
      -9.3130603174810456e-001 1.0303464118958914e+000
      8.1432957842566822e-001 -8.9548465995931403e-001
      6.1296504628989423e-001 -7.7343272385240225e-001
      7.6280354224340807e-001 -3.5724474638400361e-001
      -3.9964843174376408e-001 9.1819041697609283e-001
      -9.9028901110240295e-003 -7.1833901242212872e-001
      -9.1588537557227712e-001 1.0624969435346738e+000
      5.8189513847977981e-001 -8.5840701359501326e-001
      -5.3057571552868765e-001 -3.1904281128950766e-002
      -1.7963169624096270e-001 -3.1004529248180573e-001
      -2.1751500337345334e-001 2.9239054588892460e-001
      -3.6473687191471710e-001 -6.7216629898641733e-001
      -1.4098882176125532e-001 9.1114925047202400e-001
      -9.7748019059123892e-001 -7.3600426541761776e-001
      3.1813888804138046e-002 -7.6153744079563435e-001
      4.1817056407440795e-002 2.0823117331795510e-001
      -5.7341314529953981e-003 6.9932905742985252e-001
      2.1617502765596974e-001 1.0541189322164304e+000
      6.0258517332104161e-002 -7.9473914376000465e-001
      -6.8422517773453595e-001 3.6892654377556477e-001
      -8.3953352578264573e-001 -4.9723810316847011e-001
      -9.3757346002324701e-002 2.9433077478977682e-001
      4.3044527333834592e-001 6.0208205034998974e-001
      -6.5099147416170955e-001 -6.6024985630300059e-001
      -4.4220613254078694e-001 1.8441219073785448e-001
      1.8737250887477908e-001 5.3661754260677499e-002
      4.6010989551220854e-001 5.0553549686206578e-001
      -8.6188479750288571e-001 2.8738778912220453e-001
      6.7771083233468699e-001 3.0045397696920040e-001
      -3.8811948461504275e-001 1.0130654289504275e+000
      5.6558355029969998e-001 -1.1413844121082215e+000
      5.8121805889892486e-001 -4.5724794117366074e-001
      -4.8342722419558726e-001 -1.0986013432394591e-001
      -3.4315105634979531e-001 1.2225121869109278e-001
      2.8682169511739097e-001 -1.1949990091212487e-001
      -7.9747163940451227e-001 5.3426479342081545e-001
      3.7223283867146584e-001 -3.5933011796873604e-001
      -1.1201825158820559e-001 6.7899529685222193e-001
      -3.9402820697672919e-001 7.9321655893824250e-001
      -1.0253340721586118e-001 -1.3603078046125036e-001
      -7.7888198103927930e-001 2.3109034247603424e-001
      -8.7304429632709601e-001 8.8539504341713637e-001
      6.1703220183933494e-001 4.9204765074494072e-001
      -4.8112170747089050e-001 -2.5898676633288809e-001
      5.5602850592958097e-001 -3.5422619498560359e-001
      -3.1432178552454509e-001 -3.0300199189204285e-001
      7.3105812169342022e-001 -6.9940233887817482e-001
      -5.5536263301441313e-001 3.5129536030149627e-001
