<?xml version="1.0"?>
<opencv_storage>
<my_nn type_id="opencv-ml-ann-mlp">
  <layer_sizes type_id="opencv-matrix">
    <rows>1</rows>
    <cols>4</cols>
    <dt>i</dt>
    <data>
      256 128 64 36</data></layer_sizes>
  <activation_function>SIGMOID_SYM</activation_function>
  <f_param1>5.9999999999999998e-001</f_param1>
  <f_param2>1.</f_param2>
  <min_val>-9.4999999999999996e-001</min_val>
  <max_val>9.4999999999999996e-001</max_val>
  <min_val1>-9.7999999999999998e-001</min_val1>
  <max_val1>9.7999999999999998e-001</max_val1>
  <training_params>
    <train_method>BACKPROP</train_method>
    <dw_scale>1.0000000000000001e-001</dw_scale>
    <moment_scale>1.0000000000000001e-001</moment_scale>
    <term_criteria><epsilon>9.9999999747524271e-007</epsilon>
      <iterations>1000</iterations></term_criteria></training_params>
  <input_scale>
    2.6961896818161688e+000 -2.2521743175488238e+000
    2.1957084830377775e+000 -1.5509369443679542e+000
    2.1076292656406652e+000 -1.3862680586505565e+000
    2.1464938444320758e+000 -1.4629377689730516e+000
    2.1447196874441974e+000 -1.4596008983995232e+000
    2.0758545483259572e+000 -1.3159435083137763e+000
    2.0091324675867472e+000 -1.1002392084403616e+000
    2.0015765661689233e+000 -9.6107446232714178e-001
    2.0304802248225755e+000 -8.3999033110219634e-001
    2.0276847438125021e+000 -8.4688023526295975e-001
    2.0120161281462718e+000 -8.9622543803340882e-001
    2.0017383749479176e+000 -1.0425720702853738e+000
    2.0634260636981017e+000 -1.2855471904785791e+000
    2.1871737044778405e+000 -1.5362291495737213e+000
    2.2375703784202541e+000 -1.6204626748480013e+000
    2.1213203435596424e+000 -1.4142135623730949e+000
    2.0857141659013614e+000 -1.3387470886291477e+000
    2.0012767316972169e+000 -1.0363754503432017e+000
    2.0054113070103852e+000 -9.2909432576770823e-001
    2.0073190502651728e+000 -9.1802984342484584e-001
    2.0184559365372210e+000 -8.7306229001014724e-001
    2.0457571539594714e+000 -8.0774935245621982e-001
    2.0666892353143433e+000 -7.7295817630308283e-001
    2.0782533308443560e+000 -7.5666564724194307e-001
    2.1464938444320758e+000 -6.8355607545902408e-001
    2.1429596078253681e+000 -6.8668249338054954e-001
    2.1151094341147187e+000 -7.1342976944345682e-001
    2.0990572758115338e+000 -7.3092172997008764e-001
    2.0831827096552646e+000 -7.5019377341752091e-001
    2.0389156984389567e+000 -8.2122993409346867e-001
    2.0015765661689233e+000 -9.6107446232714178e-001
    2.0030935826687659e+000 -1.0571882797418488e+000
    2.0746714507120299e+000 -1.3131353031292410e+000
    2.0035525268680168e+000 -9.4214672394388888e-001
    2.1830048978485865e+000 -6.5403519756971540e-001
    2.1537330736350691e+000 -6.7731486541896513e-001
    2.0076654119200859e+000 -9.1619651734448360e-001
    2.0689168812717860e+000 -1.2992305415129370e+000
    2.2744275165103058e+000 -1.6787441193290353e+000
    2.3546517846038233e+000 -1.7986923354612538e+000
    2.3003448860545417e+000 -1.7184123999990772e+000
    2.3094010767585034e+000 -1.7320508075688776e+000
    2.3033397412307792e+000 -1.7229346873888964e+000
    2.2182419633872299e+000 -1.5888598190134722e+000
    2.0334196844627326e+000 -1.2002824526342519e+000
    2.0207259421636903e+000 -8.6602540378443860e-001
    2.1447196874441974e+000 -6.8511878904467416e-001
    2.1105840385751740e+000 -7.1818484645960778e-001
    2.0882907241564848e+000 -1.3445443253745621e+000
    2.0124611797498106e+000 -8.9442719099991574e-001
    2.1768722838802472e+000 -6.5867663351535255e-001
    2.0283702113484399e+000 -8.4515425472851669e-001
    2.0976705483678848e+000 -1.3651506743346553e+000
    2.4889571739730316e+000 -1.9852396506689658e+000
    2.8660545996240527e+000 -2.4594615363837358e+000
    2.6897028220496892e+000 -2.2440873743489966e+000
    2.5415758386111675e+000 -2.0549447504643865e+000
    2.5620504608813941e+000 -2.0816659994661326e+000
    2.7869665700432606e+000 -2.3639448585188370e+000
    2.7944854697826518e+000 -2.3730948037043151e+000
    2.2885991969795101e+000 -1.7005563477556083e+000
    2.0397378949104379e+000 -1.2202003478482084e+000
    2.0173722798842255e+000 -8.7659628828302660e-001
    2.0794691194147759e+000 -7.5504533502560311e-001
    2.0613022819736817e+000 -1.2801341552733381e+000
    2.0168432167337400e+000 -8.7836723427193641e-001
    2.0561710941912881e+000 -7.8942283080558384e-001
    2.0304802248225760e+000 -1.1904898937203794e+000
    2.3865693681030091e+000 -1.8443824779288136e+000
    2.6521265475309130e+000 -2.1969500666550719e+000
    2.7160538448341969e+000 -2.2768506933381909e+000
    2.6832815729997481e+000 -2.2360679774997902e+000
    2.5942272265801352e+000 -2.1232514503260034e+000
    2.6341623315223357e+000 -2.1742292260184355e+000
    2.7093641799549886e+000 -2.2685549284543756e+000
    2.5725756242553963e+000 -2.0953220114223021e+000
    2.3478713763747789e+000 -1.7888543819998315e+000
    2.1809447281648109e+000 -1.5253631283295552e+000
    2.0422607627824680e+000 -1.2277877204823171e+000
    2.0004765181946933e+000 -9.7840766217260289e-001
    2.0613022819736817e+000 -1.2801341552733381e+000
    2.0120161281462718e+000 -8.9622543803340882e-001
    2.0207259421636903e+000 -8.6602540378443860e-001
    2.1047235718649810e+000 -1.3801808343281274e+000
    2.5170128198627704e+000 -2.0225995873897262e+000
    2.5997693208268275e+000 -2.1303665267886505e+000
    2.6460794662672247e+000 -2.1893157488758583e+000
    2.6167169726115951e+000 -2.1520420340228297e+000
    2.6460794662672247e+000 -2.1893157488758583e+000
    2.6521265475309130e+000 -2.1969500666550719e+000
    2.5620504608813941e+000 -2.0816659994661326e+000
    2.3829054777106853e+000 -1.8391869659314615e+000
    2.3249827075214609e+000 -1.7552696829601504e+000
    2.2301812834563499e+000 -1.6084740010642524e+000
    2.1343672769426982e+000 -1.4398509407946776e+000
    2.0069808240170177e+000 -1.0871146130092177e+000
    2.0831827096552646e+000 -1.3329889362377436e+000
    2.0066507209619586e+000 -9.2170563869582023e-001
    2.0207259421636903e+000 -8.6602540378443860e-001
    2.0806959096866819e+000 -1.3272693154052941e+000
    2.4580467795140803e+000 -1.9435151619769067e+000
    2.5942272265801352e+000 -2.1232514503260034e+000
    2.5267046628369472e+000 -2.0354009783964297e+000
    2.4844246463285278e+000 -1.9791597132954442e+000
    2.4981431819044180e+000 -1.9975232188640486e+000
    2.4981431819044180e+000 -1.9975232188640486e+000
    2.3720930459830307e+000 -1.8237818557905248e+000
    2.3720930459830307e+000 -1.8237818557905248e+000
    2.2716592537736804e+000 -1.6744472475732586e+000
    2.2502747085047776e+000 -1.6408253082847335e+000
    2.1120800019332000e+000 -1.3954814298487215e+000
    2.0073190502651732e+000 -1.0892892068403270e+000
    2.1120800019332000e+000 -1.3954814298487215e+000
    2.0005671345640721e+000 -9.7646729187055892e-001
    2.0190105702980521e+000 -8.7129920444409992e-001
    2.0326712241937579e+000 -1.1978241142570358e+000
    2.1871737044778405e+000 -1.5362291495737213e+000
    2.2800295345874715e+000 -1.6874028103196963e+000
    2.3249827075214609e+000 -1.7552696829601504e+000
    2.2375703784202541e+000 -1.6204626748480013e+000
    2.2229622057106715e+000 -1.5966514255302839e+000
    2.1689158600939331e+000 -1.5040398672675190e+000
    2.1708816809598979e+000 -1.5075567228888178e+000
    2.2090182865730164e+000 -1.5734872319041922e+000
    2.1447196874441974e+000 -1.4596008983995232e+000
    2.1394813239716259e+000 -1.4496683970958537e+000
    2.0448687496430638e+000 -1.2354415362426843e+000
    2.0225189720092605e+000 -1.1617445285648429e+000
    2.1360582901206593e+000 -1.4431108090993741e+000
    2.0006656445858941e+000 -1.0261350577885984e+000
    2.0037939948093944e+000 -9.4027238050083684e-001
    2.0000354317805384e+000 -9.9406522948616050e-001
    2.0006656445858941e+000 -1.0261350577885984e+000
    2.0040434714008470e+000 -1.0656421633639426e+000
    2.0201455519365772e+000 -1.1523647741701704e+000
    2.0120161281462718e+000 -1.1157906901128631e+000
    2.0002520002530004e+000 -9.8425098425147639e-001
    2.0020858043849832e+000 -9.5536038879878671e-001
    2.0012767316972169e+000 -9.6490128135401532e-001
    2.0012767316972169e+000 -9.6490128135401532e-001
    2.0030935826687659e+000 -9.4590530292691721e-001
    2.0001929291472198e+000 -9.8620623589897649e-001
    2.0076654119200859e+000 -1.0914688945756021e+000
    2.0448687496430638e+000 -1.2354415362426843e+000
    2.1447196874441974e+000 -1.4596008983995232e+000
    2.0024650247131892e+000 -1.0508968234853939e+000
    2.0003189538334607e+000 -9.8229948625750296e-001
    2.0054113070103852e+000 -1.0763169812426769e+000
    2.0341772561733178e+000 -1.2027476633723189e+000
    2.0794691194147759e+000 -1.3244237843891726e+000
    2.0909128409713542e+000 -1.3503812097939998e+000
    2.0723375882640833e+000 -1.3075463354523382e+000
    2.0231340097479076e+000 -1.1641048865612960e+000
    2.0148116116203574e+000 -1.1293338894499028e+000
    2.0099151479647497e+000 -1.1046557460044359e+000
    2.0319318464423262e+000 -1.1953726041074400e+000
    2.0201455519365772e+000 -1.1523647741701704e+000
    2.0190105702980521e+000 -1.1477113658539522e+000
    2.0103188252439272e+000 -1.1068719722325195e+000
    2.0143247783869072e+000 -1.1270626736212457e+000
    2.1120800019332000e+000 -1.3954814298487215e+000
    2.0020858043849832e+000 -1.0467254155861967e+000
    2.0000984262625487e+000 -1.0099703362774179e+000
    2.1004558775696816e+000 -1.3711309200802089e+000
    2.3902636515427838e+000 -1.8496087779795352e+000
    2.5517188404559241e+000 -2.0682086236631845e+000
    2.3939886472838801e+000 -1.8548662038975301e+000
    2.2973736160918392e+000 -1.7139136501002610e+000
    2.2828636743964119e+000 -1.6917650444187695e+000
    2.1830048978485865e+000 -1.5289697002788709e+000
    2.1612049871715695e+000 -1.4901165338137310e+000
    2.2205929335725747e+000 -1.5927467172350909e+000
    2.2800295345874715e+000 -1.6874028103196963e+000
    2.2301812834563499e+000 -1.6084740010642524e+000
    2.0405694492312496e+000 -1.2227221699758677e+000
    2.0024650247131892e+000 -1.0508968234853939e+000
    2.0962956320686348e+000 -1.3621762291715831e+000
    2.0000157472255360e+000 -9.9603958840001894e-001
    2.0006656445858941e+000 -1.0261350577885984e+000
    2.1914079139743987e+000 -1.5435512092478405e+000
    2.5027976356678514e+000 -2.0037278690317026e+000
    2.4799318012511438e+000 -1.9731203418684695e+000
    2.3650310888899848e+000 -1.8136597536824983e+000
    2.3478713763747789e+000 -1.7888543819998315e+000
    2.3720930459830307e+000 -1.8237818557905248e+000
    2.3977446796302564e+000 -1.8601550986814093e+000
    2.3094010767585034e+000 -1.7320508075688776e+000
    2.2608001478747899e+000 -1.6574715369836008e+000
    2.2689125699877164e+000 -1.6701717529076248e+000
    2.3445220891738643e+000 -1.7839766293614621e+000
    2.0976705483678848e+000 -1.3651506743346553e+000
    2.0024650247131892e+000 -1.0508968234853939e+000
    2.0782533308443560e+000 -1.3215876836024127e+000
    2.0011386953405643e+000 -9.6681998475283215e-001
    2.0002520002530004e+000 -1.0160010160015240e+000
    2.1612049871715695e+000 -1.4901165338137310e+000
    2.3186754866067516e+000 -1.7459074348556791e+000
    2.3186754866067516e+000 -1.7459074348556791e+000
    2.4053511772118195e+000 -1.8708286933869707e+000
    2.4170021074856756e+000 -1.8870839866976454e+000
    2.4666867410336182e+000 -1.9552407798470841e+000
    2.5568607698749548e+000 -2.0749128072993184e+000
    2.4844246463285278e+000 -1.9791597132954442e+000
    2.2425929397399225e+000 -1.6285496348111341e+000
    2.1935498428179692e+000 -1.5472360498448177e+000
    2.2112974522153737e+000 -1.5773044326814025e+000
    2.0869967789998038e+000 -1.3416407864998741e+000
    2.0000629911340138e+000 -1.0079682534683323e+000
    2.1004558775696816e+000 -1.3711309200802089e+000
    2.0026665731797419e+000 -9.4967720434515535e-001
    2.0080199215005416e+000 -9.1436621425471087e-001
    2.0207259421636903e+000 -1.1547005383792515e+000
    2.1871737044778405e+000 -1.5362291495737213e+000
    2.3829054777106853e+000 -1.8391869659314615e+000
    2.5122319414915948e+000 -2.0162655165344248e+000
    2.5832994429515193e+000 -2.1091819856637901e+000
    2.5316167102772011e+000 -2.0418694300152427e+000
    2.5517188404559241e+000 -2.0682086236631845e+000
    2.5725756242553963e+000 -2.0953220114223021e+000
    2.3865693681030091e+000 -1.8443824779288136e+000
    2.1914079139743987e+000 -1.5435512092478405e+000
    2.0770484911967291e+000 -1.3187609467915740e+000
    2.0020858043849832e+000 -1.0467254155861967e+000
    2.0060148370947037e+000 -9.2539374925499729e-001
    2.1229051786947615e+000 -1.4173761758547365e+000
    2.0000354317805384e+000 -9.9406522948616050e-001
    2.0503438459017329e+000 -7.9939001134859233e-001
    2.0087534360464856e+000 -9.1071460344567845e-001
    2.0341772561733178e+000 -1.2027476633723189e+000
    2.2112974522153737e+000 -1.5773044326814025e+000
    2.5122319414915948e+000 -2.0162655165344248e+000
    2.6400916714412483e+000 -2.1817424229271425e+000
    2.5267046628369472e+000 -2.0354009783964297e+000
    2.5316167102772011e+000 -2.0418694300152427e+000
    2.4981431819044180e+000 -1.9975232188640486e+000
    2.4130858436102400e+000 -1.8816324137675087e+000
    2.1181893524069930e+000 -1.4079234782863941e+000
    2.0008863598524131e+000 -1.0302182745668673e+000
    2.0231340097479076e+000 -8.5902912318661151e-001
    2.0028760900054636e+000 -9.4778957830615684e-001
    2.0689168812717860e+000 -1.2992305415129370e+000
    2.0020858043849832e+000 -1.0467254155861967e+000
    2.0033190589371577e+000 -9.4402435813010899e-001
    2.0256815859918142e+000 -8.5207241315528692e-001
    2.0099151479647497e+000 -9.0525940196031385e-001
    2.0017383749479176e+000 -9.5916630466254393e-001
    2.0043009655742998e+000 -1.0677674786839275e+000
    2.0138463360149221e+000 -1.1247971102940488e+000
    2.0184559365372210e+000 -1.1453936465270738e+000
    2.0173722798842255e+000 -1.1407759916011990e+000
    2.0091324675867472e+000 -1.1002392084403616e+000
    2.0001929291472198e+000 -9.8620623589897649e-001
    2.0250315303770678e+000 -8.5380793691493440e-001
    2.0457571539594714e+000 -8.0774935245621982e-001
    2.0051216473104119e+000 -9.3094933625126264e-001
    2.0304802248225760e+000 -1.1904898937203794e+000</input_scale>
  <output_scale>
    227158990. -2.1580103950000000e+008 227158990.
    -2.1580103950000000e+008 227158990. -2.1580103950000000e+008
    227158990. -2.1580103950000000e+008 227158990.
    -2.1580103950000000e+008 227158990. -2.1580103950000000e+008
    227158990. -2.1580103950000000e+008 227158990.
    -2.1580103950000000e+008 227158990. -2.1580103950000000e+008
    227158990. -2.1580103950000000e+008 227158990.
    -2.1580103950000000e+008 227158990. -2.1580103950000000e+008
    227158990. -2.1580103950000000e+008 227158990.
    -2.1580103950000000e+008 227158990. -2.1580103950000000e+008
    227158990. -2.1580103950000000e+008 227158990.
    -2.1580103950000000e+008 227158990. -2.1580103950000000e+008
    227158990. -2.1580103950000000e+008 227158990.
    -2.1580103950000000e+008 227158990. -2.1580103950000000e+008
    227158990. -2.1580103950000000e+008 227158990.
    -2.1580103950000000e+008 227158990. -2.1580103950000000e+008
    227158990. -2.1580103950000000e+008 227158990.
    -2.1580103950000000e+008 227158990. -2.1580103950000000e+008
    227158990. -2.1580103950000000e+008 227158990.
    -2.1580103950000000e+008 227158990. -2.1580103950000000e+008
    227158990. -2.1580103950000000e+008 227158990.
    -2.1580103950000000e+008 227158990. -2.1580103950000000e+008
    227158990. -2.1580103950000000e+008 227158990.
    -2.1580103950000000e+008 227158990. -2.1580103950000000e+008</output_scale>
  <inv_output_scale>
    4.4022030561062097e-009 9.4999999559779691e-001
    4.4022030561062097e-009 9.4999999559779691e-001
    4.4022030561062097e-009 9.4999999559779691e-001
    4.4022030561062097e-009 9.4999999559779691e-001
    4.4022030561062097e-009 9.4999999559779691e-001
    4.4022030561062097e-009 9.4999999559779691e-001
    4.4022030561062097e-009 9.4999999559779691e-001
    4.4022030561062097e-009 9.4999999559779691e-001
    4.4022030561062097e-009 9.4999999559779691e-001
    4.4022030561062097e-009 9.4999999559779691e-001
    4.4022030561062097e-009 9.4999999559779691e-001
    4.4022030561062097e-009 9.4999999559779691e-001
    4.4022030561062097e-009 9.4999999559779691e-001
    4.4022030561062097e-009 9.4999999559779691e-001
    4.4022030561062097e-009 9.4999999559779691e-001
    4.4022030561062097e-009 9.4999999559779691e-001
    4.4022030561062097e-009 9.4999999559779691e-001
    4.4022030561062097e-009 9.4999999559779691e-001
    4.4022030561062097e-009 9.4999999559779691e-001
    4.4022030561062097e-009 9.4999999559779691e-001
    4.4022030561062097e-009 9.4999999559779691e-001
    4.4022030561062097e-009 9.4999999559779691e-001
    4.4022030561062097e-009 9.4999999559779691e-001
    4.4022030561062097e-009 9.4999999559779691e-001
    4.4022030561062097e-009 9.4999999559779691e-001
    4.4022030561062097e-009 9.4999999559779691e-001
    4.4022030561062097e-009 9.4999999559779691e-001
    4.4022030561062097e-009 9.4999999559779691e-001
    4.4022030561062097e-009 9.4999999559779691e-001
    4.4022030561062097e-009 9.4999999559779691e-001
    4.4022030561062097e-009 9.4999999559779691e-001
    4.4022030561062097e-009 9.4999999559779691e-001
    4.4022030561062097e-009 9.4999999559779691e-001
    4.4022030561062097e-009 9.4999999559779691e-001
    4.4022030561062097e-009 9.4999999559779691e-001
    4.4022030561062097e-009 9.4999999559779691e-001</inv_output_scale>
  <weights>
    <_>
      -3.2687562759912803e+000 -5.6499439424294551e-001
      2.1669448341259273e-001 -9.3927232503029593e-003
      2.6547665588742686e-001 -3.1471620325481686e-001
      1.4225473128201193e-002 -2.4846056619945947e-001
      3.9521159071506523e-002 3.1057398186408380e-003
      6.2054064102867089e-002 -7.0699845372803743e-002
      6.3531670301075607e-002 -9.2169119640993069e-001
      2.4484270539973658e-002 2.1281261747211365e-002
      2.8066352674013717e-001 -8.7045638703687547e-002
      7.6788992606019291e-002 7.5407986616100528e-002
      9.0221766910773230e-002 -2.5206084657669608e-001
      1.8405442718765659e-002 6.4906409472073739e-002
      1.4911543901142965e-001 -9.8389161720062276e-002
      4.4996658945161017e-001 4.3009393990183020e-001
      7.4727349276641958e-002 2.6160427423740074e-001
      8.0972358947775949e-002 -9.9482040510299019e-002
      4.3408228560552438e-002 -1.0019374964684612e-001
      -1.9265256390378953e-002 -3.1960341459831600e-002
      9.6161044312863861e-002 -1.1597905678007296e-001
      1.2203763163437679e-001 2.4863625108155527e-001
      -3.5091078676136611e-001 -2.0885610109975314e-001
      9.5563358488573739e-004 -7.1292929127094826e-002
      -5.1573654786345136e-001 -3.1212590262580553e-001
      -3.6191071170278188e-001 -1.8324051888641918e-001
      -1.7190501342318687e-001 3.7905470085175259e-002
      -1.6467383641821090e-001 -1.6845290655664414e-002
      -4.9324631662378504e-001 -3.1310315604251887e-001
      -6.5464685446619764e-002 -1.4561642657853148e-002
      3.6905343584250141e-002 -1.8846822262139995e-001
      -3.2706538686630410e-001 3.2573900965181736e-002
      -1.6712238705216615e-002 -2.1642712025728153e-001
      5.2227753215058924e-002 3.4844632291176580e-001
      -1.9491223351995804e-001 -2.1895294972260443e-001
      -3.9866821241594264e-001 1.8556825486494519e-001
      -6.7056243877657040e-001 -6.6246078464568051e-002
      5.4424345477815397e-002 2.5200771032697862e-002
      -4.8274522651800926e-002 3.6896131469461191e-002
      -1.0543097363596249e-001 3.3285151893957482e-001
      3.3244577557594152e-001 5.8819987270696990e-002
      4.9033130632803450e-002 -1.7449645539073366e-001
      -9.1760497447174502e-002 -4.3585949313732497e-003
      1.2324193725243390e-001 1.1248039850125684e-001
      4.4964575867000928e-001 1.0156723638776932e-002
      5.0516646183964113e-002 -1.0443096885762745e-001
      -2.6227834526311576e-002 -1.4813950546271040e-001
      2.5853812593311781e-001 -1.5130082461261277e-001
      7.6212569784025919e-001 -1.7622550756370395e-001
      -4.3539933006915957e-002 4.4518147394249962e-003
      -6.8909682218772195e-002 -9.3353881957413468e-003
      9.2817523267666929e-002 -1.8000483932244454e-001
      -1.8681734381324075e-002 -1.5842786444584350e-002
      -1.1339722608927454e-001 2.6175258468278950e-002
      1.8230286362988693e-001 -1.3372129966392945e-001
      1.4458066407005696e-001 1.7644512221947101e-001
      7.6739844112909197e-003 1.2602192300089519e-002
      -3.2551425027499847e-001 -2.9490745600027263e-001
      -1.0425288637554801e-001 -3.2956923867824589e-001
      3.3428633243785061e-001 -5.9763495585185171e-002
      1.5336261465078732e-001 -4.1897275532468803e-002
      1.5668906782905709e-001 1.3638147222375763e-001
      9.9858285717798145e-002 -4.5092624585534390e-002
      4.9778285315150811e-001 9.9074454320544098e-002
      1.2699342235658145e-001 6.8280264311096017e-001
      -6.8674480669064814e-002 1.6358217210986103e-001
      -1.2129570703721244e+000 -4.2229183645993723e-001
      -1.3706709133438249e-002 -1.0577654107079783e-001
      -1.5927634518951556e-001 1.3535177603649187e-001
      -1.0440329001526408e-001 -7.9157273958659097e-002
      1.0853484280213559e-001 -1.1600463435654867e-001
      1.2926854739581728e-001 6.9413875819214085e-002
      3.0235799984068598e-002 -8.0625109202759970e-001
      -1.0523433083182041e-001 7.6821653897506906e-002
      -7.2111346277496857e-003 -1.2041566074163293e-001
      -4.9503531097089513e-003 3.6460153731361869e-002
      -3.8946422308568041e-002 -3.4485341838954187e-001
      8.3572774031545644e-002 -4.0181603381997326e-002
      -2.1033140154484473e-002 8.2443771851539421e-002
      1.5354958163591628e-001 5.9052729212725075e-001
      1.0463912487819850e-001 1.5115848215215655e-001
      1.9991494038559900e-002 -1.1746805373958023e-001
      -1.4066572150385401e-001 5.2719975936488077e-002
      2.9390119524208380e-001 4.3461311501563786e-002
      5.8491423010152831e-002 -1.5135230998206536e-002
      -2.2773495379312214e-001 -9.2632904341495813e-003
      -1.4767567345882804e-001 -2.1784550912233247e-002
      -8.9768439471464054e-002 -1.8309714678575056e-001
      -4.7961643221046230e-001 -2.0958075654585320e-001
      -2.4298657283197009e-001 9.1382471727061362e-002
      -6.7769283757027343e-002 -9.1923461892954694e-002
      -2.8264936085083936e-001 8.1619078649527027e-002
      -3.5664982210880092e-001 -1.7414742583139703e-001
      -3.7729913539299897e-001 -4.3217947824936764e-002
      9.2055498923236223e-002 -1.2380402303164162e-001
      -6.4471625255546908e-002 1.0160596276484024e-001
      -5.6737570569443821e-003 -2.7477676071516038e-001
      -1.6703687898122011e-003 5.8161730807104051e-001
      2.4363821609959702e-002 -6.9639118455166486e-003
      -1.5578493701012344e-001 5.7631530657489730e-002
      -3.2282857841856716e-001 8.1290193257389544e-003
      1.8597834517950676e-001 -8.5829309458571243e-002
      -1.6794085085678717e-001 6.4413313392907581e-002
      6.2358090152839572e-002 1.8697060560875411e-001
      1.1651656075056120e-001 3.5477224737074331e-001
      -1.1642268143333632e-002 4.1231258257465500e-002
      -1.6260720616692448e-001 -6.5028879110963278e-002
      3.8584627596349830e-001 4.3890395175547860e-002
      1.9410853559027053e-001 5.6027521622572254e-002
      -1.0252631323493153e-001 1.6248833296661172e-001
      6.5245646956024597e-002 -1.4344408000142287e-002
      3.2367060545560306e-001 4.6339166584105911e-002
      6.0604094263945218e-001 8.1205151049368429e-002
      2.0311323739159791e-003 -1.3568649742410011e-001
      1.1623952993427224e-001 1.1125206421734786e-001
      1.5628190211873963e-001 7.7926351455797585e-002
      -6.6363605248435167e-002 3.4446993280678281e-002
      -1.6298549824455469e-001 1.4096292469748539e-001
      -1.4528658855660642e-001 -2.1137229118033815e-001
      -3.5081890112320402e-001 -1.7755153618226971e-001
      8.0790179560908060e-002 -2.4856042648094399e-002
      -2.6327060707077699e-001 1.3396582955527497e-001
      -1.1376728835378219e-001 -2.1188859099229426e-001
      1.2934585401290426e-002 -1.2046639489327982e-001
      -1.6059912326136608e-001 -2.1607943466693275e-001
      1.9214701738432965e-001 -9.8518887171648264e-002
      3.3277689495199381e-002 2.9704805033034857e-002
      -2.4384205924564331e-001 1.3362646596549690e-001
      2.0696682630106045e-001 2.2294453467910907e-001
      -1.9055640856534733e-001 1.4193137809644589e-002
      -3.1526287957715988e+000 -4.4654998744856750e-001
      2.7148547592466876e-001 7.3946552825312067e-002
      -1.7836473165863959e-001 2.3727726919000072e-001
      9.1055746971443821e-003 4.1127478140005148e-002
      6.7212078099054051e-002 9.8000875878825028e-002
      1.5560155024024641e-001 6.4658067770373640e-002
      -2.3795781023231088e-001 -9.3909310826711234e-001
      -2.5674107201390206e-001 7.6126174212440847e-002
      3.0153818202878457e-001 -1.0945204535264350e-001
      6.2150989856137137e-002 9.4781051823728604e-003
      -3.6689589471176877e-002 -4.3572507645993163e-004
      8.3480378482575189e-003 2.5704623658808139e-002
      1.1157282455167734e-002 2.4358657247141938e-001
      2.7575567621178954e-001 -1.8203884613602742e-001
      5.2729065022036135e-002 2.9703589119033169e-001
      -4.7496682369587880e-002 -6.0426749690288611e-003
      -1.6413024124626663e-001 1.2870525444344688e-001
      2.0025843004930446e-002 -4.6343069908727753e-002
      -1.2447929332090772e-001 -1.1747243920066564e-002
      3.6779072843277272e-001 -7.3915540434832880e-002
      -1.6186712584314206e-001 -6.7258047433326598e-002
      -1.9256745413674084e-001 2.3311830194127478e-001
      -4.2701337531880273e-001 -1.8905446278629520e-001
      -4.0940090602321177e-001 2.0601834441785560e-001
      8.0697024272943951e-002 -1.0846294041165114e-001
      -4.1646264373088560e-001 -7.6737186582162442e-002
      2.0561303152020767e-004 -4.5780998726296179e-001
      -2.7607050991057747e-001 1.3263728158774168e-002
      1.0986019829682009e-001 8.2025838857786970e-002
      1.8365584717521896e-001 -2.0473465800505211e-001
      6.4201677612049798e-002 -1.1089019566017193e-001
      1.5247773663786862e-001 1.5148137076325577e-001
      1.0704423689767258e-001 -8.2390677015674235e-002
      1.9139374597134901e-001 2.6617302186280645e-001
      -3.8082940923696579e-001 1.9259885747930389e-001
      9.0099947707505262e-002 -1.1912225354675884e-002
      -2.9903307532986984e-001 2.7036757565101054e-002
      -2.1440821773259570e-002 -5.9319941940512495e-002
      1.4875507770269841e-001 2.9967960658109011e-001
      -8.8834872394957312e-002 4.3454290381221040e-002
      -1.9395028441465212e-001 1.1617189274151556e-002
      3.5794924166635406e-001 5.4240941539376648e-002
      4.1652508126715232e-001 3.6476602142381312e-002
      2.7573480898550695e-001 1.2743004891552540e-001
      1.3025386252676358e-001 6.3323987403083093e-002
      4.3522888957000072e-001 -8.6114849548306737e-003
      7.4147512495158463e-001 1.0705325142066983e-001
      7.5773233435540752e-002 -1.5094634294568279e-001
      1.2442670660633195e-001 1.6383773231864546e-001
      1.1510274005713068e-001 2.6082371262172274e-002
      5.0294216376327749e-002 -2.1420338832106114e-002
      -1.7884328499948401e-001 -6.4113165360865698e-002
      -1.4623076617012129e-002 -9.5558875951678224e-002
      1.1854455467271735e-002 -3.5522196351703464e-002
      4.4707854083191327e-002 -5.8261739860001667e-002
      -3.3253424761359929e-001 -1.2584983253281953e-001
      1.1264458355136767e-002 -2.8302052495536356e-001
      1.9317681669244588e-001 -1.0843199409651849e-001
      -7.4752652335599634e-002 9.1670421334641948e-003
      2.6469396394758632e-001 6.1246644490541166e-002
      -3.5299914060025576e-002 5.1689292350829370e-002
      -1.3731384935198185e-001 1.1923826957297805e-002
      1.0990460873548558e-001 1.1290444373740667e-001
      -5.0342198247401541e-002 9.5256828685430686e-002
      -3.2354102547586394e+000 -4.2059535687478605e-001
      3.3716440900194811e-001 -1.9346655924326630e-002
      -5.2205143534336651e-001 7.3525847770710043e-002
      -1.8878436476420918e-001 3.1219222237737393e-001
      7.6772330276702258e-002 -1.4941368876904546e-001
      1.4826034606122457e-001 -3.8072054603099370e-002
      -1.6475726366148877e-001 -6.2459236509237093e-001
      -2.0320226669778763e-001 1.3463557106179852e-001
      4.0690638186858746e-001 -1.3196458612164813e-001
      4.7670030899869925e-001 -2.1167960765306792e-001
      1.0634991105323303e-001 -2.6370376784974842e-001
      -7.7635863641837888e-002 -1.1868824941560410e-001
      -4.7148927745532221e-001 1.3679547578690290e-001
      2.6429389263148129e-001 1.0405916133589235e-001
      7.8479284413392733e-002 2.4280878230424130e-001
      5.8282589050271089e-002 1.4243709859758952e-001
      -1.7318032126575086e-001 -1.8728408658292922e-001
      4.3887419596560207e-001 -1.1839047739565628e-001
      -2.4513742353936580e-001 2.0376055598104023e-001
      3.9664903202625351e-001 -2.9724026761355882e-001
      -1.3353617272753199e-001 3.4051933291122105e-001
      -1.8332718890692820e-001 4.6037067282513507e-002
      -3.9948027520415347e-001 2.5805792716348128e-002
      -2.6265119299432454e-001 -3.8799115013410757e-001
      2.5716537048864774e-002 -5.0562489300410522e-004
      -4.2369917072928193e-001 1.8182669774565625e-002
      -2.5608059865294869e-001 6.5367858694671002e-002
      -3.2785005249745980e-001 -2.8298978808088345e-002
      8.7003625054524039e-002 9.6651814884563134e-002
      3.8727285800052880e-001 -5.4842906402243152e-001
      1.2916372710550103e-001 -3.5208432536835893e-002
      2.2031481841098180e-001 1.1840533797945692e-001
      8.6413501697780629e-002 -1.8833533898600940e-001
      5.1103496972103024e-001 1.7866853110488468e-001
      -6.0951910656113373e-001 3.0004953466364020e-003
      -1.9574208943228263e-001 -1.9778863528249681e-002
      -3.0172364373132093e-001 -7.3842448823776136e-002
      -9.5419045760446991e-002 1.1075126011228817e-001
      -9.0696025338443467e-002 1.9052317430783433e-001
      2.1013844917775457e-002 -1.7005507911733708e-001
      -4.5329776570500419e-001 3.0076503547936434e-001
      4.2383784993820739e-001 -5.4060319608130090e-002
      3.1323287836480429e-001 1.5618674441877761e-001
      4.3562213912674612e-002 7.7209293340757518e-002
      2.1060966684047558e-001 -1.5506132624428621e-002
      5.5762521335694160e-001 1.3710178463182813e-002
      7.0734641260852749e-001 -2.4728014082222211e-001
      2.0045869482510928e-001 -8.8319452928950548e-002
      -3.2629159515895186e-002 2.9291101976182111e-002
      1.2792061771186214e-001 -6.5255759424738356e-003
      -1.3093132771717812e-002 5.7954639320255491e-002
      -1.5886128794088755e-001 -4.7665918114981359e-002
      5.0457697670861335e-002 -7.9483400911772001e-002
      -4.1262490647537170e-001 -4.9461272572890314e-001
      -4.3383066269798959e-002 1.0292774418482326e-001
      -1.5996125176532303e-001 2.0014220474681640e-001
      -1.2573423209273538e-001 -3.6632525529663768e-001
      6.2440834551878176e-002 -9.6679152202752319e-002
      -2.4873564470755385e-001 -6.3580924429301508e-002
      2.5515651596164850e-002 1.2575924363343369e-001
      -8.4446399684349013e-002 6.2072465069511265e-002
      2.6635929024527213e-002 -7.0319285721537977e-002
      7.5727576724334472e-002 4.2022938088127121e-001
      -2.1139612038802984e-002 3.1738703116543060e-001
      -1.9790212886839875e+000 -6.1930849038159674e-001
      4.6055221246070116e-001 -2.3565427173104585e-003
      -3.0242607777041552e-001 -1.1541475235740084e-001
      -1.8114351778644139e-001 -2.0445951139666596e-003
      3.6274154511393916e-002 -5.9816511899839087e-001
      6.9533843422743935e-002 -2.8573686562125746e-002
      -3.1226676930901204e-001 -7.2486716374022220e-001
      -2.5528524859904353e-002 1.6363257291043232e-001
      5.2280760066203213e-001 -5.4582402490112279e-002
      2.9055004663894790e-001 -2.5856838335562410e-001
      1.4462506803740707e-001 -3.6940725503162980e-001
      -7.7643911678816138e-002 -2.1645199227529502e-001
      -2.1715697708192735e-001 3.5215306992988066e-001
      4.8973225617283561e-001 2.1394368164934721e-001
      -1.5784916222237197e-002 5.4440497712657665e-001
      2.6901403921449855e-002 1.8003211420569784e-001
      -2.1787109251083345e-001 1.9359564884779110e-002
      8.3385329870451039e-002 -9.1657767019916597e-002
      -1.6287652415952725e-001 -2.9580786068920151e-001
      4.1502095105619091e-001 -2.6050695123311268e-001
      -2.8096164913667154e-001 7.9971015370799592e-002
      -3.0970648025171743e-001 6.2367412088073892e-002
      -7.0765572133730814e-001 -3.4529983117938333e-002
      -1.7318343441370557e-001 -4.1439362275649838e-001
      1.2453816926196884e-002 -2.7315907616212776e-001
      -6.2608628095161767e-002 2.4693849350233367e-002
      -4.1475035107815150e-001 1.7045115614251494e-001
      -4.7303291560803212e-001 -5.3609773699439785e-003
      4.9234457032597982e-002 2.3576818021041021e-001
      1.8735211979559815e-001 -1.6061420104561736e-001
      9.8191583740291896e-002 -7.3810925211709691e-002
      1.0882926407320351e-001 1.3380733332079400e-001
      3.6802739626865411e-001 -5.4187007293270339e-001
      4.6218847331290769e-001 1.0390064052346420e-001
      -5.8714887683491013e-001 2.6958256575802320e-001
      1.4389999803968762e-001 -2.1952859225296918e-002
      -2.5528446274304345e-001 -8.2316251144301689e-002
      -5.4223414017380389e-001 2.0867050245314772e-001
      -1.2961989624569506e-001 1.9594393955486228e-001
      -8.4836630452795159e-002 1.3196816961127789e-001
      3.8669339140771891e-002 -1.0157569464976235e-001
      3.4313006186533646e-001 -1.1386438487426671e-001
      5.4356584919973794e-001 3.6579482256088347e-001
      -3.3182831712658667e-001 -1.4510245327376900e-001
      9.4838890147122087e-002 4.8966408630053068e-003
      2.5468179129785179e-001 3.4655050240812507e-001
      6.4864885228380753e-001 -3.3358547158212848e-001
      9.8655756319205173e-002 2.3494508223635023e-003
      1.6499875436276731e-002 2.7293711583155369e-002
      2.0294973689610663e-001 1.1819084791974294e-001
      -2.2466364691074939e-002 -4.9573904966749696e-002
      2.0385992988177757e-002 -3.1815928863933349e-002
      1.1535154858349038e-001 2.0245345658422469e-003
      -7.2206983975283082e-003 -2.1033915258493233e-001
      -3.9819229861696760e-002 -2.0355818665322861e-001
      -8.1188855704854801e-001 -3.1942836265356538e-002
      1.8077320194874308e-001 -3.2835961142082087e-001
      -1.6890745570812521e-001 -3.4200043017495380e-002
      6.9989822983168137e-002 -1.6573581724253930e-001
      -5.1096894369452766e-003 -1.1259997418070974e-002
      3.9014113101611148e-001 4.8522827142769925e-002
      3.1759703697623221e-001 -1.0016348311356085e-001
      -4.3498572527934709e-002 4.2102583179641934e-001
      1.1530335466334650e-003 2.4208158799292334e-001
      -2.5482948670132459e+000 -4.4825410143206840e-001
      3.0338516344301769e-001 -1.0877036717014256e-001
      -1.4948824155938903e-001 -1.2920051047492481e-001
      4.9238478357059141e-002 -1.2206765907827813e-002
      5.7008979764022999e-002 -2.6991187767012043e-001
      3.3002818317465096e-004 -1.3073146210093115e-001
      -2.7912379496797357e-001 -2.9438029505730606e-001
      -1.4716527010708019e-001 1.1399181607971788e-001
      3.9747333082395125e-001 -7.4450666044080488e-002
      2.1256325766658973e-001 -4.8961915595279482e-001
      -1.2766537342867965e-001 -5.1258065763723015e-001
      -9.4185514800891074e-002 -8.8379434764064832e-002
      -1.5671247358409091e-001 -2.6047502237186236e-002
      -5.5885828661043375e-003 4.3758259724989812e-001
      7.4655007918970701e-002 -1.9578288774463475e-002
      8.9121960886857005e-002 1.2475962053629131e-002
      3.1542827954491752e-002 -3.8947551556006453e-002
      2.3692690231916880e-001 -1.5586526156135108e-001
      5.2520455168843710e-002 -4.1416326810627249e-002
      9.2050858791514131e-002 -1.1738498201522229e-001
      1.8798003112283385e-001 -4.6455153401607115e-002
      -1.2511058998702315e-001 -1.2154512896770889e-001
      -3.9982336958839859e-001 1.1657149171489703e-001
      5.6766319699289476e-002 -4.8583829399530143e-001
      -2.5584066036321695e-001 -1.6138633327764870e-001
      -2.1315458038665822e-001 1.6155845588425957e-001
      -6.4566215392476400e-001 4.0749695858314068e-002
      2.1657295714153481e-003 -1.2968247463126942e-002
      6.4141730835047969e-002 -1.2598016547115767e-001
      1.5435563524324711e-001 1.8323373864057557e-001
      1.3594662879215350e-001 -7.0300404396194061e-002
      1.7645268790209831e-001 9.6887394367323691e-003
      2.4366683503618530e-001 -2.4123867001960778e-001
      2.7465055866204569e-001 -2.6024050178156698e-002
      -4.1173282635824981e-001 8.0372656479628476e-002
      -1.4563772873372424e-001 -8.2219616739147683e-002
      -2.2135872276294760e-001 -1.1968200620002466e-001
      -3.2858893798592242e-001 3.1247897854684231e-001
      -1.7921963304584679e-001 5.7742988430939925e-002
      1.5477195884797829e-001 1.0881296245373887e-001
      -1.6386063678015847e-001 -5.3030732984649012e-002
      3.6646377410952635e-001 2.5907275798827324e-002
      1.0527440250301132e-001 2.3888427314620828e-001
      -1.1491417396319800e-001 -6.7772567479804757e-002
      -2.2896264382036943e-002 -7.9190433194377286e-003
      -1.1772157069458965e-001 1.3089351753366231e-002
      5.0846969288372412e-001 -4.2658946159361721e-001
      1.8571195567882318e-001 6.2525425883865242e-003
      -7.3180150165650434e-003 -8.1901456973935041e-002
      1.4383872603469294e-001 4.0990896798321824e-002
      -1.0657394518748745e-001 3.1692993029404259e-002
      -3.5489499416320187e-002 1.2203574690851869e-001
      -8.3877196863046871e-002 -4.3263552492688886e-002
      2.1688413369406290e-001 -5.6615450979599483e-002
      -4.9565578003860168e-002 -1.0371700684633438e-001
      -3.8527658153832539e-001 -1.9204093930568114e-001
      6.7605735482340196e-002 -1.6527973019399311e-001
      2.5738857252264008e-003 -5.4092378079781865e-002
      -1.0208159588345785e-001 -1.0852633769755458e-001
      -2.2292872303955227e-001 -6.7802464595488499e-002
      9.2027615030963641e-002 6.6522889239303759e-002
      5.9954570687831756e-002 -4.3646147734224497e-002
      5.0125019869557162e-002 5.1861480396421511e-001
      -1.9596711012931846e-002 1.3101518610047969e-001
      -2.4867659466111545e+000 -2.1116329232597691e-001
      5.6867822347686177e-002 5.7997443254397062e-002
      7.3859542205247444e-002 1.9702538327981720e-001
      -3.7041879298513644e-002 7.1944096480729301e-003
      2.9328098074257436e-003 2.9312130673574560e-001
      -1.5979124024384325e-001 -1.0849555912001614e-001
      4.0363326749454226e-002 -1.3037832779186115e-001
      -4.2029732377422307e-001 1.3183798519060418e-002
      9.0160148776593244e-002 -9.2208650480682081e-002
      4.0480443240016051e-001 -4.2485677234574437e-001
      1.1743923912367178e-002 3.0520907313335238e-001
      8.4481450181564527e-002 1.4754117330895067e-001
      9.7257044015786900e-002 -1.4109007487673639e-001
      -2.1033092488144697e-001 -2.0820046923287797e-001
      5.2588357705071045e-002 -1.5539861311566019e-001
      -3.4442379951018773e-002 -3.6930382398471247e-002
      1.1978026586036819e-001 -6.3195437918123223e-002
      -1.7210861210692671e-001 -8.0357498370353428e-002
      3.5279308832369440e-002 4.4617070860037511e-001
      -2.6148597839042220e-001 -2.2838399164063380e-002
      2.7301020639764528e-001 -2.2906971766244108e-001
      4.4633459874753832e-002 -2.7974498733207929e-002
      1.4159337645546216e-001 -1.2913857152149865e-002
      -4.7668763892430695e-002 -1.0275045449033737e-001
      -5.6441369037547949e-002 4.7372179150358996e-002
      -1.7817274385317741e-001 1.4788953342559594e-001
      -3.2757563565105730e-001 8.3934582350304626e-002
      4.5623327339283754e-001 -3.7025092175262241e-003
      -4.2465573964578431e-002 -4.5434204033496434e-002
      1.4638187162341904e-001 2.1788513261308742e-001
      9.6948146340890370e-002 -1.7870317186745491e-001
      1.2028692853078801e-001 -2.4643216586570377e-001
      -2.7454845051991722e-001 3.0227398479870971e-001
      4.1753640562087926e-002 2.8887164006447370e-002
      -1.3820097948157628e-001 3.8267448446432623e-002
      -1.9163806887954324e-001 -1.9268300244826100e-001
      -6.4017349209563951e-002 5.4299600933348992e-002
      3.7940761660883354e-001 1.3662638661484630e-001
      5.8011130217436341e-002 -1.2867763028510644e-002
      1.3690645457379705e-001 1.6752427579423324e-001
      -3.2449572870865262e-001 2.9514009153406295e-002
      3.2112796019776174e-001 2.9319161647341767e-002
      -1.0943149011365759e-001 1.4419752682408296e-001
      -2.7155165251046665e-001 3.0973352500068568e-001
      -5.7008290246811116e-002 -1.6726183062295327e-001
      1.1684991694257204e-002 2.1838564977753749e-001
      3.2344428811029102e-001 1.9962108269019249e-001
      1.4676628392664454e-001 2.4003667136949388e-003
      2.2402445280682717e-002 -5.8870235221661314e-002
      -7.1358832919450041e-002 2.6983862987424062e-001
      -6.9179821923544896e-002 4.0147620192209632e-002
      -3.6913328524809545e-002 -1.4084321118770010e-002
      6.2231937487560229e-002 -1.3349466452450906e-002
      -1.0898402847333692e-001 -1.4345329163192697e-001
      6.1873266560217896e-002 1.8881466433771168e-002
      -1.6623975805301031e-001 2.1633079239871450e-001
      -9.4092447196011633e-002 -3.5911725192078164e-002
      5.8681349290974086e-002 5.4114991533545466e-002
      -9.2644612983776464e-002 3.3198114915923083e-001
      -4.1008818190992967e-002 -9.3907728171303606e-002
      -2.5212642965678295e-001 -8.8001786562918571e-002
      2.3017166844099832e-001 1.2643151246171350e-001
      -1.3310730705453407e-004 6.8525464545846862e-002
      -8.9171163426425185e-002 -7.2420425049264436e-002
      -1.5363037381949536e+000 -5.4861541560048988e-001
      5.5597737862057905e-001 -2.4344084201518856e-002
      2.3305352972463242e-001 -4.1199514267975501e-001
      3.1382003012209947e-002 -1.1213561294582744e-001
      3.0628843130141258e-002 -7.4482739199465048e-002
      -5.9911969939577724e-002 -1.6449601621090298e-001
      -2.8197363026649924e-001 -7.6331501988182934e-002
      -1.8219366249587790e-001 2.1568799127826270e-002
      5.5659351978344207e-001 -7.4767560644029965e-002
      -6.7956859587765511e-002 -3.3410730011573582e-002
      5.7026986483555211e-002 -4.4082383936375585e-001
      -7.3281931294916502e-002 1.0668216725654586e-001
      -1.2061516382518103e-003 -2.8810930698779508e-001
      9.8929332310367601e-002 1.2545860985489199e-001
      5.9033774659632769e-002 6.8509442022941971e-002
      3.5890217250074366e-002 -2.0390380793739385e-001
      2.3820079377507802e-001 4.0275811555055628e-002
      2.0216343110831236e-001 -1.3324884215471211e-001
      -5.6624877961004558e-002 1.6479221824838086e-001
      -1.4371334143362097e-001 2.5931105382950789e-002
      2.0338827168791709e-001 -9.9332223088585872e-002
      -2.2766891941646175e-001 -4.6280122838168163e-003
      -2.6876600612124796e-001 -6.1218716088246652e-002
      1.5444542791252414e-001 -1.9660002556023073e-001
      -1.5063063996390294e-001 -1.2270844921829021e-002
      3.5900968520351662e-001 2.3611225655514936e-001
      -6.2918206782888508e-001 4.8203736890735183e-001
      -1.0541836800374579e-001 -7.8020575713402304e-002
      3.1155038696738833e-002 5.5183813859240052e-002
      1.1850507956123912e-001 -1.0275673603711255e-001
      8.1480570851665171e-002 2.5427600635689794e-002
      4.1454219907567168e-002 9.6010113557568180e-002
      -1.7031715360562000e-001 -2.6915689692713404e-002
      -3.1686988193652357e-002 -1.2460280105231886e-001
      -5.2182973041089251e-002 2.4301020701579615e-001
      5.0534082246704848e-001 1.5078061203239986e-002
      6.0708291729809502e-002 -1.3276927528450269e-001
      -1.4381270879384933e-001 1.5838453652847848e-001
      7.7831515399834073e-002 -1.4415466433652804e-001
      1.4775709246364441e-001 9.0903727105068458e-002
      3.7716787664591585e-002 4.8686472766741547e-002
      5.1963936355625728e-001 3.8856583355674268e-002
      -7.0175526806508681e-002 1.0036082573326038e-001
      -6.5277379579416706e-001 -6.7807536408485440e-003
      -1.2059951363999820e-001 -1.5922348117886842e-001
      2.2709414623755067e-001 -3.6564656536877300e-002
      4.7171356610809301e-001 1.6395747031977045e-001
      5.2816877053537284e-002 -4.9444838127736271e-002
      -6.2676545412286514e-003 -7.5387012914147372e-002
      1.3935641315746773e-002 -1.2158059871590843e-001
      -6.9257497529087345e-002 -5.5813358559775310e-002
      -7.4069413886058061e-002 3.1458753076062052e-002
      -4.2517789534606519e-003 -5.8951136564655435e-002
      3.7884699322414922e-001 1.5295157107591420e-001
      -2.1886789071621154e-002 6.1874088288118058e-002
      -1.0123382788702251e+000 -2.3221317558331789e-002
      3.2979669822164048e-002 -8.8659967478366811e-002
      -1.8733120363369455e-002 -3.8643205893104320e-002
      3.1109245164125815e-001 -1.3656270693627393e-001
      -8.0982614129552016e-002 -1.8171291445821951e-002
      -1.3418907538297545e-001 5.1475025357676840e-002
      7.7876349608564666e-001 1.6289795598563098e-001
      -1.3698917400907765e-001 6.9399752767295680e-002
      1.0868265210865511e-002 -3.2457181728965623e-001
      -1.7971041907785912e+000 1.7111262445735839e-001
      2.7885339993369279e-001 1.6512839487301298e-002
      2.9771177639426349e-001 -1.5805056839421402e-002
      -2.8834985240969786e-002 2.3552685147629863e-003
      -3.4368913060576697e-003 3.6390859486094873e-001
      -2.4511282603180562e-001 -8.6349689177000227e-002
      2.4940992882347807e-001 5.9767211694789310e-002
      -4.8532383013364128e-001 2.8677541354904176e-002
      -2.4220701915939110e-002 -5.6342432614187483e-002
      -5.5968866948677837e-002 -8.9643061810316130e-002
      -6.8679528202987172e-002 -6.4985399225914023e-002
      1.7639586216573807e-003 -4.0494311821342173e-002
      9.8851459081623454e-003 -2.0900255741399595e-001
      -2.7394594402786104e-001 -5.6267952504564422e-001
      1.9098608015487403e-002 6.5638702410543245e-002
      -5.9383756581079174e-002 -1.7553463719903503e-001
      -1.1964763669055675e-001 1.5239084778089343e-001
      -4.3041843534892299e-001 -1.2828458043917185e-001
      -2.6657825610607605e-001 3.0173175686531228e-001
      8.5261842533734984e-003 2.6478252952876435e-001
      6.3366427052269289e-002 -2.0089236020643694e-001
      -9.6493370001664830e-002 2.1647625554897612e-001
      3.1280411519552759e-001 -1.1481513906894279e-001
      -2.3014023963879700e-002 -8.8133474832489248e-002
      1.2167013868884922e-001 5.0937650541317957e-002
      3.5552288735843235e-001 2.2769412364408323e-001
      3.7289699403331938e-001 -1.6728787072444187e-001
      5.3097300466325222e-002 -5.7971227068034148e-002
      -4.1450868856863381e-002 1.0251745692539317e-001
      -7.7549218655343005e-002 -4.8647093498304039e-002
      5.1068902294929865e-002 -1.7822770223413406e-001
      -2.0595996601662844e-001 -1.5383570355215598e-001
      -1.3102478186346224e-002 3.3865455113385884e-001
      -2.1240933003983101e-001 -2.7060461843445166e-001
      1.5833537571832490e-001 3.1917756566292130e-002
      4.8905865521492023e-002 8.0622868800644079e-002
      1.9760412892476159e-001 -3.7164030553421858e-002
      4.0893408382668983e-001 -2.1699641399286547e-002
      1.9149766679264432e-001 -3.4667098935843804e-001
      2.1492911075276216e-002 2.2665865915143141e-001
      -1.3448714803745554e-001 -9.9393139891860924e-002
      -3.4216355820537325e-001 2.1763005511207562e-001
      -2.0282685667588796e-001 7.3518342925462943e-002
      -7.1093311541779725e-002 1.3166158201975175e-002
      -6.7683284883388664e-002 -2.2333086157390165e-002
      3.2909673993843036e-001 8.2255087601479732e-002
      -2.9529580763348690e-001 -2.3526814202677176e-001
      7.0582804068034938e-002 -6.3249358992291324e-002
      5.9911668156885818e-002 -2.4668403408750247e-001
      -1.3739345522970731e-001 -3.0897388874745457e-001
      -7.4411352203945375e-002 -5.8607775063678896e-002
      -5.8130894820868726e-003 1.7326791689002221e-002
      3.4228089509607057e-001 9.2934051859550559e-002
      2.6321068192516839e-001 -1.5502925361195527e-001
      -5.2025718421844967e-002 -1.3031584083564498e-003
      -5.4489054880758947e-002 7.1263889671101407e-002
      -2.0274265624922821e-002 1.0658207478930333e-001
      -2.0231172298725025e-001 4.2491185699286053e-002
      -9.8321627998512098e-003 -2.9550039686369967e-001
      -4.0146068976655271e-002 -3.1555472225016420e-003
      -1.5549599010801204e-001 -3.9974430690514311e-002
      5.3381881192681213e-001 1.7013096509577033e-001
      -2.4643124038044881e-001 4.3029782078913298e-001
      -6.7591306524228387e-002 2.0847988710117335e-001
      -2.4767189029703456e+000 2.9111192569038165e-002
      1.7026310211496851e-001 2.3141004045272494e-002
      2.5822238499029804e-001 -2.2667286488356891e-001
      2.1889934646157721e-002 -1.5361390402763303e-001
      -3.9561886121554160e-002 7.9147089611820085e-002
      -1.4449604411073416e-001 -8.9293983908649444e-003
      5.3645462203836168e-002 3.1552783027457559e-001
      -3.7375349251968316e-002 1.4347479183569368e-002
      2.2327234962116921e-001 5.1180809413316215e-002
      -4.1036238827522803e-001 -2.9505011750268633e-002
      -3.0718297620991555e-002 -8.3782608400450986e-002
      -1.3076392418672278e-002 -5.4679691808839144e-002
      3.7652263295651101e-001 -1.0283229026895309e-001
      -6.8560186216607116e-002 -8.4852635528968323e-002
      -1.3746989451375907e-002 -3.9853385369256054e-002
      -7.8152696828708929e-002 -3.2931144340309942e-002
      1.2895090503243245e-001 -3.5298585090757693e-002
      -1.3159119640461497e-002 -8.8710502958219639e-002
      -3.4921137610906805e-001 1.5202906153249934e-001
      -8.4496608391143244e-002 3.4485033770148132e-001
      1.3337480225835102e-001 -1.8332581920768662e-001
      -6.3419201747765596e-003 4.4074256976151124e-002
      5.1459067306079444e-002 -5.1172273689449911e-003
      3.7343547773607594e-001 -8.8928188215831303e-002
      4.8169508228610103e-002 2.2814596120514785e-002
      7.0542075095863932e-001 1.8544023803037321e-001
      1.6625871569765172e-001 2.5380261781150731e-001
      -1.7746912937352763e-001 -3.9916837071957340e-002
      -6.0489143752248425e-002 5.2000749621028020e-002
      -1.9972717228596368e-001 -8.3804526843998958e-002
      -2.1933026462839862e-003 2.1842614366909655e-001
      -1.7849160524155830e-001 1.9605654610757098e-001
      -3.2561466912967081e-002 5.9816736625598013e-002
      -3.4460866012452518e-001 -1.8887850359373112e-001
      1.2689277531494447e-001 -8.6796962646092074e-002
      3.3440751787696632e-001 1.4868435069523327e-002
      1.8242443724047827e-001 -4.9964291887496889e-002
      5.4360834127291424e-002 1.5172041324080282e-001
      1.0196333514760697e-001 -3.6546885149023106e-001
      -4.4095992148329523e-002 3.9957125049738396e-001
      -1.1693474863691643e-002 -2.4635478837587543e-001
      -3.2759051113195596e-002 7.0220328550756037e-002
      -6.1015072089631285e-002 1.0579161108716544e-001
      -3.9148507879009437e-001 -1.0509403152542819e-001
      -8.2325429120173474e-002 -1.6915528187148546e-001
      3.4365006086455513e-002 -2.1460447709111408e-001
      -1.4086862395279293e-001 -1.1480656601844136e-001
      6.3265877769709170e-002 5.3803439355392814e-002
      5.6803774862381723e-002 -9.9897023086332318e-002
      -1.1871374855686326e-001 -3.0515325250214104e-001
      3.2749299380025847e-002 1.3380565441331909e-002
      5.3238600916011389e-002 2.4686278457159757e-002
      8.2263151966028278e-002 1.4728973691523195e-001
      4.9474126204407276e-001 -1.9141904206401564e-002
      3.6406532053365047e-002 -1.5072116714528649e-001
      -1.5351510000354981e-001 -2.8890231842712055e-001
      -1.4195300959045972e-002 1.3528200924595116e-001
      -3.9561847736636718e-001 5.1476049799090470e-002
      7.3580817003093504e-002 -3.4297622194684779e-001
      -7.5726639257721023e-002 -4.2521353805209820e-002
      -6.1207714789888380e-002 -3.4035990807230937e-002
      4.7226040253170715e-001 -1.8281527350354338e-002
      -1.1907563444651723e-001 4.2568751941050897e-001
      -3.3445250259969694e-002 1.9632802511529258e-002
      -1.6752156797099369e+000 -9.0646142341834230e-003
      1.7763586583703245e-001 2.1604333713636528e-002
      4.6105636999899235e-001 -2.5437580120829345e-001
      -1.0530186486406613e-001 -9.1929354663167498e-002
      -2.2151647399447295e-002 1.3519497829553237e-001
      -2.6409433244181957e-001 -1.3352580911083885e-002
      -2.0306390197987664e-001 3.4870258782163122e-001
      -1.4631222966447899e-001 6.2750781827850530e-002
      1.3230264912227382e-001 2.5575520152884966e-002
      -8.0797968888555574e-002 -2.2178630063026852e-001
      -2.0672715255821802e-001 -2.3992309833916634e-001
      4.5650453303949866e-002 -1.9487070154648414e-002
      2.7599391071603657e-001 -6.7947876683727912e-002
      -1.4791125161249230e-001 -2.6428771244183485e-001
      -3.8255859321980664e-003 -1.4941209666603766e-001
      -9.3174402770058187e-002 -5.2080153260099359e-003
      2.8092933456699980e-002 2.5497671472547434e-001
      2.5389302835572294e-002 -5.9945772986881043e-002
      -2.0068436537820472e-001 7.0244414442558148e-002
      -2.3832665819352550e-003 1.2866064472997388e-001
      1.0633977335082173e-001 -3.8315770921895131e-001
      5.0831618525004542e-002 2.0260579639484783e-001
      -5.8240035897834615e-002 2.7557945818080909e-001
      5.0489293960393075e-002 -7.0081758297651911e-002
      7.7885407110874424e-002 -9.1971484236412895e-002
      5.6163541480060986e-001 1.4849687213220172e-001
      2.7204502051022600e-001 2.1379199537201291e-001
      2.1584542564569065e-001 -5.5279338976809915e-002
      -3.2996210477282788e-003 8.1665766904716136e-002
      -2.6651541627143877e-001 -2.0914376676869437e-002
      2.6816957926979707e-002 -1.0655058436388340e-001
      -1.6700755890074045e-001 2.9394227602974393e-003
      -7.9681662378585344e-002 2.5095281181428591e-001
      -3.0873715043760591e-001 -2.1702252229231286e-001
      1.4464498327903233e-001 6.2627065338258722e-002
      3.1547193861051248e-001 -1.5940714133025469e-001
      2.9628018168486131e-001 6.2186530731706533e-004
      1.5674297236169160e-001 1.6855121343042070e-001
      -5.3397955260469164e-002 -4.0271098207198641e-001
      8.0500469608669675e-002 4.4518648950106765e-001
      -4.6204651036718329e-002 -2.1930799236008941e-001
      -3.2927588371581856e-001 -3.8913003216341779e-002
      -1.3606106246877031e-001 3.1884403633304852e-002
      -3.9866867872249556e-001 -4.1090725269081772e-002
      -1.5256968469103956e-002 -6.1590490536066349e-002
      2.7994677595363782e-001 7.6486471220274549e-002
      -4.0903651838840469e-002 -1.2455405327031621e-001
      7.0293517757218801e-002 8.0409031400524897e-002
      9.3045896330723701e-002 -3.0662238105136463e-002
      -9.2619656585848628e-002 -1.4395299803131736e-001
      7.7162191131162447e-002 1.2061884456832915e-002
      3.9599740793194636e-002 2.4485034811028619e-002
      -3.0168117884004891e-002 1.2107928502489583e-001
      3.2291655517159973e-001 4.2016229768177968e-002
      9.2629107227719470e-002 -1.4977605825675636e-001
      -3.5170632495774284e-001 1.2108291484547735e-001
      -1.0912227170338148e-001 3.4663876748245737e-001
      -2.7607508543987858e-001 -9.6010463150261096e-003
      5.8419657243359097e-002 -2.1332891131211781e-001
      -9.0142624716973360e-002 -5.4880582906405663e-002
      -6.9662753047103065e-002 -1.1734176189876606e-002
      6.7825529091901338e-001 -1.2138147486023849e-003
      -8.6736628331043633e-002 2.8578089583695471e-001
      -9.8248840611321137e-002 1.1424369510838282e-001
      -7.5976321723245510e-001 9.7516825241270338e-002
      -2.9333808465639283e-001 3.7331880004752079e-002
      3.1581903582095888e-001 2.5600464643463167e-001
      -4.7225983109673880e-001 6.8597843468784198e-002
      9.6751675646814337e-003 2.7463846359202182e-001
      -1.5547326853586879e-001 4.2014788795865399e-002
      2.1841409812533152e-001 1.2299464239848742e-001
      -2.7359240045336841e-001 5.9536959373301952e-002
      9.8218575946958819e-002 -5.2059150876410894e-002
      7.4373643941652259e-002 -2.6511173920960091e-001
      -1.1130973361738947e-001 1.3232920949063748e-001
      8.5407463712511261e-002 -1.1571387514852084e-001
      -2.3387273681060902e-001 -8.3272701111283584e-002
      -4.3861750744717876e-001 -5.6175540804418822e-001
      1.0238757905185487e-001 -4.8674115283785729e-001
      -1.1210440521797831e-001 2.0412652729211101e-002
      -6.0861989017659907e-002 -1.0515213797099658e-001
      -2.4906754160378425e-001 -6.8870676824322255e-002
      -3.8486274587019825e-001 3.7943479290677179e-001
      -1.8193058089055011e-001 -1.4786840577065355e-002
      1.4642777217033121e-001 -5.4521239057995663e-001
      1.2453890564542226e-001 1.0574520704870723e-001
      1.0454621308404245e-001 2.4547383865560876e-001
      -2.9231576514282814e-001 -2.8188760348642216e-002
      -6.8233227876944415e-003 4.6982768533006848e-003
      -5.3145298979896262e-002 1.7029441231123205e-001
      2.4211004808279038e-001 1.7634389315114721e-001
      2.0048405904820249e-001 -7.6057370550029285e-002
      -1.9165461488643069e-002 -6.9482376414962480e-002
      4.6633359070774177e-002 2.0641194938726565e-001
      8.3192877365134796e-002 -7.6390394628251396e-002
      -2.7577187839132940e-002 -1.9578556495115224e-001
      -4.3023180610593786e-001 2.1456743428715364e-001
      1.5523815989273671e-002 -1.3953036186604290e-001
      3.4552117468246218e-001 -1.0073706845291495e-001
      -2.3941721350408665e-001 -1.1038170737760140e-001
      1.0632285177249227e-002 1.2082043408041418e-001
      3.4079684854750164e-001 1.0627127984794095e-001
      -5.8962161583879090e-002 -2.0886625865697245e-001
      1.5126678531152396e-001 6.0623147547319811e-001
      5.0082220058493186e-002 -4.1114616769339596e-001
      -4.1076649641284180e-001 3.6255025205945979e-002
      -3.9342832909919878e-001 1.2554257645313213e-001
      -1.1310502799438302e-001 -1.0815923497458482e-002
      -2.4863216610071383e-002 -4.4819667875139226e-002
      3.7031900055342631e-001 1.7392022775114852e-001
      -1.8102323606263171e-001 -1.8096317770614646e-002
      1.3574009491962299e-001 -1.3560055491662339e-003
      1.4611356880430215e-001 -8.2587603180431290e-002
      -8.3279580696723657e-002 1.8741425572561698e-001
      1.1096906808111397e-002 1.0292021038046680e-001
      -1.8391200116725376e-002 5.2207404657054451e-002
      1.7900474596833144e-001 4.6967589358900400e-002
      1.1708296744198286e-001 6.7437861082594794e-002
      1.0654349401211491e-001 3.2990621954124520e-002
      7.8683648240837581e-002 2.0554817440048634e-001
      -1.1306036697093762e-001 2.1243900770847274e-001
      -3.2420499551882020e-001 4.7494059073826325e-002
      -1.6594582256021095e-001 1.2073427547353126e-001
      -1.8229252605151569e-002 -2.5008997776725445e-001
      -3.2749492314601741e-001 -3.7801561675171513e-002
      1.3444527430405112e-001 9.9397712461525858e-002
      3.5588313199336086e-002 -6.5853055714878692e-002
      -9.5311879173495720e-002 2.9689813215135707e-001
      -2.9078425283747817e+000 -1.6046856194948808e-001
      1.2800783408197092e-001 1.2182604555613660e-001
      -6.8868871225454334e-002 -1.0666960937953233e-001
      2.5609470870407380e-001 -1.7914877891351974e-001
      -4.1935373163902362e-002 -6.8833537738843176e-001
      -8.7693186503088771e-002 1.5879460956280591e-002
      5.7887989809686631e-002 -1.3723780364506158e-001
      2.7893515287335702e-001 2.9738143685762528e-002
      3.4743984054984306e-001 -9.7702763820521534e-003
      2.6508408124927396e-001 -2.3354959550841348e-001
      4.8474403883380407e-001 -4.1237902730238901e-001
      -1.2473819356124216e-001 -1.9946300684598545e-001
      -9.7618590564867685e-002 6.6230038273522196e-002
      4.6727528357002418e-002 2.3728333165542090e-001
      2.8403424725758682e-002 1.3681112054527806e-002
      5.3098027163896770e-002 1.5433305019481744e-001
      1.9926057756109394e-001 -1.4313608646431563e-002
      1.6066155162767848e-001 -4.4342942801338971e-003
      -3.5927363161221837e-001 -3.4185230158226637e-002
      1.5619315992440908e-001 -2.6181390118055053e-001
      1.4098640854775504e-001 -9.6573774213557534e-002
      1.7043571703634186e-002 -6.2189155904628479e-002
      -3.0694761104377205e-001 1.6370582054181189e-002
      2.4324170251948518e-001 -2.5302068265965372e-001
      -1.4811216063560656e-001 -6.6055003880877206e-002
      3.9384281720906161e-002 6.0077841497440027e-002
      1.9171429568042707e-002 6.9625519284843040e-001
      5.4015960941809639e-002 -2.0579128092671033e-002
      -8.5927528886335890e-003 8.4621649024338400e-002
      2.3778114990217863e-001 -1.5196782642300694e-001
      6.3494644328935701e-002 1.7047846831801863e-001
      2.5818364949703132e-001 4.7174977331372303e-001
      1.9539702739715062e-001 -2.4410500777876354e-001
      3.0858117686844627e-001 1.6204390260149370e-002
      -1.3820671870384485e-001 2.0246572074557131e-001
      1.3980218345872869e-001 -2.2493786749860867e-001
      -2.1267919479765190e-001 -9.5580893531705555e-002
      -3.0823202857581078e-001 4.3384856095434604e-001
      -5.3121403824264099e-002 1.0357098155513347e-002
      7.7347579397109470e-002 -3.0632483186470372e-002
      1.2600537713075355e-001 1.2818486739273907e-001
      4.7913821038943150e-002 -4.3306005173857132e-002
      6.1018846704981249e-002 1.8171679252650866e-001
      -5.4552264672334483e-001 -1.6655565078585258e-001
      1.4637176434096044e-001 4.2653354375110447e-002
      -1.1912246099830193e-001 2.2738241803628903e-001
      -4.4574943638129388e-002 -4.0743060091516425e-001
      1.7665462330215248e-001 8.1190673695400617e-002
      -9.7694591408465595e-003 -3.9851339464659644e-002
      1.4476440913037242e-001 -9.3890911236187591e-002
      2.5350192871357539e-002 1.4450300707606487e-001
      4.5662869874115317e-002 -5.1841909914117121e-002
      -2.3841773425492976e-001 -2.0913073132215504e-001
      5.2661746430601242e-001 4.3852738335963870e-002
      -1.2005413261601306e-002 -1.3413689925622174e-001
      -9.4783004609978030e-002 -2.7501669703518966e-001
      1.8746616748066398e-002 -5.5961692108218430e-001
      -1.4914804948814583e-001 2.2128858635754235e-002
      1.4036749829947837e-001 -5.3133088163771922e-002
      -1.1422900915866643e-001 -4.0680882373078930e-003
      7.0955074775302149e-002 8.4775294379439599e-003
      3.9100683954390014e-001 -3.4374973261845965e-002
      1.2385088093402126e-001 -2.9901549435099867e-001
      6.2346005415038042e-002 -2.2796260619982825e-001
      -2.5294234146529213e+000 6.2105645148024941e-003
      6.2445730864685661e-002 2.7682654618686221e-002
      6.2597465613790162e-003 -6.1793632087502402e-002
      -8.3497356076889157e-002 -2.3879111788259613e-001
      -7.4633159363043100e-002 -1.6901724062142937e-001
      -1.0131501669899386e-001 4.5186702195024542e-003
      2.6003182498618338e-001 -1.5028537518540153e-001
      1.9839369184569580e-001 7.4612550028514057e-003
      1.3159004528731671e-001 7.5276046354303641e-002
      3.7712797280185462e-001 -1.6466350605388308e-001
      2.5466773872711440e-001 -3.0480822356008985e-001
      -9.9439377413973712e-002 -1.4576661509038522e-001
      -5.7562145659425704e-002 1.6947837158818463e-001
      -2.6058438156476869e-002 1.7325600401449562e-001
      -2.9255692255909509e-002 2.1077576366262943e-001
      1.1554219171242613e-001 1.9053106406399231e-001
      1.4206208301648005e-001 3.6404186607886385e-002
      2.7795240090601753e-001 4.2009297822129636e-002
      1.9365795577677217e-001 5.7120647001500824e-002
      -2.2138174382241273e-002 -2.7299338947610552e-001
      -3.4488234324411539e-002 -9.8038636471599314e-002
      3.3781702688402561e-002 -9.0605101778192351e-002
      -1.0360194322733554e-001 -2.5231479640301230e-001
      2.9839468485340487e-001 1.6239536290794285e-001
      -3.2094630401802729e-002 5.6285471855431798e-002
      -5.8106082502044250e-002 7.1098372369825377e-003
      -3.6080039785267262e-002 6.1454370578833251e-001
      2.0576542975329060e-001 4.7462278922871068e-002
      -3.8734202753570729e-002 1.7000151258137317e-001
      1.6506503233494940e-001 2.4566376462754863e-001
      3.5422800923918953e-002 2.7331302829677179e-001
      1.0725685343264882e-002 8.4420663182095623e-002
      1.6993205414896304e-001 -1.9468164031792298e-001
      1.9552324874618807e-001 2.4174669001802618e-001
      3.4375173581574860e-002 1.9759067798419827e-001
      4.1434314137191480e-002 -3.2064727487192113e-001
      -7.2129803637334053e-002 -7.1583901896244806e-002
      -2.4147366717410742e-002 4.5616479806966009e-001
      5.9748521983385469e-002 1.2689563421239053e-002
      2.6341199531231214e-002 1.4460364172668852e-001
      3.7539978285404979e-001 -8.0902009873414019e-002
      2.4177440147323040e-001 -1.1688110258820317e-001
      6.7058868986812792e-002 3.1244335494789549e-001
      -4.7283214465409901e-001 -2.5851650355046651e-001
      1.5201975535716045e-001 -8.6641374273254815e-002
      1.4591036401446184e-001 -4.0999804887658947e-002
      1.0838747272653788e-002 -4.8143285121261023e-002
      1.3368089683431969e-001 9.0518864418916212e-002
      -8.5209762574151193e-002 7.9645648919602186e-002
      3.1542392131728186e-002 7.2875346240135683e-002
      2.0634362839176999e-002 1.4401833900472677e-001
      8.8852746644401515e-002 -2.6672952458577204e-002
      -1.7295786010969610e-001 -1.2595634612539036e-001
      4.5461715156267207e-002 -3.0391034805060498e-002
      -1.5176147464100016e-002 -1.4553758671142697e-002
      -3.0377633993002043e-002 2.3350384378403954e-001
      5.9686628006178598e-002 -2.7963002744980543e-002
      -2.9798309357720698e-001 3.9760997592777091e-002
      -9.6763087733305539e-002 -2.0311573656682527e-002
      -3.3854445987198875e-003 -7.8984760417069241e-002
      -5.4675703338716561e-002 -3.6178925474930144e-002
      -2.9898738461811625e-001 -7.7585146480427483e-002
      8.8847195774866744e-002 -6.9842386754113750e-002
      9.9137194500698814e-002 5.5502225162781457e-002
      -3.6826008924423355e+000 2.6150879455154186e-001
      -2.3846939471226705e-002 1.3700723255363342e-001
      -3.1500325235969684e-001 -1.1414813540327645e-002
      9.4245580771266255e-002 1.0016873403874145e-001
      -4.6799501452973659e-002 1.9818132968668331e-001
      2.6646858080467933e-001 1.2127902598829345e-001
      1.7337488904406034e-001 -5.2335942702806959e-001
      2.9784337193732102e-001 -8.4423573898678647e-002
      2.7196684747839879e-002 1.9593879437912284e-001
      1.3529895253708379e-001 -6.5902326020961022e-002
      3.4539332575715154e-001 -3.4464947110156519e-001
      -2.8968693786840766e-002 4.0404455669573146e-002
      -7.0502187882652695e-002 1.8934962895928756e-001
      -5.6490913435097719e-002 -1.6466419430930183e-002
      -1.4646914019924093e-001 -1.6133873643203785e-002
      8.5843011644212916e-002 5.0082210028564300e-001
      -1.0558919095497414e-001 -9.6187723315190043e-002
      1.1812922969300649e-001 1.5186578910910167e-001
      1.1363037049370832e-001 -1.1641489391852707e-001
      -2.0939930095694556e-001 -3.9611863736340874e-001
      2.0903264758725257e-002 2.6104815783176655e-001
      -4.3079280742609249e-002 -4.4427875382110282e-001
      -1.6893794057864059e-001 1.0258940433081118e-001
      7.2678951497021371e-001 -3.6927016234039400e-001
      1.0789189624580141e-001 9.2521877116480702e-002
      -2.8988154164362195e-001 -6.0542920039683680e-002
      -1.0738571403797954e-001 4.1304397840932994e-001
      -5.8736894006681258e-002 3.1144640418380321e-002
      -9.6562964237654772e-002 1.1559432950429752e-001
      3.8837875028221069e-001 4.6294020843329431e-001
      -9.8298526598274316e-002 5.2722353101165520e-001
      1.6104047607988586e-001 -2.2736843985084285e-001
      -1.6482686157965280e-002 -1.6198226501398394e-001
      4.5836496557226525e-001 3.0468986565821410e-001
      2.3483568520386758e-002 -9.0341469314592845e-002
      -1.7248449710950120e-001 -2.9270126313453246e-002
      -2.4495759120887409e-001 -2.0043324027808434e-002
      2.9792500308643338e-001 1.3233197865112825e-001
      1.0883355483886559e-001 1.7165379627116506e-001
      -6.3631509329653377e-002 -1.3895789161160476e-002
      9.7170729411049206e-002 6.2881618589039928e-002
      3.0707141658757464e-001 -2.6487351289563721e-001
      1.3326355351750821e-001 5.8749559419370456e-001
      -1.9518815832404185e-001 -2.4570613936943750e-002
      1.6329089347616274e-001 -1.6679984854714705e-001
      2.1004024508740080e-001 -3.2125807289686936e-001
      -9.2743185159951981e-003 5.7307511552147014e-002
      1.0989106737419216e-001 1.4168059557543322e-001
      -1.5320313513973910e-001 1.6906452791793930e-001
      6.3617216734280849e-002 2.3418762906934615e-001
      9.9492973264688866e-002 2.9005750285932497e-001
      7.5916907953528609e-002 4.9820075652541561e-002
      9.5811097523823829e-002 -1.0411428168093441e-001
      -4.0275563245931839e-001 -1.1740764723186860e-001
      9.8591698008149830e-003 1.3597297783321577e-001
      4.5126670724071122e-001 4.0682619017396426e-001
      -3.5730129469224672e-002 -6.4123126587072499e-004
      -2.0988367185861220e-001 9.1723632057538668e-002
      -4.8727134367488928e-001 -1.8385338127554210e-001
      -2.6100816382666672e-002 1.5022958379500756e-001
      1.1963518289286400e-001 -7.7872990054322494e-002
      -3.2264045533665825e-001 -4.1469958978424176e-001
      3.4717049421696795e-002 -2.3299648013135065e-002
      4.0144276341048182e-002 2.8864636425198292e-001
      -3.5970603255391826e+000 9.6633423376505809e-002
      -2.5832457110802537e-001 1.6000912687499988e-001
      -7.9942759306068434e-001 1.0644457897771692e-001
      5.3988992546283965e-001 4.0399803236863520e-002
      -5.4170564956166574e-002 1.1940854813442116e-001
      2.0612735501207127e-001 1.4205758049350059e-001
      -5.8054400653544558e-002 -4.1949728051049268e-001
      3.8146534132890669e-001 -1.9391762639459680e-002
      1.3832825723235965e-003 1.0537899671997325e-001
      -2.1052091484811582e-002 2.7253673760525970e-001
      1.7002981930920658e-001 -2.1263235331695440e-001
      7.5710554079112119e-002 7.6657305130161529e-002
      -3.2590548802939512e-001 3.2337312969274550e-002
      1.2306402110942619e-001 -9.3385583955054571e-002
      -1.0618954377101546e-001 -2.4095882059553242e-001
      2.5087263081127586e-002 4.2956645512713443e-001
      1.7505143890891799e-002 1.0378263806796918e-001
      4.0047705999209565e-001 1.6921872947580796e-001
      6.1823444972046629e-002 -3.5297037044589424e-001
      -2.3161741894685683e-001 -4.0452755632208715e-001
      4.9568059223740482e-002 5.9403154049263518e-001
      -4.6084907134490760e-002 -2.7203785747024828e-001
      -3.1439623995893079e-001 4.7756700657205003e-001
      9.2382209467068621e-001 -5.0877917209187595e-001
      8.0122833569627197e-002 -5.9582693174703619e-002
      -3.9089781154245778e-001 -1.7377389581006281e-001
      -2.2511216817840556e-002 2.6225839879458229e-001
      -4.4267266956769141e-001 7.7831106875057232e-002
      -6.1982190680300642e-002 -3.1983708525495702e-002
      3.3178918066349833e-001 3.6374695633337129e-001
      -1.6006021947014248e-001 3.0850592967441143e-001
      1.0000097724095654e-001 2.0647229129149045e-001
      4.6939069963574005e-002 -1.1425070132127792e-001
      4.1916765116365273e-001 4.1474912859071139e-001
      -4.3774958353736665e-001 7.7885647549632824e-003
      -1.3921815397916307e-001 2.3274502522779966e-001
      -2.2372828840015421e-001 3.7599542478158873e-002
      8.0133924078353361e-002 -1.4202010495414269e-001
      4.0385278304981553e-001 6.5111839477356492e-001
      -1.3177915073996893e-001 -5.4444961688463589e-001
      3.0507498668244554e-001 8.3787397916231621e-001
      4.0853036119698255e-001 -1.3856837818758599e-001
      3.7074372587811638e-001 3.4908750302658886e-001
      2.7447785669477626e-001 -1.5751270649592947e-002
      -4.0080326892361576e-003 -7.6415619588943481e-002
      6.6998390293529511e-002 -3.0807794003710148e-001
      8.5210903953316958e-002 -2.6445948992266327e-001
      -6.4550811213936271e-002 4.7604848425795369e-002
      -2.3879758979056037e-001 1.6924096545162506e-001
      1.0791226929325205e-001 3.0329856168543895e-001
      7.6421106274878595e-002 2.4701429899603203e-001
      6.9225096615274581e-002 8.8373055708520665e-002
      4.5529975443875041e-002 -1.6345381977374955e-003
      -3.9575311860853130e-001 4.6893610707967395e-003
      7.3300583031763289e-002 -4.3807816953138103e-002
      2.2134806402085330e-001 5.2667721744154058e-002
      1.6284373756965360e-002 -2.1143540372318811e-001
      1.3641910809296739e-001 9.9553622863060177e-003
      -3.3476630643436128e-001 -3.3863836082655335e-001
      2.2152466888802705e-001 8.7101860682838012e-002
      3.5123107034582024e-001 -6.5638685613568781e-002
      -3.4987455157406477e-001 -3.1818952182407123e-001
      1.2599356924541827e-001 -1.0069422330835698e-001
      5.3408706950019112e-003 6.1388898387469325e-002
      -2.5652320890005336e+000 3.9082997228337982e-002
      8.4743371913660256e-002 7.6261285283187236e-002
      -4.3753236500449466e-001 -1.8522232333815136e-001
      -1.2672787321228343e-001 3.1660917300849939e-001
      3.3852581203578362e-002 1.4049623463411276e-001
      2.3268046377898610e-001 5.1347365339667210e-002
      1.2972998601614716e-001 -6.1551397809970498e-001
      2.1223556910930627e-001 2.4005411464230332e-002
      6.7585720358908901e-003 5.9170233044162378e-002
      3.3026527122075700e-001 -1.9233028904914688e-002
      1.7119667468778144e-001 -4.1441407113223977e-001
      7.7561924909186952e-002 -2.2666234423600140e-001
      -6.8440396184964197e-002 2.8552758900730768e-001
      1.9894891603469370e-001 1.4619787725639213e-001
      9.9192619417820625e-003 1.3843797635378061e-001
      5.2447134551765274e-003 1.2270276971070578e-001
      -2.9464909275490242e-001 1.1477622724731082e-001
      6.7562450434068028e-002 -8.6294414049559828e-002
      -2.2208176890037035e-001 -3.0351888250984282e-002
      1.9898684913477924e-001 -2.1384415137121432e-001
      -1.2525792883096803e-001 4.4654303118915778e-001
      1.0575227912736547e-001 1.1664264665184204e-001
      -1.4753375241462377e-001 1.4366363371223198e-001
      -1.0138728588556202e-001 -4.2173309088912242e-001
      6.2447117061576532e-002 4.0749499832005091e-002
      9.9879229811251150e-002 -1.3163897674047320e-001
      1.5657417922856010e-001 -8.2847618480738391e-002
      -2.0507175722273335e-001 -1.2643442422099218e-002
      2.5196077377910540e-002 -2.3349021077713090e-003
      2.4148023440879762e-001 -4.1157793109090990e-001
      2.9407667756987470e-003 -8.0568628891759392e-002
      2.6519314859554982e-001 -2.3098722553917131e-003
      4.3525907719945889e-001 -2.1853243990192606e-001
      2.4776688300742383e-001 9.2289540474383258e-002
      -3.5930875320547423e-001 -1.1346194594919401e-001
      1.5963322281337858e-001 1.3293880520576190e-001
      -2.2543276785850574e-001 9.6996988600895478e-002
      2.1249327446599367e-001 -1.0643487325699834e-002
      1.5617282567012591e-001 2.7221392171685160e-001
      -4.2051998509910010e-002 -3.8519733198151268e-001
      1.0821697073028763e-001 4.7304539834983356e-001
      7.4385576462880895e-002 7.3251712890912701e-002
      1.9513050130813669e-001 8.9963567803173369e-002
      -7.6394089592657866e-002 -3.6102914704266090e-002
      1.8543204765469748e-001 1.2150101519951960e-003
      4.2045439327913603e-001 3.0028850215106195e-001
      2.3517941939907866e-001 -4.5569572498459021e-001
      1.0006617717679221e-002 1.6827492348714319e-003
      7.7829211957747529e-002 -4.5169164396583993e-002
      1.3108054246357134e-001 1.0686680345156227e-001
      -1.4758483078373663e-002 8.6010635729616772e-002
      -2.2676547880722715e-003 7.3004202215467206e-004
      2.2101381994270217e-001 -3.6427585328140326e-002
      -1.1956939624475811e-001 -2.1333326069431796e-001
      3.8320980222123872e-002 -7.0989486028366203e-002
      3.1101387859799984e-001 9.7644254495441465e-002
      -1.3954637976295084e-001 -2.6656433150272668e-001
      2.3259576401454538e-001 -5.1457671179272260e-002
      -2.9235539591211462e-001 -2.4189567948657106e-001
      -2.5510096438833254e-002 1.2244623367541718e-001
      1.3715488555787261e-003 -1.8044850247371201e-002
      3.6589884982132792e-001 -6.9331945488128079e-003
      7.3262401721491954e-002 6.3745149554074210e-001
      -8.9678650136886653e-002 2.1463218838936771e-001
      -3.0869399542812603e+000 -1.1869997436560580e-001
      3.8443217028518210e-002 1.1113236190988418e-001
      -4.4686154509622594e-001 -2.8837498724914395e-003
      -2.9079142045742076e-002 1.0582016599379715e-001
      -9.7217113244587282e-003 1.9092493836600669e-001
      3.3479806538304974e-001 -3.4349006305536542e-002
      -1.6718178094325631e-001 -8.2034376472924098e-001
      3.0982008622431201e-001 1.3317061669323255e-002
      1.0824618958018338e-001 2.7667577487671222e-002
      1.6567802900217313e-001 8.0221732830456305e-002
      -1.9619459465414812e-001 -2.3183166152314463e-001
      -1.2584983511978591e-002 -2.3303394220088716e-001
      1.7157500876661905e-002 4.0452930710441137e-001
      6.8431071440050506e-001 -2.1811701729784999e-001
      -1.9317035425051116e-002 3.5810729256612500e-001
      -1.1561453746965768e-002 1.4455465456260591e-001
      -4.2302709870300809e-001 1.7992085927318399e-001
      1.1547905045608946e-002 -9.7443351203643103e-003
      -1.9459393421559582e-001 -1.3012712890591924e-001
      3.1191244801727858e-001 -1.5003334129103404e-001
      -4.0159210502605097e-001 5.1234528088623399e-001
      -7.7066750208546711e-002 1.1135210644844151e-001
      -3.9365082005717034e-001 -1.0946870453807236e-002
      -6.7630652022300022e-002 -1.1150512825436885e-001
      1.3771939528607852e-001 -1.7021286963207882e-002
      -2.5144880388802582e-001 -1.1266846277018699e-001
      1.6511182887580067e-001 -5.1981422599605209e-001
      -4.5744574216172518e-001 4.0692129989910626e-002
      1.4517546831166945e-002 1.3191932915066593e-003
      3.5021262666672170e-001 -4.0390302427071573e-001
      3.0687476499062277e-004 9.3421444688850747e-002
      3.0377278573632471e-001 -1.5244919696497902e-001
      4.7213554669764685e-001 -3.5610646727207856e-001
      2.7914272746870494e-001 2.8998627565040536e-001
      -5.1225202066257436e-001 6.0634076191417058e-002
      2.5756321004501154e-001 1.7070158651790335e-001
      -2.8875653535838719e-001 1.8153589156743030e-002
      -5.8213369771799167e-002 -1.8939078856496189e-001
      3.4058572606553089e-001 4.9031451272948640e-001
      -7.1485536181412679e-002 -3.7838967393168155e-001
      2.6083804442245839e-001 5.2652265102508156e-001
      1.5544438924933227e-001 -6.2783491574502012e-003
      3.9841435008382425e-001 1.1773823591412950e-001
      2.5914757926709198e-001 -1.3115337796291288e-001
      2.6501510397172612e-001 -3.1020974362994634e-002
      3.5099992417143094e-001 6.6732909923200592e-002
      3.1464615750693953e-001 -4.9445200224425356e-001
      -2.2881836653890045e-002 5.4650030075336135e-002
      8.9224381069980832e-002 1.5630079495561705e-001
      1.3107592430182755e-001 1.5706483452464673e-001
      6.7341040972492119e-002 7.7767613936466043e-002
      -1.5019798903986517e-002 -7.3747699614123821e-002
      2.5419922943493040e-001 -1.7885927765730600e-001
      -2.2350985108064780e-001 1.3604798043032752e-003
      2.4163797858008547e-002 -2.5540345025373684e-001
      1.1971665673910802e-001 1.2168316340983590e-001
      -8.0740780241156621e-002 -3.6710145555165097e-001
      4.0097028893354969e-001 -1.0559757486373607e-003
      -1.2145457717076445e-001 -3.4539210878747167e-001
      1.3598860255769310e-001 8.0603347218980256e-002
      1.0212632391170436e-001 4.5783502097490499e-003
      2.0236556884438731e-001 -8.0538767098110156e-002
      1.0337672907503688e-001 5.0696559653572992e-001
      1.3222748662284735e-003 3.5911126400160226e-001
      -3.0844416936775181e+000 -7.4364180918106551e-002
      -8.6655101237490664e-002 1.4928111552777498e-001
      -2.7584596572108999e-001 1.1732115718990203e-001
      -1.6667441990910686e-001 6.3214581734253095e-002
      -2.3339268178033501e-002 1.4029560981539463e-001
      2.0418533557605303e-001 -1.1785261051979383e-003
      -2.6527788922206119e-001 -5.2469663610278328e-001
      3.1728457665365906e-001 2.2311027481689047e-002
      -1.9129950762474299e-002 -2.1153191853727146e-002
      3.0445701740635212e-001 -9.1718074478732828e-002
      -1.6785368514469023e-001 -8.1661374890007309e-003
      -6.1896571686859622e-002 -2.5152327367377725e-001
      -1.5784479993327055e-001 5.8366975946977728e-001
      6.0156400290746925e-001 4.2459966854362249e-002
      -1.6176798298735130e-002 3.9509820126675216e-001
      5.3334980636128198e-003 2.6045882248671948e-001
      -4.7476219010020237e-001 5.6226943410777420e-002
      -6.3735820170324392e-002 -6.5181828227905150e-002
      -7.6780028221512836e-002 -3.2048018885609660e-002
      1.2903655676125544e-001 -1.5060895362625312e-001
      -2.0174054674326319e-001 1.9424350463455606e-001
      -1.6583922747202612e-001 1.0681494463228583e-001
      -2.6154246775935214e-001 -4.0847433668538403e-004
      4.3188107834309750e-002 1.5001823164763181e-001
      9.4534099960111181e-002 -2.1171372554205511e-001
      -4.5335636261111273e-001 -1.3060467434194076e-001
      2.8224033474402305e-001 -4.7993227881484052e-001
      -1.3072879816790239e-001 7.5793844472397995e-002
      4.9480399724990631e-002 1.6787974333225245e-001
      9.9803600291790126e-002 1.3537815999277583e-001
      4.6298542040862166e-002 -2.2395888617640894e-001
      9.9964852983460459e-002 -1.8674966610886387e-001
      2.1852880633391356e-001 9.0196722291799647e-002
      3.0648818387792554e-001 3.1282908602872245e-001
      -1.3454371687676700e-001 1.0748048983148251e-001
      -1.4363898862969948e-001 -2.2305453229017145e-002
      -3.8305052022931702e-001 5.8080497365915647e-002
      5.4340779552044728e-002 -1.1087532577879808e-001
      3.1886111966618952e-001 2.1027832522727213e-001
      -1.6553901583284877e-001 -1.9080248955805301e-001
      3.9673507002714733e-004 2.4314041958365618e-001
      4.3188043039032453e-002 -1.5015348004281331e-001
      4.1994163790811806e-001 1.9268782138477772e-001
      1.0173848435506021e-002 1.1956156198786139e-002
      4.4165831064948230e-001 -6.4481240390189931e-002
      6.5621588773740280e-001 2.2392599649648928e-001
      3.5318012282292777e-001 -1.1158183532745264e-001
      1.3694221871508636e-001 9.6482033072891826e-002
      1.5840219246520934e-001 1.7302227056884897e-001
      1.1031946545508584e-001 3.0685336224766141e-001
      1.4034338505846652e-001 5.2502090611031428e-002
      -2.4897692831128814e-002 -1.1933833092209249e-001
      2.1285890768699978e-001 -1.7019409224233523e-001
      -1.8161478451172261e-001 -3.5161003773327523e-002
      1.4205363650308745e-003 -2.9652055326842131e-001
      1.9049380228109841e-001 2.7333328860030126e-001
      1.8053711984036425e-001 -2.8048488099911661e-001
      9.6613369645341174e-002 -2.0127343663451949e-002
      -3.7188835048300428e-001 -1.1328002391453626e-001
      2.2235652602193989e-001 -5.5791501902629978e-002
      -1.9152553908621570e-002 3.8269502663684861e-002
      -1.9649411977213646e-001 -2.1772734304430308e-001
      1.7526250075563460e-001 2.4460048484584374e-001
      1.2303361084960807e-001 4.8542990569327582e-001
      -1.6810610959988401e+000 1.6237541053441936e-002
      5.2332634846918830e-002 -7.4830519600816950e-002
      -1.2335183986354996e-001 1.5423346541623087e-001
      -4.8114370037142989e-001 1.4205681393110984e-002
      -7.7067007237204702e-003 -4.7695772528288959e-002
      1.0143561797917724e-002 -9.8702080965168665e-002
      -3.1820359179153546e-001 -2.6655974367375784e-001
      -9.9031640524911438e-002 9.6131924199256980e-002
      6.4010382158462831e-003 -7.6847773578745490e-002
      3.9987941649052833e-001 -3.5250226161826181e-001
      -3.9297261046683452e-001 -2.8477835090435988e-001
      -2.9707885200328688e-002 -1.4555262517678041e-001
      -1.6821001628661764e-001 3.9584629641660418e-001
      3.0601326541550944e-001 -1.0100077915292908e-001
      2.8459820262136049e-002 4.6986716737670758e-001
      5.6402724456912946e-002 1.7821173500464094e-001
      -2.9450099689932882e-002 2.5907246305463172e-001
      -1.4344175559298306e-001 5.6858527284852092e-002
      -2.3156243489997505e-001 -2.9488522347855128e-001
      4.4476363273807590e-001 3.9677635516015677e-002
      -6.8402530754912315e-003 3.1967570692736341e-002
      -2.2610119231907672e-001 1.0555816865406227e-001
      1.0571147788497591e-002 2.1992380410064818e-001
      -3.6588728691097127e-003 -3.3437662374380567e-001
      -5.3147759892237646e-004 -1.8247529118653513e-001
      -4.8026287445647764e-001 -6.9377959018478361e-002
      2.3013326289283953e-001 -3.4729055493561145e-001
      -2.0821577905641875e-001 1.0397324399342439e-001
      6.2563654654551437e-002 4.2845896396229780e-002
      4.1216304646095159e-002 2.0729644417069221e-001
      1.3963559775770627e-002 -5.7151297243247223e-001
      1.8283543824532962e-002 -1.7540867358999043e-001
      3.2063632694886979e-001 -2.3574847997543481e-002
      1.1782917374748379e-001 2.1141925908911191e-001
      -1.2011810853098079e-001 2.9039900200329966e-001
      -7.8258597191637594e-002 -1.2756513382172315e-002
      -1.3886735201186790e-001 8.3977448630280616e-002
      -2.2274135945249929e-001 1.0254956873595779e-001
      -5.3468514437607473e-002 -7.9779318728021593e-003
      -1.0577670829906403e-001 1.6022920128587390e-001
      1.3883202512613060e-001 8.2628116462698908e-002
      3.1123425533413268e-002 -1.2107734389264317e-001
      7.0486617047381406e-002 1.8252605162149985e-001
      -4.1493560860333914e-002 -2.1756526385479730e-001
      6.7460529502411465e-002 -1.7437533593799151e-001
      1.4459792336633759e-001 1.9540784519076773e-001
      3.1523707457135584e-003 -3.7419347379318696e-001
      4.1549080929972247e-002 4.7441584604214484e-003
      1.8005287423491084e-002 2.2545072553157366e-001
      2.0706843493246443e-001 -3.3658319915998089e-002
      3.8574134499542598e-002 -5.7548518528081745e-002
      3.3083895186703183e-002 6.0339711801829517e-002
      1.6256312314943379e-002 -6.4678496435611368e-002
      -9.0054618051958232e-002 -1.5791714110331506e-001
      -7.3327071388955079e-003 -3.2964729040569818e-001
      2.3726081962685491e-001 -5.2034651878676300e-002
      1.6804865469094030e-001 -4.2905228977468082e-002
      1.3870665566419020e-002 -4.4983931596991409e-003
      2.7967967639662392e-002 -1.5331832690353825e-001
      8.0259242158827585e-002 1.7102393860791393e-002
      2.3292444104502544e-001 2.5848207918854404e-002
      5.2963022644864988e-001 -1.0413990847847733e-002
      -5.1439691127708229e-002 3.8715577875797169e-001
      6.6185162587604887e-002 3.1006889630532036e-001
      -2.2693937404479985e+000 -1.3986746793780796e-002
      3.7346714929484515e-001 1.1655587517571278e-002
      5.1742614789721711e-002 -3.2166404401998105e-001
      -4.3103599830526040e-001 1.9185697209805344e-001
      6.7492027341461869e-002 9.6381099388401753e-002
      9.8168650882871841e-002 -1.7624763736962995e-001
      4.2124644970961342e-002 -4.4712411004887570e-001
      -3.3975582954511180e-001 9.6361697027135429e-002
      4.2015779831934713e-001 -1.8130893964833101e-003
      3.0356789427584790e-001 -3.1181590625682032e-001
      -1.2208161226331869e-001 -6.0653889944771833e-001
      -1.8704942628601753e-001 -9.7104049658128411e-002
      -1.5613882359210196e-001 2.5701710458590815e-001
      2.6644756378878276e-001 1.0921209390540339e-001
      5.4519360960370321e-002 4.4002277625985253e-001
      1.2166874285110772e-001 1.7737147132677814e-001
      1.3180207289768214e-002 1.5293658055901913e-001
      3.0042818155881212e-001 -1.8333313149477048e-001
      -2.3334242399499144e-001 -1.0071311583099528e-001
      4.9922102141977187e-001 -8.4688276682785613e-002
      -1.4685453684771435e-001 4.6188681019755796e-002
      -3.6065290949563678e-001 2.4127698275418283e-001
      -2.6220869143233849e-001 -1.4274328443712705e-001
      1.7425838747814471e-001 -2.0733228401807341e-001
      1.2085882861862625e-001 -1.3811640483750409e-001
      -2.0888790211255689e-001 6.0627721421838886e-002
      3.1111563092398137e-001 3.3112762135560796e-002
      1.7943752338067411e-002 -5.8352907905755959e-002
      6.0487653915592604e-002 1.3986132451409153e-001
      2.4719663726628932e-001 -1.7331814861868033e-001
      1.4741637948716410e-001 -4.9151817937465053e-001
      6.9238938450804921e-002 -1.1840754196218489e-001
      1.6550849681010779e-001 -1.9046804896327119e-001
      1.6276402167668585e-001 8.2776121126733396e-002
      6.1002512769679093e-002 2.5423951020348529e-001
      -1.2436214074977793e-001 -2.4467682564263923e-001
      -2.2663909249375116e-003 -7.3572194712781758e-002
      -2.2629405097595152e-002 5.1328558697384330e-001
      1.5977296090735982e-001 -9.3805321751509227e-002
      2.2286963778360500e-001 1.4251354951399611e-001
      -1.1512884717807748e-002 2.0873328745916073e-001
      6.8482470741906151e-002 -5.2778929754013715e-002
      1.9268589086011129e-001 2.0257271286716552e-001
      -7.5638170987183409e-002 -1.9769926424163056e-001
      4.7596685194694795e-002 -8.7512871151485330e-002
      3.8693038821975151e-001 2.1726403021866766e-001
      1.6346483033661771e-001 -3.8761660099291398e-002
      1.8320074703300943e-001 -1.0068189279293908e-001
      -1.0326811075198537e-001 3.4892737573688416e-002
      4.1201119149785873e-002 -1.2129111951892030e-001
      -4.9845175668791007e-002 -1.0165230895592219e-001
      4.4293524919694710e-002 4.7147206655678339e-003
      4.6854771008985677e-002 -1.3707726688736951e-001
      1.1518720872297188e-001 -3.8645749624044495e-001
      -1.2079764331485969e-001 -3.2276485603569410e-001
      2.5739015307243368e-001 2.8246420532165895e-001
      1.6558914570490921e-001 -2.6871742620808542e-001
      2.1944253667548963e-001 5.2557132424783833e-002
      4.6262324256594968e-002 -1.9709558138441649e-001
      -8.1655919118578391e-002 2.1508573023043770e-001
      6.5397657722384275e-002 8.0209550398118681e-002
      3.6398742149859570e-001 -6.4466679114136569e-003
      -2.3906677247709474e-001 4.7294872869942106e-001
      1.7298052787878351e-001 7.5424676751722639e-002
      -2.1411276589962931e+000 -5.5359063041072618e-002
      4.0762280479438745e-001 6.2893967922170529e-002
      1.1145964340178953e-001 -7.2190444805454879e-001
      -1.3181767126719413e-001 9.9412230369475080e-002
      1.3734757377153814e-001 -1.9617879217741979e-001
      9.9381402641780789e-002 -1.7945423672035388e-001
      -1.4868941215815268e-001 -1.1617633072974934e-001
      -1.8302415676922298e-001 5.7035654695779890e-002
      5.8920615773115614e-001 -3.3883944262032645e-002
      2.5620991265403570e-001 -3.5543486556396808e-001
      7.7968492747736373e-002 -8.1513368537083108e-001
      -1.5417430073892263e-001 -1.0780018744788854e-001
      -1.0827497613569265e-001 7.9136680347388286e-002
      3.6748006175123298e-002 2.7350871164437313e-001
      1.3739184935659818e-001 5.2348461480514030e-001
      8.7836201202358771e-002 1.0532140940463978e-001
      5.5531150777015023e-002 2.1563361581248436e-001
      5.7923412307532333e-002 -1.8695823013515936e-001
      1.2150112847452642e-001 -2.0028400924919039e-002
      3.6413983894580931e-001 1.2223318490431521e-001
      8.1355615084603053e-002 4.7535356354130413e-003
      -2.9135630411385294e-001 8.9950406062128577e-002
      -2.8162883901932467e-001 1.7364809756386119e-002
      7.3933557732022578e-002 -3.8558724847797050e-002
      1.6207884493790684e-001 -1.2903956227326266e-001
      3.5541687325066401e-001 1.8071785976656365e-001
      2.7722107101670151e-001 5.5086918571505128e-001
      2.7723354939631445e-001 -2.0507701866451136e-001
      3.6059679305194811e-002 2.4248649424626378e-001
      1.4702415714269949e-002 -4.7063009798207503e-002
      1.6255371995175805e-001 -6.3693900970175399e-001
      -1.2247157391730336e-001 8.5940088689482316e-002
      1.8036684152799015e-001 -1.2093043498791176e-001
      -1.7322305027356232e-002 -8.3236644830873938e-002
      -1.6438330368406323e-001 2.2664346338415975e-001
      1.2169114386113518e-001 -2.5768667750511548e-001
      1.5221823896728101e-001 -8.7759586232915923e-002
      -1.3106577477149764e-001 6.1436329532094902e-001
      1.3157027144730243e-001 -1.3108078300735398e-001
      3.4912778856353582e-001 2.1294368812713282e-001
      -3.3527691396591452e-001 4.7590959803331896e-002
      6.4669040522112989e-002 6.2401139802339259e-002
      1.1623065131504054e-001 2.3276103953830121e-001
      -3.3510229351809223e-001 3.4263738004990454e-002
      1.2149609711701627e-001 -8.7523661572626740e-002
      2.1797414787122274e-001 1.4038939956729374e-001
      -1.2676611590461109e-001 -1.3744649836473213e-001
      3.4632628420664302e-001 -4.4588715798478874e-002
      1.7324389560258880e-002 -1.3107422212501266e-001
      3.0768781916367602e-002 6.5936624550439027e-002
      -1.2711560951182044e-001 -6.8018434848558476e-002
      -6.7108716502653834e-002 4.7950681908902656e-002
      5.2999542176075408e-002 1.9886510699063283e-002
      3.5213779393174249e-001 -7.9161738119363119e-003
      -8.6113890712147381e-002 -2.6745809359277373e-001
      -4.1209997406484587e-002 6.0735913977894553e-002
      1.0886110277856648e-001 -3.1011071829187314e-001
      -5.0124596005258919e-002 6.4381042805287364e-002
      -1.6297491845840148e-001 -3.3407015630209952e-001
      -1.6421152994766786e-001 -6.8829469513418715e-002
      1.4558587775288389e-002 3.3645566142027836e-002
      8.2248619993611749e-001 4.7545482123576024e-002
      -1.7218438293741792e-001 7.5939972839323688e-001
      1.5557781935724854e-001 1.2229460689436653e-001
      -1.6141116230450607e+000 -8.6999504632671587e-002
      3.9796925439513348e-001 -7.3700062950740903e-003
      2.7316468776771091e-001 -6.6546360988760478e-001
      -1.2216011800920829e-001 9.8794366993647839e-002
      4.5453151154062288e-002 -9.1685709278405081e-002
      7.9299638146750978e-002 -2.5551801425831133e-001
      -7.2159806870806156e-002 -9.8383485404570266e-003
      -1.7654136200266785e-001 -7.5572392368252292e-002
      4.9822177675816554e-001 -3.4005486121540258e-002
      3.7836587004539568e-001 -4.1856370929258518e-001
      4.8656035950565175e-002 -7.9192014142064815e-001
      -1.5314973753518912e-001 -2.1086616654715645e-001
      1.7007408927052453e-001 1.4107518955043599e-001
      -3.0522265165591606e-001 2.8752356436228316e-001
      1.1609908633408496e-001 4.8542226291818985e-001
      1.2488607527561031e-001 4.6013545546955630e-002
      7.1492018811535996e-002 2.9460913742496719e-001
      -2.2564236028308243e-001 -6.3735476778953262e-002
      2.7558859174233696e-001 -6.9605959043079176e-003
      2.2242327837649367e-001 2.3724144169012792e-001
      8.4131498216303419e-002 -1.7472167270687824e-001
      -3.2245906058174362e-001 1.2329725406634919e-001
      -3.0636778396981584e-001 -8.9325161480857673e-003
      2.2079848190444742e-001 -2.5985535460699144e-001
      8.5707110136899897e-002 -1.8844017929164711e-001
      5.8618156861322601e-001 2.3882816737037255e-001
      3.3192584643850676e-001 6.0098360541654006e-001
      1.6669070284667342e-001 -8.9927409551480014e-002
      -7.1828897889407314e-002 2.4475370363675639e-001
      -9.8623658613016946e-002 9.0792065027894386e-002
      3.1273493649320319e-002 -4.8052218552386772e-001
      -1.8936211768382222e-001 1.8591043870520907e-001
      1.1646257781340605e-001 2.1761844613397523e-002
      -1.1061777935838341e-001 -1.8122354934545892e-001
      -1.9394125455499001e-001 3.1678596722831975e-001
      3.1554395427741766e-001 -3.1645126008634283e-001
      2.0160599333911888e-001 -1.4370219810724646e-001
      -1.3617871372533154e-002 5.3143841311584483e-001
      -5.9356218357673553e-002 -3.0449584318857192e-001
      3.2207531417331386e-001 3.9738922089959439e-001
      -2.6115687446634839e-001 -9.9598268098048476e-002
      8.4676355057934347e-002 4.5869432857805856e-002
      -1.0320626660461271e-001 7.1985360781862739e-002
      -5.7159597048954813e-001 -6.5013891060728907e-003
      1.5608398489558567e-001 -2.4314584859499511e-001
      1.9234767925879151e-001 2.6550131889365369e-001
      -2.2429591846402702e-001 -3.5186155126676222e-001
      3.1142797851786447e-001 -1.7352930525540031e-002
      5.8618859657999137e-002 -1.3883569627358605e-001
      2.5010551369967323e-002 4.4274390394441872e-002
      -8.7140065776567716e-002 7.2055453275105125e-003
      -5.8542024013444341e-002 1.3902023016409720e-001
      -1.1647613722031833e-001 -6.0282763555004608e-002
      2.8990539956388578e-001 2.2594897478647208e-001
      -6.3649294313775570e-002 -1.4505186813985763e-001
      -1.4839764660414964e-001 1.3538168664809916e-001
      2.1126300889292551e-001 -4.7137630940691771e-003
      -3.0139649332392676e-001 1.3987792790325890e-001
      -2.1011408460269290e-001 -2.7261294267585279e-001
      -2.0892496524693341e-001 -6.1444513918210715e-002
      -4.8519972158348731e-002 -5.1282976812109901e-002
      5.8449516779275912e-001 7.3052059530890764e-002
      -1.8525754399859765e-001 5.9258505133705297e-001
      1.6715478286279817e-001 1.4640116151056556e-001
      -2.5193366610041790e+000 5.0336973137510573e-002
      3.6724225407339756e-001 6.3261883284265880e-002
      3.4020994132827687e-001 -6.1261735449013555e-001
      -2.3445090433007851e-001 3.2546534356794908e-002
      2.0170772558333838e-002 -3.6867292846639699e-002
      4.5555222332736782e-002 -2.4684190312650717e-001
      -5.7900645335674156e-002 -4.5428432725271924e-002
      -1.5888521010252171e-001 -7.5122496190075355e-002
      3.9245155938681714e-001 -3.9426172541560138e-003
      3.1249027353389386e-001 -4.3540262458084500e-001
      7.7321604384409076e-002 -4.3251860951907695e-001
      -1.4067951750676672e-001 -2.1875788612150854e-001
      3.2120725646744908e-001 1.4493547075033947e-001
      -3.9975574283839949e-001 2.4186329347601131e-002
      7.9420662030416159e-002 4.5286024662078173e-001
      7.3355862799311250e-002 8.8543215436864248e-002
      7.0794685995633058e-002 2.5629172480398238e-001
      -3.7340595430009360e-001 -6.2033454672638634e-002
      1.9376032538081892e-001 9.5224204448534688e-002
      1.1881988993040821e-001 2.2859718907556714e-001
      2.9587047938128191e-001 -2.4271426450991321e-001
      -2.9495279934738766e-001 1.6265595794824988e-002
      -2.2909309107881670e-001 -4.4612737536072339e-002
