<?xml version="1.0"?>
<opencv_storage>
<my_nn type_id="opencv-ml-ann-mlp">
  <layer_sizes type_id="opencv-matrix">
    <rows>1</rows>
    <cols>4</cols>
    <dt>i</dt>
    <data>
      256 128 64 36</data></layer_sizes>
  <activation_function>SIGMOID_SYM</activation_function>
  <f_param1>5.9999999999999998e-001</f_param1>
  <f_param2>1.</f_param2>
  <min_val>-9.4999999999999996e-001</min_val>
  <max_val>9.4999999999999996e-001</max_val>
  <min_val1>-9.7999999999999998e-001</min_val1>
  <max_val1>9.7999999999999998e-001</max_val1>
  <training_params>
    <train_method>BACKPROP</train_method>
    <dw_scale>1.0000000000000001e-001</dw_scale>
    <moment_scale>1.0000000000000001e-001</moment_scale>
    <term_criteria><epsilon>9.9999999747524271e-007</epsilon>
      <iterations>1000</iterations></term_criteria></training_params>
  <input_scale>
    2.4370871833797696e+000 -1.9148542155126760e+000
    2.2277562337860255e+000 -1.6045149064768398e+000
    2.0045664865549409e+000 -1.0698975890541251e+000
    2.0844428281361416e+000 -1.3358631616824876e+000
    2.2229622057106715e+000 -1.5966514255302839e+000
    2.1789005611781351e+000 -1.5217718205053641e+000
    2.0592194189509323e+000 -1.2747548783981961e+000
    2.0003937922626482e+000 -1.0200420726418662e+000
    2.0051216473104119e+000 -9.3094933625126264e-001
    2.0057090333698313e+000 -9.2724246979200542e-001
    2.0000629911340138e+000 -1.0079682534683323e+000
    2.0256815859918142e+000 -1.1736091728365274e+000
    2.1181893524069930e+000 -1.4079234782863941e+000
    2.2182419633872299e+000 -1.5888598190134722e+000
    2.1593148567371756e+000 -1.4866711414440474e+000
    2.0976705483678848e+000 -1.3651506743346553e+000
    2.0457571539594714e+000 -1.2380078015032514e+000
    2.0133762669080206e+000 -1.1225371646848290e+000
    2.0184559365372210e+000 -8.7306229001014724e-001
    2.0143247783869072e+000 -8.8726210476566147e-001
    2.0063287291902183e+000 -9.2354814518279882e-001
    2.0124611797498106e+000 -8.9442719099991574e-001
    2.0173722798842255e+000 -8.7659628828302660e-001
    2.0405694492312496e+000 -8.1784727925538181e-001
    2.1032889605117644e+000 -7.2613547446239479e-001
    2.1061703178897391e+000 -7.2295131943437474e-001
    2.1004558775696816e+000 -7.2932495748947268e-001
    2.0592194189509323e+000 -7.8446454055273607e-001
    2.0532129324014190e+000 -7.9439786075054908e-001
    2.0076654119200859e+000 -9.1619651734448360e-001
    2.0002520002530004e+000 -1.0160010160015240e+000
    2.0063287291902183e+000 -1.0827805840074194e+000
    2.1213203435596424e+000 -1.4142135623730949e+000
    2.0256815859918142e+000 -1.1736091728365274e+000
    2.0746714507120303e+000 -7.6153614758278887e-001
    2.1412135161252430e+000 -6.8824720161168529e-001
    2.0107307467343785e+000 -9.0163719992454272e-001
    2.0494070961116253e+000 -1.2483491637029145e+000
    2.1412135161252430e+000 -1.4529663145135578e+000
    2.2277562337860255e+000 -1.6045149064768398e+000
    2.2229622057106715e+000 -1.5966514255302839e+000
    2.2090182865730164e+000 -1.5734872319041922e+000
    2.1482821693319916e+000 -1.4662878298615181e+000
    2.0512903762734829e+000 -1.2535663410560174e+000
    2.0026665731797419e+000 -9.4967720434515535e-001
    2.0494070961116253e+000 -8.0105793240871070e-001
    2.0422607627824680e+000 -8.1447304230015105e-001
    2.0002520002530004e+000 -9.8425098425147639e-001
    2.2277562337860255e+000 -1.6045149064768398e+000
    2.0819337550784645e+000 -1.3301243435223522e+000
    2.0592194189509323e+000 -7.8446454055273607e-001
    2.0231340097479076e+000 -8.5902912318661151e-001
    2.0439899062476079e+000 -1.2328828005937951e+000
    2.4623480450043695e+000 -1.9493588689617924e+000
    2.8097731536238242e+000 -2.3916521486202789e+000
    2.7228131746273654e+000 -2.2852182001336816e+000
    2.5887374993303216e+000 -2.1161901780239929e+000
    2.6582337638126048e+000 -2.2046462564953746e+000
    2.6961896818161688e+000 -2.2521743175488238e+000
    2.4889571739730316e+000 -1.9852396506689658e+000
    2.0869967789998038e+000 -1.3416407864998741e+000
    2.0030935826687659e+000 -1.0571882797418488e+000
    2.0357198516649690e+000 -8.2802097141134656e-001
    2.0007720517562220e+000 -9.7259752515927456e-001
    2.1957084830377775e+000 -1.5509369443679542e+000
    2.0270081675189155e+000 -1.1783995894504808e+000
    2.0439899062476079e+000 -8.1110710565381261e-001
    2.0005671345640721e+000 -9.7646729187055892e-001
    2.2135943621178655e+000 -1.5811388300841898e+000
    2.4799318012511438e+000 -1.9731203418684695e+000
    2.7648936784418594e+000 -2.3369934663020477e+000
    2.8413875376169804e+000 -2.4298373585573780e+000
    2.7505688845008440e+000 -2.3194281268112276e+000
    2.6832815729997481e+000 -2.2360679774997902e+000
    2.6224757729366939e+000 -2.1593798527157300e+000
    2.4130858436102400e+000 -1.8816324137675087e+000
    2.2634831989685518e+000 -1.6616840944808811e+000
    2.0677978074972772e+000 -1.2964764031133722e+000
    2.0019081190054338e+000 -9.5726162039743956e-001
    2.0015765661689233e+000 -9.6107446232714178e-001
    2.1213203435596424e+000 -1.4142135623730949e+000
    2.0143247783869072e+000 -1.1270626736212457e+000
    2.0312015226903570e+000 -8.3827364428490925e-001
    2.0026665731797419e+000 -1.0529893688345866e+000
    2.1830048978485865e+000 -1.5289697002788709e+000
    2.4209514656591251e+000 -1.8925692013287605e+000
    2.5568607698749548e+000 -2.0749128072993184e+000
    2.4981431819044180e+000 -1.9975232188640486e+000
    2.6832815729997481e+000 -2.2360679774997902e+000
    2.6224757729366939e+000 -2.1593798527157300e+000
    2.4623480450043695e+000 -1.9493588689617924e+000
    2.2973736160918392e+000 -1.7139136501002610e+000
    2.2689125699877164e+000 -1.6701717529076248e+000
    2.1669653845237984e+000 -1.5005375380928683e+000
    2.0022714374157440e+000 -1.0488088481701516e+000
    2.0000157472255360e+000 -1.0039761588255172e+000
    2.0819337550784645e+000 -1.3301243435223522e+000
    2.0107307467343785e+000 -1.1090935468098357e+000
    2.0389156984389567e+000 -8.2122993409346867e-001
    2.0007720517562220e+000 -1.0281745265969473e+000
    2.0976705483678848e+000 -1.3651506743346553e+000
    2.1871737044778405e+000 -1.5362291495737213e+000
    2.2476941783777251e+000 -1.6367138163980657e+000
    2.3756676237158780e+000 -1.8288869801622236e+000
    2.5074937193291729e+000 -2.0099751242241783e+000
    2.4981431819044180e+000 -1.9975232188640486e+000
    2.3685476328517558e+000 -1.8187062180825984e+000
    2.2634831989685518e+000 -1.6616840944808811e+000
    2.1482821693319916e+000 -1.4662878298615181e+000
    2.1447196874441974e+000 -1.4596008983995232e+000
    2.0173722798842255e+000 -1.1407759916011990e+000
    2.0099151479647497e+000 -1.1046557460044359e+000
    2.0655911179772888e+000 -1.2909944487358054e+000
    2.0115793826998791e+000 -1.1135528725660047e+000
    2.0124611797498106e+000 -8.9442719099991574e-001
    2.0005671345640721e+000 -1.0240998426935131e+000
    2.0700465039586495e+000 -1.3019935352279601e+000
    2.1091004829775564e+000 -1.3893280959296601e+000
    2.1004558775696816e+000 -1.3711309200802089e+000
    2.1343672769426982e+000 -1.4398509407946776e+000
    2.1789005611781351e+000 -1.5217718205053641e+000
    2.1914079139743987e+000 -1.5435512092478405e+000
    2.1032889605117644e+000 -1.3771534860493695e+000
    2.0700465039586495e+000 -1.3019935352279601e+000
    2.0746714507120299e+000 -1.3131353031292410e+000
    2.0512903762734829e+000 -1.2535663410560174e+000
    2.0700465039586495e+000 -1.3019935352279601e+000
    2.0512903762734829e+000 -1.2535663410560174e+000
    2.0512903762734829e+000 -1.2535663410560174e+000
    2.0163226374350498e+000 -1.1361818036340361e+000
    2.0115793826998787e+000 -8.9802651013387447e-001
    2.0069808240170177e+000 -1.0871146130092177e+000
    2.0195737684315720e+000 -1.1500350625790896e+000
    2.0844428281361416e+000 -1.3358631616824876e+000
    2.0922411295297572e+000 -1.3533146988625018e+000
    2.0372992503051970e+000 -1.2126781251816650e+000
    2.0184559365372210e+000 -1.1453936465270738e+000
    2.0051216473104119e+000 -1.0741723110591492e+000
    2.0040434714008470e+000 -1.0656421633639426e+000
    2.0001417384219207e+000 -1.0119764747968050e+000
    2.0015765661689233e+000 -1.0405021038417817e+000
    2.0243902652367178e+000 -1.1688443793331049e+000
    2.1447196874441974e+000 -1.4596008983995232e+000
    2.1120800019332000e+000 -1.3954814298487215e+000
    2.0422607627824680e+000 -1.2277877204823171e+000
    2.0091324675867472e+000 -1.1002392084403616e+000
    2.0035525268680168e+000 -9.4214672394388888e-001
    2.0184559365372210e+000 -1.1453936465270738e+000
    2.1004558775696816e+000 -1.3711309200802089e+000
    2.2528754005342773e+000 -1.6449566416599484e+000
    2.2326252226057521e+000 -1.6124515496597098e+000
    2.1181893524069930e+000 -1.4079234782863941e+000
    2.0357198516649690e+000 -1.2076988802536226e+000
    2.0153068536430210e+000 -1.1316107928193948e+000
    2.0219126299595214e+000 -1.1593903770998049e+000
    2.0243902652367178e+000 -1.1688443793331049e+000
    2.0270081675189155e+000 -1.1783995894504808e+000
    2.0207259421636903e+000 -1.1547005383792515e+000
    2.0655911179772888e+000 -1.2909944487358054e+000
    2.0512903762734829e+000 -1.2535663410560174e+000
    2.0270081675189155e+000 -1.1783995894504808e+000
    2.0019081190054338e+000 -1.0446464986079942e+000
    2.0030935826687659e+000 -9.4590530292691721e-001
    2.0405694492312496e+000 -1.2227221699758677e+000
    2.4453633236006302e+000 -1.9262088084711313e+000
    2.5466240628814960e+000 -2.0615528128088303e+000
    2.3546517846038233e+000 -1.7986923354612538e+000
    2.1343672769426982e+000 -1.4398509407946776e+000
    2.0700465039586495e+000 -1.3019935352279601e+000
    2.0592194189509323e+000 -1.2747548783981961e+000
    2.0700465039586495e+000 -1.3019935352279601e+000
    2.1343672769426982e+000 -1.4398509407946776e+000
    2.1377629440562256e+000 -1.4463832617523273e+000
    2.1004558775696816e+000 -1.3711309200802089e+000
    2.0005671345640721e+000 -1.0240998426935131e+000
    2.0000157472255360e+000 -9.9603958840001894e-001
    2.0655911179772888e+000 -1.2909944487358054e+000
    2.0026665731797419e+000 -1.0529893688345866e+000
    2.0051216473104119e+000 -9.3094933625126264e-001
    2.0746714507120299e+000 -1.3131353031292410e+000
    2.4623480450043695e+000 -1.9493588689617924e+000
    2.4623480450043695e+000 -1.9493588689617924e+000
    2.3478713763747789e+000 -1.7888543819998315e+000
    2.1669653845237984e+000 -1.5005375380928683e+000
    2.1181893524069930e+000 -1.4079234782863941e+000
    2.1120800019332000e+000 -1.3954814298487215e+000
    2.1091004829775564e+000 -1.3893280959296601e+000
    2.1789005611781351e+000 -1.5217718205053641e+000
    2.2476941783777251e+000 -1.6367138163980657e+000
    2.2045126499003871e+000 -1.5659038267149576e+000
    2.0099151479647497e+000 -1.1046557460044359e+000
    2.0007720517562220e+000 -9.7259752515927456e-001
    2.1447196874441974e+000 -1.4596008983995232e+000
    2.0219126299595214e+000 -1.1593903770998049e+000
    2.0035525268680168e+000 -9.4214672394388888e-001
    2.0494070961116253e+000 -1.2483491637029145e+000
    2.3281743107591937e+000 -1.7599889134905808e+000
    2.4453633236006302e+000 -1.9262088084711313e+000
    2.3829054777106853e+000 -1.8391869659314615e+000
    2.3829054777106853e+000 -1.8391869659314615e+000
    2.3829054777106853e+000 -1.8391869659314615e+000
    2.3977446796302564e+000 -1.8601550986814093e+000
    2.2229622057106715e+000 -1.5966514255302839e+000
    2.1447196874441974e+000 -1.4596008983995232e+000
    2.1245030085364953e+000 -1.4205506227714264e+000
    2.1830048978485865e+000 -1.5289697002788709e+000
    2.0195737684315720e+000 -1.1500350625790896e+000 2. -1.
    2.1957084830377775e+000 -1.5509369443679542e+000
    2.0592194189509323e+000 -1.2747548783981961e+000
    2.0030935826687659e+000 -9.4590530292691721e-001
    2.0045664865549409e+000 -1.0698975890541251e+000
    2.1277379628770743e+000 -1.4269353798659743e+000
    2.3902636515427838e+000 -1.8496087779795352e+000
    2.5365735800463254e+000 -2.0483838235691558e+000
    2.6341623315223357e+000 -2.1742292260184355e+000
    2.6832815729997481e+000 -2.2360679774997902e+000
    2.8097731536238242e+000 -2.3916521486202789e+000
    2.5568607698749548e+000 -2.0749128072993184e+000
    2.2857201621831962e+000 -1.6961494854295940e+000
    2.1061703178897391e+000 -1.3832189984553644e+000
    2.0634260636981017e+000 -1.2855471904785791e+000
    2.0007720517562220e+000 -1.0281745265969473e+000
    2.0040434714008470e+000 -1.0656421633639426e+000
    2.1004558775696816e+000 -1.3711309200802089e+000
    2.0372992503051970e+000 -1.2126781251816650e+000
    2.0256815859918142e+000 -8.5207241315528692e-001
    2.0153068536430214e+000 -8.8369606082362639e-001
    2.0219126299595214e+000 -1.1593903770998049e+000
    2.1377629440562256e+000 -1.4463832617523273e+000
    2.2744275165103058e+000 -1.6787441193290353e+000
    2.3829054777106853e+000 -1.8391869659314615e+000
    2.4370871833797696e+000 -1.9148542155126760e+000
    2.4537825167327956e+000 -1.9377092096421678e+000
    2.3685476328517558e+000 -1.8187062180825984e+000
    2.2425929397399225e+000 -1.6285496348111341e+000
    2.0326712241937579e+000 -1.1978241142570358e+000
    2.0007720517562220e+000 -9.7259752515927456e-001
    2.0124611797498106e+000 -8.9442719099991574e-001
    2.0051216473104119e+000 -1.0741723110591492e+000
    2.0512903762734829e+000 -1.2535663410560174e+000
    2.0184559365372210e+000 -1.1453936465270738e+000
    2.0107307467343785e+000 -9.0163719992454272e-001
    2.0143247783869072e+000 -8.8726210476566147e-001
    2.0030935826687659e+000 -9.4590530292691721e-001
    2.0099151479647497e+000 -9.0525940196031385e-001
    2.0091324675867477e+000 -9.0889325914638586e-001
    2.0143247783869072e+000 -8.8726210476566147e-001
    2.0057090333698313e+000 -9.2724246979200542e-001
    2.0051216473104119e+000 -9.3094933625126264e-001
    2.0045664865549409e+000 -9.3466889750081572e-001
    2.0099151479647497e+000 -9.0525940196031385e-001
    2.0283702113484399e+000 -8.4515425472851669e-001
    2.0405694492312496e+000 -8.1784727925538181e-001
    2.0312015226903570e+000 -8.3827364428490925e-001
    2.0163226374350498e+000 -1.1361818036340361e+000</input_scale>
  <output_scale>
    227158990. -2.1580103950000000e+008 227158990.
    -2.1580103950000000e+008 227158990. -2.1580103950000000e+008
    227158990. -2.1580103950000000e+008 227158990.
    -2.1580103950000000e+008 227158990. -2.1580103950000000e+008
    227158990. -2.1580103950000000e+008 227158990.
    -2.1580103950000000e+008 227158990. -2.1580103950000000e+008
    227158990. -2.1580103950000000e+008 227158990.
    -2.1580103950000000e+008 227158990. -2.1580103950000000e+008
    227158990. -2.1580103950000000e+008 227158990.
    -2.1580103950000000e+008 227158990. -2.1580103950000000e+008
    227158990. -2.1580103950000000e+008 227158990.
    -2.1580103950000000e+008 227158990. -2.1580103950000000e+008
    227158990. -2.1580103950000000e+008 227158990.
    -2.1580103950000000e+008 227158990. -2.1580103950000000e+008
    227158990. -2.1580103950000000e+008 227158990.
    -2.1580103950000000e+008 227158990. -2.1580103950000000e+008
    227158990. -2.1580103950000000e+008 227158990.
    -2.1580103950000000e+008 227158990. -2.1580103950000000e+008
    227158990. -2.1580103950000000e+008 227158990.
    -2.1580103950000000e+008 227158990. -2.1580103950000000e+008
    227158990. -2.1580103950000000e+008 227158990.
    -2.1580103950000000e+008 227158990. -2.1580103950000000e+008
    227158990. -2.1580103950000000e+008 227158990.
    -2.1580103950000000e+008 227158990. -2.1580103950000000e+008</output_scale>
  <inv_output_scale>
    4.4022030561062097e-009 9.4999999559779691e-001
    4.4022030561062097e-009 9.4999999559779691e-001
    4.4022030561062097e-009 9.4999999559779691e-001
    4.4022030561062097e-009 9.4999999559779691e-001
    4.4022030561062097e-009 9.4999999559779691e-001
    4.4022030561062097e-009 9.4999999559779691e-001
    4.4022030561062097e-009 9.4999999559779691e-001
    4.4022030561062097e-009 9.4999999559779691e-001
    4.4022030561062097e-009 9.4999999559779691e-001
    4.4022030561062097e-009 9.4999999559779691e-001
    4.4022030561062097e-009 9.4999999559779691e-001
    4.4022030561062097e-009 9.4999999559779691e-001
    4.4022030561062097e-009 9.4999999559779691e-001
    4.4022030561062097e-009 9.4999999559779691e-001
    4.4022030561062097e-009 9.4999999559779691e-001
    4.4022030561062097e-009 9.4999999559779691e-001
    4.4022030561062097e-009 9.4999999559779691e-001
    4.4022030561062097e-009 9.4999999559779691e-001
    4.4022030561062097e-009 9.4999999559779691e-001
    4.4022030561062097e-009 9.4999999559779691e-001
    4.4022030561062097e-009 9.4999999559779691e-001
    4.4022030561062097e-009 9.4999999559779691e-001
    4.4022030561062097e-009 9.4999999559779691e-001
    4.4022030561062097e-009 9.4999999559779691e-001
    4.4022030561062097e-009 9.4999999559779691e-001
    4.4022030561062097e-009 9.4999999559779691e-001
    4.4022030561062097e-009 9.4999999559779691e-001
    4.4022030561062097e-009 9.4999999559779691e-001
    4.4022030561062097e-009 9.4999999559779691e-001
    4.4022030561062097e-009 9.4999999559779691e-001
    4.4022030561062097e-009 9.4999999559779691e-001
    4.4022030561062097e-009 9.4999999559779691e-001
    4.4022030561062097e-009 9.4999999559779691e-001
    4.4022030561062097e-009 9.4999999559779691e-001
    4.4022030561062097e-009 9.4999999559779691e-001
    4.4022030561062097e-009 9.4999999559779691e-001</inv_output_scale>
  <weights>
    <_>
      -7.3105863819140027e-001 5.1214457905431798e-001
      1.1045937293602154e-001 4.7069192522254499e-002
      -1.1205985606449337e-001 -2.1043987378163659e-001
      -2.3248397662594650e-002 -3.5279151177399166e-002
      2.5807666651410613e-002 3.9780157960735842e-002
      -1.9042386189363944e-001 1.5183859336310548e-001
      -1.4460201993988769e-001 -6.6620743011035391e-002
      2.0390238064476510e-001 -6.1264775011365617e-002
      5.3892031140785925e-002 -9.5457532038542986e-002
      -2.3424719942053526e-003 6.5878470666716607e-002
      -1.2150336985136904e-001 -6.0828697226592336e-002
      5.6054488672103726e-002 -2.6768095183380797e-001
      4.2864260742112213e-002 -6.6844072843500760e-002
      1.9191011262882204e-001 -6.1870513257163723e-002
      -1.3722709411401267e-002 -9.6967885726581427e-003
      1.3347009109652019e-001 7.0774307452525689e-003
      -1.0642818929157476e-001 1.3067866767792563e-001
      5.9166051022043427e-002 -1.5578237405279408e-001
      -2.3955905010095302e-001 2.5800821905598104e-001
      -1.5165703276389955e-001 1.5693194030378840e-001
      -1.3482204949790355e-001 -2.6045024590067660e-003
      5.7892969421482435e-002 3.7396367162065521e-002
      9.1763906958833547e-002 1.4435086589664853e-001
      1.9337697392100137e-001 -1.0509699983597730e-001
      3.3318425239323501e-001 2.5335594421381902e-001
      1.8221235422512355e-001 -9.3958490078458103e-003
      -2.3374428076106818e-001 -1.8895552543235747e-001
      3.6475622424072783e-002 -3.1570350072287713e-003
      -1.4085099794765101e-002 -5.6223694082176055e-002
      -8.9585063813796342e-002 1.2933014651120886e-001
      -2.2852093819674638e-002 1.3255140213076971e-001
      -8.2612477413017374e-002 7.4679729550000643e-002
      -4.0280854346365254e-002 1.6347451130853435e-001
      7.5421164952410719e-002 5.7746430436909697e-002
      -1.3615520756964725e-001 -7.0691898887802973e-002
      8.0810548446129185e-002 3.4808740588179649e-002
      -2.8013145283092511e-001 1.2860345129143558e-001
      -9.2644807250648178e-002 3.9256284939362451e-002
      -5.1340522667067241e-002 -7.1929215489980172e-002
      2.0730102097883844e-002 -1.2234041581491772e-001
      5.1787344317301851e-002 2.6368910629951503e-001
      -6.6980844592684441e-002 -1.7874188496067334e-001
      8.0017995550692125e-002 -8.1672691273295184e-002
      7.8872598197688062e-002 1.9316955590686365e-002
      1.8229274671384904e-001 -4.8060621272258469e-001
      1.6728381708222301e-001 -2.6524165032560415e-002
      1.0597203949121710e-002 -5.5613985565381524e-002
      -2.1090716870189313e-001 -1.3486538029181708e-001
      -1.3924608471553745e-001 8.0390621962605907e-003
      -3.0833869307260892e-001 8.4267767096415473e-003
      -6.0220169955666841e-002 -2.4447255345620127e-002
      1.4172833782958580e-001 -1.3409729141622229e-003
      2.1337592065572902e-001 -6.6845299502166819e-002
      -2.0828927676315456e-001 -2.2125724536805749e-001
      -2.8662849078760327e-001 9.7636105378976684e-002
      -6.7622312546251076e-002 3.2260309666396141e-002
      -3.6754427217979008e-001 2.4192228462977645e-002
      4.2681162788944835e-002 -2.3858313503958905e-002
      1.1718773522946561e-001 3.3346238879258477e-001
      -2.2785187565592135e-001 1.4806181190851947e-001
      -1.3540833323336135e-001 1.1625821265365935e-001
      -1.0262693270338558e-001 -1.2946931796054714e-001
      -8.9955957269042972e-002 1.3337627773919733e-001
      3.1587432898555326e-002 1.3632794924847172e-001
      -1.0393355476171133e+000 5.4198866266339918e-001
      -5.0304649659081067e-002 -1.5150920085975792e-002
      8.4533199530662101e-002 -9.6982680951540348e-002
      -7.9443190641354022e-002 9.6235388612716730e-002
      1.3841417261640557e-001 -4.2484590768533240e-002
      -2.4263269622951453e-001 8.4205285007913896e-002
      -1.8809313839148831e-002 -1.0291392436541842e-001
      2.1774701779572442e-001 -7.9046192238931071e-002
      5.9685539343848619e-002 -2.6478392974385023e-001
      2.6899446704819131e-002 2.0225100569169033e-001
      -2.9586337226103498e-001 -1.2138557686241795e-002
      4.3033446310379392e-002 -1.6751117532455634e-001
      7.0795793060282830e-002 1.2748454013831004e-001
      2.8169020912017603e-002 -9.0334313860303619e-002
      2.7436759081823453e-001 1.0927648136676803e-001
      5.5417964541024288e-002 -6.4841345147776244e-002
      -4.7853438819500202e-002 -1.8136927856193916e-001
      -1.3743785805488561e-003 -4.6344283649956540e-002
      7.3003371634295419e-002 4.2001626671196821e-002
      6.7308133162110220e-002 1.2394694087538631e-001
      -4.7958015738053771e-003 1.5511683026039991e-003
      8.9509011060760604e-002 7.6964680733906540e-002
      -3.8826553276987592e-002 1.6353077636811930e-001
      1.2626776816588262e-001 1.0969301106735749e-001
      3.3807213518689894e-001 2.5176247448614730e-001
      9.2752351043919289e-003 -7.4262217880476239e-002
      6.7619206319062375e-002 -7.6830743084276523e-002
      -3.0250031008696839e-002 -6.7320102141338406e-002
      8.9411742754092832e-002 -7.7168699466281007e-002
      -1.8421867199375153e-002 2.1277777490664801e-001
      2.1919217795015791e-001 -2.7725594274100901e-002
      -6.2921238423894771e-002 -1.5084963908699438e-002
      -1.4078445719755311e-001 6.5859991983592561e-002
      -5.7696611715260457e-002 8.9172342123368747e-002
      3.2204801610215389e-003 -8.3381854399350516e-002
      -2.1530881641586225e-001 -7.2636720631054461e-002
      -2.4631067136991922e-001 8.2430407952382351e-002
      5.3721995580438262e-002 2.9150550773290328e-002
      -8.3182432973343545e-002 -2.3922023963991915e-002
      -6.7015325060058167e-002 1.1980120376323025e-001
      3.0480025547838525e-002 1.2620986248111479e-001
      -1.9519495535462974e-002 -4.5490387025090222e-002
      2.4782684029366907e-002 -4.5798964230444918e-002
      2.7237345147085634e-001 1.9913576918131423e-001
      7.6676669917965012e-002 -5.8407510503666427e-001
      1.6425227057577060e-001 -8.6607711837440274e-002
      2.8505250298586009e-002 1.4555927341984065e-001
      -4.6890381502663295e-002 -2.3750724006304801e-002
      3.1872302178269488e-002 1.2828371100023392e-001
      -3.3856092162158474e-001 8.9260956933231397e-002
      3.7608800802978156e-003 -1.1046102614367376e-001
      1.9808919470585909e-001 -1.1086108263007093e-001
      1.1654500845074094e-001 7.4936260322583617e-002
      -2.4259862158040360e-001 -1.5624398545732776e-001
      -2.2436611718577323e-001 1.5027809133195034e-002
      -5.5952609408727212e-002 2.9794071702376163e-001
      -3.1472543366508499e-001 -1.6194638669012378e-002
      7.1009966606657995e-002 -1.5428377345145933e-001
      1.0554981080227628e-001 1.1112716609554173e-001
      -1.9875937681768355e-001 2.3283984924777379e-001
      -1.7305282486416559e-001 8.5296462770495712e-002
      -7.1146699336469818e-002 -1.3074457460148067e-001
      -1.5258909042782842e-001 -1.1795572419502559e-001
      -1.0236841394930832e-001 1.1262213961691983e-001
      -7.9159598329101666e-001 1.9185571040067645e-001
      -2.5648596706978805e-001 -1.7806113988396308e-001
      7.3634609829109715e-002 1.3239774045646982e-001
      5.0811482398306620e-003 7.9883067440685337e-002
      4.9738727358287868e-002 -1.3429341325577568e-001
      -1.7595562981577995e-001 -9.8208820121591503e-002
      -3.5037025916379066e-001 -2.7465524126373747e-001
      1.5040779808600946e-001 -2.1468344187483859e-002
      9.9989059652349568e-002 -2.5314115406882282e-001
      8.2393137860392748e-002 3.3010464613807894e-001
      -2.3348967526805420e-001 3.4895303416871595e-002
      -1.4254024341995186e-001 -8.8657007203167132e-002
      3.7807503741226489e-002 8.7026577734150151e-002
      -1.7953600888338087e-002 -7.6457866758064583e-002
      -1.0695589559207511e-001 -2.4779724239484872e-002
      9.1746691661350969e-003 7.2042549860640626e-002
      -1.3263393779028396e-001 2.6515156686719409e-002
      -1.6799781769067768e-001 8.6785053621864588e-002
      2.0788106323046687e-001 1.5628865978007123e-001
      -1.2002903197048884e-001 -8.2728418568908488e-002
      -3.9249990718324901e-001 1.3077129211715888e-001
      3.1192677694374449e-002 1.9011182241416432e-003
      -5.6888613218152112e-002 1.1600773943924624e-001
      2.5271763873628311e-001 -9.5344811654879236e-002
      1.1795953262885633e-001 -2.8635513965190162e-002
      -1.5776404727365090e-001 -9.4209664103233528e-003
      -1.2255984437403283e-001 -1.5969736723870970e-001
      -6.1816702564345537e-002 -8.6030502561953076e-002
      -5.9010506955475953e-002 -2.9593716336624484e-002
      -2.5705096243231976e-002 2.1269788725388031e-001
      1.3132966822684189e-001 -8.1262892861214256e-002
      -5.0231596129145496e-002 -5.0115258699131339e-002
      -1.6573721313885414e-001 -5.9482887152993765e-003
      1.1381781148259272e-001 1.0550913942344742e-001
      9.6295022629289670e-002 5.0103531439683789e-002
      -2.9462112765764159e-002 3.8532651989302842e-002
      4.5591882234346159e-003 1.9988553174293301e-002
      1.5347350831806130e-002 -2.5436126289540922e-001
      -4.7230087407376657e-002 1.7058331065943150e-001
      9.9680380101206029e-002 3.1679240614642068e-001
      1.6962916250637936e-004 -1.6759819809034079e-001
      9.2311099928262808e-002 -1.6762931304835561e-002
      1.7659836927246136e-001 1.7248999789994132e-001
      1.4751713674361053e-001 3.0559593154800713e-001
      7.6181871848478133e-002 -3.7028380405315481e-001
      2.0435107087395005e-001 8.4535025719641513e-002
      1.7856352858176081e-001 2.6051094699427529e-001
      -1.9097460361277377e-001 -1.1215069457496435e-001
      -1.4125613149538703e-002 2.7913887123113679e-001
      -1.7646839329470815e-001 1.0675276634941343e-001
      -1.2337483669562715e-001 -1.2749711954044454e-001
      1.5996083068352027e-002 6.6431018741549205e-002
      1.3472847027586995e-002 -3.1721119986520796e-001
      -9.2983332401564936e-002 -2.8786347494927650e-001
      -1.7124136466541712e-001 -2.9247639316079769e-002
      -1.7549595174071290e-002 2.3261456601082153e-002
      -6.3943731971791332e-002 -8.0726413046221426e-002
      1.8730797004620692e-001 -1.4687402473041183e-001
      -1.5631197702843511e-001 3.6834463615854840e-001
      -1.9448711288142555e-002 2.2666188844890867e-001
      -1.3704386217715642e-001 4.1995689776444495e-002
      -2.7152661234341668e-001 4.3802730841555775e-002
      -5.8505918659624713e-002 -3.7174209111856947e-002
      -2.9158405316239244e-001 5.3513323053537475e-002
      -1.5233841498490948e+000 -1.1137371057578253e-001
      -1.5652616472098208e-001 -9.5797592365519657e-002
      -4.3454305324221607e-002 1.9218883973125517e-001
      -4.4172250984158799e-002 5.2045219476591700e-002
      -9.5310662252148168e-002 -4.1651805379591164e-002
      -6.7604994864531587e-002 -5.5746887161521449e-003
      -1.7071614061413676e-001 -2.2287741131104460e-001
      -8.4526696955565250e-003 1.1959499888255671e-002
      6.0043068947531045e-002 -2.0862527910261386e-001
      1.7200780884685057e-002 1.4939834661494972e-001
      -1.2466022293321698e-001 -7.1921942634397606e-002
      -2.2289273273556789e-001 -2.6208971000003637e-002
      1.6089462921588374e-001 1.7188415829785499e-002
      6.8437826134407520e-002 4.7108720074019554e-003
      -1.6216348791600588e-001 1.4515546864806336e-001
      -5.6069665885231955e-002 -1.9348942080442556e-002
      3.6669577951133861e-002 -5.5768429234635793e-003
      -1.5387057327485607e-001 7.3572809867574904e-002
      1.4059622989161072e-001 -1.3184916527179345e-002
      -1.3399442350995647e-001 -7.5747554140387155e-002
      -3.5258971469972561e-001 2.8102516678195932e-001
      -5.3454601089732330e-002 2.0753684244140872e-002
      -7.0811889675931591e-002 1.3502307577827657e-001
      1.1052696975864341e-001 -2.4439504533753967e-001
      3.8187752992083171e-002 -2.4958643528784194e-001
      -1.6934369452972897e-001 -1.5849352287650065e-001
      -1.2278286560880515e-001 -3.3237569712355647e-001
      5.8224754112251989e-002 -1.2082895992073586e-002
      -2.0214950397719256e-001 2.9115627654594092e-002
      1.1254366975816377e-001 2.8276644765575215e-001
      1.6837836275099763e-001 -1.5443964035510854e-001
      1.4207897693993385e-001 -2.8900324706196540e-002
      1.2669649226731234e-002 -7.2422012787456067e-002
      -1.1704602665545398e-001 3.2272544393024577e-001
      4.0371373059559554e-002 1.2128271864795860e-001
      -1.7124510977181592e-001 -2.8396666105203677e-002
      9.5767967921909197e-002 -8.0902698781223650e-002
      -5.1497762013800429e-002 -1.5764938812845161e-001
      9.0907984373165412e-003 1.6872970146006577e-001
      1.5432042772410431e-001 2.0105377713993305e-001
      5.2346560979898177e-002 -1.6778032140111249e-001
      -3.2159986703682711e-002 -3.8869099959738689e-002
      1.7009726345651466e-001 1.5089793407043520e-001
      1.9386954926671390e-001 1.5651537406417476e-001
      2.2045454805869627e-002 -2.5328469410033594e-001
      -3.1805010988080730e-002 1.6492401414374608e-001
      2.5223386684649973e-001 2.6498638985685580e-001
      2.1771619164672041e-003 9.7157610518816329e-002
      1.3974918777787178e-002 2.5534891595469722e-001
      -3.5683574342231461e-002 1.9693361654924472e-002
      1.3516689450163180e-001 -1.6519984993656511e-001
      3.2773297831145388e-002 1.0197950119300633e-001
      -1.4086513888471952e-001 -2.3101904772058879e-001
      -1.8940985255375772e-001 -1.7042502190928169e-001
      -1.3172541235955953e-001 2.2756703709758876e-002
      1.0408437163965295e-001 1.1839302029929435e-001
      2.9189170332199144e-001 3.5049766504235188e-003
      9.0252732741680664e-002 -1.3513034939154929e-002
      -1.1528357709380589e-001 1.6671367763734418e-001
      1.4538222407158899e-001 2.9880404656643603e-003
      -1.3610980331212769e-001 -1.0697605975034129e-001
      -2.4395090874944086e-001 -7.3319815098498664e-002
      1.7132312185055193e-001 -1.6384843729644447e-001
      -1.6929271048331368e-001 -6.6817830968478500e-002
      -8.7717010477497048e-001 -1.7436231777532288e-001
      -1.0283075888719787e-001 1.2096724180740713e-001
      -1.1200189317962063e-001 1.7112650350230246e-001
      -7.7436938272381864e-002 -1.1376392530381030e-002
      1.4500849293125248e-001 2.6910095967179593e-001
      -1.9822691302736306e-001 -2.1145510907684481e-001
      1.7445473513328236e-001 -2.5457427507869596e-001
      7.5513908665486865e-002 1.1877497694253612e-001
      -4.3656392879222780e-002 -2.4022410981774828e-001
      2.9446723053618284e-001 -1.0172161023309853e-001
      2.5751396476311245e-001 -4.1317037287564740e-001
      -1.5326957789887316e-001 2.7456000027881615e-002
      1.4598446433116863e-001 9.1881967406504342e-003
      6.8573511965293772e-003 -2.3658955327197986e-001
      -3.9881779528438988e-001 -1.1036625418988853e-001
      -3.0868324834256916e-001 2.1243797841359274e-001
      5.9367809090823148e-002 1.3411287567438879e-001
      -1.3852206053448046e-001 -8.5363149373185676e-002
      1.4781166453766306e-001 -1.6080887229012117e-001
      1.0424787050955744e-001 -3.5205787178862541e-004
      -2.1963151931519563e-002 2.1106053271436576e-001
      -1.2926675488989375e-001 4.2505521358776076e-002
      3.3428239232390126e-002 -9.6409292582056966e-002
      -2.3129347313935438e-002 2.1019759851172345e-001
      -5.2960186972619639e-003 4.1963222455284090e-002
      -2.9784837234094058e-001 -1.0628639092325028e-001
      5.5674937523942078e-002 -5.1990728698224645e-002
      1.6667559322104945e-002 -2.9177215854112348e-001
      -2.6771941257391663e-001 -2.4424921867092483e-002
      5.9712257246025309e-002 2.4189676416278125e-001
      1.4044289671439043e-002 -4.0210048945037785e-001
      6.3293555370981164e-002 7.9380411630259259e-002
      1.9031813793338256e-001 -8.8091980101348374e-002
      9.4717102841926221e-002 -1.0401810608385700e-001
      -4.9001227125227545e-002 5.2120038144096914e-003
      1.6800450516472915e-001 -2.7985645575825929e-001
      3.0419421810358560e-001 2.5766007952186021e-001
      -1.2114924877831895e-001 -3.1519252316004409e-001
      -7.4177873817835013e-002 1.3161176983560169e-001
      2.1338360102791090e-001 7.9275933728082768e-002
      8.8195961259479785e-003 1.5594580240095907e-001
      -2.3417809810307103e-001 3.0945069918689672e-002
      2.3703351567553552e-001 1.7250419731841278e-002
      4.3326539409204390e-001 -3.5961514948509459e-003
      -1.3098414829937716e-001 -6.5873420224747806e-002
      -7.3773241333038475e-002 4.9939928484277279e-002
      6.1616605369848920e-002 8.3724890135140950e-002
      3.5618467392318698e-001 5.9878345470500936e-002
      -7.3229923335550548e-002 1.4407634234889777e-001
      8.5558337626042757e-002 -1.6619330660078008e-001
      1.6304814136473897e-001 -4.9619983340810310e-002
      -2.9998744208517597e-001 1.8640747830042451e-001
      -1.3808826766291951e-001 -1.6821288379014823e-002
      -4.4380257445727411e-001 -5.1348456097207240e-001
      -5.0977431572806231e-001 -1.6701823602882690e-001
      1.8771916041173414e-001 -2.2302991804560000e-002
      -4.0137493545736947e-003 -1.9681444507642179e-001
      -2.0040553073676332e-002 9.6221671627643515e-002
      -1.6993462497210984e-001 -2.5335053262276702e-001
      3.0349957242979830e-001 1.6901337599800736e-001
      1.8677496829339495e-002 -9.7992542139646616e-002
      -6.1088012084679816e-002 -7.5970438159732076e-002
      3.5269072704333343e-001 -1.4191265252517982e-001
      -3.2928848473418142e-002 -2.3612885658495605e-002
      6.7651089043870027e-001 -3.1647423604693098e-001
      1.7545533779854852e-001 -1.3153506358666170e-001
      -6.9975104128382037e-002 4.9283673542493212e-003
      4.9685808782633741e-002 -5.6272270976581079e-002
      -8.9163428545040360e-003 8.9444245554217691e-002
      -1.9584454047960004e-001 -1.7607776036082559e-001
      8.9866887493721299e-003 -2.7002622265838907e-002
      -5.9220991585446379e-002 3.1194489237828877e-002
      1.4105393562723387e-001 3.2142141743144684e-002
      1.7814213620682997e-002 -7.3509554872748795e-002
      2.8202715967248881e-001 -1.4320290884453668e-001
      -1.7904930406084013e-001 5.7100258959998609e-002
      -1.3257850039477225e-002 -1.4346994700039138e-002
      -1.8518136197116111e-001 4.5310906847596401e-002
      -4.3449618501972820e-001 1.9434387233393338e-001
      -2.5126331799269580e-001 2.4308699690773837e-002
      1.2620320214438888e-001 1.0648155718637646e-001
      -2.5076937228035202e-002 -1.3397814369484554e-001
      3.1944302802418785e-002 -2.0136287734884663e-002
      3.7879330619723386e-002 -1.7627400624306128e-001
      4.6519302443256194e-002 8.2725864817198486e-002
      -1.1574123047371621e-001 -4.2763954540373426e-002
      -1.4458520316724252e-002 -2.9126944490057766e-001
      6.5312270975021527e-002 1.5572754251885701e-001
      -5.1000367543645744e-002 -1.5841748586611953e-001
      -1.0121740386443734e-001 -1.3127253632120031e-001
      1.0060499196070996e-001 -7.2361549120094570e-002
      2.7148735289651386e-002 -2.2422008256777277e-002
      -1.7942094982654622e-001 -3.8508185784507090e-003
      -5.0778897301392831e-002 8.8813576982181675e-002
      -1.3336080594449581e-001 -1.0672328262336873e-001
      1.0149320184130417e-001 -5.5145391470368850e-002
      3.6366188897902368e-001 -1.4789561847264926e-001
      4.9323777998979697e-002 -5.3436712922153302e-002
      4.2091450905175229e-002 -2.0469112941756264e-002
      2.9599015883955426e-001 -1.5568064262212875e-001
      3.0892883441630342e-001 2.0703236767093969e-001
      -3.2475660480372544e-002 -1.6593112328545881e-001
      -1.0874175507141243e-001 7.0235499340273233e-002
      9.6974850664128989e-002 3.2173973317827079e-002
      -6.3954454992755802e-002 2.8410653711915074e-001
      -1.4913677176090720e-001 1.2609596512313884e-001
      1.2898730239667788e-001 2.4521018375444088e-002
      2.1267172589874717e-001 -4.1030254322443713e-002
      -3.0804579815841733e-003 1.3173748486681328e-001
      -1.8035345964489302e-001 -1.3596160015068521e-002
      7.6386785720185091e-002 9.4975741979772960e-002
      2.3442187922448524e-001 2.5328351098754426e-001
      -1.1373098765671000e-001 1.9477319711791286e-002
      3.7734749670272794e-001 1.0361716715101195e-001
      2.7128561118688183e-001 1.5046301612988097e-001
      -9.4126862449738710e-002 2.7170032323558729e-001
      -1.3285478800372504e-002 2.1439646870599696e-001
      -1.0631845364182793e-001 -1.4169959305512858e-001
      -4.3277282361323283e-001 -2.2940274043532552e-001
      9.2555681832024131e-002 8.8862713025107953e-003
      1.4310469525063454e-001 -4.4958007289558753e-002
      -7.3889045293551212e-002 2.2617254948314117e-001
      -9.0423264657107039e-002 -2.3768782983390824e-001
      3.4022264509757882e-001 6.4587027384497064e-002
      5.2014795651781159e-002 -1.1226525553240380e-001
      -1.7987654557323715e-001 1.3775242554648137e-001
      2.8540647503313038e-001 -1.0214491061538671e-001
      6.0058892064840420e-002 -8.7041469348793601e-002
      6.5876106465417417e-002 -2.4571004155353829e-001
      -1.5397948286300936e-002 -1.5098019848488639e-001
      -1.1189493674905451e-002 -1.3814475864998850e-002
      -5.8737202645150810e-002 1.4303891165639225e-002
      8.5923354596247489e-002 -3.5067238414471839e-002
      -2.1085837827318038e-001 6.5694155047459790e-002
      7.5117789122366357e-002 7.5170806816131114e-002
      -4.7954165207405974e-002 -5.7960113652352901e-002
      6.8780642624809277e-002 6.7210728077522954e-003
      9.5206990569817809e-003 5.5159355587689557e-002
      2.8982240723917024e-001 -5.2046935830447012e-002
      -1.2940718942565385e-001 5.8559180365804604e-002
      -4.7215687574546326e-002 1.0703726547035507e-001
      -1.3522335552774811e-001 7.7662602446739420e-002
      -3.8733090236389567e-001 5.0192501509003153e-002
      -2.2623553357601989e-001 -2.1280702802726769e-002
      2.7266509447370735e-002 3.6024044622352522e-002
      1.4367384998378403e-003 4.4675352650688581e-002
      -1.2773394644910180e-001 2.1838676247503016e-002
      1.1621378658085604e-001 -4.9551517141312944e-002
      -1.3508130377243575e-002 -1.3013430803654508e-001
      -9.7804495444658135e-002 3.1210511018807723e-002
      6.4373733356094281e-002 -1.2889819342465100e-001
      1.6073491113292124e-001 2.6404537582830609e-002
      7.2291525537075588e-002 -2.5309320433677659e-002
      -8.9655694859093416e-002 -2.5381215548501956e-001
      -3.3928818704954268e-002 -1.0390565390742695e-001
      -2.0872899988848507e-002 4.4808250313384826e-002
      -1.8836216573981893e-001 -2.4851437081718993e-002
      -4.5158858391303895e-002 1.6644488526826157e-001
      -7.9138805719406582e-002 -3.5802870984662935e-002
      7.9699523360684602e-002 -2.5962002461889255e-001
      2.0326231015390131e-001 -8.5666475048446336e-002
      -3.0567861483395901e-002 -3.1053194516021614e-002
      4.0127877667641742e-003 7.8963848334595202e-002
      2.9302343219239274e-001 -1.1197295000639654e-001
      5.8051897389428508e-002 4.8232456586291682e-002
      5.9801584929308767e-002 2.1222207704193891e-003
      -8.7501389185610665e-002 2.3406249565949933e-002
      -3.0121288752363744e-002 -9.1914805942260910e-002
      -2.2509685907061237e-002 1.6538533055265817e-001
      -1.6842001478342578e-001 5.3513211259738090e-002
      3.8723349308858401e-002 -2.5213852813557726e-003
      5.4616674353490283e-002 2.4389737152763106e-002
      -8.6303366238636922e-002 9.5119437026951068e-002
      -1.7648274670189265e-001 3.3294986183891304e-002
      8.6913870705359456e-002 8.6023018499676654e-002
      1.1236837120405423e-001 1.9441861353347109e-001
      -2.3740608456055360e-002 5.8728529037395550e-003
      3.0663976861502468e-001 -4.8154913754399335e-002
      1.5286477708497173e-001 1.1528973424056833e-001
      3.9801260976828408e-002 1.2686801743331491e-001
      -1.0224749531949678e-001 1.5141336917315426e-001
      -1.1722474894839501e-001 -2.1459426188888353e-002
      -3.1881510959645676e-001 -1.7242960330490384e-001
      -1.5066805098390064e-002 -5.9656781308340866e-002
      1.0635991010852310e-001 -4.6529121610769900e-002
      -1.1305421214106194e-001 -3.3843396021838393e-003
      5.7968158225438118e-002 -8.4011213824212436e-002
      3.1196955075280391e-001 -1.1059377115401457e-001
      4.8066798670204297e-003 -1.5423814834473396e-001
      -1.2403109982736583e-001 5.4229962762692888e-002
      2.7525471551677666e-001 6.2784566003796421e-002
      -5.8957336500089115e-002 -1.0722142512245454e-001
      7.0503857251051405e-001 -2.6307253251379054e-001
      -5.0636739441694834e-002 -2.2244892486985543e-001
      -2.6500153665328506e-002 -1.4176308013726402e-001
      3.3770444931846055e-002 -3.4040835297217763e-002
      3.0701551832444027e-002 -8.0740217127227357e-002
      -1.4719186458660791e-001 -3.1085464276601051e-002
      7.9285320815562065e-003 1.6764838910598781e-001
      -2.9179917197322019e-001 -4.4902824308377789e-002
      1.7941447878573691e-001 5.6340577020099793e-003
      -1.1237833366827524e-001 -1.5437996704368045e-001
      2.8944568413425337e-001 1.1335423408852990e-001
      7.3475944338232735e-002 -1.2221979887766205e-002
      -1.1748413937923116e-001 1.3657763130313910e-001
      -2.0957124302198504e-001 1.6997616796628798e-001
      -3.3728918863650653e-001 -9.6512590150565500e-002
      9.1274157233795228e-003 -2.9535619348118894e-002
      1.5765379829463677e-001 -1.3892073495063292e-001
      1.7208552232807844e-001 8.1449055209599872e-002
      -1.0832075583686661e-001 -5.7995984519229653e-002
      1.1735845634880214e-001 1.1581561026811610e-001
      -9.5284323756682082e-002 -2.4944134607952984e-001
      -2.2030860979193148e-001 2.0176493637187130e-002
      -8.4325835056803827e-002 -7.6008130542512639e-002
      -5.3105623517694753e-002 2.6118292060270835e-002
      7.4524421657327242e-002 2.2952956193609583e-001
      3.5037115180496972e-002 -1.2373454062554690e-001
      5.7132343863388224e-002 1.0452483934306547e-002
      5.4860032800107476e-002 3.8767449381862558e-002
      1.3214400976349969e-001 -5.2235596960436198e-002
      -6.7865984217574532e-002 8.7203857190800066e-002
      -4.2734455397251077e-002 3.0860966026481605e-002
      4.7518056895128953e-002 -3.3726814381375336e-001
      1.6811199048047440e-001 8.1220311942123521e-002
      -1.1084614006776791e-002 -1.2547974082244556e-001
      -3.0876881080272593e-002 1.9144822701237285e-001
      1.9398156247750303e-001 -1.3779981465302368e-001
      3.3253975189585637e-002 -6.8715378312474054e-002
      7.1857997342394753e-003 4.3431340456658541e-003
      -1.4186346889200283e-001 -1.9959285663292806e-002
      3.8778169710629973e-002 -2.8951677873303688e-001
      3.6509252356619899e-002 7.3865970571036277e-002
      -1.4681687476267499e-001 9.4400433877286707e-003
      -1.8247552257541474e-001 -1.6276749434446050e-001
      -1.4774104458486903e-001 5.5530483551781043e-002
      -3.7890867168649957e-002 9.6315663143091937e-002
      -2.1499105681869413e-001 9.0859362842200496e-003
      7.6690089086061591e-002 -5.0276130081274135e-002
      2.1160729948880536e-001 7.8390168698475760e-002
      1.3165779982524542e-001 -1.5824465268074905e-001
      3.8104254210392374e-001 -1.1889229156752447e-001
      -5.9565384245503718e-004 9.5899465381424381e-002
      2.1449238847002816e-001 2.5649473575792822e-002
      4.4473173780276484e-003 2.4306682620507725e-001
      -3.1350376723005079e-002 5.2501665452709713e-002
      -1.7841602445745383e-001 1.4230931740106090e-002
      3.4615798701258763e-002 -1.9276148732844986e-002
      1.3411931648859104e-001 3.8443599170782924e-002
      -1.8958041653050836e-001 5.8977190252477343e-002
      3.6885501507131283e-002 -1.7620217934813834e-001
      2.1437004867857587e-001 -3.3779010924767416e-001
      6.3092373923445716e-002 -1.3138821487073005e-001
      1.1092193962744758e-001 1.1106735615055410e-001
      1.2162739315787971e-001 1.7807548465514086e-001
      7.5734828204339841e-002 -1.1349862364694469e-001
      -1.3717999811553210e+000 -1.7437934477855957e-001
      1.1235377617781472e-001 -8.3622803933969023e-002
      4.6397588703733179e-002 -1.1783127353612549e-001
      8.2762521674750650e-002 -7.0867584898471447e-002
      -1.2237179710987103e-001 2.8049359105979128e-002
      5.1176158587350213e-003 -1.8578944697782252e-002
      1.8158630851950523e-002 1.6556467138683464e-001
      -1.9884716812170383e-001 -5.2059337797067159e-002
      1.0633209920257790e-001 1.9238865149339038e-001
      -9.5666081961121918e-002 -2.6786760543968147e-001
      2.4641658586505297e-001 1.6741308483725284e-001
      1.3229373915799730e-001 5.9134026869351083e-002
      -9.4630964337459079e-003 9.3864528635567268e-002
      -2.1391090105426325e-001 2.7045524586694825e-001
      -3.4301427168511762e-002 2.6420601181743018e-002
      -5.9543177716260328e-003 -6.4883799968335251e-002
      1.4936449691056583e-001 1.2619088578024519e-002
      2.5492157609527485e-002 -1.0988221887673028e-002
      -2.2245328598010775e-001 -6.9822088941276853e-002
      3.2029842910674136e-002 -5.1213337816370993e-003
      -1.1953740809366517e-001 -1.0203814586520223e-001
      -2.2288623822616332e-001 -3.2993360699122752e-002
      -1.2400568010522345e-001 -7.3336023545032131e-002
      -1.1037981288433532e-001 8.6091993799299465e-002
      -4.0516857090115002e-002 4.7528574969887799e-002
      2.5328682485483067e-001 -6.2469856339556769e-002
      8.3802518541791896e-002 1.0833176458144284e-001
      2.4399823968396600e-002 9.8179115500308542e-002
      3.4364486267046641e-002 -5.9260538640011490e-002
      -7.4644548924944765e-002 1.4142189234880302e-002
      -9.3581705104324731e-002 4.3456152051224613e-002
      1.2421334503028014e-001 -2.3370228490279776e-001
      5.9304121302038645e-002 2.4964637794543101e-001
      3.2518384136151886e-002 -9.0882664438777794e-002
      -1.2308454046788674e-001 1.6380307090926205e-001
      2.8697031261037664e-001 -6.4628708608795479e-002
      1.0625753808245404e-001 -1.6562174130620005e-001
      1.6221175454149524e-002 5.1584071186611874e-002
      -9.5394874235163657e-002 -7.3520404623670627e-002
      -4.4942790558390164e-002 -3.8572546107734274e-001
      -2.9153000069162941e-002 2.0620640636651880e-001
      -7.4816836348138183e-002 -3.7814736422775538e-002
      -2.4083573338544631e-001 -1.0307282384810655e-001
      -2.0818152376791460e-001 -5.6288703287731397e-002
      -7.1080099189153020e-002 1.6247350607311220e-001
      -2.5256292855292622e-001 4.4588359479692764e-003
      5.8063013565198690e-002 -1.7304323243719891e-001
      2.0717295682800707e-001 4.8983009589353622e-002
      3.4971209457829819e-002 -2.0887786915051440e-001
      1.8748079269246748e-001 -1.3958997687770822e-001
      -1.3259381688581556e-001 1.1248608142974276e-001
      2.1771489648298678e-001 -8.2835397413975206e-002
      4.2608965046877327e-002 2.3163888160335236e-001
      -5.4296348946742706e-002 -7.2735093912906224e-002
      -9.1206769873961632e-002 1.5021058641529800e-002
      1.0887813363299349e-001 -1.0187902730666722e-001
      9.0017326588172769e-002 -6.7515279809243781e-002
      -1.7685073387192768e-001 1.3781300355185930e-001
      1.1961839859971815e-001 4.1513902509770981e-002
      2.9969114777349715e-001 -2.8002171948547372e-001
      8.6115923828291863e-002 2.8727610692363243e-004
      3.2020235168060573e-002 1.3963035348106409e-001
      -3.4260492789880892e-003 8.0522788392602615e-002
      1.6435970658185645e-001 -5.4320966939688096e-002
      1.6590914549709562e-001 1.7305445730592589e-002
      7.6591333126561828e-002 2.9090840531811876e-002
      -1.8667444579232414e-002 1.1280855000211702e-002
      1.1802805219583554e-001 -5.4616284749588385e-002
      -6.2815965646140157e-002 3.8406328430476540e-002
      1.2514130956006778e-001 -4.2851631312919476e-002
      1.5211680079148829e-001 7.4806594135263360e-002
      -2.4960536914602757e-001 6.3861193384727837e-003
      1.2372956207159250e-001 -1.3610248717188164e-001
      -5.5706230334986194e-002 -2.4991028604921003e-001
      1.5869734031220034e-001 2.6255263294832271e-002
      4.0240360237361730e-002 2.4161891863649429e-001
      4.8444368035399615e-002 -1.0099304582460732e-002
      -1.6382006112700095e-001 3.6686956319929027e-002
      -5.4921384989574204e-002 -1.3736777911357406e-001
      4.0389295338513063e-002 -4.7759337956516455e-002
      1.4941198583887749e-001 -1.7108121718527292e-001
      -3.3783602870835046e-002 -1.9433544686009338e-001
      -5.7301878771111509e-002 -4.7172147269704333e-002
      8.2969489331777613e-002 1.2417280012275546e-002
      1.1065443602349972e-001 -3.5778525205414823e-002
      -1.3935799513072833e-001 -5.0480297314753446e-002
      -1.2723485502220874e-001 -1.4841790762355236e-001
      -1.8265993165919650e-001 1.1299438332410310e-001
      -1.2790038409072094e-001 -4.0538128849416301e-002
      8.6772404081372059e-002 2.9217836480540688e-002
      1.4738318240145093e-001 1.0216816510110738e-001
      1.6490159862485733e-002 4.1054086030750496e-002
      -1.5095029991652995e-002 8.2341391127218264e-003
      2.0436577023130762e-002 -1.7254262979721249e-001
      7.3058203835437471e-002 -1.8984733535430656e-001
      7.1295352343420354e-002 -6.5339253636147343e-002
      1.8958754095130850e-001 7.5499383737481426e-002
      1.5114885159701874e-001 -2.8125843590151312e-001
      -1.9685536393937339e-001 9.9521956399881942e-002
      2.0481308981082838e-001 -1.0137605071569643e-001
      1.7597975185830214e-001 -8.1698337012808930e-002
      9.0098282513055190e-003 3.4580346118496856e-002
      -1.0105852973167809e-001 7.1978330597688156e-002
      -2.9578238013994975e-002 -2.2640838551329806e-001
      -9.3683009275278617e-002 1.7913382299113892e-001
      -1.0910122517302445e-001 -8.4313311421338757e-002
      -2.8957169782357328e-001 -1.9656166550186049e-001
      -1.5467631434210011e-001 -1.1210408368600389e-001
      -2.0336871567886161e-001 6.6533191964890187e-002
      -2.0149562285848330e-001 -1.9682225916687634e-003
      1.2912497469882557e-002 -1.9243238082312980e-001
      3.2235651152994527e-001 -5.7056601721362805e-003
      9.2756257779952139e-002 -1.2651539304025028e-001
      7.5970917820445988e-002 -1.0735613225527960e-001
      -1.2943636427919078e-002 7.7239654878702768e-002
      3.4574020812019434e-004 -7.6551960998938101e-002
      -1.6644059628755936e-001 9.5916038820059724e-002
      -2.9142153035677237e-001 -1.6074893866120307e-001
      -1.3999952110907332e-001 3.7589766762794623e-002
      1.6796272144058913e-001 1.9475586885409960e-001
      6.9593400932304719e-002 -7.7588673593870505e-002
      -2.0626447276569190e-001 4.0025312890921011e-002
      6.6697431483932479e-002 -1.5063771616925445e-001
      1.4794025100060873e-001 -3.3088298418525441e-001
      -1.2139636900893237e-002 3.5430323565573546e-002
      -3.7707044697421234e-002 1.4410431459750364e-001
      -1.3459447650707623e-001 3.7641931212816039e-002
      1.5555126328519889e-001 -6.9579495073784428e-002
      2.7206715656949665e-001 -9.6782479706686658e-002
      -8.9486170417304292e-002 8.6352069758827060e-002
      -1.0197650757032065e-001 -5.5108888978763752e-002
      1.1819194748166538e-001 -9.2413400803583838e-003
      -3.0861919148266428e-002 -2.8875450022220234e-001
      2.4223543490809569e-004 -1.9284704530897364e-002
      1.5043534260024943e-001 1.6770672422948898e-002
      -8.7988723666254987e-002 -8.9205022619334176e-002
      -2.3073522825516540e-002 -5.5170721971784284e-002
      -9.6711498009364030e-002 7.3249177442890778e-002
      3.1323386222300881e-001 -4.4135535034519870e-002
      -8.8140834527744696e-002 -6.5805637513304593e-002
      5.6222405822628605e-004 -3.1271612182044502e-002
      -9.2577623972605175e-002 2.3209791064006652e-001
      -3.3808856761831363e-001 -1.6736431775189597e-001
      3.4019192631323657e-002 1.2107703571277320e-001
      5.1669973429437487e-002 1.0827278321098614e-001
      -5.9927115996930298e-002 1.9349680507891376e-002
      -1.0119744860093259e-001 3.0090624289844388e-002
      1.1561505697188582e-001 1.9311048213155999e-001
      2.1862324744950234e-001 -2.6999585969096140e-002
      8.9040446577865834e-002 2.1578008777975232e-002
      1.7017232409111201e-003 -1.4800400737418279e-001
      4.1856266049249469e-002 -1.5505367310965265e-002
      1.7017673815944809e-002 1.2445030950023257e-001
      7.5763672127251366e-002 -1.3997617565749218e-001
      -3.7036719311517419e-002 5.7876427943657105e-002
      5.1105766932882386e-002 1.2939543428191341e-001
      -1.0160560686912604e-001 9.1024635658362565e-002
      1.0220253474874232e-001 -4.5875249178517603e-002
      9.4721406356098922e-002 8.3464060227700407e-002
      2.7230032872786549e-002 -1.3658060617080342e-001
      2.0426156114923480e-001 -1.2936318943758771e-001
      4.8780265001904313e-002 -2.7740963244190275e-001
      1.6085575128886271e-002 -3.6234137729451764e-003
      3.6081137327586005e-001 -1.7668524051137915e-002
      -7.5644763608369706e-002 -9.5911750136237137e-002
      3.9871810438595355e-002 7.3240405840681352e-002
      -4.9013019150418301e-002 -1.5182781760456955e-002
      2.4807127043851057e-001 4.0852733156680629e-002
      -8.5722705958235598e-002 -9.3012464429953173e-002
      2.7901050029379643e-003 5.0961760650243000e-002
      -1.7246362449893887e-001 -1.5846369299202012e-001
      -2.0533270378024510e-001 1.0046837712957835e-001
      -2.1685977214958099e-001 2.8164093058365014e-001
      -8.8834850633480358e-002 6.6988400251810479e-002
      1.8476316777855502e-002 -5.9952536410451000e-002
      1.3825994888837978e-001 5.7350730872932056e-002
      1.3613079312357881e-001 -1.5955939948477119e-001
      2.6282962494113560e-001 -1.4282742400777657e-002
      1.4267762328823710e-001 4.1384232795656756e-002
      3.0937674407655907e-002 -2.0272120721792833e-001
      -2.6826468339706916e-001 1.1355024939003779e-001
      -1.1687343364307755e-001 3.8574480784554116e-001
      -1.0536917155491382e-001 9.4643473113102311e-002
      2.8061949606057728e-002 2.0613745507920545e-002
      1.1470199018693494e-001 -6.2572054436094371e-002
      -3.5297368670996587e-002 3.1495633662152085e-002
      1.0185846252046509e-002 -6.1316960281757808e-002
      -1.6514671154970080e-002 -3.0927006092984966e-001
      -2.9121578018344130e-001 -9.1515758628581592e-002
      -1.1348544661597151e-002 5.6508596803002666e-002
      6.3573113419594124e-002 2.5553971428605277e-001
      -1.2246584206202697e-001 -6.3165211778059158e-002
      -8.7926549736831311e-002 3.5514186024794621e-002
      -9.6410474849052227e-002 1.9299746924711977e-001
      -8.3210941674926306e-002 -4.8310687198021486e-002
      2.4033649109939637e-001 1.2296238788406291e-002
      1.3843673009823330e-002 -9.6726746243210357e-002
      1.7198781774195329e-001 -1.5495779160269510e-001
      3.6331219230864026e-001 9.6446428815891078e-002
      2.1956772140706684e-003 -1.1673121281626642e-001
      7.0077631629498014e-003 -6.5509208842776889e-002
      2.4131877991088440e-002 -1.2145656908182845e-001
      5.7844098319525840e-002 -1.5999699576770754e-001
      -8.4802300886038934e-002 7.2019564524396493e-002
      1.9020296644860275e-002 -1.3461113327542351e-001
      7.4154529124578150e-002 2.0154900066681533e-001
      -2.2258306862237265e-001 -5.2207447771320505e-002
      -1.0061520178304324e-001 5.8139524321089632e-002
      1.5601170395673840e-002 1.6088730191531889e-001
      -1.7199071162146588e-002 -1.8660256847969409e-001
      1.1342196138579367e-002 2.1248412721425806e-002
      8.4497555811751029e-002 3.7148162288935527e-002
      2.1917244506299111e-001 -1.1302594995704360e-001
      2.1808576865455936e-001 -5.3329495010051312e-002
      7.8450549946846374e-002 -1.5734256857836590e-001
      -6.4774421916587638e-002 -1.7744489539850146e-002
      -1.4681329851613419e-002 7.9755653060800888e-002
      6.6443364683383174e-002 6.9458807774324220e-003
      5.6998225498392931e-002 1.5122165435491283e-001
      3.0074962015765337e-002 -3.6421406443556917e-002
      -2.0301015865345534e-001 1.5704890434410998e-001
      1.3627994670286936e-001 8.0437410937593858e-003
      1.0797256968288278e-001 -1.3716313598228741e-001
      3.9093219620274872e-002 1.1643814269325127e-002
      1.2388007456109056e-001 -1.1714560021538901e-001
      2.2628167510333388e-002 -3.0014356638689954e-001
      -2.0420705534862350e-002 -1.3132705348784884e-001
      3.6026485969508126e-001 -3.5600403732495907e-002
      2.7195042649978790e-001 -1.4303091600915831e-002
      2.4010548170154720e-002 -1.3663808271323610e-001
      -1.5728288179696989e-001 9.4689194781446870e-002
      3.5198502447148189e-001 1.7810982897336325e-001
      -1.9927072331491902e-001 5.8178950900242971e-002
      -2.1077919615077878e-001 -4.2437202993523826e-003
      -1.5134820823130759e-003 7.5954398365816163e-003
      6.8619401460127516e-002 -1.1004118711472473e-001
      1.0366623073673160e-002 7.1288055193955743e-002
      1.5011613210778335e-001 -1.0516590515409077e-001
      -3.6898358565426795e-002 -3.9889661986509423e-002
      4.6069192042771923e-001 -6.2055442714977760e-003
      1.1270140817028290e-002 -3.1054545514874122e-002
      1.9886104426292953e-001 -6.1235497664446713e-002
      2.2646497486108477e-001 2.4387161908795422e-002
      -1.4212201034340544e-001 -8.4968464977867253e-002
      8.2050698445774780e-003 -1.4015989753104605e-001
      -2.4787299176734467e-001 1.8413683866373193e-001
      -2.0232722833393571e-001 1.6124154425749138e-001
      7.4332883443466377e-002 -2.5929914914141202e-002
      1.0027262008388534e-001 2.6815446623672756e-002
      4.0140327431963350e-002 2.0228529408100184e-002
      -4.8404338916819539e-003 -2.5778090838231371e-001
      3.0672638863967632e-002 1.8310290708276711e-002
      -2.8468084014968448e-001 2.9632885274715120e-002
      -3.0333090161136462e-002 3.0408457535690908e-002
      5.8741967979736860e-002 1.3340052779610895e-001
      -1.0504241931872813e-001 5.8689200763209846e-002
      9.2789669789348272e-002 -2.3211478797598523e-002
      -1.0232101751022744e-001 1.1841848718483899e-001
      -1.4311492398615067e-001 -1.6440026363923635e-001
      1.7057159544531172e-001 1.3108830338840393e-002
      4.1947312161859339e-003 -1.4980593107026924e-001
      1.3265319778843065e-001 -1.2847431128922612e-001
      2.7446944300463000e-001 1.4841936088397107e-002
      -1.0705000162488640e-001 -7.6790243957225751e-002
      6.4125666634609127e-002 8.4213551908758857e-002
      -1.1790018517523035e-001 2.5951783234985971e-002
      -2.8429317263132733e-002 -1.9622974534552373e-001
      6.5886700234742121e-002 2.4631596871452818e-001
      -9.4493421705181754e-002 -2.1060073545768826e-001
      2.4929264295765768e-001 1.1137945984404114e-001
      -2.1554970862448009e-001 -1.4512313177341754e-001
      7.3427743796619496e-002 5.2830305236160176e-002
      9.6642551946825264e-002 1.6840683402943546e-001
      1.7873382183675773e-001 -6.0975339811738624e-002
      -1.3830665127712791e-001 -8.4676459932003151e-002
      1.5268060842545231e-001 2.5464956328467032e-003
      2.1374299362362481e-001 -1.4495396089664500e-001
      -1.9634802448211607e-002 3.4524204851405588e-002
      1.6904667989463942e-001 -2.0534813621448311e-001
      -4.5621090090248251e-003 -1.2098989088109421e-001
      1.3739113423244173e-001 2.0208081305839531e-001
      1.4753516070549727e-001 1.2736840641794470e-001
      -1.5643986437959798e-001 2.2055551084101910e-001
      2.6453294000829755e-002 1.6288709173504079e-001
      -8.8288957939596888e-002 1.5700243191303057e-001
      1.1335690938238642e-001 -4.6661387222953495e-002
      -1.5831694826843232e-001 -1.1657836862424091e-001
      -8.7530130549821009e-003 -1.1352399986064446e-001
      1.2368427075772243e-001 1.1117594542294444e-001
      5.5124251154858403e-002 -1.0436132211991943e-001
      -1.3032959231247305e-002 -6.7979922975422089e-002
      2.0278992327144474e-001 -1.4532093978948531e-002
      3.3173210764018579e-001 1.3351384517741738e-001
      1.1745364872622193e-002 -2.3635805882502889e-001
      -6.5360187337372228e-002 9.0666030176100004e-002
      2.1723718432028963e-001 5.0843017756894454e-002
      -1.7079143741932423e-001 1.5484144458227408e-001
      -4.7884294603813791e-002 -1.2402571277849671e-001
      4.2647046541130938e-003 -1.4593709137879046e-001
      -3.1223071065820649e-002 -1.1376668556846785e-001
      5.2432742670001344e-002 -1.4058223986101159e-002
      2.2083756302656219e-002 -9.5006790008751438e-002
      1.3057369494436039e-001 -2.4953742942843218e-002
      1.4371892571663641e-001 -2.3105215154940906e-001
      8.7031318733785348e-002 8.7068665857861730e-002
      1.7178626033679817e-001 -3.0232200124198455e-001
      6.4039341089558083e-002 -1.1156829922768842e-002
      -7.4895705052104466e-002 -1.8008728106612315e-001
      1.3866697246403348e-001 -1.6893022295083140e-001
      4.4095352600727326e-002 5.0108927986059559e-001
      -5.9597498477960906e-003 5.6924323888963041e-002
      1.7959607562741586e-001 -2.0976136009126356e-001
      -8.1378857647625716e-002 -8.0717302980339942e-003
      -3.3126045219219656e-002 -2.0715897243380934e-002
      7.8440286330878795e-002 -1.7845654113429754e-001
      8.8506864164082294e-002 -2.8049402630515839e-002
      -1.7032996030838723e-001 -1.6196675461524469e-002
      1.6387498290415436e-001 1.1426223509755400e-001
      1.7000113336922271e-001 3.7378640059876303e-002
      2.9407675785073913e-002 1.2534772118603008e-001
      1.3654171224574563e+000 -2.9362717728739513e-002
      2.6071311501062507e-002 8.9496995148718353e-002
      -6.0944941622206490e-002 -1.4073754325731433e-001
      1.1955444486799115e-001 4.3163390583822445e-002
      -4.5823077811129015e-002 -7.0325085291558662e-002
      -1.2427054226398436e-002 -2.7091011150960687e-001
      3.3585069697416605e-004 2.2256562203414373e-001
      -6.3979452019713959e-002 4.9740007957074957e-003
      1.3549436869095177e-001 5.5234944275388838e-002
      -8.8654444498625293e-002 1.3511983421360624e-001
      9.5132439031314145e-003 -1.2627599705002859e-001
      -2.1394382932274592e-001 1.1635813500680270e-001
      -1.3936783259479202e-001 -1.7529565338174485e-001
      8.6381833535030525e-002 7.4518406454248204e-002
      -2.2973379580804945e-001 -1.4193161160717901e-001
      -8.4324373347394025e-004 2.2772584290323236e-002
      1.1979268377316760e-001 1.9989420642400096e-001
      1.0893756769740259e-001 -5.4465903195661013e-003
      1.9487329494816710e-002 9.0495865624878005e-002
      6.2026859290076168e-002 -2.5888947531816840e-002
      1.2472815301124322e-002 -1.4570884671079390e-001
      -4.8722728121883892e-002 5.4722670853642838e-002
      -1.7229557155281552e-001 -1.4710230816844963e-001
      1.1161420147911917e-001 -8.8693093061659761e-002
      1.5483378182538932e-001 1.6410774329755373e-001
      -9.5434829201684709e-002 2.7937088037415271e-002
      -2.9579454207096484e-001 -2.8138035704160461e-002
      1.0825333526129525e-002 1.1824629683844411e-001
      -5.2821320782750696e-002 1.2197727037166095e-001
      1.0608808847672231e-001 2.7348231257211045e-002
      -1.0989646976486801e-001 -1.5275581807380623e-001
      5.4920916877455449e-002 -1.4475784873508871e-001
      3.6978812894636351e-002 -2.9009047446701901e-002
      1.6120704742245776e-001 1.0392209512229536e-001
      7.0072906915920302e-002 -9.9734906045219604e-002
      3.0462286817688516e-001 4.4261438755686680e-002
      1.6508020722426564e-001 2.1245959622258440e-001
      3.8595419996439111e-002 -2.0854402560462940e-001
      -4.3176967062235116e-002 1.1017737667285693e-001
      2.7464692839578930e-001 4.9544096863409437e-002
      -1.9294179811737833e-001 7.2625750111087656e-002
      -1.4000728402564375e-001 1.8297442572103743e-002
      7.3605452543334615e-002 2.3386873341840801e-002
      1.2455409025189111e-001 -1.5904695824004954e-002
      6.7025401941675528e-002 8.3193524987847420e-002
      1.0117012023559820e-001 -2.8992306832331349e-002
      3.6476932708642204e-002 -3.3508312225200517e-003
      8.6984559015074889e-002 -1.5939997339495371e-001
      -1.9933434926162508e-002 1.0631357368809705e-001
      1.5144244401607854e-001 -1.3749753519144692e-001
      1.3775077510337735e-001 6.1408893325295213e-002
      -1.3525581873089601e-001 2.1826561172819284e-002
      1.2412686971746950e-001 4.3272221398893786e-002
      -9.3745119864205029e-002 2.6395323473851706e-001
      -4.3333182799591523e-002 -1.2387188391316309e-001
      1.4177303974675229e-001 -1.7832691265514886e-001
      -2.3539878285296157e-003 6.1318864470707855e-002
      -4.1871963986532867e-002 -6.2538865165070484e-002
      1.3085501881113137e-002 5.0500466421873884e-002
      -5.9541378915352959e-002 2.2623021003769087e-001
      -8.3289272643010656e-002 7.4030830378400440e-003
      -4.1295580323980334e-002 6.5823884087840803e-002
      1.5686411973165959e-001 1.9717524381232304e-001
      -5.7397973620632411e-002 3.2694038062759119e-002
      3.3191890392344856e+000 1.5309281353551817e-002
      -4.5522372585389263e-002 -1.7311046795497293e-002
      -1.3492703393374081e-001 -1.0781380491581490e-001
      4.3242393015376995e-002 2.9523179376478543e-002
      8.7726335477766190e-002 -8.4751720555273052e-002
      -2.8700467863317498e-002 -2.8888465643800730e-002
      -4.3850324641414126e-002 -1.3995076403740101e-002
      1.9633947016675812e-001 3.0166352301863687e-002
      2.5701230884874079e-002 -1.5400273770567446e-001
      1.0229652172197216e-001 2.6520938053764702e-002
      -3.7184622319649974e-002 -1.9638999217048817e-002
      -1.6607298424134970e-001 -1.8746591648930730e-001
      -8.4927469750200324e-002 -3.0143597897305274e-001
      1.3633860152181049e-001 -1.5645162095693890e-001
      -5.4357020924193034e-002 -2.4637907961417110e-001
      7.9605060637785538e-002 1.1297503828963426e-001
      1.2858208474907545e-002 -3.0404940128432780e-002
      1.2535456392122488e-001 2.9593735003946617e-002
      1.7521366355232582e-001 8.1053182240623217e-002
      -1.1251679470333548e-001 -2.0307980735568085e-002
      -1.3529558558846300e-002 -1.2023352299281558e-001
      1.9961580565178560e-002 -2.5443524182710193e-002
      1.7021748420661804e-002 5.8536502809141272e-002
      -2.5854097784821228e-002 2.1431070936694996e-001
      7.8186371252313286e-002 4.5989897544439123e-001
      -1.5434564580807530e-001 -7.5933675913708754e-002
      -1.0420044704218423e-001 -4.3317524368825785e-002
      1.1276872805753661e-001 -1.1634463531392737e-002
      4.9292626970503049e-003 9.7336561885064843e-002
      1.3366156184640812e-001 1.6996031444827270e-001
      4.3193430436022310e-003 -7.6713350653480228e-002
      1.1770455360125331e-002 -1.2673355528322852e-001
      -1.0960391043925378e-001 -1.9132657216834246e-002
      -7.0346076269980753e-002 1.3499340416382360e-001
      4.4378765238671430e-002 -2.6287024615500709e-001
      4.2638285302914705e-002 -1.5312466671058117e-002
      1.4068947267161749e-001 2.8204536382954160e-001
      -6.9370334901512315e-002 -2.0724649501095474e-001
      3.0504335801183089e-002 -1.7829172808751952e-002
      3.4573521069745100e-001 1.4101090278281775e-001
      -2.0552829417342558e-002 2.6484877103412643e-002
      -1.3184647180916098e-001 -1.6458586683918391e-001
      1.8937634623166100e-001 1.3167475704636150e-001
      3.3855486684207031e-001 1.5406007549185493e-002
      1.0433202527699213e-001 -3.1063761563157155e-001
      3.1590536686344572e-001 -1.2990422086482384e-001
      -7.2805134849421209e-003 -3.0643701363268664e-002
      7.7803061795371095e-002 -6.3899052601842338e-002
      -1.5861914539547736e-001 1.4580279896438250e-001
      -1.4439532064552685e-001 -1.2073648295869950e-001
      -4.7074975018847824e-002 9.4448938977530084e-003
      -1.2657317241315652e-001 1.4789296166277308e-002
      1.6260587347893879e-001 9.2550775509465291e-002
      -3.6087214125419848e-002 6.4622721766868729e-002
      -2.4967569755056113e-001 -1.7768802690111837e-001
      1.2140190588301127e-001 6.2548281099090441e-002
      -2.6796774952614960e-001 -4.9931024335007908e-002
      2.6778236339377814e-002 -9.3737050643430048e-002
      1.7032383163317700e-003 -1.2561078140885235e-001
      -2.2935155264143253e-001 2.5356870461583031e-001
      -4.2216284622045984e-002 9.4393655524000322e-002
      8.1421603639893966e-002 -5.9297071676563395e-003
      1.1809295260891639e-002 2.2040928710047199e-002
      -1.8287284634465134e-001 7.5447656860984175e-002
      6.9611935807720049e-001 -1.7221695449765517e-001
      3.3350567471185887e-002 -2.6917053611495656e-001
      1.2515605808841815e-001 -7.6040572823656505e-002
      4.6016358960921031e-002 1.6919321627998499e-001
      -8.7618016483289110e-002 -3.6030060837475580e-001
      -2.6941193068377040e-001 2.4565748678475857e-002
      -1.8984685151291336e-001 1.8565712954745686e-001
      2.6374943558595570e-001 -2.9086468489235000e-002
      -4.9574915302312665e-002 1.5940876373468124e-002
      -9.8849264800534659e-002 -4.6232295022403141e-002
      -2.5277496028418367e-001 -1.6860994094023093e-001
      -2.1076184704519327e-001 -3.5366484257424569e-001
      -4.3732280431867700e-002 8.5132727813604009e-002
      -1.2004862681496503e-001 -1.6294520762824813e-001
      8.1753490749121790e-002 -6.7356462907448254e-003
      -1.2083788445791249e-001 -1.3170324273637718e-001
      -1.2409641644250477e-001 -1.1295780266216039e-001
      9.0718231960573284e-002 3.5390835300928725e-001
      3.6689318333667631e-001 8.9848671711373979e-002
      -1.2625255087671017e-001 -1.5916888254127315e-001
      2.4784101574003273e-001 -1.6169288137096632e-001
      3.8331846776685374e-001 1.3187491468508517e-001
      -5.4886742526033629e-002 9.0879247257603005e-002
      7.7575422448195467e-003 3.0384518681685563e-001
      2.6728470077929740e-002 9.9390034517423356e-002
      -3.4644569171900469e-001 -2.0458385601707163e-001
      4.4875645315923980e-002 -1.8726492793697083e-001
      2.2009905767440147e-001 -6.4198590272969772e-002
      -1.9363065383143082e-002 -4.5643140942902845e-002
      -9.1990106989581807e-002 1.7110562373655230e-001
      3.1552615768975265e-002 9.2683214195063326e-002
      8.3865956880914680e-002 -8.4710935701837881e-002
      -7.3817384718291801e-002 -2.3536815205616451e-001
      -1.4406434193057699e-001 7.1853731813760466e-002
      1.5163469407433150e-001 -2.7276186724794055e-001
      -3.0266138846558654e-001 -1.3488242825059432e-001
      -1.3873862848112644e-003 2.9067800446413322e-001
      9.7952498299114316e-002 -3.4903698115311091e-002
      1.7032561363581997e-001 -2.3591618439800434e-002
      -7.0701848434552572e-002 2.9956319464394293e-001
      -2.4269179960441385e-002 -3.5367479764035641e-002
      5.5326829630579923e-002 4.4102061825739402e-003
      3.1410984866893316e-001 2.2478889926297468e-001
      3.1406058603791864e-001 3.6054753439493931e-001
      2.0524523811120404e-001 -2.5954121028582500e-001
      2.8632186376263041e-001 9.8354202262643294e-003
      8.5372631737897081e-002 1.9640635907918358e-001
      -1.1710116053222534e-001 5.9399046255124356e-002
      -1.0040236418836734e-001 2.5964604602574609e-001
      -2.3919900008278271e-002 1.9898391788500100e-001
      6.6604426729686916e-002 -5.8827346804308171e-002
      -8.2548325532143405e-002 1.7849628857544322e-001
      2.4797564938798314e-001 1.8807794326818500e-001
      1.8687072061145141e-001 1.1078656064066883e-001
      -1.5400925895695564e-001 -3.1018432972958254e-001
      -9.1193161943028261e-002 1.0735152523721496e-001
      4.9876034890017143e-002 1.2610014034390762e-001
      7.9399555851182538e-002 -1.7581069456693105e-001
      -8.7766818967720595e-002 -6.6537184942592045e-002
      -5.1414733381103461e-001 4.0129601281381949e-001
      -3.0192622368509937e-002 1.9986116544502698e-002
      -4.8494758453500094e-003 -2.1109202071865532e-001
      -7.6162466876107227e-002 1.3489410452986956e-004
      -2.7272092080337534e-001 -3.9957788895012815e-002
      -7.5052949245607792e-001 2.1813388088654828e-001
      -8.2601269343626410e-002 -1.4963012631881297e-002
      1.1553784982912561e-002 -1.7650418007123353e-001
      1.0873767507243494e-001 -4.9369248292266085e-004
      1.9185754765573745e-001 -2.3488836759565762e-001
      -1.5382103074974139e-002 -7.3986090662782888e-002
      1.1832728118225168e-001 -4.8326230635492878e-002
      1.3837806820246931e-001 3.7619966893382234e-002
      -9.2701266236959193e-002 -1.7058593210887410e-001
      9.4931319624270816e-002 -5.8972107872690860e-002
      -2.9290735277783114e-001 -1.4594293649314311e-001
      5.8049631130721507e-002 -2.3063505135613371e-001
      1.1396162455983905e-001 -1.8726471319531640e-001
      1.4904822254983818e-001 -1.8946210881664394e-001
      1.8327886711393029e-003 -8.4286195759553470e-002
      1.5009442832044795e-002 -7.4693413004508602e-002
      -1.7346935864061244e-002 -1.1165926551974728e-001
      3.1262162842340478e-002 -1.0766381685596756e-001
      4.2682011855779134e-001 -1.3240089443839265e-001
      -8.9331727001437530e-002 -8.7541088657825616e-002
      1.4998173259942826e-001 -6.9714930015799840e-003
      1.6063646929694211e-002 6.0831283705429680e-002
      3.9927054401743677e-002 4.0706342019953386e-002
      -7.2770683475777392e-002 5.2450377118025615e-001
      1.9074974252502688e-001 7.8788741230323908e-002
      3.6862060667118036e-002 -6.9066901616703688e-002
      3.5796844896334507e-001 -3.9637956956810619e-002
      1.2995491418863973e-002 -4.6810824849988608e-002
      -6.9759457179106629e-002 -2.7857247856916754e-002
      2.3413346264815216e-002 1.1625907858038202e-001
      2.3534332638612479e-001 -1.4506091354080017e-001
      -5.1379440420004217e-002 1.6717977897818689e-001
      1.3187591958520881e-001 9.7867242984141595e-002
      -1.2791074129092661e-001 -2.3945335951902716e-001
      -2.9242767669635006e-001 1.3742623376503274e-001
      -2.9051986271090305e-002 -3.2813830378400805e-001
      -1.9870746134864023e-001 3.4304785236721363e-001
      -5.3329259966903846e-002 -1.3427313793413004e-001
      -1.2729428986121114e-001 1.0421865101732440e-001
      -9.8811661404851744e-002 1.2169405493257257e-001
      -1.1477840463821710e-001 1.0885593386421143e-001
      1.3981370542626076e-001 -3.2842311686177234e-001
      1.6963928365613001e-001 9.0256034769905982e-003
      4.3126391158505839e-001 -1.0448802264284424e-002
      3.0060296358192529e-001 -4.0909630213071818e-001
      2.2413200513216547e-001 -8.4557197656050853e-002
      -3.0251814425987733e-002 1.8111302651931677e-001
      -8.9859162463475112e-002 -4.1347075181597373e-002
      -7.0943561252915607e-002 1.0325789195241004e-001
      -1.0266372787913093e-001 -2.0955486748273283e-001
      6.2903243853895049e-002 -2.2666577104968483e-001
      -2.0175383363683436e-001 9.4939615875582212e-003
      3.1843554519645195e-001 -6.3237765039325641e-002
      -7.5442177196249224e-002 -2.7431913171066580e-001
      -8.4797106996598773e-002 5.1040763998059117e-002
      -7.0256755985832267e-003 2.5167559643938409e-001
      -1.4472703477506996e-001 -3.7322816282321664e-003
      -4.0217083203177698e-002 -1.1399443455190648e-001
      -1.4431389651698698e-001 -1.9741693000040866e-001
      -1.2523922577297711e-001 2.6005054518062171e-001
      -1.4025861200774692e-001 1.1298973288892000e-001
      -1.8553200796100047e-001 -8.1643557407680978e-002
      5.9436933457086387e-002 -2.6360265736740196e-001
      2.4078961193724623e-002 1.7716517935720191e-001
      3.5121080535380178e-001 4.0392960478009576e-001
      -1.5015128727527802e-001 -9.6031182042840293e-002
      3.1643484322263715e-002 -9.3030620830334199e-002
      4.6310005184435205e-002 5.7494005209494339e-002
      1.5354758562451207e-001 -2.7398087658912573e-001
      -1.2912396434328749e-001 -1.8357936662492105e-001
      8.2577381309729789e-002 -1.0195243335103092e-001
      2.7625332243688355e-001 1.1510024193288965e-001
      -2.5558472333375399e-002 -2.7444715988878604e-001
      7.3114480364841763e-002 1.0721934314603962e-001
      -4.7803895236307281e-001 -1.9505275083216952e-001
      5.9082797887901335e-002 -8.3706756745663954e-002
      1.4015208532569559e-001 -9.0120875613579829e-003
      1.0513274858423520e-001 -1.4961455126512907e-001
      8.8569641072432134e-002 -3.8518693155075237e-002
      -5.4434508716292303e-002 -2.3790964149261445e-003
      2.8007409178588360e-002 -1.3622518191610858e-001
      -7.1382884196380850e-002 -1.8745903756165078e-001
      4.3471068350229441e-001 -3.7615208881440633e-002
      1.9599169303277191e-002 -1.7541455642970000e-001
      1.0130119224264957e-001 -7.0015611192217928e-002
      -3.5386917616386404e-002 -2.9735583528022216e-002
      -3.3213727607660129e-002 3.9875365030393101e-002
      -3.9658724127666987e-002 4.2515805437362397e-001
      2.0702871441775170e-001 2.4812570264140851e-001
      -1.9358187297039808e-001 -6.0360215371488987e-002
      2.4680112225696721e-001 -1.1483491133492653e-002
      -1.1216115453742011e-001 -2.2361475004567358e-001
      -1.3603000769903337e-001 -4.4868190305788772e-002
      3.5421450807686369e-002 2.2484512018866135e-001
      2.9421616140548545e-001 -2.8839963630942544e-001
      9.0540749980771162e-003 2.0270506151276499e-001
      5.0743224123497535e-002 -3.1541900610804384e-002
      -1.6727164757470495e-002 -2.5798421595283461e-001
      -8.0703107054911280e-002 -6.0651811774333576e-002
      -6.3366465100380534e-002 -2.3152904607512728e-001
      3.8320510640871996e-004 2.7087702739511432e-001
      -2.4918637385997783e-002 -3.3353951152054967e-001
      -1.9516347745958337e-001 1.0813378551305060e-001
      -9.6927653449354154e-002 2.2948144507188492e-001
      -1.0023285629460327e-001 1.0241568488006142e-001
      1.1441165541187780e-001 -2.3455366462104293e-001
      1.6647560379503359e-001 3.3578553176837521e-002
      6.5295715443629421e-001 2.5498663887825651e-001
      1.2199201655975225e-001 -5.2168332609055812e-001
      3.3724427144755448e-001 -6.7634424791786107e-002
      4.0794788042259854e-002 3.3383224405024398e-001
      6.0993155127578955e-002 2.8183527639620131e-002
      -5.3605911764901502e-002 1.8099034602535577e-001
      -1.7378767080822294e-001 -1.9226725653602759e-002
      1.3177239316013203e-001 -2.1086297171054311e-001
      -2.0943930397025243e-001 1.0378526892403563e-001
      1.6141124873301418e-001 -1.8136214782979226e-003
      -1.4210341336462917e-001 -2.4391715605079178e-001
      -1.5556103330309506e-001 -1.3339317414158458e-001
      -1.0348538118552607e-001 2.2531806202795579e-001
      -2.4709594861727047e-001 -3.6984115891292940e-002
      -7.9905763232678405e-003 -1.1597693779464022e-001
      -1.4219509392794971e-001 -1.7945544604054353e-001
      -9.1785466645073505e-002 3.9399086064383759e-001
      -9.6425080168545840e-002 8.8404931913542747e-002
      -1.8628359896607455e-001 -2.7832987675786997e-001
      -5.7852710783699119e-003 -2.6221434311222330e-001
      -8.4135028267730075e-002 5.5637086925767847e-002
      -2.4020264107217351e+000 1.6189067057713119e-001
      -1.7400833261895965e-001 -8.0773694515144129e-002
      1.0333665769422696e-002 1.0561342130474627e-002
      -5.2349724437707051e-002 8.2815155919425190e-002
      1.9855183167345772e-001 1.0418124328231940e-001
      -2.6036633157207389e-001 -2.2396289890687014e-002
      -1.3916552905113441e-001 -3.9004557549616470e-001
      2.2434226165932969e-001 8.3384517119324722e-002
      -6.9315742071676539e-002 -2.2786740967117775e-001
      3.1682567582237275e-001 2.1392068377388343e-001
      -3.8385819114984010e-002 -3.4255830602408283e-001
      -1.4215897537298577e-001 -3.0447160594895399e-003
      2.0864256539614748e-001 1.3034050693345287e-001
      2.3755062192482211e-002 -1.7817156995397435e-001
      -1.5695007230287467e-001 -1.5475965439816392e-001
      -8.7927352259299679e-002 2.6655640273823222e-001
      -8.2782931103954991e-003 -1.7166809906784115e-002
      -1.6829003172254187e-001 1.2021303905942053e-001
      2.4371573917215436e-001 3.8952339173806479e-002
      -1.6107820548461875e-003 -2.2896851951285210e-001
      -1.7243087589086134e-001 9.9353782747639119e-002
      -6.1037311650266733e-002 9.0635413660217018e-002
      -4.7557035875369132e-003 -2.6145128520027140e-002
      1.4423438307178577e-001 1.1631533535571914e-001
      1.8687568331695348e-001 -2.1429227788762106e-002
      -4.1561656965369675e-001 -1.1888730196288909e-001
      1.6560717361850427e-002 -9.6693741746785106e-002
      -9.7034286957915189e-002 -3.0903742348421770e-001
      -2.1423528062492345e-001 -4.0401194408351077e-002
      1.6142586408310288e-003 3.5507567847575650e-001
      1.8263936522040888e-001 -4.8235269620770044e-001
      8.7185765607053725e-002 7.7705144777790669e-002
      2.3711468150664186e-001 1.6754573478606080e-002
      6.5865211999527148e-002 3.7721626003254290e-003
      5.5637633898802360e-003 5.0246022852179932e-002
      1.5949037092097353e-002 -5.9705766505469868e-002
      9.7496914756373440e-002 1.8475292198748755e-001
      -2.6671357506856726e-002 -2.9193065476954438e-001
      -1.4735801491828288e-001 2.6278857959094554e-001
      -2.2473543464300982e-001 1.0047018528931952e-001
      3.7097716220470263e-002 1.2384146871446101e-003
      -9.0357822534714236e-002 -7.5703954321130348e-002
      3.7385723005597915e-001 3.0335981129209494e-001
      2.2780748764089323e-001 1.9500450813792233e-001
      -1.2386780251444142e-001 -2.2554870506348756e-001
      1.2524496033017599e-001 1.5054963822958459e-001
      1.5961295637331238e-001 1.3539559339228194e-001
      1.7135786319040161e-001 -3.1184795789346274e-002
      -2.9992975902302255e-001 3.5223339028676626e-001
      -5.5529672388562289e-002 -1.3357346092897804e-001
      -2.0802263339603506e-002 -5.8918087544773498e-002
      -1.9631247317979020e-001 1.7526881050177939e-001
      -5.5735698196474608e-002 -3.1313012891335362e-001
      -2.8938073040627921e-001 -6.4940528624357208e-001
      -4.5067771219968950e-001 -1.3982726589036490e-001
      1.4462909691293952e-002 9.2001731363346606e-002
      -1.5014147411911466e-001 -1.2418719256519546e-001
      -5.2844628472960096e-003 5.8284754236190221e-002
      -2.4327082044522655e-001 1.1737009546436090e-001
      -8.8649608427973509e-002 1.9277538681668790e-001
      -3.0734639430477519e-002 -8.9125093982033873e-002
      -1.5422460425548479e-001 -2.9700062033357066e-001
      3.7337607651454913e-001 -2.4502350944989071e-001
      -1.6686421983666519e-001 -2.0746924584799747e-002
      -2.2041646009591571e+000 -9.8338493296757271e-002
      -3.0056941707093516e-002 -2.2645441159400367e-001
      3.4049558305467215e-002 1.5166135559933430e-001
      -6.0396037086206694e-002 7.0019220201737439e-002
      3.6986373582569765e-001 3.1445402160071256e-001
      -2.2283338865918623e-001 -1.4558136701732979e-001
      4.5369956672985434e-002 -3.8409362064675590e-001
      3.8480476856823248e-001 3.0044434458519498e-002
      7.8377711580527545e-002 -1.9609472648397994e-001
      3.4970151233732255e-001 1.0948756031261766e-002
      6.2681224528047863e-002 -3.8236787521451882e-001
      -1.9474072873746842e-001 -1.1273685768831276e-001
      8.2340604075956947e-002 6.6624701284339838e-002
      -8.3600138997718954e-002 -2.7906740231386290e-001
      -3.2473489410943673e-001 3.3878825420191376e-002
      -1.3148711190264653e-001 1.8379103183362530e-001
      -6.5429447437271748e-002 -1.5624880349497945e-002
      -2.2150257212030114e-001 -2.5110629395673286e-003
      2.9498332184576487e-001 3.7106619397550458e-002
      -7.2780741461568932e-002 -3.8160584486540938e-001
      -1.4435539371820572e-001 5.2827680613270235e-002
      -3.0974584386334814e-002 4.0125497492184248e-002
      -4.5997040135780078e-002 -4.0533190271783912e-002
      1.0784611031921289e-001 1.1215218880947422e-001
      1.6745527289946535e-002 1.2438907270760755e-001
      -4.9485896553971831e-001 -2.1042693029242759e-001
      1.0357703993474995e-001 -1.5281847050147504e-001
      -1.0138122314251197e-001 -2.0746259552108903e-001
      -2.2592078260296497e-001 -6.7827392204860851e-002
      -1.3211991295972683e-001 4.6708714808838159e-001
      1.0060259645687285e-001 -5.3707345111698612e-001
      2.8017959609911669e-001 -1.8662017238263575e-002
      1.8032657932058527e-001 -1.9134169262814577e-001
      8.0388392147197771e-002 1.1689990355023247e-001
      1.4736809537780451e-001 7.2225826353548581e-003
      8.0903323734026866e-002 -1.9736216155057620e-001
      2.7136497873223725e-001 1.5172036690954349e-001
      -2.4135482895141485e-002 -2.7851755678909113e-001
      -1.7139846978286072e-001 2.8909490869952520e-001
      6.4783823908920249e-003 9.5808204432711569e-002
      1.3733496394413966e-001 3.4921336403579327e-002
      -2.2360904663241049e-001 2.1312943444459092e-002
      3.6080584082640887e-001 2.5203393714648936e-001
      4.5917741674854462e-001 2.1091577206652998e-001
      6.7606072761622185e-002 -1.5574456973464942e-001
      3.1742446080400444e-002 2.3600307475926428e-002
      1.1218806421968563e-001 2.7885862806479689e-001
      3.8101515190171076e-001 -3.3215587823099878e-002
      -3.0819299581895504e-001 3.2613683385124403e-001
      1.7191569638189874e-001 -6.5721491488060970e-003
      2.5599621542192508e-001 -6.8007033093425776e-002
      -2.8515394820781703e-001 4.6646724672155965e-001
      2.3687386653428809e-002 2.7539551388268045e-002
      -3.6207076365376262e-001 -3.1893678132277054e-001
      -5.0772565176516715e-001 -3.7208521193943966e-001
      1.8021688144654907e-002 9.2396178393704564e-002
      8.1075090177902487e-002 2.1276967094035787e-004
      8.4375029176076158e-002 7.6264756236387399e-002
      -2.6061972879125078e-001 8.8395214805392613e-002
      2.0865385128296596e-001 1.8521347675508157e-001
      -7.2799423201466443e-002 -1.7919731210339584e-001
      -1.4833185809776003e-001 -2.7824332694348874e-001
      4.5480473467340859e-001 -9.6931877353299875e-002
      4.2069437447642285e-004 4.8079349534872612e-002
      -1.6295625243778245e+000 8.1931845680391774e-002
      -1.2676371639877820e-001 -1.1619749392145284e-001
      -9.3722993327815737e-002 -5.0255359579815771e-002
      -9.9652531619669860e-002 -6.9677359118965457e-002
      1.5163477850721277e-001 1.0956726982543775e-001
      -2.7625997068652053e-001 -2.9439872640386805e-001
      -1.2734321023649377e-002 -2.0342599582416415e-001
      -1.9419978220590359e-001 4.7556479404321665e-002
      7.1824147216582951e-002 -1.6957834551609874e-001
      1.2755482732160797e-001 -8.6993240565777091e-002
      4.3144424166234141e-001 -3.3103294602946470e-001
      -1.1361497392251582e-001 3.8076384906190190e-002
      2.3688479715504085e-002 3.5243835908359451e-002
      9.2980985576863445e-003 3.2580331446168148e-002
      -5.5885133517003061e-001 7.3022269751758162e-003
      -4.8288480960703907e-002 6.8073667517767143e-003
      1.6132789335314490e-001 2.3624616601591861e-002
      3.6745459445326575e-002 -6.5651817494725012e-002
      -1.1157408896868162e-001 5.8791959585632256e-003
      2.5558764931967015e-001 -7.3116567598315266e-002
      -1.5114496999883159e-001 -9.1121936354354727e-002
      -2.4082431456441197e-001 3.4797599250021703e-002
      1.4325336079879947e-001 -8.6718670945278326e-002
      4.2126226947730560e-003 -3.1773660959104146e-002
      1.8836377037967613e-002 -7.1276942076213184e-002
      -1.0609252448662110e-001 7.3686977652037675e-002
      -1.3860137192102576e-001 -2.4865935404807873e-003
      2.7318664620880829e-002 1.9042092060887743e-002
      -1.5960763199176956e-001 1.8734645797543276e-002
      4.0720937072837894e-002 -3.1741125229242169e-002
      -1.0486043909322075e-001 -2.7981715543129398e-001
      1.4368202421300166e-001 -6.9979936030836840e-002
      1.0115645128158639e-001 5.2525299365489532e-002
      1.0226042903965249e-001 -1.0497097294179709e-001
      1.8597659097383985e-002 7.5857169161914220e-002
      2.5686879344184477e-001 4.6367011678802507e-002
      3.7500311368917699e-001 1.9917535491010621e-001
      -6.6041015711559140e-002 -6.1342754235032632e-002
      -1.6064091119617258e-001 2.4516993912599963e-001
      9.0714019367488324e-002 -1.6445958873507152e-001
      2.9167785208528262e-002 2.3964374640001654e-001
      -1.9454680458830068e-001 -1.3354199954799520e-003
      4.1454007634242736e-002 -8.9229803531873153e-002
      4.3458915681257697e-003 -1.1717001697004625e-001
      -1.0893368372577665e-001 1.0157346521911732e-001
      -6.6081341377887598e-002 -7.9196902106709030e-002
      1.5732919111106963e-001 -5.2097636144751901e-002
      2.5466707732304261e-001 1.4347788964336944e-001
      3.1588893363406936e-002 3.7091663521039632e-002
      2.3243027646397302e-001 -2.8748620440955580e-001
      -4.0049870501940012e-002 4.7300749049988280e-002
      -7.9459577603893355e-002 2.2409852258687177e-002
      6.8313368852812223e-002 -1.6374341179688150e-002
      -2.8280177173269588e-001 1.1588277599901528e-001
      -1.0104536945030003e-001 -2.0612881245851078e-001
      7.7802566765896294e-002 -5.7860891214819146e-002
      2.5402626012679108e-001 -2.4927140882460088e-002
      -8.6133776529500994e-002 1.9074989131851738e-001
      -6.4029953864140204e-002 -4.1078878371611956e-002
      4.9234405922687119e-001 -1.7876960568896366e-001
      -4.4972343906647061e-002 -1.1952558473855571e-001
      9.6501017327559682e-002 1.1942180121382093e-001
      3.3634744280554568e-001 6.6422485421134853e-002
      1.3707158640338701e-001 -3.1155036855931521e-003
      3.6096284876458418e-001 -5.2073513296272314e-002
      1.9119960285288981e-001 -2.5098279872542767e-001
      -1.3928742030931491e-002 -1.1794168747110031e-001
      -1.9202632865765117e-002 -5.3026375343379541e-002
      2.0582547041883903e-001 1.1260854912403952e-001
      -2.2981503758929070e-001 -2.9213850831076671e-001
      3.4932623590702988e-001 7.1310930945928247e-002
      -2.3058998870737235e-001 2.3454595294815354e-002
      1.1544631259536550e-001 1.9391819646774541e-002
      3.0148124997936254e-001 -2.0723397791916995e-001
      5.1806010412665715e-001 -3.2550459227114742e-001
      8.3621162072031255e-002 1.7010147330294489e-001
      -3.1206196828233112e-003 6.9199994706670917e-003
      -3.9449323344844196e-002 1.1627864570947330e-001
      -6.4991754326675999e-001 -1.4209323954588357e-001
      -2.2248394689917794e-001 1.9291730886744060e-001
      1.7594627548899225e-001 2.3657039363920140e-001
      5.4097333503283537e-002 -1.2688757742068602e-001
      -4.4065869887675030e-001 -1.1057359568091710e-002
      4.0795503703591668e-001 1.9041168685916980e-002
      3.2030713290305957e-001 -9.9299323446002924e-002
      -2.4674748039095529e-001 3.2909468161834585e-002
      -8.2933727390594389e-002 -2.8751456139385589e-001
      -3.6436175281243335e-002 1.6297498559708559e-001
      1.5395408906083147e-002 1.1582965188988963e-001
      4.1433242528684223e-002 2.6256820480237170e-002
      2.6025267449668495e-002 1.7399825283768686e-001
      -2.2866914672155007e-002 -1.9516569183560140e-001
      -1.8960675183310013e-001 1.5662314908946116e-002
      5.9027277205095010e-003 -5.2843445600816094e-002
      -2.0039362338519234e-001 -4.2200976350210828e-001
      2.1068924390381974e-001 -2.3933858534182706e-001
      2.6717532488196216e-001 2.5645272777129826e-002
      2.0068465683265979e-001 -3.0087957855039543e-001
      1.3549584219137344e-002 1.5677849552308012e-001
      5.6074206963275242e-001 -1.4261259344339219e-001
      3.2718504494477696e-001 -1.4320656006056123e-001
      1.6266186630279497e-002 -1.6490994500297657e-001
      -2.2658892136233375e-001 6.1138404374297822e-002
      1.6728296204881718e-001 -3.4441356328843431e-001
      -7.8817399354292120e-003 2.1464481295174195e-001
      -2.7585268288575099e-001 7.3367184183256356e-002
      -2.4805685797984317e-001 -1.8070914672761867e-001
      -1.0631634039668017e-001 -4.4153599083703074e-002
      -1.7306284472141167e-001 2.3997373181664075e-001
      -1.6273668398401456e-001 2.1282126224354856e-002
      2.9855005410002550e-002 -9.0289020293153319e-002
      5.4965096148887171e-001 3.3292057902087606e-002
      2.3396080494829680e-001 -1.7577631081972372e-001
      4.7106528414216853e-001 -1.4352236502509791e-001
      2.1580403075736155e-002 1.5582725271547659e-001
      1.7314427845914568e-001 2.3814139131309622e-001
      -5.1368557898506348e-002 2.7825982149235567e-001
      -1.9534796003425164e-001 -1.6417674229041124e-001
      -2.9460152562161784e-001 -2.2187681967707748e-001
      1.0203716000939474e-001 -2.4875312891870227e-001
      1.4118930267203816e-001 -9.9937548281516006e-002
      -2.3462921459615352e-001 3.6065111979246284e-001
      1.4452815666247884e-002 -4.0258562346205767e-001
      5.8067366861228042e-001 -1.8586990938760337e-001
      -2.0436328243803936e-002 -6.0808616573115176e-002
      3.3735839788642069e-001 2.2770527081955677e-001
      3.1134883990938222e-001 4.2673463208099938e-001
      2.2179639231934767e-001 -5.2429970350524290e-002
      -8.6367748446925929e-001 -2.3234476405643034e-001
      1.7306314598213979e-001 -1.5827846393107431e-001
      -4.1195073730724868e-002 -1.6066010233235656e-001
      3.8385466970173074e-002 -4.9189972016510139e-002
      2.1573037212072435e-001 1.3397766050994392e-001
      -2.1529855303134554e-001 -3.7696891444801511e-001
      2.9758234226493430e-001 2.4595722924123711e-001
      -3.2727854573421272e-001 -2.3992162414476281e-002
      1.0155625789503579e-001 2.0480101482176083e-001
      1.7842013051112007e-001 -3.1228466478313266e-001
      4.9300555636260157e-001 -3.4169043803071764e-001
      5.6847827558856347e-002 9.6706989635682597e-002
      -3.5004378008444643e-002 -7.4779139668094990e-002
      8.4099629361481486e-003 1.9100540804356400e-001
      -5.1094139924205884e-001 -1.3760022759319820e-001
      -2.3429818474107175e-001 1.6363351047544561e-001
      1.5423757855323850e-001 1.5071051534552649e-001
      1.0982618177406366e-001 -1.6238443584366768e-001
      -2.8687551769511821e-001 -3.2783626668621162e-002
      2.5224577915247692e-001 1.0751019340741210e-002
      1.7549130388317585e-001 -1.4382520725714332e-001
      -1.5341170363836656e-001 3.8419948917918521e-002
      -4.3832742054762987e-002 -2.1946991520843839e-001
      -2.6268085653965940e-002 2.0734793262760445e-001
      -8.1533772108314806e-002 9.5018373368316797e-002
      1.8512046008424168e-001 1.6390288918301143e-002
      7.9999763589950951e-002 1.5467119350512382e-001
      8.3093930435385502e-002 -1.8717560853835802e-001
      -1.3495967085219732e-001 4.3624246857150877e-002
      3.0620544821695735e-002 -2.3807483004258570e-002
      -2.1551341984530270e-001 -4.6126084815407636e-001
      1.4151222474717728e-001 -3.4204733938333859e-001
      2.5840917112720768e-001 9.2451174031164596e-002
      2.0951739862654906e-001 -3.2419749341952231e-001
      6.3833922179663355e-002 1.6817192975087872e-001
      4.5632205254798697e-001 -1.4582296382908813e-001
      3.0864825494549286e-001 -1.7014438364207626e-001
      3.2406980235911050e-003 -1.3317448211777044e-001
      -3.6769916571959299e-001 2.1751248728287254e-002
      2.7656189356941197e-001 -2.3576376860264450e-001
      -1.0868720860820204e-001 1.8048634538385203e-001
      -2.8021663141505571e-001 1.0329822656141813e-001
      -1.5188411908209234e-001 -1.6327404480798111e-001
      -1.4537151862540007e-001 -2.0739974897075208e-001
      -5.7274103266902805e-002 3.1786308884956022e-001
      -8.8289147459498063e-002 4.0281193094474567e-002
      -4.6675045780007980e-002 -1.7911058328432813e-001
      6.1130270187075453e-001 4.6557699707492538e-002
      2.3817612308563685e-001 -2.7958134593870970e-001
      4.4735461755376515e-001 -2.6676007069488700e-001
      7.6294635408364384e-002 1.7863403247676948e-001
      1.6715916497622371e-001 1.6716164337306022e-001
      4.9349344259012849e-002 3.4453939098798858e-001
      -2.0413060436583799e-001 -8.9862529314253509e-002
      -2.0486049505775394e-001 -7.4146585929051767e-002
      1.6063936976718393e-001 -2.6752078269581697e-001
      4.3852622711467878e-002 -6.0853651291067432e-003
      -1.8985010807375377e-001 3.3733217399240290e-001
      -1.1477305417836069e-001 -2.9249260262133242e-001
      3.8095463646119326e-001 -1.0391013054831830e-001
      -2.5112573584989216e-002 -5.3337264696708624e-002
      1.3289023537904707e-001 2.0670262141075532e-001
      3.0700473043450571e-001 3.6912847955720590e-001
      2.3044987276376153e-001 -6.4854037770682394e-003
      -3.5175526796459755e-001 -2.6804280504264466e-001
      2.2478869919846817e-001 1.8092554968262353e-002
      2.8270201065587766e-002 -1.7118872158741191e-001
      1.2507707704302984e-002 -4.7431959454819733e-002
      1.2215172157966757e-001 2.8587826738481653e-001
      -1.4267460610332000e-001 -3.6282123443545222e-001
      3.0885217492405176e-001 1.8648678399697921e-001
      -2.9692813547793756e-001 -1.3680511944386246e-002
      1.4761316318922232e-001 1.9533822737320677e-001
      3.0704933824983655e-001 -5.4171985826494984e-001
      3.6377740375227546e-001 -4.2298245441718091e-001
      5.4966232724637250e-002 2.3935400839669146e-001
      -3.9561667780859074e-002 -1.2807181752632210e-001
      8.2916518807688161e-003 1.5346075812212348e-001
      -3.4541839503258531e-001 -8.8376303360851505e-002
      -1.7581959367216782e-001 1.2074845233190035e-001
      1.6280124388807371e-001 9.3294829071843499e-002
      1.0597333275004875e-001 -3.0256966847911765e-001
      -1.3110943673159242e-001 -1.1356799334942017e-001
      2.4130686854946118e-001 -1.8965729021460576e-001
      2.7365468428167949e-001 -1.1645127746422890e-001
      -2.9350919231481776e-001 1.8770315834339905e-002
      -6.8260564574764121e-002 -2.1279716814921582e-001
