<?xml version="1.0"?>
<opencv_storage>
<my_nn type_id="opencv-ml-ann-mlp">
  <layer_sizes type_id="opencv-matrix">
    <rows>1</rows>
    <cols>4</cols>
    <dt>i</dt>
    <data>
      256 128 64 36</data></layer_sizes>
  <activation_function>SIGMOID_SYM</activation_function>
  <f_param1>5.9999999999999998e-001</f_param1>
  <f_param2>1.</f_param2>
  <min_val>-9.4999999999999996e-001</min_val>
  <max_val>9.4999999999999996e-001</max_val>
  <min_val1>-9.7999999999999998e-001</min_val1>
  <max_val1>9.7999999999999998e-001</max_val1>
  <training_params>
    <train_method>BACKPROP</train_method>
    <dw_scale>1.0000000000000001e-001</dw_scale>
    <moment_scale>1.0000000000000001e-001</moment_scale>
    <term_criteria><epsilon>9.9999999747524271e-007</epsilon>
      <iterations>1000</iterations></term_criteria></training_params>
  <input_scale>
    2.3346347184800234e+000 -1.7695048858320812e+000
    2.3411997243184395e+000 -1.7791259809800839e+000
    2.0723375882640833e+000 -1.3075463354523382e+000
    2.0723375882640833e+000 -1.3075463354523382e+000
    2.0770484911967291e+000 -1.3187609467915740e+000
    2.0532129324014190e+000 -1.2588150716508701e+000
    2.0007720517562220e+000 -1.0281745265969473e+000
    2.0019081190054338e+000 -9.5726162039743956e-001
    2.0532129324014190e+000 -7.9439786075054908e-001
    2.0551750767131249e+000 -7.9107929540148070e-001
    2.0312015226903570e+000 -8.3827364428490925e-001
    2.0003937922626482e+000 -9.8035171962078194e-001
    2.0207259421636903e+000 -1.1547005383792515e+000
    2.1004558775696816e+000 -1.3711309200802089e+000
    2.1245030085364953e+000 -1.4205506227714264e+000
    2.1412135161252430e+000 -1.4529663145135578e+000
    2.0422607627824680e+000 -1.2277877204823171e+000
    2.0422607627824680e+000 -1.2277877204823171e+000
    2.0051216473104119e+000 -9.3094933625126264e-001
    2.0143247783869072e+000 -8.8726210476566147e-001
    2.0297679251233878e+000 -8.4170931815632555e-001
    2.0439899062476079e+000 -8.1110710565381261e-001
    2.0700465039586491e+000 -7.6805296873068929e-001
    2.0895960587802107e+000 -7.4213828278106697e-001
    2.1277379628770743e+000 -7.0080258301109988e-001
    2.1151094341147187e+000 -7.1342976944345682e-001
    2.0869967789998034e+000 -7.4535599249992979e-001
    2.1061703178897391e+000 -7.2295131943437474e-001
    2.0746714507120303e+000 -7.6153614758278887e-001
    2.0613022819736813e+000 -7.8116812670034341e-001
    2.0422607627824680e+000 -8.1447304230015105e-001
    2.0000629911340138e+000 -1.0079682534683323e+000
    2.0133762669080206e+000 -1.1225371646848290e+000
    2.0107307467343785e+000 -1.1090935468098357e+000
    2.1151094341147187e+000 -7.1342976944345682e-001
    2.1830048978485865e+000 -6.5403519756971540e-001
    2.0163226374350498e+000 -8.8014083380101382e-001
    2.0063287291902183e+000 -1.0827805840074194e+000
    2.1957084830377775e+000 -1.5509369443679542e+000
    2.2425929397399225e+000 -1.6285496348111341e+000
    2.3902636515427838e+000 -1.8496087779795352e+000
    2.3902636515427838e+000 -1.8496087779795352e+000
    2.4537825167327956e+000 -1.9377092096421678e+000
    2.2857201621831962e+000 -1.6961494854295940e+000
    2.0794691194147759e+000 -1.3244237843891726e+000
    2.0002520002530004e+000 -1.0160010160015240e+000
    2.0083825918317175e+000 -9.1253891573306212e-001
    2.0592194189509323e+000 -7.8446454055273607e-001
    2.0256815859918142e+000 -1.1736091728365274e+000
    2.0163226374350498e+000 -1.1361818036340361e+000
    2.0677978074972772e+000 -7.7132140438390495e-001
    2.0494070961116253e+000 -8.0105793240871070e-001
    2.0700465039586495e+000 -1.3019935352279601e+000
    2.2425929397399225e+000 -1.6285496348111341e+000
    2.6224757729366939e+000 -2.1593798527157300e+000
    2.5170128198627704e+000 -2.0225995873897262e+000
    2.4370871833797696e+000 -1.9148542155126760e+000
    2.4623480450043695e+000 -1.9493588689617924e+000
    2.5997693208268275e+000 -2.1303665267886505e+000
    2.4889571739730316e+000 -1.9852396506689658e+000
    2.2915009806207909e+000 -1.7049858486761837e+000
    2.0869967789998038e+000 -1.3416407864998741e+000
    2.0219126299595214e+000 -1.1593903770998049e+000
    2.0153068536430214e+000 -8.8369606082362639e-001
    2.0389156984389563e+000 -1.2176857643454877e+000
    2.0163226374350498e+000 -1.1361818036340361e+000
    2.0326712241937575e+000 -8.3484710993672173e-001
    2.0107307467343785e+000 -9.0163719992454272e-001
    2.1519016905918606e+000 -1.4730279429646664e+000
    2.3615431231597812e+000 -1.8086421538485626e+000
    2.5568607698749548e+000 -2.0749128072993184e+000
    2.4209514656591251e+000 -1.8925692013287605e+000
    2.3756676237158780e+000 -1.8288869801622236e+000
    2.3977446796302564e+000 -1.8601550986814093e+000
    2.5365735800463254e+000 -2.0483838235691558e+000
    2.4537825167327956e+000 -1.9377092096421678e+000
    2.3155593931985594e+000 -1.7412639087743136e+000
    2.1482821693319916e+000 -1.4662878298615181e+000
    2.0746714507120299e+000 -1.3131353031292410e+000
    2.0010085729334950e+000 -1.0322663273069619e+000
    2.0475627875559659e+000 -1.2431631210161220e+000
    2.0173722798842255e+000 -1.1407759916011990e+000
    2.0243902652367178e+000 -8.5554588590361291e-001
    2.0051216473104119e+000 -9.3094933625126264e-001
    2.1277379628770743e+000 -1.4269353798659743e+000
    2.2326252226057521e+000 -1.6124515496597098e+000
    2.4209514656591251e+000 -1.8925692013287605e+000
    2.3346347184800234e+000 -1.7695048858320812e+000
    2.3829054777106853e+000 -1.8391869659314615e+000
    2.3902636515427838e+000 -1.8496087779795352e+000
    2.4889571739730316e+000 -1.9852396506689658e+000
    2.4370871833797696e+000 -1.9148542155126760e+000
    2.3685476328517558e+000 -1.8187062180825984e+000
    2.1748597846657285e+000 -1.5146344928922038e+000
    2.1091004829775564e+000 -1.3893280959296601e+000
    2.0153068536430210e+000 -1.1316107928193948e+000
    2.0405694492312496e+000 -1.2227221699758677e+000
    2.0219126299595214e+000 -1.1593903770998049e+000
    2.0270081675189155e+000 -8.4860857806843493e-001
    2.0040434714008466e+000 -9.3840130803690436e-001
    2.0770484911967291e+000 -1.3187609467915740e+000
    2.1412135161252430e+000 -1.4529663145135578e+000
    2.2182419633872299e+000 -1.5888598190134722e+000
    2.2000763928677070e+000 -1.5583874449479591e+000
    2.3094010767585034e+000 -1.7320508075688776e+000
    2.3094010767585034e+000 -1.7320508075688776e+000
    2.3478713763747789e+000 -1.7888543819998315e+000
    2.3756676237158780e+000 -1.8288869801622236e+000
    2.3155593931985594e+000 -1.7412639087743136e+000
    2.2090182865730164e+000 -1.5734872319041922e+000
    2.1091004829775564e+000 -1.3893280959296601e+000
    2.0076654119200859e+000 -1.0914688945756021e+000
    2.0422607627824680e+000 -1.2277877204823171e+000
    2.0283702113484399e+000 -1.1832159566199234e+000
    2.0163226374350498e+000 -8.8014083380101382e-001
    2.0035525268680168e+000 -9.4214672394388888e-001
    2.0283702113484399e+000 -1.1832159566199234e+000
    2.0746714507120299e+000 -1.3131353031292410e+000
    2.1631100510233399e+000 -1.4935759876113537e+000
    2.1277379628770743e+000 -1.4269353798659743e+000
    2.1957084830377775e+000 -1.5509369443679542e+000
    2.1593148567371756e+000 -1.4866711414440474e+000
    2.1748597846657285e+000 -1.5146344928922038e+000
    2.1871737044778405e+000 -1.5362291495737213e+000
    2.1789005611781351e+000 -1.5217718205053641e+000
    2.1412135161252430e+000 -1.4529663145135578e+000
    2.0655911179772888e+000 -1.2909944487358054e+000
    2.0057090333698313e+000 -1.0784665635778259e+000
    2.0405694492312496e+000 -1.2227221699758677e+000
    2.0297679251233878e+000 -1.1880586069670624e+000
    2.0124611797498106e+000 -8.9442719099991574e-001
    2.0051216473104119e+000 -9.3094933625126264e-001
    2.0143247783869072e+000 -1.1270626736212457e+000
    2.0422607627824680e+000 -1.2277877204823171e+000
    2.0613022819736817e+000 -1.2801341552733381e+000
    2.0571771294338310e+000 -1.2694089032815903e+000
    2.0270081675189155e+000 -1.1783995894504808e+000
    2.0153068536430210e+000 -1.1316107928193948e+000
    2.0143247783869072e+000 -1.1270626736212457e+000
    2.0512903762734829e+000 -1.2535663410560174e+000
    2.0494070961116253e+000 -1.2483491637029145e+000
    2.0163226374350498e+000 -1.1361818036340361e+000
    2.0000629911340138e+000 -1.0079682534683323e+000
    2.0002520002530004e+000 -1.0160010160015240e+000
    2.0457571539594714e+000 -1.2380078015032514e+000
    2.0357198516649690e+000 -1.2076988802536226e+000
    2.0099151479647497e+000 -9.0525940196031385e-001
    2.0057090333698313e+000 -9.2724246979200542e-001
    2.0083825918317175e+000 -1.0958436760986552e+000
    2.0312015226903570e+000 -1.1929278784054478e+000
    2.0422607627824680e+000 -1.2277877204823171e+000
    2.0551750767131249e+000 -1.2640957813116445e+000
    2.0457571539594714e+000 -1.2380078015032514e+000
    2.0457571539594714e+000 -1.2380078015032514e+000
    2.0532129324014190e+000 -1.2588150716508701e+000
    2.0819337550784645e+000 -1.3301243435223522e+000
    2.0869967789998038e+000 -1.3416407864998741e+000
    2.0312015226903570e+000 -1.1929278784054478e+000
    2.0057090333698313e+000 -1.0784665635778259e+000
    2.0057090333698313e+000 -1.0784665635778259e+000
    2.0494070961116253e+000 -1.2483491637029145e+000
    2.0389156984389563e+000 -1.2176857643454877e+000
    2.0045664865549409e+000 -9.3466889750081572e-001
    2.0007720517562220e+000 -9.7259752515927456e-001
    2.1004558775696816e+000 -1.3711309200802089e+000
    2.1669653845237984e+000 -1.5005375380928683e+000
    2.1631100510233399e+000 -1.4935759876113537e+000
    2.1871737044778405e+000 -1.5362291495737213e+000
    2.1245030085364953e+000 -1.4205506227714264e+000
    2.1957084830377775e+000 -1.5509369443679542e+000
    2.2326252226057521e+000 -1.6124515496597098e+000
    2.2581379479274331e+000 -1.6532795690182991e+000
    2.2476941783777251e+000 -1.6367138163980657e+000
    2.1213203435596424e+000 -1.4142135623730949e+000
    2.0439899062476079e+000 -1.2328828005937951e+000
    2.0005671345640721e+000 -1.0240998426935131e+000
    2.0475627875559659e+000 -1.2431631210161220e+000
    2.0283702113484399e+000 -1.1832159566199234e+000
    2.0002520002530004e+000 -9.8425098425147639e-001
    2.0007720517562220e+000 -1.0281745265969473e+000
    2.1748597846657285e+000 -1.5146344928922038e+000
    2.2744275165103058e+000 -1.6787441193290353e+000
    2.2689125699877164e+000 -1.6701717529076248e+000
    2.2800295345874715e+000 -1.6874028103196963e+000
    2.3094010767585034e+000 -1.7320508075688776e+000
    2.3829054777106853e+000 -1.8391869659314615e+000
    2.3615431231597812e+000 -1.8086421538485626e+000
    2.3829054777106853e+000 -1.8391869659314615e+000
    2.2634831989685518e+000 -1.6616840944808811e+000
    2.1377629440562256e+000 -1.4463832617523273e+000
    2.0655911179772888e+000 -1.2909944487358054e+000
    2.0019081190054338e+000 -1.0446464986079942e+000
    2.0655911179772888e+000 -1.2909944487358054e+000
    2.0283702113484399e+000 -1.1832159566199234e+000
    2.0010085729334950e+000 -1.0322663273069619e+000
    2.0012767316972169e+000 -1.0363754503432017e+000
    2.1310258370705570e+000 -1.4333685689819819e+000
    2.2045126499003871e+000 -1.5659038267149576e+000
    2.3094010767585034e+000 -1.7320508075688776e+000
    2.3615431231597812e+000 -1.8086421538485626e+000
    2.4710633027411184e+000 -1.9611613513818400e+000
    2.4710633027411184e+000 -1.9611613513818400e+000
    2.3478713763747789e+000 -1.7888543819998315e+000
    2.2915009806207909e+000 -1.7049858486761837e+000
    2.1447196874441974e+000 -1.4596008983995232e+000
    2.1004558775696816e+000 -1.3711309200802089e+000
    2.0655911179772888e+000 -1.2909944487358054e+000
    2.0022714374157440e+000 -1.0488088481701516e+000
    2.0389156984389563e+000 -1.2176857643454877e+000
    2.0184559365372210e+000 -1.1453936465270738e+000
    2.0063287291902183e+000 -9.2354814518279882e-001
    2.0069808240170177e+000 -9.1986621100779975e-001
    2.0869967789998038e+000 -1.3416407864998741e+000
    2.2425929397399225e+000 -1.6285496348111341e+000
    2.3829054777106853e+000 -1.8391869659314615e+000
    2.4623480450043695e+000 -1.9493588689617924e+000
    2.4889571739730316e+000 -1.9852396506689658e+000
    2.5672885346883976e+000 -2.0884688476631807e+000
    2.4710633027411184e+000 -1.9611613513818400e+000
    2.3155593931985594e+000 -1.7412639087743136e+000
    2.1555789979876518e+000 -1.4798220898883483e+000
    2.0794691194147759e+000 -1.3244237843891726e+000
    2.0532129324014190e+000 -1.2588150716508701e+000
    2.0051216473104119e+000 -1.0741723110591492e+000
    2.0422607627824680e+000 -1.2277877204823171e+000
    2.0372992503051970e+000 -1.2126781251816650e+000
    2.0297679251233878e+000 -8.4170931815632555e-001
    2.0655911179772888e+000 -7.7459666924148329e-001
    2.0357198516649690e+000 -1.2076988802536226e+000
    2.1789005611781351e+000 -1.5217718205053641e+000
    2.3977446796302564e+000 -1.8601550986814093e+000
    2.5466240628814960e+000 -2.0615528128088303e+000
    2.5365735800463254e+000 -2.0483838235691558e+000
    2.5779123745721950e+000 -2.1022261625975638e+000
    2.4537825167327956e+000 -1.9377092096421678e+000
    2.3033397412307792e+000 -1.7229346873888964e+000
    2.1631100510233399e+000 -1.4935759876113537e+000
    2.0723375882640833e+000 -1.3075463354523382e+000
    2.0326712241937579e+000 -1.1978241142570358e+000
    2.0019081190054338e+000 -1.0446464986079942e+000
    2.0389156984389563e+000 -1.2176857643454877e+000
    2.0389156984389563e+000 -1.2176857643454877e+000
    2.0207259421636903e+000 -8.6602540378443860e-001
    2.0494070961116253e+000 -8.0105793240871070e-001
    2.0076654119200859e+000 -9.1619651734448360e-001
    2.0001417384219207e+000 -1.0119764747968050e+000
    2.0219126299595214e+000 -1.1593903770998049e+000
    2.0475627875559659e+000 -1.2431631210161220e+000
    2.0869967789998038e+000 -1.3416407864998741e+000
    2.0869967789998038e+000 -1.3416407864998741e+000
    2.0613022819736817e+000 -1.2801341552733381e+000
    2.0283702113484399e+000 -1.1832159566199234e+000
    2.0057090333698313e+000 -1.0784665635778259e+000
    2.0012767316972169e+000 -1.0363754503432017e+000
    2.0003937922626482e+000 -1.0200420726418662e+000
    2.0341772561733178e+000 -1.2027476633723189e+000</input_scale>
  <output_scale>
    227158990. -2.1580103950000000e+008 227158990.
    -2.1580103950000000e+008 227158990. -2.1580103950000000e+008
    227158990. -2.1580103950000000e+008 227158990.
    -2.1580103950000000e+008 227158990. -2.1580103950000000e+008
    227158990. -2.1580103950000000e+008 227158990.
    -2.1580103950000000e+008 227158990. -2.1580103950000000e+008
    227158990. -2.1580103950000000e+008 227158990.
    -2.1580103950000000e+008 227158990. -2.1580103950000000e+008
    227158990. -2.1580103950000000e+008 227158990.
    -2.1580103950000000e+008 227158990. -2.1580103950000000e+008
    227158990. -2.1580103950000000e+008 227158990.
    -2.1580103950000000e+008 227158990. -2.1580103950000000e+008
    227158990. -2.1580103950000000e+008 227158990.
    -2.1580103950000000e+008 227158990. -2.1580103950000000e+008
    227158990. -2.1580103950000000e+008 227158990.
    -2.1580103950000000e+008 227158990. -2.1580103950000000e+008
    227158990. -2.1580103950000000e+008 227158990.
    -2.1580103950000000e+008 227158990. -2.1580103950000000e+008
    227158990. -2.1580103950000000e+008 227158990.
    -2.1580103950000000e+008 227158990. -2.1580103950000000e+008
    227158990. -2.1580103950000000e+008 227158990.
    -2.1580103950000000e+008 227158990. -2.1580103950000000e+008
    227158990. -2.1580103950000000e+008 227158990.
    -2.1580103950000000e+008 227158990. -2.1580103950000000e+008</output_scale>
  <inv_output_scale>
    4.4022030561062097e-009 9.4999999559779691e-001
    4.4022030561062097e-009 9.4999999559779691e-001
    4.4022030561062097e-009 9.4999999559779691e-001
    4.4022030561062097e-009 9.4999999559779691e-001
    4.4022030561062097e-009 9.4999999559779691e-001
    4.4022030561062097e-009 9.4999999559779691e-001
    4.4022030561062097e-009 9.4999999559779691e-001
    4.4022030561062097e-009 9.4999999559779691e-001
    4.4022030561062097e-009 9.4999999559779691e-001
    4.4022030561062097e-009 9.4999999559779691e-001
    4.4022030561062097e-009 9.4999999559779691e-001
    4.4022030561062097e-009 9.4999999559779691e-001
    4.4022030561062097e-009 9.4999999559779691e-001
    4.4022030561062097e-009 9.4999999559779691e-001
    4.4022030561062097e-009 9.4999999559779691e-001
    4.4022030561062097e-009 9.4999999559779691e-001
    4.4022030561062097e-009 9.4999999559779691e-001
    4.4022030561062097e-009 9.4999999559779691e-001
    4.4022030561062097e-009 9.4999999559779691e-001
    4.4022030561062097e-009 9.4999999559779691e-001
    4.4022030561062097e-009 9.4999999559779691e-001
    4.4022030561062097e-009 9.4999999559779691e-001
    4.4022030561062097e-009 9.4999999559779691e-001
    4.4022030561062097e-009 9.4999999559779691e-001
    4.4022030561062097e-009 9.4999999559779691e-001
    4.4022030561062097e-009 9.4999999559779691e-001
    4.4022030561062097e-009 9.4999999559779691e-001
    4.4022030561062097e-009 9.4999999559779691e-001
    4.4022030561062097e-009 9.4999999559779691e-001
    4.4022030561062097e-009 9.4999999559779691e-001
    4.4022030561062097e-009 9.4999999559779691e-001
    4.4022030561062097e-009 9.4999999559779691e-001
    4.4022030561062097e-009 9.4999999559779691e-001
    4.4022030561062097e-009 9.4999999559779691e-001
    4.4022030561062097e-009 9.4999999559779691e-001
    4.4022030561062097e-009 9.4999999559779691e-001</inv_output_scale>
  <weights>
    <_>
      -2.3417127649748870e-001 -8.6998034357910772e-002
      1.9331373206131850e-002 4.5843497630954654e-002
      1.9029378124754331e-001 -1.4468545130318533e-001
      7.1445800232944709e-002 2.7652176711253414e-002
      9.2648137235574607e-003 2.6894595543670491e-001
      -1.6522321205305454e-001 2.1978464869691790e-002
      2.3467446578809048e-001 -2.0878120028337646e-001
      3.4637052260378071e-001 -6.1633294877371825e-001
      2.3680173435257762e-001 2.0415065170689011e-002
      -1.4131232624112391e-001 3.4512400581214020e-001
      1.7009355689174410e-001 -2.2582747053518779e-001
      -9.5980815746065373e-003 4.4902176759805366e-002
      -8.4089339740388736e-004 -9.0482492941438911e-003
      3.3930049907484611e-001 -1.0098528949700361e-001
      1.8780933262820496e-001 -6.8354760248915236e-002
      -1.0429721933761406e-001 -6.1121865542134876e-002
      -5.4075119343446842e-001 -6.3989628659885528e-002
      -2.5332942335950365e-001 5.7615276411481994e-002
      -6.1951095972118932e-002 -4.8049150149488400e-002
      1.4081624481409924e-001 -1.4688548880290941e-001
      5.8113980453233904e-002 -9.8071433981479966e-002
      4.6068006530773725e-002 -2.3787425783293781e-001
      4.0691801093675685e-002 1.6136972091870136e-001
      -1.6815268245183656e-002 -1.7837223645721420e-001
      -6.7863305031161766e-002 -4.8399787374914072e-002
      -2.7172229517632474e-001 -1.8105901412608688e-001
      -2.7557628944418644e-001 -1.2014519758543066e-001
      1.7491506457095626e-001 -4.9968299452018382e-002
      -1.3308714520086638e-002 -2.3095847947041916e-002
      1.4149174316386814e-001 -5.2051956832309912e-002
      -2.2020490094055198e-002 -1.2068305431269863e-001
      -1.0998172946907891e-001 2.3654687362032800e-001
      -4.9347184877763017e-002 -1.3725166154139123e-001
      6.5811623022509771e-002 2.3448933893594553e-001
      -2.5548134235528469e-001 8.5058453730833330e-002
      -5.1908413878479012e-002 -2.4376499855267958e-001
      -1.5192924481424336e-001 2.5192051836460283e-001
      7.8276273167454100e-002 -7.9392978552780491e-002
      3.1232066826179827e-001 8.5939848387355817e-003
      -1.8948039388231255e-001 -1.1331095856563900e-001
      5.2295546334280039e-002 1.6423002890542832e-001
      8.6627369922326614e-002 1.1959624342927173e-001
      2.6839025725605359e-001 6.5498745061484709e-001
      7.5816941997364384e-002 -1.1424893338776730e-001
      2.2000137437601308e-001 -2.9844418538914997e-002
      1.1803628538881966e-001 -1.1230668852370161e-001
      -2.5328068387577107e-001 -1.8804082816646772e-001
      6.5855761019347620e-002 1.0877202616046647e-001
      -6.2310839049287498e-002 2.7010272185231721e-001
      -1.3510827817005730e-002 -9.3517828220724658e-002
      1.8774957237094764e-001 -1.3966147358888234e-001
      1.5293560507886450e-001 -2.9678275536388693e-001
      4.2691322840638099e-003 -3.2046662039412693e-001
      -1.5657887338252574e-002 4.9366057903989770e-002
      -3.9829390933636258e-002 -8.4260278267715066e-002
      -3.5088393755054098e-001 1.3931751942603954e-002
      1.3549407221026110e-002 2.0512333555147515e-002
      1.6749676000734218e-001 1.4701419922986839e-001
      -1.9220675357992706e-001 -1.1922906513454959e-001
      2.8784379600324976e-002 1.5329321284671904e-002
      -2.6800490837672247e-001 7.0615173093847808e-002
      -6.0294489214694795e-003 -1.6563323157041388e-002
      -3.5829268130926045e-002 -3.0083068128348389e-001
      -2.2612768331997718e-001 2.9793166840302629e-002
      -5.4481413560525153e-002 -8.7041846910536180e-002
      1.5832866821787795e-002 8.5449476153691556e-002
      1.8568949712194624e-001 -2.0730811106747712e-001
      4.1597027229672241e-002 5.3193449854055264e-003
      3.9896083337191246e-002 3.0237833293024863e-001
      -1.6455970628300287e-001 -9.4642094238256924e-002
      2.9482494089454181e-001 -1.8261436413234861e-001
      3.7308275645180244e-001 -5.9493079582949704e-001
      2.6498444268256532e-001 2.6277330622884301e-002
      -8.5101952010553358e-002 2.9883217010413315e-001
      1.1784449650102966e-001 -2.0890695130669318e-001
      -1.8993270180691066e-002 9.9644566042355852e-003
      -4.6775011387407757e-002 -3.8577214973735126e-002
      3.3488566066593450e-001 -1.4950073402408684e-001
      2.0820006280281633e-001 -5.4508778194986403e-002
      -6.0861900903773768e-002 -9.3662963122630477e-002
      -5.0583360478601325e-001 -1.1611653437246110e-001
      -2.2152281381509534e-001 5.5053326433996977e-002
      -4.4865418890158305e-002 4.8221118891995117e-002
      7.8064430669835760e-002 -1.4376594257639524e-001
      5.3787251067812958e-002 -1.6541389421737004e-001
      2.1214604674995152e-002 -1.6200895868416218e-001
      2.9103682195899906e-002 1.8550853189544184e-001
      -1.1165306916967129e-002 -1.3316641942390486e-001
      -8.1484072281834158e-002 -1.1514523852472563e-002
      -3.2161794991332937e-001 -2.0917668852461047e-001
      -2.5843832054325255e-001 -1.1891254991326045e-001
      2.1076778733638496e-001 -7.9352612294372835e-002
      7.0780801526161979e-002 -2.1267469806640453e-002
      1.2895000053894012e-001 -5.1531301819755522e-002
      -3.6026099410323364e-003 -9.9688638693265066e-002
      -1.0840475381749216e-001 2.3652072019101444e-001
      -6.1192336211676135e-002 -1.1572223537445639e-001
      4.7144480541585515e-002 2.9161343206985330e-001
      -2.0749992183045884e-001 9.3020148939517277e-003
      -7.2944186961515292e-002 -2.3789487768227710e-001
      -1.3775963682423598e-001 3.0635729884553980e-001
      1.1749503016737840e-001 -6.5741889884855451e-002
      2.6467513252743985e-001 2.7999444671053492e-002
      -1.7098124726540703e-001 -7.3699910506298108e-002
      4.1899968010615730e-004 1.9032336685012527e-001
      4.9470571397065158e-003 1.2461220132225263e-001
      2.8955984037130639e-001 6.4654240555747156e-001
      9.9314467948439136e-002 -5.0749466481974544e-002
      2.4749185499244666e-001 -2.7509523318809213e-002
      1.6893377566589329e-001 -1.0113445359985394e-001
      -2.6312284615995218e-001 -1.5425082231913503e-001
      9.1113059029774762e-002 2.2254474934187911e-002
      -9.9252762488468441e-002 2.8822196658621141e-001
      9.5726130450996833e-003 -1.1851419028565437e-001
      2.7658322207385344e-001 -1.5761268174039900e-001
      2.0219312865977976e-001 -3.0138529019688876e-001
      -6.2154463098185730e-002 -2.9274155226390991e-001
      -6.6539787904551229e-002 2.0951046988446787e-002
      -5.2308040738269931e-002 -5.7046687833074037e-003
      -3.2465952493290551e-001 4.0068262040297217e-002
      6.5842672899182317e-002 3.6196088904966742e-002
      1.6904013199575094e-001 7.8697587625773599e-002
      -2.4204001067507688e-001 -1.0279727651493516e-001
      2.1688550956159253e-002 9.4105669352817587e-003
      -2.4124903939596859e-001 7.4509739292472468e-002
      -2.8646407092948595e-002 -1.7626739312232308e-002
      -2.8973084401203369e-002 -3.4907879608071657e-001
      -1.3116148044287265e-001 8.1203639123534940e-002
      1.6224908187939826e+000 1.2380423817547880e-001
      -3.9040337468618291e-001 3.0206450937538010e-001
      1.5845198116264891e-001 -2.1793945889182190e-001
      3.5075133176969406e-002 4.6721537790497349e-002
      1.8511471461441287e-001 1.2491462083659645e-001
      3.0381728023426047e-001 1.1588722581689360e-001
      -1.1685930083171879e-001 -6.1044579284868596e-002
      1.7500550886053606e-001 -2.5366838927517110e-001
      1.5827385527697468e-001 -7.3233140756857135e-002
      5.8406903294594373e-002 5.3379694296901836e-001
      -1.4442968196777820e-001 1.3081814830801622e-001
      5.0023791260278429e-002 1.3140856944985460e-001
      -1.5751956227405886e-001 -1.0825325892958421e-001
      5.4357883509787108e-001 -2.2917205950102390e-001
      3.9120056757886451e-001 -6.9563031166516270e-002
      -3.6979051056486306e-001 -8.7316360511620200e-002
      -4.2516145446101827e-001 -1.8020222454337120e-001
      1.3581858879798767e-001 -9.2527170901542152e-002
      -3.2245187939005063e-002 1.4895032211475498e-001
      -8.3047315047423229e-002 -4.6401948199676968e-001
      -5.7982571602194333e-002 -2.8818537619425222e-001
      -5.9639736723403426e-002 3.2280688239936800e-001
      5.8150991602987034e-001 1.8147328173684288e-001
      3.6965024833518455e-002 -2.3307477033975330e-001
      1.7868075539870593e-001 -1.7998625524517717e-001
      -4.9902310020291113e-001 -1.9110533132020838e-001
      2.0089866605091149e-002 -1.0060960509599470e-001
      2.0627324835681643e-001 -8.3636152048817330e-002
      1.6389221163039217e-001 2.1273919279874895e-001
      -1.7191580492270039e-001 -1.1708741080030446e-001
      -1.7057532916462556e-001 -2.7237856083587247e-001
      -1.7517514296593831e-001 3.5295423325559944e-001
      -1.4062849846286082e-001 -2.8971915890513755e-001
      3.7682217828516884e-001 -4.0966641833681115e-002
      -2.2434028803527578e-001 -2.2549783840938500e-001
      -1.4837811229415421e-001 -2.3581443805365587e-001
      -2.5080531732751193e-001 4.6626781953859942e-001
      3.1291983759633532e-002 -1.5677797186027667e-001
      3.4373992417939186e-001 -1.3291050102031568e-001
      -2.1228812966069074e-001 3.4911902646683257e-001
      1.5437966720044169e-002 2.0695255376494986e-001
      -2.3741219326675464e-001 8.4910412148730061e-002
      6.7074358885309349e-001 6.8787844607346793e-001
      1.2185678528903357e-001 -1.6164836995525964e-001
      3.4570336432320969e-001 -2.4015266632643037e-001
      4.6763564534111318e-002 -4.7189627733147160e-001
      -2.5068008455034402e-001 -2.2182999944359221e-002
      1.9045067432432713e-001 -2.3323667119141903e-001
      -2.5301666507657039e-001 7.6281884047957063e-002
      -1.7108984378791700e-001 -3.3475616611838808e-002
      3.1690333050755326e-001 2.2614553855209194e-002
      -2.9564115411381781e-001 -1.7769018842923059e-001
      -5.7057465060483245e-002 -1.9080824549972719e-001
      -1.6609346418651388e-001 -1.3640205588105914e-001
      1.8960536275248394e-001 -7.6957467865496607e-002
      -5.3069532618204152e-001 1.4620115084493723e-001
      -2.3752135916872047e-001 3.4201648576431071e-002
      1.7404726947255417e-001 7.8378153116030816e-002
      -5.0171790594581356e-001 -5.4858401367679534e-002
      -3.2630076159773239e-003 -1.1191106630796002e-002
      -4.0681976327258279e-001 1.0649482272686715e-001
      -6.8469482503456289e-002 6.3159774053074009e-003
      -3.0743156313393316e-001 -3.4342009493048214e-001
      -2.1548231284709712e-001 2.2711870195990674e-001
      9.7128090879635753e-002 3.0249208882262979e-001
      -2.2922540739032948e-001 2.0262229428503217e-001
      1.4415239116464029e-001 -1.6004524395510702e-001
      -9.9594994616874852e-003 1.4843153299638145e-001
      1.0241512582037961e-001 6.4674165593920266e-002
      1.8348888949060663e-001 -2.0755086070032142e-002
      -5.8584912993980309e-001 -5.0345112972670236e-001
      6.7398153991310147e-002 9.6664248661281385e-002
      5.3183238717237270e-002 -3.7995387581832651e-001
      1.0882465371459318e-001 4.3349978463807903e-001
      2.9250676894015742e-001 1.5678776282579948e-001
      5.5689022100902678e-003 5.6207833034173338e-001
      -4.5213869382849077e-003 -6.6347542802058207e-002
      4.5184581185413975e-001 -6.4802314824501800e-002
      4.0814122951294420e-002 6.1020366158270001e-002
      -4.7306596792690314e-001 -5.6641148982931676e-002
      -2.3950900187704335e-001 -6.9728375874700585e-002
      5.3478151228282800e-001 9.0011897598142210e-002
      -7.1011784995604965e-001 1.4933314880692403e-001
      1.2430453166681031e-001 -4.5301739670409608e-001
      1.9814963871388046e-002 -2.0662551864174517e-001
      -2.1667214762122836e-001 1.4733003536823558e-001
      1.4264600689057738e-001 -1.7516930925322816e-001
      2.9379239135728534e-002 -4.7986151333231886e-001
      1.9510463779932821e-001 -2.3175358161107948e-001
      -1.0401591317792559e-001 -8.4972981038733311e-002
      -1.7682197329636198e-001 -1.7930082194643451e-001
      7.0418564643864007e-002 1.0485320924764097e-001
      -1.0026639535991307e-001 1.0326167987284021e-001
      -1.3007034242603052e-001 -3.0520156752622918e-001
      -3.2305737862103882e-002 -1.5592263870628495e-001
      5.9432032111568479e-002 1.9477002258396800e-001
      -6.3266367785175887e-002 -2.8120972263508270e-001
      6.2724855242626931e-001 -4.4757598836143925e-001
      -1.9982166740999890e-001 3.4250603551478527e-003
      1.5038723568738857e-001 1.6181257955734449e-001
      -3.2788755906063610e-001 2.8954487497485165e-001
      2.1671327599314158e-001 -4.7737067379323032e-002
      -1.1285397990659066e-001 -4.4692329868141439e-001
      -3.7222417997775381e-001 2.1025190822965611e-001
      7.8798496721419233e-003 1.1787651163882688e-001
      -8.7278770656451010e-002 -4.4052137007325187e-002
      6.1007351584649561e-001 4.8332208909757846e-001
      -1.9210537314772039e-001 -1.7647482210812426e-001
      1.9341100101967421e-001 -1.5242913413007628e-001
      -6.9096626151997659e-002 -4.7435480586077294e-001
      -8.2424260565552382e-002 -3.0086665450265215e-001
      1.2580762040392818e-001 8.1870862327340393e-002
      -1.8289011114906870e-001 -2.4628822478239887e-001
      -9.9286948718800352e-002 -5.6030845384735184e-002
      2.0871582211403170e-001 1.4971021407403501e-001
      -2.6293351956311645e-001 3.9492057981331424e-001
      9.0589706579263948e-002 8.9765491273231773e-002
      -1.5002831736176242e-001 -1.6630596144638118e-001
      1.2208751569447929e-001 -3.2957274408961734e-001
      -7.5579525351063548e-001 2.0143727063648784e-002
      -1.0538116696350568e-001 -2.4078401641713751e-001
      2.4187149906642091e-001 3.5687227576129360e-001
      -2.9292022241140153e-001 -1.7507073616142452e-001
      -1.7276712382205109e-001 5.3608582574145832e-003
      -5.0699395570861838e-001 7.3824485024660186e-002
      -7.2747013934517907e-002 3.4913762238756071e-002
      -1.8616337014311765e-001 -2.2879912091379320e-001
      -1.7813165063632422e-001 1.3055517571821182e-001
      8.3227036716227970e-002 -2.6159805943413311e-001
      6.5584796677722407e-002 4.3507238104036616e-001
      -7.2500185463408223e-002 -3.5611704460983096e-001
      5.1506556088029253e-002 -8.0002088949635855e-002
      3.0120732256855708e-002 -1.3744661324083063e-001
      2.0681461398401599e-001 -1.7486532782487196e-001
      5.7777401431277797e-001 -1.5607500898688664e-001
      -2.6671302083688599e-002 -2.0538308443042338e-001
      2.0644314649878054e-001 -2.1979851560446662e-001
      1.9440893080342278e-001 -1.8498892299701530e-002
      3.1545084454170524e-001 -2.2545571722732674e-001
      2.4592640089351060e-002 4.6790073015828521e-002
      8.5713865522683327e-002 -2.4492841634167109e-002
      6.9554868579537132e-002 -3.7618203342649820e-001
      -1.0207926384307339e-001 8.5012507248517735e-002
      -2.2259879038311248e-001 -2.3737081287236225e-002
      -8.6997603955822872e-002 -5.3711108568334574e-002
      -2.5677179183788945e-001 -8.6052520475633637e-002
      4.0190871782371018e-001 1.2164791073252883e-001
      5.4480971136634110e-002 3.2690482473959787e-001
      1.8651823971498529e-002 2.8865085535408477e-005
      -7.7927923389031553e-002 5.0573537160312265e-002
      2.3594735149491394e-001 6.4382953869027190e-002
      -1.3519113196251845e-001 -1.6474290101890415e-002
      4.0929545948553400e-002 -1.7768055981184044e-001
      1.6482242908604763e-001 1.1538771182425657e-001
      1.5479138046618752e-002 -1.6558200006587592e-001
      5.1161812099143000e-002 -2.2081361361859703e-001
      -4.9811911236077627e-001 1.9422871569772102e-001
      3.5530949926735461e-001 2.1799002508641888e-001
      -3.0269451829125615e-001 -2.2963754443756071e-001
      3.6895051548880137e-001 8.5142698036837411e-002
      3.0804890110339440e-002 -2.7879724280947721e-001
      1.4175307878131949e-001 -1.6516879017127167e-001
      -1.2827058768444535e-001 -4.8881519137202084e-001
      -5.4768398154748293e-002 2.4762212779168452e-001
      2.8057431301581437e-001 7.8058107354974571e-001
      -3.1614955755622134e-002 -1.9108469347585366e-001
      -4.3454250112166658e-002 4.7040992804330689e-001
      3.0175579987150936e-001 1.7260128415173925e-001
      3.7024795343914112e-002 1.4705137109528818e-001
      1.3899347998880266e-002 1.8905264966727793e-002
      -1.2787439207342294e-002 -4.6844078184132838e-002
      -1.1509870487196604e-001 -1.0234695788658792e-001
      -1.0011348142262987e-001 5.3540996261418818e-002
      7.5096515579413936e-002 -1.7336270982940851e-002
      -4.0597089904683586e-001 -2.1158297941933288e-002
      2.8224792376609781e-001 -8.4495169146255419e-002
      -2.7753170988230003e-001 -2.6476206142133191e-001
      -1.5261292684683186e-002 3.0815707823537791e-002
      2.7937129961505342e-002 -6.8391706124040233e-002
      -1.6424410320384786e-001 -6.1675964133918082e-001
      -8.0947956628769635e-003 9.2122551930108168e-002
      -6.2802543926039567e-002 -6.9613253251655527e-001
      1.5975106095533831e-001 -2.6487419102573051e-001
      -9.8497555822806643e-002 2.1563857553771680e-002
      6.2968052842358284e-003 4.9134538573534316e-002
      6.3872016272538256e-003 2.7961165339370070e-001
      -3.5016448692127611e-001 -1.1956234351098176e-001
      6.2530108739146967e-002 -4.4752521806574332e-002
      -6.6277740001168628e-001 9.7456446107338501e-002
      1.7381866156674225e-002 -2.0169947358120674e-001
      2.4486234432003273e-001 -1.3212089521933636e-003
      1.4881200702298933e-001 3.5594559019277194e-001
      1.6093258120011007e+000 -2.1635663552868623e-001
      2.6710969650842908e-001 1.7683190964020931e-001
      -2.5701349699293871e-002 -4.2203092704161427e-001
      -7.4848769563980164e-002 -1.1894905157029270e-001
      -6.7588426148843472e-002 1.8942608628264049e-001
      -1.3477686420160226e-001 1.4626189839913700e-001
      6.2032830397835137e-001 -2.2959657724317306e-001
      5.2060033316979483e-002 -4.3698930433101901e-001
      1.7815182896694864e-001 -1.2017682402021973e-001
      2.6330428881181062e-001 -1.7937684540659971e-002
      3.0643596909753396e-001 -4.5196670240410769e-001
      1.2849982409719449e-001 2.1991889877230386e-002
      -2.7769863596189420e-002 -9.8184868930218633e-002
      -1.4279754797703381e-001 -2.3165142427176674e-001
      -3.2048600078565270e-001 1.3272553618220652e-003
      -1.2760074543404526e-004 -1.0760027496729191e-001
      -2.4815401146246335e-001 -7.1611511287469586e-003
      -3.4807861141372415e-001 1.5837112582940432e-001
      5.5039355373984278e-001 3.9502021217896177e-001
      1.8429180478044468e-001 4.2070157569645400e-001
      1.1693954019053560e-001 9.8130651773093519e-002
      -3.1837205094588190e-003 2.3902943789768491e-001
      1.9270356872487723e-001 1.2139396371516825e-001
      -1.2100496763969916e-001 2.6067724990620972e-001
      1.5347954404411213e-001 -1.8813207824509609e-001
      -2.0626448605073014e-001 1.2304250810462258e-003
      -1.1194488816164137e-001 -2.4268296616137164e-002
      -2.0983555399507511e-002 -1.9212168011069786e-001
      -3.3528894554805844e-001 3.4905338635013611e-001
      5.7695178096323907e-001 3.1444734038263167e-001
      5.5757786932517775e-002 -1.9889712080821792e-001
      4.3688681014451447e-001 -2.4673066327964774e-001
      4.7519834644606601e-002 -7.2658244621916862e-002
      1.5714759256516866e-001 2.2716185411092918e-001
      -2.2137979724388604e-001 -2.2211152349020130e-001
      -2.1105520414207133e-002 3.3606168563621158e-001
      4.3352796549558414e-001 4.9117970848342801e-001
      -1.7524654068749240e-002 -2.1683689100859335e-001
      8.9299943046336830e-002 5.6590452222571042e-001
      3.3262740094285970e-001 1.3018665599932835e-001
      1.5454725296274188e-001 1.4644378559027318e-001
      -2.6655760452674017e-002 4.1502960556684614e-002
      3.8746450786406865e-002 -4.0747160457810916e-001
      -3.6933142423643167e-001 1.2029470280791255e-001
      -1.3203408023906755e-002 8.4133461421055808e-002
      1.1541596974589544e-001 4.1673979785558916e-002
      -3.6293612628055250e-001 1.4978653806647943e-001
      4.6807091716383031e-001 7.0705686537219550e-002
      -4.7131283116732876e-002 2.7162402989963635e-001
      -4.4700086727730466e-002 8.5435493666604523e-002
      1.0775948449229629e-001 -2.0389785997135090e-001
      2.5623797022325624e-002 -6.8667011029850611e-001
      -1.6442452791178529e-002 -5.5550907651629600e-001
      -1.1096475834236347e-001 -8.9697874050883297e-001
      2.3426696245457696e-002 -2.6048934390145823e-001
      -2.9565365875014061e-002 -6.3240614761625883e-003
      6.2879549030650669e-002 1.4303472678626961e-001
      -1.0410162231962349e-001 3.9837148227338903e-001
      -4.6045130967808007e-001 -2.3085286270237887e-001
      7.8323199518085210e-002 -1.4291245919541642e-001
      -7.0640980750511861e-001 -8.6218714063489174e-002
      1.0813832170811775e-003 -1.5144850028332765e-001
      1.9811676391844146e-001 2.0530162706605978e-001
      9.4459199312891803e-002 3.5508898636990022e-001
      1.4365167189831172e+000 -1.8526598801889363e-001
      2.2689638609392665e-001 -3.4041155071973167e-001
      -1.6847397395663594e-001 -1.0347920062950966e-001
      -6.2702231252711710e-002 -1.1890134445654400e-001
      -1.4185871779405324e-001 1.2023094317532100e-001
      -1.1617261696288661e-001 -1.9191988710113926e-002
      -1.4861912584795975e-001 2.7239382418074137e-001
      -1.5868043925252892e-001 -3.0689117724712550e-001
      4.7544617142009794e-003 -1.0210905615536535e-001
      1.0921593979598924e-001 -9.6375010381905435e-002
      4.0812700296254147e-002 -1.0932643789886924e-001
      8.0108241422257892e-002 -8.6623157909334558e-002
      5.9074187274355427e-002 -1.3776962341729209e-002
      -3.2299447229752309e-001 4.0451535225839906e-002
      -3.5790376234497123e-001 -4.8512217334657944e-002
      1.4430421940288693e-001 -1.7660022162368130e-002
      1.3437483720799401e-002 7.5364467163884383e-002
      -9.5286824163920755e-003 3.3054809601504748e-001
      2.9084851977546333e-001 1.1863436462691554e-001
      -5.1506757493910121e-002 1.2305653901926551e-001
      7.5586778859294310e-002 1.5872786680441336e-001
      -8.3710637336780816e-002 2.5230020220037480e-002
      -1.4661356223162930e-001 1.1696970324587470e-001
      -1.3298520690202398e-001 -1.4632423963038346e-001
      -3.6571195707325491e-002 -1.4143699627769762e-001
      1.1348336655699566e-001 9.4417701350063138e-002
      -2.1854128212157273e-001 -5.0255441912679354e-002
      -1.7328756131409390e-001 -4.5456291151252000e-002
      -6.4255182765945634e-002 2.7681553169168860e-001
      2.4743855679996643e-001 2.5555939141292477e-001
      1.8363130928156335e-002 -2.8486371363764418e-002
      2.8957506054300758e-001 -1.9163523962654919e-001
      5.4860006555951461e-002 -7.9586072913402986e-002
      9.5950086441721927e-002 1.3206996760298506e-001
      1.9917503108524474e-002 1.3095300555024894e-001
      -1.7976233184050009e-002 2.4427291048813779e-001
      2.7134037167633429e-001 -2.4433686259932287e-002
      -3.8035675229354325e-002 5.0532600707170498e-003
      3.4592941554666863e-002 3.7146546229962518e-001
      2.3069429389366746e-002 1.2465843699680495e-002
      8.9370419870936621e-002 -7.7969990450630466e-002
      1.4271108379573380e-001 8.7302595241389794e-002
      -1.1711166423313157e-001 -4.7940462441169823e-001
      -2.4309256038285240e-001 1.0434573510328171e-002
      -1.1700618279847499e-001 8.6689636975818052e-002
      -5.5257192147636379e-002 9.8613328690863408e-002
      -4.5527300085523019e-002 -2.5963495755445382e-001
      -1.0992586124493536e-001 3.5347348298389036e-002
      -4.0635131279134963e-002 2.8321561046264640e-002
      -3.3820504095993117e-002 7.5531570982283844e-002
      -1.4025909063022016e-001 3.9172002965603037e-001
      4.8586170362114343e-002 -1.5412015525151002e-001
      5.4820256050620349e-003 -1.8786657451061795e-001
      -6.8421777095914946e-002 -1.5424619536880260e-001
      6.6924546298596970e-003 -3.1186266682607044e-001
      1.9696584436314563e-001 -9.8941041857906087e-002
      6.5661204623092356e-002 -2.2406967614659885e-002
      -1.0685260103291680e-001 2.6503799077054291e-001
      -6.0284344603445950e-002 -6.2724503273422230e-002
      1.6314776443749054e-001 -7.7597901397985808e-002
      -1.5219378964186606e-001 5.8435255731025454e-002
      -3.5484376509758490e-002 -1.3388028303069985e-001
      1.2160537620862005e-001 3.2942204309065343e-001
      2.1509586973114367e-001 2.3135541789443020e-001
      1.4912461621929258e+000 1.3733094003747606e-001
      1.7664519721134531e-001 -2.9740025939964027e-001
      -1.4312349066124877e-001 5.4859394467922089e-002
      8.0798549324670038e-003 -2.7055442855603851e-001
      -2.5576402170117968e-001 -1.3303734410483430e-002
      -1.5377801637955676e-001 -1.3311538401245843e-001
      -1.5992077304117613e-001 2.6833105538013891e-001
      -3.7969488283748115e-001 -1.3154056460584720e-001
      -2.4946575211672904e-002 -9.3363755751953492e-002
      4.3423250905377832e-003 -2.9452965106483153e-002
      8.7757751765910649e-002 -1.7357625894728810e-002
      1.4780415790453014e-001 1.1064424767349056e-001
      9.2631727966434221e-002 5.6138331594862749e-002
      -1.1840808552275904e-001 1.3046227419789344e-001
      -2.6263468162197917e-001 -8.7539121004603315e-002
      -1.7206657255103994e-002 -4.3943064391773583e-002
      1.0466936622319921e-001 9.7977166862233067e-002
      4.2145610078667642e-002 3.5481681189742720e-001
      2.9754160867335219e-002 9.5511218605578443e-002
      2.3989794919704058e-001 8.5226558884137944e-003
      1.0893219346642517e-001 1.3989962223164143e-001
      -2.0606858067233391e-001 -4.2940414625439981e-002
      -6.6664612899149822e-002 1.8941438652435146e-002
      -2.2388904699779905e-001 -2.9840318757672302e-001
      4.3644848374206589e-002 -1.4022209518586076e-001
      2.4622714827213901e-001 1.3955663000139293e-001
      -6.3911819559787586e-002 -6.3101012080795616e-003
      -1.9850724533058897e-001 -1.0714455625918617e-001
      1.7111629389815895e-002 1.1533169025149270e-001
      -1.2495295353303253e-001 1.3759333090951145e-001
      1.2282889980563640e-001 2.9013402079140060e-002
      1.3994785306277407e-001 -2.5349306591722121e-001
      1.0722088024008665e-001 6.6804333455119116e-002
      7.3436730381484155e-002 2.5642560890314170e-001
      9.4543806177385031e-002 3.3142250577181520e-001
      4.0423302786279744e-002 5.1605180626585749e-002
      1.9190221630669513e-001 -6.1630490466740163e-002
      -1.6196650177888408e-001 5.4610756348162995e-002
      8.5017342097864837e-002 2.3704647940266033e-001
      -3.5038545462820182e-002 -1.5564287387495698e-001
      4.4179468938393252e-002 -1.0479987794973100e-001
      3.8718525097321099e-002 8.1100880751728152e-002
      -1.3751136756051047e-003 -1.8412204523993134e-001
      -2.2367699142312961e-001 -1.2352845087761587e-001
      -1.6099592046877362e-001 9.9590524925361384e-002
      -3.1463930996698436e-001 6.9265132517148248e-002
      -2.3450137543628739e-002 -3.8048185963501246e-001
      -2.6616144620506571e-001 9.9449905991492865e-002
      7.0668857154129475e-002 -7.3320896747360739e-002
      2.1159383610738942e-002 1.2129607680449686e-001
      -7.3862485764776054e-002 3.3099323312701318e-001
      6.5676424071457644e-003 4.7088442045796972e-002
      -1.7895606829272721e-002 -4.1502319136746929e-002
      -5.5182748758686190e-003 3.2879262087101270e-002
      -1.2322295138358801e-001 -4.2811219963695391e-001
      6.7567278206220036e-002 -1.2459330379433654e-001
      1.3699947948169378e-001 -1.3670281097945206e-001
      -6.0819197561408994e-002 4.2964157940487063e-001
      1.2505118172299193e-001 -1.1875744234984970e-001
      -2.8065126473285677e-002 -2.8119485591505119e-002
      2.7688889203778344e-001 -5.0719016725701881e-003
      1.9942791068291003e-002 -1.6908947315622133e-001
      6.6362859272920627e-002 1.3953262805448627e-001
      2.6053410712513220e-001 2.2995740539785015e-001
      8.9610210163048276e-001 2.3037139296727412e-002
      2.2525968444362243e-001 -2.7148559057130739e-001
      -3.4221428276204141e-002 -2.5654091445513796e-002
      -7.8010748041333927e-002 -8.2074172344776541e-002
      1.0700557133673713e-001 -2.1643771271041212e-001
      -1.5434508707472858e-001 -2.9862256339264615e-001
      -1.2318988462546823e-001 1.8593080335143544e-001
      -2.3483757671765992e-001 -1.1826428270971182e-003
      1.5257577724027127e-001 -3.6668759117829665e-002
      3.0986973034532014e-002 -2.3211333814578983e-001
      2.7067627188133190e-002 -8.1243777989872437e-002
      3.3905670857823055e-002 -1.6115649165186202e-001
      2.9623098008933042e-002 8.1455235181923893e-002
      -1.8829369762149936e-001 3.3940308342671160e-001
      -1.1158488275859058e-001 -4.4352761661065797e-002
      -9.6432145922032184e-002 -3.2276518653324843e-002
      7.9160867123122577e-002 1.0849371052706898e-001
      1.6160445506293458e-001 3.4965361846315168e-003
      -4.7157697619138773e-002 -5.1035667973666043e-002
      1.7749533655248476e-001 -4.8185445825601643e-002
      6.2196962396968231e-002 1.1394573742558849e-001
      -1.6828195377348532e-001 -1.2855578337912418e-001
      -1.9105332966705768e-001 -4.3874785594935538e-002
      -5.4806055460972586e-002 -4.0060134411655934e-001
      1.8619223097220780e-001 -5.5929853236904754e-002
      4.6041963672056663e-001 8.7990214365214398e-002
      1.1028675271553175e-001 3.6609877379721573e-002
      -1.4750414976130091e-001 -1.3466199677824262e-001
      -4.6454191870167132e-002 9.6749410154899837e-002
      4.5431934872388904e-002 3.3224065211994175e-001
      9.9987943100280488e-002 1.1194525243478884e-001
      1.4053933113261191e-001 -2.3799456050107562e-001
      1.2504416710114498e-002 1.0582922702280065e-001
      -1.8413611856140163e-001 -1.0050267269402891e-001
      -4.1002592011407935e-002 2.4021535432832780e-001
      1.5400809371498578e-002 3.6307745316311209e-002
      2.6647314586104925e-001 -3.2615089296654555e-002
      -2.9645539663913784e-002 3.5745911778409238e-002
      -2.3947750617665015e-001 -3.7934008205434758e-002
      -1.1455510813280914e-001 -2.1148699872846990e-001
      5.2244631299787299e-002 -3.7721871096689452e-002
      3.7817923058063780e-003 9.7897854566238642e-003
      -1.6469082234178667e-001 -1.4641880502828786e-001
      -1.0610898448882999e-001 1.4598148193053107e-001
      -8.8828900448277751e-002 3.6323978593041803e-002
      -1.5523972616066306e-001 1.7395686318346587e-001
      -5.2937351909833931e-002 -1.7697973246676096e-001
      -8.1049322314781222e-002 -6.0170237290360938e-002
      1.0926410267429232e-001 -1.0782224824203590e-001
      -5.0836556367120540e-002 8.6255547624808394e-003
      -1.9860722299139791e-001 2.8106312086799756e-001
      -9.8422302762717212e-002 -3.8621905467926243e-001
      3.5930012932928815e-002 -5.2651874371166189e-002
      8.9971898207229437e-003 6.8198422890202531e-002
      -8.1072102125103560e-002 -2.0888864940184987e-001
      3.1173207351119014e-001 -1.0806634695610268e-001
      -1.0531478350287511e-001 4.8888953588251224e-002
      -6.8916326946471373e-002 2.7188961078135726e-001
      1.4180464356897027e-001 2.3234066079893281e-001
      -8.5634643742122540e-002 -4.0935039254898220e-002
      2.1654415439170627e-001 -6.7334931125118735e-002
      5.3257645898938562e-003 -9.8763470390316865e-003
      9.9424767577740311e-002 1.8743940201396142e-001
      3.4320613252878435e-001 7.7960804492201691e-002
      7.6852325010911449e-001 1.1775417984253912e-001
      2.7577381078504054e-001 -8.8018009631436522e-002
      4.1257089210209583e-002 -1.0828136944551621e-001
      -6.6520504446191245e-002 -5.9152024304945774e-002
      1.0799267642415955e-001 -2.3678281907463822e-001
      -1.0266237848095176e-001 -4.0957185427376530e-001
      -1.2016157694777554e-001 1.1418906943262645e-001
      -2.2891419312470696e-001 -9.8021901707513390e-002
      2.2358766321365217e-001 -7.7810173746200459e-002
      2.6166588721259678e-002 -1.7257197415139799e-001
      1.3145722457214853e-002 -1.3168447050619927e-001
      2.8127748039512877e-002 -1.0990750217747311e-001
      -1.0138808486057077e-001 4.8937451955454354e-002
      -1.1006522788848050e-001 1.8034342969571454e-001
      -2.2350258387456542e-001 1.3085162614713933e-002
      -3.2638741929362725e-002 2.3723376474285976e-002
      1.4252773024743712e-001 1.8976877892903929e-001
      1.9519480662184893e-001 -2.2028248312154880e-001
      -4.4167524766159473e-004 2.4046929682740933e-001
      1.2964134628486976e-001 1.2317300171012931e-002
      3.5172598146693566e-002 5.8267155494917698e-002
      -2.4869048719963918e-001 5.7433745466027282e-003
      -2.1699099639169731e-001 8.7019932402200129e-002
      1.5084815609771773e-002 -2.6191682282757894e-001
      9.0568784948860656e-002 -1.1909174047408277e-001
      7.3387015790513022e-001 9.9270594387494707e-002
      1.9707216681447065e-001 6.2596276328991285e-002
      -2.2324885571616174e-001 -2.9355807659035299e-001
      -1.0849685583903222e-001 2.1971472840913364e-001
      -1.9725982575316858e-001 3.1100116972702929e-001
      1.1970066878808704e-001 -8.3966953609908621e-002
      1.0944662054660191e-001 -2.2032443562769666e-001
      4.4281116109365457e-002 1.1140964667376317e-002
      -6.3887401588799464e-002 -2.1516328413381822e-001
      -1.4320920313882174e-001 3.5156244232593233e-002
      1.6710529322607076e-001 -4.8121971999860229e-002
      2.0878804107396312e-001 6.5600348257801325e-002
      -1.8954266150777301e-002 -1.0553978359550489e-001
      -5.1991527789964909e-001 -4.3210437027401884e-002
      -1.0839511600927561e-001 -1.7421035482767255e-001
      2.5640999063632541e-002 1.9234965166451418e-001
      -9.2297270744597246e-002 9.9970870702419987e-002
      -1.4287561558227255e-001 -4.2837971462177930e-002
      1.7469670229467903e-002 -2.7526574772255327e-002
      -9.7580382354246278e-002 1.2121579347022919e-001
      -2.2692949852012925e-001 1.1280043362248375e-001
      -2.2318169559034812e-001 -1.1740099568727125e-001
      3.2427323846411121e-001 -1.8496399605915995e-001
      7.3649632620379130e-002 -3.9996244277343940e-001
      4.0909852592432891e-002 -2.9643335642972873e-002
      -1.2972626012825136e-001 2.9059170582121979e-001
      -8.9409029731272599e-002 -3.2050844924842481e-001
      4.5708828024764045e-002 -6.8373808462149410e-002
      -1.5447023543703371e-002 -1.6814422546007135e-001
      -4.0691628911202656e-002 -1.1844452968337142e-001
      2.9072189638244395e-001 -1.2954284677587086e-001
      -5.0402799732233397e-002 -7.1282430340845526e-002
      -1.0152363229482640e-001 1.4545511482549842e-001
      -6.9508429883391787e-002 4.0343226226435730e-001
      3.4115514447760079e-002 -1.8135732413554709e-002
      -7.9661239250549583e-003 9.9329875789021613e-003
      -1.5277459162078009e-002 7.2589430606839214e-002
      1.4591184514490643e-001 2.0137643291500559e-001
      4.1555091473255001e-001 1.6924847832367426e-001
      -5.6338576954783814e-001 1.4019485783919297e-001
      2.6824869098814658e-001 7.1443978881506470e-002
      -1.0435430917630349e-002 -1.2926756535656633e-001
      -1.1691260761922116e-001 -1.7530466273544643e-002
      1.7181805356542310e-001 -2.2544678735291904e-001
      -1.4266572035308334e-001 -4.5086885225110784e-001
      3.7035704180242678e-002 8.1568816335117159e-002
      -1.9350067693083431e-001 7.8592719632864266e-002
      1.5117746143037511e-001 -1.7842045190158470e-002
      1.1055167713105100e-001 -2.9565704984945251e-001
      1.8548229112899631e-001 -1.4127926933718177e-001
      3.2805409445073763e-002 2.6303762931105944e-002
      -1.6124074976833094e-001 -1.6599733915405107e-001
      -1.0434231705684352e-001 1.1650003376242717e-001
      4.9741147315185572e-002 -7.1393200653468256e-002
      -5.3394195468937318e-002 -1.3620752642221057e-001
      7.2669483399584567e-002 9.0457216775194929e-002
      2.7312131018168201e-001 -2.9798687700154997e-001
      1.4700270435289941e-002 6.3189504773030397e-002
      1.6593786735299651e-001 -6.6481649434172202e-002
      4.8595569794994228e-002 -2.3115303445126534e-001
      -2.3749044878120357e-001 1.8326980412419025e-001
      -2.2298539682296500e-001 8.8206590037844618e-002
      7.1110818435651604e-002 -1.0141119369839353e-001
      5.1252190700189354e-002 -9.1649080160893084e-002
      8.3904643846905447e-001 -6.5939747609678981e-002
      2.2838580978345965e-001 7.8795889689633081e-002
      7.4261886391891366e-002 -2.8771288151496527e-001
      -3.1060431309984867e-002 3.0693654860668074e-001
      -4.7176474005758307e-001 3.5023147772929969e-001
      1.4861836868085715e-001 -2.3489805491995969e-001
      8.2786965852032338e-002 -3.5772801156958789e-001
      -1.3770387776877235e-001 5.8237931228274885e-002
      -2.3743987322688405e-002 -4.7728214181057316e-001
      1.9242146341775471e-002 -1.9155234801261181e-001
      3.0113437293906925e-001 -6.4392869376419054e-002
      1.0217557854711030e-001 2.1879621349517536e-001
      -1.0895464284558794e-001 -1.9742220611995284e-001
      -6.7220471235608437e-001 -1.7397024013040416e-002
      1.4840240015390591e-001 -1.1041099719918618e-001
      -1.9692120712641471e-002 1.3424578418474994e-001
      2.9931609903625873e-002 1.7474845742308898e-001
      -1.3601559520925902e-001 -1.5325248515963563e-001
      5.2836291911369966e-002 6.2936549447701828e-002
      -4.2581565667912012e-002 -2.1406884078791222e-001
      -1.1412980072261804e-001 -1.0117365319929526e-003
      -1.5473170298832237e-001 -1.2431573762680051e-001
      3.1710559907558433e-001 -2.2852735548305264e-001
      1.6959343859161141e-001 -5.6758825952710990e-001
      -9.2433100230823975e-002 -5.7948256065639477e-002
      -1.6381042163354334e-001 3.1756118904966812e-001
      -6.6028730068760047e-002 1.7240671319348774e-001
      2.3230982177518789e-002 3.3078337310667583e-001
      -5.8910654603822492e-002 -4.5002783871672065e-002
      4.2504925182442754e-002 -1.9838021662039740e-001
      4.2024658214539795e-001 -5.7752570344902512e-002
      -1.0854274192017918e-001 -1.4902970573530416e-001
      -1.3194375662773442e-001 2.4061714405470728e-002
      -1.9321031546223599e-001 3.8770276660188280e-001
      2.9270931681323642e-001 -6.6123728857818961e-002
      -1.6169612200113231e-001 -8.1374719388229069e-003
      -1.6275714970150895e-001 6.0007273838978706e-002
      2.0415578675495941e-001 1.3524258422674185e-001
      4.7839945935700129e-001 3.0003378712171430e-001
      1.2683587299627459e+000 -5.2331924759837035e-002
      6.3077591355018392e-002 -1.7666137073908281e-001
      5.3356366296330678e-002 -1.3861474817915645e-001
      -2.5505340447929296e-002 -1.4383044888059927e-002
      1.1694613600596659e-001 -6.4378987628601822e-002
      -4.7481151790168950e-002 -1.1438865974887741e-001
      3.4148432718061339e-002 -1.1970132695456565e-002
      5.9535433930170946e-002 -4.5442631779248087e-002
      1.9068813170343366e-001 -1.9511858589514286e-001
      3.9689388401067519e-002 -2.4621968968810479e-001
      8.3934989101257976e-002 -1.4520202582813688e-001
      2.0080815503903414e-002 -1.2141131523881919e-001
      -1.1477266091235704e-001 -1.3771442883902488e-001
      1.3992674294842214e-001 1.2334197298766832e-001
      2.3754718234786620e-001 -1.3432580254826787e-001
      -2.9626025288079899e-001 -2.1947283747065066e-001
      -2.2404460013499639e-001 1.4068117300059791e-003
      -3.6562754194437823e-002 -9.9293165367737399e-002
      -2.7715835380760112e-002 -2.3448858050221102e-001
      1.5756470855937349e-001 -2.6393134121021183e-001
      1.2662452467388779e-001 -2.4296367738710567e-001
      -1.5231483791929726e-001 3.2800362812436290e-001
      -3.1578124036890765e-001 2.7779876857673143e-002
      3.0198315568759387e-002 -2.8305229957546285e-001
      3.5423669116266356e-002 -1.6972138171999315e-002
      4.1730610472226520e-001 -4.5740538177601299e-002
      2.9264650331978548e-001 8.5839054364333048e-002
      2.6346164148707085e-001 -2.7377435762129682e-001
      -1.3612508908122728e-001 3.4648192211777834e-001
      -2.3380544506246498e-001 3.4431777903687394e-001
      9.7781467151856871e-002 -2.0800115996913851e-001
      5.4541323936175994e-002 1.5027444363553391e-002
      -1.1767283247124694e-001 -2.3265526416072557e-002
      1.8080953411620296e-001 -1.4273252863036373e-001
      -1.3532028167714547e-001 -1.4752933630347373e-001
      1.5213809667491807e-001 4.0282046934570437e-001
      -1.8403319319911599e-002 9.3142761248211844e-002
      -1.7096789939544051e-002 -2.7441875120021775e-001
      -2.3294850520002136e-001 -3.2009251101356512e-001
      -2.6463580241059947e-001 -4.0661479798809090e-003
      -1.0954468535042672e-002 2.4337363467799018e-003
      6.6130655724489562e-002 2.1337510982336050e-001
      -4.6502714825799374e-001 -4.3201994920487374e-002
      -1.4153055811226614e-001 3.2230686556498861e-001
      7.5261474227694400e-002 -4.0777363008992590e-001
      -1.0637288957381057e-001 -1.0685069111892734e-001
      -1.1421025880060746e-001 -2.9220590235005789e-001
      1.7127398337383651e-001 -2.5918071844445653e-002
      1.1025191655837760e-001 -1.8189825806539178e-001
      -7.2545150567223340e-002 -3.9103925759174235e-002
      -3.8626700345655057e-001 2.3820148692605913e-002
      -4.5945692794409937e-002 1.4596762807198385e-001
      1.0099720672821862e-001 -5.7554267658174812e-002
      -1.4729535095642249e-001 7.9028444385888297e-002
      2.1103294541863831e-003 -1.5219508853111269e-001
      1.8385560710986817e-001 -1.5719795842260156e-002
      8.4210772269527293e-002 -2.6267868166936087e-001
      -9.9460923220042630e-002 6.4146841979013519e-002
      -2.7919483231307829e-001 1.5831188904646457e-001
      1.1379176209431335e-001 -1.6688749453856563e-002
      -2.9850317456999492e-002 -1.2110172797693834e-002
      -2.4697793115181074e-001 -9.1038663168944156e-003
      7.4683777654154612e-002 -1.9700609364059307e-003
      3.6639277477718113e-001 2.3434834988561132e-001
      2.2598614920123658e-001 -1.6151130879628095e-001
      1.0668281113813896e-001 -1.9805048799887714e-002
      -1.5566782031829576e-001 1.1520644304853894e-002
      -6.5726962871435937e-002 -2.2011054639261823e-002
      5.5176920405636119e-002 -7.3306687908167148e-002
      1.6456743632512465e-002 -7.0431515496552494e-002
      2.3547315268138892e-002 -3.2174039215675632e-001
      -1.1087393494274160e-001 1.2070865648719431e-001
      4.3630166896154714e-003 -1.3128441872621344e-001
      1.0367415612202803e-001 -3.2167151724999188e-001
      -1.9272761489593071e-001 -5.5382580918105544e-002
      -7.1371631198604291e-002 -5.0661540398410101e-002
      -3.5757634630273934e-002 1.0719939761788831e-002
      1.7811638948276285e-002 2.3458835105535894e-001
      1.0424920428310358e-001 5.9358258197094671e-002
      -7.3587061021416669e-002 -3.8810182919462977e-002
      -6.4491698920756596e-002 1.0894697099885138e-002
      -1.0429629533280624e-001 -3.0921308719121005e-001
      1.5042152477384346e-001 -1.4550888659077474e-001
      1.7716114872587072e-001 1.7706574740325129e-001
      -1.1383862644100386e-002 -8.8322096189963908e-002
      3.7965465375757054e-002 3.1419487462383466e-001
      -5.6576782658487652e-002 3.9082762580321170e-003
      1.0553229207589963e-001 -3.0573826121363673e-001
      -1.7340602404860070e-001 4.3426154933870934e-002
      4.1468628493515691e-001 4.7127624174737953e-002
      1.6283237326290803e-001 7.7360696689709732e-003
      4.6342542757265133e-002 -1.9800538104365598e-001
      -1.3458422565854930e-001 1.4152830230378166e-001
      -2.2298549572943044e-001 5.1774853439199986e-001
      -1.3435262303997549e-002 -5.4199382364974305e-002
      -5.6088585068703369e-003 -1.5535600263089086e-001
      -3.5550936361191034e-002 -4.1250875787878775e-002
      4.4286820671506211e-001 -3.5542982326053202e-001
      5.4028137658246038e-002 -3.0760941226052030e-001
      3.1130868609489970e-001 4.2627338055562014e-001
      1.8526399776580882e-001 1.0997976130989202e-001
      5.1787258138171664e-002 -1.6398867251349045e-001
      -1.3156024956366461e-001 1.8698417747847523e-001
      -2.1587319530070723e-001 -6.0496730289378811e-002
      2.0001496718014097e-002 2.7296902894599510e-002
      1.4303525163548866e-001 1.2582560906954768e-001
      -2.1145840144402978e-001 6.8594536167587331e-002
      6.2717280000640405e-002 -1.8707561336334255e-001
      -6.7209176407722712e-002 -2.1086377850583660e-001
      -6.4481513560258025e-002 -1.1496199593688632e-001
      6.7252358351577450e-004 -2.1917932019773925e-001
      1.8968665524832487e-001 -1.0751538285418279e-001
      -7.0785127119190841e-002 -2.0500279280950137e-001
      -2.6870068160941313e-002 -1.0224034820746663e-003
      -3.0025448924911025e-001 2.4360716977993108e-001
      -2.3284071139156672e-002 3.4075210590696126e-001
      -4.3338646111602507e-002 2.6328180141658747e-001
      6.7076897996629446e-003 -1.3277690574988621e-001
      -1.6793358387355274e-002 -1.3433285655129423e-001
      1.9011490531765965e-001 -4.6841749749384633e-002
      -4.3250709618956884e-003 -4.3387942595545276e-001
      -7.4845162403939139e-002 7.7559785994584823e-002
      -6.1767595851921153e-002 6.3988267578186472e-002
      1.1045207560229997e-001 -3.7017185560639147e-002
      8.4780023232499752e-002 2.1054090977759540e-001
      -1.1869444902818910e-001 3.7987387548324189e-002
      -1.3041657922390787e-001 4.8207309630800915e-002
      2.4743918955840138e-001 5.1166356710973450e-002
      2.7023173639843248e+000 -6.4285946368721050e-002
      9.6820496915948892e-002 9.6313648864173994e-003
      -3.8677561570363027e-002 8.9260005558745220e-002
      -3.9614108767315149e-003 -7.4575653835152023e-002
      -4.0811128043640177e-002 -1.7838478761754825e-001
      -3.2179659884662211e-002 1.2476238365485035e-001
      3.6070399272181936e-001 -2.7271447967224854e-001
      3.1837036159347243e-002 1.9132239999463818e-001
      -1.9062413693216890e-001 6.0939282779709919e-003
      -5.4192463849504477e-002 -2.2579274003147279e-001
      -2.8513215881154585e-002 -1.3967148282446101e-001
      -1.0889556519900438e-001 1.0419882013969083e-001
      -2.3932132284836469e-002 1.7795764392540234e-001
      3.6576666124070351e-001 4.0915547223966398e-002
      -2.3581040691736518e-001 7.7104814699004614e-003
      -6.3820841041758572e-002 1.5471314970147843e-001
      -2.7943640455717924e-002 8.6305661253392757e-002
      -2.6697475790545439e-001 -2.5025892403338584e-001
      6.0512475046412362e-001 -1.0931888121082591e-001
      6.1029117657070457e-004 2.3712263615639950e-001
      -9.0128142197915692e-002 -6.0633437033014562e-002
      5.7074829212934351e-002 1.3657235147809013e-001
      7.5805982608990075e-002 -1.0257155681346730e-001
      1.2776431839085783e-001 -6.1554060727002660e-002
      6.6728610825732851e-002 -4.2964780645791220e-002
      1.6956745260294270e-001 1.0651195803380775e-001
      -2.4923846326357504e-001 -1.8276236473332100e-002
      -1.1291861441361987e-002 -6.9255120557753531e-003
      -1.2696457730507049e-001 8.6637643357995758e-002
      -1.8470324696288867e-001 3.0756415238435636e-001
      -9.6113686123424691e-002 -5.4712479922044428e-002
      -7.1320491989242674e-002 -2.9276103440414734e-002
      6.5478746100533697e-002 -8.6858383968531211e-002
      6.0062933806680407e-001 -1.8888001590624492e-001
      2.1929610483217446e-001 -2.9083422826782052e-001
      6.0780403556023643e-001 5.6778056134173249e-001
      2.9313926542780089e-001 5.9495442625674355e-002
      1.5954293628824415e-001 -1.5160210060584428e-001
      2.0189074616907168e-001 5.2564205483894189e-001
      1.0994694530098206e-001 -1.0603211619839213e-001
      -1.2710245966062006e-001 2.6475313446522420e-002
      1.3842817178322459e-001 5.9020531930449566e-002
      -1.4278708588326148e-002 2.9743655254688356e-001
      -1.8372470847822112e-001 -2.7734779002647415e-002
      -3.5383187268989591e-001 2.6466730881651546e-001
      -3.6303438327809270e-003 4.7372065809814174e-003
      1.5212156805551821e-001 -5.4925097209527696e-001
      3.9218559990436908e-001 -1.1438023055338317e-001
      -1.5135442809648206e-001 3.8138221181373819e-002
      -4.9626506134722102e-002 5.4516012738821250e-002
      -3.7180832903927465e-002 3.3549559040776833e-001
      -6.8108355471333579e-002 2.5543326469927186e-001
      6.1686081983564215e-003 2.4679402073373788e-001
      -6.0963536481276136e-002 -7.0974001973950962e-001
      3.3558829519094256e-003 -1.9626550787789804e-001
      2.4365873644200778e-001 -1.1118749536714428e-001
      6.9274112579779751e-002 -5.8221938865775258e-001
      -2.2888885402533921e-002 1.4179952523461906e-001
      6.5900673903728113e-002 1.2819528533991106e-001
      -2.2174525740383408e-001 5.0540215041682580e-002
      -8.2802520184121403e-002 8.5240578438227924e-002
      -7.8116487553085173e-002 1.5196188958107715e-001
      -1.9184334993521934e-001 -1.7022577705916597e-001
      1.8444611480423492e-001 -7.2471831778543494e-002
      2.4668928661416611e+000 1.1994880664104617e-001
      1.9423356056052259e-002 2.0126689764474484e-001
      -3.0176091965229516e-002 8.8862859762606189e-002
      1.1119955335102347e-001 -1.5899547317391578e-002
      1.9236259336572201e-001 -2.7183075324382144e-001
      6.7993451928521020e-002 8.2138270659446566e-002
      -1.0997579330419489e-002 -3.3776899917837738e-001
      2.6245786854980419e-001 1.1086611077440590e-001
      -1.7110366651882408e-002 -1.0249918259425660e-002
      -1.5351897044002916e-001 -2.1116707891223965e-001
      1.5472370853195198e-002 -3.5343898959296344e-001
      -5.9503314221620571e-002 2.8609874685995845e-001
      9.7930685439874987e-002 -9.8374481429856858e-002
      4.7961020684365280e-001 -3.4293146884467857e-001
      -2.1359619229990265e-001 -5.1351332701768990e-002
      -2.4354036846304583e-001 1.4895923249709822e-001
      -4.9107310119420350e-002 1.0502504501215068e-001
      2.4355898244634504e-002 -2.5198993478392240e-001
      9.8788576424384947e-002 -2.0740824057846313e-002
      1.4906759366751213e-002 -3.7064389749201299e-001
      -2.1510685057086659e-001 -1.4254945088947302e-001
      6.5250817657777474e-002 -1.7557338278996401e-001
      2.6563364465691512e-002 -3.1883918627969693e-001
      1.6259492508312129e-001 -3.9211495458304185e-001
      2.4163821096550089e-001 2.1736120355329011e-001
      -4.8847217198449450e-002 2.4291719787290209e-001
      -1.4682062089117753e-001 -2.5431435123547477e-002
      1.0785586708188666e-001 -5.0924448038307230e-002
      -2.7911881469266431e-001 -2.0600516710594757e-001
      6.2782467725568235e-003 2.4813248978275285e-001
      -9.3728741860875694e-002 -1.2459859881281567e-001
      -8.8265832202840011e-002 3.7362016855911356e-001
      -3.2600931784320511e-002 -1.0560399141993547e-001
      1.1242430517679542e+000 -3.8226016639674493e-001
      -1.0768197810460453e-001 -3.2935420232302115e-001
      6.7732185864938499e-001 8.5455646999946977e-001
      2.3709780505560071e-001 1.1320598081386483e-001
      1.4340992562692387e-001 -3.7659266707742008e-002
      -3.9446396935067540e-001 3.0884264232875114e-001
      -3.3430919722767227e-001 -1.0532399114705618e-001
      -1.0278453049604407e-001 1.0139718117133853e-001
      1.7446779726771025e-001 -5.4851289740174254e-003
      -7.8667134510622794e-002 5.7245038994276076e-001
      -1.0095412241686251e-001 -4.0828789989353431e-001
      -4.0984850974813203e-001 2.7117156605496151e-001
      7.1432071990261817e-002 1.2065826459989350e-001
      1.2687851495137056e-002 -5.8774191214401028e-001
      5.7803410311271508e-001 1.5920501158038025e-001
      -2.8770091200960357e-001 -2.5439146732432277e-001
      -2.1981431710575657e-002 1.0065593273566244e-001
      -3.6428381848484315e-001 3.9971018271695730e-001
      2.3798515785984709e-001 3.6514374475272682e-001
      8.8114942079270286e-002 1.2984323292741323e-001
      -1.2130550887876763e-001 -4.3747730950978359e-001
      -7.1292904703679272e-002 -2.4336469198597818e-001
      2.4381250296905872e-002 2.4424238757567562e-002
      5.0605244406711651e-002 -8.1093927971868973e-001
      -5.7325912392757063e-002 1.3626051179293722e-001
      -4.3157748320059759e-002 -6.3483173502052556e-002
      -2.9266967153147178e-001 4.5767504148724956e-002
      -2.2329166887210289e-001 1.3973138732365686e-001
      3.7204793220524439e-002 1.6837730722258290e-001
      -1.2801371989020005e-001 -1.7928963103557199e-001
      -7.5397683020342610e-002 -2.6966317916460891e-001
      5.2198202922587740e+000 7.2475881148586274e-002
      8.3090826354146496e-002 -1.6677717948026116e-001
      2.2701529113808216e-001 -5.2980027795495738e-002
      -2.7713413096609074e-002 2.3634460832708634e-001
      1.0181772759987291e-001 7.1259094713006577e-001
      -1.0438217474894636e-001 2.8477759535727948e-001
      1.2061579050905320e-001 -3.7634321826141670e-001
      7.9819320244479608e-001 1.2450219716886981e-002
      -1.4289587908912740e-001 7.7381146902276390e-002
      -1.3354429468174722e-001 1.0649002542989439e-001
      -1.1209216041920485e-001 -5.3055730544508184e-001
      -5.0449483504823776e-002 1.6596145866066364e-001
      2.5133710427835543e-001 -5.6660278770061266e-002
      7.5057281641768603e-001 -5.5083039611828910e-001
      -2.5200171650215142e-001 -1.2250215231887117e-001
      -2.1284970357154898e-001 2.3090941417831679e-001
      -1.4911620017726709e-001 -7.6101947404801640e-002
      -3.0454574609431628e-001 7.2121977481469039e-003
      3.3205327284931807e-001 -3.0538800469129411e-003
      -3.2004066097344652e-001 -2.6418402737391711e-001
      -2.2121029379101914e-001 -3.6281299688874280e-002
      2.2169473220782077e-001 -2.1511536256066136e-001
      4.9283677130763903e-001 -2.3736172407071759e-001
      1.8534116065626835e-001 -8.2623365893160897e-002
      3.9624482603745387e-001 2.3221440706002555e-001
      -1.0758515793557561e+000 3.2482350831015368e-002
      -4.3429151306657299e-001 -6.0114201996960687e-002
      1.1737211761701520e-001 2.0027856551775344e-001
      -1.2944563197467276e-002 -4.8418308092114404e-001
      -3.2247555981017684e-001 2.8894770723831248e-001
      -1.9089675344949103e-001 1.3294099048287347e-002
      -3.7874251197284275e-001 1.9962456335185982e-001
      -1.6284642613845951e-001 -2.3019854372639550e-001
      9.2273521686702853e-001 4.1860505724216479e-001
      6.4359536092805411e-002 1.3343604138813009e-001
      6.5872050023711426e-001 3.0687780784669527e-001
      2.4317364515177375e-001 -1.3053653598992776e-001
      2.0336223262287395e-001 1.0079139979324717e-001
      5.3394583898438930e-001 3.0352411413147518e-001
      -1.4028336238772735e-001 -1.1165269100968571e-001
      -5.4037237331694896e-002 2.8866037842005667e-002
      2.5559685939716342e-001 -6.4909972470668723e-002
      5.0285142030358498e-001 5.2095383144109741e-001
      -1.2148337099628413e-001 -1.8896649620982123e-001
      -4.2372743242445371e-001 1.3144821109407745e-001
      1.1355864038281045e-001 -3.1984655170180842e-002
      1.1401126973131645e-001 -7.5808052908794799e-001
      4.6925728166151731e-001 4.6092961217299133e-001
      -4.8472821928444265e-001 2.6599169714778348e-001
      -8.0768961943226594e-002 -2.6944170799959880e-002
      3.1820496515100388e-001 1.9474859502518468e-001
      2.9336915703188648e-001 1.0989102673262922e-002
      2.2249447482897541e-001 -1.2748792805686660e-001
      -2.8737065814012286e-001 -4.9917220659891814e-001
      4.3780260918420501e-002 1.2274072995516015e-001
      -5.5483697718939580e-002 1.3408747220295397e-001
      -2.5274891304864083e-001 -6.1391609800963287e-001
      -3.6493212312903076e-002 -2.1143365248574034e-001
      -1.6714394390105669e-001 2.4989019102878447e-002
      -5.8360498877408018e-001 -6.5890889585135920e-002
      -1.7934856588700043e-001 3.9362517448771789e-001
      2.3498411073296285e-001 1.2806789553613424e-001
      -3.4592468551457733e-001 -2.8898344004100707e-001
      -4.6818083465774363e-001 -3.6597514448622392e-001
      5.7989424017850510e-001 -8.9482624451563686e-002
      -2.0591996440957355e-001 -5.1276803174791837e-002
      3.0072378602306610e-001 -3.2759666713402108e-001
      1.8876869981744432e-001 1.3431934620998615e-001
      1.8989081743468604e-002 2.0349083548332256e-001
      2.2236837523532590e-001 2.8447623190028998e-001
      1.3769449923524657e-001 -5.0211540280482780e-001
      4.5773734325174786e-001 -3.0253268023866287e-001
      1.8036734843999472e-001 -1.4371293515159939e-001
      7.9831322111284228e-002 2.4769460616796463e-001
      2.9182432526535684e-001 -1.7139573097309205e-001
      7.7343144436549438e-002 -6.5701203587164372e-002
      4.0847359249285148e-002 -1.0282024342793580e-001
      4.4107095484317038e-001 -8.7914775907502005e-002
      4.3435111575337491e-002 -3.7698358903545212e-002
      -1.3079653399337615e-001 -8.1195231942693888e-002
      -3.1323682929421992e-001 -1.4130397733756278e-001
      -5.1739714365927662e-002 -4.0588208138794206e-002
      1.1654924930282191e-001 1.3162520847773362e-001
      1.9202932852926586e-002 9.9118610639209043e-003
      2.8981104202388860e-002 -2.0624298526452922e-001
      1.4685532748619604e-001 -1.0075192823378389e-001
      5.4610642373747464e-002 2.6841161358321003e-001
      -1.0437229732346469e-001 -3.0652629760793665e-001
      6.5719826173979992e-002 -7.0783469583779518e-003
      -4.4028431522271122e-001 -2.5012649421793587e-001
      -3.5070028084603466e-001 -7.6616637777287833e-002
      1.0612990422244444e-001 -6.9400160419349849e-002
      1.5149487923865587e-001 -4.6505283631288828e-002
      1.2767909685112172e-001 5.6985083944677418e-002
      3.1470770763303707e-003 -7.7436847914106349e-002
      -1.2120484129401392e-001 2.0926333238786990e-001
      -1.0563181962028947e-001 -2.2829729743191732e-001
      2.8176228025011302e-001 -1.7090115706209938e-001
      -3.8153081028416158e-001 -2.0956013952344471e-001
      -1.6918208667912216e-001 1.1150199790323258e-002
      3.9608422764473600e-002 2.6405904012316256e-001
      5.9810420321789140e-002 8.7880879617257494e-003
      2.5025410405317144e-001 3.6101126410801859e-001
      -2.2550238679030821e-002 1.4812361603950686e-001
      -4.4300160711199278e-002 1.3800951200565584e-001
      -7.4772454166617097e-002 6.7018096556223705e-002
      3.2199690022838057e-001 3.3657142564693648e-001
      -4.6925873150146333e-002 -2.4966402598510271e-001
      2.5255950723376325e-001 -1.3018747665142155e-001
      1.2560649944878757e-001 -1.7889640814803978e-001
      -3.5481594528723509e-001 3.4264052530295885e-001
      6.5343358016019915e-001 1.5284512330333433e-001
      -1.6657675736882172e-001 -1.3517992826375219e-001
      -6.0586817536553851e-002 -1.5514506323750410e-001
      1.0550261993411582e-001 -2.9062773424081484e-001
      -4.5185164456798606e-002 2.3336928213478675e-001
      2.3540166177179617e-001 2.4629143101457582e-001
      -1.9297816376151053e-001 -5.5097024753420809e-001
      1.6955227484286219e-002 -7.2406222781702695e-002
      -5.8313768136056598e-001 1.7289448728724441e-002
      -5.0080966239291411e-002 1.9400434859702088e-002
      7.6332842483323768e-002 9.5947796540108890e-002
      -2.6069769926343078e-001 -3.2603165176244503e-001
      -1.2930068981967949e-001 5.7068993509929715e-002
      -6.6965195231995633e-001 1.8661016587077189e-001
      -6.2525974122985079e-002 -4.2967477981986878e-002
      -1.7103311855476330e-001 -9.4686432218537162e-002
      -3.3005103425015697e-001 -2.4785908715784784e-002
      6.2853979570923157e-001 -9.5763805835553301e-002
      -2.0841908257146863e-001 -2.7119488538498715e-003
      2.4639509465541881e-001 -2.9898820377140384e-001
      1.6057119434908021e-001 1.2261818388559179e-001
      3.3885599017629386e-002 3.0612981417654900e-001
      2.3305389150381786e-001 1.9255729997994717e-001
      1.5444702132548832e-001 -4.7933502668937156e-001
      4.6737861336200481e-001 -3.1383207632469773e-001
      2.2285414614584212e-001 -1.0869094519996050e-001
      1.1224341719095096e-001 2.1489269677541023e-001
      2.6817700210867196e-001 -1.0814694324263448e-001
      6.4974637286582607e-002 -9.8509016317655351e-002
      6.9179978288857384e-004 -1.3540454782266445e-001
      4.3092794401545814e-001 -9.4844931382666017e-002
      7.5549625682203678e-002 -4.4708795892023000e-002
      -1.2095995259187918e-001 -9.8389524234580084e-002
      -2.8679455988765784e-001 -1.9638216983124407e-001
      -4.8219665491327827e-002 -3.0376522955797312e-002
      1.1562631365564513e-001 1.9661095458791131e-001
      -2.4136392264308248e-002 1.3389587265784680e-002
      4.1652793518555394e-002 -2.5347501255253918e-001
      1.0242233830166432e-001 -4.8771714624080205e-002
      1.0828011828582619e-001 2.6933945297200962e-001
      -1.0575784540308630e-001 -2.7381621605170803e-001
      6.0441943110177435e-002 -3.3442280736901600e-002
      -4.8494212884226640e-001 -2.5477733101677580e-001
      -3.3147867836834755e-001 -7.9105167178800784e-002
      1.4371936666547552e-001 -1.0357258752228224e-001
      2.2673331116442158e-001 -1.9194311843813507e-002
      1.3499706382376542e-001 4.9495715657419330e-002
      9.8470651866269382e-003 -6.7254262580274768e-002
      -1.0165279612909350e-001 2.0581641799712486e-001
      -1.2255764588281244e-001 -2.0603963769640221e-001
      2.7052768629845775e-001 -8.5342505450558215e-002
      -3.4505463335621334e-001 -2.7863449446030703e-001
      -1.9247798270236754e-001 -2.0772716766893934e-002
      5.0678753421807297e-002 3.2960182317675057e-001
      7.4619480956085255e-002 -1.1689975826395846e-002
      3.2194597293964178e-001 3.6118555323334778e-001
      1.8425504267307335e-002 1.7666551468068584e-001
      -3.5827187150237527e-002 1.9723861835683312e-001
      -9.5418324737799834e-002 7.2041636526791880e-002
      3.6204550909847311e-001 3.3249506387065131e-001
      -2.3845875551921948e-002 -2.1068890408712448e-001
      2.8103185457335295e-001 -1.3210861597065982e-001
      1.4675680876301331e-001 -1.6107904747711893e-001
      -3.4407805662316704e-001 3.5437713692201028e-001
      6.6978347513091618e-001 6.4343692014563469e-002
      -1.8671393421067339e-001 -1.2987395883761996e-001
      -8.9494979799932983e-002 -1.4069257540440652e-001
      1.8045203551758862e-001 -2.9859611364200606e-001
      -8.5465997117617071e-002 1.9467726143853017e-001
      1.5784106342938428e-001 1.5174929076526644e-001
      -2.1870714134848090e-001 -5.8927960542147684e-001
      2.8608265145018821e-002 -1.5803323291413519e-002
      -5.6074088101826658e-001 3.5973031893468795e-002
      4.3094128561388667e-003 2.5099532972488431e-002
      1.1124540180463746e-001 4.8492351594327493e-002
      -2.6801666192497636e-001 -2.6552418618848905e-001
      -1.0601192885459421e-001 5.2432271031181477e-002
      -6.6523672029414260e-001 1.6754641497913519e-001
      -8.1922924271074268e-002 -3.5329516907159415e-002
      -1.5088972551553453e-001 -7.1420677768080448e-002
      -2.4462809489676279e-001 4.8394859820847132e-002
      2.8405304644753917e+000 -2.8393187880126031e-001
      -1.6268411922894610e-001 -5.5431155924005680e-002
      1.0126858063654777e-001 -1.2780513876039207e-001
      -4.3597558320987205e-003 -1.8562563480661026e-002
      -9.6916966855144934e-002 1.8538246795964250e-001
      2.0701882037401048e-001 1.1294465287394090e-001
      2.9924413331208055e-001 -2.4523650871606234e-001
      2.2936217016285126e-001 -3.7355682470395923e-001
      -1.0940023260017912e-002 -2.1968612071165769e-001
      3.4682832478310034e-002 3.6580612976225407e-001
      2.5995834782896660e-001 8.7924900776877021e-002
      3.1102202238317687e-002 4.3857150555631941e-002
      1.3497318617585771e-001 2.0472256280259171e-002
      1.1046953485010932e-001 2.2624801365601888e-003
      1.9580217769777877e-001 -6.6884194608126377e-002
      -1.1773616446488154e-001 -1.3773960462645973e-001
      -3.8714346402549482e-001 9.0071206757278158e-002
      -1.9026586013186461e-001 8.4089454287182758e-002
      1.2199728291733146e-001 5.0791962580312502e-002
      -2.3501742399094472e-001 -1.2648761038333334e-001
      1.6889753753029819e-002 4.5811930800025380e-002
      -6.8776547975006846e-002 1.7219410837126206e-001
      3.3644128622868213e-001 1.9835329307578664e-001
      -1.3224531122418062e-001 -2.7287083090507622e-003
      7.7456227326459084e-002 1.0453165866184210e-002
      -3.5270811034091876e-001 -1.0728609261217560e-001
      -5.7796714805720406e-001 -6.8308910901109781e-003
      -1.8313943758349487e-002 1.0713891010312498e-001
      -1.5080844246155298e-001 1.3952098204105390e-002
      6.0183505282301576e-002 1.1547046771471352e-001
      -1.8500029526690409e-001 3.3750275344940801e-002
      -4.0171139716586313e-002 2.3994621671746941e-001
      9.0319491422940438e-003 -3.0142442953019444e-001
      1.0982136147552450e-001 1.5874017244832150e-003
      -1.4882424380478038e-001 1.5581641250393458e-001
      -1.1508589701943674e-001 4.7655513560298193e-002
      -1.5461787622002965e-001 8.3335837276690070e-002
      1.0242347430730357e-002 4.1895266670393130e-002
      3.1658374273401080e-001 -1.9808514448307637e-002
      2.4985257564825883e-001 8.6793941790282172e-002
      2.0047134804151850e-002 3.3023657032056342e-002
      6.3037391757142458e-002 -2.6412150490376873e-002
      4.2176113012873340e-001 1.8627582466020737e-001
      -2.1747406521185325e-001 -7.4020847666749004e-002
      2.7299975321682651e-001 -2.8542505785603974e-002
      1.2243557598700483e-001 -3.6832186883081830e-001
      -8.9074973557016685e-002 9.0449256990943763e-002
      6.6366827790917932e-002 1.5734684099608119e-002
      -2.0247852277601008e-001 6.5533255109202345e-003
      5.2946820618548475e-002 3.4800232613468214e-002
      2.8282980646168754e-001 -3.6734373178154578e-001
      -1.3987433419247364e-001 -4.4126598659241295e-001
      -5.2099992932124306e-002 -3.3961962577163041e-001
      6.5758218973683030e-002 -6.2589379027674452e-001
      1.0863096131182934e-001 -2.7023433254857104e-001
      -3.4584880459562062e-001 -2.4928101388894394e-002
      -1.2360243591770019e-001 8.5093305586543252e-002
      7.9244275501036784e-002 2.3893538336232442e-001
      -4.0459533392224606e-001 -2.1035092703851224e-001
      -1.4626778805493262e-001 -5.5112729340626034e-002
      -4.6461943358370300e-001 1.2270184638084231e-001
      -3.7783778667742220e-002 -1.5726942094998028e-001
      -2.6258993566508204e-001 -9.3304111237017234e-002
      -1.8168115570619114e-001 2.1398505748242852e-001
      9.3420563276128665e-001 -2.2192100057889974e-001
      -1.2216913411861723e-001 -1.1783201043701330e-001
      3.1580603971365535e-002 -6.9104561498891201e-002
      -1.1725000063585647e-001 8.2358498533288665e-002
      2.3704124699290886e-002 2.8734232029516826e-001
      1.3383012486326529e-001 2.5799158559918223e-001
      1.6904836757205199e-001 -3.5338484655287061e-001
      2.8721079327439325e-001 -2.3640510253051036e-001
      -2.2870796420762261e-002 -3.7787884559281065e-001
      2.1320548190576430e-001 2.4783349030817603e-001
      4.5179487452370215e-001 -1.6837395235948016e-001
      -4.4285233966987782e-002 1.6385742598639011e-001
      3.5972842147750922e-001 1.3028354590345556e-002
      2.6894602454354333e-001 9.8782836687493811e-002
      1.4061561678677206e-001 2.5605984677200774e-003
      -1.5785016289793335e-001 -2.2177023959682987e-001
      -4.6679330191524010e-001 6.4010254736783428e-002
      -7.3992802269736188e-002 1.9960119092972203e-001
      -2.4383594034424888e-005 7.1875336493357034e-002
      2.4753477810438119e-002 -2.9110170268399863e-002
      2.2763040432984650e-002 8.7716585730920442e-003
      -9.7124216191254914e-002 -1.0187298853826121e-001
      2.9936803885698421e-001 8.0739019126766745e-002
      -1.0388748557762174e-001 -7.0245379018573001e-002
      -1.5410536591162339e-002 -2.2033255234683177e-002
      -3.9013472679197286e-001 -1.2303730724998484e-001
      -5.8978038975367564e-001 -3.7218990829758554e-002
      -8.8451580894320092e-003 2.3437623515476963e-001
      -1.6288238125527477e-001 7.7139564182310456e-004
      1.1203095114058112e-001 8.3224786289183422e-002
      -1.0232601550227807e-001 9.5735508354989965e-002
      2.0730652635775026e-001 1.8123368285472063e-001
      -1.9688024058922711e-003 -2.8582428693619150e-001
      -1.5365479283608641e-002 -5.1108201066940348e-002
      -1.3637507131223919e-001 1.5425713468231028e-001
      -5.5089001044583988e-002 2.4523381321724386e-001
      -1.3009669323285800e-001 -3.6217877545559857e-002
      1.6802634723410409e-001 2.3060351828601056e-001
      -3.0739623018599525e-002 -5.3257860886126038e-002
      2.3722298810563994e-001 1.2454707770037896e-001
      5.1401644868042481e-002 -4.1459136880668032e-002
      1.8514105956021878e-001 -8.2103267194138709e-003
      3.9387317011569001e-001 6.3715782701148679e-002
      -5.0525778108409769e-001 -9.6058379563035534e-002
      2.5481057018864572e-001 -1.5162354364235667e-001
      2.2155474542638867e-001 -3.1122364160099913e-001
      -1.2484266555480118e-002 2.1136845054366718e-001
      1.3674858375902985e-001 1.4999254154686081e-001
      -1.2300308702300153e-001 -6.3465182633344608e-002
      3.6112609080368743e-002 -2.8138302304698382e-002
      2.2563758029539113e-001 -5.5836907307170602e-001
      -2.3331284858433224e-001 -2.9841957902890892e-001
      3.2953695807074247e-003 -4.0854625155977230e-002
      7.4469553349169923e-002 -6.5148728282828317e-001
      1.1550257518358249e-001 -3.3798218279901554e-001
      -3.9253559163894902e-001 -3.8583990222229793e-003
      -1.1138972045568812e-001 1.6969275354775923e-001
      1.4473305679593512e-001 3.6127611147279920e-001
      -2.7165681681661086e-001 -2.5684470664406117e-001
      -4.2505104328075340e-002 -7.4602373786300913e-002
      -5.4437212232386534e-001 1.2162603147750876e-001
      -2.2310315676267559e-001 -8.2448141390128904e-002
      9.5570927843531162e-002 -2.3237039088423617e-001
      -1.6734989417499885e-001 2.2103603300151425e-001
      3.4030969232151893e+000 -1.8346311953345557e-001
      1.7592385523603381e-002 2.0991722448400310e-001
      -9.8144046516818378e-002 -3.0722194942654107e-001
      -1.9732704398511938e-001 -9.1961612067983978e-002
      -3.1785536630669416e-002 1.0922654724704524e-002
      3.8365195533344540e-002 -3.6644630004938360e-002
      -2.3415641459676295e-001 8.0273796240370607e-002
      1.1419232606730350e-002 9.8626108472496574e-002
      -1.3455743834575956e-001 -4.5236537453641541e-002
      8.0072812950420152e-002 -3.2792501942349513e-002
      1.2567854703168990e-001 -2.6801462009995190e-002
      7.3553666307455856e-002 -4.7200196736365663e-002
      2.6438501497727634e-001 -1.1525818440404692e-001
      1.1816279849538525e-001 5.5602819238272108e-002
      -3.5336981715041199e-001 -4.6012987986344706e-002
      -6.0641634192534294e-002 4.3129636712987201e-003
      -8.2907131165678549e-002 6.2011119440206451e-002
      1.4315753362658812e-001 1.0881464378696087e-001
      -2.4842629145908846e-001 1.6661526123857140e-001
      1.4433008397359101e-001 -2.9554649592884513e-001
      1.5706952269424279e-001 -8.9743728097460881e-002
      -2.6214245830516408e-001 -7.2039793850742356e-002
      3.7731872384797233e-001 3.9034405812546524e-002
      -7.7199970598915715e-002 -3.9607202761221139e-001
      2.4992928461751762e-001 5.4311649315101580e-002
      -4.3307445524285303e-002 1.3289142845797536e-001
      -1.4832438897798550e-001 -3.2985487364782656e-002
      1.0183049470597564e-002 2.2286368622229624e-001
      -2.2226589596194904e-001 -1.2876339109457563e-001
      -1.3857997978472497e-001 -7.5192665939929335e-002
      7.8063283541829315e-002 1.2607972485833356e-002
      1.8968997190517575e-001 6.5703703683687407e-003
      -8.3995007837432724e-003 -1.3067217429484509e-001
      3.2157511911989473e-001 9.7388959603973188e-002
      -9.9935921764814626e-004 -1.2321021833094216e-001
      1.0308817840490139e-001 2.7013897711936774e-001
      -8.8094661284182571e-002 2.6285600513773072e-001
      -1.0501205116913523e-001 1.6524823892008622e-001
      -1.4700254070093832e-001 7.5588663025453862e-002
      -2.1815176664191996e-001 -4.4725999035864196e-002
      1.5170968680801578e-001 -1.6658199185821365e-001
      -8.5433338551811969e-002 -4.5087970774804718e-002
      3.1655667771023388e-001 -6.8154936358438709e-002
      -3.5664011801802364e-001 -1.6962684679787618e-001
      -1.1614411591024926e-001 7.0680552878919542e-002
      -4.6684240153770139e-003 -1.8366226301499761e-001
      1.8908151261751091e-001 -2.8941147255455130e-001
      9.4286627983850707e-002 -1.9667886730834676e-003
      7.5379640536354056e-002 -7.8203514094079996e-002
      2.4948391007978174e-002 8.9880876595730547e-002
      5.3379323139173908e-002 2.8892939563506259e-001
      -6.8451787419040719e-002 1.3967377771162112e-001
      -4.4984729136547809e-002 3.6559811268658315e-001
      4.2595523250242212e-002 -3.0752906044444134e-001
      -3.9620087993807909e-002 -2.2516459579190976e-001
      -8.8658840713606898e-002 -1.0550677469849995e-001
      -4.8279286032415207e-002 -1.1201753770376285e-001
      3.2823920844044140e-002 1.3253844326382727e-001
      -2.0768116522435046e-001 -2.7021764839302298e-001
      8.2249588277210003e-002 -2.1469964965808824e-001
      -1.9206694395618973e-001 1.9115316878911996e-002
      -1.4994004299025894e-002 -2.6894905797307117e-001
      1.1513692843815290e-001 9.9068186633807318e-003
      5.9629489007611440e-002 7.9492899427700395e-002
      2.0347679882194352e+000 1.2435558767786004e-003
      1.8758307538698407e-001 1.8199358916433317e-001
      -1.0695933261144608e-001 -1.4566527091153744e-001
      -1.4487913956283480e-001 -1.6456212113697968e-001
      -3.2972448199693069e-002 3.3251700936584344e-001
      -3.1589955603609020e-002 -3.5111674110481245e-001
      2.6096404285117312e-002 1.6807509635601828e-001
      -2.1088003277763445e-001 -1.1469638570905921e-001
      2.5723972186345055e-002 1.1983719121150525e-001
      3.3611709201644947e-002 -3.4359482778878903e-001
      2.6434633120868911e-001 3.9519208814365332e-002
      1.3144930072042055e-001 -1.8374652645541192e-001
      1.1065115027292453e-001 -7.7813183048489366e-003
      -1.9698226627727217e-001 -1.6436743434017487e-001
      -4.3255645995670750e-001 -1.1925899420241880e-001
      5.3447883023176303e-002 -9.7639215357189654e-002
      1.0208451787858243e-001 1.6099835847176094e-001
      1.3111786443518683e-001 -2.4613414355430897e-002
      1.9114459088804486e-001 3.2594588267481261e-001
      1.3161994495363014e-001 -2.0378103238807652e-001
      1.6123425574880390e-001 1.7209101579126150e-003
      -3.4314065268352023e-001 1.3150938053337993e-002
      6.4949670757873001e-002 1.0010566942980971e-001
      -8.9487485099695063e-002 -1.5546644765094850e-001
      4.2830844349607583e-001 -3.6671768708360676e-002
      6.7775055278244720e-002 1.5989025406070317e-001
      1.3202767316761729e-001 -2.8803406064869114e-002
      -7.0955324494025293e-002 -1.2664070315120929e-001
      1.0512775380550305e-002 -1.3533070749583717e-001
      1.1164943264827447e-001 2.2835741971369078e-001
      1.7719668863898841e-001 3.6654956056752133e-002
      4.1101399587266407e-001 -1.2452720396198487e-001
      9.3529834129390158e-002 4.4160116171486803e-002
      2.7840665417373062e-001 -1.0622888805961489e-001
      1.7771682553984973e-002 -1.9985293802074710e-002
      -1.5142758624982836e-001 2.0057268943973144e-001
      1.8599291048562652e-001 2.8469739616332879e-001
      -1.5480452694595059e-001 8.3437457533044962e-002
      -1.5765871965903766e-001 2.5970949628866385e-001
      -1.0913727779659439e-002 -6.6602123598564808e-002
      9.0879224273060277e-002 3.0708429546435268e-003
      1.3362068291278126e-001 2.8199046888802419e-002
      1.0245780455172609e-001 -3.8375210358699929e-001
      -1.8446272117349002e-001 -3.0569858252793969e-001
      -2.6804786084711857e-001 8.0836832440186732e-002
      -7.4304495677027127e-002 3.0224765387941735e-002
      1.0010492609744226e-001 -2.6473341504251691e-001
      2.5885911952837903e-001 -1.2861715245516234e-001
      1.4916973537113068e-001 -4.1787675663820995e-001
      8.1444315011076612e-003 7.1098325930114420e-002
      2.4379882691950661e-001 2.0193847040657162e-001
      -4.9514380329389589e-002 -2.7244824058903111e-001
      -7.6339881430431494e-002 2.2128956569805083e-001
      -2.2746454851484021e-002 -5.2108739955054628e-001
      -8.7338234859333855e-002 -3.5588763577139060e-001
      3.5671445566183396e-001 -2.1481697791897661e-001
      5.7592222645045939e-002 -2.5290939504038573e-002
      -1.0968768287231447e-001 2.5136746635404544e-001
      4.6977881876448760e-002 3.6436968703091051e-002
      -6.1928283022242292e-003 -1.5122243611132041e-001
      -8.9470395112770371e-002 -5.5432822284830520e-002
      -1.0592143913751486e-002 -1.8533553460288221e-001
      3.1283842099101145e-001 3.5498297816182078e-001
      3.5166364032930614e-001 2.7368092760800655e-001
      1.1500352336966342e+000 -1.3857355991373635e-001
      3.6261548081416062e-001 -1.9434567751658627e-001
      -4.4045924667101714e-002 -7.4780483935385902e-002
      -2.0785563944302338e-001 5.2842226279342791e-002
      1.1814260838768313e-001 -3.7313341233391251e-002
      -1.6812247592514379e-001 -1.7512386613323577e-001
      2.8097369912377002e-001 9.9511748739042505e-002
      -1.2971880375933614e-001 -4.0392357676930224e-001
      -8.2363659322836728e-003 2.4578160076637084e-001
      1.3195812446304761e-001 -3.9666732370115926e-001
      1.5347654515710211e-002 -1.6658996628397610e-001
      2.7898381428164674e-002 -1.8227295360418500e-001
      5.6731264150534845e-002 4.6464951895761990e-002
      -1.1163337632355744e-001 -3.6166852233427360e-001
      -5.5941843030067906e-001 8.9671644639479180e-003
      2.1417659877292905e-001 2.5725443181091261e-002
      1.9123703502968062e-001 1.9809636566377220e-001
      -1.0393249947712041e-001 -1.1677059707332348e-001
      3.7693019996946148e-001 4.3755471428523912e-001
      7.3025966374581419e-002 4.2806554322184676e-001
      5.7906958739211915e-002 1.0267592767409313e-001
      -8.9104314366007673e-002 4.0586671683613691e-002
      -3.7726405858116492e-002 1.4624421628403239e-001
      -1.2446534739512363e-002 5.1702544527690852e-002
      3.1286064907854105e-001 -3.8859004834174725e-002
      3.0253458560104191e-001 6.1780600716718592e-002
      1.1469423961936000e-001 5.1387409206162464e-002
      -3.1438244562968293e-001 -2.6392971569315870e-002
      -8.3337007819662065e-002 8.0885360817883903e-002
      6.7600697201478682e-002 3.4212783957603421e-001
      3.0705383169347283e-001 -9.8356166287329294e-002
      3.8375422884102073e-001 -3.4295047967594799e-001
      1.1056587285903936e-001 1.4110280163953970e-001
      3.2766179541013379e-002 -1.9974064291819457e-001
      9.7614596424332473e-003 -3.1446020428343218e-003
      2.1879698821123664e-001 3.2302805844824027e-002
      4.7783851538539929e-001 8.2725326536790364e-002
      -1.7954589928455899e-002 7.1443479614598224e-002
      -3.0452065947864387e-001 5.9619657879796972e-001
      2.6477641260376705e-001 -4.9984462602863072e-002
      -1.2614376946313888e-002 -4.7082648866525580e-003
      1.6654133008427874e-001 6.0511852589061790e-002
      -1.1382217916653641e-001 -7.1267461719547898e-001
      -3.1645438524961389e-001 -1.2686720120980885e-001
      -3.1724489485190988e-001 2.1601826410488861e-001
      1.7284307933467136e-002 1.5683916460504477e-001
      -1.8763335173092902e-001 -1.3826116968335854e-002
      6.8418710087894385e-001 -5.8260443314653576e-002
      1.9077931951089810e-001 -2.1499485812684102e-001
      1.4306360722213007e-002 -3.3104570171827961e-002
      -1.3880566513105755e-001 6.2124037629159572e-002
      1.7910436436250642e-002 -1.3292572082199264e-001
      1.8441057320528920e-002 -7.7746062953783404e-002
      -1.8669890142136539e-001 -9.1359990071703689e-001
      -7.8133064429581456e-002 -2.2252322011565540e-001
      4.5059760207841953e-001 -2.2378286071067316e-001
      -1.1688221279863342e-001 -4.6353731942403914e-002
      -2.8666227085403689e-001 -2.2873028521311286e-002
      -4.8574703516205131e-002 1.9000306489300561e-001
      2.7003739173314084e-002 -1.0912558519360056e-001
      -4.8373470821026920e-001 1.6705562013667352e-002
      -3.0847934253498927e-002 -8.6367893162155721e-002
      1.9006606250538041e-001 3.9758122968719661e-001
      4.3640583266982241e-001 4.0794342877534012e-001
      1.0393330283702391e+000 -2.4264994094449971e-001
      1.7964439580995265e-001 -4.0091862794539956e-001
      -1.1390048087763570e-001 -2.0844726777841574e-001
      -2.4182388167427646e-001 1.8166115743757125e-002
      1.3870158526724760e-002 -7.3941477341805742e-002
      -6.1060753639548181e-002 -2.2415881569029469e-001
      -1.7209345213370977e-001 -4.5881245601063497e-001
      -3.7158475493526860e-001 2.8132524633131810e-002
      7.4890174824039368e-002 2.1563030619219994e-001
      1.1953453656123295e-001 -2.9526085088853316e-001
      4.7401079893099787e-002 -1.1152364978097358e-001
      2.6007569480037435e-002 2.4092730906440810e-001
      -8.6800665792902028e-003 -3.3640621623473699e-002
      4.9162180856622925e-002 -9.3524115958504572e-003
      -5.1658834098004236e-001 -4.6535355191419388e-002
      1.0807996756503678e-001 6.4069598873295261e-002
      2.1382778219052806e-001 2.2565819175771490e-001
      1.3074897430129406e-001 -6.9305701640783100e-004
      5.6663405329375929e-002 2.7014975546010709e-002
      2.5471732497410116e-001 1.7648637244605905e-001
      1.7988974458014041e-002 -4.4730582714217725e-002
