<?xml version="1.0"?>
<opencv_storage>
<my_nn type_id="opencv-ml-ann-mlp">
  <layer_sizes type_id="opencv-matrix">
    <rows>1</rows>
    <cols>4</cols>
    <dt>i</dt>
    <data>
      256 128 64 36</data></layer_sizes>
  <activation_function>SIGMOID_SYM</activation_function>
  <f_param1>5.9999999999999998e-001</f_param1>
  <f_param2>1.</f_param2>
  <min_val>-9.4999999999999996e-001</min_val>
  <max_val>9.4999999999999996e-001</max_val>
  <min_val1>-9.7999999999999998e-001</min_val1>
  <max_val1>9.7999999999999998e-001</max_val1>
  <training_params>
    <train_method>BACKPROP</train_method>
    <dw_scale>1.0000000000000001e-001</dw_scale>
    <moment_scale>1.0000000000000001e-001</moment_scale>
    <term_criteria><epsilon>9.9999999747524271e-007</epsilon>
      <iterations>1000</iterations></term_criteria></training_params>
  <input_scale>
    2.4710633027411184e+000 -1.9611613513818400e+000
    2.2375703784202541e+000 -1.6204626748480013e+000
    2.0566728570225981e+000 -1.2680775601582785e+000
    2.0990572758115338e+000 -1.3681355458414461e+000
    2.1091004829775564e+000 -1.3893280959296601e+000
    2.0623590360872974e+000 -1.2828364242328725e+000
    2.0078416474252432e+000 -1.0925606583459779e+000
    2.0016564790151827e+000 -9.6011994801968337e-001
    2.0222147154555872e+000 -8.6164803600017326e-001
    2.0176399990196892e+000 -8.7571180513007341e-001
    2.0052654694854266e+000 -9.3002143550043348e-001
    2.0028760900054636e+000 -1.0550865116993067e+000
    2.0471077647997471e+000 -1.2418714267609576e+000
    2.1174146079133611e+000 -1.4063582142837254e+000
    2.1213203435596424e+000 -1.4142135623730949e+000
    2.0990572758115338e+000 -1.3681355458414461e+000
    2.0536997447163379e+000 -1.2601322342331895e+000
    2.0091324675867472e+000 -1.1002392084403616e+000
    2.0216127126847745e+000 -8.6339709604245574e-001
    2.0301229519186039e+000 -8.4084953613692182e-001
    2.0192910975140208e+000 -8.7041863280738307e-001
    2.0290645962738085e+000 -8.4343062087175180e-001
    2.0439899062476079e+000 -8.1110710565381261e-001
    2.0628912629369549e+000 -7.7870052137649937e-001
    2.1040047535141566e+000 -7.2533894032358082e-001
    2.0997550884236373e+000 -7.3012317310762387e-001
    2.0857141659013614e+000 -7.4696707727221379e-001
    2.0700465039586491e+000 -7.6805296873068929e-001
    2.0645034093095940e+000 -7.7623689695271436e-001
    2.0409887457961582e+000 -8.1700293544518832e-001
    2.0253554578449049e+000 -8.5293987287218465e-001
    2.0019081190054338e+000 -9.5726162039743956e-001
    2.0522467255139838e+000 -1.2561867357560794e+000
    2.0008863598524131e+000 -1.0302182745668673e+000
    2.1429596078253681e+000 -6.8668249338054954e-001
    2.1412135161252430e+000 -6.8824720161168529e-001
    2.0019081190054338e+000 -9.5726162039743956e-001
    2.0729170279698965e+000 -1.3089401669671024e+000
    2.2265507456221969e+000 -1.6025422281239126e+000
    2.3018393520254139e+000 -1.7206705870547117e+000
    2.3362660848978511e+000 -1.7719002201432610e+000
    2.3249827075214609e+000 -1.7552696829601504e+000
    2.2929604671104760e+000 -1.7072091573079486e+000
    2.1809447281648109e+000 -1.5253631283295552e+000
    2.0326712241937579e+000 -1.1978241142570358e+000
    2.0037939948093944e+000 -9.4027238050083684e-001
    2.0489423771031201e+000 -8.0189262675315565e-001
    2.0551750767131249e+000 -7.9107929540148070e-001
    2.0976705483678848e+000 -1.3651506743346553e+000
    2.0083825918317175e+000 -1.0958436760986552e+000
    2.0794691194147759e+000 -7.5504533502560311e-001
    2.0171066866096909e+000 -8.7748143063328321e-001
    2.0969816177439529e+000 -1.3636621532055171e+000
    2.5098575309568103e+000 -2.0131148946216082e+000
    2.9225403146303179e+000 -2.5267796470241293e+000
    2.7612837367103014e+000 -2.3325725216357358e+000
    2.6400916714412483e+000 -2.1817424229271425e+000
    2.6675092408392511e+000 -2.2163085210345961e+000
    2.7721719666261229e+000 -2.3458955233453200e+000
    2.6460794662672247e+000 -2.1893157488758583e+000
    2.2464114218849893e+000 -1.6346654543180947e+000
    2.0536997447163379e+000 -1.2601322342331895e+000
    2.0011386953405643e+000 -9.6681998475283215e-001
    2.0192910975140208e+000 -8.7041863280738307e-001
    2.0909128409713542e+000 -1.3503812097939998e+000
    2.0049798391936808e+000 -1.0731018087747923e+000
    2.0312015226903570e+000 -8.3827364428490925e-001
    2.0054113070103852e+000 -1.0763169812426769e+000
    2.2772175464808040e+000 -1.6830625715557530e+000
    2.5390689999200244e+000 -2.0516584329710912e+000
    2.8136481407407850e+000 -2.3963461595495672e+000
    2.7541214906363853e+000 -2.3237900077244502e+000
    2.6800952514481486e+000 -2.2320832972130167e+000
    2.6961896818161688e+000 -2.2521743175488238e+000
    2.7194247353334040e+000 -2.2810254104408663e+000
    2.5316167102772011e+000 -2.0418694300152427e+000
    2.3379040200512242e+000 -1.7743021580745897e+000
    2.1565074431815932e+000 -1.4815291710349734e+000
    2.0253554578449053e+000 -1.1724155849727207e+000
    2.0000039367715128e+000 -9.9801783749610207e-001
    2.0876423314989307e+000 -1.3430913214058102e+000
    2.0039177314724785e+000 -1.0645812948447542e+000
    2.0158105227158782e+000 -8.8191710368819676e-001
    2.0225189720092605e+000 -1.1617445285648429e+000
    2.2944257177949003e+000 -1.7094382083967958e+000
    2.4537825167327956e+000 -1.9377092096421678e+000
    2.5997693208268275e+000 -2.1303665267886505e+000
    2.5672885346883976e+000 -2.0884688476631807e+000
    2.6490955434628751e+000 -2.1931252291862791e+000
    2.6253761464058689e+000 -2.1630703269742799e+000
    2.5594496066259569e+000 -2.0782832371263349e+000
    2.3958627634124050e+000 -1.8575066960384867e+000
    2.3379040200512242e+000 -1.7743021580745897e+000
    2.2205929335725747e+000 -1.5927467172350909e+000
    2.0650459654237303e+000 -1.2896294000339665e+000
    2.0060148370947037e+000 -1.0806210878397065e+000
    2.0876423314989307e+000 -1.3430913214058102e+000
    2.0049798391936808e+000 -1.0731018087747923e+000
    2.0210193715668670e+000 -8.6514866947530067e-001
    2.0122376146679244e+000 -1.1169116521891902e+000
    2.2229622057106715e+000 -1.5966514255302839e+000
    2.3379040200512242e+000 -1.7743021580745897e+000
    2.3756676237158780e+000 -1.8288869801622236e+000
    2.3884126908557959e+000 -1.8469917584544573e+000
    2.4710633027411184e+000 -1.9611613513818400e+000
    2.4516641296216930e+000 -1.9348202530893419e+000
    2.3902636515427838e+000 -1.8496087779795352e+000
    2.3512478516159701e+000 -1.7937595217189295e+000
    2.2689125699877164e+000 -1.6701717529076248e+000
    2.2438608229735424e+000 -1.6305833857421823e+000
    2.0844428281361416e+000 -1.3358631616824876e+000
    2.0069808240170177e+000 -1.0871146130092177e+000
    2.0969816177439529e+000 -1.3636621532055171e+000
    2.0129145537993525e+000 -1.1202828022633302e+000
    2.0133762669080206e+000 -8.9083910222319163e-001
    2.0045664865549409e+000 -1.0698975890541251e+000
    2.0969816177439529e+000 -1.3636621532055171e+000
    2.1957084830377775e+000 -1.5509369443679542e+000
    2.2388187128811952e+000 -1.6224772517457471e+000
    2.2147495138243753e+000 -1.5830625245143477e+000
    2.2438608229735424e+000 -1.6305833857421823e+000
    2.2135943621178655e+000 -1.5811388300841898e+000
    2.1861254081446964e+000 -1.5344084585936235e+000
    2.1882260883740412e+000 -1.5380537535843335e+000
    2.1748597846657285e+000 -1.5146344928922038e+000
    2.1310258370705570e+000 -1.4333685689819819e+000
    2.0645034093095940e+000 -1.2882665123568795e+000
    2.0145671450332530e+000 -1.1281975727889597e+000
    2.0969816177439529e+000 -1.3636621532055171e+000
    2.0165818678154079e+000 -1.1373281665208923e+000
    2.0082002357587121e+000 -9.1345219057080307e-001
    2.0002520002530004e+000 -1.0160010160015240e+000
    2.0105237545321568e+000 -1.1079820889311638e+000
    2.0345594679697916e+000 -1.2039828597658540e+000
    2.0466551546308480e+000 -1.2405816463089763e+000
    2.0290645962738085e+000 -1.1856339754020568e+000
    2.0032053223555426e+000 -1.0582409068991334e+000
    2.0005208398803522e+000 -1.0230838223792873e+000
    2.0010085729334950e+000 -1.0322663273069619e+000
    2.0034347934298480e+000 -1.0603496649750237e+000
    2.0052654694854266e+000 -1.0752440339849931e+000
    2.0080199215005416e+000 -1.0936537072458306e+000
    2.0187321841697936e+000 -1.1465517613464353e+000
    2.0263404567054319e+000 -1.1760011579094025e+000
    2.1040047535141566e+000 -1.3786658131905758e+000
    2.0207259421636903e+000 -1.1547005383792515e+000
    2.0021776270372125e+000 -9.5441106130097286e-001
    2.0044327221256673e+000 -1.0688319326810973e+000
    2.0475627875559659e+000 -1.2431631210161220e+000
    2.1181893524069930e+000 -1.4079234782863941e+000
    2.1229051786947615e+000 -1.4173761758547365e+000
    2.0902530152713528e+000 -1.3489182405099356e+000
    2.0365049353534705e+000 -1.2101849764650088e+000
    2.0263404567054319e+000 -1.1760011579094025e+000
    2.0276847438125021e+000 -1.1808045085495424e+000
    2.0471077647997471e+000 -1.2418714267609576e+000
    2.0414103941315722e+000 -1.2252512782238107e+000
    2.0219126299595214e+000 -1.1593903770998049e+000
    2.0179098464998764e+000 -1.1430818674121324e+000
    2.0138463360149221e+000 -1.1247971102940488e+000
    2.0850770911209118e+000 -1.3373039081445135e+000
    2.0150581803995586e+000 -1.1304716279920144e+000
    2.0005671345640721e+000 -9.7646729187055892e-001
    2.0349439686587991e+000 -1.2052197909616102e+000
    2.3033397412307792e+000 -1.7229346873888964e+000
    2.4889571739730316e+000 -1.9852396506689658e+000
    2.3546517846038233e+000 -1.7986923354612538e+000
    2.2217752729408069e+000 -1.5946968352903510e+000
    2.1679387107325372e+000 -1.5022868942923384e+000
    2.1669653845237984e+000 -1.5005375380928683e+000
    2.1768722838802472e+000 -1.5181956503648946e+000
    2.2350882029998655e+000 -1.6164477182409742e+000
    2.2502747085047776e+000 -1.6408253082847335e+000
    2.1659958683979026e+000 -1.4987917839360487e+000
    2.0240729215015887e+000 -1.1676571466797359e+000
    2.0000629911340138e+000 -1.0079682534683323e+000
    2.0949324644933949e+000 -1.3592121347010717e+000
    2.0113641197835963e+000 -1.1124360087096776e+000
    2.0002844915920792e+000 -9.8327476744432063e-001
    2.0655911179772888e+000 -1.2909944487358054e+000
    2.3738766706318306e+000 -1.8263307123759769e+000
    2.4580467795140803e+000 -1.9435151619769067e+000
    2.3792716660637261e+000 -1.8340219092574557e+000
    2.2915009806207909e+000 -1.7049858486761837e+000
    2.2716592537736804e+000 -1.6744472475732586e+000
    2.2915009806207909e+000 -1.7049858486761837e+000
    2.2702832261784618e+000 -1.6723068407118136e+000
    2.3033397412307792e+000 -1.7229346873888964e+000
    2.3171143379455823e+000 -1.7435825648132184e+000
    2.2661872794445035e+000 -1.6659174345916441e+000
    2.0475627875559659e+000 -1.2431631210161220e+000
    2.0000039367715128e+000 -1.0019860992754106e+000
    2.1076292656406652e+000 -1.3862680586505565e+000
    2.0126868254381312e+000 -1.1191577040258656e+000
    2.0000009841906987e+000 -9.9900842811509605e-001
    2.0561710941912881e+000 -1.2667482633857043e+000
    2.2885991969795101e+000 -1.7005563477556083e+000
    2.3720930459830307e+000 -1.8237818557905248e+000
    2.4111400103078457e+000 -1.8789191250960444e+000
    2.4150398611960293e+000 -1.8843540186812273e+000
    2.4688702611915492e+000 -1.9581962041891303e+000
    2.4844246463285278e+000 -1.9791597132954442e+000
    2.3478713763747789e+000 -1.7888543819998315e+000
    2.2451336435754938e+000 -1.6326219848619414e+000
    2.1957084830377775e+000 -1.5509369443679542e+000
    2.1935498428179692e+000 -1.5472360498448177e+000
    2.0503438459017329e+000 -1.2509538345531408e+000
    2.0001929291472198e+000 -9.8620623589897649e-001
    2.1151094341147183e+000 -1.4016796646712617e+000
    2.0160655231942730e+000 -1.1350368892983631e+000
    2.0066507209619586e+000 -9.2170563869582023e-001
    2.0055591611955532e+000 -1.0773911565351111e+000
    2.1748597846657285e+000 -1.5146344928922038e+000
    2.4111400103078457e+000 -1.8789191250960444e+000
    2.5466240628814960e+000 -2.0615528128088303e+000
    2.5725756242553963e+000 -2.0953220114223021e+000
    2.5805995774324537e+000 -2.1056975718632867e+000
    2.6341623315223357e+000 -2.1742292260184355e+000
    2.5340895072083982e+000 -2.0451208473353493e+000
    2.3598097674212704e+000 -1.8061440829022917e+000
    2.1850811846610529e+000 -1.5325916642414328e+000
    2.0915755432521164e+000 -1.3518466928856685e+000
    2.0103188252439272e+000 -1.1068719722325195e+000
    2.0002844915920792e+000 -9.8327476744432063e-001
    2.1025761846002045e+000 -1.3756438429998361e+000
    2.0192910975140208e+000 -1.1488724647066377e+000
    2.0337973295641230e+000 -8.3228313337817528e-001
    2.0131443669202622e+000 -8.9173507919632644e-001
    2.0484800891025632e+000 -1.2457522764086022e+000
    2.2464114218849893e+000 -1.6346654543180947e+000
    2.4799318012511438e+000 -1.9731203418684695e+000
    2.5542838733415958e+000 -2.0715546294213834e+000
    2.5646634106534534e+000 -2.0850611756255009e+000
    2.5887374993303216e+000 -2.1161901780239929e+000
    2.5051404421845644e+000 -2.0068461379603533e+000
    2.3615431231597812e+000 -1.8086421538485626e+000
    2.1277379628770743e+000 -1.4269353798659743e+000
    2.0138463360149221e+000 -1.1247971102940488e+000
    2.0020858043849832e+000 -9.5536038879878671e-001
    2.0000482270529725e+000 -9.9307950162699676e-001
    2.0706152860906819e+000 -1.3033783720481524e+000
    2.0155576336437955e+000 -1.1327513883523910e+000
    2.0173722798842255e+000 -8.7659628828302660e-001
    2.0290645962738085e+000 -8.4343062087175180e-001
    2.0063287291902183e+000 -9.2354814518279882e-001
    2.0000157472255360e+000 -9.9603958840001894e-001
    2.0039177314724785e+000 -1.0645812948447542e+000
    2.0063287291902183e+000 -1.0827805840074194e+000
    2.0129145537993525e+000 -1.1202828022633302e+000
    2.0140845094507500e+000 -1.1259291875748985e+000
    2.0091324675867472e+000 -1.1002392084403616e+000
    2.0022714374157440e+000 -1.0488088481701516e+000
    2.0029838388787327e+000 -9.4684702304138502e-001
    2.0138463360149221e+000 -8.8904922572087330e-001
    2.0117967181588652e+000 -8.9712561985358130e-001
    2.0058609248807899e+000 -1.0795432060990362e+000</input_scale>
  <output_scale>
    227158990. -2.1580103950000000e+008 227158990.
    -2.1580103950000000e+008 227158990. -2.1580103950000000e+008
    227158990. -2.1580103950000000e+008 227158990.
    -2.1580103950000000e+008 227158990. -2.1580103950000000e+008
    227158990. -2.1580103950000000e+008 227158990.
    -2.1580103950000000e+008 227158990. -2.1580103950000000e+008
    227158990. -2.1580103950000000e+008 227158990.
    -2.1580103950000000e+008 227158990. -2.1580103950000000e+008
    227158990. -2.1580103950000000e+008 227158990.
    -2.1580103950000000e+008 227158990. -2.1580103950000000e+008
    227158990. -2.1580103950000000e+008 227158990.
    -2.1580103950000000e+008 227158990. -2.1580103950000000e+008
    227158990. -2.1580103950000000e+008 227158990.
    -2.1580103950000000e+008 227158990. -2.1580103950000000e+008
    227158990. -2.1580103950000000e+008 227158990.
    -2.1580103950000000e+008 227158990. -2.1580103950000000e+008
    227158990. -2.1580103950000000e+008 227158990.
    -2.1580103950000000e+008 227158990. -2.1580103950000000e+008
    227158990. -2.1580103950000000e+008 227158990.
    -2.1580103950000000e+008 227158990. -2.1580103950000000e+008
    227158990. -2.1580103950000000e+008 227158990.
    -2.1580103950000000e+008 227158990. -2.1580103950000000e+008
    227158990. -2.1580103950000000e+008 227158990.
    -2.1580103950000000e+008 227158990. -2.1580103950000000e+008</output_scale>
  <inv_output_scale>
    4.4022030561062097e-009 9.4999999559779691e-001
    4.4022030561062097e-009 9.4999999559779691e-001
    4.4022030561062097e-009 9.4999999559779691e-001
    4.4022030561062097e-009 9.4999999559779691e-001
    4.4022030561062097e-009 9.4999999559779691e-001
    4.4022030561062097e-009 9.4999999559779691e-001
    4.4022030561062097e-009 9.4999999559779691e-001
    4.4022030561062097e-009 9.4999999559779691e-001
    4.4022030561062097e-009 9.4999999559779691e-001
    4.4022030561062097e-009 9.4999999559779691e-001
    4.4022030561062097e-009 9.4999999559779691e-001
    4.4022030561062097e-009 9.4999999559779691e-001
    4.4022030561062097e-009 9.4999999559779691e-001
    4.4022030561062097e-009 9.4999999559779691e-001
    4.4022030561062097e-009 9.4999999559779691e-001
    4.4022030561062097e-009 9.4999999559779691e-001
    4.4022030561062097e-009 9.4999999559779691e-001
    4.4022030561062097e-009 9.4999999559779691e-001
    4.4022030561062097e-009 9.4999999559779691e-001
    4.4022030561062097e-009 9.4999999559779691e-001
    4.4022030561062097e-009 9.4999999559779691e-001
    4.4022030561062097e-009 9.4999999559779691e-001
    4.4022030561062097e-009 9.4999999559779691e-001
    4.4022030561062097e-009 9.4999999559779691e-001
    4.4022030561062097e-009 9.4999999559779691e-001
    4.4022030561062097e-009 9.4999999559779691e-001
    4.4022030561062097e-009 9.4999999559779691e-001
    4.4022030561062097e-009 9.4999999559779691e-001
    4.4022030561062097e-009 9.4999999559779691e-001
    4.4022030561062097e-009 9.4999999559779691e-001
    4.4022030561062097e-009 9.4999999559779691e-001
    4.4022030561062097e-009 9.4999999559779691e-001
    4.4022030561062097e-009 9.4999999559779691e-001
    4.4022030561062097e-009 9.4999999559779691e-001
    4.4022030561062097e-009 9.4999999559779691e-001
    4.4022030561062097e-009 9.4999999559779691e-001</inv_output_scale>
  <weights>
    <_>
      -9.9476760491226479e-001 -6.0021341834587988e-002
      -6.3890351181530011e-002 -5.4452078622709388e-001
      1.2878729858761595e-001 -6.8947350013502329e-002
      -1.1912699540513347e-001 -5.3130939856435666e-001
      1.0297958413877681e-001 -5.8378684589575930e-002
      -2.9732441557016309e-001 -1.6890879936746844e-001
      -3.0955449865149981e-001 -4.3879517751532132e-001
      1.9061607743884482e-001 -6.8292301608444861e-001
      -4.1181725210464515e-001 4.0131124205363794e-001
      -2.0069152654165956e-001 -1.7015738988757106e-002
      -1.1938497394952498e-001 1.9545971031402601e-001
      4.9775288739507384e-001 9.1604720703055587e-002
      -4.1960855861442170e-001 -2.1165430772115451e-001
      2.9423880337975516e-001 -5.8830762923780078e-001
      2.8863039802792911e-001 -1.5140433190527313e-002
      -9.3284160455007856e-002 2.2124069544774930e-001
      -1.2198992427036461e+000 -8.8820670317808298e-002
      -9.8809858955239999e-002 4.9399485816806077e-001
      1.4244321210433628e-001 -4.5111525521978092e-002
      1.4323574627419866e-001 3.3427432021452003e-001
      -7.4234187518245232e-001 -4.5193174665383744e-002
      -2.8800145852076303e-001 -2.1925446861363367e-002
      -1.4735031362276571e-001 5.1871213056593347e-002
      2.7891495879615286e-001 3.1432322526837014e-001
      -4.5191895577264413e-001 -6.2368494346868107e-002
      1.2454118034881016e-001 -7.5472842587249067e-001
      -2.6310740368325852e-001 3.8825869229756102e-002
      -3.0106771645809072e-001 2.6893193783847441e-001
      -2.0184034976649112e-001 -2.7573146580959378e-002
      -4.7477167383292967e-001 5.5819035948769047e-001
      -5.1644397938304082e-002 -2.7164477653356822e-001
      -5.7560071699350712e-001 -4.4595122493116385e-001
      3.5140917943036010e-001 -2.7068466215395476e-001
      1.6324800102408768e-001 2.1638907437060079e-001
      7.9264993750844059e-002 -5.7011858499347468e-001
      6.2425181591982659e-001 2.4841448582582079e-001
      -7.2759138932842671e-001 -8.1102588309466572e-001
      9.8996234204454719e-002 -4.2569188979042882e-001
      -1.1573731102142455e-001 2.5997393659689477e-001
      -2.9388725020808582e-001 -8.7060517975506332e-002
      -2.5454802871016902e-001 1.6860504746040361e-001
      3.7037359803556613e-001 6.1399812766475725e-001
      9.7168246730514662e-002 -2.6549423217291562e-001
      -5.4324783394313493e-002 -2.8553514908052791e-001
      4.4505834383204912e-001 -1.3850862126491448e-001
      8.4482034038765541e-001 5.5751595142499588e-001
      -2.4475360124316264e-001 1.6956230374177267e-001
      6.7276966746369982e-001 4.9597969246513884e-001
      -2.8282312093738587e-002 3.3765998461643582e-001
      -1.2727660869269075e-001 1.7767912027603758e-001
      7.5118591799221396e-002 5.4766958580431341e-003
      3.4050610372699008e-001 6.6014613786931187e-002
      -6.8546348011242333e-002 7.8283218957939105e-002
      5.3231358477837853e-001 -5.3394274528550512e-001
      -5.2676944804764347e-001 -2.0109111634395002e-001
      4.4630793767456114e-002 3.3254979408234120e-001
      -1.4710008298702662e-001 -1.6324137089292520e-001
      3.0923001249783927e-001 -2.7728349422909798e-001
      1.6794280684055536e-002 2.9779827017152016e-001
      -2.6558224909523098e-002 3.3438620467045493e-001
      -2.8054442389748591e-001 -5.2884598067353872e-001
      1.6992453817551251e-001 -4.0254383949101435e-001
      -1.2189611910408773e-003 -2.2876552639724182e-001
      -5.9780918433157126e-001 -3.9759384870550707e-001
      -1.3684679379868769e+000 5.0606038955489381e-002
      1.9356771139812795e-001 -1.2137631284959149e-001
      3.8395324141112380e-002 6.9720761544091425e-001
      1.2806148344012686e-002 -3.4621833631173043e-001
      -3.9613910495767141e-001 6.4164224113889565e-003
      -1.9772507088853197e-001 3.8453771735726905e-001
      3.9018973459167805e-001 -4.4999784497192424e-001
      -1.6121889967387421e-001 -7.7919589061156669e-001
      -4.6642303998308243e-001 2.6159846167783646e-001
      -2.6902643574409540e-001 -1.3633913175973738e-002
      -6.8770260936332570e-003 2.6160000874976613e-001
      5.1085893367584199e-002 1.3420321620757347e-001
      -2.1857821088535068e-001 2.4785879635310493e-001
      2.2097997683503579e-001 -2.5020183323925271e-001
      1.6117529938710573e-001 -2.2929649796255544e-001
      2.4120752567087397e-001 5.2128022159274912e-001
      -5.6657008423085020e-001 -1.7756383760391820e-001
      4.6254219162394616e-001 7.7084819934913407e-001
      2.7968471900708980e-001 -1.3262047340273361e-002
      5.0180664782318907e-001 -3.0849216618270603e-001
      4.2017079833417542e-002 6.1366252217988149e-001
      -4.5996986672756673e-001 -7.7777175034195178e-001
      1.7534184823911814e-001 4.2847142917058129e-001
      -5.6588103823097879e-001 -3.1081323193262267e-001
      -5.8567800755854549e-001 2.4432962740968803e-001
      4.0765190009603947e-001 2.3292059045528501e-001
      -4.8103413299860440e-002 1.6046025234567174e-001
      -3.8498150117828039e-001 2.4068121000171441e-001
      -2.1455524674338830e-001 3.5514246303697222e-001
      -1.2035560548062979e-001 8.5930983255378379e-001
      -2.7823460706275421e-001 -2.4180456110281884e-001
      -6.7410465931886443e-001 -4.6300718622415010e-001
      -1.6334981261765302e-001 -1.5007757335583743e-001
      3.0313527265159923e-001 2.4538908265708270e-001
      -9.2319148976041959e-002 -5.7116040547865221e-001
      3.0244774858428047e-001 4.2444513797222366e-001
      -4.7268489337912450e-001 -3.1230753591542582e-001
      4.0895025441198447e-002 -2.1328598861912848e-001
      3.2074579897537190e-003 2.7002308156110444e-001
      1.6850423122549467e-002 -2.8727087331784001e-001
      -1.8802261753578212e-003 1.6215023900404232e-001
      -5.6413559934745262e-002 3.2004885163144142e-001
      5.1448276152497707e-001 -1.6146963578468937e-001
      1.3501696818151093e-001 -7.8279512291568834e-002
      1.6523144907384035e-001 5.3308057367590611e-001
      4.1811340666986530e-001 1.0840505576246273e+000
      -3.7632855009057736e-001 3.5449945152211843e-001
      4.2115680499563674e-001 4.0491715390168859e-001
      -8.7561139337427527e-002 3.3081940927366577e-001
      -3.4170438687916416e-001 -2.2451806880128741e-001
      -1.1328233757222697e-001 3.8364723018639962e-001
      3.8840507158053594e-001 2.9314437972927244e-002
      -9.2743337644264817e-002 -2.8156746890341144e-001
      8.6060796588009303e-001 -1.0347346487033349e+000
      4.0274450925319966e-001 -1.7694169464813198e-001
      -7.6198878723740149e-002 4.6471366855084995e-001
      4.8218678277670235e-002 -1.4484172108952692e-001
      4.2508352386166522e-003 -2.4137435069676619e-001
      -5.6577081099488946e-001 3.3280983755623711e-001
      -2.4301181121446525e-001 4.4244634792657778e-002
      -5.9972874451688341e-001 -4.1132858746102285e-001
      -2.6106192255293453e-001 -5.3146702987964911e-001
      3.6204548560043165e-001 -3.5829068424919279e-002
      -9.8359226207352968e-001 -5.2713998871450070e-002
      -6.8400851188511225e-001 -1.4133805242455988e-001
      4.9577809070480511e-001 -6.1751189283365793e-001
      -1.8785971271188018e-001 -2.6369145098142177e-001
      3.6046063673044998e-001 -3.7370703456704707e-001
      -2.2366765493546398e-001 6.8204606455944838e-002
      -8.3219363788846104e-002 7.0261462478466963e-001
      2.1946013220603333e-001 -3.2727363504684759e-001
      1.3944317822690772e-001 -5.9967177641948888e-001
      -2.4764271217402486e-001 -1.3537996483624179e-001
      1.2077345474657353e-001 -1.7918329041037209e-001
      7.1236010504368963e-001 1.9462911642265987e-001
      -2.7498113409329794e-001 3.6632380843327539e-001
      -9.7503775291302042e-003 2.7902978090172620e-001
      -1.2111993317065954e-001 1.6655476972693754e-002
      1.8930958163229336e-001 2.8954301580369651e-001
      -2.1397001345679878e-001 5.8367493991257180e-001
      -2.9197646103119235e-001 -6.1522825110424673e-001
      3.2405073452818806e-001 4.2144955757317232e-001
      3.7857761703719012e-001 -4.0988743843538372e-001
      -6.7451107824925749e-002 2.9098331782367903e-001
      -2.1836366164962279e-001 3.2893986214901250e-001
      1.0130263090146604e-002 -4.4265424908787721e-001
      1.2101740903453474e-001 4.2632321882428631e-002
      -2.3536542138341734e-001 -1.8414469742178438e-001
      -3.5318484627825986e-001 -3.0186983608648427e-001
      5.6177617106780736e-002 2.1126964035088538e-001
      -8.5952354524232721e-002 -2.3173245902109935e-001
      -4.1118528210339661e-001 -9.3915293101473230e-001
      -8.9388900100074642e-001 4.3106837708020246e-001
      -3.2973690242065007e-001 2.7048510094928774e-001
      3.4658542931418751e-001 -3.0647313707798252e-001
      3.2153046659444784e-001 2.2032214774802264e-001
      5.0703566754066065e-001 8.0210138918664457e-003
      3.3239435246096771e-001 1.2542323056086380e-001
      8.8877396964179498e-002 -3.3661344244125541e-001
      1.4027593391027829e-001 -4.6087393432146428e-001
      5.8052470487273533e-001 7.6911878895404218e-001
      -2.1129171446280495e-001 1.5677555645199931e-001
      -6.7187548283600029e-001 4.9111606575002553e-001
      4.9545675743643791e-001 4.6739490285064017e-001
      -5.0070970977784013e-001 1.0757047342086754e-001
      -7.2335973658943287e-001 3.8952662834171126e-001
      1.4827068627087106e-001 1.3410471821932921e-001
      -5.5814276130603246e-001 8.3982051948660374e-002
      3.2708584141315507e-002 2.5879344660532910e-001
      -8.0755603701904467e-003 9.8853244476353208e-001
      -2.7213915003755212e-001 1.7546150051264298e-001
      5.6401691461987667e-002 4.3624967875179771e-001
      -6.5736331356225433e-002 1.8120747060414782e-001
      9.4956507919516323e-003 -3.4859774968983703e-001
      3.8101365671743700e-002 2.6453249076407720e-001
      2.4797966635358701e-001 5.4821178432440287e-001
      2.8234726338125338e-001 -4.0712804269978442e-001
      7.2675278708663513e-002 -1.0737480215522617e+000
      1.7114218831432079e-001 -2.1552539897913556e-001
      5.8291995074919911e-001 1.4142975344063686e+000
      3.2229213645146026e-001 -1.8430513996489598e-001
      6.2611068741470344e-001 -5.4181234267126921e-001
      -1.4957723231254966e-001 2.9261658054428369e-001
      3.0372733938227475e-001 -5.7590411614067571e-001
      -6.2933812637767561e-001 -6.0745313787139665e-001
      -6.8412873683054753e-001 -1.6237628274813376e-001
      3.3255534713223173e-001 -5.6009833828268914e-002
      -1.0866623763164769e+000 9.2770213901998258e-002
      -8.4639489769348120e-001 -4.7976901917537029e-001
      2.2158350496676527e-001 -8.8044193857142783e-001
      -2.4695863580452207e-001 4.4892792653845458e-002
      -1.7238512836182895e-001 -1.3620306004201080e-001
      1.8352366358275470e-002 -2.7425593223474326e-001
      1.4339932260436819e-001 4.8558308099973080e-001
      -1.4109094694834973e-001 -3.7130469011648765e-002
      2.0606724170856658e-001 -4.1478318968025496e-001
      2.6828902108322961e-001 3.2970017244132105e-001
      -3.0400857069371195e-001 -8.5550226317441039e-002
      8.1843745935022805e-002 2.3326221076922685e-002
      -8.1305262320597738e-001 -5.8579791457325808e-002
      -2.6719374009385749e-001 -8.6509215489276159e-001
      -2.2617550381531720e-002 -2.5102912773362568e-001
      -2.1226154533144836e-001 4.4709672553411217e-001
      -1.9609385950626935e-002 3.2445760430033704e-001
      -2.1853746341516561e-001 7.6376302364361492e-002
      5.1981490929634860e-002 2.7506102475747202e-001
      4.0146334375584936e-001 -3.5597814790308174e-001
      -5.2119058296062518e-002 2.6194660431049277e-001
      -1.1124762425688737e+000 1.5792598667732649e-001
      1.0779191761334711e-001 1.7353268501938604e-001
      3.6950752148245158e-001 -3.4132172512326403e-001
      3.9962506671221093e-001 -6.7288068352615180e-002
      -9.2400493347706933e-002 9.3912947593183416e-002
      -2.1855776366964372e-001 -3.5953152831536378e-001
      -3.6445712460261970e-001 5.0096993335576712e-002
      -3.4675170115304305e-001 -4.1357369059969157e-001
      -9.2087811271315023e-001 8.5928640684600627e-002
      -8.3849395272866875e-002 -3.8864030871277649e-001
      -3.0313322006603050e-001 7.2796861528876154e-003
      6.1594676564624817e-001 -2.4710181215265764e-001
      1.0030336810322142e-001 6.4656175992754847e-002
      -3.9181843102840480e-001 7.0678750235401600e-001
      6.4304472501569149e-002 -6.6694123788703730e-001
      -1.2770318427872615e-002 1.6926273436134867e-001
      -7.7737720296628746e-002 4.8078757579228915e-001
      1.2955583573144988e-001 -7.2810289407604278e-001
      -3.9517870594856924e-001 6.3044820361040477e-001
      1.0131071160455832e-001 2.2744328274581163e-001
      1.7990337545212041e-002 5.4689050393121919e-001
      2.8143720473494432e-001 3.9908583370155688e-002
      8.9399715523270112e-002 4.1984560199938908e-001
      -3.7021971154043315e-001 3.0569946123108444e-001
      -9.5664094775066918e-002 -2.3714623138710217e-001
      4.5075161745198716e-001 7.9508544969724843e-002
      7.7392440594779455e-001 1.0804289185088078e-001
      1.2663019472854312e-001 3.0162568815133806e-001
      -1.0979170523328356e-001 3.5539948642347657e-001
      3.6134182282878147e-001 4.1296073014227236e-001
      4.4325845174532752e-001 6.8061079027987761e-002
      -4.1079030316237225e-001 1.6290230367715811e-001
      -2.0307035124900966e-001 -1.6780457047244349e-001
      1.4584485127257685e-001 -6.5455906246388418e-001
      -2.9731768725257823e-001 -4.6899870823704982e-002
      9.3254984771064664e-001 9.6899972733906348e-001
      4.4971237864594021e-001 -1.5293621181734124e-001
      7.2427550604560564e-001 -6.3283789102488552e-001
      -1.1412368656463058e-001 3.3201361239796356e-001
      7.6281283879007220e-002 -5.3133066132483819e-001
      -6.5366533356335868e-002 -4.2594568985376419e-001
      3.9625528881683653e-001 -1.7557665656104132e-001
      -4.1685461327095180e-001 -1.4036258000916707e-001
      -6.3596842284655175e-001 2.6032697967883550e-001
      1.4200749541416868e+000 1.1110002827321240e-001
      2.8497296047890813e-001 2.9377965326329242e-001
      1.0828205842386194e-002 -3.7279540008747214e-001
      3.2967546766601158e-001 -1.3211359996574018e-001
      1.0006814008320149e-001 -4.4825737798461475e-002
      3.5809982930158157e-001 -5.4017606884333236e-001
      3.2422989338713720e-001 3.1164311431697472e-001
      -6.6467279046194272e-001 -4.7651035663479369e-001
      -2.8734378555409373e-002 -4.0579576641040976e-001
      1.4971282249124171e-001 -6.6831485737890894e-001
      4.5225223981195511e-001 -3.2864945273804907e-001
      -3.4518896950470346e-001 -6.9655319808497387e-002
      -2.6376712401920821e-001 3.8418980949456699e-001
      -1.5203519410511154e-001 -1.3413472823377251e-001
      -1.4370455523795861e-001 4.1098928122226591e-001
      2.6911118953946992e-002 3.7192705796502695e-001
      2.2322507608679343e-001 4.1559120824395301e-001
      1.8373640291113716e-001 -3.3974235875570608e-001
      -5.4866485880475291e-001 6.9326101811243201e-001
      2.3048473435087863e-001 5.3372505127874237e-001
      1.3021490104530062e-001 -4.3806431051650448e-002
      -9.5043883169411802e-001 -3.8716285802851036e-001
      1.5934400072460470e-002 -1.1082693276558668e+000
      -1.9642637615697009e-001 2.6716644475686607e-001
      2.2490922675022510e-002 -3.3174316337168427e-002
      1.0107730115899676e+000 8.0359503816121405e-002
      -4.1876788891148398e-001 -1.3034195655785952e-001
      -1.1912868774235894e-001 -2.3557552185498112e-001
      2.9230191882734874e-001 3.5240974825652266e-001
      -1.8220811007781221e-001 -3.7093453887561251e-001
      -4.2573892018592385e-001 -4.3419664240828576e-001
      -1.8007161245769013e-001 4.3435816400465521e-001
      -4.2964370723001896e-002 5.0840508338015178e-001
      8.1419807717671877e-001 -3.7077468210537218e-001
      1.0494683278323330e-001 -9.8120960233967625e-001
      8.7680116524056795e-001 1.4314308092689174e-001
      -1.3629099543834371e+000 7.9252529901030266e-001
      -2.6866207085833255e-001 4.3412000111324694e-001
      -3.1019049737155335e-001 -6.0859017247302938e-001
      4.5770384207851417e-001 2.0864718248794636e-001
      1.1642903935165994e-001 -2.8257532442097966e-001
      4.8336858310431152e-001 -1.8266831386099339e-001
      5.4152502033844793e-002 2.5465190129327703e-001
      4.0276371819705248e-001 3.1320580754210620e-001
      1.5065594021755499e-001 6.0888157901033479e-001
      4.4418487195847700e-001 -4.9743272798846394e-001
      -2.7219369830484746e-001 8.0411299415494422e-002
      8.9246486860479413e-001 2.3780863263085861e-001
      6.1385160688168072e-001 5.3814219999457943e-002
      -6.2263631070241365e-001 -2.0808030943191758e-001
      -2.1127615670357128e-001 1.3956939854642608e-001
      -1.0659106368891056e+000 3.1846479126944460e-001
      -4.6764003280771849e-001 1.2453658307528953e-002
      -3.0502714295863176e-001 -1.9401649279740089e-002
      -3.7555778254768096e-001 -4.0961318920135181e-001
      1.1884107161244435e+000 -8.6667051229651004e-001
      3.5665131134033906e-001 -5.8781073861532982e-003
      7.1606131779079751e-001 3.6328609938486822e-001
      -3.6976820589896481e-001 -3.3176712546940185e-002
      -3.1199931592936869e-001 7.7958073692738561e-001
      -4.8313940157083640e-001 -1.0836723378571990e-001
      -1.5618727884013220e-001 1.7728332511254360e-001
      -5.0430071338548288e-001 3.5569853953861674e-001
      -5.3158938962512248e-001 -2.3161482856100077e-001
      -7.9820775423590817e-001 2.9691842842584576e-001
      3.3082020504682436e-001 4.3395699921616576e-001
      -5.2097056103668625e-002 -8.4797750207728603e-002
      1.2258361859252813e-001 1.5392521206462326e-001
      2.8000492459397480e-001 2.3548450752762717e-001
      2.8041906034544445e-001 -4.6491499712013867e-001
      4.0086324632133535e-001 4.1898926437344219e-001
      -3.4460307932375228e-001 -4.8205289061440554e-001
      2.8961451122370013e-001 -1.7903613925473408e-001
      -1.1220154834245417e-001 -8.4194314347750376e-001
      -1.9168118981472068e-001 -1.0218766325310505e-001
      -3.0776339187866897e-001 -1.9431166457011650e-001
      -3.2775265940745718e-001 5.1166117983064641e-001
      -1.2318051908120428e-001 -1.1169703659584530e-001
      -3.9858937205718509e-001 -2.7439489418814082e-002
      6.6748354662293752e-001 8.7565928791058192e-002
      1.4160803701581720e-001 -1.1858519921874511e-001
      4.3171491727938971e-001 -3.0914990472967613e-001
      -1.5928371576288769e-001 -2.3851160339265007e-001
      -2.8361162017877084e-001 4.5791466446952972e-001
      5.4069624054542442e-001 7.0230665124994895e-001
      -6.6320068825327028e-001 -2.2623832614750422e-001
      -1.4041414171349645e-001 -7.5731254330862752e-001
      -3.8093862147451912e-001 4.9634631646928679e-001
      6.3718239761220330e-001 -1.1256960725532204e-001
      2.0608890237261945e-001 8.2066014462122661e-001
      -1.5974039565291887e-001 -7.0805793939179559e-002
      -4.8526755521969027e-003 -4.3812679702613638e-001
      1.2480861579929023e-001 3.8515652128769678e-001
      -1.4913796493774800e-001 -1.5863371905234372e-001
      -9.1035918603916813e-002 -2.1894044074341507e-001
      -9.0147719245179489e-002 6.6555442936548448e-001
      5.0693956085197875e-002 6.3546853416134519e-001
      1.6874917514390647e-001 -1.3903857002375805e-001
      2.1142350346956711e-002 1.6166188546316704e-001
      5.2178938153449461e-001 -1.2917738629810832e-001
      -7.1450345946385396e-001 6.9016627569620537e-001
      -1.4109882649134839e-001 2.8218307712947183e-001
      -1.3755922994387115e-001 -4.8041115399026939e-002
      5.7369002160964555e-001 8.3418661148608755e-002
      9.5823138848530279e-003 4.5561160296351842e-002
      -2.4171935498725633e-001 8.9980952624571578e-002
      -2.4661782986133632e-001 1.0289993911870901e-001
      4.5577580530739979e-002 -1.6642690455264089e-001
      4.0140166208881101e-001 9.5334277014367308e-002
      -7.8807908746956318e-004 -1.0999384207446522e-001
      -9.5138854623860070e-002 -7.4154091861207597e-002
      1.1757835383761542e-001 -5.6221426899147464e-001
      -2.0169415789363233e-003 2.5548140531812707e-001
      -2.3338988936318381e-001 -4.1427306173973927e-001
      -8.5505467976969580e-003 8.0883473466135405e-002
      -7.7988006461168491e-001 2.4856915908024027e-001
      2.1389515035463047e-002 -1.2610530396851283e-001
      -3.8799432754570717e-001 1.0226513443376847e-001
      -9.1791945609315040e-001 -2.2292811834608900e-001
      7.7679050323318910e-001 -9.2779758555914305e-001
      4.0777503143356303e-001 -1.1277626396982464e-001
      5.6778933155528133e-001 -4.3603254464974633e-001
      -1.1516974864700673e-001 -4.4599575502503368e-002
      -9.5233251892480497e-002 2.9516940615467530e-002
      -4.6976600295123278e-001 7.0559733744781417e-001
      -1.6749146824231645e-001 5.7654779442081550e-001
      4.1926091652074476e-001 2.1298165569442695e-001
      1.2374698550668263e-002 1.4087708053935660e-001
      1.1908504455269473e+000 -1.9037171411505016e-001
      3.5651043164496833e-002 3.3273853555338476e-002
      -6.4593780429872044e-002 -1.7159901853572360e-001
      -4.8857889934357815e-002 -9.4309544672477267e-003
      6.1152577306252254e-001 -1.1363581144184025e-001
      -5.7883519002352235e-001 -4.8254140101236309e-001
      -1.0758019510841031e-001 2.4971388968153799e-001
      -7.5646906896386334e-001 -6.7830937344029785e-002
      -4.7033972733563668e-002 1.2322421094226695e-001
      -5.7042804058012064e-001 -1.7812407228723071e-001
      -1.6848986984215605e-001 -8.7863135801415582e-002
      -5.3539039028543345e-001 4.1638418895806639e-001
      -2.6373374987838441e-002 3.0613351365655994e-001
      -9.3401519082361675e-002 5.6031870306754272e-001
      -3.1866188009770557e-001 3.4246150940443315e-001
      1.9173497954924851e-001 -2.2896354721162265e-001
      6.5449489630621999e-002 -1.6910748721681335e-001
      7.0603698678924154e-001 4.9114055744985341e-002
      -5.3430086856227889e-002 2.9965311939660455e-001
      -1.2499114752637241e-001 1.0110557723790252e+000
      7.6943432149745905e-001 -6.7509257116084534e-002
      -6.8416872588925659e-001 3.2703095773422036e-001
      -1.7809570981981435e-001 -2.5705048373641570e-001
      2.5129563363841650e-001 -9.0156110919040544e-001
      4.3390181317937077e-001 -4.7158580662816321e-002
      2.3774251623163248e-001 6.8584114030223409e-001
      -3.2943429055506834e-001 2.3246691693056473e-001
      9.5379645427751125e-003 -4.9359907917692625e-001
      1.0163448241786595e-001 1.0319962297806606e-002
      2.9374589576708660e-001 -6.4310437209002635e-001
      -2.6900420609976722e-001 2.0469381892588012e-001
      -4.9515277498881100e-001 1.1394623639043480e+000
      -5.9933690822233120e-002 -1.1125750589209582e-001
      2.6482715759072095e-001 -3.9414052196928817e-001
      -3.1183701740835595e-002 1.5313555591218050e-001
      2.6215422146307887e-001 3.3352311851986843e-001
      1.9929043355778739e-001 4.7086492294983001e-001
      -1.2873947313100634e-001 -4.1230471028579553e-002
      -1.4879444192853973e-002 -1.7882499251851323e-003
      1.9276892470284904e-001 -5.9191803340101967e-001
      1.1826105326168304e-001 -1.6645141973075275e-001
      6.8888582399632203e-001 -3.2454416688905147e-001
      -5.4832279105640325e-001 -7.7766678020025270e-003
      -2.7483866439268750e-001 3.1045473012280833e-001
      7.2615035041276643e-002 -2.7844049920977576e-001
      -1.5332794804283212e-001 -2.4315821406561944e-001
      7.5935252933212960e-001 -2.5968534269474913e-001
      -7.8138653616340914e-001 -9.9540325773017371e-002
      5.6544435537882343e-001 3.2866474665645773e-001
      -1.8241787910729060e-001 -2.8188898142221930e-001
      -1.5318257804701452e-001 1.8944806396302935e-001
      5.5416561119860736e-002 -1.7072975594318790e-001
      -2.8443132665882265e-001 -1.1616815127292851e-001
      9.7832274003864742e-003 3.9415697606287187e-001
      -2.3909115772396777e-001 1.0097689410616253e-002
      2.7469823645838470e-001 -9.3135888647067122e-001
      -2.6039053324921146e-001 -1.0560445572160912e-001
      -2.1332789405210992e-001 -2.0684663709243489e-001
      -2.9292922342529543e-001 -2.1356316488803806e-001
      2.5488334966163478e-001 4.2383418229827744e-003
      -4.5843837403168252e-003 3.2989800327737795e-001
      6.4011989108288336e-001 6.6122507899604577e-001
      -5.3600249483881568e-001 -3.4820161552607998e-001
      1.8587274148588301e-001 -7.8424095957996931e-002
      1.5820608951155782e-001 5.3493568971883187e-001
      -2.4799932746607456e-001 -6.2290573876028865e-001
      -3.2328063733524093e-001 -3.6000661295628922e-001
      -4.8085906331662202e-002 -1.6926456368832428e-003
      3.8206199363574272e-001 -1.4516729136570172e-001
      -1.2639817047461313e+000 -5.2593632036343252e-001
      -1.7893787670659758e-001 2.1456135941286325e-001
      -8.3093388061157880e-001 4.0886760714117781e-001
      2.9075686803385592e-001 -1.1275181183944702e-001
      1.2488071848129680e-001 -2.7115371647333658e-002
      -5.6161231700778258e-001 -9.3143115557304978e-002
      1.1756495092565408e-001 1.1800847752390611e-001
      2.6915909917922448e-001 -6.4624176007718359e-001
      -6.3046754496298851e-001 -1.6530672976216473e-001
      -5.0662040262607044e-001 -2.3375259643887750e-001
      -2.0409204668882505e-001 1.2736870339445880e-001
      1.1716512769394567e+000 -3.1575263313156070e-002
      2.7031133061724255e-001 5.9828023275358233e-001
      -3.7484984227721763e-001 2.8382316401137277e-002
      9.3968465413067789e-002 7.5097625437246307e-001
      6.5697014011691524e-001 -5.6389349239661324e-001
      -4.4560632706748443e-001 -4.5829083459966813e-001
      1.5048309427685813e-001 4.4892638539924823e-001
      6.0359138517142176e-002 -1.3838697007669876e+000
      1.6548931922971005e-001 -2.6215738304427499e-001
      -7.0456361756138453e-002 -1.0551909408398180e-001
      -3.3690921899666576e-001 1.7343901290097255e-001
      -1.3427954295733907e-002 -8.2163545118809789e-001
      8.8151687412873395e-002 3.5313558974063669e-001
      -8.7367214958332842e-002 -2.5643987045287114e-001
      -3.0759089088762853e-001 4.8959829948656791e-001
      -2.0631118521474484e-001 7.5784809218833321e-002
      -5.2372240886900079e-001 6.0201490152045034e-001
      1.0855230633778296e-002 -2.3327667993988183e-001
      -8.6852492229659572e-002 2.1142353252743090e-001
      6.3229430344022197e-001 1.9020275026341696e-001
      -4.6813549599342485e-001 2.1893146412616954e-001
      -3.5190108512538459e-001 7.8426133363975470e-003
      6.6297046887316857e-002 -3.0603976946860734e-001
      -2.9091714764086468e-001 -7.0854261305621258e-001
      -1.0051846967782932e-001 5.0638259477132141e-001
      5.3294652676984444e-001 -8.0708181548806351e-002
      1.4619243990631201e-001 2.1934784691265896e-001
      -2.5185379256194240e-001 -8.1707304996532545e-002
      2.7463963587401974e-001 -9.7235274424409282e-002
      2.9719843755990427e-001 -4.6867014091485928e-002
      -1.4377095697234607e-001 1.8835138229430334e-001
      -3.2566017708502132e-001 2.2226577658047617e-002
      4.0695129835238053e-001 3.5727795930795267e-002
      7.4058107325867720e-002 5.2348141752074928e-001
      -5.2114991544238751e-002 6.8779594375941153e-002
      4.1849391461617640e-002 -5.2887174725534503e-002
      2.6692569505328476e-002 -3.8235071654551478e-001
      2.0057904457744257e-002 1.0822199084693074e-001
      -1.4515867560027712e-001 2.1104920286954959e-001
      -2.9007063493138424e-001 -2.5781594580494543e-001
      -1.9368883687327915e-001 -3.3810037575549162e-001
      -2.3758636980513023e-001 5.5751938053876327e-001
      3.0296227567903782e-003 2.1330667687090538e-001
      -2.3816908954333219e-001 -8.7176425688320819e-002
      2.4428201463867538e-001 -6.7230221585427663e-001
      -2.3570905004645101e-001 7.8642079359175665e-001
      -1.2127768185777434e+000 -7.8611013671592966e-001
      -1.3573717246497985e-001 -2.9009904521519453e-001
      5.9494840987731452e+000 1.3374081963594098e-001
      -1.0728530000436773e-001 -1.6456961078248467e-001
      1.2498018989161935e-001 -1.3931485473751076e-001
      3.8794772526498172e-001 7.3828436384088578e-002
      -3.8972574761308876e-001 -4.1248107234749948e-002
      1.0161381001300418e+000 -2.9496606453861179e-001
      -1.0352191183650097e-001 6.6775797300770240e-002
      8.8800479362686716e-002 4.9519514438691771e-002
      5.4843657379916803e-004 -9.6553088899592146e-002
      -3.4911452154126266e-001 -1.2607040450062124e-001
      -1.5812470044348806e-001 -1.5150929238143404e-001
      -5.3275040231819315e-001 6.4794436386812482e-002
      1.3753501952318609e-001 -5.4068712959394694e-002
      -8.1110737173366129e-002 8.5201816764606464e-001
      2.3222424088345631e-001 5.3425830048365452e-001
      1.4434498710664873e-001 -6.1174585884981723e-002
      2.9476747050884884e-002 2.9329623616112610e-001
      -2.3694633531821344e-001 1.4395238073078989e-001
      -2.2961422622565211e-001 3.9915635144109152e-001
      3.3645579380584717e-001 -6.1229575564107151e-002
      -2.0338020123964562e-001 -5.2195075457430393e-002
      -3.9510868061288890e-001 2.6309491399443424e-001
      -4.3562796721031555e-001 -5.9122535925423825e-001
      2.1857530266612502e-001 -6.9417272167959565e-001
      3.2361802222097746e-001 -3.4090075246552648e-001
      -3.8472837970207785e-001 -1.8481979179122987e-003
      1.4890974609905935e-001 1.6532604661086903e-001
      -4.1176448170403550e-002 -8.1597434387164391e-001
      -2.5275454435283301e-001 7.3962004952765714e-001
      -2.7699750413488372e-001 -2.5508048340975070e-001
      -4.6388008675939446e-001 1.1506264033262001e-001
      -1.2093864919410643e-001 3.4234549884095050e-001
      -4.9175640632715562e-001 5.1853800416023554e-001
      -2.8364115867029933e-002 7.0134790799009861e-002
      9.2151253725867077e-002 -7.7193456612503542e-001
      4.5903256111742957e-001 -2.5063615186490262e-001
      4.4027067704512857e-001 7.3284720868429698e-001
      -5.7054944557914065e-003 3.2976970870431738e-001
      1.4349838419104416e-001 -2.2221764800797544e-002
      1.3336806322532258e-001 -2.9480387785101797e-001
      -2.4780546618553015e-001 2.2992108686050527e-001
      -2.1067907935322516e-001 5.2899848252648962e-001
      -3.2154287841892892e-001 -1.9761583005894850e-002
      6.7940164103153400e-002 5.9389902402526373e-001
      6.3670059991368400e-001 -3.3790770681416074e-002
      -1.5898999141490799e-001 -3.5841850648647811e-001
      -6.9886620158014931e-002 -1.2744504965779754e-001
      -5.8252121644415900e-001 3.6715232970536971e-001
      3.0972680136032388e-001 -3.8560340039518909e-001
      2.5109084413430415e-002 -5.6488370105758279e-001
      -5.2259267865168024e-001 -1.8020096670978214e-001
      8.2325153496141723e-002 1.4351775360822758e-001
      -9.5176430674473955e-002 1.8260817048680569e-001
      6.3849464319568694e-003 4.8708662278201970e-001
      -6.1980990245804346e-001 -1.4095295141160885e-001
      -6.9002958488602828e-001 -4.9706571116874859e-001
      1.2278791589856214e-001 1.7643763922247149e-001
      -8.1580174825030466e-002 6.2622375788220164e-001
      2.0855535094888775e-001 -2.5509592299632028e-001
      6.6693235846381510e-002 -7.3211760498386583e-002
      -2.1462875477956561e-001 4.0080087534577330e-001
      -6.2032913522216282e-001 5.2620389162995540e-001
      -4.6634357353401312e-001 1.1681956888305416e-001
      -1.3824044219185852e-001 3.4500276996283746e-002
      1.2280647960622255e+000 4.2693895867599208e-001
      -1.6890650722346839e-001 -2.6671061962423964e-001
      2.7378387375078878e-001 2.2257279839701921e-001
      -2.9867861914496879e-001 -2.9144174790508892e-001
      -2.8056118002860836e-001 2.2984751788095470e-001
      -5.3550795382157401e-001 -6.0423840587561750e-001
      1.9492301974539589e-001 1.9343884154531446e-001
      -1.0355472459745944e-001 -1.5870238784906238e-001
      2.9943773086345293e-001 -1.0617873898322339e+000
      1.4378571345670974e-001 -1.8471306550380642e-001
      -3.4191659712058214e-001 7.9144074861441926e-002
      -3.5385163794964219e-001 1.2594149554411538e-001
      -2.2939194878769310e-002 -6.8662918200208312e-001
      3.8267766219924632e-001 3.9891907752550321e-001
      6.5147458526111464e-003 3.5393585863744095e-002
      -2.5589402125595323e-001 -1.9919760998290811e-001
      -2.0490488905518514e-001 -9.4353745328631580e-003
      -1.2699434401299642e-001 -6.0962465322332727e-003
      -7.6762905338863163e-001 3.3275386113982869e-001
      3.3416646001597550e-001 -1.4881291203288330e-001
      9.7481346981870420e-001 -4.6493542965551371e-001
      -7.4681451964122259e-001 2.8053942702011841e-001
      -4.1577444576191619e-001 -4.3126243990340218e-001
      4.4742555340802181e-001 -8.8014974000281643e-001
      6.1297165532516532e-002 -5.2162193551859540e-002
      -2.1457443757983727e-001 -2.0811318513268889e-001
      -1.4153795083713228e-001 -1.9916156568134941e-001
      1.7734937773522011e-001 -4.4830655301654321e-001
      -5.5321111230291597e-001 1.9245918446539420e-001
      -5.9848091765496692e-001 -6.6128238355176949e-001
      -3.2744707836794423e-001 -2.8260572466670375e-001
      -1.6907989654539129e-001 3.9254883527130890e-001
      -5.5727867104495454e-001 6.3573811341020237e-001
      1.0503636191680463e-001 2.5563553666025390e-001
      -2.6404087518960007e-001 5.1857266298132187e-001
      7.4065930822922232e-001 -5.8650652200111109e-001
      1.7833518244543212e-001 -1.6010156213116938e-002
      9.1445228985636923e-002 2.1571754352307296e-001
      4.2935216389924497e-001 -7.1491748630958130e-001
      3.0916507849673497e-001 -3.7619752486663249e-001
      -4.1705554686267077e-001 2.3147677418636187e-001
      -6.4153078236214733e-001 5.4272632633004447e-001
      -1.9382831338193177e-001 -1.2154649175184339e-001
      -3.0430425780663301e-001 -4.2136427617297391e-002
      1.0462524954287389e+000 -1.5150098172063226e-001
      -4.3019025650485911e-002 1.7210403780344802e-001
      1.6791767851681472e-001 -3.1021004999101509e-001
      -4.1034767806891297e-002 -6.2673939305824308e-002
      1.3958584114911782e-001 -3.5553736234284716e-001
      -5.2854301136871051e-001 1.5224584338950092e-001
      -3.9706796600820532e-001 -3.9564526442320114e-001
      3.1211379809861622e-001 1.8738594019411706e-001
      -1.5547054709893041e-001 6.3522426827440255e-003
      -4.6496127056645015e-001 4.6685001564408163e-001
      -4.5883263698227178e-001 -3.8329604587781163e-001
      -1.0296443247766272e+000 -3.8467420874364333e-001
      2.3498091782640623e-001 -3.9686014769406100e-002
      -2.8045787677820459e-002 8.1896636846200066e-001
      -7.4369368788644474e-002 -2.7371086303820319e-001
      -3.4320394057266618e-001 -1.4006256476497947e-001
      2.9703219826237054e-001 9.8470240673555387e-001
      -6.7436580444929273e-001 7.0380654633199002e-001
      2.7440561670219160e-001 2.2740622731340449e-002
      3.8802286509684364e-001 -2.7116392417801360e-001
      2.3055624806961099e-002 3.2576483411634749e-001
      -5.9612546000880576e-002 1.1448765861690390e-001
      2.4380198372918402e-001 1.9191708655743950e-001
      -2.8184593306620609e-001 2.3800541493918864e-001
      1.1754920019117450e-001 4.8582469428738240e-001
      -1.4603059213439799e-002 -9.8498637984115145e-001
      3.9545432587580065e-001 -1.4933580021810675e-001
      -3.4190535132670830e-001 -3.7729966559505007e-001
      2.0199360991270907e-001 -1.0141757545316918e+000
      1.5594789808975018e-001 -3.5708669334276982e-001
      -6.2511866527234794e-001 1.8877944296929988e-001
      -3.9444162140507338e-001 2.6882504745006575e-001
      2.0889097779433405e-001 -8.8601796652303144e-001
      2.4588669136303407e-001 2.8340343281815777e-001
      -1.7887433544902265e-001 -2.0288106324696745e-001
      1.7701830770706906e-001 -5.1481863608917844e-001
      1.6362715951974674e-001 1.0338560600333173e-001
      -1.2179253723664961e-001 2.5086441410918586e-001
      -7.6478117663038414e-001 4.9177962224144237e-002
      2.4094193029188413e-001 2.6555911712067398e-001
      3.3653609361444686e-001 -7.1543290085908429e-001
      -7.5074213962946879e-001 3.2387593721610652e-001
      -2.1899760594910089e-001 -3.7716747397938655e-001
      -1.0476527163689109e-002 -7.4931469246129756e-001
      1.0545504229000075e-002 -2.1523124303760080e-001
      -5.5911581146665790e-001 1.0856809907222270e-001
      -9.2163120161500564e-002 -1.3102948577824450e-001
      -7.9596960070341768e-002 8.2966420829338777e-002
      -5.7952861263631172e-001 -1.3634865696428850e-002
      -2.7582598636553285e-001 -3.7496329322276450e-001
      -8.3587812365459521e-002 -1.0296474374900105e-001
      -7.1976244400462341e-001 -4.5567739545649483e-001
      -3.0876599076934996e-001 3.3925758853478899e-001
      4.6989910557083903e-001 1.6597764145793048e-001
      -2.7987943670217752e-001 8.6272783521250868e-002
      5.8273229118728720e-001 -2.7051633284996623e-001
      7.9632230843298971e-002 3.6884038606479275e-001
      1.0315329413639632e-001 -7.2048280163061640e-001
      4.6363214842731454e-001 -4.1282918664055956e-001
      -9.5646016016455657e-002 -6.7922746243004661e-001
      1.3670191147553312e-001 -1.3714780498604594e-002
      -1.4599855054384520e-001 4.4680045179871714e-001
      -5.2946171726790647e-001 2.7816042117950895e-001
      -3.3888156808524750e-001 -8.6511792808642476e-002
      6.4938907988331585e-001 2.8229101069048873e-001
      1.7158548924986838e-001 -1.3627477210282105e-001
      2.9782642328395315e-001 -8.4638217044167088e-002
      2.4602502591359979e-001 1.1081952556321667e-001
      1.7830686914175300e-001 -4.5294289906132706e-001
      -3.1706425234635666e-001 3.3833941409688623e-001
      -1.2760429584837552e-001 -3.9839774262792860e-001
      7.1950393264656476e-001 2.7258068838838445e-001
      -1.1970755450683855e-001 1.0445693124850193e-001
      -5.1741989334959004e-001 4.5959107080411332e-001
      -2.1385514871362030e-001 -2.3202819918101111e-001
      -3.7935091110152425e-001 1.4471102052532656e-001
      5.0658725666816472e-002 -1.4770221954493304e-001
      -3.9363436025336651e-001 1.0870138586266536e+000
      -2.3054816529824902e-002 -1.5214164207780820e-001
      4.1238542173518994e-002 -2.9331100088818340e-001
      5.8719297699476247e-001 5.4487291839417373e-001
      6.8425686060708063e-002 5.2776584899100987e-001
      -7.2086157572757004e-001 5.7891852045039209e-002
      1.9133495892441696e-001 -5.7928314272889157e-002
      6.5655684044455176e-001 -3.6317981347001638e-001
      1.4639724459324080e-001 4.7774070719787748e-001
      8.0705810432432315e-002 9.1152975336832226e-002
      -2.5730159820709880e-001 4.7782409262082104e-001
      -2.1477101747707571e-002 1.9270324394719696e-001
      6.4705926442423789e-002 -8.0600089954403531e-001
      4.1106135233939206e-001 5.6950573341542125e-002
      -1.4472859566741114e-001 -1.7720586895176718e-001
      -4.3548538021805183e-001 -3.1673118859210125e-001
      5.0663256940927570e-001 -6.1153722534551846e-001
      9.8190176465634358e-003 -4.5598189851271745e-002
      -5.1815960649773152e-001 -4.3509963481944014e-001
      1.5305016276424710e-001 -1.3546327159575855e-001
      2.1998651328011712e-001 3.9201624279939029e-001
      4.9465027106632671e-003 1.2673720540905933e-001
      4.1657072459414285e-001 -6.1049858558016967e-001
      1.3926233534458862e-001 5.9761219671052712e-001
      -1.7215193596211309e-001 -3.6292750008150820e-001
      -4.2491683095980110e-001 -4.1435137282386153e-001
      2.1966691391464949e-001 3.8123652880034903e-001
      -6.9783153446431490e-002 -2.0916843154501338e-001
      -7.4463855094991571e-001 6.0450712791165588e-002
      1.9311104015458677e-001 -1.4718706050337602e-001
      -3.0799358581644690e-002 -7.9556561811811044e-001
      -1.7056339551435518e-001 8.5835205737635936e-002
      -1.1839900030283562e-001 -2.1944869003301722e-002
      2.3617524076573784e-001 5.1347192241741439e-003
      -9.9791092662972911e-002 -6.5321747515016992e-001
      -7.9479473081571373e-003 6.6667034258991831e-001
      -7.0930721130481766e-001 -2.5676847520830171e-001
      1.9517783770207020e-001 -4.5846000406552334e-001
      -3.4475755875001607e-001 7.2421934819172729e-001
      2.0930572735078037e-001 4.6052524938086559e-001
      6.6301155220700192e-001 -2.0958940884044666e-002
      -3.3107286158243029e-002 2.8060229774584691e-002
      -3.2963619363939206e-003 -1.5469023583882491e-001
      2.1347996135841738e-002 8.9414475621101697e-001
      1.8394932380608790e-002 -5.6135720191282468e-001
      6.8974233230447227e-002 2.0531764823393586e-001
      1.1380365324640387e-001 -1.1865710069780479e-001
      -2.9805505752480539e-002 1.1594386182284551e-001
      -8.7960337841522862e-001 2.9157403510640389e-001
      -6.5482040244093986e-001 4.3398862768119955e-003
      1.6692280015469695e-002 -3.4682722798348908e-001
      1.8942651847303477e-001 2.8014883291550802e-001
      -5.0232165072046953e-001 2.0839405368285806e-002
      1.5367109987313510e-001 -2.7361948329402530e-001
      5.7670382794409503e-001 -2.5306533712169399e-001
      2.6629657584780936e-001 1.5634154012844717e-001
      -9.3249710419638324e-002 5.8922427689666684e-002
      -8.1260282317939836e-001 -3.7765229688600882e-001
      9.6190500037214732e-001 6.3599143685080517e-001
      1.9303061667262167e-001 -1.0427455443115045e-001
      -1.4019420523461404e-001 1.1889518847431015e-001
      -5.3830301620240084e-001 -2.0699876830213501e-001
      -7.2346398758696015e-002 -4.7097055484124871e-003
      1.5016749471519300e-001 -1.9185627815497607e-002
      -5.2272555320031266e-001 6.3443984814589094e-001
      -2.4154773656263673e-001 -1.3081889191290447e-001
      -7.6583564678674824e-003 -2.6183149350410595e-001
      3.5127205641698955e-001 -1.9755469057439551e-001
      -5.2500193488252300e-001 -2.4579973402886834e-001
      -2.9234419836081332e-001 -3.2183877646854119e-002
      5.3955326904566570e-001 5.2094179890498715e-001
      -2.0091721138661902e+000 -4.9423674410690321e-001
      8.5750167659706250e-002 -1.1353535974587614e-001
      3.4886966021254529e-001 7.2847662758415213e-002
      -4.7835768614456969e-001 1.5523132029697687e-001
      -5.7481427533720375e-001 1.1349402419254576e-001
      4.6587788065525243e-002 -3.2384430305077588e-001
      3.5827490861928568e-001 -5.7579141533609102e-002
      6.8892186128892785e-001 -5.7436754650874200e-001
      -3.8263894425929496e-001 9.5206406547370628e-002
      2.6325829116407384e-001 -5.1027406622952121e-001
      5.7510437813022441e-001 -3.1092008931983384e-001
      -5.8763378564645785e-001 -7.0280585186707489e-001
      -1.7453071602239614e-001 2.7336843613001399e-001
      1.2659688532778668e-001 4.4614362013426728e-001
      -2.7300564175064618e-001 6.6268506850128406e-001
      7.0780255732575081e-001 -2.2028660555763868e-001
      -5.5470223905357422e-003 3.4717953272861379e-001
      -2.8370233070971568e-001 -4.3957163128234900e-001
      -3.3656009523043390e-001 -3.9005267378347197e-002
      7.2589915420983564e-001 1.7587238561522944e-001
      -5.1821680458807340e-001 -5.9133515123023794e-001
      -9.3261783568198620e-001 -1.3506368285213854e-001
      1.3548410653465770e-001 6.9915637281756496e-002
      -1.7697988449605875e-001 -1.1085953006311118e+000
      -9.9112847501831536e-001 3.0982513761847682e-002
      1.8225299145951837e-001 -1.7448732674668829e-001
      3.8160255933600218e-001 2.6455028629494703e-001
      7.5972505893728573e-002 6.2999710180541479e-001
      1.3713619192316259e-001 -9.9167080503238303e-002
      -1.8737002288611243e-001 -3.6466124924154059e-001
      -1.3805582588867489e+000 -5.1480393749606812e-001
      1.0414346056653273e-001 -6.6319826231718049e-001
      1.0883865368670542e-001 1.2968175005959828e-001
      9.8364128733129719e-002 -7.1469074217679424e-002
      -1.6816774617421754e-001 -5.8114832701913655e-001
      2.5035751173419840e-001 -9.5947120633875727e-002
      -3.8820755551903807e-001 1.4389711730856497e-001
      1.7760210412137628e-002 -2.7458715322828769e-001
      -1.6822918459828951e-001 -3.0133704286043594e-001
      5.8151885839276718e-001 4.0614691955424359e-001
      -2.6200387238047806e-001 -1.3659837329947433e-001
      -4.7636992796670008e-001 6.9938699820386210e-002
      -4.5094683185831869e-001 -1.6925937612905520e-001
      -3.2925936680072121e-001 1.8020124641722916e-002
      -3.6912684592106781e-001 7.6744983609080453e-001
      -4.7509702605200071e-001 -2.7294126714910316e-001
      1.2622826400330314e-001 -1.5609673286826914e-001
      -2.9884325441684012e-001 4.4975366110954523e-001
      1.8684149631391297e-002 -1.2783139886434070e-001
      -2.7801933445998489e-001 -4.8041819539765343e-002
      -2.7370902502173844e-001 -5.0923146562034260e-001
      6.1541552496650020e-001 3.4814624681517059e-001
      1.4727618530066433e-001 -2.2264203476588643e-001
      1.6646889071829474e-001 2.5940024297382813e-001
      4.6034938734826345e-003 -2.0981906608186032e-001
      1.1118359676493336e-001 -8.5332535907173124e-001
      3.3560658698495344e-001 -8.6861677503262708e-002
      -3.7662357926686280e-001 6.3963743696529374e-001
      -4.2482697484723653e-001 -3.3733754320133480e-001
      -1.9579459933689389e-001 2.3978468472918979e-001
      -1.6369210156152877e-002 1.0705433688566384e+000
      5.4475683655142125e-002 -7.2035073517652759e-002
      -2.1649995959810681e-001 3.3801124474251765e-001
      -1.7813190143120161e-001 6.5610848811245043e-002
      5.8784409017534021e+000 -9.2056842807721873e-001
      -2.1389955561405083e-001 2.9905054663034120e-001
      5.4435222752933743e-001 -3.6701378345505520e-002
      7.9723110433893546e-002 -3.4367614627389120e-001
      -1.6282836010300472e-001 -9.4355253300406269e-002
      -1.2359449468535872e+000 2.1750481163457053e-001
      2.3567247321223023e-001 -1.2799518679843574e-001
      5.3660347401035935e-001 4.9617010301670199e-002
      -9.5214117733519088e-001 -4.8350819927285932e-001
      1.6360059977244076e-001 1.2357575994584188e-001
      -2.6635086526030871e-001 -2.1885389732742533e-001
      4.1792858692007950e-001 -2.6479150679865943e-001
      3.2252048728314536e-001 -2.1517604227187875e-001
      4.6562698226499755e-001 3.0044026869861706e-001
      2.2080466461132009e-001 4.0704234715411747e-001
      -5.7067268459938980e-001 -5.4888577168589447e-001
      1.4390370303351274e-002 3.1894916535604417e-001
      -3.8192515825176920e-001 -9.0471935901719214e-001
      1.9926387397691345e-001 -4.2503298665534717e-001
      1.0669843870404401e+000 1.7921708212769868e-001
      3.1717075539669043e-001 -4.5174206468115019e-001
      1.8120784015686509e-001 7.3097219787103607e-001
      -1.3257593084904476e-001 6.4853875847154518e-001
      8.0282826146880781e-001 -4.0821544263029017e-002
      -5.3946702916205791e-001 -2.3056287978503248e-001
      -6.6979738541588996e-001 -1.2375104134690333e-001
      2.8603793992996024e-001 -3.4713423419978967e-001
      1.9430348079943069e-001 1.8695270808457226e-001
      5.8225884833124048e-002 1.9255872092166937e-001
      -3.8968222102911754e-001 -3.9600505705570603e-002
      -8.0272383185467477e-001 -8.5690118483350675e-001
      9.1891687626378171e-001 -2.3374311056965910e-001
      -6.1027261629564855e-001 -3.1219812826190255e-002
      -5.2095672029674911e-001 -2.0775035609179901e-001
      -3.1563279376166303e-001 -1.0221452955414689e+000
      6.9482728965530066e-002 -7.2515881982034042e-002
      1.0789186197474480e-001 2.7728841958694567e-001
      9.4156128670993253e-002 -1.3539008852400725e+000
      1.2245208035349812e-001 -4.5576632540841391e-003
      3.0674940434981496e-001 5.6339209170403737e-001
      2.2660954870440814e-002 -6.8817762717313449e-003
      -3.9372575796016562e-001 4.4766750517033221e-001
      -1.2984013805509273e-001 -7.5965467484360033e-002
      -2.7899430019036464e-001 -2.2426903731571465e-001
      -8.2510799870929774e-001 -3.6565453113451385e-002
      -1.4032282527600686e+000 -3.9204733175953982e-001
      4.9196375800782988e-001 1.2207405861696918e-002
      -3.6182162594148437e-001 3.7178297769135324e-002
      3.5930083199918694e-001 2.0341228309765005e-001
      2.9207257315817692e-001 -6.1629723650964675e-002
      -1.2164239382813652e-001 -6.6993401136914255e-001
      1.2384183536181831e-001 5.1531165109078063e-002
      3.4678753235146265e-001 9.7560927099043029e-002
      1.9727056215463371e-001 3.2316609544744052e-001
      -1.1495199214435094e-001 3.9221402915373779e-002
      8.3754297030705693e-001 -1.6829774280096468e-001
      -4.2919332951595374e-001 -1.2255891720658506e-001
      -5.3659340140050260e-001 -3.1812871310037866e-001
      -1.0972104873203103e-001 -2.8796745760714193e-001
      -2.8445734584379689e-001 -2.1211516717161455e-001
      4.1935365529115382e-001 1.0208440547607933e+000
      -3.0331146302966244e-001 -8.6608022949151181e-002
      -1.2459647744840108e-001 9.0418666360354033e-002
      -3.5652345637219890e-001 2.8242581796989408e-001
      -2.7430886989579597e+000 -9.6823125157221190e-001
      -1.8537809030747934e-001 4.2115121605579064e-001
      9.5155806041668622e-002 -4.7073661744726608e-001
      7.5767940016283697e-001 3.1209176015996798e-001
      -2.8153189830761655e-001 1.3424888853592798e-001
      -6.9768598273376636e-001 3.8548628298493576e-001
      6.9171154564019255e-001 1.9783993521664067e-001
      3.5352227964305605e-001 1.0736188883318466e-001
      -9.3637216075408078e-002 1.2634651872024119e-001
      3.0240082665529772e-001 -1.2672662184723690e-001
      3.0372255873247711e-001 -1.8270075879350301e-002
      2.2657409646040982e-001 -8.1445197353771737e-001
      -4.8445240750990562e-002 -2.9378742545719394e-001
      4.7654701201847044e-001 -1.4745070065892710e-001
      -1.7618092902070626e-001 3.0141394539859495e-001
      -1.4511034975951800e-001 -1.2358851968990499e-001
      2.4707201639931711e-001 6.0719353977032220e-001
      3.7983227031598188e-001 -4.9251322290970745e-001
      -3.5420935208751680e-001 -2.4829248876249068e-002
      -9.1990280903993260e-001 3.6147833003047258e-001
      2.5880608591320486e-001 -2.8389799435348717e-001
      -5.5533747699036273e-001 5.6872818125672719e-001
      3.7092738138121001e-001 -4.9804996716251729e-002
      6.7134779852406889e-001 -3.2795009505456030e-001
      -1.6970714251171026e-001 -1.4230063152657751e-001
      1.2261763794215079e-001 -2.0487124632084563e-001
      4.4368320810574746e-001 -9.8742493353738119e-003
      -1.3789207146454130e-001 3.2140467116563631e-001
      2.2456352000020210e-001 -4.4953795016660331e-001
      2.6081260750365315e-001 -1.0117651341668703e-001
      -3.2761627143726652e-001 -2.9737035807067552e-001
      6.3936373631046683e-001 -3.7731650695620200e-001
      1.6243750864769924e-001 -6.7248234182618924e-002
      2.6318979357111089e-001 -1.3218380466347893e-001
      -2.0347872104999074e-001 -7.4660427015124009e-001
      -6.9617856776978709e-002 3.5237604279832035e-001
      5.2500585403496014e-001 1.5844432095128502e-001
      2.9656563449249357e-001 4.0739035045748417e-001
      -2.8892108973062453e-002 -5.6973396375674418e-002
      1.5072787156439532e-001 2.5176743546208885e-001
      -2.6665868810731597e-001 2.1163885829719317e-001
      2.1143934575781498e-001 3.2711477210603390e-001
      2.7054084769672687e-001 -4.9967529769001978e-001
      -1.3370676126316208e-001 -3.2935284399726800e-001
      -5.9732145169290296e-001 -3.6423560464618865e-002
      -5.9399732767794228e-002 -4.4713019337719839e-001
      2.6239590224853743e-001 -9.2170087125038894e-002
      -2.5876546477308487e-001 7.7237639030376254e-002
      8.0741614580786158e-002 -1.2545644389871219e-002
      2.2941588998005158e-001 -1.2580051216599525e-001
      -2.6550252335461716e-001 -3.0793833303544160e-001
      -1.6606288619669035e-002 7.5263744179542277e-002
      3.8126736111451859e-001 6.5765535547025203e-002
      8.7896778050337729e-002 7.6905365218249722e-001
      3.6740864591830946e-001 2.6667073622948123e-001
      9.4089793690052714e-001 -4.3052452620419340e-001
      -5.9545211069663775e-003 2.9252271965840104e-001
      -2.9174610332783713e-001 -1.7420649440176000e-001
      -4.1681762921982513e-001 2.1517885636076742e-001
      2.4478648864355992e-001 -4.0152599868780792e-001
      -9.2334418996636594e-002 -5.4512150369583401e-001
      9.7434896835394813e-001 3.2819465843394813e-001
      -8.4157222522173877e-002 -5.2223954174238241e-001
      1.6920442975520417e-001 3.1732812383922437e-001
      -2.3328207348926124e+000 -2.7638455805523338e-001
      1.0527709292366012e-001 8.6552802610028590e-001
      4.0074627511002686e-001 -3.8319134672162650e-002
      1.3290959084816951e+000 1.9073155669964156e-001
      -2.2798164888039629e-001 -5.2841031600379629e-001
      -3.8223665407166463e-001 1.9133385822360749e-001
      4.4501459346085576e-001 1.3752929305988185e-002
      3.2802674386658248e-001 3.4774094043376398e-002
      2.4683041029555468e-002 2.3732279808314061e-001
      -1.3706008416017726e-001 -5.9990919203159287e-001
      3.0915163025303113e-002 -6.3906909583177152e-001
      4.4483963738244592e-001 -2.5034247617012279e-001
      -2.0975536252756150e-001 -9.5541162972968829e-001
      -9.2926323118518409e-002 -9.3496662790168705e-001
      5.5620287923931533e-001 -2.7604064875677747e-001
      -4.4420823611313215e-001 -6.9982313034760135e-001
      -9.5767372759343328e-001 7.6942530383540919e-001
      5.0463354219973577e-001 -9.4175446895085313e-001
      2.0502542114413730e-001 -5.2184447779554562e-002
      -5.6610481706184279e-001 6.0027448789051918e-002
      -6.8623431594503337e-001 7.1189171302259421e-002
      5.2734655780769568e-001 -2.1923720608033895e-001
      1.9564945667365569e-001 -1.1581470365372841e-001
      8.8478912004313992e-001 -1.2045530423837441e-002
      5.2716600750245435e-001 1.8448632248211014e-001
      8.2861684989300355e-001 9.2010354575686338e-003
      -1.2767112986013643e-001 5.0268134669847420e-002
      -6.5034993946733055e-001 -3.2091650088018381e-001
      2.3963288186553353e-001 -2.6149510895652234e-001
      -3.0707278888288286e-001 6.5614404058199916e-001
      -4.0581336830326209e-001 -1.6145700751710315e-001
      -3.4876199228725431e-002 -3.0715596037615270e-002
      6.7021440341531691e-001 -3.4863707288073148e-001
      -5.9587922248151803e-001 1.2365078188193650e-001
      -4.6224098866848984e-001 -9.5454565153463711e-001
      -3.7868001096845938e-001 3.0849990780639175e-001
      1.1736471882386126e+000 6.6550645226130278e-001
      2.5927144943848757e-001 3.2719937170892482e-001
      7.8701394223260043e-002 6.0654207479375466e-001
      1.0807921100976732e-001 5.7773048117094150e-001
      -7.3580775602013260e-001 3.8170910568227773e-001
      -5.4962993840040975e-001 2.9755763090409615e-001
      6.9615667217768773e-001 2.3113247967189296e-001
      -2.3267376530430509e-001 -1.0622274103363354e+000
      -1.9577513136842145e-001 -7.6452020673873333e-001
      -1.7918767800373045e-001 4.3349867191530445e-001
      -6.2833996566922334e-001 -4.2834191300608748e-001
      5.6000073292229204e-003 -5.7650442491550469e-001
      -7.9962505407115669e-001 -1.4302871093552405e-001
      6.0435263416825402e-001 3.4208864731379834e-001
      5.5494339779912261e-001 -1.2612753010493194e-001
      -1.0532272961318144e-001 3.8118281607377541e-001
      -1.3797435706789873e-001 6.2224369099173937e-001
      4.0632376375080895e-002 -9.2933147062330312e-001
      -4.0431727468368017e-001 -1.5798568100203642e-001
      4.5196779774745222e-001 3.1616829081099901e-001
      -1.6953232632991150e-001 2.9401016965709504e-002
      9.8920895915557971e-002 -3.1276501075758933e-001
      -4.1988047337512890e-001 -3.0148572746799013e-001
      5.0075511961553631e-001 -2.8194628993591014e-001
      -1.4603929644321598e-001 -8.3395415066674961e-001
      5.4613401759293434e-001 -5.4156246979439160e-001
      2.1925412432716085e-001 -2.9455207208978151e-001
      5.6468911078329254e-001 -4.1713633086579033e-001
      -2.2248280314212914e+000 -1.2546281480232696e-001
      9.5878589529162658e-002 3.2154972116012692e-001
      1.4043185128897304e-001 3.4165423756510510e-001
      -1.1975189341502941e-001 -2.1776885782774963e-001
      2.3931350500778015e-001 4.3981355545934392e-001
      1.0088742968878195e+000 -2.4860423998041839e-001
      -1.6190055837177986e-001 -4.4425878582798500e-001
      5.0986221671012422e-001 -8.6365946394464133e-001
      1.3777416373639820e-001 -4.4159255850135182e-001
      5.1452634733681735e-001 -2.5054150654447660e-001
      7.8085947839415859e-001 -2.9104756272465376e-001
      4.6731746313188172e-001 -2.5149121655421526e-002
      -6.3073259992062177e-003 2.6104220119098877e-002
      6.8336650687864342e-001 -5.3435390192802001e-001
      2.3213658875533372e-001 -5.3386884924306888e-001
      5.4566075851434925e-001 8.2821603235830576e-001
      -1.1128879282746658e+000 -4.3532605606439040e-002
      8.9919278108372835e-001 5.1815319831014908e-002
      4.2987006876906458e-001 -1.7017969177367920e-001
      -6.4698780461723282e-002 1.4087334428748133e-001
      1.5748514057749310e-001 9.5065995317533503e-001
      -7.2254705250562290e-001 -5.8465611890217672e-001
      2.0751405800906098e-001 -1.4714998159059738e+000
      -4.1463880336957776e-002 -4.2450234598943155e-002
      -1.5222418990027434e-001 1.6709288768704414e-001
      -6.8364499357441777e-001 3.7760448275011388e-001
      -5.3720042863998407e-001 8.1949766258083867e-002
      -9.2726146388329755e-001 -3.7306670394845348e-001
      -5.6912369858484591e-001 3.5442705644174677e-001
      -5.6130316281534454e-001 5.7571832428887426e-001
      -6.5607447055576718e-001 -1.7624047905185186e-001
      5.3575792164916858e-001 -3.5615973222471659e-001
      3.3302897483030086e-001 -3.4495081478774198e-001
      5.9146085016536298e-001 4.0247102384587286e-001
      1.8488878350919594e-001 -9.5676350410885014e-002
      -2.1595693913987229e-002 6.2535859813995243e-001
      -5.6459973353215553e-001 -5.8925789907142767e-001
      1.8486372243343280e-001 4.2136383005848888e-001
      -5.9533125261743529e-002 8.0302844105798243e-001
      -3.3576189679469742e-001 2.3914741547120821e-001
      -2.1552743432385990e-001 -1.3308761929063043e-001
      1.6770475934971080e-001 6.8485154814694726e-001
      -2.1045798555944736e-001 -1.9583323029617624e-002
      1.2507558545115696e-001 -1.7767245317515029e-001
      2.2700446828040499e-001 1.1114761411512827e-001
      -7.9231807890549832e-001 9.4675478654745326e-001
      -5.7591286202108383e-001 -1.4877927036529495e-001
      5.9682653309759981e-001 1.6797007983299628e-001
      -7.7016542894387890e-002 9.1877889463076887e-002
      1.5398150204196195e-001 -1.6890337942946632e-001
      3.3418283084349387e-001 3.4245253861804986e-001
      -3.5596372407728094e-001 3.5684017102459892e-001
      -2.3233351239801828e-001 3.3755649935957321e-001
      -2.8622646368542926e-001 -1.0524224180087234e+000
      -4.7523310628606763e-001 -4.2299882255495441e-001
      2.0054674179255286e-001 -6.3491572872115176e-001
      1.0496926289268811e+000 3.6488556948079558e-002
      3.1483269061043440e-001 -5.7415238667299751e-001
      4.0133461930273610e-002 -1.0113133798690411e-002
      8.9945666973752475e-002 -1.5740094132758911e-001
      -1.2030179250833257e+000 -3.8528466098212255e-001
      2.9984904025496073e-001 -7.1801809532487026e-001
      3.9814829429245852e-001 -7.7554480642114190e-002
      -1.0210715729975542e-001 -6.7017793193038633e-002
      -1.3232017780992891e+000 -4.5180818420954220e-002
      -1.3742191195171977e-001 1.7598784728157353e-002
      4.0246085227953204e-001 3.1850809923464329e-001
      -4.3111327189821039e-002 -3.3230697113155822e-002
      9.1794103759523904e-002 6.6623003473158818e-002
      4.3826434209281034e-001 -4.2238357464736878e-002
      -1.6577065893868431e-001 2.1007099169547427e-001
      5.4220867855752486e-001 -5.2131629563933257e-001
      -7.4232569319118411e-002 -7.8407399495494967e-001
      7.7143597716218437e-001 -6.9929421322364704e-001
      6.1754063014585858e-001 -1.6963962392060669e-001
      2.1391246520173601e-001 -3.4294543687932205e-001
      1.9979169046893339e-001 6.5326602013416524e-001
      1.4478744958643117e-001 -2.0100777253416321e-003
      9.9055529632507910e-001 -7.5775487280076537e-001
      5.1397096102524287e-001 2.7334325841279573e-002
      -1.2904046605885731e+000 -3.4866892785551556e-001
      4.4124901442568926e-001 -5.7708242644024861e-002
      9.3099601160530576e-001 -7.3168803175534181e-001
      -1.5964165047760215e-001 -4.9526878960743503e-001
      -1.5075678546586360e-001 1.6688501024178437e-001
      -8.3606121308988382e-002 -2.5344372689325578e-001
      -2.0493413155389395e-001 -5.1978966096975388e-001
      -4.4184209271249736e-001 1.3063910880547591e-001
      -9.1092486827649949e-002 -8.7047265028616039e-002
      2.4999626442746040e-001 6.5006081114899594e-001
      -3.0698412668000408e-001 4.6839850970436782e-002
      -9.0832136262723218e-001 -1.0516219750880473e+000
      -4.1949213090529913e-001 5.8694329509765863e-001
      -7.1014315986518928e-001 1.1574101327511828e+000
      -1.1702045243848493e-001 -6.1282271654686304e-001
      5.6353550740724823e-001 -2.5361095112428017e-001
      -4.0632713090501642e-002 -3.6075740533904127e-001
      -4.9232635470575284e-003 -7.3145476365277198e-002
      8.7433406886109344e-002 -2.5309910817444003e-002
      -1.9489449494552955e-001 -2.0643500980314383e-001
      1.3820852682114029e-001 -4.5254991866075442e-002
      -9.6914125062674522e-002 -1.5327217899753925e-001
      -5.2220377930760165e-001 5.9734843694503792e-001
      2.3963254433237052e-001 7.6185932213438767e-001
      -6.6858921190122356e-001 -1.3911274976443372e-001
      -7.5582187632670805e-001 5.0269696952807075e-001
      -1.0161194589001643e-001 1.5954773510564147e-003
      -2.1240224075514130e-001 4.4591044539750968e-001
      2.1291894808122616e-001 8.1770699155643847e-002
      -8.7822911248762425e-001 7.8877655211260045e-001
      -5.0516660015620030e-001 1.3724789910864402e-001
      1.5734466722322821e-001 -8.7530469105538161e-002
      -2.0025771370054180e-001 -2.5401556862289565e-001
      4.3188453562588625e-001 -1.4204945878197833e-001
      5.3280374207449799e-001 1.8405105320651444e-001
      -4.3022119505490819e-001 4.4403131409617208e-001
      1.5683487426154860e-001 -5.0097027195661600e-002
      -6.2930429526299347e-001 -1.1596867978810335e+000
      -1.1621942143598389e+000 -3.9396089038359117e-001
      -3.5310352687875496e-001 -1.1322483523848806e-004
      6.9304009537302580e-001 -1.9446910554095886e-001
      5.8329305598116699e-001 -1.1869988660843005e+000
      -3.4184037970345837e-001 7.1312099516699590e-002
      -1.6543124178773536e-001 -4.8371361756143072e-001
      -7.8359436106062264e-001 -1.3070844405457671e-002
      6.5716215200538319e-001 -7.1684349920466395e-001
      -3.0808829089232526e-001 4.1435871900184701e-001
      -4.8169004173105773e-001 -1.3035502376929478e-001
      -4.5708507131017473e-001 1.7756470380085052e-001
      5.3174732385794776e-001 -7.6795742475000123e-002
      -2.2629475477826233e-001 -1.0255475149255817e+000
      4.4703098881487363e-001 -6.9898798641712456e-001
      4.5994114250716811e-001 -4.3337425313465910e-001
      7.8505478329685663e-001 -1.8408228303220942e-001
      1.8173790356300792e-001 3.1871973627215300e-001
      -4.6678683651349157e-001 -1.7940094799879272e-001
      3.7461199323030735e-002 -5.3899824237210803e-001
      5.1167965799594051e-001 -3.5958016892269951e-001
      4.0115005805313891e-001 5.5782943947468533e-001
      -4.8521037087556167e-002 1.3900230289450408e-001
      -2.6545223151817610e-001 5.2022919348033947e-001
      -7.3216053574992268e-001 -9.8331567693052402e-002
      -2.5656586277950300e-001 -6.0591448249314184e-001
      -1.1302379778672202e-001 5.5420821193496017e-001
      -2.9807238244360684e-001 -1.5527408324505601e-001
      3.5498729067086600e-002 -1.2160756601515793e-001
      2.5965841506484399e-001 2.0018755168975810e-001
      3.6442913507830377e-001 -7.9414200966560988e-002
      3.5541669478712107e-001 1.5801789416911202e-001
      -8.0692236811762408e-001 -9.0283850236350105e-001
      3.7378837548247573e-001 -1.6633378925584116e-001
      4.6933463370186285e-001 -5.0483233762107249e-001
      2.4764977915271230e-001 5.6111960657408012e-002
      8.2983146919255590e-001 2.0458799416349813e-001
      -7.0584139926411660e-001 -5.6289017816057785e-001
      -5.4100422035615825e-001 -1.0989744304028537e+000
      1.4142993318023644e-001 2.0714746667988609e-001
      -2.5481387112460308e-001 -1.1278687936249400e-001
      -2.9813270366712319e-001 2.3024002157897117e-001
      3.6014569479451841e-001 -6.2858718386675755e-002
      7.4975452073733284e-001 -1.3159819455611971e-001
      9.7259515202388258e-001 -7.1300403525051737e-002
      3.3151863543604876e-001 1.3016965693322685e-001
      1.0826146250399787e-003 -2.1883585595295732e-001
      -5.4632663440390195e-001 2.8149939056334583e-001
      -2.9363661781602646e-001 1.7104063304725611e-001
      8.8990412278885503e-002 8.1328934884484871e-001
      -3.6111758498201439e-002 -4.1781935809738180e-001
      -1.7065485728635282e-001 -2.1465034030619301e-001
      -6.5855429303157159e-002 1.2332408414247382e-001
      -9.1478103650300749e-002 4.8027561838364619e-001
      -1.2759142963175468e-001 -3.8173958132953850e-001
      5.7816956886098470e-001 2.0392959901431634e-001
      -4.3825771111212186e-001 7.2169948453930832e-001
      -5.3318320650861772e-001 4.0006265792224732e-001
      7.5103671441396924e-001 1.2064373109600911e-001
      3.2976219544190166e-001 -1.8344031508521366e-001
      8.7521876822416085e-003 -1.4737425459718159e-001
      1.4075283954374623e-001 2.7165129077384966e-002
      -8.7559925438415454e-001 -7.5248276193313340e-003
      -4.7777926995067409e-002 -1.7069853578462649e-001
      -4.7307828417200526e-001 -1.3239766540372497e+000
      -7.9960004934562412e-001 -1.5426868181386952e-001
      1.6653781691286026e-001 -3.5989117189866521e-001
      1.3785267227749771e+000 -2.6025988505988962e-001
      5.7248778094227915e-001 -4.1116712511160525e-001
      -2.1962053423524427e-001 4.3654333495221331e-001
      6.1168567297377929e-001 2.0137576540322732e-001
      -1.2386246046597089e+000 3.5883001825637795e-001
      6.8030006436067225e-001 3.4400370856843282e-001
      6.5392370661201527e-001 -1.7106345930443279e-001
      -1.2902143592175745e+000 1.2670690092323719e-001
      1.9605883133821820e+000 -3.0578458749581522e-001
      -2.6345977136632437e-001 2.5023702151290650e-001
      2.7770018300992122e-001 -6.6842723167407603e-001
      -1.3900638321736961e-001 -6.5436672462098522e-001
      3.1455154372278965e-001 -5.1084150045920418e-001
      1.9982022525009278e-002 -8.7949409485169305e-001
      -2.3758277865613264e-001 1.7712772546000527e-001
      2.5131043805652686e-001 1.5290680089610736e-001
      -1.2294543784297933e-001 -7.0037259061956703e-003
      2.3303094189538065e-001 -1.1108059022876776e-001
      1.1177386987722224e-001 2.0001841437292697e-001
      -4.3799460276300972e-001 -1.6432621230519873e-001
      -1.7836526404909594e-002 -9.7298814424099031e-002
      1.1058659996412520e-001 2.7400014052912963e-001
      -4.5017355454526997e-001 3.3588642491041071e-001
      1.0412418458209038e-001 -2.5055159448691494e-001
      -8.2412621207840486e-001 -3.7795637515898894e-001
      -5.4333668974326441e-002 -9.5770821049377808e-001
      2.0939611741786768e-001 3.5018166507047935e-002
      1.2729102734248141e+000 -1.0910500147504795e-001
      4.9557819298679751e-002 2.2695604775996973e-002
      -2.8062026180552502e-001 -1.1640515346166521e-002
      2.1089972077044106e-002 -1.8766354709608646e-001
      2.2762971787868816e-001 -2.6743437668441267e-001
      1.9648051900142363e-001 -3.3027820693091181e-002
      2.2092254525117824e-001 4.2857020616630537e-001
      3.3740569529816894e-001 -1.5289083761261021e-001
      -2.7187558582958821e-001 -7.6095552795355725e-001
      2.2096093529503530e-001 -4.8306576000587270e-002
      -3.2989517190619094e-001 2.7864973895554878e-002
      -1.4755585694408840e-001 -4.1924649480951431e-001
      4.1617742178315703e-001 -6.4449395965784273e-001
      4.4863194941514423e-001 9.0916480493641334e-003
      -7.1914167562520739e-002 -4.6180408995983613e-001
      -1.9073075421926944e-001 -1.3293577757257541e-001
      -5.8362484771579570e-001 4.0006361793096606e-001
      -6.6630222547549123e-001 7.1222399295445882e-001
      2.2535196727594639e-001 1.0279952346498104e-001
      -3.9335149684817228e-001 5.8952917613764855e-001
      -2.0192804992587401e-001 5.6909617359995210e-002
      2.1414208556707164e-002 -2.9981505593750808e-002
      -8.2651721621794449e-001 -3.2478221865317722e-002
      2.2616775328539701e-001 4.5436679169242222e-001
      5.7118334914307645e-001 5.1618096269243532e-002
      3.6984570736257011e-001 -5.7852036543692704e-004
      -1.5424999639983927e-001 -1.5527727698809041e-001
      -9.7527027483080553e-001 2.9801996250877111e-001
      4.5908048223082809e-001 -5.8781109396280817e-003
      3.8803355993881133e-001 2.0377774037285604e-001
      1.3914213896214420e-001 -4.7205079932054812e-002
      2.1234602482161519e-001 -5.6022818196821055e-002
      -1.1061275747111123e+000 1.6766269073347970e-001
      5.9018381346813564e-001 -1.7829964953872188e-001
      -2.7538795907738967e-001 -7.6227771151229096e-001
      -1.1932161675730663e-001 -4.3250657864518921e-001
      7.0628324271368692e-001 2.5778696658349104e-001
      6.8938981036247360e-001 8.7408304165859693e-002
      1.0453165688573685e+000 -3.7408993063312773e-001
      4.1698015183467989e-002 1.9757730455812555e-001
      1.0121453284194773e-001 -1.5671998963107339e-001
      1.8681435183262912e-001 5.3367990623272432e-001
      -7.1788356777986617e-002 -4.5547889726403445e-001
      5.1547354605795792e-001 -7.6000738735461759e-002
      -8.0970832523422764e-001 2.1798905281657346e-001
      -1.5009762424491451e+000 -5.3403365506206724e-001
      3.9838110868541404e-001 -3.9158817988660571e-001
      9.7503858111393504e-002 -1.5071117851679097e-001
      -6.0324578336933787e-001 -2.9387123529521991e-001
      2.5958862293211360e-001 -4.0335645702335532e-001
      -4.3913039684652039e-001 -1.1829868254061466e+000
      -4.2107312064777852e-001 2.7848550672231454e-001
      -2.7537988328685520e-001 -3.0080061397730201e-001
      5.2408879042484639e-002 -1.5243750557899924e-001
      1.8750739000953745e-001 -2.5443092676032547e-001
      4.4215980372417735e-001 -1.6178329200301347e-001
      8.6841215795174995e-002 1.7448696229834909e-001
      -7.8293681483913663e-002 9.1437907782587580e-001
      3.2694453627933562e-001 -2.6147388119293308e-001
      -1.7594636049018406e-001 3.7598371990121793e-001
      2.2749812834658026e-001 -3.6897525752391308e-001
      -1.1110888278529210e-001 -4.8635421886594454e-001
      5.8844875840488642e-001 -8.6012103945505597e-002
      -5.7436325407721511e-001 -4.4434156858427637e-001
      3.5546676953425360e-001 2.8616432639477718e-001
      1.1251365687639182e-001 4.0024996385819307e-002
      -3.1877660479689103e-002 2.3613776417571655e-001
      -8.1217609558134271e-002 5.4900258677466385e-001
      6.7192715940724901e-001 -1.4112326246694909e-001
      2.6938049922959423e-001 2.5284005220759226e-001
      7.4492938266131487e-002 8.2652061333638871e-001
      -4.4708511292232189e-001 -2.1931267644934863e-001
      -9.3587835330619207e-002 -4.0261588424567912e-001
      2.5703449945481807e-002 3.1130491173422026e-001
      -2.2777555058295856e-001 -9.5451798476924621e-001
      4.6073446879882007e-001 -1.4807045174256232e-002
      3.0556131419811333e-001 3.5774007787440713e-002
      5.8471413756963675e-001 3.4326787806069053e-001
      8.9021594172839591e-001 -2.3307006313398043e-001
      2.7217804964453485e-001 1.2640402358031502e-001
      3.0325441669673145e-002 -7.5628079537063450e-002
      -5.1724580716400836e-001 -7.5772128540822992e-002
      -4.4276519985046103e-001 -7.9272652981631123e-002
      1.2739327438010164e-003 1.7091945849263526e-001
      -5.7899209295045329e-002 3.4014626337679731e-002
      5.0540658875212731e-002 -8.3622257136634015e-002
      -2.5034621077542552e-001 -1.2454876185296292e-001
      4.8502485273267942e-001 4.9129026956655175e-001
      2.0592431378707077e-001 2.9516910821665293e-001
      2.3857771119152679e-001 2.3325205441142133e-001
      -3.9699247155381201e-001 1.7528157532168337e-001
      1.5718369920434191e-001 5.5424589429025443e-002
      5.4454700813251700e-001 3.1195872611104281e-001
      6.0105427650979670e-001 -2.1569600057900362e-001
      1.8463656330439659e-001 7.6456831410268167e-001
      2.4724420093408248e-001 -6.7168807712583267e-002
      -4.7413505257485311e-001 -3.3715729540767697e-001
      -3.2173727388041512e-001 7.8880580974558120e-002
      -4.8646683045504419e-001 -1.7560507383905388e-001
      -1.5695402786768475e-001 -2.9851267887924243e-001
      2.1230190348810607e-001 5.4544160348756900e-002
      2.1192735098389429e-001 -4.2949012013665516e-001
      1.9134674273567940e-002 -5.5513658009222977e-001
      8.3072136819549419e-002 1.7213008447254691e-001
      -1.2340203525497959e-002 -7.7529686609888182e-002
      -5.0918588741963873e-002 9.4249925233547838e-001
      7.3431953141546680e-001 5.6955612538704137e-001
      -4.4681907261976250e-001 -8.6208256013866641e-002
      2.2942522566267035e-001 -4.5443351567787788e-001
      -8.3006254876435070e-001 6.0751825067334550e-002
      4.2991940996815214e-001 -8.0544580550588996e-002
      -3.0251810716262467e-001 4.9623229816486765e-002
      4.0364004514650963e-002 1.5509368947688290e-001
      5.8396136745705141e-001 -2.9270923922609771e-001
      -5.7933336486644083e-001 -1.1003395395015960e+000
      -1.5809649181032792e-001 3.3188927246976718e-001
      -3.3911201484560831e-002 4.3338913472881274e-001
      -3.5715961431750870e-001 -1.4371290093732118e-002
      1.0917196079140535e-002 -5.0305612628248242e-001
      -1.4810242721271773e-002 -1.0612739298184030e-001
      2.1954546272208220e-001 3.2731712998162482e-001
      -1.7767597538938279e-001 7.8078418998122545e-001
      3.7843091559128444e-001 1.7317861447359328e-001
      -1.1213699042623101e-001 3.7924409645230844e-001
      4.8487215844924353e-001 -5.4877185033667203e-002
      -2.2687257971511213e-001 4.5405781871033352e-001
      4.0236625750595006e-001 -7.2710090169701494e-002
      -5.0557484060697300e-001 -1.6816446809079497e-001
      4.4701875940104502e-001 8.6157193134420856e-002
      1.7022345257740909e-001 1.6772156706548258e-001
      -2.2679694377037340e-001 2.0355856823047599e-001
      -2.4504458475466170e-001 1.3694280730620947e-001
      3.3010723394497837e-001 -6.7797578414762427e-001
      8.0300624389344499e-001 2.7425279517490420e-001
      -4.7062021865810233e-001 6.1421339959474919e-001
      1.9892361994380117e-001 -2.8826229911463788e-002
      -7.8163533180454110e-003 -9.5839667670807882e-001
      -9.9582032966646805e-002 5.5203351147071200e-001
      -5.2557843528142256e-001 -7.4099165111179899e-001
      -8.7237563552169852e-003 -1.0905567091889869e-001
      2.1817212219688431e-001 5.3290964414190201e-001
      9.4598993592923994e-002 7.2200876013236237e-001
      4.2336620805134090e-001 -4.5065059279057773e-001
      3.0395012580176167e-001 -4.6694409038274359e-001
      6.6134214798430303e-003 -2.4013151156658535e-001
      -8.4707255584225838e-001 5.1875376637405150e-002
      -4.2277836667422070e-001 1.0734663127764237e-001
      -1.4771985012219168e-002 3.1435421004598069e-001
      3.8110307210250743e-001 6.6315372254820135e-002
      1.2555223004379043e-001 -2.9823342019311899e-001
      -1.8825346198787324e-001 8.8449522320252064e-002
      3.7778702662660735e-001 2.8100135641646429e-001
      3.6714101648154757e-001 -2.9789100788509382e-001
      2.3558254926356692e-001 3.9578354528373355e-001
      2.8491765663621005e-001 8.1604156009586301e-002
      3.0202760159331943e-001 3.3735755592581496e-001
      -3.1365413085979216e-001 5.9564719545165526e-002
      4.6717184662877353e-001 -2.7153287892799516e-001
      1.9682110128568315e-002 2.7083585365761470e-001
      2.3554408098180046e-001 2.0601411351878107e-002
      -5.9999417093357509e-002 -1.6572696474368470e-001
      -7.5766505797937381e-002 -3.7736098968414056e-001
      -3.2166340175901781e-001 8.1332998456139272e-001
      1.1964325806501183e-001 -1.5516163706712205e-001
      5.3432929705286725e-001 -2.8328932974004073e-002
      2.2215179295739657e-001 -3.9674220526880732e-001
      -8.9893562427615634e-002 1.2013073792702172e-001
      1.4768487268737507e-001 3.3983204982172138e-001
      -1.9097099528873507e-001 9.4888091292721459e-003
      2.0740521234525416e-001 9.8356759278703043e-001
      -4.0631037222220401e-001 1.3311276082842411e+000
      -5.1390491459834964e-001 1.5956056038558397e-001
      -2.0140766740080979e-001 -1.6546852476083979e-001
      2.1675224288997801e+000 -1.3369055223788884e-001
      4.4133260670342400e-001 3.7503465949596124e-002
      -1.6465587741842511e-001 7.2199097627033998e-002
      1.5956819065766466e-002 3.9406613125867607e-001
      -8.0010574332666159e-002 -3.4152119177663304e-001
      -2.3507320017670144e-001 -4.2623550153359768e-001
      -1.4466501016742836e-001 3.6114532575313935e-001
      -3.5856463401505406e-001 1.4274954441042629e-002
      7.4510527332560125e-002 -1.2692553280863167e-001
      2.6729872646446776e-002 -4.4181269146378988e-001
      2.1356782731669441e-001 -2.6796097451266244e-002
      -1.7926669402165898e-001 -3.0183490658639067e-001
      -1.7717001161039439e-001 2.5434291347811228e-001
      4.1809950761082298e-001 2.8717345458865939e-001
      -3.0344826644115486e-001 2.6719849459769390e-001
      2.5156566278308623e-001 1.0509915930148662e-001
      -1.0760411107070184e-001 6.8065315207053390e-001
      4.4835431320645336e-001 9.5800295346521167e-002
      -9.0176084516609012e-001 4.9262583755688205e-001
      2.3413071176889705e-003 -8.9504385695050759e-002
      -1.0220937710285319e-001 -3.6773058650071982e-001
      -1.2251974306908269e+000 4.6794125796121250e-001
      6.7174787390337262e-002 -7.0567187975792633e-001
      3.2830267969334742e-001 -8.1037506819201910e-001
      5.9047241786895122e-001 -2.6116063660976581e-002
      -7.0809405616711077e-002 9.9294739686527844e-001
      -8.9780810607594436e-002 -1.9858744316976476e-001
      -3.3712896117460112e-001 -1.0871727462417329e+000
      -1.7670440183906849e-001 3.1778515978595512e-001
      1.7079250406046753e-001 -2.9653847759830648e-001
      -3.9894963953390461e-001 2.6619780907927276e-001
      2.3911509502710984e-001 2.3905796766755472e-001
      -3.1063259869504944e-001 5.9534236184836919e-001
      4.7866376427829160e-001 -5.2930606443872075e-001
      -1.3925552951827203e-002 -1.5478433700569183e-001
      1.1666173762635617e+000 1.0380884012763705e-001
      -8.9033029882932124e-001 -8.7507240186282198e-002
      2.6056569927463991e-001 3.8879812024152960e-001
      -1.6706291733567094e-001 -2.5678902846370893e-001
      3.2969056507286593e-001 -4.2110925450228165e-001
      1.5738811621562609e-001 -2.3464248374335173e-001
      -1.9325150023891915e-001 7.6843546205827534e-002
      -2.1752337469300130e-002 4.2336542544148901e-003
      3.1522010294055391e-001 -2.4345657736215356e-001
      3.8272346140826752e-001 3.4213616571654548e-001
      3.0930519066056550e-001 -2.4577818190126396e-001
      1.4716915716690243e-001 -1.5718910657384080e-001
      -4.5511435635229962e-002 -6.1938218631085694e-002
      3.9266851245319701e-001 -5.5124410052927231e-001
      -3.6802721870975313e-001 -5.3714517348946014e-002
      -7.9729217880931263e-002 1.4453614797993730e-001
      -4.9245496409578877e-002 4.0244277022639358e-002
      -7.1155903983350199e-002 -1.0157957966401604e-001
      -2.2274483770767864e-001 7.9100768396486365e-001
      1.5090524036054556e-001 1.1731239700138566e-002
      3.1499125059314564e-001 -5.6351785291330470e-001
      2.1569352741627683e-002 1.7765590245289417e-001
      -2.8751349417055688e-001 7.3114499940626543e-001
      -2.2233963847367701e-003 1.1296904138311947e-001
      -3.1931987419316910e-002 -5.8956792345315125e-002
      3.0512267771510736e-002 1.1536147268024526e+000
      1.2772118086726761e-001 5.7559803698361711e-001
      1.8382922814163739e-002 3.6956767300645510e-001
      -2.6972688921252502e-001 3.5121953309631970e-001
      1.7176845346899532e+000 -1.6447476342089151e-001
      5.1448017205616016e-002 3.4545328612834172e-002
      1.9996843964981328e-001 3.0572168463326502e-002
      3.6915097536372410e-001 3.4345948118560343e-001
      -2.6465589011544149e-001 -1.7489321555113796e-001
      2.8281066316926715e-002 -4.4096022790225259e-001
      -2.1811075466963889e-001 4.9915922213493107e-002
      -6.1382511341159296e-001 -4.9895581470083160e-003
      4.0083667205508394e-001 -4.2989051606075096e-001
      1.6300099017342010e-001 -5.4098146719707096e-001
      -4.7000048414648520e-002 -9.5162553700339075e-002
      -5.5657674689999093e-001 2.6640975532484634e-001
      -2.4761545874902830e-002 2.9678092358994906e-001
      2.3637321894790045e-001 2.0527377819772014e-001
      2.9238377387561504e-001 3.4358673917325316e-001
      2.1383738775440114e-001 -2.4530861002102003e-001
      2.2367693514640008e-001 5.3277833271498687e-001
      7.2329130941032005e-001 -3.1515720660774621e-001
      -1.0846984579981114e+000 1.4895315543898383e-001
      4.2999100892724812e-001 -9.3447694338832502e-002
      4.3232548005752980e-001 -4.4454080778442866e-002
