<?xml version="1.0"?>
<opencv_storage>
<my_nn type_id="opencv-ml-ann-mlp">
  <layer_sizes type_id="opencv-matrix">
    <rows>1</rows>
    <cols>4</cols>
    <dt>i</dt>
    <data>
      256 128 64 36</data></layer_sizes>
  <activation_function>SIGMOID_SYM</activation_function>
  <f_param1>5.9999999999999998e-001</f_param1>
  <f_param2>1.</f_param2>
  <min_val>-9.4999999999999996e-001</min_val>
  <max_val>9.4999999999999996e-001</max_val>
  <min_val1>-9.7999999999999998e-001</min_val1>
  <max_val1>9.7999999999999998e-001</max_val1>
  <training_params>
    <train_method>BACKPROP</train_method>
    <dw_scale>1.0000000000000001e-001</dw_scale>
    <moment_scale>1.0000000000000001e-001</moment_scale>
    <term_criteria><epsilon>9.9999999747524271e-007</epsilon>
      <iterations>1000</iterations></term_criteria></training_params>
  <input_scale>
    2.2926681095070043e+000 -1.7067640370774366e+000
    2.1269242879432810e+000 -1.4253346790731014e+000
    2.0095197002048022e+000 -1.1024448355290235e+000
    2.0671314070010651e+000 -1.2948281452187227e+000
    2.0965696734438364e+000 -1.3627702877384937e+000
    2.0461152006655503e+000 -1.2390364270696943e+000
    2.0112359560357778e+000 -1.1117665423642216e+000
    2.0008512375902789e+000 -9.7124653824694784e-001
    2.0124611797498106e+000 -8.9442719099991574e-001
    2.0092477756251212e+000 -9.0834743189719025e-001
    2.0029404999936840e+000 -9.4722394478867966e-001
    2.0026460598778177e+000 -1.0527799078663251e+000
    2.0412414523193152e+000 -1.2247448713915892e+000
    2.1004558775696816e+000 -1.3711309200802089e+000
    2.0890725544918336e+000 -1.3462912017836262e+000
    2.0751433915982238e+000 -1.3142574813455417e+000
    2.0158105227158782e+000 -1.1338934190276815e+000
    2.0002778356615476e+000 -1.0168078997946199e+000
    2.0596327347520300e+000 -7.8380467961396694e-001
    2.0589104972858210e+000 -7.8495962709021916e-001
    2.0172657876094715e+000 -8.7695026600245085e-001
    2.0255508704543432e+000 -8.5241932464953607e-001
    2.0308397472624988e+000 -8.3913170112582414e-001
    2.0473804886517790e+000 -8.0473427540062981e-001
    2.0836854142927210e+000 -7.4954794764140942e-001
    2.0872546596392945e+000 -7.4503395489902591e-001
    2.0836854142927210e+000 -7.4954794764140942e-001
    2.0640712300337918e+000 -7.7689347685994103e-001
    2.0633188973656060e+000 -7.7804316754828062e-001
    2.0283702113484399e+000 -8.4515425472851669e-001
    2.0274130477972609e+000 -8.4757128803746606e-001
    2.0095197002048022e+000 -9.0707486467577880e-001
    2.0344828426180341e+000 -1.2037356818823368e+000
    2.0000945283062164e+000 -1.0097699458879301e+000
    2.1410396728791672e+000 -6.8840372815489892e-001
    2.1137399765599612e+000 -7.1485511707270910e-001
    2.0001562683129315e+000 -1.0125791108334214e+000
    2.1054454238712608e+000 -1.3816985594155149e+000
    2.2378196576702654e+000 -1.6208652103820047e+000
    2.3137016078716295e+000 -1.7384896803590995e+000
    2.3246649486397053e+000 -1.7547991660912219e+000
    2.3009419633856991e+000 -1.7193149670854253e+000
    2.2159091530065949e+000 -1.5849905747199950e+000
    2.0965696734438364e+000 -1.3627702877384937e+000
    2.0092477756251208e+000 -1.1009003437279308e+000
    2.0130982374144555e+000 -8.9191435796557117e-001
    2.0743186286271809e+000 -7.6202399621095751e-001
    2.0442525574593269e+000 -8.1060292382588583e-001
    2.1034318774814422e+000 -1.3774557364340279e+000
    2.0180183819889375e+000 -1.1435437497937313e+000
    2.0793470463570061e+000 -7.5520729530882924e-001
    2.0106477021835558e+000 -9.0199889972956748e-001
    2.1326898203227467e+000 -1.4366035595229614e+000
    2.6484911372663476e+000 -2.1923621080704763e+000
    2.9954271434652471e+000 -2.6126781195780211e+000
    2.8677294281541070e+000 -2.4614677591656084e+000
    2.7541214906363853e+000 -2.3237900077244502e+000
    2.7899642756080327e+000 -2.3675946838840387e+000
    2.7201010150096607e+000 -2.2818625181469931e+000
    2.5881913798734382e+000 -2.1154869820215532e+000
    2.1850811846610529e+000 -1.5325916642414328e+000
    2.0334196844627326e+000 -1.2002824526342519e+000
    2.0077004960122720e+000 -9.1601335130559902e-001
    2.0118404341301761e+000 -8.9694552688303686e-001
    2.1014419982205843e+000 -1.3732339724483125e+000
    2.0106477021835558e+000 -1.1086488024539884e+000
    2.0436410380978662e+000 -8.1177963457776348e-001
    2.0060769680867092e+000 -1.0810525883578377e+000
    2.2967821734795018e+000 -1.7130167043867950e+000
    2.6277066009127110e+000 -2.1660331495023528e+000
    2.9548176540052440e+000 -2.5649458802128855e+000
    3.0382451512748281e+000 -2.6626842922978007e+000
    2.8855513697356323e+000 -2.4827764910433672e+000
    2.7952418935376699e+000 -2.3740144693031739e+000
    2.7248547174638218e+000 -2.2877426065373339e+000
    2.4967548886707029e+000 -1.9956700533749856e+000
    2.3115453637716912e+000 -1.7352642626647210e+000
    2.1180341484463123e+000 -1.4076101944882784e+000
    2.0089798716184055e+000 -1.0993584297467387e+000
    2.0014077348945096e+000 -9.6317747241798279e-001
    2.0828068535747346e+000 -1.3321285500988405e+000
    2.0072167287346274e+000 -1.0886362952373221e+000
    2.0269409979127215e+000 -8.4878154287595220e-001
    2.0216127126847745e+000 -1.1582156166423185e+000
    2.2865814960572237e+000 -1.6974691800591475e+000
    2.5199020407122137e+000 -2.0264212244060720e+000
    2.6277066009127110e+000 -2.1660331495023528e+000
    2.7060451439981659e+000 -2.2644336100817988e+000
    2.7442215032303547e+000 -2.3116254745961253e+000
    2.6744002247305212e+000 -2.2249524091855308e+000
    2.5267046628369472e+000 -2.0354009783964297e+000
    2.3618906419126313e+000 -1.8091426236316892e+000
    2.2805945841715687e+000 -1.6882734907825641e+000
    2.1836260863495833e+000 -1.5300546674491176e+000
    2.0318584071042021e+000 -1.1951278269564301e+000
    2.0006967373699727e+000 -1.0267464506363957e+000
    2.0819337550784645e+000 -1.3301243435223522e+000
    2.0079483671392206e+000 -1.0932163332202423e+000
    2.0303370459091501e+000 -8.4033394400128703e-001
    2.0069808240170177e+000 -1.0871146130092177e+000
    2.1970117399081168e+000 -1.5531652439072661e+000
    2.3180502808087580e+000 -1.7449767391643705e+000
    2.3546517846038233e+000 -1.7986923354612538e+000
    2.4445293254085634e+000 -1.9250668437592435e+000
    2.5440941685616831e+000 -2.0582428516488616e+000
    2.5131846879399249e+000 -2.0175288189295508e+000
    2.3643312187173020e+000 -1.8126539343499317e+000
    2.3009419633856991e+000 -1.7193149670854253e+000
    2.2016212560437087e+000 -1.5610106266809909e+000
    2.2000763928677070e+000 -1.5583874449479591e+000
    2.0567735105731830e+000 -1.2683436648534629e+000
    2.0092477756251208e+000 -1.1009003437279308e+000
    2.0927756800416382e+000 -1.3544909262491713e+000
    2.0134228975164614e+000 -1.1227629074345269e+000
    2.0180183819889375e+000 -8.7447463219520627e-001
    2.0019782398505810e+000 -1.0454775252553035e+000
    2.0909128409713542e+000 -1.3503812097939998e+000
    2.2094727066644300e+000 -1.5742493034984064e+000
    2.2110687394001438e+000 -1.5769219412249638e+000
    2.2175402199130141e+000 -1.5876971991182760e+000
    2.2275147619567406e+000 -1.6041200056591249e+000
    2.2309124749391818e+000 -1.6096653204595901e+000
    2.1600691233179368e+000 -1.4880476182856897e+000
    2.1257906805806566e+000 -1.4230987611664949e+000
    2.1191232600366283e+000 -1.4098056132743679e+000
    2.1064611291419735e+000 -1.3838279362279908e+000
    2.0718759617780389e+000 -1.3064328981211524e+000
    2.0298387509574054e+000 -1.1883014354563144e+000
    2.1014419982205843e+000 -1.3732339724483125e+000
    2.0255508704543432e+000 -1.1731315458048073e+000
    2.0074566179841233e+000 -9.1729614905107859e-001
    2.0013052890692888e+000 -1.0367873233650622e+000
    2.0147625501999111e+000 -1.1291065125078670e+000
    2.0506267763195702e+000 -1.2517367613784045e+000
    2.0581932237454543e+000 -1.2720777563426766e+000
    2.0207844553886694e+000 -1.1549344491561631e+000
    2.0027913265999242e+000 -1.0542471010852379e+000
    2.0001929291472198e+000 -1.0139866932482433e+000
    2.0002334513621203e+000 -1.0153962867678541e+000
    2.0004940101347417e+000 -1.0224747162910901e+000
    2.0032505773043057e+000 -1.0586622842559561e+000
    2.0264732908534504e+000 -1.1764803271899200e+000
    2.0710722232756753e+000 -1.3044878517437759e+000
    2.0533100967684694e+000 -1.2590783440601101e+000
    2.1158746579345893e+000 -1.4032363182830088e+000
    2.0250961399638294e+000 -1.1714618642985208e+000
    2.0022336746840801e+000 -9.5384187557866584e-001
    2.0074566179841233e+000 -1.0901604689330446e+000
    2.0603599507698371e+000 -1.2777093305815725e+000
    2.1722669428290069e+000 -1.5100272290082193e+000
    2.1600691233179368e+000 -1.4880476182856897e+000
    2.0759734537312715e+000 -1.3162248355948964e+000
    2.0172657876094715e+000 -1.1403155216070207e+000
    2.0052365438640289e+000 -1.0750295915715489e+000
    2.0082002357587121e+000 -1.0947480451879090e+000
    2.0134228975164614e+000 -1.1227629074345269e+000
    2.0191786295303107e+000 -1.1484078455453641e+000
    2.0176399990196892e+000 -1.1419281938896158e+000
    2.0344828426180341e+000 -1.2037356818823368e+000
    2.0216127126847745e+000 -1.1582156166423185e+000
    2.0927756800416382e+000 -1.3544909262491713e+000
    2.0151077466180340e+000 -1.1306993467134525e+000
    2.0035763135214157e+000 -9.4195914184305451e-001
    2.0424319703130327e+000 -1.2282958932576988e+000
    2.4026744638399715e+000 -1.8670782812756446e+000
    2.6076175832572406e+000 -2.1404194329236517e+000
    2.4330017619205337e+000 -1.9092305492848634e+000
    2.2110687394001438e+000 -1.5769219412249638e+000
    2.1246635092014077e+000 -1.4208687217784413e+000
    2.1137399765599612e+000 -1.3988848594872521e+000
    2.1044356809523004e+000 -1.3795745019576191e+000
    2.1681338343329464e+000 -1.5026371990724170e+000
    2.1909815228194218e+000 -1.5428161556520097e+000
    2.1303639978680269e+000 -1.4320780207890627e+000
    2.0079483671392206e+000 -1.0932163332202423e+000
    2.0000077160940362e+000 -9.9722606955244308e-001
    2.1054454238712608e+000 -1.3816985594155149e+000
    2.0137516528896082e+000 -1.1243446728633646e+000
    2.0044593143431828e+000 -9.3541434669348533e-001
    2.0828068535747346e+000 -1.3321285500988405e+000
    2.4563366577929258e+000 -1.9411882753946872e+000
    2.5267046628369472e+000 -2.0354009783964297e+000
    2.4107518218774620e+000 -1.8783774612128559e+000
    2.2594664525529797e+000 -1.6553729912801343e+000
    2.2078853156024154e+000 -1.5715850336753305e+000
    2.1807395932204980e+000 -1.5250033127590565e+000
    2.1750603277255198e+000 -1.5149899366032613e+000
    2.2208290348370170e+000 -1.5931363840184991e+000
    2.2708329913471963e+000 -1.6731623637634552e+000
    2.2094727066644300e+000 -1.5742493034984064e+000
    2.0250961399638294e+000 -1.1714618642985208e+000
    2.0003260828165894e+000 -9.8210454204953379e-001
    2.1350420507344952e+000 -1.4411533842457844e+000
    2.0269409979127215e+000 -1.1781594550367696e+000
    2.0044593143431828e+000 -9.3541434669348533e-001
    2.0726849308617181e+000 -1.3083823626064595e+000
    2.3792716660637261e+000 -1.8340219092574557e+000
    2.4935298583379324e+000 -1.9913606507559878e+000
    2.4387311210911271e+000 -1.9171136313021915e+000
    2.4189726272590542e+000 -1.8898223650461361e+000
    2.4273401821882046e+000 -1.9014164760474268e+000
    2.4245344832221321e+000 -1.8975349740217657e+000
    2.2865814960572237e+000 -1.6974691800591475e+000
    2.2126734601347517e+000 -1.5796029979295312e+000
    2.1821789023599236e+000 -1.5275252316519465e+000
    2.2094727066644300e+000 -1.5742493034984064e+000
    2.0366630588567514e+000 -1.2106830405426243e+000
    2.0000077160940362e+000 -9.9722606955244308e-001
    2.1708816809598979e+000 -1.5075567228888178e+000
    2.0448687496430638e+000 -1.2354415362426843e+000
    2.0074566179841233e+000 -9.1729614905107859e-001
    2.0180183819889375e+000 -1.1435437497937313e+000
    2.2309124749391818e+000 -1.6096653204595901e+000
    2.4967548886707029e+000 -1.9956700533749856e+000
    2.6442769409038922e+000 -2.1870373865392607e+000
    2.6036803246566005e+000 -2.1353794884857256e+000
    2.6236342351717923e+000 -2.1608543075789899e+000
    2.6527345489316185e+000 -2.1977168867190424e+000
    2.5000000000000004e+000 -2.0000000000000004e+000
    2.3224477305201550e+000 -1.7515126634339502e+000
    2.1522668084755159e+000 -1.4737049119144852e+000
    2.0863540595045524e+000 -1.3401927118345216e+000
    2.0054407164723456e+000 -1.0765317179396687e+000
    2.0001929291472198e+000 -1.0139866932482433e+000
    2.1213203435596424e+000 -1.4142135623730949e+000
    2.0328948073019419e+000 -1.1985608968051034e+000
    2.0533100967684694e+000 -7.9423175270835933e-001
    2.0109398037365178e+000 -9.0073345375698199e-001
    2.0710722232756753e+000 -1.3044878517437759e+000
    2.2708329913471963e+000 -1.6731623637634552e+000
    2.5165327975501377e+000 -2.0219641991427149e+000
    2.5370717539706362e+000 -2.0490378124082294e+000
    2.5805995774324537e+000 -2.1056975718632867e+000
    2.5370717539706362e+000 -2.0490378124082294e+000
    2.4474545843325042e+000 -1.9290701064009668e+000
    2.3405384589256943e+000 -1.7781590792116038e+000
    2.1257906805806566e+000 -1.4230987611664949e+000
    2.0092477756251208e+000 -1.1009003437279308e+000
    2.0087159834195814e+000 -9.1089690081457408e-001 2. -1.
    2.0784956109648536e+000 -1.3221541525304206e+000
    2.0127776667454671e+000 -1.1196075771271661e+000
    2.0560710423211241e+000 -7.8958839333582065e-001
    2.0372194025229056e+000 -8.2479091088253742e-001
    2.0019782398505810e+000 -9.5650071459527763e-001
    2.0006252931214217e+000 -1.0253204627247285e+000
    2.0046477094919681e+000 -1.0705375615273081e+000
    2.0021040099368452e+000 -1.0469335551961421e+000
    2.0017383749479176e+000 -1.0425720702853738e+000
    2.0018563622298640e+000 -1.0440237000240471e+000
    2.0017383749479176e+000 -1.0425720702853738e+000
    2.0006252931214217e+000 -1.0253204627247285e+000
    2.0032505773043052e+000 -9.4458829304834946e-001
    2.0278894493106114e+000 -8.4636219377477606e-001
    2.0461152006655503e+000 -8.0707877359585589e-001
    2.0009342962498806e+000 -9.6989731859890049e-001</input_scale>
  <output_scale>
    227158990. -2.1580103950000000e+008 227158990.
    -2.1580103950000000e+008 227158990. -2.1580103950000000e+008
    227158990. -2.1580103950000000e+008 227158990.
    -2.1580103950000000e+008 227158990. -2.1580103950000000e+008
    227158990. -2.1580103950000000e+008 227158990.
    -2.1580103950000000e+008 227158990. -2.1580103950000000e+008
    227158990. -2.1580103950000000e+008 227158990.
    -2.1580103950000000e+008 227158990. -2.1580103950000000e+008
    227158990. -2.1580103950000000e+008 227158990.
    -2.1580103950000000e+008 227158990. -2.1580103950000000e+008
    227158990. -2.1580103950000000e+008 227158990.
    -2.1580103950000000e+008 227158990. -2.1580103950000000e+008
    227158990. -2.1580103950000000e+008 227158990.
    -2.1580103950000000e+008 227158990. -2.1580103950000000e+008
    227158990. -2.1580103950000000e+008 227158990.
    -2.1580103950000000e+008 227158990. -2.1580103950000000e+008
    227158990. -2.1580103950000000e+008 227158990.
    -2.1580103950000000e+008 227158990. -2.1580103950000000e+008
    227158990. -2.1580103950000000e+008 227158990.
    -2.1580103950000000e+008 227158990. -2.1580103950000000e+008
    227158990. -2.1580103950000000e+008 227158990.
    -2.1580103950000000e+008 227158990. -2.1580103950000000e+008
    227158990. -2.1580103950000000e+008 227158990.
    -2.1580103950000000e+008 227158990. -2.1580103950000000e+008</output_scale>
  <inv_output_scale>
    4.4022030561062097e-009 9.4999999559779691e-001
    4.4022030561062097e-009 9.4999999559779691e-001
    4.4022030561062097e-009 9.4999999559779691e-001
    4.4022030561062097e-009 9.4999999559779691e-001
    4.4022030561062097e-009 9.4999999559779691e-001
    4.4022030561062097e-009 9.4999999559779691e-001
    4.4022030561062097e-009 9.4999999559779691e-001
    4.4022030561062097e-009 9.4999999559779691e-001
    4.4022030561062097e-009 9.4999999559779691e-001
    4.4022030561062097e-009 9.4999999559779691e-001
    4.4022030561062097e-009 9.4999999559779691e-001
    4.4022030561062097e-009 9.4999999559779691e-001
    4.4022030561062097e-009 9.4999999559779691e-001
    4.4022030561062097e-009 9.4999999559779691e-001
    4.4022030561062097e-009 9.4999999559779691e-001
    4.4022030561062097e-009 9.4999999559779691e-001
    4.4022030561062097e-009 9.4999999559779691e-001
    4.4022030561062097e-009 9.4999999559779691e-001
    4.4022030561062097e-009 9.4999999559779691e-001
    4.4022030561062097e-009 9.4999999559779691e-001
    4.4022030561062097e-009 9.4999999559779691e-001
    4.4022030561062097e-009 9.4999999559779691e-001
    4.4022030561062097e-009 9.4999999559779691e-001
    4.4022030561062097e-009 9.4999999559779691e-001
    4.4022030561062097e-009 9.4999999559779691e-001
    4.4022030561062097e-009 9.4999999559779691e-001
    4.4022030561062097e-009 9.4999999559779691e-001
    4.4022030561062097e-009 9.4999999559779691e-001
    4.4022030561062097e-009 9.4999999559779691e-001
    4.4022030561062097e-009 9.4999999559779691e-001
    4.4022030561062097e-009 9.4999999559779691e-001
    4.4022030561062097e-009 9.4999999559779691e-001
    4.4022030561062097e-009 9.4999999559779691e-001
    4.4022030561062097e-009 9.4999999559779691e-001
    4.4022030561062097e-009 9.4999999559779691e-001
    4.4022030561062097e-009 9.4999999559779691e-001</inv_output_scale>
  <weights>
    <_>
      6.1676375236627778e-001 2.5282246291293825e-001
      1.5837196502910253e-001 2.1033282809814671e-002
      2.8049863781335678e-002 -1.6648846545775289e-001
      -1.0011380191134962e-001 1.1068117410574549e-001
      -1.8655451200251141e-001 -1.9714121977025267e-001
      1.5999501626508855e-001 7.2043355430924216e-002
      1.1991745392759032e-001 -1.3685245570983752e-002
      2.2138230118882227e-001 2.4900235713805254e-002
      -1.9103906362574011e-001 -1.3654217186181575e-001
      -4.5446851827308059e-002 2.1159688671419666e-001
      -3.8500931243154755e-002 -1.6866689264499574e-001
      -1.2938848713870743e-002 1.2942327531569500e-001
      -5.9384984609055960e-002 -2.1404468260422995e-002
      1.7932066976115499e-001 -2.2874679451699595e-001
      -8.2419847017918504e-002 -2.5009698474932179e-001
      5.6937218397928362e-002 -2.2254202287672753e-001
      -1.9133689448186608e-001 -2.1025752247163002e-001
      -1.1657408899641580e-001 1.5039719735239407e-001
      1.2925838230295358e-001 5.6758455457523158e-002
      -9.5476503019227929e-002 1.3695880779687708e-001
      7.6231059993792580e-002 9.3892340927532250e-002
      1.2631173186164529e-001 1.3510237244714229e-001
      3.1540928493160557e-002 3.3913406299824611e-001
      1.5821703770156539e-001 3.7579969124763934e-001
      3.2956748828646004e-001 -8.8997262911321567e-003
      5.5231939639832361e-002 -7.7076694946658073e-002
      1.2590737897186921e-001 -3.6199703193533911e-001
      2.1366979053097485e-001 1.7740652055161024e-001
      4.1497946217253640e-002 -8.2338585560578867e-002
      1.1513644759729710e-001 1.5108840743830310e-001
      -1.2899719961588549e-001 -7.5717188080931683e-002
      -1.9143311923210508e-002 -1.4923169666699666e-002
      3.4107910329356261e-001 -2.8683018937753901e-001
      -3.8712317978300004e-001 2.6861418360517730e-001
      3.8420097254059371e-001 7.6525735702970624e-002
      -1.5559906244027089e-001 4.3972717802818895e-001
      8.9918499358496037e-002 -1.4319392283422278e-001
      -9.0218158871614190e-002 -3.7179146488952031e-001
      5.5294765154493943e-003 -3.1470536180379788e-002
      7.4167192673540078e-002 1.1086643736124098e-001
      2.4582571077673890e-001 -4.1764400039230633e-002
      -4.9392421969202988e-002 1.0500734175891491e-001
      -2.1681376566900676e-001 2.8819954693341671e-001
      -1.4817467607835486e-002 2.5671152641660516e-001
      -1.2458267317532359e-001 -2.4399649002215456e-002
      -6.5833502594741022e-002 -1.7549037668488199e-001
      6.0968048469669585e-002 4.7251197271510045e-002
      -3.6338798167254252e-003 7.6983669218989234e-002
      -3.4990132581355707e-002 1.6794863531520643e-001
      -1.5149960707712090e-001 9.1454381673077179e-002
      3.8249557276284862e-001 -2.3909662351153932e-001
      -1.5863683877767557e-001 -3.1501565066687176e-001
      8.6263740061544275e-002 1.5858939298423205e-001
      -3.2634110511383591e-001 -1.3107814177877364e-001
      -3.6167579537705198e-002 4.0537407692921128e-002
      -1.1624912365325503e-001 -1.4271486903576763e-001
      2.3620035146642338e-002 6.1102013867122412e-002
      -6.8805436300006531e-002 1.1745439628689676e-001
      1.9195409714358666e-001 1.8745870477098112e-001
      1.7654127470684161e-001 1.4794537218999787e-001
      1.4650931017389809e-001 -2.0935421408342998e-002
      -1.8821726901912611e-001 9.5105296826321573e-002
      -1.1332098555934922e-001 -3.3940030669871446e-001
      9.5477419606225938e-003 1.8537285608867282e-001
      2.5478568233576508e+000 3.4834919975212947e-001
      1.5635902386274814e-001 -7.3403091544504570e-002
      5.1802265914838524e-002 -9.5322256294479157e-003
      -2.7079022738345501e-002 6.7250937875271985e-003
      -2.9442101829305917e-001 -5.9567312016546907e-002
      3.0146877527241661e-001 1.1046844967467991e-001
      -1.3969456977412967e-001 -5.8689462683959158e-002
      1.8612419388833015e-001 -1.9385831610978899e-001
      -8.0571453534973358e-002 -2.4552958260465832e-001
      -2.0845971585300477e-001 2.2288496594631979e-001
      2.7368030477283078e-001 -1.0869378198757441e-001
      -9.8550831763312575e-003 4.2110883593260408e-002
      -4.5659791484650498e-002 -1.5550348619624391e-001
      -6.5019501006658334e-002 2.5186399383188385e-002
      -3.2780402775462519e-001 -1.1807173683201488e-001
      1.7522570843267274e-001 2.2540345601336031e-001
      -1.8288289209400158e-001 -1.4274686708654939e-002
      1.6594680684809272e-002 2.3258056688799508e-001
      -2.7906699261980045e-001 2.5382988551890090e-001
      -3.5899691668884716e-002 -6.8843611335476493e-002
      1.3462115497852045e-001 -1.9194062829543815e-001
      1.7148717207411926e-001 1.3833987626760613e-001
      -1.3181583676780964e-001 1.8593066833057340e-001
      3.1391122994601417e-001 3.4019303495177941e-002
      1.5510749281530348e-001 2.0796318136497874e-001
      -8.7212027806210901e-002 -3.7558042393572938e-002
      -1.2380938836438087e-001 -6.1237867639987353e-001
      2.6975151902213806e-001 3.4543938456534959e-002
      -8.6126445557072176e-002 -5.0803337987789951e-002
      4.3491306611086422e-001 -3.3430091883800972e-001
      -1.1965858542732591e-001 -1.7583704645976825e-001
      1.3973929852307840e-001 -1.9469988840431687e-001
      1.3807271913995195e-001 -4.9027815055017451e-002
      -9.4600761355848009e-002 2.7646392348929338e-001
      2.1500697846366096e-001 -4.6180728502456150e-002
      4.3564588835738671e-001 9.0677704565612616e-001
      3.7528864739683011e-002 -7.8044762926623781e-002
      -4.6711073033399490e-002 -4.6095032257371094e-001
      1.7013008878522748e-001 3.3077361963703505e-001
      9.4986681546414042e-002 -1.2329530553447841e-001
      3.3026633685713608e-001 -3.3603090689226495e-001
      2.1035976860709316e-001 7.2796053865705396e-002
      -5.3596969308423170e-003 7.7716735968921125e-001
      2.9662161811684934e-001 1.1203992932346200e-001
      -6.0144364822423102e-001 2.8323187561830465e-001
      2.4868832627063719e-001 -2.5201105656497552e-001
      2.2786579210626481e-001 1.2949715378595070e-001
      1.8145830449889971e-001 -3.9537227073964856e-002
      6.0546784245876388e-002 -6.8780438292680726e-002
      -1.9145817340352218e-002 -1.6515025643578130e-004
      1.0484944641860273e-001 -2.2951303906010354e-001
      -1.7530258106996355e-001 -5.9131240326062207e-001
      2.0002571082261408e-001 1.8708214004686693e-002
      -8.1894879199600465e-002 -4.7419396278306236e-001
      -1.6227482785519970e-001 4.1197446528362283e-002
      -1.5931598969792635e-001 -4.9228488499496215e-001
      -2.1546318316374610e-001 -1.2411683789327699e-001
      -2.4525308748710634e-001 -2.0751815225335818e-001
      -1.9741282707234054e-001 -1.3834515523191046e-001
      1.8021936214861534e-002 6.4517949575083916e-002
      2.7478941991369441e-002 4.2306889891873423e-002
      9.6724885661287369e-002 -4.1355991063298225e-001
      -1.6619918606300657e-001 -2.7863841245582177e-001
      3.2900627213760590e-003 1.4847940306700935e-001
      -2.2148175615608272e+000 3.2316219152503894e-001
      -2.8319093712285565e-001 1.0134079141261132e-001
      2.0119644240538204e-001 -8.7952474101035863e-002
      4.8274876471712524e-001 3.2744840996116797e-001
      -5.6706561624876695e-001 -9.7643607152065621e-003
      4.9757403780463055e-001 4.4534945360171059e-002
      -1.8489619336687821e-001 -2.3015489958522987e-002
      1.4300658105828831e-001 -2.0917218564381496e-001
      3.1511317991843441e-001 -2.0128006157849038e-001
      -8.9038019193080090e-002 1.1886533908672187e-001
      -4.5021938251372706e-001 4.2739232407439820e-001
      -2.4690330747116551e-001 2.0560239000659949e-001
      -4.9446386398752575e-002 -3.8025721260055961e-002
      2.6984598961697537e-001 -1.7894176494042122e-001
      -4.7478617095785070e-001 -1.1141613481015593e-001
      2.7025424129730347e-001 2.4749864389974613e-001
      -5.0731712285983410e-001 -3.8035274069308694e-001
      1.8445975991682125e-002 4.7107191044189090e-002
      -3.1253107395954871e-001 3.4430255602204918e-001
      -2.2972205617515185e-001 4.2572922906126451e-002
      1.5178642579993578e-002 7.7010746815167008e-002
      -7.9551591710057878e-002 3.4489422755616256e-001
      3.6518966789389079e-001 -1.1071627895165083e-001
      3.5316144338154859e-002 -3.3801030680680841e-002
      2.1051283456066802e-001 -3.5538825669900093e-001
      -3.8256515049855006e-001 -2.2344994235813258e-002
      -1.9343914877498183e-001 -9.2920887751909587e-001
      5.1022573299832741e-001 1.9170059879142491e-002
      -4.4195702839779943e-002 1.8332932287510517e-001
      8.1113652179235651e-001 -4.8590159153318552e-001
      1.2428515986644927e-001 -3.0584484213956920e-001
      1.2504564898192144e-001 -4.1528070073830348e-001
      1.8582460407539825e-001 -3.3674760687074123e-001
      -2.7347787514998184e-001 2.2805354660972563e-001
      -3.7803458344486542e-002 1.5087841202402436e-001
      2.5245808640461653e-001 3.0567383915347646e-001
      7.1117112254664397e-002 4.9891399446736001e-001
      8.3995456541286109e-002 -3.6771315190213033e-001
      1.6208220669299167e-001 3.3113510471686480e-001
      6.9286478729222334e-002 -3.8040516530122914e-001
      4.3338074386623604e-001 8.7292165248965325e-002
      -2.7069307466412984e-001 1.7434645511729019e-001
      1.0444316294164067e-001 7.3287617940933891e-001
      4.0825816740087673e-001 -2.5426773908783340e-002
      -4.2923925000002616e-001 -1.2539555968397212e-001
      -4.5056105237960697e-001 -3.3536557499197629e-002
      -2.7296155911943004e-001 5.4362364796897689e-001
      -5.5004168297448072e-002 1.2108739124695243e-001
      -1.9204304865487187e-001 -2.0626801703548753e-001
      -7.8501217027843476e-002 3.0813851216772405e-002
      -1.9781761384934732e-001 -4.8905547447564057e-001
      -2.5801733690255135e-001 -1.2603907081561072e-001
      2.4450353505343519e-001 2.5717345860657959e-001
      3.3145581879822533e-001 -8.0927607350951258e-001
      -3.2130097878897484e-001 4.6927133907644350e-003
      -1.7135397310376418e-001 -5.0505922894263089e-001
      -1.2240093464451635e-001 3.3841903491376496e-001
      -1.1797140091285291e-001 -1.3045693042123602e-001
      -1.6914978699040550e-001 -6.7142808751181893e-001
      2.1647522116305631e-001 2.6710558091911746e-001
      -1.8382610652935596e-001 2.7145788342944499e-001
      -1.2466346465645498e-001 -1.3331543427196893e-001
      1.2899041417592888e-001 -5.6318087164126640e-001
      -4.5711349750720387e-001 2.3608373598906560e-001
      -3.2692182241465351e+000 -3.4019718563441742e-002
      -2.8567620159925278e-001 -4.7425490372602703e-004
      -6.8610113378274412e-002 -8.8697617627906317e-002
      -1.9669133241091888e-002 2.9217337574153573e-001
      -3.4469971894779189e-001 3.3351263343602189e-001
      2.5921562192150760e-001 3.1207822000799742e-003
      -2.1327849571806443e-001 1.9058309855854844e-001
      -2.9662128977738089e-001 6.1369497599478663e-002
      1.9510662578214522e-001 2.3974019682681050e-001
      -8.6683698608100282e-002 -2.4335905042185216e-001
      -2.8504932922018356e-001 -1.7559470982409842e-002
      -3.2230721227557318e-001 1.7922525902008116e-002
      6.6261646576007194e-002 1.5004452107110949e-001
      1.8423989212415406e-001 -1.6374651145870420e-001
      -2.2537031691445200e-001 -6.5614454786620507e-002
      3.3145585340354333e-002 -2.7450672962574439e-002
      -2.5357905097831468e-001 1.8499945329138928e-001
      1.3870096374488153e-001 -1.7184438160133117e-001
      -1.2160417598584550e-001 -5.6315889103762846e-002
      -2.2186676780979397e-001 1.6266533642606698e-001
      2.0450031279909939e-001 -3.8314513269226891e-001
      1.5066856932217088e-001 -7.9892629670906490e-002
      1.0029067415377391e-001 1.2943972129705024e-002
      -5.0179047967109813e-002 -4.9239879583795432e-001
      2.3568214243976776e-001 -1.0070309674680332e-001
      -3.0867302250296480e-001 1.9163684441069012e-001
      1.4999220046205888e-001 -2.5381295262922976e-001
      2.6701481475386035e-001 -9.5095942047809481e-002
      1.9245818689898001e-002 3.2149602788039816e-001
      -2.7295665543567930e-002 -1.2549355171017706e-001
      1.5938105308739969e-002 -8.7772121755799781e-001
      -3.7979876082572500e-001 -3.3132395005486981e-001
      -9.3158739101832228e-002 -2.7029526068914334e-001
      1.1162935117771092e-001 9.9763541409022723e-003
      -1.4768757569772992e-001 1.7238264243388104e-001
      -4.1127244763752230e-001 5.6414460809913754e-002
      2.2798721470775993e-001 4.1872918283123206e-001
      2.0391748543203234e-001 -2.6353736331630368e-002
      -1.5274678626102836e-001 -4.3729545998493692e-002
      1.9749031218423102e-001 -4.9837080157107588e-001
      5.4495921101079099e-002 1.8603357805262138e-001
      -1.5861800023046960e-001 -1.3571189936226388e-001
      2.4111074013691391e-001 1.7103486407490318e-001
      -2.0944129710011994e-001 -1.8449858593935756e-001
      -2.8697526814123842e-001 -5.2730459951127084e-001
      -1.1294525070613991e-001 5.5202031753714714e-002
      1.0520059349222695e-001 2.3152568195957027e-001
      9.8244400427698012e-002 1.0133899635050064e-001
      2.2882190263759394e-001 -2.3312240038062057e-001
      -1.6177336373909463e-002 -4.1905437959478875e-001
      -3.5902254803155986e-001 -1.3496450183726669e-001
      2.7971921457703242e-001 2.9957000471441175e-002
      1.0806748250085046e-001 2.7857081752967819e-002
      1.5298611551614985e-001 -4.0524464106891495e-001
      -2.2560035388561314e-001 1.8485208834123762e-001
      -1.7485593752198847e-001 1.2447409608769461e-001
      8.9362563165501674e-002 3.5725156711030637e-001
      -3.5070199849680635e-002 2.9996647213106375e-001
      3.2223683612575292e-002 -6.4393056241687097e-001
      2.1551297971753453e-001 -4.0462748677265604e-002
      -2.8720265913984377e-001 -5.1168884292005869e-002
      1.2591247511392997e-001 -6.0088537245541467e-002
      -2.9624188201222812e-002 -1.4986809507635146e-001
      -6.9875642223825016e-002 1.9418604444079718e-001
      -3.2166124203130959e+000 -2.4798703745671169e-001
      2.2205194669716730e-001 1.0737385861755665e-001
      -2.4188056910900874e-001 7.4066809122584454e-002
      5.4860572233602557e-002 4.0532127641046028e-001
      -5.5778887078753947e-002 2.1513532010017303e-001
      -4.5038907439162071e-002 -5.6051478478373003e-002
      1.7090903119365242e-001 -4.0594433120640760e-002
      -1.8816198092006961e-001 4.3542788050512193e-001
      -2.7911376899913382e-001 -1.3770203067868414e-001
      6.8663227519890707e-002 -7.9198031710256522e-002
      -2.2481867707174996e-001 -7.5706133521883712e-002
      2.1341940927231159e-001 -4.0736102535005392e-001
      -1.7242396914184124e-001 -1.1042142618449883e-002
      1.5038399944466785e-001 2.3291938668782372e-001
      1.1827059996413815e-001 -3.9404687695676538e-002
      6.9153869889736874e-002 2.1547528865186133e-001
      -1.3073132517413691e-001 3.6309053881057141e-001
      3.9958650328798202e-002 1.2399467460500008e-001
      -3.1903390202055299e-003 -7.1557640307102502e-002
      -2.6955054401696094e-001 1.2926136769257138e-001
      -1.5993104399328728e-001 4.0793834820899676e-003
      -1.7171959228149364e-001 1.8666540222726014e-002
      -4.4854956944093838e-001 -4.0740466873836383e-003
      -7.7825757450849270e-002 1.8903103723092979e-001
      4.5116308639425068e-001 2.6193967845314614e-001
      3.3921897875788842e-001 -1.4838165400754976e-002
      1.9078036253490818e-001 -1.6299008232240839e-001
      -1.8090714513741848e-002 -2.8472750695155191e-001
      2.0908779639350086e-001 1.3767203564537209e-001
      -1.1565740048171802e-001 -1.6134344329140296e-001
      -5.5079655604132638e-002 -3.1855557328119866e-001
      -2.8602111987006917e-001 1.2512599284158696e-001
      -4.6225959918961237e-002 2.0619257948159275e-001
      3.4592442515294186e-001 -3.8580699308957006e-001
      -3.5932602739744018e-001 -2.4299192239571697e-002
      -6.5662192041040368e-001 4.7145575900765568e-001
      1.0706987826141802e-001 -1.0190343712490539e-001
      -2.0944174497811788e-001 -2.9700649736938645e-001
      -1.4442423310633293e-001 -2.7544324370270862e-001
      2.0780668532617549e-001 -3.8969610767720375e-001
      -8.5902903373126047e-002 -1.6416691147127463e-001
      1.0041191684646909e-001 1.2261483604056904e-003
      2.3933713072850935e-001 -1.3902647798862589e-001
      -4.9944496089336571e-001 1.1657750593000189e-002
      -4.6054395336802063e-002 -2.3355818582528151e-001
      -1.5359967797516930e-001 -9.0572503666240672e-002
      1.3025387077545936e-001 -5.9236424377356461e-002
      3.2166478403903281e-001 -1.6908610560630036e-001
      4.0216579666836211e-001 9.0305654166749599e-002
      -1.8050356032340245e-002 -5.9958935071618737e-002
      -1.3305465742014563e-002 -8.5350697888441046e-002
      6.0919457485786199e-001 1.3847054584035690e-001
      3.0268396893417854e-001 1.1871302233890817e-001
      -2.7178051749379156e-001 -1.6201919077451113e-001
      -2.5403291558256419e-001 -4.5619589952608793e-002
      -3.1928344074866427e-001 2.9470064966806903e-001
      -4.1654498424359108e-003 -1.4185411917461746e-001
      3.5596530379075558e-001 1.6325031945784227e-001
      3.2793785015042076e-001 -8.9414600077119447e-002
      -2.0680839511902022e-001 1.3677434053561751e-003
      6.6694670446482751e-002 -7.3349454022975671e-002
      -1.6960709344394864e-001 -9.1938470934630216e-004
      -1.7603958150483066e-002 4.4786247505363308e-001
      2.0711832574370209e-001 2.8993482709710586e-002
      -1.5479500923205225e+000 -3.7766615521913560e-001
      2.0441812604477325e-001 1.8818033926765634e-001
      -4.7283766989766773e-001 1.6833040202841789e-002
      -2.0737588077835861e-001 5.6425792718130273e-002
      -9.1849663773991105e-002 1.5817542690181072e-001
      -4.7162045737684281e-002 -3.6088892830413839e-002
      1.6784945443765201e-001 -1.5071200845443225e-001
      -1.9134193638530633e-001 2.9525873284814319e-001
      -6.1538630313102978e-002 -1.9009109158359261e-001
      1.3141440949986619e-001 1.0337526797095399e-001
      -2.2054310068155139e-001 -2.6434213291520108e-002
      1.2723129715997828e-002 -2.0032720318684241e-001
      -6.1798377342069402e-002 -1.9586660047427684e-001
      1.3106402195156749e-001 1.1500218973283803e-001
      2.7570979467435941e-001 -1.1589888647069911e-001
      1.9472778021994158e-001 -1.0264079852969560e-001
      -1.3866558034383220e-001 1.1590044201397373e-001
      3.3621532470938888e-002 1.9168935145021743e-001
      1.9300635268878527e-001 9.5216989585945478e-003
      -1.8449042979278696e-001 1.3693480742248840e-001
      -2.9677661699294128e-001 -1.6971012766882126e-001
      -8.8671356536687340e-002 -1.2619223682563838e-001
      3.0321680840552378e-002 -2.9954889060615619e-001
      -1.0917922056670426e-001 2.6497540171886830e-001
      4.0915988334483472e-001 1.0551744371547858e-001
      8.2349983010554434e-002 -5.1005507098334596e-002
      5.1433082412708808e-001 3.3264372333978318e-002
      1.3374109168862458e-001 -8.5887353612574532e-002
      1.1498094758840528e-001 -5.5420911226065281e-003
      -1.7571656449392029e-001 5.2721702403325889e-002
      -1.4814683806925551e-002 -8.9110843336621462e-002
      -3.1100162294409700e-001 -2.1466316403027069e-001
      1.6071392169484300e-001 1.7707363569573970e-001
      3.1481598628638985e-001 -9.1549305132345896e-002
      -1.6136712964639457e-001 -2.4276802533642713e-001
      -8.1210181899403600e-001 3.3703984072294590e-001
      4.0142133697153486e-003 3.2786634657154423e-002
      -2.6845568161776567e-001 -4.9010049501674979e-002
      -1.1062266379167069e-002 -3.4507000648179809e-001
      1.7131973429031372e-001 5.6154086820873403e-002
      -1.2503136438345019e-001 1.3485015812487106e-001
      2.7119412515751198e-002 -8.8753538216747668e-002
      1.3328420609680239e-001 -5.1088013094676081e-002
      -8.0988436446882794e-001 -2.0381548365363580e-001
      3.6851712048575298e-002 -3.2160693601378793e-001
      1.0827151224908166e-001 -1.1520078277163076e-001
      -1.1854947331431744e-001 -5.5983954556880766e-002
      2.6783489686005130e-001 -1.1304295765992435e-001
      1.7052701673533929e-001 -1.5613197329155119e-004
      3.3100167438777049e-002 -1.5726363920828063e-001
      5.5415056691930947e-002 -1.4591741266382480e-001
      8.1406632522027747e-002 7.5722324547375708e-002
      2.4099121729815018e-001 9.3441163901952104e-002
      -3.3734613345317799e-001 -2.1598746588586210e-001
      -6.3460654247824391e-002 -1.7573743129841404e-001
      1.3326890927485102e-001 3.8531136539564631e-001
      -5.9521157175515586e-002 6.8825041152916072e-002
      2.1771028008607737e-001 1.8471556867340491e-001
      2.3472345063870320e-001 -1.4734243414327525e-001
      -9.0345460877289771e-002 5.4193712855020674e-003
      3.8987779215121271e-001 -2.8014119296429347e-002
      3.3914939280592499e-002 2.2693960968771874e-002
      -1.2388533367937499e-001 3.0117345392997935e-001
      1.3958584238455210e-001 1.8636815251141933e-001
      -1.6076617153290546e-001 -1.0149702691926565e-001
      4.2603350560711684e-001 -1.0075772955949810e-001
      1.1845712405392082e-002 -2.9116609010441507e-002
      -1.1366116316350164e-001 3.8502070299474994e-001
      -1.3465882316604658e-001 -4.5860892963414572e-003
      -2.9329962102467910e-001 -2.1351411912250817e-001
      9.8699477927885151e-002 -3.4427327548595732e-002
      -4.2007254613090260e-002 -3.9690430580903581e-002
      -1.6572656978833633e-001 -2.4137685584494223e-001
      8.6192623938103605e-002 -3.5070370715009881e-002
      6.8591106165254529e-003 -2.7294424522434879e-001
      2.5863036254627841e-001 -1.4260160532249580e-001
      -6.7342578313843701e-002 -2.1268175451207508e-001
      1.4019413004904036e-001 3.1417670646532159e-001
      1.2929746493133467e-002 6.5801113296433025e-002
      -3.3544156692676685e-002 -1.5457776146300048e-001
      1.7227052659436745e-001 7.9333064623112140e-002
      8.9316731189860984e-002 9.3877120677715378e-002
      8.4986768165134341e-002 1.2060626388377658e-001
      -4.8979550898593210e-002 1.1765098587852116e-001
      -1.6861725847588294e-001 6.2788046307854187e-002
      1.1568536779163667e-001 -1.2538707866681759e-001
      -9.8859252412990234e-002 -1.8790115926337927e-001
      2.6683830174226292e-002 -5.3835415154955713e-002
      5.4708434842946511e-002 5.6541183367875988e-002
      -1.4707504290576795e-001 -2.1923602094601490e-002
      1.7861845920413508e-001 3.8195509961209617e-001
      1.5765193990171458e-001 -9.1470917853515785e-002
      5.6486561054106828e-002 4.5778228492182972e-002
      -2.0386269180210781e-001 6.2257123033433670e-002
      -1.9484138184918329e-001 3.8420648555891618e-001
      -2.3425588238801151e-001 3.8973774589128229e-001
      3.2956042161741322e-001 2.3343428284064277e-001
      3.1216396388395684e-001 5.4646101420477371e-002
      -2.0403516672985730e-001 2.9759499755071639e-002
      -5.9611868633900111e-001 1.9309345757113941e-001
      1.4179745631089222e-001 -2.1495929174575872e-002
      -1.8112483222119136e-001 4.9876335207501843e-001
      -4.5564188110640426e-002 -1.0533918936750490e-001
      -1.0656500033766500e-001 8.2562111817968603e-002
      1.0039281889638908e-002 -1.7309609687592323e-001
      3.4304822530128404e-001 -5.4381820874443459e-002
      -6.8601342850186292e-002 -3.5187698918892846e-001
      -5.4960777251777593e-001 -3.5637143673331262e-001
      8.6755494176825654e-002 -2.0699768322000325e-001
      3.5091544921683697e-002 -8.3598608410008032e-002
      -1.0693273099005847e-001 -3.9159784279129778e-001
      1.3742020070231006e-001 -3.2453601309132031e-002
      1.7927845596290787e-001 -1.1741197389707525e-001
      7.6285623205516852e-003 8.7128289394131586e-002
      -1.3584101638090437e-001 -9.8018302111691949e-002
      2.0348676621908160e-001 -2.3069873846476883e-002
      1.1735804773248869e-001 2.1302371861830219e-001
      1.3680140169126262e-001 1.2989893898272359e-001
      1.5799532986942788e-001 8.5220947219377091e-002
      8.0748664847870133e-002 1.9420601725616241e-001
      6.6300667016705256e-002 6.8812416393569498e-002
      3.1190950452310762e-001 -9.4423268541912353e-002
      1.3678079539227975e-001 9.1733085343558521e-002
      -2.1739830879644276e-002 9.7047450518357489e-002
      1.3463988602109245e-001 -1.4094739785140373e-001
      -7.8591996425437030e-002 -1.0791747445769793e-001
      1.6708127785622758e-002 6.6752756282748826e-001
      -6.6537643950833475e-002 9.2913746987234314e-002
      -3.2399625963931045e-001 2.3508709838695163e-001
      1.8705149293381901e-001 -2.0617726541003231e-002
      1.6250933018969296e-001 -1.7758741391433847e-001
      -5.1237221995996352e-001 1.8818314209120129e-001
      3.4167173418585883e-001 6.6266553452831195e-002
      8.2282606780066950e-002 -3.2499833749532980e-001
      2.6754652535670609e-001 8.9180304797948626e-002
      5.5148599438576175e-002 -1.0464581208985495e-001
      -2.0558727162951068e-001 -4.6829357387214367e-002
      4.4763895024928141e-001 -5.8697552039348434e-002
      9.9401504110061351e-002 -2.2728517821300884e-001
      3.1567847056246734e-001 -1.9385298481452398e-001
      2.0861095905516283e-002 -2.4418370976206687e-002
      5.3593159638828086e-003 2.1350113056233713e-001
      3.1395606225528994e-001 7.5961881034738013e-002
      -5.4092574495153416e-002 -3.1677170981081210e-001
      3.8722039033267985e-002 6.0332088557103473e-002
      1.8737262907666213e-001 1.5085081668018637e-002
      3.7553532212703999e-001 -7.3748963250784672e-002
      -7.6518966069616182e-002 1.0752046607482438e-001
      2.0019321456393696e-001 1.3744407344589982e-001
      -1.6331429592777083e-001 -7.2286039086363885e-002
      -5.0868821724016722e-001 2.6183821037205324e-001
      -3.3874181942054493e-001 4.5673192948225377e-001
      -3.0138572298244537e-001 -2.5390478274095890e-001
      -6.7481528462498873e-003 1.2276274122817449e-001
      2.6493606247298512e-001 1.4827255427990185e-001
      2.6845480609449482e-002 1.9688659488519719e-001
      1.8798325633999949e-001 3.7047371007856877e-001
      -1.0578332635945217e-001 2.9689169594043519e-001
      -2.3915300019552344e-001 -8.4316313720515845e-002
      -4.4770858979046424e-001 3.3713677901049961e-002
      1.4746549805701856e-001 1.9565670715683867e-001
      2.9013121638100148e-001 -2.5940586838685348e-001
      1.2794350390076914e-001 -2.1459169759272120e-001
      -7.2702449104922329e-001 -2.6974307527031388e-001
      1.1075004502071009e-001 -2.0466934061392444e-001
      5.6927508671618464e-002 3.2100703219231286e-001
      -1.2487004921488604e-001 -3.6041402652682034e-002
      -1.1824569243451408e-001 2.9127889664737733e-001
      -1.0593144182655663e-001 2.4632986225735118e-001
      1.5842351692639087e-001 3.5500322204992374e-001
      -3.5053858619711872e-002 -7.1427075899473544e-002
      -1.8323628759143581e-001 -3.0929379013904773e-001
      1.8753631411954907e-001 -3.2662539083112474e-001
      1.5932032283272488e-001 -1.6380479747008003e-001
      2.6115189123585131e-001 -4.4070981686489180e-001
      1.6517820603118630e-001 1.5731089316692023e-001
      1.7938872974280307e-001 -6.8143519191014967e-002
      -2.1789098108881536e-003 1.8327604885094405e-002
      6.2253651683945019e-002 -1.2742587566957500e-001
      1.7253814011388904e-001 2.2309189563393397e-001
      1.5304476075733717e-001 -2.2479842100521058e-001
      -3.1116814870777904e-001 4.6522587104738319e-002
      -1.3069266965024870e-002 -1.8146401994395902e-002
      -5.6056390185934078e-002 1.9153517871685047e-001
      1.3964911242885261e-001 -1.0441648185375015e-002
      -1.5469616049005630e-001 -3.2160863194845957e-001
      -4.0985805586433381e-002 2.0141077285597625e-001
      8.3152415216538850e-002 -2.1846478082129483e-002
      -2.8242190657096492e-002 3.5212963230122137e-002
      -2.2959219872483633e-001 1.7707029153308326e-001
      2.4557360788750099e-001 4.3307416668475240e-001
      3.6365868309167598e-001 3.8148797426188458e-002
      -1.9428496755035702e+000 -2.0325100879709143e-001
      3.4562202403284287e-001 -2.6268412083463460e-001
      4.4540410119217094e-001 -2.0671039287345083e-001
      -7.8428015852694308e-002 3.6060664592672313e-002
      1.1589631800309010e-001 3.4012964690793385e-001
      -3.3608477985371066e-001 -3.2308801264823173e-001
      -6.6927585807508433e-002 1.7748242945775158e-001
      -4.7901119051681673e-001 -9.6427115708473884e-002
      2.2573930231540462e-001 -5.4326022238037702e-002
      2.7865927874881968e-001 -9.9696550377002743e-002
      7.1121314434430313e-003 -7.9556678577464485e-002
      4.1441376525666052e-001 -2.0527161606453179e-001
      9.6906481722761326e-002 7.0132189310828180e-002
      -1.5470341079373268e-001 4.2199577409746208e-001
      3.8629949114038248e-001 1.8417010719058113e-001
      -2.3031702516167257e-001 -3.5231663244137928e-001
      -4.8704503984582700e-003 -1.7003633988974137e-001
      -9.9131709345150101e-002 1.1413432663978683e-001
      2.7767762824179743e-001 2.2225151319284583e-001
      3.9063940263275934e-002 -2.4390039304746752e-001
      -1.9791358306878434e-001 1.6321413230686721e-001
      -3.1622392622587536e-002 -1.1272264178864128e-001
      -3.4897877838518186e-002 -2.6382701017482846e-001
      1.8195490712088594e-001 4.0837455250339570e-002
      -2.7966872088135097e-001 -3.3007329531702434e-001
      2.1243673198618576e-001 -2.5015851398035083e-001
      1.8306038094560026e-001 3.0721334048335386e-001
      -4.4343100601172791e-001 -3.2094943507105229e-003
      2.3762948824353197e-001 3.7077550181131164e-001
      -3.7236945526877557e-001 1.4850110519472917e-001
      -1.3146031293046906e-001 -3.1056813707060277e-002
      -3.4324093898076574e-001 -1.5321746498189315e-001
      1.0120153329994787e-001 1.2605087165168885e-001
      -1.2469912869811703e-001 -4.2362822999163841e-001
      -3.3714556193739875e-001 -1.8288491212324975e-001
      -4.1097221979153420e-001 2.4328161533378888e-003
      6.3830702793118088e-002 -2.9387952443354320e-001
      -1.4592422044552111e-001 5.3611917432156786e-001
      -1.3077630689746078e-001 2.5564139951224801e-001
      -5.3230132640168983e-003 9.9880103206629697e-002
      -1.8436237979031200e-001 -1.8846982277320165e-001
      -8.5911111486137323e-002 6.4282975421422772e-001
      -5.2126864093786508e-002 -7.6159890715032408e-001
      -4.0567697776132411e-001 -1.7569719501817621e-001
      1.2401442465706060e-001 -2.1912090135469212e-001
      6.2452611573781618e-002 -2.4043734465984251e-001
      4.3080738502744943e-002 -5.3181067997677167e-001
      1.0363703873055145e-001 2.1624516971848998e-001
      2.3153356488269650e-001 -7.7422559771253244e-002
      -7.0695918230361629e-002 -1.5613331095645119e-001
      3.9065890845999277e-002 1.5376371216225926e-001
      -7.4345245774253541e-002 -1.0786739879356635e-001
      1.2673049049450263e-001 -7.4953172200481278e-003
      9.3694513047344968e-002 -5.1639042134503314e-002
      9.3723211104359355e-002 1.5959206859137463e-002
      -4.8364204995974672e-002 1.0251862181531810e-001
      1.6640587876805987e-001 4.3021701450126584e-002
      -1.6386344828797991e-001 1.0967982622862998e-001
      -8.5486785765893455e-002 6.8393564366315178e-003
      3.5012324046734648e-002 1.1936104437522710e-001
      -1.2751388988963516e-002 -6.5881086859335899e-002
      6.7195216816033881e-002 -6.4538593607086497e-002
      1.8713957429999717e-001 4.8922619038794307e-001
      1.3276972462476727e-001 2.9065565257857245e-001
      -2.7450091981833169e-001 -2.8638769475330134e-001
      1.5127559383917180e-001 -1.1647954710775996e-001
      5.6568388395585090e-001 1.6907039725864534e-002
      -1.4796581162955516e-001 -3.0730103956858833e-002
      1.6250519921069270e-001 1.4994357022080690e-001
      -2.9291551980324065e-001 -2.2000361658172582e-001
      -2.2093021270823368e-001 1.1155052817709905e-001
      -4.2143279733194106e-001 -2.8183694748770105e-001
      2.0097876931998523e-001 5.0483681125789948e-001
      6.8647113316511618e-002 -8.0759625172799457e-002
      -2.1975766617033536e-002 -5.6958301159286906e-001
      2.0191371885585899e-001 7.3208236852926240e-002
      -4.4526557497238231e-002 7.6580291712046181e-002
      -1.9798427477748213e-002 1.4857813888206414e-001
      2.0569731252727821e-001 3.0021504078316807e-001
      -1.1850275953761623e-001 -1.7850398112464566e-001
      1.1953882728649796e-001 -9.8645808254572837e-002
      -1.5649333055698572e-001 6.7916841808982747e-002
      8.4527166615249977e-002 1.6868884575311366e-001
      -9.1253978796524055e-002 -3.2358778026580209e-001
      -2.8610296633614446e-002 -1.3742333478417723e-001
      3.4683608124798530e-002 -2.4651856420235366e-001
      -1.6525324011842952e-003 -4.7800522878167845e-001
      -2.8312531442990747e-002 -2.5605386629769766e-001
      -4.6830825902517759e-001 -6.6741726973163862e-001
      1.9352402566600599e-001 -5.1985240167859041e-002
      6.9314004946473246e-002 2.0567185201546004e-001
      -4.4612720460947344e-003 -1.2851118229492606e-001
      1.7690364299057487e-001 1.9645207799485309e-001
      -4.3769686862029206e-001 -4.0490138308475372e-003
      -6.8002907627909587e-002 -3.7644686427925639e-001
      -1.8304507004994916e-001 1.8168483142103636e-001
      4.4011887014462736e-002 2.1526752446919784e-001
      -5.8924524080743203e-002 -3.1604944323126277e-001
      -4.6561913838482910e-001 -4.7400478970206328e-002
      -4.1231029809159092e-001 3.5160198799616132e-001
      1.2642328890696924e-001 -1.4575274274426031e-001
      -2.1085155085141244e-001 4.3312130351682665e-001
      5.0718228541137701e-002 8.6552223402526676e-002
      -8.4617223460712612e-002 -2.1171779907939944e-001
      -1.0195589931559518e-001 8.3243209290656262e-002
      -4.4874448842545413e-002 2.4443425985057499e-001
      -2.0455062664460302e-001 -3.7362938043132515e-001
      -1.6119318531369989e-001 1.5581538991571769e-001
      1.5125854131326102e-001 1.1587180463812700e-001
      -6.9905297900756669e-002 -1.7241908379121523e-001
      2.9077474421361194e-001 -3.1247282377770497e-001
      1.2334367380612812e-001 2.3595113360890246e-001
      1.8704328873436599e-001 -6.4064247838280450e-002
      -7.1616232620325154e-002 -1.2602440574458842e-001
      -9.1544859555877850e-002 2.6669375685415442e-001
      1.5578303708171967e-001 -3.5395067793986718e-001
      2.1710723833935561e-001 1.1283737578831132e-001
      2.1129864408575971e-001 -3.9204691616396359e-001
      3.6815836447751792e-002 6.6385925536219859e-002
      4.5027601515533699e-002 1.3120229456428867e-001
      1.8853959011767274e-001 1.1102623430710777e-001
      -1.5704459979001681e-001 -5.2929582809233627e-002
      8.7893610066524602e-002 1.1905994135343603e-001
      -1.5256098438463717e-001 -2.3381265584927306e-002
      9.4128143802312991e-002 -5.6879381819965102e-002
      1.5392229842773825e-001 8.1875186021162778e-004
      4.5641575839555276e-002 4.3040007620632464e-001
      2.2690985773249356e-001 2.8739694062600546e-001
      -1.2946754120839379e+000 -3.5583542878880731e-001
      1.7502324499387775e-001 7.6481648094269029e-003
      3.1245985848694996e-001 -5.9266283899024948e-002
      1.1485597869204145e-001 -4.0520403472716855e-002
      -1.4720744243213310e-001 -2.4915599648340954e-002
      -1.1142004540139128e-001 -1.4153425931053121e-001
      -2.0695277417462504e-001 5.1540774601134966e-002
      -2.6741939856660951e-001 9.5498426458512461e-002
      7.0366778601231417e-002 2.1455355161233342e-001
      7.0566785587242775e-002 1.8260963383666201e-001
      8.1150789567154713e-002 -8.4278698246561978e-001
      -5.4940536625997759e-002 1.8140744306660311e-001
      -2.4324938267213836e-001 1.6310801549713025e-001
      -1.4150885376002027e-002 2.2431262849523978e-001
      8.0344935178909088e-002 9.4371039165301124e-002
      3.6610231481275596e-002 -2.3081371208956999e-001
      2.9092767459762453e-001 2.4539356572283061e-001
      -1.2451450493355820e-001 -7.2972377992979467e-002
      2.4452850007032872e-001 7.6138617401775341e-002
      -3.1062913897650948e-002 -3.4836488026875090e-001
      -2.2333858355718478e-001 1.8403730274094626e-001
      -1.9365446376447069e-002 -8.5114492953457216e-002
      5.9011911891674797e-002 -1.3036341957185513e-001
      -1.6554040340483719e-001 -1.1196435655795010e-001
      -3.0977194357186266e-001 -1.3164646933497165e-001
      2.9590122789211543e-001 -2.2509945093244374e-001
      -3.2786031949805333e-001 3.7522745440674625e-002
      -3.0180821442881389e-001 -2.7300621805190006e-001
      1.4325137139311425e-001 7.3385591435795747e-002
      -1.8975829108135125e-001 1.3306367294214660e-001
      -1.3214081870565814e-001 2.6905497485824481e-001
      -1.3267341719415984e-001 -3.0639317984531775e-004
      6.8175861883127375e-001 1.7564034129562353e-001
      1.5263725010853621e-001 -5.7039591530404032e-001
      -8.6461748783298001e-002 1.6191109280568067e-001
      -1.7944990312405576e-001 1.5823847351635828e-001
      5.9052838033722105e-002 -6.3214110369348375e-002
      -2.6837536385965660e-001 2.3908818969297624e-001
      -1.5730258842160824e-001 3.0878231218265023e-001
      -2.6954184861900043e-001 -1.4245752319811625e-001
      3.0124945491754129e-001 -1.9994525666081445e-001
      -5.9886614789691844e-002 1.4483578799569857e-002
      8.6230398802773042e-002 -1.9188950682872949e-001
      -3.1999518210131722e-001 -4.5504299849541477e-002
      -1.4836875185456821e-001 2.8743446714497362e-001
      -1.8839394369641116e-001 -2.4036791653575015e-001
      5.6541097559114029e-001 -1.8239800492357047e-001
      8.7060978481449461e-002 -2.4019530237981611e-002
      2.8385853120412724e-001 -1.4583589308471695e-001
      -2.0603955069057181e-001 3.1335206509708571e-002
      -1.5957499550939999e-001 5.6311407291869431e-001
      1.1701954492631506e-001 -1.2983522940935846e-001
      -3.7163777300798367e-001 1.8376934912318499e-001
      3.7193176489171703e-001 -3.1402551862952671e-001
      3.3532899572320818e-001 -1.5963469592531562e-001
      7.9626337570124217e-003 1.5588691143095390e-001
      3.6325225204976198e-002 1.5634407837197578e-001
      -1.5625997121498958e-001 -1.7050510482782275e-001
      2.5035609749994614e-001 -5.3813966570149523e-002
      -2.1975984926330513e-001 -3.7031606455197408e-001
      1.9712378955015677e-001 7.6489731726801735e-002
      3.2414586401327494e-002 -9.0540264663603121e-004
      -2.6411109410255006e-002 5.5360178926510284e-001
      5.1384122741198170e-002 6.2125942829198338e-002
      -3.5604679492041509e+000 1.9516743991028482e-001
      1.6366060558846837e-001 5.3620792935656669e-001
      3.5856121415654785e-001 4.1866469112002552e-001
      -2.3776195503238290e-001 -1.4597874058737859e-001
      -2.8194939711932798e-001 -2.3548962241989538e-001
      2.4391842529764435e-001 -1.3358124571885593e-002
      2.9980215658840764e-001 2.5315948339311727e-003
      -4.1107814358274125e-001 6.8164549636046415e-002
      1.7046421440591744e-001 9.2392635819045846e-002
      5.5737879521507816e-001 1.2264161458354407e-002
      -2.1890282430151814e-001 -1.4831753023295111e-001
      -1.3713675485628976e-001 1.9705886777466158e-001
      -4.5453582293482225e-001 4.2674933719996595e-002
      1.4540855151945872e-001 -3.4006926428289913e-001
      2.8664911105847019e-001 -1.9772576529692554e-001
      -4.1764745696810567e-002 -5.0787271573240178e-001
      1.1100790077587408e-001 -8.0458320298902694e-002
      5.1104178921847687e-003 -4.9594083322350030e-001
      3.4237674427002718e-001 -4.4646756147386196e-002
      -5.2322626176292908e-001 1.6048781887897598e-001
      -2.3279775066674838e-001 -6.2308071650741453e-002
      -1.1961893625031267e-001 1.4355959528095361e-001
      2.0496052521563871e-001 4.2685746587401779e-001
      -4.0824547914853015e-001 -1.2872730805175553e-001
      -2.4159828120840834e-001 -8.8014108189691048e-002
      1.0682950345003070e-001 1.6594708996996804e-002
      -6.9727713974066130e-002 4.7048731549507297e-002
      3.3077868623738665e-001 -1.0898855515823636e-001
      6.3337514053892277e-002 1.0982265325687710e-001
      7.7620754151244600e-002 1.7274651562772092e-001
      -2.8982345552284994e-001 2.6543112414153358e-001
      -3.1890160645323068e-001 -1.3971450991919915e-001
      1.6638202596012702e-001 5.4427746440479215e-002
      -2.2343303773497084e-001 -4.7640301553983805e-001
      -2.5241289835530462e-001 -1.2135777016344153e-001
      -3.1877619354986564e-001 -1.1703597121091015e-001
      1.1356359127624248e-001 2.9298187883005128e-001
      -2.0520530062136105e-001 -5.6151442058438771e-002
      -6.2044229767292826e-002 -4.3526516030920670e-001
      -5.5989710776443928e-002 -1.1884379586493983e-001
      -1.2670514152398515e-001 7.2332948059063862e-001
      -2.7509782410789252e-001 3.2038153721877299e-001
      -3.6531500996103049e-002 3.3938635389659043e-002
      -2.5911220975761889e-001 1.4475333596542822e-001
      -1.8485875853380690e-001 -1.5767127387167536e-002
      -3.7772449034702643e-001 -8.3943883421319452e-003
      4.2003359275021457e-001 6.9504018189017483e-002
      -2.5435961467584593e-002 -3.9901070082429872e-002
      -9.8326785205520531e-002 -7.8725636107861763e-002
      -1.2777770563328705e-001 1.7867238245388667e-001
      -3.5947304566198837e-002 4.3918706903527438e-001
      -1.4372371282517962e-001 -4.1777086667630009e-001
      -2.8347302589692758e-001 9.2149322537099000e-004
      -1.6091450965094647e-001 -4.7694995033663501e-001
      1.1401497430232788e-001 3.7533213640160048e-003
      -1.1710962320999065e-001 3.2721300618601384e-001
      -2.4476403105556130e-001 2.1641320382840346e-001
      -1.4059897541972305e-001 1.6476955296428966e-002
      -1.9385187483380306e-002 4.1372901788923916e-001
      1.0552591707798741e-001 1.4645526758190683e-001
      -2.5634886555064750e-002 1.1818365786457435e-001
      2.1669039224161725e-002 1.4100540534935574e-001
      -3.0914176168603497e-002 -3.3837275897979795e-002
      -3.0545517812583189e-002 4.7325886618785529e-001
      -9.4911311896516481e-001 1.6918309202843453e-002
      2.8508187735438573e-001 2.8085544359793962e-001
      -1.0941923657457530e-002 2.0864097305014770e-001
      -2.1540557483710440e-001 2.5996301649482501e-001
      -1.8392039260764509e-001 -6.1389651664141565e-002
      -9.7491156647080884e-002 -1.7270685777943331e-001
      3.4663685898256735e-001 -1.7366672428535079e-001
      -1.6075362355626027e-001 -3.4048208383344530e-001
      1.6689710901174179e-001 7.5151526146944300e-002
      6.0375033992873250e-001 1.1234900893748938e-001
      -5.0644001512644331e-002 -3.9212277561729719e-001
      -2.5450057214442268e-001 1.9419363509621668e-001
      -3.3449948985341360e-001 9.5758529834618591e-002
      -1.3514574822366359e-002 -5.4153920623780882e-001
      3.8624888696465753e-001 1.6006149106443665e-001
      9.2279600060524089e-003 -3.3729393204413932e-001
      2.4449050523898161e-001 1.7715531871817680e-001
      3.9238888796610041e-002 -2.3084439426441702e-001
      9.6251792011477738e-002 -4.8989789761265862e-002
      -3.1790870363581558e-001 2.9994148385637607e-002
      -2.5756920751020002e-001 -1.3509024422191801e-001
      -2.4650590978357309e-001 1.1058990937974091e-001
      6.1854415790976225e-002 9.1672487728353264e-002
      -9.7089180314265083e-002 -2.4373458082396188e-001
      3.2084584892521290e-001 -4.4594620056741152e-001
      -1.5866028534692894e-001 -1.7107314920393266e-001
      -7.9668640157062737e-002 1.8468627528335629e-001
      7.1079956383985260e-002 -3.8808135349680528e-003
      -1.5797275241488087e-001 5.1335624507564438e-002
      1.6722822370647381e-001 1.4417541618638233e-001
      -1.8669444437611932e-001 1.3595547007357400e-001
      -3.3695272839916107e-001 -5.8713623564808803e-002
      2.2924000745567386e-001 1.4837662486303718e-001
      -1.3909786308022129e-001 -2.5676685342795769e-001
      -3.4786047530011760e-001 -3.0190178330236424e-003
      -2.3762985844190183e-002 1.1075725500425525e-002
      1.0732379961323764e-001 3.2543769151629420e-001
      -4.3451591703726256e-001 -3.6768867933023648e-002
      -8.2573174176007402e-002 -1.7041157928892592e-001
      -1.4568031163895975e-001 5.9265995767287902e-002
      -6.9883930711421169e-002 5.9411592818819658e-001
      2.0486583074477500e-002 6.4432549433652966e-002
      1.1971594154867934e-001 2.7950168275142562e-001
      -4.2190784398660353e-001 4.9202079929789165e-002
      -3.5466510067024742e-001 2.4523474943356655e-001
      -1.7270529510406704e-001 2.5117089343729893e-001
      2.6325230441630681e-001 -1.7683738861186479e-001
      1.1549009852719230e-001 -1.5371041173780287e-001
      7.2739158381749268e-003 2.1841710819037605e-001
      3.1143188976930726e-002 -6.8933715641376916e-002
      1.2786960752643825e-001 8.8314541512835909e-002
      -2.2910759274246395e-001 -1.6619951123119411e-001
      -3.4394663944917517e-004 2.7200635303386367e-001
      -2.1370457278045921e-001 -1.4914389173288509e-001
      -2.2266607553356230e-001 -1.8819745453642467e-001
      -1.2180663880970416e-001 2.8867569940554083e-001
      1.6094411704822845e-001 1.2670950559974342e-001
      2.5688814888641143e-001 -8.4197973920165318e-003
      6.9666456927556533e-002 4.7241719837349289e-001
      -2.6658172842090283e-001 6.8084136665518935e-002
      1.0149296423541115e-001 1.9477397597702484e-001
      3.2171596505092555e-002 -2.4258501962977994e-001
      1.0791668214018130e-001 2.4085206031315515e-001
      -8.6280553440419919e-003 2.6750151268829725e-001
      4.2867007059502282e-001 -2.4398794493208512e-001
      1.1142762114623266e-001 3.1038167823973611e-001
      -5.0065217230438247e-002 2.8412341492990206e-001
      -2.3452133420604809e-001 -2.6852507986870642e-002
      -1.6114964686963151e-001 -2.4604463060513873e-001
      -3.8076292714272780e-001 -2.2026542911214017e-001
      2.2543920488991664e-001 -3.8346060501968399e-002
      -3.8835982304348982e-002 2.7799972591359145e-002
      -2.6256477846571057e-002 2.9778961001783144e-001
      2.5839087605213834e-001 -8.4543155879530402e-002
      5.3691989445978770e-002 -2.1177835360175790e-001
      -1.5623238295711903e-001 1.0418170580811965e-001
      -1.6581681141126089e-001 -3.7061554244524862e-002
      -9.6112143806190736e-002 -1.8490548614237348e-001
      2.4516565682338418e-001 6.1846349257780403e-002
      -3.8131881141534173e-002 -9.0717987049369377e-003
      2.3362541402498632e-001 1.6540153384300069e-001
      -2.1251935793209717e-001 -3.2075845151754162e-001
      -3.8932636829100420e-002 1.9922356309021562e-003
      -4.3010036663315226e-001 1.9536620250212597e-001
      -2.0595737740707748e-002 -4.1290998332987355e-001
      8.1598983829432134e-002 1.8236630776581073e-001
      -5.2779885867757489e-002 1.4005920853597265e-001
      -2.5591346996711883e-001 3.3172368462812368e-001
      -1.6469596725528234e-002 1.2577142259574331e-001
      -2.6333569215699892e-001 -1.0587983952917851e-001
      3.2507961676689470e-002 -2.1450772874275210e-003
      -1.6853622067930210e-001 1.4587878651412894e-001
      9.7791815322355716e-002 -2.3983469332829896e-001
      8.0781397729663487e-002 8.3883690783786519e-002
      -1.7560831849536676e-001 2.9893573798341982e-001
      -3.1259679524443024e-001 4.0680083068896450e-002
      4.3450132706032557e-001 3.3998892810507286e-001
      -3.0035591623604818e-001 -3.0160972326742691e-001
      -3.3407629782598008e-001 -3.3520326191405568e-002
      -4.1182269523779888e-002 -1.8548556395008317e-001
      -2.2659401081036902e-002 -7.3486433852281860e-002
      -1.3137514798897362e-001 1.3355796177555751e-001
      3.9251602153363048e-002 -1.0941744072527304e-001
      -2.7801404400090479e-001 2.9885759067707596e-001
      -3.4726584730170963e-002 5.2179005198137363e-001
      1.4533823341349603e-001 1.5875039698525184e-001
      1.3859853667818028e-002 2.4457375753745636e-001
      -7.9080047534927000e-001 -1.9665398235993650e-001
      3.2775440226793418e-001 8.5299307576258518e-002
      -1.2604728741716042e-002 -2.9872423954194559e-002
      2.4060493886445547e-001 4.9222667149879856e-002
      1.5079993292665514e-001 -4.2433252816521561e-001
      6.6276806577573621e-002 1.0082987551718182e-001
      -7.5101274691903488e-002 5.6260870100383761e-002
      1.3962317856882794e-002 2.8670668452219045e-001
      1.6300417136591869e-001 -2.2782718624400240e-002
      -6.7003068560147483e-002 1.4886128172279400e-001
      7.2808891642032247e-002 4.2390914464037782e-002
      -2.2451840055445435e-001 -9.9501886182152610e-002
      -1.5993908499300408e-001 2.9149794393979428e-001
      4.8609273887831268e-002 3.5393823376325531e-002
      2.5105492195930046e-001 -3.0506645214209738e-001
      3.8860854976505332e-001 1.7444205783793934e-001
      -1.3848750144769506e-001 8.3857782190502841e-002
      1.1916941759448442e-001 5.6666978202225791e-002
      -1.7156902276666738e-001 -2.3923466504362606e-001
      -5.3741827214495642e-002 7.4529305798718770e-003
      1.5139620380040597e-001 -1.0630590555487227e-001
      -1.1342068472979301e+000 6.5566731515418608e-001
      2.1936061668979848e-001 3.7202218984497465e-001
      -3.1168684544301628e-001 1.7217451271265713e-001
      -9.3794122529463550e-002 -6.6457871018486270e-002
      3.4277325589351187e-001 -3.6106393069665232e-001
      -7.4154860063868816e-002 3.4189787786512066e-001
      1.9574878185980799e-001 -9.4363137714476727e-002
      1.0145009811800505e-001 1.1390326733676236e-001
      -3.9561529667139378e-001 -1.9013649016564216e-001
      9.8830083521467285e-002 8.3765281004456169e-002
      2.6814363972353827e-001 -3.0552346888658033e-001
      -3.1080509722731264e-001 -3.2171174566660928e-003
      1.2573886222581304e-001 -3.1881728057191761e-001
      2.0370720270199510e-001 -5.3248229068857378e-001
      5.1008135496379857e-002 2.8323091546168449e-002
      -3.4536435767979790e-001 -2.2091688354745859e-002
      3.1732233475519200e-001 2.1599535214203000e-001
      -7.8284285205747983e-002 3.9103316024488272e-002
      -1.3815335148485619e-001 -9.4621572903796566e-002
      -1.2808950102512082e-001 -1.4198326661209754e-001
      -4.4442766911671261e-002 1.3852057664657072e-001
      9.3197551786462621e-002 6.2870953861174972e-002
      -1.8277859226942353e-001 -6.5546302923928490e-002
      1.5795968334657337e-001 -2.8692877512909106e-002
      2.9513180694322533e-001 2.5780304387794056e-001
      -5.0638703866363499e-001 6.3030889769665796e-002
      1.2115288707992578e-001 1.9034810911965930e-001
      -3.5730171968972313e-001 -1.6673020233257271e-001
      -2.0199310158341094e-001 -2.3561920998801494e-001
      -2.8627186741760186e-001 -1.4581142536627056e-001
      1.7985396370869866e-001 -2.3706547643016312e-001
      -1.4515782043890474e-001 1.1957676245276443e-001
      -3.0130764458709064e-001 3.2672444204685336e-001
      1.4833334726645045e-001 -3.1020707516454532e-001
      -1.9591482680363839e-001 -1.6702505221113567e-001
      2.6878854677388897e-001 1.3770121631250953e-001
      3.4891096786921413e-002 6.2544323949144298e-001
      -4.4559150401985143e-001 -5.6853003556260537e-002
      -1.7294732466654306e-001 -2.7697570736090993e-001
      2.3875396648048566e-001 2.9362191124966380e-001
      -1.9170524263929203e-002 9.8561381836707512e-002
      3.9346994724374046e-001 -3.9377442094544207e-001
      1.4652481593673763e-002 8.0879369820843816e-002
      3.5053460698402139e-001 -3.1024776168697871e-001
      4.3805337556748575e-001 -9.2016881982908638e-002
      3.2197466348783310e-001 4.2734315880682422e-001
      6.7938953694739707e-002 2.7356686217676274e-001
      9.7727187291772211e-002 -5.6878353649161739e-001
      9.7652800203920729e-003 1.0171723527167689e-001
      1.4392146730658520e-001 2.3543960051219830e-002
      1.6651544377203113e-002 -1.3191738390226188e-002
      -3.1009960537192321e-002 -3.1334848357405876e-001
      -4.7505807504983143e-002 -6.5156816483302793e-002
      -3.9061339749379637e-001 3.9707986589053529e-001
      2.2373609455635657e-002 3.6823738832107539e-001
      -2.6012713424012268e-001 1.1837608986536231e-001
      -4.2282558608378457e-002 -4.0829530961897242e-001
      2.4137214261344056e-001 -4.1236396613923348e-001
      8.5810068429595585e-002 4.9630001622638462e-002
      -2.7043157527636828e-002 -4.2445726357626118e-001
      4.6091684418560104e-002 4.7813835797469464e-002
      -6.5235228365978615e-002 -2.1750645409974362e-002
      -1.1228801424330395e-001 -1.3781040791658550e-001
      -7.7297223057328876e-002 7.2531614190887170e-003
      1.2526520646706360e-001 1.0422653130727297e+000
      -1.0836750160484980e-002 7.1347877399391579e-002
      -2.0707596981756914e-002 1.0796806510408407e-002
      6.1069535388896257e-001 -1.6137493786595652e-001
      1.7355454992080754e-001 -4.0313435770346384e-001
      -2.1802404279565549e-001 1.4730622819074485e-001
      -3.4396160572635746e-002 -1.4436443941338060e-002
      8.6201898275046651e-001 -5.2981152997697879e-002
      -2.5051874823498732e-001 7.8524429718787536e-002
      -6.3429280911232760e-002 -6.9275393369731444e-002
      2.5249691756040801e-002 -2.8978701979974325e-001
      1.5708809330949816e-001 2.3501603310292812e-001
      2.9152407270326131e-002 -4.3731146660048564e-001
      1.6546693036893603e-001 -2.0707805356313383e-001
      -4.9873696724715463e-002 -4.7628818933554654e-002
      7.6476696890902696e-002 3.3387070781512207e-002
      7.7154352050834481e-003 9.1412155225993286e-001
      2.2704131685545612e-001 -4.2553433064783025e-001
      3.3399727767473242e-001 1.9809866110722199e-001
      3.0021920948972058e-001 -1.6556771325702865e-002
      -2.5670794213760290e-001 6.3951638786430365e-003
      2.7793656459440746e-001 1.7789804738862833e-001
      -2.0777746916940090e-001 2.3008327564186479e-001
      5.3914207349604681e-001 4.2391111878164700e-001
      5.7681613635194451e-001 5.5810835171617679e-001
      -2.1623669370479465e-001 3.0237858391132778e-002
      -3.8125975613998891e-001 2.2032196062299919e-001
      -2.6300121781827041e-001 -1.7857453157189110e-001
      -3.8127632322588795e-001 -2.2422250953719497e-001
      2.6905340810443229e-001 4.5953600759405122e-001
      2.0608377803688074e-001 -2.5107226612997940e-001
      -3.9361033925254491e-001 2.7322171889480312e-001
      -1.0279637773349058e-001 3.4179439906821991e-002
      -8.0936784556086994e-002 -4.0437557835055726e-001
      2.8331481685009036e-001 2.1409287500195270e-001
      1.5026443659413959e+000 3.2865218486990788e-001
      7.4550649845593724e-003 1.4826991874565928e-001
      2.8158383063289044e-001 -2.7630353156767729e-001
      -3.6811309646315610e-001 7.8649555442143815e-001
      1.3748938898983895e-001 9.4722294082963021e-001
      2.6065237739190156e-001 -9.9113716714449718e-001
      3.1674752521043464e-001 -5.8594076780373583e-001
      9.9438087272900683e-002 2.6499804236373364e-002
      6.9428469078516752e-001 4.5469002682184639e-001
      4.2220406034855157e-001 4.5463847916043382e-001
      1.8606301130625236e-001 7.0674326219518399e-002
      -1.1149576153282051e-001 7.0130037519988198e-001
      8.0453704819578808e-002 -4.9712689364388835e-001
      1.2152069017494314e-001 1.9590527419249210e-001
      -3.6130411504746919e-002 -6.0782329603393337e-001
      -1.1749558141561212e-001 9.9946566286893579e-002
      -1.7033503929016833e-001 -3.3078503965544409e-001
      -3.0205833256271686e-001 3.7812935243438234e-001
      1.9967456470903519e-001 -2.3685048745018264e-001
      3.3158841051510908e-002 7.3733770410097640e-002
      -6.1964432025259163e-002 -2.7333792788048578e-001
      4.9164151945223861e-002 -3.3386832250437604e-001
      -2.0609694822488256e-001 -5.5414622350103160e-001
      -2.5153090682460000e-001 -2.2032581340816215e-001
      1.3684359181155314e-001 -4.1023755424594738e-001
      3.5750232328336226e-002 7.4115246890229483e-002
      -1.0201980155093944e-001 -2.2350188123323381e-001
      6.0137751540553973e-002 1.4396066769773079e-002
      -4.3790950449602095e-001 -2.1860073161651533e-002
      9.9207244323523314e-001 7.6455292149101417e-001
      -8.0245143593149632e-002 5.1293999102059806e-001
      -1.3367838496644568e-001 3.6545583700034308e-002
      1.3168062867614586e-001 3.9824859361804005e-001
      -1.5558564137069220e-001 -2.5051310749052769e-001
      4.8227583686725078e-001 3.4113762091812999e-001
      1.6651963359983210e-001 -1.0998152446116984e-001
      4.1449459857756721e-001 -8.6171437807079487e-003
      -2.5011236523316854e-001 -2.8933910782627975e-001
      2.4387907395170016e-001 1.2149194958448843e-001
      -1.0066849891803296e-001 -1.7056660557054903e-001
      -1.4583658502250835e-001 9.9467664271781817e-002
      -1.5372333899197863e-001 -2.2902897551492218e-002
      1.3119764365009032e-001 -4.5220853524518334e-001
      -5.1357294388494450e-002 -1.7527006601397579e-001
      1.2125154092996310e-001 4.7979937406502797e-002
      -3.1923297528747402e-001 -3.3048784612902241e-002
      1.6262117281505087e-001 3.3835683802387627e-002
      -1.0889015712921150e-001 1.0732955465020333e-001
      -2.7725672045924293e-001 8.1007011069034657e-002
      -1.6123745832217376e-001 5.4540954696949639e-002
      -6.0751875482087890e-004 1.9696573412465063e-001
      3.4783328925598844e-001 3.0403051014556079e-003
      2.3028987139993090e-001 5.7744906092164115e-002
      3.7632717735831145e-001 4.4522568630562136e-002
      -1.1418093779607828e-001 -1.5814739543688819e-001
      1.7508231478888994e-001 -7.5388008050681155e-001
      8.7318644885382812e-001 1.2746584411803774e-001
      -6.6136095192145129e-003 2.1710323490615011e-002
      4.8950565669775298e-001 -2.2969885002895540e-001
      -1.1595382408695921e-001 -4.4726689877277559e-001
      -1.8073984490472209e-001 -1.0368936898393735e+000
      9.6373903661561219e-002 -2.5777780947333129e-001
      -6.0485773516586096e-003 2.9559956749260935e-001
      2.6302602928784768e-001 -3.6915015383051919e-001
      -4.3004775008105822e-001 6.0682250611755761e-001
      1.3212651954361748e-001 3.5670208278639054e-001
      -2.2581013909111997e-001 -6.6784210698917534e-001
      3.5862651299108386e-002 4.1064663390340278e-001
      6.7248605977144299e-002 -1.9506382801347999e-001
      1.3329202692244260e-001 -5.8866622944729802e-002
      -3.5886821385395257e-001 9.0011590496859292e-002
      5.3398434978362330e-002 8.4104318894497798e-001
      4.4838441657709149e-001 1.4201136361576295e-002
      -3.2410487874893762e-001 -2.9938080682295343e-001
      2.1728438003811263e-002 3.9877559406378632e-002
      -2.2720972194245244e-002 1.8758716934978825e-001
      1.3407407933070379e-003 1.6380731626430439e-001
      -2.2732562870843742e-001 1.5843380306255309e-001
      -1.3335470803473121e-001 -1.8464710813236654e-002
      2.8452014710744616e-001 -5.3711893166047520e-001
      -1.2520798080549203e-001 -3.7483061870639245e-001
      4.4789313252373664e-001 4.1448526964400045e-001
      -1.9460927913364021e-001 -3.8118177855467600e-001
      2.2058387879201995e-002 1.1422955453599094e-001
      -7.8736024767023252e-002 -1.1233861314463738e-001
      -5.7104273585720199e-002 1.1452071735582453e-001
      1.3605839962957572e-001 -4.2224055566639473e-001
      -1.2505954627830518e-001 -4.3056327074866736e-002
      1.6474913279112238e-001 -1.6459637762758082e-002
      -5.4121268544617920e-002 1.2726684006614397e-001
      -2.4344734127130874e-001 9.8335951276926608e-003
      -4.8153582077077678e-002 -5.8388661754564930e-001
      -1.8571237030561041e-001 8.7921824659133480e-002
      2.5592363381438693e-001 5.8730935478752055e-001
      3.7928742919204660e-003 6.7056381933170942e-002
      3.0898318882815756e-001 -8.6513035601100990e-002
      3.7000175484953957e-001 2.5615922550021586e-001
      -6.9024232772499694e-002 9.3384162975501256e-002
      4.3955816107151585e-001 2.4593768404009153e-001
      -2.3143064550445250e-001 -1.8425483293559280e-002
      4.1089285223561167e-001 -6.7488274863493937e-003
      -2.5196009489493177e-002 -5.4524520760943537e-002
      -6.3866295085121705e-002 -8.0827468545398906e-002
      1.5879679677055325e-001 -1.0276150149058423e-001
      -3.4405357757852945e-001 -7.8166441835750514e-002
      -1.0187802238048395e-001 2.7607506341267986e-002
      1.0229794630229773e-002 -1.6350011705067818e-001
      -3.9809238168195699e-001 2.9723191582208673e-002
      1.6169124652769215e-001 3.2897281505104481e-001
      -2.8092780195287087e-001 2.2075461020800635e-001
      2.9630996446420499e-001 -6.0843532020393602e-002
      -7.4617908469692656e-002 2.6469457479084407e-001
      -1.6589173325597684e-001 -7.3900548956543730e-002
      1.1424465445102878e-001 -1.6705117798308997e-001
      1.4701666493186827e-001 2.4629688196946359e-001
      2.9552528763115565e-001 -2.8499281344299371e-001
      2.3230079098668144e-001 -2.1833014099216549e-001
      2.3893761681701264e-001 -3.3925621657111500e-002
      -2.8567440972303359e-002 -1.6824922489432170e-001
      -2.6498826072224091e-001 -8.7876106968739554e-001
      3.5979990987164151e-001 -8.1963499733483672e-002
      -5.1200272990795078e-003 -5.6301042964197042e-003
      8.3598823202135475e-001 -1.3637548314448900e-001
      2.7912243469605375e-001 -3.7309538798796965e-001
      -2.0841790773261659e-001 -9.6068817782893701e-001
      1.5089641130860437e-001 -2.1224736574239517e-001
      1.2020703819218707e-002 -1.0558543234613636e-001
      3.4513233699093571e-001 1.2833970622228807e-002
      -3.6697487791604720e-002 5.9938715800204834e-001
      7.4801394181695652e-002 3.8008711243052468e-001
      -5.0061412424415933e-002 -4.4346761524872685e-001
      2.7604859713208257e-001 3.0685555859495278e-001
      1.1083191743411323e-002 -5.0823208547246923e-001
      3.7718535849603063e-001 -2.9841802902356340e-001
      -3.8697615805324748e-001 2.0868731039047234e-001
      1.9361534693056226e-001 9.7168974305646227e-001
      2.9555099317511679e-001 -1.7754724354424881e-002
      -5.9707934207006153e-001 7.3994601228933352e-002
      -2.7238115958947234e-001 2.0991377820804372e-001
      -5.6220978542430355e-002 3.4389810286285644e-001
      1.3665880737745958e-003 2.8971873998093084e-001
      -2.2013344580700200e-001 -8.9892445614991656e-002
      -1.2933108249018510e-001 1.5687152840807231e-001
      -2.8673560617360594e-002 -5.0775040475850486e-001
      -3.7504136233261660e-002 -1.8772352271512477e-001
      4.0193064359300634e-001 6.1365436530055706e-001
      -3.7577029955109233e-002 -2.0553339148116512e-001
      -1.2063088804230561e-001 9.5665771244026246e-004
      -1.0219378160666520e-001 -5.1476622039629838e-001
      -6.3362415932650809e-002 -9.7043365756080621e-002
      -2.0291905102626753e-001 -2.0400096155243511e-001
      -1.2662783809071840e-001 -2.4189857215783961e-001
      2.4778278675576187e-001 -8.6979725094103334e-003
      -3.8593149372661895e-002 2.1761428770644090e-001
      3.9901958752948774e-002 -3.4126719794244048e-001
      1.1906081279266696e-001 -3.6052356336184971e-001
      -6.2083688313941260e-002 -2.7638790423579462e-001
      -2.6021979994227302e+000 -2.2698336386150461e-001
      -2.2604232382438677e-001 -2.7452824529276911e-002
      2.8209880284561539e-001 -2.7102982381291368e-001
      1.3639693037811748e-001 5.5899049365710607e-001
      1.4100009663156488e-002 1.3283879156105668e-001
      2.1633908606831501e-001 -2.2722737878165877e-001
      -4.4558747749125815e-001 -1.0575896245103805e-002
      -6.1362460075143899e-002 -7.0545536617514093e-001
      3.0574939322260873e-002 2.5106406465691053e-002
      -1.9165548366844441e-002 -1.3712231406937700e-001
      -3.9100742539899691e-001 4.5165974524061382e-002
      -3.1181499591906509e-001 1.5210363167928134e-002
      -1.8050981196300667e-001 3.5280644664879046e-001
      3.5313737342336157e-002 2.1730426257553048e-001
      -2.8082686334251894e-001 -7.5052944398129068e-002
      7.2540409696737321e-002 5.6047706855428703e-001
      -1.3483730827544957e-001 -4.4669393223416828e-002
      2.9673520979138351e-001 -6.7431328674351643e-002
      -2.7371131498236850e-001 -5.3655613292893090e-002
      -8.3844301194760940e-002 -1.0348194107476829e-002
      3.4988228301388397e-001 1.7343033627029500e-001
      7.9249408137017405e-002 6.6693252620448992e-002
      6.9504633852236361e-002 -3.5614990262005382e-002
      -2.0129030515418031e-001 -2.8273347562294060e-001
      -5.2712689025408059e-003 -4.3854109789331785e-001
      9.7218941470396860e-003 -3.9921555989542647e-002
      -1.4353589254155863e-001 -3.7924336608552228e-001
      -6.1958621472872698e-002 6.4336934516697183e-002
      -1.0149511836524167e-001 4.9022937821017848e-001
      2.8737102466792341e-001 -4.7206524908798370e-001
      -1.8109470002540579e-001 -5.4391464394502720e-001
      -8.1213563767027916e-002 -6.7327421176625923e-001
      1.8706648236109413e-002 9.4962325439122332e-003
      -1.9933646017887909e-002 1.2136045410659201e-002
      -2.9150594057992740e-001 2.9564289638615782e-001
      3.4665282465147707e-001 6.8269392617086977e-001
      6.0862406272354612e-002 2.0457255352987239e-001
      4.7186208910407856e-001 -2.5728130120568743e-001
      3.1036641291369488e-001 1.3514457311880826e-001
      -3.1517183138868010e-001 -4.4335407953491984e-001
      7.9968902601935857e-002 -1.9343722966907795e-001
      -1.3943573088963207e-001 2.9126851840161400e-001
      4.5077722777339034e-002 4.6237886408297357e-001
      -2.6748680388331036e-001 2.1708892798345814e-002
      -3.8336483286865569e-001 -2.5208060839576080e-002
      -4.2770889925556094e-001 1.3974099146000224e-002
      1.3489327704028753e-001 6.2695088465431301e-002
      7.6574637542995108e-002 5.5741180708913117e-002
      4.8300159397557524e-001 -8.4034012510982609e-002
      -6.9736953621558559e-002 1.2319694461363637e-001
      -1.5249702576756100e-001 1.9258797085120463e-001
      6.3076565467453494e-001 -1.2850880374297174e-001
      2.2568316159567711e-001 5.6033005743636921e-001
      -5.2060205704020347e-002 -3.1646019158655442e-001
      -1.4165914383269812e-001 4.3041683792194467e-002
      -9.4414665767204569e-003 -3.7312328986937354e-001
      -5.9744398820505910e-002 2.6160854954982549e-001
      -5.3787048682904078e-002 3.3967830105460006e-002
      -1.7393278903802339e-001 -4.8876513509119685e-001
      2.0100926306842093e-001 1.0792851632651643e-001
      4.4072389837346944e-003 1.5769514343175015e-001
      -6.1742931125447501e-002 -2.1797407033873634e-001
      2.4054628079290183e-001 -1.5148877509279168e-001
      -8.6183849946534566e-002 1.2405446258168870e-002
      -6.5449833080700059e-001 -1.4898909314198719e-001
      -2.6798322197064040e-001 -2.4354704431478624e-001
      3.8466158995101113e-001 6.5779996582162631e-002
      -5.1670923948275847e-002 2.1940166598645064e-001
      7.2597572464752458e-002 1.4277444522893526e-001
      -7.6516490011947158e-002 -2.4960486620251726e-001
      -2.5850163584120883e-001 7.4197430148828833e-002
      -1.6044659722761107e-001 -8.9873762034356847e-002
      -1.7362008191420950e-001 1.7289735352385183e-001
      1.2880772353615258e-001 -5.8903876219389056e-002
      -4.6130023688340716e-001 -1.5473574448907407e-001
      -5.4429443066474008e-002 -1.2646950281662447e-001
      -1.1922977895713815e-001 1.4859907789285071e-001
      3.0589602671853754e-002 1.4017214443553133e-003
      -1.0253410755479583e-001 2.2320480129984097e-001
      1.8977536485142604e-001 -1.2593536014522355e-001
      -2.7910227181890190e-001 2.1669352531101696e-001
      1.0860129567881353e-001 -7.0906924338978869e-002
      -1.4318887554172977e-001 -1.4865175003962635e-002
      -1.5834990343370117e-001 1.7243715766538933e-001
      -9.5203194014465128e-002 -5.4228384100147409e-001
      -1.6484098215034278e-002 1.4002629436083715e-002
      -3.9285784287601426e-002 2.3182574424603072e-001
      -1.5077513949866928e-001 -1.0042418228132377e-002
      5.6046820253352732e-002 1.5111547945788475e-001
      6.5843401581345246e-002 7.4272073468145960e-002
      1.9550202585396709e-001 -2.2242520998846257e-001
      5.9400669468926814e-001 4.7454383174664813e-002
      4.0615662271877344e-002 3.0070168563750016e-001
      1.6735423607432670e-001 -1.5254348615661711e-001
      6.1197682387898231e-002 -6.9306440434227096e-002
      -3.4165064876288365e-001 -2.4525117176508490e-001
      -3.4523272415720740e-001 -2.8337166344776810e-001
      1.6743028886602465e-001 -4.4240550520952783e-003
      -2.4630213404498513e-001 -1.7380005718841762e-001
      -1.2979979608682876e-001 5.6811431105536470e-001
      1.3873692111761893e-001 3.3393618962111332e-001
      3.4251397706769854e-001 -1.9908676961538685e-001
      4.5821987978054306e-002 -1.9116563865401470e-001
      -1.5950957839300287e-001 -1.2629973656846574e-001
      -2.3155589594101367e-001 3.4921792284456388e-001
      2.2074571264138518e-001 6.4246372708186034e-002
      -4.4772581222983804e-002 6.5516501438196914e-002
      -2.9514748155889453e-001 5.7223298866647523e-002
      4.0632073505479399e-002 -2.1833736135698897e-001
      -3.2518305384125729e-001 -2.5383932382358798e-001
      2.5589534647310791e-001 3.9991527515091418e-001
      3.6278442641926950e-002 -2.8865270019013167e-001
      1.9760474894086694e-001 3.0860367840048527e-002
      2.3171143858775216e-002 1.5057452573051067e-001
      -3.0995114467166435e-001 -9.2295710329061809e-002
      1.5524689499436581e-001 -4.6764938148840340e-001
      3.9319867233195605e-001 3.5045736500378361e-001
      -4.6610115433319516e-001 -4.5227502025933480e-001
      -1.7026050359736652e-001 -1.4472193678815604e-001
      9.5842052080185262e-003 2.1249830474840098e-001
      -6.0637948713389907e-002 3.5498520657686147e-002
      2.3931763750531776e-001 -4.3557044506854187e-002
      -4.5216330412361155e-001 -2.8102089307851941e-001
      3.5484048820538822e-002 3.1082909385538177e-001
      -1.1219810547181563e-001 1.8878554180579812e-001
      1.2297205872907790e-001 2.2281411580056246e-001
      9.9761862057771405e-002 -8.4260265211429097e-002
      3.0765881839035569e-002 2.9259249220012412e-001
      -1.3577913792205509e+000 3.4274332197330015e-001
      -5.6505014058211359e-002 2.3700205497012353e-001
      3.3073200049146928e-001 -6.4699619116520612e-002
      -2.5180534147231282e-001 4.4811356615037830e-003
      -2.4887013303996092e-002 1.0317172729329853e-001
      2.3224699228347881e-001 -1.9562549684839506e-001
      -1.0729794399620736e-001 -2.0413221285600905e-001
      -3.0798660179730275e-001 -2.8625578127592871e-001
      -2.9162176985534538e-001 1.2912030104896688e-001
      4.0868238942971979e-001 2.3494690396087273e-002
      -2.5773235389399463e-001 -2.3434841924871644e-001
      1.4956452897697306e-001 -4.1204964957830914e-001
      -1.7302382739379291e-001 3.8695718035984053e-003
      -7.3355399676088062e-002 -1.1521650773262214e-001
      1.4399091451605300e-001 1.0127539367150906e-001
      -2.3455461599715111e-001 -1.5682904760418478e-001
      -3.1895906014638015e-002 9.9109160505218910e-002
      -1.0755179340907889e-001 4.7427210667016301e-002
      2.9438902500899478e-001 1.7411416271765914e-001
      -2.3491239127122701e-001 1.9033211903350172e-001
      -1.2101451563286802e-001 -2.7954126631198711e-001
      -2.4069152072224539e-001 2.8213034384216289e-002
      1.6473118220534505e-001 3.1957300484431204e-002
      -2.9543509149267400e-001 1.3928016007740460e-001
      1.5625369456254434e-001 6.6280139135104929e-002
      1.3683651239110020e-001 -1.9089709622996023e-002
      2.0371853467725562e-001 -4.4062925915663680e-002
      3.5463276213569433e-001 2.5660261316839705e-003
      2.1167007737622801e-001 2.3230582961639190e-001
      -5.3012096250428790e-002 1.9255224072117946e-001
      8.1933496962461466e-002 -5.5281926575889739e-001
      -3.5405189604380749e-001 -1.5087642909086371e-001
      -2.7722545988730446e-001 -6.4575103543595205e-002
      1.3792361284559015e-001 -3.2695594001661005e-001
      -3.0609184031299208e-001 -1.5161035991033784e-002
      -3.7890170948651986e-001 1.9173054637031139e-001
      1.9469208263748743e-002 4.4577848590515412e-001
      1.1625032910933682e-001 -1.1307172620146763e-001
      1.7761242190689563e-001 -1.2827911399006941e-002
      -4.0575413936370756e-002 4.8749522218595109e-003
      -3.4054021177474691e-001 1.2426362751515474e-001
      2.5713830768155183e-001 3.2173096549557895e-001
      3.5427603532619839e-002 7.0787643864632266e-002
      -8.9415918381615375e-002 -2.3526827925591878e-001
      -2.1012894507242424e-001 -3.0953909521375778e-001
      2.1508757039737983e-001 -2.1315023091898536e-001
      -4.8274520160824320e-002 1.2824905713547857e-001
      4.0455611994525803e-001 -7.5583343731444999e-002
      1.0298442666578314e-001 -9.4038448267502267e-002
      1.1707971580175755e-001 -5.2344786991575659e-002
      1.4587385118769447e-004 -7.3452568860450831e-002
      -1.1481281211554716e-001 -4.8520428284438031e-003
      2.6948062875982415e-001 2.8067564470576473e-001
      -1.1203296780868748e-002 -3.3934753344562424e-001
      -1.7295267905745473e-001 -8.4151556145020318e-002
      -8.7605411584205248e-002 4.5187757571661324e-001
      -5.2629123870446472e-002 -1.5365995135138202e-001
      2.2190765368742271e-001 3.6777007859246799e-002
      2.5793346728096722e-001 3.9494969826536760e-002
      1.7992744578495968e-002 2.3466847326560272e-001
      3.9718737251646395e-002 1.9538636856983796e-001
      6.6848406513680403e-002 1.5114418586407041e-001
      1.6658828903671175e-001 4.2743503135964744e-001
      3.3217928674080349e-001 3.3119921383090828e-001
      -4.7971339130070811e+000 6.2324934805062807e-002
      1.0676009393814116e-001 -8.4302666342579158e-002
      3.6067493808311374e-001 -1.8218644312874466e-001
      -1.1619441994489933e-001 2.8632466074485319e-001
      1.0197097940558905e-001 1.9383916525078268e-001
      7.0139442787363962e-002 -3.3931654401980782e-001
      5.2247742740601975e-002 -9.8306646178297430e-002
      -5.6394074276726047e-001 -1.0436225358481969e-001
      -3.6610217236350663e-003 -1.5674380249851329e-002
      4.9267864585270660e-001 -1.4367438806601721e-001
      -1.5208800265922973e-001 -5.5098278288092617e-001
      1.4588003366722371e-001 -2.4856173860370961e-001
      -3.5686323690668020e-001 -1.7679644912339207e-001
      -1.0341170223686406e-001 9.1985288465607759e-002
      6.7931215873854742e-002 4.6589350373323268e-001
      -8.3661577564922332e-002 -4.1543052106217082e-001
      1.4747966644810254e-001 4.3702179786053186e-001
      -3.3282518707677185e-002 -2.7633241812192422e-001
      3.3034030537572973e-001 1.9824124334565354e-001
      -4.2842205611665979e-001 -2.4061009154184416e-002
      -1.4163611552563504e-001 -3.0402236800987914e-001
      -5.1968734258277811e-002 -9.6662121178087201e-002
      -3.3286390709347213e-001 -2.5179129797570511e-002
      -4.6980044100562529e-002 2.4564148170553479e-002
      -2.3523960109780598e-002 -1.7602515601155144e-001
      2.6539961558510594e-001 -4.6548220275387089e-002
      1.6920548843311442e-001 1.9342268078014335e-001
      6.3919356367622504e-001 -8.3236328881416716e-002
      2.7116795517016684e-001 3.3827493594033320e-001
      -3.0622663283327395e-001 3.1531292163625635e-001
      1.1527688541676155e-001 -6.7317763921234741e-001
      -6.2155159847934938e-001 -2.2142852073628136e-001
      -1.2825735808373132e-001 9.8247805942241737e-002
      4.9282066860872609e-001 -3.3388664200619333e-001
      -4.4101711292188228e-001 -1.6481576999150521e-001
      -5.4387667543664597e-001 1.3147564985755009e-001
      -5.6512937506527873e-003 1.3244644458755125e-001
      3.0050754531295243e-001 2.7606997671482925e-001
      -1.0924510796974178e-001 -1.8106818130797001e-001
      3.2347529496206191e-003 1.9014474813701288e-001
      -2.4941183932068697e-001 2.7858838112119177e-001
      -1.8211530826542804e-001 3.6909579435940604e-001
      -1.0565580283462420e-001 -2.7708546354314284e-001
      -4.8310621697214789e-001 -4.0765033295018865e-001
      -3.7231358710241425e-001 -3.2469794511942685e-001
      -2.7035512028986119e-001 -1.6149280668232999e-001
      1.2682044717679336e-001 -1.0452558183630520e-001
      3.1397577576732189e-001 8.8473961864538805e-003
      2.0513908021309948e-001 -1.0335916339844280e-001
      2.0174585263660949e-001 2.0564398264966327e-001
      -1.0919523817841756e-001 -2.5133515122538613e-002
      1.0383426228527713e-001 -3.8062313606054832e-002
      1.9395216636017429e-001 4.4093215981696632e-001
      -1.3443697360759416e-001 -4.3236386326535203e-001
      -3.0216318291252214e-001 4.3167327137258781e-003
      3.2355486473920565e-002 3.8063998147215106e-001
      1.2678779657376920e-002 -2.3507477323154538e-001
      5.2318266467720496e-002 1.0979837195630059e-001
      2.8069221615808659e-002 2.4779110002313955e-002
      1.0125904312455820e-001 -7.8255102821601488e-002
      3.9693301227057698e-001 8.0429192162236471e-002
      2.9006450457623650e-002 -5.7833451835334754e-002
      1.8732028738911483e-001 6.1634326009180340e-001
      2.2002376983837810e-001 4.9438575036486404e-001
      -3.5735999632298192e+000 1.5190521794650622e-001
      4.0378086048158712e-001 -1.2768843573272676e-001
      3.5840842685094193e-001 7.8096868622942503e-002
      -1.9743560007588623e-001 1.6551570674057550e-001
      2.2172225299289688e-001 3.0989198182094790e-001
      -1.5695712336800643e-001 -3.1436889236152082e-001
      1.9247528384365449e-002 -2.7513883727995136e-002
      -4.5905613389313593e-001 -4.4504989875313100e-001
      -1.3143492268663121e-001 3.4944832572348145e-001
      6.1366296705559531e-001 -1.1631672557093971e-001
      -1.5881882262856697e-001 -4.2191622176782917e-001
      1.7665769290836650e-001 -2.9876380291521293e-001
      -1.5198778800750523e-001 -1.2815007273117571e-001
      -2.2940951584872962e-001 -6.0087479561684518e-002
      2.4605380396341262e-001 1.8943071628196775e-001
      -3.2718494787248814e-001 -5.3557893712384508e-001
      1.5479366335663231e-001 3.7389858232593615e-001
      -9.8835696583569582e-002 -2.0350925415458271e-001
      3.3800004168431430e-001 2.0715917195558692e-001
      -2.8332178484598985e-001 9.2071853173383039e-002
      -5.7423293564537868e-002 -2.5129089742186972e-001
      7.6755905060832574e-002 7.5089260300918656e-002
      -1.8042125978464205e-001 -1.5409612807719031e-001
      -2.1973554843620069e-003 1.2008994144327409e-001
      -3.1243144527723789e-002 -6.0834007817072488e-002
      2.6935439498910384e-002 6.7669568333945723e-003
      2.3288659415645235e-001 4.7550314759079498e-001
      7.6978343608052746e-001 2.8855692784279234e-002
      1.4161764782541172e-001 2.9746120576484603e-001
      -3.8742209169129438e-001 2.6333663951040004e-001
      -9.9832437845304461e-002 -6.9625777327191973e-001
      -5.0045962818042522e-001 -1.4988609316489160e-001
      -1.7917352578836776e-001 2.1258671052695660e-001
      9.6728203709033470e-002 -3.3493891099373591e-001
      -3.4950053205769221e-001 -2.0366803914513376e-001
      -4.9534079412792059e-001 -3.0770578754044067e-003
      -5.4483230230421439e-002 3.0069669275720912e-001
      2.8459978582328210e-001 4.4299113965948939e-001
      8.7286656121293077e-002 -2.4909498778419925e-001
      1.6398014304049812e-002 1.5531872577622169e-001
      -4.0333398810281446e-001 2.3512283935324393e-001
      8.3374390655548108e-002 4.4204862400086675e-001
      -1.5783091624183662e-001 -3.7815906694453660e-001
      -2.2840619263265183e-001 -4.6977900715917542e-001
      -2.9359370021296027e-001 -3.8688930053032511e-001
      -1.0366414581457276e-001 3.4251859499340344e-004
      1.8633015945260781e-001 -5.1993122696649552e-001
      3.1420522414377616e-001 2.5462271544210976e-002
      1.6132123519694297e-001 5.2005955883457355e-002
      1.6995743684507397e-001 -2.2543600281087622e-002
      -8.8516998967737404e-002 -1.2031853850034158e-001
      -1.1173418196243151e-001 4.1090422235126045e-002
      2.2951044964016182e-001 2.2064220361470918e-001
      -4.9592867288728609e-002 -3.9653553983059653e-001
      5.9764404331887212e-002 1.0333538420957117e-001
      -9.0629565521467836e-002 3.6187731356977992e-001
      4.4165989864942998e-005 -1.3039113245228304e-001
      1.0021187737487675e-001 2.4129727439144583e-001
      4.0893045792964051e-002 2.2956305614556119e-001
      2.3146730004681518e-001 3.3304147331231278e-002
      1.7381122293695747e-001 -1.7698495854315256e-002
      3.1685833457333876e-002 1.9263865419917542e-001
      2.6467520168430830e-001 6.8154097596246477e-001
      1.7274914906535410e-001 5.5738338654873310e-001
      -1.8285208758923135e+000 6.0330863232779100e-002
      4.7333721596874523e-001 9.3541255450217322e-003
      3.5211032279557347e-001 9.5479517559266869e-002
      -1.9823570369314758e-001 -4.3191203304532848e-002
      1.2658842812588308e-001 7.3704786788550344e-002
      1.3946362155268066e-002 -1.7549441286323519e-001
      1.5854239263027689e-001 1.9848335351561820e-002
      -4.4207992830202941e-001 -5.2940575627769861e-002
      -9.5569007145235724e-003 1.1350058313831859e-001
      4.3083139029467499e-001 -9.7933276814806722e-002
      -3.3036737739082267e-001 -5.1792990030021913e-001
      1.8447574223484875e-001 -2.5898574430890142e-001
      -1.0228368556548477e-001 -1.8007136193989226e-001
      -2.6954903875611630e-001 -2.0351219339001952e-001
      4.0104134089852744e-001 2.0368885166504935e-001
      -3.9905688988740146e-001 -2.7842396483631626e-001
      -2.6861819437235916e-002 2.2990068636397770e-001
      2.0674753936306182e-002 -2.4766402654645922e-001
      3.9942574344689680e-001 2.1808876120885173e-001
      -1.4315522369319481e-001 2.0124419085641315e-002
      7.5873864957371334e-002 -3.8122479184955221e-001
      4.2765049257258221e-002 9.1525392945564957e-002
      -2.4650245160166263e-002 -3.3217792167574156e-001
