<?xml version="1.0"?>
<opencv_storage>
<DigitOCR type_id="opencv-ml-ann-mlp">
  <layer_sizes type_id="opencv-matrix">
    <rows>1</rows>
    <cols>3</cols>
    <dt>i</dt>
    <data>
      256 16 36</data></layer_sizes>
  <activation_function>SIGMOID_SYM</activation_function>
  <f_param1>5.9999999999999998e-001</f_param1>
  <f_param2>1.</f_param2>
  <min_val>-9.4999999999999996e-001</min_val>
  <max_val>9.4999999999999996e-001</max_val>
  <min_val1>-9.7999999999999998e-001</min_val1>
  <max_val1>9.7999999999999998e-001</max_val1>
  <training_params>
    <train_method>BACKPROP</train_method>
    <dw_scale>1.0000000000000001e-001</dw_scale>
    <moment_scale>1.0000000000000001e-001</moment_scale>
    <term_criteria><epsilon>9.9999999747524271e-007</epsilon>
      <iterations>1000</iterations></term_criteria></training_params>
  <input_scale>
    2.0255508704543432e+000 -1.1731315458048073e+000
    2.0003781936655494e+000 -9.8074097550547068e-001
    2.0019782398505810e+000 -9.5650071459527763e-001
    2.0323743847971523e+000 -1.1968426932694340e+000
    2.1497230917000558e+000 -1.4689774459950382e+000
    2.1024339907455851e+000 -1.3753422356127369e+000
    2.0255508704543432e+000 -1.1731315458048073e+000
    2.0022336746840801e+000 -9.5384187557866584e-001
    2.0323743847971523e+000 -8.3553169152771811e-001
    2.0334196844627326e+000 -8.3313723182848065e-001
    2.0034114866490342e+000 -9.4327290829725363e-001
    2.0106477021835558e+000 -1.1086488024539884e+000
    2.0625716183134752e+000 -1.2833778958394957e+000
    2.0890725544918336e+000 -1.3462912017836262e+000
    2.0768088325380374e+000 -1.3181967173192819e+000
    2.0274130477972609e+000 -1.1798417597597950e+000
    2.0000308649119982e+000 -1.0055710737474213e+000
    2.0124611797498106e+000 -8.9442719099991574e-001
    2.0377802831623897e+000 -8.2360286444479913e-001
    2.0060769680867092e+000 -9.2502437972887153e-001
    2.0000308649119982e+000 -9.9445979116457695e-001
    2.0089798716184055e+000 -9.0962144187166694e-001
    2.0106477021835558e+000 -9.0199889972956748e-001
    2.0187876902331596e+000 -8.7200412730904542e-001
    2.0581932237454543e+000 -7.8611546740277760e-001
    2.0581932237454543e+000 -7.8611546740277760e-001
    2.0640712300337918e+000 -7.7689347685994103e-001
    2.0461152006655503e+000 -8.0707877359585589e-001
    2.0355639399803365e+000 -8.2836143668644246e-001
    2.0106477021835558e+000 -9.0199889972956748e-001
    2.0017383749479176e+000 -1.0425720702853738e+000
    2.0037450608097829e+000 -1.0630980739296347e+000
    2.0130982374144555e+000 -1.1211838794488842e+000
    2.0009342962498806e+000 -9.6989731859890049e-001
    2.0927756800416382e+000 -7.3828475379246683e-001
    2.0985011634707558e+000 -7.3156082226549957e-001
    2.0100756305184242e+000 -9.0453403373329089e-001
    2.0246457179963140e+000 -1.1697953037312034e+000
    2.0526320231631421e+000 -1.2572371141874246e+000
    2.0802038699693752e+000 -1.3261299671054767e+000
    2.0751433915982238e+000 -1.3142574813455417e+000
    2.0702736985705728e+000 -1.3025472020173186e+000
    2.0255508704543432e+000 -1.1731315458048073e+000
    2.0052365438640289e+000 -1.0750295915715489e+000
    2.0069808240170177e+000 -9.1986621100779975e-001
    2.0313468644761024e+000 -8.3793058159639222e-001
    2.0313468644761024e+000 -8.3793058159639222e-001
    2.0000694480615522e+000 -1.0083683467310325e+000
    2.0473804886517790e+000 -1.2426462132511491e+000
    2.0015140632358546e+000 -1.0396753606252913e+000
    2.0596327347520300e+000 -7.8380467961396694e-001
    2.0019782398505810e+000 -9.5650071459527763e-001
    2.1422594975679128e+000 -1.4549512420982076e+000
    2.4871393708459388e+000 -1.9828027762021792e+000
    3.1150447899069897e+000 -2.7516228977511741e+000
    2.9548176540052440e+000 -2.5649458802128855e+000
    2.5476392751379486e+000 -2.0628801352853112e+000
    2.5065511479219302e+000 -2.0087222393763247e+000
    2.6744002247305212e+000 -2.2249524091855308e+000
    2.4745921125725192e+000 -1.9659259560992790e+000
    2.0946612353844967e+000 -1.3586205512841112e+000
    2.0027913265999242e+000 -1.0542471010852379e+000
    2.0124611797498106e+000 -8.9442719099991574e-001
    2.0027913265999242e+000 -9.4854422551468631e-001
    2.0303370459091501e+000 -1.1900031019078630e+000
    2.0027913265999242e+000 -9.4854422551468631e-001
    2.0486647128800892e+000 -8.0239367921136828e-001
    2.0025046972870353e+000 -1.0513149660756935e+000
    2.2805945841715687e+000 -1.6882734907825641e+000
    2.5476392751379486e+000 -2.0628801352853112e+000
    2.6744002247305212e+000 -2.2249524091855308e+000
    2.8446279355845627e+000 -2.4337372337779035e+000
    2.5405717282552129e+000 -2.0536288136729639e+000
    2.5065511479219302e+000 -2.0087222393763247e+000
    2.6832815729997481e+000 -2.2360679774997902e+000
    2.4745921125725192e+000 -1.9659259560992790e+000
    2.2126734601347517e+000 -1.5796029979295312e+000
    2.0283702113484399e+000 -1.1832159566199234e+000
    2.0002778356615476e+000 -9.8346993586692755e-001
    2.0030935826687659e+000 -9.4590530292691721e-001
    2.0112359560357778e+000 -1.1117665423642216e+000
    2.0106477021835558e+000 -9.0199889972956748e-001
    2.0461152006655503e+000 -8.0707877359585589e-001
    2.0027913265999242e+000 -1.0542471010852379e+000
    2.3594639418958430e+000 -1.8056453222008464e+000
    2.4000133334444453e+000 -1.8633436852714513e+000
    2.4162162186675351e+000 -1.8859909929043817e+000
    2.5267046628369472e+000 -2.0354009783964297e+000
    2.6400916714412483e+000 -2.1817424229271425e+000
    2.6484911372663476e+000 -2.1923621080704763e+000
    2.7296432385653420e+000 -2.2936585546278221e+000
    2.3498939817841862e+000 -1.7917941611104418e+000
    2.2466675742712399e+000 -1.6350747346085135e+000
    2.0854589981249125e+000 -1.3381695237968190e+000
    2.0027913265999242e+000 -1.0542471010852379e+000
    2.0002778356615476e+000 -9.8346993586692755e-001
    2.0000308649119982e+000 -9.9445979116457695e-001
    2.0144214731957750e+000 -8.8690500972647313e-001
    2.0553734807528872e+000 -7.9074785301187467e-001
    2.0040943285380002e+000 -1.0660668442084085e+000
    2.2502747085047776e+000 -1.6408253082847335e+000
    2.1627278387460156e+000 -1.4928829664677357e+000
    2.2126734601347517e+000 -1.5796029979295312e+000
    2.3268946049775860e+000 -1.7580981459830649e+000
    2.4445293254085634e+000 -1.9250668437592435e+000
    2.4745921125725192e+000 -1.9659259560992790e+000
    2.3268946049775860e+000 -1.7580981459830649e+000
    2.2258296937557809e+000 -1.6013608074520758e+000
    2.1350420507344952e+000 -1.4411533842457844e+000
    2.1024339907455851e+000 -1.3753422356127369e+000
    2.0106477021835558e+000 -1.1086488024539884e+000
    2.0030935826687659e+000 -1.0571882797418488e+000
    2.0015140632358550e+000 -9.6183870261056370e-001
    2.0106477021835558e+000 -9.0199889972956748e-001
    2.0255508704543432e+000 -8.5241932464953607e-001
    2.0009342962498806e+000 -1.0310369776509800e+000
    2.1213203435596424e+000 -1.4142135623730949e+000
    2.1793081198044306e+000 -1.5224888670300396e+000
    2.1044356809523004e+000 -1.3795745019576191e+000
    2.1044356809523004e+000 -1.3795745019576191e+000
    2.1105840385751740e+000 -1.3923991921155661e+000
    2.1085105193156695e+000 -1.3881027585494823e+000
    2.0768088325380374e+000 -1.3181967173192819e+000
    2.0389156984389563e+000 -1.2176857643454877e+000
    2.0553734807528876e+000 -1.2646256277410128e+000
    2.0499679744435753e+000 -1.2499110288621245e+000
    2.0512903762734829e+000 -1.2535663410560174e+000
    2.0486647128800892e+000 -1.2462710336687208e+000
    2.0015140632358550e+000 -9.6183870261056370e-001
    2.0106477021835558e+000 -9.0199889972956748e-001
    2.0089798716184055e+000 -9.0962144187166694e-001
    2.0144214731957750e+000 -1.1275164634693018e+000
    2.0909128409713542e+000 -1.3503812097939998e+000
    2.1548388771569700e+000 -1.4784588962715877e+000
    2.1909815228194218e+000 -1.5428161556520097e+000
    2.0854589981249125e+000 -1.3381695237968190e+000
    2.0366630588567514e+000 -1.2106830405426243e+000
    2.0195737684315720e+000 -1.1500350625790896e+000
    2.0124611797498106e+000 -1.1180339887498949e+000
    2.0112359560357778e+000 -1.1117665423642216e+000
    2.0137516528896082e+000 -1.1243446728633646e+000
    2.0255508704543432e+000 -1.1731315458048073e+000
    2.0625716183134752e+000 -1.2833778958394957e+000
    2.0640712300337918e+000 -1.2871777531738506e+000
    2.0052365438640289e+000 -9.3020695229248018e-001
    2.0137516528896082e+000 -8.8940698002624363e-001
    2.0069808240170177e+000 -9.1986621100779975e-001
    2.0130982374144555e+000 -1.1211838794488842e+000
    2.1422594975679128e+000 -1.4549512420982076e+000
    2.2689125699877164e+000 -1.6701717529076248e+000
    2.2031745354152461e+000 -1.5636419272183206e+000
    2.1398266546446330e+000 -1.4503269548146958e+000
    2.0303370459091501e+000 -1.1900031019078630e+000
    2.0130982374144555e+000 -1.1211838794488842e+000
    2.0264732908534504e+000 -1.1764803271899200e+000
    2.0539930217924440e+000 -1.2609234939336948e+000
    2.0264732908534504e+000 -1.1764803271899200e+000
    2.0180183819889375e+000 -1.1435437497937313e+000
    2.0195737684315720e+000 -1.1500350625790896e+000
    2.0220332038130637e+000 -1.1598607127427711e+000
    2.0060769680867092e+000 -9.2502437972887153e-001
    2.0228869496966944e+000 -8.5972695362109508e-001
    2.0079483671392206e+000 -9.1473203391897828e-001
    2.0436410380978662e+000 -1.2318614035201025e+000
    2.5065511479219302e+000 -2.0087222393763247e+000
    2.4330017619205337e+000 -1.9092305492848634e+000
    2.3051480652181437e+000 -1.7256594543785826e+000
    2.1398266546446330e+000 -1.4503269548146958e+000
    2.0526320231631421e+000 -1.2572371141874246e+000
    2.0473804886517790e+000 -1.2426462132511491e+000
    2.1044356809523004e+000 -1.3795745019576191e+000
    2.1850811846610529e+000 -1.5325916642414328e+000
    2.1880152838803895e+000 -1.5376885189492735e+000
    2.0702736985705728e+000 -1.3025472020173186e+000
    2.0095197002048022e+000 -1.1024448355290235e+000
    2.0001234682224838e+000 -9.8894993706556145e-001
    2.0000077160940362e+000 -1.0027816465415931e+000
    2.0195737684315720e+000 -8.6953870585248239e-001
    2.0118404341301761e+000 -8.9694552688303686e-001
    2.0461152006655503e+000 -1.2390364270696943e+000
    2.5335940480143480e+000 -2.0444696415226891e+000
    2.4684327972182336e+000 -1.9576043433494601e+000
    2.4217453404164027e+000 -1.8936703147978260e+000
    2.2395700438234174e+000 -1.6236882817719775e+000
    2.1654159821552450e+000 -1.4977460543240444e+000
    2.1191232600366283e+000 -1.4098056132743679e+000
    2.2126734601347517e+000 -1.5796029979295312e+000
    2.2224868802413327e+000 -1.5958690515066236e+000
    2.2689125699877164e+000 -1.6701717529076248e+000
    2.1600691233179368e+000 -1.4880476182856897e+000
    2.0112359560357778e+000 -1.1117665423642216e+000
    2.0003781936655494e+000 -9.8074097550547068e-001
    2.0144214731957750e+000 -1.1275164634693018e+000
    2.0013052890692888e+000 -9.6451796570422677e-001
    2.0079483671392206e+000 -9.1473203391897828e-001
    2.0313468644761024e+000 -1.1934162828797101e+000
    2.4162162186675351e+000 -1.8859909929043817e+000
    2.5199020407122137e+000 -2.0264212244060720e+000
    2.5199020407122137e+000 -2.0264212244060720e+000
    2.5000000000000004e+000 -2.0000000000000004e+000
    2.3268946049775860e+000 -1.7580981459830649e+000
    2.2967821734795018e+000 -1.7130167043867950e+000
    2.2466675742712399e+000 -1.6350747346085135e+000
    2.1447196874441974e+000 -1.4596008983995232e+000
    2.1764685253375826e+000 -1.5174822218325923e+000
    2.1044356809523004e+000 -1.3795745019576191e+000
    2.0246457179963140e+000 -1.1697953037312034e+000
    2.0002778356615476e+000 -1.0168078997946199e+000
    2.0448687496430638e+000 -1.2354415362426843e+000
    2.0030935826687659e+000 -1.0571882797418488e+000
    2.0237577663201352e+000 -8.5728627601061280e-001
    2.0037450608097829e+000 -1.0630980739296347e+000
    2.2159091530065949e+000 -1.5849905747199950e+000
    2.5620504608813941e+000 -2.0816659994661326e+000
    2.7692512519341221e+000 -2.3423250172609449e+000
    2.8333504132845855e+000 -2.4201534780139164e+000
    2.6922896381805295e+000 -2.2473139896479144e+000
    2.6484911372663476e+000 -2.1923621080704763e+000
    2.4684327972182336e+000 -1.9576043433494601e+000
    2.2191801643659272e+000 -1.5904124511289146e+000
    2.1004558775696816e+000 -1.3711309200802089e+000
    2.0366630588567514e+000 -1.2106830405426243e+000
    2.0019782398505810e+000 -1.0454775252553035e+000
    2.0015140632358546e+000 -1.0396753606252913e+000
    2.0124611797498106e+000 -1.1180339887498949e+000 2. -1.
    2.0313468644761024e+000 -8.3793058159639222e-001
    2.0048400438621417e+000 -9.3280752040807979e-001
    2.0412414523193152e+000 -1.2247448713915892e+000
    2.1350420507344952e+000 -1.4411533842457844e+000
    2.3094010767585034e+000 -1.7320508075688776e+000
    2.5693974527771548e+000 -2.0912040379547401e+000
    2.4563366577929258e+000 -1.9411882753946872e+000
    2.3792716660637261e+000 -1.8340219092574557e+000
    2.2766577899827571e+000 -1.6821971448205928e+000
    2.1350420507344952e+000 -1.4411533842457844e+000
    2.0056488422556007e+000 -1.0780362527123852e+000
    2.0017383749479176e+000 -9.5916630466254393e-001
    2.0056488422556007e+000 -9.2761258954321535e-001
    2.0124611797498106e+000 -1.1180339887498949e+000
    2.0089798716184055e+000 -1.0993584297467387e+000
    2.0007720517562220e+000 -9.7259752515927456e-001
    2.0060769680867092e+000 -9.2502437972887153e-001
    2.0001929291472198e+000 -9.8620623589897649e-001
    2.0013052890692888e+000 -1.0367873233650622e+000
    2.0000077160940362e+000 -1.0027816465415931e+000
    2.0000694480615522e+000 -1.0083683467310325e+000
    2.0013052890692888e+000 -1.0367873233650622e+000
    2.0001929291472198e+000 -9.8620623589897649e-001
    2.0022336746840801e+000 -9.5384187557866584e-001
    2.0000694480615522e+000 -9.9170110133051970e-001
    2.0007720517562220e+000 -9.7259752515927456e-001
    2.0106477021835558e+000 -9.0199889972956748e-001
    2.0144214731957750e+000 -8.8690500972647313e-001
    2.0040943285379997e+000 -9.3802748432959160e-001
    2.0124611797498106e+000 -1.1180339887498949e+000</input_scale>
  <output_scale>
    227158990. -2.1580103950000000e+008 227158990.
    -2.1580103950000000e+008 227158990. -2.1580103950000000e+008
    227158990. -2.1580103950000000e+008 227158990.
    -2.1580103950000000e+008 227158990. -2.1580103950000000e+008
    227158990. -2.1580103950000000e+008 227158990.
    -2.1580103950000000e+008 227158990. -2.1580103950000000e+008
    227158990. -2.1580103950000000e+008 227158990.
    -2.1580103950000000e+008 227158990. -2.1580103950000000e+008
    227158990. -2.1580103950000000e+008 227158990.
    -2.1580103950000000e+008 227158990. -2.1580103950000000e+008
    227158990. -2.1580103950000000e+008 227158990.
    -2.1580103950000000e+008 227158990. -2.1580103950000000e+008
    227158990. -2.1580103950000000e+008 227158990.
    -2.1580103950000000e+008 227158990. -2.1580103950000000e+008
    227158990. -2.1580103950000000e+008 227158990.
    -2.1580103950000000e+008 227158990. -2.1580103950000000e+008
    227158990. -2.1580103950000000e+008 227158990.
    -2.1580103950000000e+008 227158990. -2.1580103950000000e+008
    227158990. -2.1580103950000000e+008 227158990.
    -2.1580103950000000e+008 227158990. -2.1580103950000000e+008
    227158990. -2.1580103950000000e+008 227158990.
    -2.1580103950000000e+008 227158990. -2.1580103950000000e+008
    227158990. -2.1580103950000000e+008 227158990.
    -2.1580103950000000e+008 227158990. -2.1580103950000000e+008</output_scale>
  <inv_output_scale>
    4.4022030561062097e-009 9.4999999559779691e-001
    4.4022030561062097e-009 9.4999999559779691e-001
    4.4022030561062097e-009 9.4999999559779691e-001
    4.4022030561062097e-009 9.4999999559779691e-001
    4.4022030561062097e-009 9.4999999559779691e-001
    4.4022030561062097e-009 9.4999999559779691e-001
    4.4022030561062097e-009 9.4999999559779691e-001
    4.4022030561062097e-009 9.4999999559779691e-001
    4.4022030561062097e-009 9.4999999559779691e-001
    4.4022030561062097e-009 9.4999999559779691e-001
    4.4022030561062097e-009 9.4999999559779691e-001
    4.4022030561062097e-009 9.4999999559779691e-001
    4.4022030561062097e-009 9.4999999559779691e-001
    4.4022030561062097e-009 9.4999999559779691e-001
    4.4022030561062097e-009 9.4999999559779691e-001
    4.4022030561062097e-009 9.4999999559779691e-001
    4.4022030561062097e-009 9.4999999559779691e-001
    4.4022030561062097e-009 9.4999999559779691e-001
    4.4022030561062097e-009 9.4999999559779691e-001
    4.4022030561062097e-009 9.4999999559779691e-001
    4.4022030561062097e-009 9.4999999559779691e-001
    4.4022030561062097e-009 9.4999999559779691e-001
    4.4022030561062097e-009 9.4999999559779691e-001
    4.4022030561062097e-009 9.4999999559779691e-001
    4.4022030561062097e-009 9.4999999559779691e-001
    4.4022030561062097e-009 9.4999999559779691e-001
    4.4022030561062097e-009 9.4999999559779691e-001
    4.4022030561062097e-009 9.4999999559779691e-001
    4.4022030561062097e-009 9.4999999559779691e-001
    4.4022030561062097e-009 9.4999999559779691e-001
    4.4022030561062097e-009 9.4999999559779691e-001
    4.4022030561062097e-009 9.4999999559779691e-001
    4.4022030561062097e-009 9.4999999559779691e-001
    4.4022030561062097e-009 9.4999999559779691e-001
    4.4022030561062097e-009 9.4999999559779691e-001
    4.4022030561062097e-009 9.4999999559779691e-001</inv_output_scale>
  <weights>
    <_>
      -4.9936397904950304e+001 -3.1361059111319878e-001
      2.6021867737150439e-001 1.8534792540102760e-001
      -9.7677830723967130e-002 7.0097573533308019e-002
      2.5664913013256402e-001 -5.5610703618803969e-001
      2.0950175287271733e-001 -5.6564791753119359e-001
      -3.4772404826308773e-001 -7.5107656066265738e-001
      2.6559071284263331e+000 -2.0346176769757648e-001
      8.2799595907227325e-002 -6.0097827728075326e-001
      -5.4689694912223032e+001 -1.0555178212187177e+000
      2.9657334495397308e-001 -3.5674222536810540e-001
      4.9079243149747132e-001 6.8537414637903282e-001
      -3.4453626113090136e-001 -2.7548569712808341e-001
      -2.8397849799521735e-001 -1.2855972451471818e+000
      9.7393096347609467e-002 -6.3331134845792525e-001
      2.7397287450429832e+000 -4.4143548031298085e-001
      -2.8473975608624824e-001 1.4612985760530267e-001
      -6.0970101841985432e+001 1.5308692682004901e-001
      2.4255039248834659e-001 1.1121274562820642e+000
      3.3169936947829165e-001 4.0136354444052963e-001
      -5.8213744305077542e-001 3.1757703585983921e-001
      3.2301841126145298e-001 -1.0910117189483208e+000
      -5.7811037144838609e-002 2.6238892789502377e-001
      -4.5593126878303920e-002 1.8309886307787318e-001
      -1.5201689777453095e-001 1.7007570887625786e-001
      -3.5293586785917000e+001 8.1661778621188219e-001
      -4.8797146662602536e-001 -2.8958000522098087e-001
      1.2507731523188001e-001 5.7309314375593989e-001
      6.6745980183834053e-001 -3.9633558161459276e-002
      -1.0738204836487037e+000 -5.4227869478974833e-001
      -5.5442365105705327e-001 1.1347839891782734e-001
      1.8685908691223616e-001 -7.4536789610354859e-001
      -1.8006841232981874e+000 -2.2454740072881230e-001
      -5.7263776973570202e+001 5.1414614545087093e-003
      -7.0980142999056350e-001 1.0506521490360581e-001
      5.4089543880038116e-001 -7.2671755637136334e-002
      5.2233064529690099e-001 -1.8190517601629730e-001
      2.3920563583008737e-002 -7.3403124795213592e-001
      -2.0871275762794561e-001 4.5166127799048705e-001
      -3.8431324267883787e-001 -4.1779758973817893e-001
      -1.6279932054250990e+000 8.5016346655784003e-001
      -4.7726685636169201e+001 1.4591388906550029e-001
      -4.7839977416916091e-001 9.3170841698954024e-002
      -5.7670797610515835e-002 1.0721224933173902e-001
      1.7020548904021885e-002 -5.9356859878158896e-001
      -2.6399713403825537e-001 -3.7744371096754115e-001
      7.0231371826965969e-002 2.9860943057507350e-001
      1.0883439779280084e-001 1.5660325468529024e-001
      -5.6650822471649165e-001 -5.5065972106723121e-002
      -2.3536870214063928e+001 2.8435221714694320e-001
      -1.3311494799965951e-002 -1.9293197062240161e-001
      -4.5866096123116085e-001 -5.2821010964682868e-001
      -2.0218519715155270e-001 1.8226401330314132e-001
      -6.1892211290314536e-001 -3.3509978664983842e-002
      -1.7056809890895303e-001 -2.5444537596084438e-001
      6.4147186767789555e-001 3.1349835024005485e-001
      2.1809874714982108e-002 -1.7235580259258781e-001
      -2.3796909970866899e+001 5.0396939723615541e-001
      -4.1206807162905396e-001 -6.7223758344906404e-002
      9.5350290883944033e-002 -3.0995296781028886e-001
      -1.2652014821079099e-001 1.2667097760796192e-001
      2.4885285393421694e-001 -2.7669337067704147e-001
      5.1949444655368449e-001 -3.8392133719032945e-001
      2.1533972916063102e-002 -1.8725713761589154e-002
      -1.5338389733529706e-001 -2.4658342380740070e-001
      -1.3780385144226431e+001 -8.5712943428189636e-002
      -4.6468515553260742e-001 -9.1879883668151785e-001
      8.9064706319606959e-002 -7.1423191311105672e-001
      9.6963081222103426e-002 -8.7655265781577274e-001
      2.3939469045978237e-001 -1.3124159762656989e-001
      3.3738538120220779e-001 2.0690773266963106e-001
      -8.0587651826920948e-003 -7.6344641599701713e-003
      -1.0432161655308076e+000 -3.0599867983503232e-001
      -1.4093664772371808e+000 -9.4281109584383932e-002
      -2.1134455224509091e-001 -3.3731935438072141e-001
      -1.5772405744462761e-001 -4.9290936774383143e-001
      6.6291014764390177e-001 -4.7827058343382639e-001
      8.6999485801947007e-001 2.6560205908787528e-002
      4.8837947896960887e-001 6.4243945706915317e-001
      8.4308277776022122e-002 -5.6777195151689031e-001
      -4.8679807438148615e-001 3.6487695974358492e-001
      5.1467009578628220e+000 2.8027428126143727e-002
      -2.4377968762033222e-001 1.3077214989630584e-002
      -3.5811983677988696e-001 -4.1525206078667554e-001
      -1.0860289848136398e-002 -1.5528570990944046e-001
      5.0353436917772820e-001 -2.5720191635404827e-001
      -2.0704639542068035e-001 5.1396758677939436e-001
      1.3591309727529609e-003 3.4173967924592312e-002
      1.3105235173202917e-001 3.4636924374155581e-001
      1.2383316121850729e+001 -3.4081163638528651e-002
      1.2524664293580176e-001 1.4652260417945159e-001
      -6.9204605054155155e-002 -3.3194986420209399e-001
      3.9852794874687092e-001 7.2703283365410087e-001
      4.3718529849701920e-001 6.7667985949997689e-001
      6.3935898588738646e-002 5.1980620579775105e-001
      -2.0166481546916928e-001 3.7591661889932196e-002
      -5.7941961155948851e-001 -5.3190126089571321e-001
      6.7458096298771963e-001 -2.4826226798581444e-001
      3.9693447619406921e-002 7.9693121958085378e-001
      3.6590752039190516e-001 -4.9057548232820647e-001
      -8.5417405829825016e-002 -2.6245631454700269e-001
      4.2425049926794461e-001 8.4373203335486813e-001
      7.6143368133434974e-002 -1.6482396865957219e-001
      -1.2881957509735728e-001 -7.4518759445904928e-003
      -5.4860599875710714e-001 7.4087259184664564e-002
      -1.0487784452674097e+001 -4.9590510474467042e-001
      -2.2776145779990437e-001 9.9283793507470519e-002
      2.9969879926982979e-001 -3.2971826927710912e-001
      3.9585551236344635e-001 -8.9382551735833737e-001
      -2.4454452978001442e-001 -4.0276882289510464e-002
      2.5186972901390292e-001 4.2779479648586966e-001
      -1.0119853875886193e+000 2.0415921101814916e-001
      -2.7740326636974189e-001 -2.4303120776308745e-001
      1.5044659324448439e-001 -5.1223622800869695e-001
      2.1940699493544127e-001 -2.5597020821991073e-001
      -1.8919005064175573e-001 -3.6653317707704891e-001
      1.0592258571169990e+000 -2.6352361518852476e-002
      7.0824866039276346e-001 7.7216178571539174e-002
      6.2492902929460359e-002 4.9435386952618648e-001
      -5.4603547651911999e-001 -1.1100555844287817e-001
      5.2593626721349440e-001 3.8581685059651255e-001
      9.1215751579010540e+000 -1.1476431685175286e+000
      -1.7472142391244158e-001 -3.1965590897787205e-001
      3.2977156717911082e-001 -4.4743744283204084e-001
      9.3947518146466757e-001 -4.8687002707010313e-001
      -1.8408858276775225e-001 1.1371599625989952e+000
      -7.3207593884652522e-001 6.2945197460640667e-001
      -7.0979854865338687e-001 -1.7093200536216543e-001
      9.3755995472927289e-001 5.5888444952397265e-001
      -5.2491763133560035e+001 -1.2224794934651053e+000
      -2.1857048051673825e-002 9.9672282666136758e-001
      3.7555239831295989e-001 -2.1849615456051807e-001
      3.5713918872595890e-001 -3.1073354102248807e-001
      1.8963923937986721e-001 -7.4158406485536588e-001
      -1.8076270856199525e-001 -1.6055036316952945e-001
      -4.7928052114583153e-001 1.4157161757877117e-002
      5.8908650599004453e-001 -1.4395710769980037e-002
      -6.0366070623560567e+001 -1.0076371765888266e+000
      2.5919979046231439e-001 1.1556311773713221e+000
      5.8692985747846482e-001 3.2914370176882990e-001
      1.4747482506179099e-001 -7.7267131308016490e-002
      -1.5220853452328373e-001 -3.9004329348856243e-001
      -3.8148877510397922e-001 3.5931781509651656e-001
      -7.4715254433703326e-001 3.4339092465177121e-002
      7.5222356302614835e-001 -2.8058766110851374e-001
      -5.7044669697874198e+001 -5.5105479732424432e-002
      4.4093233176501956e-001 1.8048908890223649e+000
      2.6868374154947866e-001 1.2934146311093628e-001
      -3.9998406315093538e-001 -3.7065178160746709e-001
      8.3488058066720594e-001 -6.3384421148767356e-001
      -2.7125028486132469e-001 1.2302797837400399e+000
      6.7624508474027805e-003 2.4282041644366659e-001
      8.5479100344345160e-001 4.1105866140827485e-001
      -2.3321765405677173e+001 7.7273886002789616e-001
      -4.4998848584251538e-001 1.5061279936339877e-001
      2.8479969919342579e-001 -2.5509270116704458e-001
      3.2425808225704134e-001 4.6317857980455868e-001
      1.0524341395151803e-001 -7.9643237550817286e-002
      -2.0366957649336967e-001 6.8414895978792434e-001
      -2.9463532080663674e-001 -3.2509808780429542e-002
      -1.8620880502498948e-002 1.3895910391087890e-001
      -4.2720342070427108e+001 -8.9544294251253639e-002
      2.4308192262139877e-001 5.4875202450753269e-001
      1.0095300091872560e-001 -2.8758065367188310e-002
      5.0849377459107248e-001 4.8747592117741162e-001
      6.2934273206196378e-001 -8.5487335653014984e-001
      -9.6526036956725195e-002 -4.4732427208366310e-001
      5.0975994320401419e-001 8.4462178356596085e-001
      2.7161906067329594e-001 3.8103797774185189e-001
      -2.3890507931781393e+001 -2.1838060379495226e-002
      -1.5758805401941336e-001 1.2591952068118276e-001
      6.0293957141950749e-001 -4.2972699133082243e-001
      1.9608148978640730e-001 1.6547891350716348e-001
      -4.6277418013150101e-001 1.7553409711587314e-001
      1.4856853260940200e-002 -1.2655357527118403e-003
      8.3971828922155045e-001 2.7833465918509964e-001
      -8.8595935301211159e-001 -3.3602798659904892e-001
      -8.7904561565279238e+000 3.3134866978632760e-001
      -5.1064776108720034e-001 -3.7344131666296515e-001
      5.8815534355649579e-001 -5.0262538117433575e-001
      4.8697434033004861e-001 7.1920506345677843e-002
      -1.7044365540738954e-001 3.9393002468706234e-001
      -5.0162992869778567e-001 8.5492955407969329e-001
      1.2443858931163705e+000 1.6796723364197044e-001
      -6.9621397200691115e-001 -3.5544585255499256e-001
      -1.9592456847042829e+001 -7.2593947406361589e-002
      -1.5207843172982258e-001 -6.9039796805191678e-001
      2.9994125213279310e-001 -4.6190903521996929e-001
      5.5859216971361303e-001 1.1316256096574766e-001
      -7.9563844330681344e-001 -6.6947429723039992e-002
      1.5564415114765309e-001 5.8193601859173705e-001
      2.7063703945957401e-001 2.9323386329652357e-001
      -8.0839823906205033e-001 -1.4136832900287252e-001
      -1.4704954607090771e+001 -5.7389190082102201e-003
      1.3259794188908111e-001 -9.3606646169017627e-001
      -2.7151464898105115e-001 -3.1757402516715311e-001
      1.6641615836510390e-001 3.4248232936584307e-002
      4.9035576351955651e-001 -1.2489512501451223e-001
      2.7550388541116566e-001 3.8112755127023717e-001
      2.6528440558748495e-001 1.6941606329219087e-002
      -5.0026179919433267e-001 5.8296440196840638e-001
      -1.1881950114207269e+001 2.0074550176628680e-001
      3.9829865633097794e-001 -6.4592768685694657e-001
      -1.7415961475540331e-001 -6.6384852644162648e-002
      1.6415878311586155e-001 1.8001302294934343e-001
      3.4252768110569093e-001 -2.2541070874054869e-001
      2.5291364598764958e-002 6.6201744628590065e-001
      1.1018433004463213e-001 1.4142358331172830e-001
      -5.4475868054756038e-001 1.5319334105245563e-001
      -1.1901786742363489e+001 -3.9055705308696370e-002
      2.3479911663475503e-001 -3.4700778301912871e-002
      -6.4790131181194199e-002 -9.9368124816777939e-002
      2.5528842286039777e-001 4.8793772710587863e-001
      -7.5994743203633841e-001 2.0159314548760889e-002
      3.9378206984975977e-001 2.2012223494036870e-001
      1.3659173838210897e-001 3.1363374604793176e-001
      -3.0588321678259717e-001 1.0482083719334475e-003
      -7.3404641543307783e+000 2.8449730227089243e-001
      -5.3102344040398508e-001 -2.7978741536131868e-001
      -3.4988898683679187e-002 -5.3233707410327957e-001
      7.7797234467677823e-001 2.7081894952186847e-001
      1.4239390014231945e-001 1.1922623889846677e-002
      8.0546465977315052e-001 2.9974374896802269e-002
      4.1836113925259749e-001 -1.6826380017028256e-001
      -5.7735233002584219e-001 -6.9729427512073899e-003
      8.3951419409511203e+000 -2.0306870679994701e-001
      8.4957022738483309e-002 4.2096522869498693e-001
      6.5226641118324477e-002 5.8867712987241728e-002
      -7.3519697861596589e-001 2.5349809488806990e-001
      -9.5202807038377940e-002 -9.4045967709060785e-001
      1.4214788401313334e-002 -3.4123076688080362e-001
      6.7930880642097302e-001 2.5672304202855264e-002
      4.0548271758219728e-001 -5.6837764862279549e-001
      1.1324866955975365e+001 4.3507096543640139e-001
      1.9547059812422446e-001 4.7875567961138815e-002
      2.8064934049689699e-001 2.7789683529475809e-002
      -8.2810974980724306e-001 -4.9804488628536908e-001
      1.2222025124461942e-001 2.6009784120519347e-001
      -4.3234244620660039e-001 -1.9486248849088042e-001
      5.9053043972098151e-002 -3.1233188447466920e-001
      -9.2295731303116118e-003 -2.7650997292704749e-001
      1.2305674385712877e+001 -1.3218710194055272e-001
      -1.1673823935719652e-001 -1.0591275206738855e+000
      1.9098700797367679e-002 4.4330155809190322e-002
      6.4219967157073488e-001 -8.4294416746664080e-001
      -1.1497273868347706e-001 -6.1795992385427967e-001
      4.0554535627844518e-001 3.1614373960360936e-001
      1.1063199929917630e-001 -5.7256582387071486e-001
      -5.2060053966298248e-001 2.7354142089488269e-002
      1.1895691939858262e+000 -8.0735708771256842e-001
      -2.5861799473505132e-001 -1.7456648464921876e-001
      -3.8143276997555425e-001 -3.5043833478744429e-001
      6.4631919289522199e-001 -9.8978322563265897e-001
      -4.2815410369136098e-001 5.0072745241439831e-001
      -2.8385633665244309e-001 3.2599364794429303e-001
      -1.0065030108028774e+000 3.8304595407305651e-002
      4.4775512039272447e-001 1.0476894398768732e+000
      -3.8141950308159977e+001 -6.9191490054199911e-001
      -3.1762304325739865e-001 7.7149255891062796e-001
      2.5288334595817474e-001 -8.5006327352208877e-001
      8.5866840871219485e-001 1.2182127399972456e-001
      -2.9341987961796645e-001 1.7131133503481555e-001
      -1.4289657491418287e-001 2.3904465765647445e-001
      9.7422473942547563e-002 -4.0915329126886163e-001
      1.4087543062871413e-001 -1.5612344987947752e-001
      -2.7911220080216264e+001 1.6709594898691077e-001
      1.3926716890921062e-001 6.2556627065759618e-001
      3.9864047543651476e-001 1.6353299835389967e-001
      3.0240644253589466e-001 7.2180965821557544e-002
      -4.5079933706993103e-001 6.7381837326024119e-001
      -1.9959366415000723e-001 1.4390073614991247e-001
      -4.6811553726950061e-001 -2.8654900369315112e-001
      6.1993969677040239e-002 -2.4619159478088723e-002
      -1.3327588414522229e+001 -2.5532574971735189e-001
      4.3130910417563034e-001 -7.4357167905374844e-001
      2.7910262938885116e-001 1.2826399161054097e-001
      3.5638287616176961e-001 2.7408223368146267e-001
      4.0241619283004559e-001 -5.3661458235140780e-001
      5.4276332332782729e-001 2.6577742421613310e-001
      -9.7482502528384668e-002 -3.0864354041885883e-001
      3.3289245952582328e-002 -8.3877406669249435e-002
      -1.0427721140093464e+001 1.1504785301551519e-001
      1.4569599447684189e-001 -1.7956651579462882e-001
      -2.4289637629734201e-001 -1.0321449714869940e-001
      5.8568452823951322e-001 -1.3510997056625046e-001
      -2.3085467986278760e-001 -3.1130741901551223e-001
      -1.5985030762365213e-001 -8.2016001371963698e-001
      -2.8795060785255200e-001 1.0975654189426947e+000
      -2.1982144890131633e-001 1.4537849080870013e-001
      -1.8322373237449096e+001 3.7821083507180547e-001
      1.9792083982289398e-002 4.2081975373424911e-003
      -1.7044240510589506e-001 -5.9728206689343033e-001
      5.4436880529302412e-001 3.0086764445091485e-001
      -7.8281689381088626e-001 2.7770714608358482e-001
      -3.4848050215392518e-001 2.4713873145357043e-002
      4.5901105297421868e-001 6.4181645465036641e-001
      -4.0983630268372900e-001 2.8513094052072036e-001
      -1.7145719433897654e+001 -3.3751756779002279e-001
      1.7813112097059491e-001 -1.4499404439391153e-001
      1.9503254122172692e-001 6.1850158022377442e-002
      1.9523892248299496e-001 6.4015672360457854e-001
      -1.4049968073519192e-001 5.7965883275972452e-001
      1.7914140470064285e-001 4.7983511914284827e-001
      6.9674414049391986e-001 2.5691721477146773e-001
      7.7682527852942579e-002 -2.8856206273976615e-001
      -1.3121325131785758e+001 -4.0506739252947545e-002
      3.1135321704411856e-001 -2.4635494415327314e-001
      1.9092967233099040e-001 -7.9439160319632246e-002
      1.0000116550311916e-001 4.1069632110023807e-001
      -6.8638870812660580e-001 -1.3871254300037886e-001
      -4.3702963641549125e-001 4.0867529770576766e-001
      1.4386378928156515e-001 -4.3114402563384564e-002
      2.2818327128156651e-002 -4.9948292409191825e-001
      -1.9678755138328942e+001 -1.3339348790613981e-001
      1.7055454034578654e-001 -3.9408525659092591e-001
      2.5825634073940529e-001 7.1932491017067640e-002
      1.8326563685744943e-001 1.1713224953817823e-002
      -5.2110640581139933e-001 -4.8884107082408548e-002
      -2.1029869816154881e-001 -2.9348527933131162e-002
      -2.3161699336269645e-001 4.9595189972970921e-001
      -2.0854867118132844e-001 3.4790814940990999e-001
      -3.0139908111058688e+001 -1.8956512653912846e-002
      -2.2712051127295030e-001 -5.2828527565781225e-001
      -3.0228087065968906e-001 4.3713635328851780e-002
      -2.7104888079174283e-001 -7.2487343930086312e-001
      2.1069883018125238e-001 4.1769440064716135e-001
      1.0768509499345240e-001 5.3659990151395398e-001
      -5.1439861039129162e-002 -4.9351792124266977e-002
      -7.6468961482463971e-001 8.5920724895999967e-001
      -3.0065780149354953e+001 -1.8105443325801154e-001
      -1.1401893633986169e-002 -3.5997010010860496e-002
      -1.2935637483630286e-001 2.7224309056079699e-001
      -1.7514007405040825e-002 -5.0975515875229027e-001
      1.4771116484025995e-001 1.6530942252402919e-001
      -3.5846683027554532e-002 1.1392649668041193e-002
      5.9810726580717490e-002 -4.4426075518528285e-001
      1.3408825333717950e-001 -1.7896074399620598e-001
      -3.0345403212047952e+001 1.1578212129042259e-001
      -6.1413370819408897e-001 -7.8894187390782480e-002
      -2.7095515507517182e-001 -2.3643519115511512e-002
      -2.6597337654138031e-001 -5.3485079606107067e-001
      7.7377616450624645e-002 -2.1339566133534971e-001
      9.8773762059185796e-002 -1.0379706156618473e-001
      3.9874018655899020e-002 -6.7758133181691915e-001
      -2.0442368339024927e-001 7.3663362002323804e-002
      -1.2251825248150293e+001 -7.3442453662893505e-003
      -5.7214127341148474e-002 5.5033869749837605e-001
      4.6704666563268254e-001 1.6538996862270661e-001
      1.1542253029543068e-001 8.7060158671558890e-002
      1.2414526299734516e+000 1.7897774967071481e-001
      4.8363893276038912e-002 8.4239801676553969e-002
      2.9934871732311635e-001 -4.2333067956037904e-002
      -6.8330047222072621e-001 2.1298089420610061e-001
      -6.7112532889326699e+000 5.0085392847576837e-001
      -5.8842924440816124e-001 3.7303088949472435e-001
      7.3540584725616320e-001 -1.5480090199326152e-001
      -2.0058315777374550e-001 5.0231479325505618e-002
      1.6335455049116468e-001 2.5890033682225272e-001
      4.1430485435231995e-001 5.8820500113558646e-002
      -7.1078660924036072e-002 -2.6990483885675959e-002
      1.7621903274779627e-001 -5.4938780747221833e-002
      -7.3282081331803157e+000 -2.7827907506874011e-001
      -2.5751090542349572e-002 3.1481760732190778e-001
      -7.8587268546010738e-002 -3.8001084587428807e-001
      -9.8084955879205252e-003 -1.2920658839044519e-001
      -3.2855975169956558e-001 -7.7675100050680990e-001
      5.2855640062092091e-001 2.5031203669811677e-002
      8.8758537215625932e-002 -2.1382248167382090e-001
      -1.7309837893888791e-001 -3.2917342159327906e-001
      -1.9063659905924757e+000 1.5797865263284815e-002
      -7.2371383097501310e-002 3.8747229254856175e-001
      2.9942424572091170e-001 5.8705534791395647e-002
      3.5872335745941752e-001 3.0446691267341369e-001
      -6.0331566149801064e-001 -4.5018470293968366e-001
      -1.1902511822441007e-001 1.6158093871724688e-001
      -1.1358239198799511e-001 3.9302683373135022e-001
      4.0672297883607189e-001 -2.5287987555096303e-001
      -5.3634580702575452e+000 -5.8177057004186961e-002
      3.1357523373141814e-002 -2.5833895462576523e-001
      5.8022249446321755e-002 4.2557964047265751e-001
      4.9826588045651909e-001 1.8996123532728032e-001
      2.9427745088388363e-001 -1.7255667745678863e-001
      1.9382291628068887e-001 1.0118918335023087e-001
      4.4320460035845038e-001 3.1153674110091351e-001
      -5.1865690756413389e-002 5.9118820894597524e-002
      -1.7850742457213652e+001 -4.4915588516525537e-002
      -6.8501847709897090e-001 7.4248848569925940e-001
      -3.2968313248754294e-002 -6.8811469608251397e-001
      1.8528487670925115e-001 -6.4899542744988725e-001
      3.0542786759987250e-001 9.0499418729662676e-002
      3.7763165105293865e-002 -9.3154158073897164e-001
      4.2360025759181137e-002 -1.0557853899509593e+000
      9.2228483246154486e-002 1.2700085286387600e-001
      -1.3405284884441176e+001 5.6749639251397532e-001
      -2.8514372154512790e-001 4.3423458358991901e-001
      -3.4874674763705010e-001 2.5054150056680879e-001
      -8.0125627416487807e-002 -6.0544623348741770e-002
      -1.9455437759800920e-001 1.9809635693970967e-001
      2.8788424351550268e-001 -4.0717827958883640e-001
      -1.6927647689441718e-003 -4.5803521912984863e-001
      3.3126367190848094e-001 -1.5891794660940106e-001
      4.0324713557540752e+000 -3.7820378937469951e-002
      1.0251601136273152e-001 -2.1876744728546224e-001
      4.7626246549080965e-003 -2.7099057750996175e-001
      4.2713767614413778e-001 2.9269052580872673e-001
      -1.0529467846820373e-002 -5.5580441261465705e-002
      -1.5873172814261316e-001 -2.4536643588681767e-001
      -1.5244984614232687e-001 3.8174902878815736e-001
      -2.8030680822576870e-002 2.2633943162231138e-002
      3.1707275020754002e+000 -1.7808679297147567e-001
      4.3478862075683458e-003 1.3671714296303542e-001
      -8.4973740908625617e-001 4.8992030775446443e-001
      1.4287198346390245e-001 -4.8760816807543378e-001
      -2.9526632212548542e-002 -9.2447714312836704e-001
      2.3594652117917486e-001 -1.6461158283020376e+000
      -1.7873742754701447e-001 5.9513593103319140e-001
      -2.2921590387839066e-001 -4.4630694400149558e-002
      -2.0777817030085373e+001 1.3359553509862673e-001
      -2.1490607012640681e-001 -6.0999989136191549e-002
      -6.6016711395226124e-001 -7.5705198396159828e-002
      9.7323534988931499e-003 -9.7447338459392005e-002
      6.1047340872488520e-001 -7.3645275772769958e-001
      1.1518882498392738e-001 -6.9340030250910822e-001
      -8.6285624229213020e-001 1.2781881371411261e-001
      1.5893844011887159e-001 4.0895076986080331e-001
      -2.9411689449094691e+001 2.2916778789833631e-001
      2.6327271990547713e-001 -2.1377564226473952e-001
      -2.8930358916254656e-001 8.0628108099707552e-002
      5.7073241407237948e-002 -2.6149957737948298e-001
      8.7629368848198574e-001 -6.4411514756087351e-001
      9.9470818372379213e-003 -1.1339336521931695e-001
      -1.1718670470623844e+000 6.3264104933193488e-001
      1.9815883205808293e-001 8.8323223167119366e-002
      -4.2042470630063093e+001 -8.8406793291643837e-001
      4.4899230906989224e-001 -1.3318767238295864e-001
      1.5046766459051927e-001 1.4118023291090607e+000
      9.0693898223491262e-002 3.7755254207989936e-001
      5.2542477781144192e-001 -1.1702115062337355e-001
      4.0156035323906875e-001 -1.1933096503309784e+000
      -1.6096991150632896e+000 2.2759854387185530e-001
      -4.0586071204269780e-001 2.1577644328615950e-001
      -5.2460294465942908e+001 -3.3909572043082092e-002
      8.0637826339602911e-002 2.9066416702296533e-001
      -3.6694050744089540e-001 1.3985172351505133e+000
      4.4346714018993805e-001 -2.5022398384117023e-001
      1.8256830965126095e-001 -5.1685830223718587e-002
      1.6965297206396740e-001 -1.0033337846209931e+000
      -8.1766313625628262e-001 -1.7275026645604019e-001
      6.5843129216910756e-001 -1.9279406038446006e-002
      -6.7843496286860656e+001 1.7521826482474703e-001
      2.3416483907404240e-001 2.4911250226607504e-001
      -5.7279053537948665e-001 3.6601393666448334e-001
      -5.0268921783951670e-001 -5.8921921547206635e-001
      2.4643178823449099e-001 7.8408048630274152e-001
      2.9392363813452593e-001 -5.2287538487356544e-001
      1.5207357406275110e-001 8.6541716221074108e-002
      4.5866640966065686e-001 -6.9743102813828520e-002
      -7.0072975091259110e+001 3.9563377118639231e-001
      -3.8277008212736968e-002 1.4832752545733793e-001
      -6.4774141112604955e-001 5.4044374931270830e-002
      -6.1881005427471125e-001 -7.2699110045220616e-001
      2.1171944158831103e-002 4.4589283031390470e-001
      2.4023694446823899e-002 -5.1642187962444142e-001
      -1.5742517531956750e-002 6.8700718246347521e-003
      1.9752252830968647e-001 -5.1109383297854671e-001
      -7.0583966466543004e+001 3.9826631674863439e-001
      -3.7204049533985023e-001 2.8487447480964395e-001
      -5.3601030238233183e-001 -3.2208209075147937e-001
      4.4848112867511619e-001 -8.0021491123768329e-001
      2.9027598423239473e-002 1.6092806856029129e-001
      3.3629499331355911e-001 -4.8609148456262169e-001
      -4.9544552451863472e-001 -9.2102860214067744e-002
      4.3105316398518534e-001 -9.3833386875927260e-001
      -4.4499369486684479e+001 6.2463624078985147e-001
      -4.4658116093000039e-001 -3.1786032025487326e-001
      -1.5413650621491146e-001 2.4515225538027000e-002
      5.6459578981412217e-001 2.0170927112632125e-001
      -4.8097696820110419e-002 4.4041772225706649e-001
      7.2913817393248026e-001 -8.0383844974065866e-002
      7.0374710511090857e-002 3.7970488027134826e-002
      4.7567928819738559e-001 4.0606456201883127e-002
      -1.1999211533191721e+001 -1.2379834434748983e-001
      3.0743624065122332e-002 1.8644290902300971e-002
      -4.1162358619596259e-002 1.9300514394645979e-001
      -2.2201585976546234e-001 1.8599541053997048e-001
      1.5201566885479439e-001 -1.3573387093302627e-001
      4.9974025166744582e-003 1.6256401252548267e-001
      2.6532785896092058e-002 1.8752081435072981e-001
      5.5892569083598431e-001 -1.1487978009501691e-001
      -1.4753045894200763e+001 2.6096479572206288e-001
      -1.6471006838385108e-001 -1.4732130538727242e-001
      -4.8137434519499499e-002 1.3191701518835480e-001
      1.9821432709945165e-002 -1.0877669781683193e-001
      2.8951019088845273e-002 -6.3373538662807249e-001
      5.4153926995061519e-001 1.4704099700841397e-001
      -2.0811046927165644e-001 -6.0591646813798694e-002
      7.7406851050458192e-001 -4.4649320947004661e-001
      -1.3122105680548135e+001 1.0955729873362331e-001
      -1.5328400546921359e-001 -4.4760665413543434e-002
      1.2115182547679923e-002 8.4940161493080993e-002
      4.1545629419025343e-001 -5.6769381459703216e-001
      1.5418262992626439e-001 2.8940485995507204e-001
      5.6065473810883691e-004 -2.4170543398146091e-001
      -3.0928083512089047e-002 -2.8124762398030928e-001
      8.8688849928997626e-001 1.0578558151455697e-001
      -5.5664533705051644e+000 -7.9548163255993609e-001
      -1.1566904792550638e-001 1.7209027242622058e-001
      -2.1458935575222296e-001 4.8776888358836018e-001
      -3.9885661150524104e-001 -3.4375422648669557e-001
      2.4286433546670963e-001 -5.4673465212698835e-001
      -2.0965459552106167e-001 -3.6165772130093765e-001
      5.8887260830385069e-001 5.6382319027914229e-001
      8.6988880062733698e-001 -5.3784435136725295e-001
      -9.9203811434088127e+000 -4.7543081261786557e-001
      -1.9940246017308938e-001 2.3623154545757535e-001
      -6.0850148197107934e-001 -1.0492645953523425e+000
      1.2404125801715783e-001 -3.3629408097810426e-002
      -3.6064322694619372e-001 6.7782814262926760e-002
      -4.8450647290447943e-002 -2.7217345390311193e-001
      3.9584425323681932e-001 -8.0994632446910086e-001
      -3.9810127330348732e-001 -1.2240447436684264e-001
      -9.9163539844621500e+000 -1.2580825650738908e-001
      3.2594831611913677e-002 -3.7771718824502719e-002
      -3.1153990966637540e-001 -3.2759789489522823e-001
      -5.2872360740447356e-002 -5.1349037962055566e-001
      -2.6720575371823985e-001 -1.3589644939437184e-001
      -2.2120585629213313e-001 6.1950638756358298e-002
      -8.2712566043121716e-002 2.1636465647780848e-001
      -4.5928406609075356e-001 4.4431342201205010e-001
      1.4272168030239849e+001 2.2172060731983750e-001
      -2.1418767897717009e-001 9.9270917833260619e-001
      -5.8893580215034080e-001 -6.6865090631332336e-001
      3.8622209483805242e-001 5.0876766394198109e-002
      1.6132140393434685e-001 3.6019340377176912e-001
      -6.6759844149924058e-002 -5.0716972928757409e-001
      5.4752052020495712e-001 4.7345686105225121e-001
      -1.1288472543254584e+000 2.6074126871188141e-001
      9.1207347713054734e+000 -1.8902424341889021e-001
      -6.0753300872061058e-002 8.5091837868499365e-001
      -4.7012691355101222e-001 -1.0540382027426473e-001
      6.3316532457850822e-002 1.8018041386626885e-001
      -2.0638793114960138e-001 1.5789747947504251e-001
      1.5105170391549849e-001 -1.6213096387363135e-001
      4.6308300190877727e-001 6.1952147118956080e-001
      -4.6880823914814929e-001 1.5448228013659386e-002
      -1.4223485818479778e+001 -1.2251134870872418e-001
      1.0331489710598009e-001 3.7967726878058400e-001
      -3.9574755422115776e-001 -3.6277743536525792e-001
      1.5973317040280424e-001 -3.3394684134558587e-002
      5.2605434492608683e-001 3.4515998940256254e-001
      1.4307164949629222e-001 -1.4450342888620149e-001
      -2.6243883955262648e-001 5.6711567224715576e-001
      -1.0661711964739629e-001 6.0403358577480515e-001
      -2.5947979744854575e+001 -4.8783746885569085e-001
      -1.6695870960212381e-001 2.1012658195515760e-002
      -1.9730476257381085e-002 -1.1787687799166603e-001
      9.4725338325546249e-001 2.1430475730719015e-001
      5.1794722307989216e-001 -4.6302063075660815e-001
      5.9432573617533424e-001 -3.7512755406342119e-001
      -2.3278284882704681e-001 2.6227283194009604e-001
      -1.8379438567746292e-001 3.8678497473824941e-001
      -2.2601175971131848e+001 -8.3660591677060214e-001
      7.1484217602333727e-002 5.8464911422305130e-002
      -1.6225111640256612e-001 5.4054576453285735e-002
      5.6732060019017361e-001 1.1683299593147705e+000
      -6.8816026623033696e-002 9.6857169315796221e-001
      4.9522811196802075e-001 1.5768145906103032e-001
      -4.2505042327514078e-002 5.6412733310360641e-001
      -2.9218604488813939e-002 2.7717415526421774e-001
      -3.0480573063117262e+001 -6.8528870575546663e-001
      -8.8736999993667187e-002 4.2085636430216661e-001
      -5.4300637071224411e-001 3.5359098622989921e-001
      -1.4707208683649226e-001 7.2663955084617826e-001
      1.4314953041449188e-001 8.3501869466634937e-001
      6.1015336402048370e-002 -1.1278821624441292e-002
      -7.6124234615382730e-002 4.7519241820686126e-001
      -2.0006983451491089e-001 -2.6012892456023345e-001
      -4.3436751901389478e+001 -5.3583449231813018e-001
      6.6328433539627607e-001 1.7890281059410865e-001
      -3.7235605681360112e-001 -8.9628782584306149e-002
      -3.9983577202792919e-001 7.3973441466995291e-002
      -1.1373879165212546e-001 1.1061119458781281e+000
      6.1002822961873815e-001 -2.0820870128186109e-001
      -6.1379508316198955e-002 1.6275367045604514e-001
      -4.3071014554632114e-001 -4.6660489747538209e-001
      -5.1138586988471737e+001 -2.5627334160980098e-001
      -1.6153680275203630e-001 2.4440076736075184e-001
      -4.4008906130885539e-001 -3.6891017564563633e-001
      -3.4552518695034351e-001 -7.4244340379331641e-002
      -7.1931395148122926e-002 6.9457536869071457e-001
      5.4068151058768787e-001 -1.6084269949428034e-001
      -1.1675704284455606e-001 -4.4365184367477543e-002
      -4.8053047405312438e-001 -6.9953324215719537e-001
      -4.0656389907292365e+001 6.0558871551198656e-001
      -9.0805574380688270e-001 7.4977202421476452e-001
      3.1461333635692523e-001 -7.1404056124624149e-001
      2.0906857610928184e-001 8.4403139431530472e-001
      -1.9861776306317258e-001 3.7874217936378562e-001
      5.7048905443258680e-001 2.1902608390268377e-001
      -3.8460585202429648e-001 -1.3493428459966790e-002
      1.5403311668612488e-002 -8.9114579148670392e-001
      -2.8153451824503033e+001 1.5159354775237081e-002
      -1.0838296558896859e-001 5.7994206318467723e-001
      2.7617313388486205e-003 -5.1174819400697713e-001
      9.7877214048375383e-001 7.3800526319476389e-001
      -6.9398005983930111e-001 5.7319204561916262e-002
      4.3721955718531569e-001 -6.8714321559915928e-002
      -4.4022685816727358e-001 2.4996826688339446e-001
      1.9127349506311986e-001 -3.5183064537872732e-001
      -1.9711269739971771e+000 -2.4052360643381079e-001
      -2.9254139217776914e-001 6.8836789022755329e-001
      7.3998259312335526e-004 -1.0406013614849206e-001
      1.4173054956462738e-001 6.0447508404062666e-001
      -2.9912050733402107e-001 4.3960469179612055e-001
      1.6398304417366082e-002 -1.2956434880699438e-001
      -3.3420960367647307e-001 1.7819497809578583e-001
      8.1143513162918834e-001 -6.9616090314192713e-001
      1.4352215199540952e+000 3.2532925683385799e-001
      -4.3029466231123109e-002 -6.1726980953335453e-002
      -4.1166872607914323e-002 -3.6129077790849196e-001
      5.5294103467595079e-001 8.9616666053364977e-002
      -8.6864376139529709e-001 7.0944787691956857e-001
      -1.6680750190388513e-001 -2.8841502957913989e-001
      8.5556299814538397e-002 1.6758316172689722e-001
      -7.5453130474179425e-002 -1.8596885332251994e-001
      -7.0949679863963970e+000 5.9771726621166837e-002
      -4.3971733443137501e-003 1.4089194977299990e-001
      -2.9361654007590032e-001 -6.0053682673081199e-001
      6.9351291228732281e-001 3.3131080923908340e-001
      -4.2604554794488292e-001 5.2196875492168049e-001
      3.5408465923523053e-001 -1.7656694052414915e-001
      -7.9390854110394293e-001 6.5161992049444090e-002
      4.3510673914889142e-001 7.0312529842636917e-002
      -6.5856114477657206e+000 -4.2655497446763113e-001
      5.0703113123247845e-001 2.1810773528757592e-002
      -2.7356880318562254e-001 -3.2189783818840095e-001
      -4.4428704134357799e-001 -4.0758466752772574e-002
      -5.2945618842259301e-001 1.1299963841774648e-001
      8.2364121708416824e-002 -1.7368265274777428e-001
      1.7483097234956282e-001 1.2764493318436685e-002
      -2.4429349499118295e-002 -2.5682334438056953e-001
      -5.2897457086850066e+000 -5.6757501988862635e-001
      5.0821425163557521e-001 -1.5325332167218220e-001
      3.6519382153500046e-001 -5.7128304772664362e-001
      -1.5155150875350884e-001 -3.6064259213977512e-001
      -8.2512552538561434e-001 -2.5849350630947326e-001
      -9.4745533926089975e-002 1.0350205783133679e-001
      -1.9073116411993607e-002 -2.8577731426966343e-002
      -1.7986525073231521e-001 8.0032280240513420e-001
      2.6285425173767054e+000 -3.0265735771077263e-002
      4.4874977749902017e-001 2.4638807029879983e-001
      7.0117441096511135e-002 -1.4598498152692402e-001
      1.9036538068382444e-001 -1.9232471591506570e-001
      -4.4307114702488898e-001 -7.5745761828733743e-002
      -2.5334228280287219e-001 8.0638178409114913e-002
      2.0584268933431860e-001 -2.4495105559246211e-001
      -4.1993069882413830e-001 8.3981008655805600e-001
      1.4287584772391558e+001 5.8388126105233107e-001
      6.1860446118840362e-001 7.8572942796991907e-001
      6.6595894854595376e-003 -2.0175624787119498e-001
      -2.1980898226590287e-001 7.3885325517223399e-001
      -3.8580446009514387e-002 3.2363108355880155e-001
      -3.7631123989475096e-001 -9.9954295309602842e-002
      -2.2633743117365657e-001 4.8020725672081865e-001
      -9.0945827067026835e-002 -5.0673854073504732e-001
      2.3007633294473077e+001 6.7389178011023718e-002
      -1.6343398606003814e-001 2.7291820622796020e-001
      -3.1499212689287415e-001 -5.9271937765343591e-002
      -9.6790367123558221e-002 2.8048009506220162e-001
      -1.0822108798175158e+000 4.7940480104287814e-001
      -3.1033725266594503e-001 -1.2516862030819248e-001
      -4.4041658066599293e-001 5.2621454829579117e-001
      -1.9614709277153741e-001 4.0656730390733981e-001
      -1.9738620101165445e+001 -6.3411169623964170e-001
      -1.6704414687694236e-001 3.4677120910900305e-002
      1.5331271851257694e-001 -2.7939539998828372e-001
      4.9078204523526925e-001 3.7753755276507744e-001
      1.2622712926413682e-001 -6.6488125823618875e-003
      2.9486166178988643e-001 3.3433903718535704e-002
      2.2221736218552429e-001 2.4275744805151056e-001
      -1.5660827673775402e-001 5.2505643526140577e-001
      -1.9690780017494912e+001 2.0763127830397304e-001
      -2.6803312076349767e-001 -4.2299698901261917e-001
      -3.5463729640460362e-001 3.3589193271566425e-001
      7.1322501443875208e-001 -4.3054660298434927e-001
      5.8585282213763974e-002 -4.6090835766333271e-001
      6.5707970204017130e-001 -6.6229681564599108e-001
      -2.8552384271149794e-001 1.8264015953764387e-001
      2.6717371090500514e-001 2.3016212452048318e-001
      -1.6341985822392854e+001 -1.8409763359119155e-001
      1.6138564399006830e-001 -3.3698623818766293e-001
      -9.1839996013297773e-002 1.2180876692498821e-001
      3.0432422367088929e-001 9.2487078672035616e-001
      -1.5804389070482036e-001 -1.4301370846479842e-002
      4.7563637002500353e-001 -1.1701833007710541e-002
      -4.9086648323002280e-001 2.6321269697043420e-001
      4.6102980134920962e-001 1.8738139179135438e-001
      -1.7855345893450089e+001 -2.9004948213621073e-001
      -1.6843819523620121e-001 7.3221700016955684e-003
      1.2595042824463477e-002 -1.8522617106273442e-001
      -5.1323610580462342e-001 -3.3121375162359967e-001
      1.0927878549646106e-001 7.2491705148424113e-001
      3.7712528718352907e-002 8.2301415999775113e-002
      2.9113585243161488e-001 4.5580643966564410e-001
      1.5075540939636593e-002 4.4582383752325500e-001
      -4.2381517912867956e+001 6.3982978604484331e-001
      -1.1160729344526839e-001 2.9700066875118508e-001
      -1.4577412793984834e-001 -4.8926697869072527e-001
      -1.0716283538841631e+000 -9.3667037413669774e-001
      2.3171926531559611e-001 7.1215109972268720e-001
      3.8961456377667536e-001 -3.0421565165964870e-001
      7.4451012505322794e-002 2.4027382978875991e-001
      1.0983529196242363e-001 -9.4936130470448646e-002
      -3.8700963203589936e+001 4.0800366800090870e-001
      -8.2915505399677403e-002 -3.6508887283785613e-001
      -1.4096251895333400e-001 -5.9952994673596882e-001
      -1.0240147703047036e+000 -9.3737456839631361e-001
      1.6813629758521356e-001 6.6991165859647173e-001
      1.3226534022959696e-001 -2.9834094002335482e-001
      -1.1890129975359334e-002 9.6065345262332602e-001
      2.2736314876308411e-001 1.4619216905802975e-002
      -2.2290468208565496e+001 2.6660329297670576e-002
      1.4243984843073823e-001 -2.6738959113263622e-001
      -5.0466300411586218e-001 -1.8081890956560440e-001
      2.1818411595799564e-001 3.9340085285427276e-002
      -4.0621007152653604e-001 -4.0384171102013672e-002
      6.1408378818898914e-002 2.7449461357005622e-001
      -2.7167530689047314e-001 7.1314234514666053e-001
      4.0427589219404164e-001 2.4418289604382912e-001
      -4.2781720397583562e+000 3.3028161024678143e-001
      -6.8978810057492748e-002 -2.1156729219675452e-001
      -2.3233484282813593e-001 -2.9476857352178737e-001
      1.0457291318806012e+000 3.7654529922558638e-001
      -9.4214804519362635e-002 3.5591064859211585e-001
      2.7315754444020962e-001 -9.2168721355811195e-002
      -6.8044816910279848e-001 1.7044784665209411e-001
      7.9219999546487307e-001 1.7360637857975922e-001
      -9.8266310281425007e+000 1.9496662673816703e-001
      5.7458982113639445e-001 4.2103576825711403e-001
      -1.7832658292637785e-001 -1.5006710931161613e-001
      5.5418608294113925e-001 2.0874219414812042e-001
      -5.0284673932803470e-001 1.2298542883556274e-001
      -1.7364634460046005e-001 -4.0283105307023181e-001
      -7.6957342771998949e-001 1.9290790064895241e-001
      4.3140469612220866e-001 -7.5693359375540281e-001
      9.2533406181551037e+000 -1.6554454686029649e-001
      -1.2851210837331895e-001 3.4642437677159371e-001
      -6.6981545019782984e-001 3.5962533828151250e-001
      -1.6674953772750961e-001 1.2450905157523384e-001
      -2.8268894604704731e-001 2.2354520537659600e-001
      1.7355568928004944e-001 1.5395736511012470e-001
      -1.2080697379815977e-001 -7.7986638529018812e-002
      5.8945782759208987e-001 -9.4806219261115832e-001
      3.2855016810663845e-001 3.8750282907852152e-001
      2.3347296106347223e-001 8.2059445197027542e-002
      -3.6730809187289898e-001 2.7023092407557792e-001
      5.4534511067612736e-002 1.5750640873518953e-001
      -3.4387446608709197e-003 3.5543859930014488e-001
      5.2127701008507654e-001 1.1312654306626301e-001
      -4.6033038241662882e-001 3.0788941913679403e-002
      1.9356918229680717e-001 -6.5829294021349960e-001
      -5.4674057152022204e+000 -5.6755346665050910e-001
      -1.3107309113658364e-001 -1.1328686285462658e-001
      -4.4969909119734325e-001 -2.7788801960592486e-002
      -7.6073049950734428e-001 -6.1009326771108852e-001
      -8.8442262917198977e-001 5.8225279458731717e-002
      1.6663345384492090e-001 -4.1640539936887953e-002
      2.4133793842847623e-001 -2.1066083106055053e-001
      6.8487404990725520e-001 -7.5290624096292214e-001
      -5.1432389765197648e+000 -2.0023161594515640e-001
      -3.1278662059540989e-002 -1.3850948007067848e-001
      8.6202018101526265e-002 -8.1878806445128416e-001
      1.0795304387769347e-001 -6.0616610270965654e-001
      6.7163949550938462e-001 -2.4277306292868772e-001
      3.6847468842958281e-002 -1.0356753487577215e-001
      3.4659397298954975e-001 -5.5964649227265484e-001
      -2.9719025417139544e-001 3.5568433392575777e-001
      4.3715291760652129e+000 3.9539840939101539e-001
      -9.0913833780251044e-002 4.2257997019676730e-001
      1.8048842975642249e-001 -4.4225441185527009e-001
      -2.6696592786194665e-003 2.2775294256597253e-001
      4.4424959936105390e-001 1.6461917287582320e-001
      -2.8185249209766039e-001 -2.1341338021266321e-001
      1.0065025408035573e-001 -5.7339114301029381e-001
      4.8185093924055200e-001 -2.0922055244294135e-002
      1.0420805047118797e+001 1.3789875828268322e-001
      -2.4449597102277532e-001 -3.2963627382707600e-001
      3.8705747135580992e-001 -2.3964954434593877e-001
      7.2686963640773761e-002 4.5700553683170331e-001
      -1.6308177948456012e-001 -6.5936627556921909e-002
      4.0277443198380947e-001 2.9715474735134261e-002
      6.5902106215288331e-002 -4.3749632441023251e-001
      -6.4821824865110955e-001 -7.0935000916141100e-001
      2.0681330589973435e+001 -1.3003015501250673e-001
      4.4159260025450053e-001 -4.0121225479213020e-002
      3.2042519306024253e-001 -4.5314437162996868e-001
      5.1376534551846868e-002 3.2038642518896721e-001
      5.7251659460065892e-002 5.9109185764720540e-001
      3.6029785954733784e-001 5.5734956120959955e-001
      2.2424378490913579e-002 4.2929008819581521e-001
      -4.2265750803168911e-001 1.8106233933576235e-001
      -6.6110758668728149e+000 -4.2148672503462109e-001
      1.4867098181659813e-001 -2.6681815485775628e-001
      5.2867159450036727e-001 -2.1272884918660587e-001
      -1.3495143448013766e-001 1.6279826155623975e-001
      -1.4364600248726969e-001 2.4801710473376246e-001
      6.3747096251429780e-001 9.6126249549872189e-001
      -2.7618906295437456e-001 2.3698925206691374e-001
      -2.5131787163423547e-001 -7.9351072917980647e-001
      -1.0010514912215045e+001 -1.1256556530643251e+000
      -1.3865981728774407e-001 -5.1002404818794456e-001
      3.2909980431302838e-001 -4.7229447388472387e-002
      8.7519460062362842e-001 1.1718479017475993e-001
      -9.0634892440734291e-002 -3.8339995306175961e-001
      3.7359494657121656e-001 5.5770141914654597e-002
      -2.2265807883783351e-001 -2.3573740443343014e-001
      -6.2489599715523680e-001 -4.9374433014582186e-001
      -8.1567479499035969e+000 -3.7017814507868574e-001
      -4.5221266649829533e-002 -3.4438352317460769e-001
      2.1179753046149105e-001 -4.8662621395340727e-001
      3.1167240882545233e-001 2.9755259164279507e-001
      -8.1746513233436680e-001 -4.4296021965329591e-001
      5.9539889772995958e-001 5.9764645111947456e-002
      -4.9709605762277548e-001 4.1894885787599256e-002
      2.9686658424191664e-001 -2.1320817527140962e-001
      -1.9671017193782092e+001 2.5138306042157904e-001
      3.8397096866059216e-002 -1.4017888625638266e-002
      -2.0901843256195696e-003 -4.0072227929825782e-001
      -5.6291880947449835e-001 -1.0093164101139631e-002
      -1.6999558117107746e-001 4.2896209900752891e-001
      4.5923753697975389e-001 4.4774703112425190e-001
      -1.2587065075586187e-001 -8.5740306396723934e-002
      -2.9686029492670957e-001 -2.8534149780165047e-001
      -2.7464217596243273e+001 -2.7994488411979424e-001
      1.3658572062517255e-001 -1.6185603969010140e-001
      -1.6153813187854507e-001 -8.8421744219550358e-001
      -8.4486853540673723e-001 -5.1595891252830761e-001
      2.0569632213031322e-001 4.8842658934962691e-001
      2.8761733965560582e-001 -1.7977168767969429e-001
      5.4886835414324195e-002 5.6146430073603470e-001
      2.1813000605509010e-002 1.8029853292747855e-001
      -2.6499199029231413e+001 9.6619290762633994e-002
      -1.0171309801568548e-001 -3.0617368492699873e-002
      -2.1438862740987311e-001 -3.0738773299038463e-001
      -6.5307161957413917e-001 -6.1500076193884912e-001
      -7.1534494071130716e-002 4.4977107106631098e-001
      -8.2489297051567045e-002 1.7581491244253518e-002
      -3.6253925680182160e-002 5.3732299533233807e-001
      3.6573421010824847e-001 -6.1871660332746332e-002
      -1.2453730558935226e-001 -1.9862945851443495e-002
      1.0812990130683044e-002 -1.7102289556248160e-001
      -7.0192497938964898e-002 5.5442490818940282e-003
      8.0935161637718189e-001 1.3918011054502302e-001
      -1.5869835584274872e-001 4.9960439536848389e-001
      -4.0105005349424655e-001 -1.4065303061535445e-001
      -3.2072530814853945e-001 -2.2452979751297367e-001
      1.5025915928348904e-001 1.7686401614055164e-001
      -8.2604629439455710e+000 2.3248304277152901e-001
      6.6189812130097114e-001 -6.2632346812336903e-001
      3.4031711689303390e-001 -1.5462170154519467e-001
      1.2215634049730101e-001 6.2548964825437847e-001
      -4.3882099978259870e-001 -6.1581374985533399e-001
      -6.2865254508773427e-001 -8.6719624304268786e-002
      -5.6725954698303127e-001 -4.8970354503487150e-003
      -1.9644531015466196e-001 -7.9189717349607280e-001
      -7.6716831716857801e+000 -1.0924499812629317e-003
      2.1659272345295819e-001 -6.2459016476801088e-001
      -1.1177772065194774e-001 2.9758201201801615e-001
      3.3507123049184417e-001 1.2571070663322499e+000
      -2.5439547532773599e-002 -6.6207415240272338e-001
      -4.6350323034060875e-001 1.5978216055241926e-001
      -3.0911790683173812e-001 -1.5968795795526217e-001
      -2.4211928033745686e-001 -2.7209633409949924e-001
      -5.8545266295925664e+000 6.9362903477921803e-002
      2.5180152617336288e-001 -4.3728668052693598e-001
      1.7786941182746493e-001 1.5078421412715615e-001
      -1.3334334645887541e-001 4.9864873506820528e-001
      7.2696210098647729e-001 -6.2139355770593141e-001
      -6.8053836435617543e-001 2.1444693560235450e-001
      2.2681056436652708e-001 -3.9744470815897215e-002
      -3.5153826464190088e-002 9.4141752994441760e-002
      -2.3078192979700169e+001 3.6561707767834539e-001
      -8.4624185389455472e-003 -7.8938516531412373e-001
      4.3063837815895328e-001 -1.6716167578829383e-001
      -9.1680644592275440e-001 -4.2459044903983895e-001
      -4.3013201824871539e-001 -9.7215263348071868e-001
      -3.1447526999693426e-001 3.5789649769097337e-001
      -5.0017718407808075e-002 -7.1591903469477525e-002
      4.0959971254791006e-001 -3.7814015946854240e-001
      -2.1008592161608160e+001 -4.8980008841400136e-001
      -5.4532448129038347e-001 -5.8999688541862472e-001
      1.8782594750642656e-001 -2.2876889419327789e-002
      -3.5564767482870718e-001 3.8164147069092602e-002
      -3.7343655076266030e-001 -1.7039168347981043e-001
      -5.5275719411068167e-002 -5.6296502827407868e-001
      1.7002081714437581e-001 -1.9219468421440519e-001
      6.8833728772722103e-001 -2.4049300340656879e-001
      5.0954567175562770e-001 1.7530058595560358e-001
      -5.9664689193842602e-001 -3.6945717171726189e-001
      -5.4356863167452925e-002 -1.0211223368022990e+000
      -5.6539382805804304e-002 -5.3420772603081390e-001
      1.4134560186874834e-001 4.3984148816103158e-002
      -1.5885471920405697e-001 -3.7450076072283972e-001
      3.2064988715891890e-001 -4.1765533550977491e-001
      5.2215273643029650e-002 -5.7559806092381161e-001
      -1.4354768534331408e+000 8.6469740336736045e-002
      -1.5417632420819960e-001 -3.3537561042581571e-001
      7.0351282868482501e-001 -1.7201789398819844e-001
      -4.2183290373211391e-001 2.4762003488264248e-001
      -7.0000437210275013e-001 6.1188961408222742e-001
      -2.7550604001260232e-001 -7.2761644176137585e-001
      -4.8018466577536867e-001 -2.4557761377181522e-001
      8.1492716059233827e-001 -9.7618864179770490e-002
      1.3483090857852185e+000 -9.4077602234620805e-002
      4.9399416356088777e-001 1.4021107263086249e-001
      4.5973693183996361e-001 -2.4522943155218871e-001
      -1.0059420111861712e+000 1.2652371667824264e-001
      5.5460676764046268e-001 -9.2002751498273402e-002
      -8.4492814149097054e-002 -2.6223707381734884e-001
      -1.9813690242516621e-001 -1.5486324267196971e-001
      -1.1554625358570182e-001 -1.9169446874164275e-001
      -5.8407188581105771e+000 2.9983179427461749e-002
      -2.0943566751676017e-002 3.4340516780286756e-001
      8.4873862056223026e-001 -4.8887132201226374e-001
      -4.0015893744651221e-001 -1.1560808022388454e-002
      5.0391757414607641e-001 -2.1700036957095287e-001
      -4.3111387312466487e-001 2.0181578432587644e-001
      -1.5815792606527196e-001 1.1266980798644544e-002
      -1.6591353575844808e-001 -2.3889482103595416e-001
      -3.1916364679803543e+001 7.3006213166451298e-002
      2.5606031542884361e-001 1.1493585452918989e-002
      9.0208582843408192e-001 -5.6810265114115166e-001
      -4.6753285645300258e-001 -7.5708817320656832e-002
      6.9526372149302806e-001 6.7650655131433979e-002
      4.6154067179068048e-001 6.2364189957298977e-001
      -3.7245630092439308e-001 2.7305568891603699e-001
      5.1990087332750246e-001 -1.5497317744828298e-001
      -3.1354744209663004e+000 -3.3581133984859868e-001
      -1.6943206849077166e-001 9.0760127427817294e-001
      6.1217787172409177e-001 -1.9506964883880554e-002
      3.9991746981967063e-001 -5.7248333646629923e-001
      -8.7768471765555023e-002 -3.2449974096755124e-001
      5.6919524975024016e-001 6.5942538233412451e-002
      -5.5131957504078388e-001 3.6715837636791826e-001
      -7.6782326043768800e-001 -9.1055162487244767e-001
      -1.2259112949041352e+001 -2.1767049300051280e-001
      -1.1718939179515840e-001 2.3235866089669346e-001
      6.4554813226341101e-001 -4.6715226382963765e-001
      4.8201779899824937e-001 5.4062617224950837e-001
      -4.4014657040336996e-002 6.3275917721793251e-002
      2.0814060215638411e-001 1.7731277987080035e-001
      -3.6871697480251475e-001 2.8067151120740291e-001
      -4.0663774919421347e-001 -8.2386309135204283e-001
      -1.7510282438014414e+001 -5.4853672605347070e-001
      1.6992673102490446e-001 3.3929372695356980e-002
      7.3770238918395270e-001 -5.6853560152922256e-001
      1.2691200412402921e-002 3.5748310490559355e-002
      -3.8799048291871080e-001 -2.1895418537361791e-001
      1.6762234619970759e-001 2.6700726658500817e-001
      -3.0252251662641527e-001 4.5709544163035493e-001
      -6.1102493431412463e-001 -5.5183579263796256e-001
      -2.7081245658053525e+001 -4.5871238680033982e-001
      2.5736646723700940e-001 5.5867543256951827e-002
      -1.3892067330228916e-001 8.9041393882138220e-002
      -9.2788943543125925e-003 2.3387695193420505e-001
      5.7985424149387521e-001 7.6574665144316512e-001
      1.3427432182412341e-001 -4.4910495634948666e-003
      1.8647773086474535e-002 4.7921879735836953e-001
      -2.6826658905778850e-001 5.0106177417656682e-003
      -6.3183815314160450e+000 -4.2056974653863693e-001
      4.5846682466962868e-001 6.3114739405387782e-002
      -2.4943283767924687e-001 5.8449879104012425e-001
      -3.4614688559127993e-001 -3.5685496847758867e-002
      5.1295142783635395e-001 5.5259479342235118e-001
      -1.6425240285468060e-001 5.1509766259171919e-002
      -1.0770647992487001e-001 1.8749659923260997e-001
      1.0950911016675201e-001 2.2192222379368928e-001
      -6.8210353786046918e+000 5.3354494692794996e-001
      -7.6758165064772177e-002 -6.3245846320103785e-002
      -2.9594637728240919e-001 4.5374335296172091e-001
      4.9645699903844501e-002 5.1240342810427386e-001
      1.8634770392567776e-001 2.4258605537043348e-001
      -1.0876507738888701e+000 -1.6308317746850837e-001
      -3.5659339772695747e-001 -1.8163086654304700e-001
      6.0172619815871942e-001 -8.7892933556012165e-001
      -1.4812590348140720e+001 4.6667310361903147e-001
      9.8920349677947869e-002 -2.7081644097902352e-001
      4.4061988155964404e-001 6.2009832845657309e-001
      -1.3235366929144018e-001 2.9276585916703501e-001
      2.8386525019657682e-001 -3.4598490029589041e-001
      -3.9849386606336340e-001 -5.7265871826652354e-002
      -4.9009908779507444e-001 1.4374596564303535e-001
      1.5611103901689555e-001 5.4515272638787526e-001
      -1.1094307870990688e+001 -5.0191121934233918e-001
      -3.0207086541848660e-001 -2.3189675956381292e-001
      -3.4616002881777347e-001 1.5653569504947135e-001
      2.4409939708051220e-002 6.2174795663770643e-001
      7.9347051528553675e-002 7.4700130427657363e-001
      -5.0639249621534133e-001 2.6483432507901178e-001
      -1.8835670432625451e-001 -1.0017305493186321e-001
      2.4219842961605906e-001 1.7109823524214865e-001
      -2.0122640424636788e+001 -6.5368668211929348e-001
      1.4641007928271599e-001 -6.5699469050060377e-001
      -2.7040228123880017e-001 3.8842378350058021e-001
      -1.6732222785276196e-001 -2.0415726067819864e-001
      1.6270367704678132e-001 -1.9703890154155169e-002
      -8.5210153579007478e-002 6.3971031364403830e-001
      2.4170832273966147e-001 4.7127262464207254e-001
      6.5917168407419180e-002 6.0065555615001764e-002
      -2.0644225017730630e+001 -5.8214202966410789e-001
      2.0365423299978247e-001 -3.7717330224429280e-001
      2.9280504237078908e-001 -3.1395160953802032e-001
      -3.8314233576136053e-001 -4.2315567327753978e-001
      -1.8991755798496107e-001 -5.6612538535560600e-002
      -4.0682478816547234e-002 5.3684183938509911e-001
      -3.0008900175244146e-001 4.0859912015478289e-001
      -8.3183436931131595e-004 1.7067233455376751e-001
      -2.7485189722517315e+001 -1.7839326926101609e+000
      1.0732618094116847e-001 -9.1956016398752893e-001
      -1.2756236161515511e-001 -5.1960029647300521e-001
      2.7713157884690737e-001 -2.4080252609063393e-001
      -8.4448428702537437e-001 -9.3321872016176421e-002
      -3.6846311240986679e-001 7.9673752708086226e-003
      7.3138980353780372e-002 -6.1289235308815235e-002
      2.6289000669272006e-001 5.9816616445957471e-001
      5.2289641654946148e+000 -4.4099231393953706e-002
      -8.1367356196020257e-001 -7.5529983375091536e-002
      -2.8469821631615083e-001 -1.3256418646974346e+000
      7.0827627670975696e-002 -9.0489766301137076e-001
      -2.8437524686009789e-002 -3.2360605773929968e-001
      -2.4468317786137828e-001 -1.5428428724951171e-001
      1.0548552225830785e+000 -1.0071050837165996e+000
      -6.0679645814735828e-001 -1.1841838775760674e+000
      1.3100430599448456e+001 1.8387393406595792e-001
      2.3205915235990134e-003 2.7589078181535981e-001
      1.2794955697938301e-001 -1.2694508881029298e-001
      -1.3349637397145273e-001 -1.6977181756632240e-001
      1.1184899351291280e-001 3.8668549980189570e-001
      6.7437488120798181e-002 -4.5709793795788434e-001
      9.0695862918239289e-003 -6.1420297123660694e-001
      1.0490382157962339e-001 -5.1461755532920650e-001
      1.6236605659179084e+001 -4.2736729484378333e-001
      -8.5264540751790532e-002 2.5876357980064735e-001
      1.4882780053106675e-002 2.7563948441618535e-001
      -1.6618603016061725e-001 -3.5956813508707192e-001
      2.5139739422043228e-001 5.7130044426871018e-001
      9.1701460601433527e-003 -1.2609534998785199e-002
      -4.4005455410276068e-001 -4.7028267881962532e-001
      6.2140891100565554e-001 1.5894834970762059e-001
      -2.9398917239898976e+000 -1.7859692680160352e-002
      -8.3767265209354277e-002 5.2586824530010190e-001
      -3.9232851041880973e-001 6.3511684725330186e-001
      -6.2137032943484394e-001 -3.9491631268890665e-001
      8.9660876079463395e-002 3.8315104532886141e-001
      -2.3944942180577491e-001 -1.7870416362468125e-001
      1.1988962774963688e-001 -8.5219336085800113e-001
      -4.2798380939793645e-001 -2.7255000201743829e-001
      -2.5553760002890655e+001 -1.9851463106925926e-001
      -1.6369665194947575e-001 -6.3677160326927107e-002
      -3.0593419213203044e-001 6.7104414247937016e-001
      -6.0328726748320904e-001 3.4813578882011442e-001
      7.3575071048275098e-001 4.2745580347267709e-001
      -2.8142913868720854e-001 -6.7738887523644975e-001
      -3.5083003264887624e-001 -5.4476868272653511e-001
      -2.7815920838246511e-001 -9.6456134980335095e-001
      -1.7037513141422036e+001 -4.9634037404950293e-001
      -6.8368894748273734e-002 6.1574380531606132e-002
      1.9716227361261257e-001 -7.4436665149856682e-002
      -6.5451873031565105e-002 -5.4829841582259775e-001
      -5.5075806658656146e-001 4.0908391765129087e-001
      1.8200324786161109e-001 -7.8412422259537840e-001
      -6.1433011761452501e-002 -7.3290625146569574e-002
      2.7343312721127395e-003 -4.2115969883239052e-001
      -2.5163880220461792e+001 6.5191484735036587e-001
      2.4212484138566606e-001 -3.6102308134151201e-001
      3.7205498546226645e-001 -3.6772157037899367e-001
      -5.2923607450962762e-001 -4.7688458341439138e-001
      3.0843463254796505e-001 -2.0072585183652755e-001
      -1.1727739127012410e-001 -1.6873437576652217e-001
      4.4868162406810297e-001 1.4865645563115315e-001
      -2.3184583249964719e-001 -6.3048221719461950e-001
      -3.0193332305738018e+001 8.4635303612116597e-001
      2.9945904705016620e-002 -1.7107823082588108e-001
      3.2170727220319084e-001 1.4369127120970074e-001
      -1.3650338846988216e-001 3.7042000326880914e-001
      4.1228263589015141e-001 1.1864767521657939e-002
      -3.9743912703406581e-001 -3.6008552703616087e-001
      3.4706649858188848e-001 2.5720371727670127e-001
      -5.2651153357717562e-001 -1.7192870970041396e-001
      -2.9049645102562870e+001 3.0214770884024805e-001
      -4.4759958162404667e-001 -5.1763967180801229e-001
      -2.4066106256568154e-001 3.1049644207462795e-001
      5.1298466353341521e-001 2.1982104865054669e-001
      1.7293744049450757e+000 1.9302070374610741e-001
      -8.5233025512805177e-003 -6.2811609254231915e-001
      8.3180522970987514e-001 -6.6317300798593548e-002
      -4.8419905007603015e-002 2.3506666702910647e-001
      -2.4900638198594429e+001 2.1826343939818782e-001
      -5.2437649358242389e-001 -4.0410132761538703e-001
      -4.3391901558699103e-001 3.0187822402738262e-001
      3.0102450853367324e-001 1.8836624026717164e-001
      8.6070186237659663e-001 3.8403550637873589e-002
      4.4615229828934172e-001 -4.4485897484285129e-003
      9.8300199195969529e-001 -4.6578397193503943e-002
      -1.1647644963085665e-001 1.5626845682565332e-001
      -1.9126620272694822e+001 -7.3203559582383115e-001
      1.7044254384735993e-001 -1.5250162735594805e-001
      4.5336091938124817e-001 1.0315514534072390e-001
      4.1707001521758824e-001 -5.5465377641155422e-001
      -5.3993375104790842e-001 -2.0038015637031786e-001
      3.9540315081818276e-003 6.9645714989591168e-001
      3.8993791196085326e-001 1.7377646432975835e-001
      4.0772955121182369e-001 1.2652133747343855e-001
      -1.9189555213276641e+001 -2.0955046606545452e-001
      9.7495711075258645e-002 -4.0040465427608324e-001
      2.2303178778692906e-001 1.2250218889965096e-001
      7.1890606557242609e-002 -1.2498968422658824e-001
      -8.1357724222224384e-002 -3.9016658807960619e-001
      -7.5545825382075424e-002 -1.1025232047699342e-002
      6.4840930006202890e-001 -3.8755447647922980e-001
      3.8848520669057979e-001 5.3271032831191933e-001
      -4.0263880515880267e+001 5.7059043839868062e-001
      -4.5459489546862114e-001 -7.5552001627087650e-001
      1.2874642091892183e-001 1.4378280275976879e-001
      -1.3450868535923377e+000 -1.7675507691942741e-001
      1.4036557529518415e-001 -8.4432283505230987e-001
      2.4237339983567097e-001 4.0512372046319189e-001
      6.8053270772993990e-001 1.0502483188392790e-001
      -2.0606358672019515e-001 4.5670598965573728e-001
      -4.4858140682288266e+001 7.1970742934199550e-001
      1.0400333131511414e-002 -7.4381565713762018e-002
      -1.8329531855808170e-001 2.4668138735190476e-001
      -8.8270419620454021e-001 -2.1165040369567265e-002
      -1.0449054453447792e-001 -3.5243031585139978e-001
      -1.4201791633175698e-001 9.2024178136218548e-002
      7.8796822702487779e-002 4.5265589928305178e-001
      1.4298449943652702e-001 -3.0409631161164974e-001
      -3.5927656788746539e+001 -5.3499384559451824e-001
      -1.8839929411627152e-003 4.4109710637381677e-001
      3.3312865862574220e-001 1.9434037666791928e-001
      -6.2805883402674390e-001 7.1567069747251605e-002
      -7.0003537367798063e-001 5.3349289644105269e-001
      -4.7243355181898761e-001 -6.5320394083332944e-001
      -7.4666330633518152e-001 4.4032868530462660e-001
      7.9120571895090877e-002 2.6729255272510588e-003
      -4.1100820971578244e+001 -4.4527360632418905e-001
      2.9177434935070684e-001 3.1464607772780130e-003
      -1.6946913356830427e-003 -1.5660971296977355e-001
      -8.5521562016932728e-002 -1.7128382096810918e-002
      -5.0472209720469974e-001 -2.1325906196249278e-001
      -1.1200468864311322e-001 -2.9785500316649960e-001
      -8.7299245242598536e-002 1.4070460947203531e-001
      1.0562615763908963e-001 1.1275499215702331e-001
      6.4270930738022356e+000 2.5690615486450324e-001
      -6.3657701444652615e-001 3.8757740971346960e-001
      -1.7215355170839122e-001 -8.4648677667819394e-001
      -1.5539166149181768e-001 -2.1003771357393738e-001
      -3.1039125419606822e-001 4.2856705114619942e-001
      1.0458662678760196e-001 3.9468810028410574e-003
      9.3244471032242549e-001 -1.6748444487193279e-001
      -1.4482798142703276e-001 -5.7310643495661384e-001
      1.3267152028473163e+001 2.3251990201881839e-001
      -2.5326298516916168e-001 3.9606368554895277e-001
      1.0606781975283155e-001 -1.6495937865981536e-001
      -2.2926027961236956e-001 3.1369604573816234e-001
      7.3375245139682865e-001 -9.9615393410119366e-002
      4.6450858691442602e-002 -5.1097799567088331e-001
      6.1002523365484104e-002 -1.6298037315160244e-001
      8.3647200460241933e-001 -6.2674182559946878e-001
      2.1538035775511059e+001 -1.3030312025331250e-001
      -5.4917250630351772e-002 2.4529927649680230e-001
      -2.4356296031824456e-001 1.9285107171442922e-001
      -1.4859317581612924e-001 1.9946029741262161e-001
      5.2017787647445191e-001 -5.5318855076619988e-001
      -1.8512674518181110e-001 9.6439546676293716e-003
      3.6996799988577321e-002 -1.6820151383573528e-001
      -1.0677572646257399e-001 -1.7628307214902336e-001
      -3.5923800128780936e+000 2.9524711631638534e-001
      4.2046280879818498e-001 3.7491936934511014e-002
      -1.7601759144037474e-001 2.8453913570452000e-001
      -4.4216978842085453e-001 2.6562434209405511e-001
      -3.4083259479959260e-001 -5.1191348644097423e-001
      -1.8595302465111202e-001 -3.8346775328146554e-001
      1.0174327303226184e-002 -3.0463618828415506e-001
      -3.8877484368446358e-001 -2.1515037967050588e-001
      -2.2019462197175450e+001 5.0074012358933218e-001
      4.2060839809589579e-001 -7.0969203213613372e-002
      -2.8978232234767098e-001 4.6761631303919066e-001
      -5.1297943612652486e-001 1.3366633811118021e-002
      6.9541803191143770e-001 -5.1161239916180390e-001
      -5.9112091802107558e-001 -3.8213683931285064e-001
      2.0579944927515345e-001 -4.1442840876089515e-001
      2.6122092515740703e-002 -2.6129488792878713e-001
      -7.7928075805312069e+000 -4.5049795939753980e-002
      5.4101217275271740e-001 8.9986610313963072e-002
      -3.6296553730350706e-001 1.7280116684306915e-001
      -3.0612839874700221e-001 -1.0789660627318245e-001
      2.6644608422562915e-001 2.8917133288540880e-001
      -2.6341138187907071e-001 -6.4031199454408916e-001
      4.9529470251988500e-001 -1.7830430023537733e-001
      -6.1114236816710910e-001 -1.2780721251232091e-001
      1.1919139018143774e+001 5.3865754233633423e-001
      4.4361004045646685e-001 -4.6711833479209564e-001
      -2.9352428622315280e-001 -1.8282777456705004e-001
      -8.7585223570615278e-001 5.5978174723400931e-001
      1.9190828770655788e-001 4.5320225867290453e-001
      5.2440447036544963e-002 -9.0115600066282081e-002
      -3.2791054154477868e-002 4.2307879433915986e-002
      1.0644823585247074e-001 -2.3069481450026250e-001
      -2.3442334744626585e+000 8.7642277300137239e-001
      2.0511352787263890e-001 -2.9413575069456804e-001
      -2.0996206848517140e-001 3.5596784576279572e-001
      -4.1984820586622473e-001 1.2081373845929511e+000
      4.7059869904466917e-001 6.0861401966009705e-002
      -5.9518035958208937e-001 -6.5718925592929167e-001
      -2.2081112588573498e-001 -3.8385642548452809e-001
      1.0819603547783345e-002 -7.1938091564765128e-001
      -1.6247779491353569e+001 -1.0452402527728849e-001
      4.8286936126437835e-002 -6.1268149844739783e-001
      1.2621105585444209e-001 9.0197022389949519e-002
      3.1251961360134878e-001 -1.0993302243668193e-001
      7.6047741954123849e-001 -2.7888003336353445e-001
      -3.5339008367368707e-001 -3.8926421065628541e-001
      -3.5317576917004809e-002 -5.3148930265655003e-001
      1.2149380195956291e-001 3.9591001955309724e-001
      -2.2664399034449950e+001 -9.4121838251786749e-001
      -2.7367399421086280e-001 -8.8734349323175121e-001
      5.8959667803679457e-002 -3.0633148092490264e-001
      -7.0609049975830632e-002 -7.4189034293393030e-001
      -1.9199505846352541e-001 -6.7508787394631309e-001
      7.2361949230082004e-002 8.7118261618750337e-001
      3.0495558965547148e-001 -5.2707845437998024e-001
      -3.9403951443841556e-001 5.2897516796110711e-001
      -1.6377297471109710e+001 -7.1752114857097149e-001
      -2.5563864856677582e-001 -7.1058419728724387e-001
      -4.4291597540696653e-001 -5.8775752110313284e-001
      6.9712774398179411e-002 -4.1762168975318970e-001
      -9.4945096800594792e-002 -8.9877346040680373e-001
      2.3620208915650853e-001 1.1745360030118144e+000
      5.9047302915016131e-001 -1.8986213675150679e-001
      1.2333044951681674e-001 6.5628720278864761e-001
      -1.1302978516368253e+001 -3.5629221295904195e-001
      -3.4837882298303813e-001 -2.7745359883767728e-001
      1.7748065195641805e-001 -2.5665253110302899e-001
      4.0508721512236900e-001 -5.1753609671151679e-001
      -5.4148341536532274e-001 -1.2449901148051474e+000
      3.5424917722619220e-001 6.5560841515493906e-001
      1.2382312654627963e+000 -1.6666355279626349e-001
      7.4176478055465983e-002 3.1383574002169629e-001
      -2.4704418138112370e+001 3.8096537133588387e-001
      -1.2266994506101173e-001 -5.5740493033685823e-001
      3.6774703337227688e-001 6.1359067793685253e-002
      -3.8848168691045104e-001 -1.3320756580842631e-002
      -2.9511579317218400e-001 -4.0752739716151559e-001
      -6.5459586509834111e-001 6.5340270718510474e-001
      6.5434004620954689e-001 -5.1292543938643309e-001
      1.6052209264217918e-001 -3.1561889145342215e-001
      -3.2629896102764810e+001 -1.7340292643707991e-001
      1.6074170262109938e-001 2.0481606982389949e-001
      4.4245943158089496e-002 5.1350688441087056e-001
      -2.2954399301881725e-002 1.0493918936384844e-001
      4.5751380433574651e-001 -4.0681289909972779e-001
      -8.2812271812862812e-002 -5.3962395952030828e-001
      6.5079626865715445e-001 -3.2193541816051735e-001
      1.3265795503621197e-002 -2.9457604386875019e-001
      -3.2184374632872064e+001 8.2184192287984903e-001
      -1.1215095377663960e-001 5.0351799127659191e-001
      -1.2385016903371000e-001 -7.8859982508997312e-002
      -1.2143498090209839e-001 2.2667372180433001e-001
      5.6165351324244661e-001 -5.3708783147225869e-001
      -2.0852645355442753e-001 -8.0767094891362201e-001
      -1.0923315762298931e-001 4.3727030223846725e-001
      1.0533265569625733e-001 -1.0904828089823902e-002
      -3.7425265160836268e+001 9.0771008357340732e-001
      1.0783235372222960e-001 6.0753479904061458e-001
      -1.8209719918704656e-001 1.0753550124598073e-001
      -4.1226400330505575e-001 3.2646535893120116e-001
      -5.3244288981885074e-002 -5.6229975789073849e-002
      -6.6782693124977544e-001 -4.2191565528212245e-002
      -1.9305303241621929e-001 -1.9091270987424941e-001
      3.2475439461874683e-001 2.5963862692158290e-001
      1.0901775453281173e+001 -4.5886896255628762e-001
      1.1025092207566489e-002 -6.9775337122655018e-002
      2.6336624191582531e-001 -4.3291511796342180e-001
      -1.3941371176368189e-001 -1.6296092173995556e-002
      -3.0434005039862272e-001 5.8570683116266620e-001
      2.2790278906922515e-001 -1.6610472876046803e-001
      7.3170926458885466e-001 -9.9940048216024091e-002
      -1.8594907511163913e-001 -7.1877597381236080e-001
      1.5476266633581423e+001 5.3506201318519897e-001
      4.2928545611640966e-002 3.1372505702322140e-001
      -1.6890216184864054e-002 -2.3380287707116025e-002
      -2.2681863005724837e-001 -1.1922661907706342e-001
      3.7206676841415115e-001 2.4866997934093235e-001
      -2.2289280107021404e-002 -7.8222092758178666e-002
      2.1381575157848937e-001 1.4856005532562794e-001
      2.1741289163299843e-001 -1.6353950960530256e-001
      2.0987245363883954e+001 5.1724552855981776e-001
      -7.5758607617839546e-001 -4.0718492853984090e-001
      -3.7632328636474738e-001 5.7569279881156774e-002
      -2.0053059237731308e-001 -1.9767813951231791e-001
      5.0380991330274427e-001 3.4361358141884485e-002
      -1.8821910354878896e-001 1.9981042676397889e-001
      1.2409980782951149e-001 2.0586342927729961e-001
      -6.3331364503901810e-002 4.5675832175867825e-001
      1.7352888585492465e+001 -3.3444862770947943e-002
      -6.8842820928757376e-002 4.1154409236893769e-001
      -5.0989675155219771e-001 3.7752045652432642e-001
      -1.6915943534617808e-001 9.5409911982905174e-002
      7.1523817683295354e-002 5.2462705892864492e-001
      1.2079186723001775e-001 3.6638297492399791e-001
      4.1949868057858397e-001 -1.0996947230977502e-001
      -2.7125026351852782e-001 -2.7366641647867535e-002
      6.9091337283266432e+000 1.3436898455640786e-001
      -2.8331571952406792e-001 6.8586193480401556e-002
      -4.3566016597245855e-001 6.2309627245561161e-001
      -7.2813380043823525e-002 -1.0796240782616224e-002
      6.4807425443882605e-001 9.3653850830777499e-002
      -1.3541029588726086e-001 -1.9633367946051059e-001
      1.1972799175331134e-001 4.7300339530612734e-001
      -3.8684254625619025e-001 -3.2027417029857758e-001
      2.3205226454625265e+001 -1.9836934674639392e-001
      -4.5624868157734483e-001 -3.5591346503616778e-001
      3.1986855477817551e-002 4.8917417669070773e-001
      2.6653601127178406e-001 -3.7111444634820651e-001
      -3.1018183427892215e-001 -8.5069378753449484e-002
      3.8058708396774021e-001 -4.7619665506034442e-001
      5.2854159096343167e-001 5.2649046687290380e-001
      -3.1184686557782226e-001 -6.7562950091134152e-002
      5.4948952586288961e+001 -5.0777037689707497e-002
      -2.1266031172551755e-001 3.5658436099717067e-001
      -4.0222385513437020e-001 1.6374847332391569e-003
      -2.0358418241450779e-001 1.0208861957091908e+000
      7.4660458710662936e-001 -3.8461095691795472e-001
      -2.2205721259624916e-001 1.8352878871747383e-001
      1.9152315609654144e-001 1.5714757217720221e-001
      2.7141549933451303e-001 -3.0798232514651469e-001
      4.5771185161111347e+001 -1.7756040659304090e-001
      1.9133665292524660e-001 2.2583495221016628e-001
      -2.5364096032219152e-001 2.2977739516710241e-001
      -3.8290020935416447e-001 -3.3591979958394524e-001
      -2.5605618959098042e-001 -9.3718762990381943e-001
      -1.9892676877395873e-001 -7.3788283538341481e-001
      -3.1851738465052620e-001 -5.6327990553660195e-002
      -1.3279964033821773e-001 1.0572308381047082e-001
      1.1884392551851798e+001 -2.7921992342158630e-001
      1.0932884807875110e-001 2.0051884316196217e-001
      3.7524161108915816e-001 3.4333840896420176e-001
      1.4970899723734782e-001 5.2374335692287818e-002
      -4.5057184414903792e-002 -5.7985871474424755e-001
      -5.9570900730448484e-001 -9.9410258006787555e-001
      -9.1191168458958180e-002 -4.1900613135588832e-001
      -2.2565307825853625e-001 5.0658946441048536e-001
      6.6554989413783971e+000 -3.0904866928618679e-001
      -1.7229456526852574e-001 2.1127976473075344e-001
      -1.2212011727962259e-001 9.1540003998642594e-002
      4.4482071634103360e-001 -6.1247553766585450e-001
      -3.4568423412309890e-001 -9.2967746938433660e-001
      -4.6033762483748741e-001 -1.0783339607646985e+000
      -1.9434083721215009e-001 -1.6942412678491367e-001
      -1.0777680628548510e-001 6.0422804178163625e-001
      1.5358995552352146e+001 -4.3542177865261274e-002
      -3.2248743909781143e-002 2.7493727053219646e-001
      -1.4038353819626065e-001 -1.8974692510912139e-001
      7.4877610982802612e-001 -5.7057114768446171e-001
      -1.2836380638409006e-001 -4.7775468419447226e-001
      9.1726108955110339e-002 -2.5900776745624361e-002
      -2.1717484356163699e-001 -3.0496518590798832e-001
      3.2777830853228684e-001 7.6768433457414187e-001
      9.6798646290348138e+000 8.9569067336306485e-002
      -5.3258489203918946e-001 -2.0978953289638180e-001
      -8.2721272377772537e-001 -6.4722190792822076e-001
      9.1542941652631116e-001 3.4296096161262585e-001
      3.8087412507948737e-001 -7.3187672313973329e-001
      1.1615034627843092e-001 -5.3738201483419279e-001
      6.9419396544182699e-001 -4.7110088457404742e-001
      -5.0793135029823089e-001 3.7501708459559258e-001
      1.9094335037436938e+000 3.4440782228229805e-001
      1.5341803307276384e-002 -6.0911792270679654e-001
      -1.4756080270958946e-001 -8.1170215731705098e-001
      1.6144789191270734e-001 4.6412244629005416e-002
      4.4160996546045217e-001 -7.7625223606256843e-001
      7.1291805177989206e-002 1.9661038243674336e-002
      1.0301534257221370e+000 -1.1714772912258604e+000
      -5.8883743520368448e-001 3.3178306980127292e-001
      -7.1562809553980022e+000 3.1660518274111965e-001
      -7.8856806312294594e-002 2.9785428143654664e-002
      2.4204331776592031e-001 -3.7084798593768575e-001
      -3.3870268562672379e-001 -4.3907163673640320e-001
      5.3054091810166015e-001 -9.1787101231540547e-001
      -5.8078197532274167e-001 -2.0214385908546337e-002
      8.2533166130723801e-001 -7.7734611440506074e-001
      -6.0349146700175937e-001 3.7586962034681060e-001
      -4.4967967881648319e+000 -2.7788064939145179e-001
      -6.6534257083030032e-003 7.0425451173127096e-001
      1.5016783008436721e-001 2.9757106715536434e-002
      -1.7852601008094096e-001 -1.0745803830908499e-001
      7.8557729772620843e-001 4.5725102163106929e-001
      2.1307980737944837e-001 -6.4917448258013308e-002
      9.4891537707968432e-001 -4.8709324591366682e-001
      -1.3769905809305474e-001 2.1328527512414819e-001
      -1.8200027291498021e+001 8.7615301868905282e-001
      5.6651960933973650e-002 1.3984378023149571e-001
      -4.8728619082464364e-001 5.5285628683624723e-002
      1.9784110538541450e-001 6.6812270952667097e-001
      2.3917014800428296e-001 2.3304314050780628e-001
      -2.2392248739724385e-001 1.7706193628580752e-001
      1.0244991363667155e+000 1.5900698429461993e-003
      -2.4275353562409559e-002 2.8419861618216630e-001
      1.0436324163508994e+001 -1.0147408354722791e-001
      -6.3387078488163998e-003 4.1103583788475334e-001
      -1.8099565954345995e-001 -4.4016344049050515e-001
      -2.1349701318350825e-001 1.2381427546726544e-001
      -6.3479249335023624e-001 6.3338791828370233e-001
      9.1170639215449184e-002 -1.5919718810602887e-001
      1.2623301324131466e+000 1.5585834230449938e-001
      -2.1668133381317409e-001 -2.6987581812749234e-001
      2.3552510101839673e+001 1.4568257145804264e-001
      4.4486856026360072e-002 -3.1500630933705703e-001
      5.1833288257862142e-001 -1.8725223199447946e-001
      -2.7047769066544821e-002 -4.8585717757720676e-001
      -4.5190845857587775e-001 4.5771866939134420e-001
      -3.8002086272930446e-001 -2.5945723049468022e-001
      7.2356115994719883e-001 -1.7624979180203307e-001
      -3.5969730888012785e-001 -5.3727067157466578e-002
      2.2375562990585102e+001 -5.6418569024692933e-001
      1.5717936390849946e-001 -6.5088120822730577e-001
      4.5517655747706509e-001 -2.4635408456091090e-001
      2.7298172981075758e-001 1.9109595745121852e-001
      3.3304614064177523e-001 -1.1827716540623905e-001
      -3.9588656827188201e-001 -2.5652794114363270e-001
      6.7032364965123914e-001 -7.5000044775907460e-001
      -3.3622949454643442e-001 -1.7314103420170784e-001
      8.8425529794369027e+000 3.8829289059810745e-001
      3.9670725800106554e-002 2.6237821703890962e-001
      4.1260666000601837e-001 -8.6436235363894134e-003
      1.6298486679700669e-001 -3.7210369304856272e-001
      -1.0096096824871215e-002 -6.1507013308448433e-001
      -3.6982379663355097e-001 -4.8520060343380478e-001
      5.7396588927480241e-001 -2.6327110739716902e-001
      5.9655564862767607e-001 3.7971336513393134e-001
      -3.0244954046758830e+000 1.6264451261958496e-001
      -1.2217510481773151e-001 4.2604543929448518e-001
      -7.0169070833962810e-001 1.0189373388819346e-001
      4.4053268103705528e-001 -4.2788968113282838e-001
      -6.8563627571372465e-001 7.2948936386071708e-002
      -2.3584020973201308e-002 -3.8305273255826344e-001
      3.7674046651342963e-001 2.7373710028414094e-001
      5.2092302118513167e-001 4.0763698597458292e-001
      4.1195763782925727e+000 3.5536823254535349e-001
      -3.3105886279192431e-001 -1.5629587654613802e-001
      -1.1422458583843706e-001 2.6936832398377181e-001
      2.0072326377875563e-001 -6.0781089223163765e-001
      -2.8558530361694323e-001 -3.5877141274288449e-001
      4.7784629832670156e-001 -1.2535105582391828e-001
      6.5176174384899321e-001 3.3639917466400338e-001
      8.0938194730912394e-001 -1.1218407352149838e-001
      1.0120168775584228e+001 2.1741064179943023e-001
      3.7836695596492348e-001 4.7376827246783701e-002
      3.8063753057694333e-001 1.9442309811185354e-001
      -6.0574563300519280e-001 1.9064371256163884e-001
      2.2815850777701768e-001 5.3488152450860038e-001
      2.5252256904413750e-001 6.1915246630093179e-001
      2.4189816512117415e-001 2.0815345546910606e-002
      7.4875547743783566e-001 -2.4070925220925685e-001
      6.4665069831863962e+000 2.5940184061430582e-001
      3.8199123005883795e-002 2.3092424954429723e-002
      -2.1735953069482238e-002 1.5249711411108155e-001
      -3.8430961718530599e-001 -3.0222514184932919e-001
      1.7443333219471790e-001 -3.4403738774505055e-001
      3.9906061029355838e-001 1.7501216451506990e-001
      1.2965261899881172e-002 2.1289295784202092e-002
      -1.6719553678422397e-001 4.5395056242601489e-001
      -1.7490743027575917e+001 -6.4208385464742990e-001
      -1.8023561538780636e-001 1.3616399245585134e-001
      3.6147548856758432e-001 1.2684047837535184e+000
      2.9245148513188635e-001 -3.8951985470503586e-001
      -1.9309919028253439e-001 -8.7580765399879867e-001
      2.8562205916143468e-001 -9.2695401112299569e-002
      -3.2063312341082556e-001 -9.6504734370333814e-002
      -1.5681501890381419e-001 -2.7576517669856515e-001
      -1.8218804451877634e+001 -1.2863775055059836e-002
      -1.0681427879424304e-001 8.5309204017985613e-002
      -4.3781965567846515e-001 8.5964320457912535e-001
      2.3870220600631670e-002 -7.8322753837426814e-003
      5.2453932158412618e-002 -4.4958047446189026e-001
      3.9577546520474827e-001 -2.0152649587920562e-001
      -4.3533077001172155e-001 -1.2643049560854822e-001
      -1.4758576817473293e-001 -6.7080248135838483e-001
      -1.3563825693667384e+001 -2.0366084530090869e-001
      -2.7121110024766126e-001 -2.3446746372324831e-001
      -1.1053254822953414e-001 1.1127317389372331e-001
      6.5912042402324886e-002 -5.2677102353674579e-002
      4.9812361181670145e-001 -1.3378561435168049e-001
      2.3455345352902135e-001 2.3487641936393350e-001
